1 0.69187
-1 0.30813
2 1.0
-2 1.0
3 1.0
-3 1.0
4 1.0
-4 1.0
5 1.0
-5 1.0
6 1.0
-6 1.0
7 1.0
-7 1.0
8 1.0
-8 1.0
9 1.0
-9 1.0
10 1.0
-10 1.0
11 1.0
-11 1.0
12 1.0
-12 1.0
13 1.0
-13 1.0
14 1.0
-14 1.0
15 1.0
-15 1.0
16 1.0
-16 1.0
17 1.0
-17 1.0
18 1.0
-18 1.0
19 1.0
-19 1.0
20 1.0
-20 1.0
21 1.0
-21 1.0
22 1.0
-22 1.0
23 1.0
-23 1.0
24 1.0
-24 1.0
25 1.0
-25 1.0
26 1.0
-26 1.0
27 1.0
-27 1.0
28 1.0
-28 1.0
29 1.0
-29 1.0
30 1.0
-30 1.0
31 1.0
-31 1.0
32 1.0
-32 1.0
33 1.0
-33 1.0
34 1.0
-34 1.0
35 1.0
-35 1.0
36 1.0
-36 1.0
37 1.0
-37 1.0
38 1.0
-38 1.0
39 1.0
-39 1.0
40 1.0
-40 1.0
41 1.0
-41 1.0
42 1.0
-42 1.0
43 1.0
-43 1.0
44 1.0
-44 1.0
45 1.0
-45 1.0
46 1.0
-46 1.0
47 1.0
-47 1.0
48 1.0
-48 1.0
49 1.0
-49 1.0
50 1.0
-50 1.0
51 1.0
-51 1.0
52 1.0
-52 1.0
53 1.0
-53 1.0
54 1.0
-54 1.0
55 1.0
-55 1.0
56 1.0
-56 1.0
57 1.0
-57 1.0
58 1.0
-58 1.0
59 1.0
-59 1.0
60 1.0
-60 1.0
61 1.0
-61 1.0
62 1.0
-62 1.0
63 1.0
-63 1.0
64 1.0
-64 1.0
65 1.0
-65 1.0
66 1.0
-66 1.0
67 1.0
-67 1.0
68 1.0
-68 1.0
69 1.0
-69 1.0
70 1.0
-70 1.0
71 1.0
-71 1.0
72 1.0
-72 1.0
73 1.0
-73 1.0
74 1.0
-74 1.0
75 1.0
-75 1.0
76 1.0
-76 1.0
77 1.0
-77 1.0
78 1.0
-78 1.0
79 1.0
-79 1.0
80 1.0
-80 1.0
81 1.0
-81 1.0
82 1.0
-82 1.0
83 1.0
-83 1.0
84 1.0
-84 1.0
85 1.0
-85 1.0
86 1.0
-86 1.0
87 1.0
-87 1.0
88 1.0
-88 1.0
89 1.0
-89 1.0
90 1.0
-90 1.0
91 1.0
-91 1.0
92 1.0
-92 1.0
93 1.0
-93 1.0
94 1.0
-94 1.0
95 1.0
-95 1.0
96 1.0
-96 1.0
97 1.0
-97 1.0
98 1.0
-98 1.0
99 1.0
-99 1.0
100 1.0
-100 1.0
101 1.0
-101 1.0
102 1.0
-102 1.0
103 1.0
-103 1.0
104 1.0
-104 1.0
105 1.0
-105 1.0
106 1.0
-106 1.0
107 1.0
-107 1.0
108 1.0
-108 1.0
109 1.0
-109 1.0
110 1.0
-110 1.0
111 1.0
-111 1.0
112 1.0
-112 1.0
113 1.0
-113 1.0
114 1.0
-114 1.0
115 1.0
-115 1.0
116 1.0
-116 1.0
117 1.0
-117 1.0
118 1.0
-118 1.0
119 1.0
-119 1.0
120 1.0
-120 1.0
121 1.0
-121 1.0
122 1.0
-122 1.0
123 1.0
-123 1.0
124 1.0
-124 1.0
125 1.0
-125 1.0
126 1.0
-126 1.0
127 1.0
-127 1.0
128 1.0
-128 1.0
129 1.0
-129 1.0
130 1.0
-130 1.0
131 1.0
-131 1.0
132 1.0
-132 1.0
133 1.0
-133 1.0
134 1.0
-134 1.0
135 1.0
-135 1.0
136 1.0
-136 1.0
137 1.0
-137 1.0
138 1.0
-138 1.0
139 1.0
-139 1.0
140 1.0
-140 1.0
141 1.0
-141 1.0
142 1.0
-142 1.0
143 1.0
-143 1.0
144 1.0
-144 1.0
145 1.0
-145 1.0
146 1.0
-146 1.0
147 1.0
-147 1.0
148 1.0
-148 1.0
149 1.0
-149 1.0
150 1.0
-150 1.0
151 1.0
-151 1.0
152 1.0
-152 1.0
153 1.0
-153 1.0
154 1.0
-154 1.0
155 1.0
-155 1.0
156 1.0
-156 1.0
157 1.0
-157 1.0
158 1.0
-158 1.0
159 1.0
-159 1.0
160 1.0
-160 1.0
161 1.0
-161 1.0
162 1.0
-162 1.0
163 1.0
-163 1.0
164 1.0
-164 1.0
165 1.0
-165 1.0
166 1.0
-166 1.0
167 1.0
-167 1.0
168 1.0
-168 1.0
169 1.0
-169 1.0
170 1.0
-170 1.0
171 1.0
-171 1.0
172 1.0
-172 1.0
173 1.0
-173 1.0
174 1.0
-174 1.0
175 1.0
-175 1.0
176 1.0
-176 1.0
177 1.0
-177 1.0
178 1.0
-178 1.0
179 1.0
-179 1.0
180 1.0
-180 1.0
181 1.0
-181 1.0
182 1.0
-182 1.0
183 1.0
-183 1.0
184 1.0
-184 1.0
185 1.0
-185 1.0
186 1.0
-186 1.0
187 1.0
-187 1.0
188 1.0
-188 1.0
189 1.0
-189 1.0
190 1.0
-190 1.0
191 1.0
-191 1.0
192 1.0
-192 1.0
193 1.0
-193 1.0
194 1.0
-194 1.0
195 1.0
-195 1.0
196 1.0
-196 1.0
197 1.0
-197 1.0
198 1.0
-198 1.0
199 1.0
-199 1.0
200 1.0
-200 1.0
201 1.0
-201 1.0
202 1.0
-202 1.0
203 1.0
-203 1.0
204 1.0
-204 1.0
205 1.0
-205 1.0
206 1.0
-206 1.0
207 1.0
-207 1.0
208 1.0
-208 1.0
209 1.0
-209 1.0
210 1.0
-210 1.0
211 1.0
-211 1.0
212 1.0
-212 1.0
213 1.0
-213 1.0
214 1.0
-214 1.0
215 1.0
-215 1.0
216 1.0
-216 1.0
217 1.0
-217 1.0
218 1.0
-218 1.0
219 1.0
-219 1.0
220 1.0
-220 1.0
221 1.0
-221 1.0
222 1.0
-222 1.0
223 1.0
-223 1.0
224 1.0
-224 1.0
225 1.0
-225 1.0
226 1.0
-226 1.0
227 1.0
-227 1.0
228 1.0
-228 1.0
229 1.0
-229 1.0
230 1.0
-230 1.0
231 1.0
-231 1.0
232 1.0
-232 1.0
233 1.0
-233 1.0
234 1.0
-234 1.0
235 1.0
-235 1.0
236 1.0
-236 1.0
237 1.0
-237 1.0
238 1.0
-238 1.0
239 1.0
-239 1.0
240 1.0
-240 1.0
241 1.0
-241 1.0
242 1.0
-242 1.0
243 1.0
-243 1.0
244 1.0
-244 1.0
245 1.0
-245 1.0
246 1.0
-246 1.0
247 1.0
-247 1.0
248 1.0
-248 1.0
249 1.0
-249 1.0
250 1.0
-250 1.0
251 1.0
-251 1.0
252 1.0
-252 1.0
253 1.0
-253 1.0
254 1.0
-254 1.0
255 1.0
-255 1.0
256 1.0
-256 1.0
257 1.0
-257 1.0
258 1.0
-258 1.0
259 1.0
-259 1.0
260 1.0
-260 1.0
261 1.0
-261 1.0
262 1.0
-262 1.0
263 1.0
-263 1.0
264 1.0
-264 1.0
265 1.0
-265 1.0
266 1.0
-266 1.0
267 1.0
-267 1.0
268 1.0
-268 1.0
269 1.0
-269 1.0
270 1.0
-270 1.0
271 1.0
-271 1.0
272 1.0
-272 1.0
273 1.0
-273 1.0
274 1.0
-274 1.0
275 1.0
-275 1.0
276 1.0
-276 1.0
277 1.0
-277 1.0
278 1.0
-278 1.0
279 1.0
-279 1.0
280 1.0
-280 1.0
281 1.0
-281 1.0
282 1.0
-282 1.0
283 1.0
-283 1.0
284 1.0
-284 1.0
285 1.0
-285 1.0
286 1.0
-286 1.0
287 1.0
-287 1.0
288 1.0
-288 1.0
289 1.0
-289 1.0
290 1.0
-290 1.0
291 1.0
-291 1.0
292 1.0
-292 1.0
293 1.0
-293 1.0
294 1.0
-294 1.0
295 1.0
-295 1.0
296 1.0
-296 1.0
297 1.0
-297 1.0
298 1.0
-298 1.0
299 1.0
-299 1.0
300 1.0
-300 1.0
301 1.0
-301 1.0
302 1.0
-302 1.0
303 1.0
-303 1.0
304 1.0
-304 1.0
305 1.0
-305 1.0
306 1.0
-306 1.0
307 1.0
-307 1.0
308 1.0
-308 1.0
309 1.0
-309 1.0
310 1.0
-310 1.0
311 1.0
-311 1.0
312 1.0
-312 1.0
313 1.0
-313 1.0
314 1.0
-314 1.0
315 1.0
-315 1.0
316 1.0
-316 1.0
317 1.0
-317 1.0
318 1.0
-318 1.0
319 1.0
-319 1.0
320 1.0
-320 1.0
321 1.0
-321 1.0
322 1.0
-322 1.0
323 1.0
-323 1.0
324 1.0
-324 1.0
325 0.86218
-325 0.13782
326 0.722445
-326 0.277555
327 0.5
-327 0.5
328 0.5
-328 0.5
329 0.5
-329 0.5
330 0.5
-330 0.5
331 0.402878
-331 0.597122
332 0.866453
-332 0.133547
333 0.5
-333 0.5
334 0.5
-334 0.5
335 0.5
-335 0.5
336 0.5
-336 0.5
337 0.016567
-337 0.983433
338 0.863878
-338 0.136122
339 0.5
-339 0.5
340 0.5
-340 0.5
341 0.5
-341 0.5
342 0.5
-342 0.5
343 0.5
-343 0.5
344 0.5
-344 0.5
345 0.510806
-345 0.489194
346 0.350369
-346 0.649631
347 0.5
-347 0.5
348 0.5
-348 0.5
349 0.5
-349 0.5
350 0.5
-350 0.5
351 0.5
-351 0.5
352 0.5
-352 0.5
353 0.123436
-353 0.876564
354 0.327974
-354 0.672026
355 0.5
-355 0.5
356 0.5
-356 0.5
357 0.636105
-357 0.363895
358 0.805226
-358 0.194774
359 0.5
-359 0.5
360 0.5
-360 0.5
361 0.462017
-361 0.537983
362 0.813766
-362 0.186234
363 0.378008
-363 0.621992
364 0.478584
-364 0.521416
365 0.870675
-365 0.129325
366 0.45693
-366 0.54307
367 0.810274
-367 0.189726
368 0.251394
-368 0.748606
369 0.239995
-369 0.760005
370 0.78044
-370 0.21956
371 0.394426
-371 0.605574
372 0.590364
-372 0.409636
373 0.103547
-373 0.896453
374 0.921209
-374 0.078791
375 0.770422
-375 0.229578
376 0.504538
-376 0.495462
377 0.5
-377 0.5
378 0.5
-378 0.5
379 0.5
-379 0.5
380 0.5
-380 0.5
381 0.5
-381 0.5
382 0.5
-382 0.5
383 0.5
-383 0.5
384 0.5
-384 0.5
385 0.5
-385 0.5
386 0.5
-386 0.5
387 0.5
-387 0.5
388 0.5
-388 0.5
389 0.758952
-389 0.241048
390 0.892103
-390 0.107897
391 0.971734
-391 0.028266
392 0.569225
-392 0.430775
393 0.5
-393 0.5
394 0.5
-394 0.5
395 0.5
-395 0.5
396 0.5
-396 0.5
397 0.5
-397 0.5
398 0.5
-398 0.5
399 0.5
-399 0.5
400 0.5
-400 0.5
401 0.097383
-401 0.902617
402 0.485839
-402 0.514161
403 0.043203
-403 0.956797
404 0.647954
-404 0.352046
405 0.159673
-405 0.840327
406 0.834629
-406 0.165371
407 0.351709
-407 0.648291
408 0.733875
-408 0.266125
409 0.5
-409 0.5
410 0.5
-410 0.5
411 0.5
-411 0.5
412 0.5
-412 0.5
413 0.5
-413 0.5
414 0.5
-414 0.5
415 0.5
-415 0.5
416 0.5
-416 0.5
417 0.5
-417 0.5
418 0.5
-418 0.5
419 0.5
-419 0.5
420 0.5
-420 0.5
421 0.848814
-421 0.151186
422 0.715091
-422 0.284909
423 0.041254
-423 0.958746
424 0.491958
-424 0.508042
425 0.559265
-425 0.440735
426 0.58934
-426 0.41066
427 0.058794
-427 0.941206
428 0.602467
-428 0.397533
429 0.5
-429 0.5
430 0.5
-430 0.5
431 0.071923
-431 0.928077
432 0.926664
-432 0.073336
433 0.496016
-433 0.503984
434 0.174093
-434 0.825907
435 0.266111
-435 0.733889
436 0.357571
-436 0.642429
437 0.938349
-437 0.061651
438 0.55101
-438 0.44899
439 0.5
-439 0.5
440 0.5
-440 0.5
441 0.5
-441 0.5
442 0.5
-442 0.5
443 0.132532
-443 0.867468
444 0.875254
-444 0.124746
445 0.281394
-445 0.718606
446 0.852992
-446 0.147008
447 0.996485
-447 0.003515
448 0.894246
-448 0.105754
449 0.216025
-449 0.783975
450 0.569441
-450 0.430559
451 0.5
-451 0.5
452 0.5
-452 0.5
453 0.5
-453 0.5
454 0.5
-454 0.5
455 0.114582
-455 0.885418
456 0.129854
-456 0.870146
457 0.314134
-457 0.685866
458 0.288675
-458 0.711325
459 0.5
-459 0.5
460 0.5
-460 0.5
461 0.5
-461 0.5
462 0.5
-462 0.5
463 0.837002
-463 0.162998
464 0.938897
-464 0.061103
465 0.757904
-465 0.242096
466 0.736164
-466 0.263836
467 0.890436
-467 0.109564
468 0.611418
-468 0.388582
469 0.13992
-469 0.86008
470 0.743428
-470 0.256572
471 0.5
-471 0.5
472 0.5
-472 0.5
473 0.5
-473 0.5
474 0.5
-474 0.5
475 0.5
-475 0.5
476 0.5
-476 0.5
477 0.5
-477 0.5
478 0.5
-478 0.5
479 0.965282
-479 0.034718
480 0.514118
-480 0.485882
481 0.667124
-481 0.332876
482 0.279416
-482 0.720584
483 0.718771
-483 0.281229
484 0.859661
-484 0.140339
485 0.44904
-485 0.55096
486 0.708767
-486 0.291233
487 0.395288
-487 0.604712
488 0.545769
-488 0.454231
489 0.929813
-489 0.070187
490 0.153192
-490 0.846808
491 0.5
-491 0.5
492 0.5
-492 0.5
493 0.5
-493 0.5
494 0.5
-494 0.5
495 0.228836
-495 0.771164
496 0.064663
-496 0.935337
497 0.424731
-497 0.575269
498 0.780346
-498 0.219654
499 0.515916
-499 0.484084
500 0.137222
-500 0.862778
501 0.5
-501 0.5
502 0.5
-502 0.5
503 0.5
-503 0.5
504 0.5
-504 0.5
505 0.5
-505 0.5
506 0.5
-506 0.5
507 0.5
-507 0.5
508 0.5
-508 0.5
509 0.302708
-509 0.697292
510 0.736522
-510 0.263478
511 0.758354
-511 0.241646
512 0.697996
-512 0.302004
513 0.5
-513 0.5
514 0.5
-514 0.5
515 0.5
-515 0.5
516 0.5
-516 0.5
517 0.457574
-517 0.542426
518 0.404765
-518 0.595235
519 0.681874
-519 0.318126
520 0.68641
-520 0.31359
521 0.5
-521 0.5
522 0.5
-522 0.5
523 0.5
-523 0.5
524 0.5
-524 0.5
525 0.344527
-525 0.655473
526 0.2856
-526 0.7144
527 0.140736
-527 0.859264
528 0.986387
-528 0.013613
529 0.191612
-529 0.808388
530 0.295371
-530 0.704629
531 0.821738
-531 0.178262
532 0.04528
-532 0.95472
533 0.5
-533 0.5
534 0.5
-534 0.5
535 0.5
-535 0.5
536 0.5
-536 0.5
537 0.5
-537 0.5
538 0.5
-538 0.5
539 0.5
-539 0.5
540 0.5
-540 0.5
541 0.79199
-541 0.20801
542 0.363735
-542 0.636265
543 0.916968
-543 0.083032
544 0.473864
-544 0.526136
545 0.5
-545 0.5
546 0.5
-546 0.5
547 0.5
-547 0.5
548 0.5
-548 0.5
549 0.5
-549 0.5
550 0.5
-550 0.5
551 0.5
-551 0.5
552 0.5
-552 0.5
553 0.402551
-553 0.597449
554 0.453227
-554 0.546773
555 0.252619
-555 0.747381
556 0.224288
-556 0.775712
557 0.5
-557 0.5
558 0.5
-558 0.5
559 0.5
-559 0.5
560 0.5
-560 0.5
561 0.977332
-561 0.022668
562 0.196691
-562 0.803309
563 0.789654
-563 0.210346
564 0.883494
-564 0.116506
565 0.581644
-565 0.418356
566 0.247229
-566 0.752771
567 0.625862
-567 0.374138
568 0.055508
-568 0.944492
569 0.5
-569 0.5
570 0.5
-570 0.5
571 0.814276
-571 0.185724
572 0.638592
-572 0.361408
573 0.838967
-573 0.161033
574 0.935155
-574 0.064845
575 0.327557
-575 0.672443
576 0.196771
-576 0.803229
577 0.5667
-577 0.4333
578 0.730107
-578 0.269893
579 0.819319
-579 0.180681
580 0.954395
-580 0.045605
581 0.148505
-581 0.851495
582 0.395065
-582 0.604935
583 0.995001
-583 0.004999
584 0.030459
-584 0.969541
585 0.928853
-585 0.071147
586 0.887482
-586 0.112518
587 0.5
-587 0.5
588 0.5
-588 0.5
589 0.5
-589 0.5
590 0.5
-590 0.5
591 0.5
-591 0.5
592 0.5
-592 0.5
593 0.5
-593 0.5
594 0.5
-594 0.5
595 0.5
-595 0.5
596 0.5
-596 0.5
597 0.5
-597 0.5
598 0.5
-598 0.5
599 0.5
-599 0.5
600 0.5
-600 0.5
601 0.5
-601 0.5
602 0.5
-602 0.5
603 0.032088
-603 0.967912
604 0.106621
-604 0.893379
605 0.801292
-605 0.198708
606 0.180594
-606 0.819406
607 0.569151
-607 0.430849
608 0.175595
-608 0.824405
609 0.532145
-609 0.467855
610 0.498003
-610 0.501997
611 0.5
-611 0.5
612 0.5
-612 0.5
613 0.5
-613 0.5
614 0.5
-614 0.5
615 0.5
-615 0.5
616 0.5
-616 0.5
617 0.5
-617 0.5
618 0.5
-618 0.5
619 0.5
-619 0.5
620 0.5
-620 0.5
621 0.5
-621 0.5
622 0.5
-622 0.5
623 0.5
-623 0.5
624 0.5
-624 0.5
625 0.5
-625 0.5
626 0.5
-626 0.5
627 0.016466
-627 0.983534
628 0.855287
-628 0.144713
629 0.616514
-629 0.383486
630 0.817758
-630 0.182242
631 0.5
-631 0.5
632 0.5
-632 0.5
633 0.5
-633 0.5
634 0.5
-634 0.5
635 0.274554
-635 0.725446
636 0.19028
-636 0.80972
637 0.508459
-637 0.491541
638 0.014767
-638 0.985233
639 0.966443
-639 0.033557
640 0.01376
-640 0.98624
641 0.5
-641 0.5
642 0.5
-642 0.5
643 0.5
-643 0.5
644 0.5
-644 0.5
645 0.5
-645 0.5
646 0.5
-646 0.5
647 0.5
-647 0.5
648 0.5
-648 0.5
649 0.716956
-649 0.283044
650 0.510043
-650 0.489957
651 0.829406
-651 0.170594
652 0.572243
-652 0.427757
653 0.5
-653 0.5
654 0.5
-654 0.5
655 0.5
-655 0.5
656 0.5
-656 0.5
657 0.895102
-657 0.104898
658 0.918984
-658 0.081016
659 0.094155
-659 0.905845
660 0.085383
-660 0.914617
661 0.5
-661 0.5
662 0.5
-662 0.5
663 0.5
-663 0.5
664 0.5
-664 0.5
665 0.278611
-665 0.721389
666 0.449725
-666 0.550275
667 0.09498
-667 0.90502
668 0.554179
-668 0.445821
669 0.5
-669 0.5
670 0.5
-670 0.5
671 0.5
-671 0.5
672 0.5
-672 0.5
673 0.5
-673 0.5
674 0.5
-674 0.5
675 0.5
-675 0.5
676 0.5
-676 0.5
677 0.968487
-677 0.031513
678 0.973196
-678 0.026804
679 0.33871
-679 0.66129
680 0.213244
-680 0.786756
681 0.5
-681 0.5
682 0.5
-682 0.5
683 0.5
-683 0.5
684 0.5
-684 0.5
685 0.5
-685 0.5
686 0.5
-686 0.5
687 0.5
-687 0.5
688 0.5
-688 0.5
689 0.026193
-689 0.973807
690 0.933795
-690 0.066205
691 0.893713
-691 0.106287
692 0.580372
-692 0.419628
693 0.441342
-693 0.558658
694 0.912108
-694 0.087892
695 0.657796
-695 0.342204
696 0.882728
-696 0.117272
697 0.5
-697 0.5
698 0.5
-698 0.5
699 0.5
-699 0.5
700 0.5
-700 0.5
701 0.05441
-701 0.94559
702 0.453651
-702 0.546349
703 0.110365
-703 0.889635
704 0.267654
-704 0.732346
705 0.5
-705 0.5
706 0.5
-706 0.5
707 0.5
-707 0.5
708 0.5
-708 0.5
709 0.740868
-709 0.259132
710 0.882531
-710 0.117469
711 0.5
-711 0.5
712 0.5
-712 0.5
713 0.5
-713 0.5
714 0.5
-714 0.5
715 0.5
-715 0.5
716 0.5
-716 0.5
717 0.5
-717 0.5
718 0.5
-718 0.5
719 0.5
-719 0.5
720 0.5
-720 0.5
721 0.5
-721 0.5
722 0.5
-722 0.5
723 0.337039
-723 0.662961
724 0.567181
-724 0.432819
725 0.299584
-725 0.700416
726 0.391449
-726 0.608551
727 0.5
-727 0.5
728 0.5
-728 0.5
729 0.5
-729 0.5
730 0.5
-730 0.5
731 0.5
-731 0.5
732 0.5
-732 0.5
733 0.5
-733 0.5
734 0.5
-734 0.5
735 0.5
-735 0.5
736 0.5
-736 0.5
737 0.5
-737 0.5
738 0.5
-738 0.5
739 0.749299
-739 0.250701
740 0.507045
-740 0.492955
741 0.707897
-741 0.292103
742 0.023807
-742 0.976193
743 0.5
-743 0.5
744 0.5
-744 0.5
745 0.5
-745 0.5
746 0.5
-746 0.5
747 0.5
-747 0.5
748 0.5
-748 0.5
749 0.5
-749 0.5
750 0.5
-750 0.5
751 0.630849
-751 0.369151
752 0.835501
-752 0.164499
753 0.353725
-753 0.646275
754 0.112599
-754 0.887401
755 0.388828
-755 0.611172
756 0.981522
-756 0.018478
757 0.713894
-757 0.286106
758 0.993662
-758 0.006338
759 0.796193
-759 0.203807
760 0.068839
-760 0.931161
761 0.689554
-761 0.310446
762 0.245095
-762 0.754905
763 0.5
-763 0.5
764 0.5
-764 0.5
765 0.5
-765 0.5
766 0.5
-766 0.5
767 0.5
-767 0.5
768 0.5
-768 0.5
769 0.5
-769 0.5
770 0.5
-770 0.5
771 0.01715
-771 0.98285
772 0.755322
-772 0.244678
773 0.99466
-773 0.00534
774 0.627167
-774 0.372833
775 0.5
-775 0.5
776 0.5
-776 0.5
777 0.5
-777 0.5
778 0.5
-778 0.5
779 0.5
-779 0.5
780 0.5
-780 0.5
781 0.5
-781 0.5
782 0.5
-782 0.5
783 0.5
-783 0.5
784 0.5
-784 0.5
785 0.5
-785 0.5
786 0.5
-786 0.5
787 0.5
-787 0.5
788 0.5
-788 0.5
789 0.280076
-789 0.719924
790 0.827571
-790 0.172429
791 0.945777
-791 0.054223
792 0.298277
-792 0.701723
793 0.671129
-793 0.328871
794 0.27259
-794 0.72741
795 0.488243
-795 0.511757
796 0.362616
-796 0.637384
797 0.5
-797 0.5
798 0.5
-798 0.5
799 0.5
-799 0.5
800 0.5
-800 0.5
801 0.5
-801 0.5
802 0.5
-802 0.5
803 0.5
-803 0.5
804 0.5
-804 0.5
805 0.521402
-805 0.478598
806 0.897677
-806 0.102323
807 0.215707
-807 0.784293
808 0.9469
-808 0.0531
809 0.256294
-809 0.743706
810 0.441237
-810 0.558763
811 0.474135
-811 0.525865
812 0.541976
-812 0.458024
813 0.5
-813 0.5
814 0.5
-814 0.5
815 0.5
-815 0.5
816 0.5
-816 0.5
817 0.5
-817 0.5
818 0.5
-818 0.5
819 0.5
-819 0.5
820 0.5
-820 0.5
821 0.5
-821 0.5
822 0.5
-822 0.5
823 0.5
-823 0.5
824 0.5
-824 0.5
825 0.5
-825 0.5
826 0.5
-826 0.5
827 0.5
-827 0.5
828 0.5
-828 0.5
829 0.5
-829 0.5
830 0.5
-830 0.5
831 0.5
-831 0.5
832 0.5
-832 0.5
833 0.5
-833 0.5
834 0.5
-834 0.5
835 0.5
-835 0.5
836 0.5
-836 0.5
837 0.140708
-837 0.859292
838 0.942547
-838 0.057453
839 0.43953
-839 0.56047
840 0.316947
-840 0.683053
841 0.5
-841 0.5
842 0.5
-842 0.5
843 0.5
-843 0.5
844 0.5
-844 0.5
845 0.713485
-845 0.286515
846 0.635438
-846 0.364562
847 0.642379
-847 0.357621
848 0.45986
-848 0.54014
849 0.5
-849 0.5
850 0.5
-850 0.5
851 0.5
-851 0.5
852 0.5
-852 0.5
853 0.5
-853 0.5
854 0.5
-854 0.5
855 0.547224
-855 0.452776
856 0.888645
-856 0.111355
857 0.890002
-857 0.109998
858 0.606058
-858 0.393942
859 0.682041
-859 0.317959
860 0.139027
-860 0.860973
861 0.581624
-861 0.418376
862 0.822749
-862 0.177251
863 0.5
-863 0.5
864 0.5
-864 0.5
865 0.5
-865 0.5
866 0.5
-866 0.5
867 0.5
-867 0.5
868 0.5
-868 0.5
869 0.5
-869 0.5
870 0.5
-870 0.5
871 0.5
-871 0.5
872 0.5
-872 0.5
873 0.5
-873 0.5
874 0.5
-874 0.5
875 0.5
-875 0.5
876 0.5
-876 0.5
877 0.5
-877 0.5
878 0.5
-878 0.5
879 0.290469
-879 0.709531
880 0.267368
-880 0.732632
881 0.694497
-881 0.305503
882 0.896527
-882 0.103473
883 0.5
-883 0.5
884 0.5
-884 0.5
885 0.5
-885 0.5
886 0.5
-886 0.5
887 0.5
-887 0.5
888 0.5
-888 0.5
889 0.5
-889 0.5
890 0.5
-890 0.5
891 0.200465
-891 0.799535
892 0.949098
-892 0.050902
893 0.197966
-893 0.802034
894 0.61781
-894 0.38219
895 0.5
-895 0.5
896 0.5
-896 0.5
897 0.5
-897 0.5
898 0.5
-898 0.5
899 0.936288
-899 0.063712
900 0.360187
-900 0.639813
901 0.890313
-901 0.109687
902 0.679532
-902 0.320468
903 0.694809
-903 0.305191
904 0.970001
-904 0.029999
905 0.006277
-905 0.993723
906 0.389306
-906 0.610694
907 0.237791
-907 0.762209
908 0.765845
-908 0.234155
909 0.902083
-909 0.097917
910 0.050929
-910 0.949071
911 0.019212
-911 0.980788
912 0.885221
-912 0.114779
913 0.304114
-913 0.695886
914 0.515817
-914 0.484183
915 0.5
-915 0.5
916 0.5
-916 0.5
917 0.5
-917 0.5
918 0.5
-918 0.5
919 0.5
-919 0.5
920 0.5
-920 0.5
921 0.829106
-921 0.170894
922 0.890514
-922 0.109486
923 0.591293
-923 0.408707
924 0.454122
-924 0.545878
925 0.95148
-925 0.04852
926 0.344435
-926 0.655565
927 0.506334
-927 0.493666
928 0.690389
-928 0.309611
929 0.5
-929 0.5
930 0.5
-930 0.5
931 0.5
-931 0.5
932 0.5
-932 0.5
933 0.5
-933 0.5
934 0.5
-934 0.5
935 0.5
-935 0.5
936 0.5
-936 0.5
937 0.46364
-937 0.53636
938 0.779976
-938 0.220024
939 0.171134
-939 0.828866
940 0.598507
-940 0.401493
941 0.5
-941 0.5
942 0.5
-942 0.5
943 0.5
-943 0.5
944 0.5
-944 0.5
945 0.5
-945 0.5
946 0.5
-946 0.5
947 0.5
-947 0.5
948 0.5
-948 0.5
949 0.014501
-949 0.985499
950 0.458012
-950 0.541988
951 0.012358
-951 0.987641
952 0.70489
-952 0.29511
953 0.5
-953 0.5
954 0.5
-954 0.5
955 0.5
-955 0.5
956 0.5
-956 0.5
957 0.5
-957 0.5
958 0.5
-958 0.5
959 0.5
-959 0.5
960 0.5
-960 0.5
961 0.5
-961 0.5
962 0.5
-962 0.5
963 0.5
-963 0.5
964 0.5
-964 0.5
965 0.783902
-965 0.216098
966 0.273212
-966 0.726788
967 0.447246
-967 0.552754
968 0.572611
-968 0.427389
969 0.106701
-969 0.893299
970 0.251834
-970 0.748166
971 0.807961
-971 0.192039
972 0.220278
-972 0.779722
973 0.822462
-973 0.177538
974 0.678291
-974 0.321709
975 0.770217
-975 0.229783
976 0.527352
-976 0.472648
977 0.5
-977 0.5
978 0.5
-978 0.5
979 0.5
-979 0.5
980 0.5
-980 0.5
981 0.5
-981 0.5
982 0.5
-982 0.5
983 0.5
-983 0.5
984 0.5
-984 0.5
985 0.244649
-985 0.755351
986 0.628278
-986 0.371722
987 0.141482
-987 0.858518
988 0.586523
-988 0.413477
989 0.5
-989 0.5
990 0.5
-990 0.5
991 0.692422
-991 0.307578
992 0.497994
-992 0.502006
993 0.604675
-993 0.395325
994 0.799123
-994 0.200877
995 0.412636
-995 0.587364
996 0.019401
-996 0.980599
997 0.507686
-997 0.492314
998 0.235098
-998 0.764902
999 0.277903
-999 0.722097
1000 0.76245
-1000 0.23755
1001 0.873238
-1001 0.126762
1002 0.536813
-1002 0.463187
1003 0.974591
-1003 0.025409
1004 0.627281
-1004 0.372719
1005 0.956283
-1005 0.043717
1006 0.196145
-1006 0.803855
1007 0.54261
-1007 0.45739
1008 0.697426
-1008 0.302574
1009 0.301891
-1009 0.698109
1010 0.320947
-1010 0.679053
1011 0.930169
-1011 0.069831
1012 0.462429
-1012 0.537571
1013 0.528598
-1013 0.471402
1014 0.175345
-1014 0.824655
1015 0.5
-1015 0.5
1016 0.5
-1016 0.5
1017 0.5
-1017 0.5
1018 0.5
-1018 0.5
1019 0.635634
-1019 0.364366
1020 0.405644
-1020 0.594356
1021 0.68629
-1021 0.31371
1022 0.14332
-1022 0.85668
1023 0.383982
-1023 0.616018
1024 0.421222
-1024 0.578778
1025 0.403192
-1025 0.596808
1026 0.25722
-1026 0.74278
1027 0.094551
-1027 0.905449
1028 0.231811
-1028 0.768189
1029 0.585316
-1029 0.414684
1030 0.050835
-1030 0.949165
1031 0.5
-1031 0.5
1032 0.5
-1032 0.5
1033 0.5
-1033 0.5
1034 0.5
-1034 0.5
1035 0.5
-1035 0.5
1036 0.5
-1036 0.5
1037 0.5
-1037 0.5
1038 0.5
-1038 0.5
1039 0.984388
-1039 0.015612
1040 0.654741
-1040 0.345259
1041 0.650439
-1041 0.349561
1042 0.977396
-1042 0.022604
1043 0.5
-1043 0.5
1044 0.5
-1044 0.5
1045 0.5
-1045 0.5
1046 0.5
-1046 0.5
1047 0.5
-1047 0.5
1048 0.5
-1048 0.5
1049 0.5
-1049 0.5
1050 0.5
-1050 0.5
1051 0.521524
-1051 0.478476
1052 0.880934
-1052 0.119066
1053 0.393967
-1053 0.606033
1054 0.572359
-1054 0.427641
1055 0.5
-1055 0.5
1056 0.5
-1056 0.5
1057 0.5
-1057 0.5
1058 0.5
-1058 0.5
1059 0.5
-1059 0.5
1060 0.5
-1060 0.5
1061 0.5
-1061 0.5
1062 0.5
-1062 0.5
1063 0.5
-1063 0.5
1064 0.5
-1064 0.5
1065 0.5
-1065 0.5
1066 0.5
-1066 0.5
1067 0.5
-1067 0.5
1068 0.5
-1068 0.5
1069 0.5
-1069 0.5
1070 0.5
-1070 0.5
1071 0.5
-1071 0.5
1072 0.5
-1072 0.5
1073 0.5
-1073 0.5
1074 0.5
-1074 0.5
1075 0.5
-1075 0.5
1076 0.5
-1076 0.5
1077 0.5
-1077 0.5
1078 0.5
-1078 0.5
1079 0.5
-1079 0.5
1080 0.5
-1080 0.5
1081 0.5
-1081 0.5
1082 0.5
-1082 0.5
1083 0.5
-1083 0.5
1084 0.5
-1084 0.5
1085 0.5
-1085 0.5
1086 0.5
-1086 0.5
1087 0.5
-1087 0.5
1088 0.5
-1088 0.5
1089 0.184718
-1089 0.815282
1090 0.297898
-1090 0.702102
1091 0.783998
-1091 0.216002
1092 0.244291
-1092 0.755709
1093 0.5
-1093 0.5
1094 0.5
-1094 0.5
1095 0.5
-1095 0.5
1096 0.5
-1096 0.5
1097 0.5
-1097 0.5
1098 0.5
-1098 0.5
1099 0.5
-1099 0.5
1100 0.5
-1100 0.5
1101 0.855478
-1101 0.144522
1102 0.448799
-1102 0.551201
1103 0.903095
-1103 0.096905
1104 0.269799
-1104 0.730201
1105 0.406115
-1105 0.593885
1106 0.139118
-1106 0.860882
1107 0.835099
-1107 0.164901
1108 0.410868
-1108 0.589132
1109 0.5
-1109 0.5
1110 0.5
-1110 0.5
1111 0.5
-1111 0.5
1112 0.5
-1112 0.5
1113 0.162517
-1113 0.837483
1114 0.221271
-1114 0.778729
1115 0.942419
-1115 0.057581
1116 0.290391
-1116 0.709609
1117 0.5
-1117 0.5
1118 0.5
-1118 0.5
1119 0.5
-1119 0.5
1120 0.5
-1120 0.5
1121 0.5
-1121 0.5
1122 0.5
-1122 0.5
1123 0.5
-1123 0.5
1124 0.5
-1124 0.5
1125 0.5
-1125 0.5
1126 0.5
-1126 0.5
1127 0.5
-1127 0.5
1128 0.5
-1128 0.5
1129 0.5
-1129 0.5
1130 0.5
-1130 0.5
1131 0.140104
-1131 0.859896
1132 0.176574
-1132 0.823426
1133 0.080651
-1133 0.919349
1134 0.215171
-1134 0.784829
1135 0.594061
-1135 0.405939
1136 0.07979
-1136 0.92021
1137 0.139209
-1137 0.860791
1138 0.292189
-1138 0.707811
1139 0.5
-1139 0.5
1140 0.5
-1140 0.5
1141 0.5
-1141 0.5
1142 0.5
-1142 0.5
1143 0.788859
-1143 0.211141
1144 0.217046
-1144 0.782954
1145 0.646545
-1145 0.353455
1146 0.240592
-1146 0.759408
1147 0.47582
-1147 0.52418
1148 0.766816
-1148 0.233184
1149 0.75377
-1149 0.24623
1150 0.766646
-1150 0.233354
1151 0.5
-1151 0.5
1152 0.5
-1152 0.5
1153 0.5
-1153 0.5
1154 0.5
-1154 0.5
1155 0.060839
-1155 0.939161
1156 0.626047
-1156 0.373953
1157 0.02432
-1157 0.97568
1158 0.14149
-1158 0.85851
1159 0.726257
-1159 0.273743
1160 0.735551
-1160 0.264449
1161 0.921008
-1161 0.078992
1162 0.865465
-1162 0.134535
1163 0.5
-1163 0.5
1164 0.5
-1164 0.5
1165 0.5
-1165 0.5
1166 0.5
-1166 0.5
1167 0.126278
-1167 0.873722
1168 0.48487
-1168 0.51513
1169 0.966898
-1169 0.033102
1170 0.772823
-1170 0.227177
1171 0.844959
-1171 0.155041
1172 0.248644
-1172 0.751356
1173 0.492278
-1173 0.507722
1174 0.598728
-1174 0.401272
1175 0.5
-1175 0.5
1176 0.5
-1176 0.5
1177 0.5
-1177 0.5
1178 0.5
-1178 0.5
1179 0.369306
-1179 0.630694
1180 0.071563
-1180 0.928437
1181 0.195675
-1181 0.804325
1182 0.393626
-1182 0.606374
1183 0.5
-1183 0.5
1184 0.5
-1184 0.5
1185 0.5
-1185 0.5
1186 0.5
-1186 0.5
1187 0.976344
-1187 0.023656
1188 0.121215
-1188 0.878785
1189 0.211293
-1189 0.788707
1190 0.238693
-1190 0.761307
1191 0.961145
-1191 0.038855
1192 0.364971
-1192 0.635029
1193 0.302096
-1193 0.697904
1194 0.928043
-1194 0.071957
1195 0.5
-1195 0.5
1196 0.5
-1196 0.5
1197 0.5
-1197 0.5
1198 0.5
-1198 0.5
1199 0.5
-1199 0.5
1200 0.5
-1200 0.5
1201 0.5
-1201 0.5
1202 0.5
-1202 0.5
1203 0.5
-1203 0.5
1204 0.5
-1204 0.5
1205 0.5
-1205 0.5
1206 0.5
-1206 0.5
1207 0.5
-1207 0.5
1208 0.5
-1208 0.5
1209 0.5
-1209 0.5
1210 0.5
-1210 0.5
1211 0.5
-1211 0.5
1212 0.5
-1212 0.5
1213 0.5
-1213 0.5
1214 0.5
-1214 0.5
1215 0.5
-1215 0.5
1216 0.5
-1216 0.5
1217 0.963454
-1217 0.036546
1218 0.456049
-1218 0.543951
1219 0.891931
-1219 0.108069
1220 0.101248
-1220 0.898752
1221 0.5
-1221 0.5
1222 0.5
-1222 0.5
1223 0.5
-1223 0.5
1224 0.5
-1224 0.5
1225 0.142947
-1225 0.857053
1226 0.492079
-1226 0.507921
1227 0.8127
-1227 0.1873
1228 0.293174
-1228 0.706826
1229 0.105292
-1229 0.894708
1230 0.514965
-1230 0.485035
1231 0.737842
-1231 0.262158
1232 0.791511
-1232 0.208489
1233 0.995454
-1233 0.004546
1234 0.597612
-1234 0.402388
1235 0.333255
-1235 0.666745
1236 0.210967
-1236 0.789033
1237 0.5
-1237 0.5
1238 0.5
-1238 0.5
1239 0.5
-1239 0.5
1240 0.5
-1240 0.5
1241 0.355692
-1241 0.644308
1242 0.254984
-1242 0.745016
1243 0.157698
-1243 0.842302
1244 0.247622
-1244 0.752378
1245 0.5
-1245 0.5
1246 0.5
-1246 0.5
1247 0.5
-1247 0.5
1248 0.5
-1248 0.5
1249 0.787695
-1249 0.212305
1250 0.441296
-1250 0.558704
1251 0.546031
-1251 0.453969
1252 0.080869
-1252 0.91913
1253 0.651323
-1253 0.348677
1254 0.595834
-1254 0.404166
1255 0.696261
-1255 0.303739
1256 0.442834
-1256 0.557166
1257 0.691715
-1257 0.308285
1258 0.040447
-1258 0.959553
1259 0.878898
-1259 0.121102
1260 0.902682
-1260 0.097318
1261 0.5
-1261 0.5
1262 0.5
-1262 0.5
1263 0.5
-1263 0.5
1264 0.5
-1264 0.5
1265 0.5
-1265 0.5
1266 0.5
-1266 0.5
1267 0.5
-1267 0.5
1268 0.5
-1268 0.5
1269 0.5
-1269 0.5
1270 0.5
-1270 0.5
1271 0.5
-1271 0.5
1272 0.5
-1272 0.5
1273 0.5
-1273 0.5
1274 0.5
-1274 0.5
1275 0.5
-1275 0.5
1276 0.5
-1276 0.5
1277 0.5
-1277 0.5
1278 0.5
-1278 0.5
1279 0.5
-1279 0.5
1280 0.5
-1280 0.5
1281 0.5
-1281 0.5
1282 0.5
-1282 0.5
1283 0.484718
-1283 0.515282
1284 0.976772
-1284 0.023228
1285 0.162083
-1285 0.837917
1286 0.056661
-1286 0.943338
1287 0.5
-1287 0.5
1288 0.5
-1288 0.5
1289 0.5
-1289 0.5
1290 0.5
-1290 0.5
1291 0.5
-1291 0.5
1292 0.5
-1292 0.5
1293 0.5
-1293 0.5
1294 0.5
-1294 0.5
1295 0.831887
-1295 0.168113
1296 0.435709
-1296 0.564291
1297 0.208609
-1297 0.791391
1298 0.883826
-1298 0.116174
1299 0.936305
-1299 0.063695
1300 0.481796
-1300 0.518204
1301 0.283525
-1301 0.716475
1302 0.62242
-1302 0.37758
1303 0.343702
-1303 0.656298
1304 0.004795
-1304 0.995205
1305 0.423217
-1305 0.576783
1306 0.949522
-1306 0.050478
1307 0.5
-1307 0.5
1308 0.5
-1308 0.5
1309 0.5
-1309 0.5
1310 0.5
-1310 0.5
1311 0.5
-1311 0.5
1312 0.5
-1312 0.5
1313 0.5
-1313 0.5
1314 0.5
-1314 0.5
1315 0.5
-1315 0.5
1316 0.5
-1316 0.5
1317 0.5
-1317 0.5
1318 0.5
-1318 0.5
1319 0.968908
-1319 0.031092
1320 0.794795
-1320 0.205205
1321 0.226525
-1321 0.773475
1322 0.177517
-1322 0.822483
1323 0.045707
-1323 0.954293
1324 0.113822
-1324 0.886178
1325 0.160417
-1325 0.839583
1326 0.329232
-1326 0.670768
1327 0.891506
-1327 0.108494
1328 0.672934
-1328 0.327066
1329 0.741037
-1329 0.258963
1330 0.314724
-1330 0.685276
1331 0.819923
-1331 0.180077
1332 0.470516
-1332 0.529484
1333 0.056696
-1333 0.943303
1334 0.875581
-1334 0.124419
1335 0.547598
-1335 0.452402
1336 0.358389
-1336 0.641611
1337 0.089662
-1337 0.910338
1338 0.958634
-1338 0.041366
1339 0.5
-1339 0.5
1340 0.5
-1340 0.5
1341 0.5
-1341 0.5
1342 0.5
-1342 0.5
1343 0.5
-1343 0.5
1344 0.5
-1344 0.5
1345 0.165963
-1345 0.834037
1346 0.388599
-1346 0.611401
1347 0.744458
-1347 0.255542
1348 0.844584
-1348 0.155416
1349 0.5
-1349 0.5
1350 0.5
-1350 0.5
1351 0.5
-1351 0.5
1352 0.5
-1352 0.5
1353 0.436471
-1353 0.563529
1354 0.33556
-1354 0.66444
1355 0.211232
-1355 0.788768
1356 0.058928
-1356 0.941072
1357 0.5
-1357 0.5
1358 0.5
-1358 0.5
1359 0.5
-1359 0.5
1360 0.5
-1360 0.5
1361 0.389453
-1361 0.610547
1362 0.559799
-1362 0.440201
1363 0.621856
-1363 0.378144
1364 0.809827
-1364 0.190173
1365 0.5
-1365 0.5
1366 0.5
-1366 0.5
1367 0.5
-1367 0.5
1368 0.5
-1368 0.5
1369 0.5
-1369 0.5
1370 0.5
-1370 0.5
1371 0.5
-1371 0.5
1372 0.5
-1372 0.5
1373 0.5
-1373 0.5
1374 0.5
-1374 0.5
1375 0.5
-1375 0.5
1376 0.5
-1376 0.5
1377 0.5
-1377 0.5
1378 0.5
-1378 0.5
1379 0.5
-1379 0.5
1380 0.5
-1380 0.5
1381 0.206322
-1381 0.793678
1382 0.540626
-1382 0.459374
1383 0.995472
-1383 0.004528
1384 0.67646
-1384 0.32354
1385 0.5
-1385 0.5
1386 0.5
-1386 0.5
1387 0.5
-1387 0.5
1388 0.5
-1388 0.5
1389 0.5
-1389 0.5
1390 0.5
-1390 0.5
1391 0.5
-1391 0.5
1392 0.5
-1392 0.5
1393 0.5
-1393 0.5
1394 0.5
-1394 0.5
1395 0.5
-1395 0.5
1396 0.5
-1396 0.5
1397 0.232069
-1397 0.767931
1398 0.653029
-1398 0.346971
1399 0.546424
-1399 0.453576
1400 0.705435
-1400 0.294565
1401 0.912498
-1401 0.087502
1402 0.514361
-1402 0.485639
1403 0.490948
-1403 0.509052
1404 0.337499
-1404 0.662501
1405 0.5
-1405 0.5
1406 0.5
-1406 0.5
1407 0.5
-1407 0.5
1408 0.5
-1408 0.5
1409 0.5
-1409 0.5
1410 0.5
-1410 0.5
1411 0.907677
-1411 0.092323
1412 0.053919
-1412 0.946081
1413 0.957379
-1413 0.042621
1414 0.7635
-1414 0.2365
1415 0.5
-1415 0.5
1416 0.5
-1416 0.5
1417 0.5
-1417 0.5
1418 0.5
-1418 0.5
1419 0.59951
-1419 0.40049
1420 0.699821
-1420 0.300179
1421 0.081161
-1421 0.918839
1422 0.216332
-1422 0.783668
1423 0.73419
-1423 0.26581
1424 0.762756
-1424 0.237244
1425 0.637325
-1425 0.362675
1426 0.700563
-1426 0.299437
1427 0.151686
-1427 0.848314
1428 0.191511
-1428 0.808489
1429 0.012753
-1429 0.987247
1430 0.630456
-1430 0.369544
1431 0.890878
-1431 0.109122
1432 0.104697
-1432 0.895303
1433 0.26251
-1433 0.73749
1434 0.972851
-1434 0.027149
1435 0.872499
-1435 0.127501
1436 0.880529
-1436 0.119471
1437 0.017783
-1437 0.982217
1438 0.829878
-1438 0.170122
1439 0.44754
-1439 0.55246
1440 0.843813
-1440 0.156187
1441 0.664636
-1441 0.335364
1442 0.596294
-1442 0.403706
1443 0.5
-1443 0.5
1444 0.5
-1444 0.5
1445 0.5
-1445 0.5
1446 0.5
-1446 0.5
1447 0.5
-1447 0.5
1448 0.5
-1448 0.5
1449 0.5
-1449 0.5
1450 0.5
-1450 0.5
1451 0.611132
-1451 0.388868
1452 0.217028
-1452 0.782972
1453 0.862899
-1453 0.137101
1454 0.241588
-1454 0.758412
1455 0.5
-1455 0.5
1456 0.5
-1456 0.5
1457 0.5
-1457 0.5
1458 0.5
-1458 0.5
1459 0.5
-1459 0.5
1460 0.5
-1460 0.5
1461 0.5
-1461 0.5
1462 0.5
-1462 0.5
1463 0.5
-1463 0.5
1464 0.5
-1464 0.5
1465 0.5
-1465 0.5
1466 0.5
-1466 0.5
1467 0.5
-1467 0.5
1468 0.5
-1468 0.5
1469 0.5
-1469 0.5
1470 0.5
-1470 0.5
1471 0.817268
-1471 0.182732
1472 0.341145
-1472 0.658855
1473 0.154598
-1473 0.845402
1474 0.276713
-1474 0.723287
1475 0.5
-1475 0.5
1476 0.5
-1476 0.5
1477 0.5
-1477 0.5
1478 0.5
-1478 0.5
1479 0.621421
-1479 0.378579
1480 0.475717
-1480 0.524283
1481 0.5
-1481 0.5
1482 0.5
-1482 0.5
1483 0.5
-1483 0.5
1484 0.5
-1484 0.5
1485 0.5
-1485 0.5
1486 0.5
-1486 0.5
1487 0.5
-1487 0.5
1488 0.5
-1488 0.5
1489 0.5
-1489 0.5
1490 0.5
-1490 0.5
1491 0.5
-1491 0.5
1492 0.5
-1492 0.5
1493 0.5
-1493 0.5
1494 0.5
-1494 0.5
1495 0.5
-1495 0.5
1496 0.5
-1496 0.5
1497 0.477885
-1497 0.522115
1498 0.271638
-1498 0.728362
1499 0.967657
-1499 0.032343
1500 0.36573
-1500 0.63427
1501 0.8353
-1501 0.1647
1502 0.495162
-1502 0.504838
1503 0.544827
-1503 0.455173
1504 0.456721
-1504 0.543279
1505 0.602644
-1505 0.397356
1506 0.804771
-1506 0.195229
1507 0.756746
-1507 0.243254
1508 0.90128
-1508 0.09872
1509 0.870546
-1509 0.129454
1510 0.27061
-1510 0.72939
1511 0.966371
-1511 0.033629
1512 0.759819
-1512 0.240181
1513 0.088585
-1513 0.911415
1514 0.020857
-1514 0.979143
1515 0.943206
-1515 0.056794
1516 0.636226
-1516 0.363774
1517 0.32711
-1517 0.67289
1518 0.200057
-1518 0.799943
1519 0.657781
-1519 0.342219
1520 0.528282
-1520 0.471718
1521 0.5
-1521 0.5
1522 0.5
-1522 0.5
1523 0.5
-1523 0.5
1524 0.5
-1524 0.5
1525 0.5
-1525 0.5
1526 0.5
-1526 0.5
1527 0.5
-1527 0.5
1528 0.5
-1528 0.5
1529 0.379471
-1529 0.620529
1530 0.685143
-1530 0.314857
1531 0.594684
-1531 0.405316
1532 0.28075
-1532 0.71925
1533 0.5
-1533 0.5
1534 0.5
-1534 0.5
1535 0.5
-1535 0.5
1536 0.5
-1536 0.5
1537 0.5
-1537 0.5
1538 0.5
-1538 0.5
1539 0.5
-1539 0.5
1540 0.5
-1540 0.5
1541 0.5
-1541 0.5
1542 0.5
-1542 0.5
1543 0.5
-1543 0.5
1544 0.5
-1544 0.5
1545 0.5
-1545 0.5
1546 0.5
-1546 0.5
1547 0.5
-1547 0.5
1548 0.5
-1548 0.5
