1 0.42598
-1 0.57402
2 1.0
-2 1.0
3 1.0
-3 1.0
4 1.0
-4 1.0
5 1.0
-5 1.0
6 1.0
-6 1.0
7 1.0
-7 1.0
8 1.0
-8 1.0
9 1.0
-9 1.0
10 1.0
-10 1.0
11 1.0
-11 1.0
12 1.0
-12 1.0
13 1.0
-13 1.0
14 1.0
-14 1.0
15 1.0
-15 1.0
16 1.0
-16 1.0
17 1.0
-17 1.0
18 1.0
-18 1.0
19 1.0
-19 1.0
20 1.0
-20 1.0
21 1.0
-21 1.0
22 1.0
-22 1.0
23 1.0
-23 1.0
24 1.0
-24 1.0
25 1.0
-25 1.0
26 1.0
-26 1.0
27 1.0
-27 1.0
28 1.0
-28 1.0
29 1.0
-29 1.0
30 1.0
-30 1.0
31 1.0
-31 1.0
32 1.0
-32 1.0
33 1.0
-33 1.0
34 1.0
-34 1.0
35 1.0
-35 1.0
36 1.0
-36 1.0
37 1.0
-37 1.0
38 1.0
-38 1.0
39 1.0
-39 1.0
40 1.0
-40 1.0
41 1.0
-41 1.0
42 1.0
-42 1.0
43 1.0
-43 1.0
44 1.0
-44 1.0
45 1.0
-45 1.0
46 1.0
-46 1.0
47 1.0
-47 1.0
48 1.0
-48 1.0
49 1.0
-49 1.0
50 1.0
-50 1.0
51 1.0
-51 1.0
52 1.0
-52 1.0
53 1.0
-53 1.0
54 1.0
-54 1.0
55 1.0
-55 1.0
56 1.0
-56 1.0
57 1.0
-57 1.0
58 1.0
-58 1.0
59 1.0
-59 1.0
60 1.0
-60 1.0
61 1.0
-61 1.0
62 1.0
-62 1.0
63 1.0
-63 1.0
64 1.0
-64 1.0
65 1.0
-65 1.0
66 1.0
-66 1.0
67 1.0
-67 1.0
68 1.0
-68 1.0
69 1.0
-69 1.0
70 1.0
-70 1.0
71 1.0
-71 1.0
72 1.0
-72 1.0
73 1.0
-73 1.0
74 1.0
-74 1.0
75 1.0
-75 1.0
76 1.0
-76 1.0
77 1.0
-77 1.0
78 1.0
-78 1.0
79 1.0
-79 1.0
80 1.0
-80 1.0
81 1.0
-81 1.0
82 1.0
-82 1.0
83 1.0
-83 1.0
84 1.0
-84 1.0
85 1.0
-85 1.0
86 1.0
-86 1.0
87 1.0
-87 1.0
88 1.0
-88 1.0
89 1.0
-89 1.0
90 1.0
-90 1.0
91 1.0
-91 1.0
92 1.0
-92 1.0
93 1.0
-93 1.0
94 1.0
-94 1.0
95 1.0
-95 1.0
96 1.0
-96 1.0
97 1.0
-97 1.0
98 1.0
-98 1.0
99 1.0
-99 1.0
100 1.0
-100 1.0
101 0.091807
-101 0.908193
102 0.054845
-102 0.945155
103 0.381668
-103 0.618332
104 0.087607
-104 0.912393
105 0.890366
-105 0.109634
106 0.989326
-106 0.010674
107 0.677986
-107 0.322014
108 0.768316
-108 0.231684
109 0.455712
-109 0.544288
110 0.250727
-110 0.749273
111 0.038063
-111 0.961937
112 0.520243
-112 0.479757
113 0.5
-113 0.5
114 0.5
-114 0.5
115 0.5
-115 0.5
116 0.5
-116 0.5
117 0.897629
-117 0.102371
118 0.470939
-118 0.529061
119 0.5
-119 0.5
120 0.5
-120 0.5
121 0.5
-121 0.5
122 0.5
-122 0.5
123 0.5
-123 0.5
124 0.5
-124 0.5
125 0.5
-125 0.5
126 0.5
-126 0.5
127 0.5
-127 0.5
128 0.5
-128 0.5
129 0.5
-129 0.5
130 0.5
-130 0.5
131 0.5
-131 0.5
132 0.5
-132 0.5
133 0.14987
-133 0.85013
134 0.899264
-134 0.100736
135 0.76767
-135 0.23233
136 0.790511
-136 0.209489
137 0.287912
-137 0.712088
138 0.14271
-138 0.85729
139 0.465805
-139 0.534195
140 0.430671
-140 0.569329
141 0.995443
-141 0.004557
142 0.328301
-142 0.671699
143 0.065062
-143 0.934938
144 0.406331
-144 0.593669
145 0.255929
-145 0.744071
146 0.7094
-146 0.2906
147 0.393488
-147 0.606512
148 0.872777
-148 0.127223
149 0.887021
-149 0.112979
150 0.54447
-150 0.45553
151 0.717791
-151 0.282209
152 0.762222
-152 0.237778
153 0.5
-153 0.5
154 0.5
-154 0.5
155 0.5
-155 0.5
156 0.5
-156 0.5
157 0.569339
-157 0.430661
158 0.561874
-158 0.438126
159 0.337009
-159 0.662991
160 0.352385
-160 0.647615
161 0.807933
-161 0.192067
162 0.624921
-162 0.375079
163 0.5
-163 0.5
164 0.5
-164 0.5
165 0.5
-165 0.5
166 0.5
-166 0.5
167 0.5
-167 0.5
168 0.5
-168 0.5
169 0.5
-169 0.5
170 0.5
-170 0.5
171 0.282986
-171 0.717014
172 0.323356
-172 0.676644
173 0.656163
-173 0.343837
174 0.827456
-174 0.172544
175 0.5
-175 0.5
176 0.5
-176 0.5
177 0.5
-177 0.5
178 0.5
-178 0.5
179 0.5
-179 0.5
180 0.5
-180 0.5
181 0.5
-181 0.5
182 0.5
-182 0.5
183 0.089971
-183 0.910029
184 0.484302
-184 0.515698
185 0.596054
-185 0.403946
186 0.714892
-186 0.285108
187 0.869792
-187 0.130208
188 0.770484
-188 0.229516
189 0.068615
-189 0.931385
190 0.138973
-190 0.861027
191 0.5
-191 0.5
192 0.5
-192 0.5
193 0.5
-193 0.5
194 0.5
-194 0.5
195 0.5
-195 0.5
196 0.5
-196 0.5
197 0.955335
-197 0.044665
198 0.743546
-198 0.256454
199 0.563902
-199 0.436098
200 0.373721
-200 0.626279
201 0.721941
-201 0.278059
202 0.319894
-202 0.680106
203 0.058397
-203 0.941603
204 0.291984
-204 0.708016
205 0.5
-205 0.5
206 0.5
-206 0.5
207 0.5
-207 0.5
208 0.5
-208 0.5
209 0.616221
-209 0.383779
210 0.8876
-210 0.1124
211 0.491377
-211 0.508623
212 0.386705
-212 0.613295
213 0.630351
-213 0.369649
214 0.541081
-214 0.458919
215 0.17911
-215 0.82089
216 0.444837
-216 0.555163
217 0.5
-217 0.5
218 0.5
-218 0.5
219 0.5
-219 0.5
220 0.5
-220 0.5
221 0.5
-221 0.5
222 0.5
-222 0.5
223 0.5
-223 0.5
224 0.5
-224 0.5
225 0.5
-225 0.5
226 0.5
-226 0.5
227 0.5
-227 0.5
228 0.5
-228 0.5
229 0.5
-229 0.5
230 0.5
-230 0.5
231 0.5
-231 0.5
232 0.5
-232 0.5
233 0.5
-233 0.5
234 0.5
-234 0.5
235 0.964521
-235 0.035479
236 0.395137
-236 0.604863
237 0.120634
-237 0.879366
238 0.920736
-238 0.079264
239 0.5
-239 0.5
240 0.5
-240 0.5
241 0.5
-241 0.5
242 0.5
-242 0.5
243 0.114559
-243 0.885441
244 0.103112
-244 0.896888
245 0.640361
-245 0.359639
246 0.281548
-246 0.718452
247 0.5
-247 0.5
248 0.5
-248 0.5
249 0.5
-249 0.5
250 0.5
-250 0.5
251 0.5
-251 0.5
252 0.5
-252 0.5
253 0.5
-253 0.5
254 0.5
-254 0.5
255 0.5
-255 0.5
256 0.5
-256 0.5
257 0.5
-257 0.5
258 0.5
-258 0.5
259 0.420245
-259 0.579755
260 0.985024
-260 0.014976
261 0.052498
-261 0.947502
262 0.34098
-262 0.65902
263 0.5
-263 0.5
264 0.5
-264 0.5
265 0.5
-265 0.5
266 0.5
-266 0.5
267 0.5
-267 0.5
268 0.5
-268 0.5
269 0.5
-269 0.5
270 0.5
-270 0.5
271 0.105455
-271 0.894545
272 0.889382
-272 0.110618
273 0.5
-273 0.5
274 0.5
-274 0.5
275 0.5
-275 0.5
276 0.5
-276 0.5
277 0.658215
-277 0.341785
278 0.508367
-278 0.491633
279 0.943545
-279 0.056455
280 0.344342
-280 0.655658
281 0.399269
-281 0.600731
282 0.934229
-282 0.065771
283 0.638168
-283 0.361832
284 0.819513
-284 0.180487
285 0.690666
-285 0.309334
286 0.160494
-286 0.839506
287 0.929764
-287 0.070236
288 0.404879
-288 0.595121
289 0.410599
-289 0.589401
290 0.851919
-290 0.148081
291 0.954203
-291 0.045797
292 0.005993
-292 0.994007
293 0.5
-293 0.5
294 0.5
-294 0.5
295 0.5
-295 0.5
296 0.5
-296 0.5
297 0.487911
-297 0.512089
298 0.61719
-298 0.38281
299 0.126972
-299 0.873028
300 0.742174
-300 0.257826
301 0.5
-301 0.5
302 0.5
-302 0.5
303 0.5
-303 0.5
304 0.5
-304 0.5
305 0.259999
-305 0.740001
306 0.034526
-306 0.965474
307 0.678961
-307 0.321039
308 0.898166
-308 0.101834
309 0.598213
-309 0.401787
310 0.588832
-310 0.411168
311 0.5
-311 0.5
312 0.5
-312 0.5
313 0.5
-313 0.5
314 0.5
-314 0.5
315 0.570054
-315 0.429946
316 0.94457
-316 0.05543
317 0.247701
-317 0.752299
318 0.517502
-318 0.482498
319 0.628655
-319 0.371345
320 0.570405
-320 0.429595
321 0.599824
-321 0.400176
322 0.116566
-322 0.883434
323 0.5
-323 0.5
324 0.5
-324 0.5
325 0.5
-325 0.5
326 0.5
-326 0.5
327 0.5
-327 0.5
328 0.5
-328 0.5
329 0.5
-329 0.5
330 0.5
-330 0.5
331 0.5
-331 0.5
332 0.5
-332 0.5
333 0.5
-333 0.5
334 0.5
-334 0.5
335 0.956862
-335 0.043138
336 0.809013
-336 0.190987
337 0.527328
-337 0.472672
338 0.572714
-338 0.427286
339 0.372958
-339 0.627042
340 0.142768
-340 0.857232
341 0.692159
-341 0.307841
342 0.620659
-342 0.379341
343 0.519665
-343 0.480335
344 0.249314
-344 0.750686
345 0.230675
-345 0.769325
346 0.119489
-346 0.880511
347 0.5
-347 0.5
348 0.5
-348 0.5
349 0.224619
-349 0.775381
350 0.651194
-350 0.348806
351 0.264793
-351 0.735207
352 0.483749
-352 0.516251
353 0.5
-353 0.5
354 0.5
-354 0.5
355 0.5
-355 0.5
356 0.5
-356 0.5
357 0.5
-357 0.5
358 0.5
-358 0.5
359 0.5
-359 0.5
360 0.5
-360 0.5
361 0.5
-361 0.5
362 0.5
-362 0.5
363 0.5
-363 0.5
364 0.5
-364 0.5
365 0.021523
-365 0.978477
366 0.700228
-366 0.299772
367 0.483781
-367 0.516219
368 0.681793
-368 0.318207
369 0.5
-369 0.5
370 0.5
-370 0.5
371 0.5
-371 0.5
372 0.5
-372 0.5
373 0.5
-373 0.5
374 0.5
-374 0.5
375 0.5
-375 0.5
376 0.5
-376 0.5
377 0.419747
-377 0.580253
378 0.769017
-378 0.230983
379 0.294953
-379 0.705047
380 0.90418
-380 0.09582
381 0.5
-381 0.5
382 0.5
-382 0.5
383 0.5
-383 0.5
384 0.5
-384 0.5
385 0.5
-385 0.5
386 0.5
-386 0.5
387 0.5
-387 0.5
388 0.5
-388 0.5
389 0.5
-389 0.5
390 0.5
-390 0.5
391 0.885628
-391 0.114372
392 0.133303
-392 0.866697
393 0.413156
-393 0.586844
394 0.105521
-394 0.894479
395 0.325624
-395 0.674376
396 0.444903
-396 0.555097
397 0.965373
-397 0.034627
398 0.656362
-398 0.343638
399 0.288967
-399 0.711033
400 0.638294
-400 0.361706
401 0.081029
-401 0.918972
402 0.09631
-402 0.90369
403 0.5
-403 0.5
404 0.5
-404 0.5
405 0.5
-405 0.5
406 0.5
-406 0.5
407 0.295619
-407 0.704381
408 0.550956
-408 0.449044
409 0.773499
-409 0.226501
410 0.591853
-410 0.408147
411 0.5
-411 0.5
412 0.5
-412 0.5
413 0.5
-413 0.5
414 0.5
-414 0.5
415 0.5
-415 0.5
416 0.5
-416 0.5
417 0.5
-417 0.5
418 0.5
-418 0.5
419 0.5
-419 0.5
420 0.5
-420 0.5
421 0.5
-421 0.5
422 0.5
-422 0.5
423 0.5
-423 0.5
424 0.5
-424 0.5
425 0.5
-425 0.5
426 0.5
-426 0.5
427 0.5
-427 0.5
428 0.5
-428 0.5
429 0.5
-429 0.5
430 0.5
-430 0.5
431 0.5
-431 0.5
432 0.5
-432 0.5
433 0.5
-433 0.5
434 0.5
-434 0.5
435 0.5
-435 0.5
436 0.5
-436 0.5
437 0.5
-437 0.5
438 0.5
-438 0.5
439 0.5
-439 0.5
440 0.5
-440 0.5
441 0.5
-441 0.5
442 0.5
-442 0.5
443 0.5
-443 0.5
444 0.5
-444 0.5
445 0.5
-445 0.5
446 0.5
-446 0.5
447 0.5
-447 0.5
448 0.5
-448 0.5
449 0.5
-449 0.5
450 0.5
-450 0.5
451 0.5
-451 0.5
452 0.5
-452 0.5
453 0.828774
-453 0.171226
454 0.781148
-454 0.218852
455 0.673117
-455 0.326883
456 0.988612
-456 0.011388
457 0.5
-457 0.5
458 0.5
-458 0.5
459 0.5
-459 0.5
460 0.5
-460 0.5
