1 0.557014
-1 0.442986
2 1.0
-2 1.0
3 1.0
-3 1.0
4 1.0
-4 1.0
5 1.0
-5 1.0
6 1.0
-6 1.0
7 1.0
-7 1.0
8 1.0
-8 1.0
9 1.0
-9 1.0
10 1.0
-10 1.0
11 1.0
-11 1.0
12 1.0
-12 1.0
13 1.0
-13 1.0
14 1.0
-14 1.0
15 1.0
-15 1.0
16 1.0
-16 1.0
17 1.0
-17 1.0
18 1.0
-18 1.0
19 1.0
-19 1.0
20 1.0
-20 1.0
21 1.0
-21 1.0
22 1.0
-22 1.0
23 1.0
-23 1.0
24 1.0
-24 1.0
25 1.0
-25 1.0
26 1.0
-26 1.0
27 1.0
-27 1.0
28 1.0
-28 1.0
29 1.0
-29 1.0
30 1.0
-30 1.0
31 1.0
-31 1.0
32 1.0
-32 1.0
33 1.0
-33 1.0
34 1.0
-34 1.0
35 1.0
-35 1.0
36 1.0
-36 1.0
37 1.0
-37 1.0
38 1.0
-38 1.0
39 1.0
-39 1.0
40 1.0
-40 1.0
41 1.0
-41 1.0
42 1.0
-42 1.0
43 1.0
-43 1.0
44 1.0
-44 1.0
45 1.0
-45 1.0
46 1.0
-46 1.0
47 1.0
-47 1.0
48 1.0
-48 1.0
49 1.0
-49 1.0
50 1.0
-50 1.0
51 1.0
-51 1.0
52 1.0
-52 1.0
53 1.0
-53 1.0
54 1.0
-54 1.0
55 1.0
-55 1.0
56 1.0
-56 1.0
57 1.0
-57 1.0
58 1.0
-58 1.0
59 1.0
-59 1.0
60 1.0
-60 1.0
61 1.0
-61 1.0
62 1.0
-62 1.0
63 1.0
-63 1.0
64 1.0
-64 1.0
65 1.0
-65 1.0
66 1.0
-66 1.0
67 1.0
-67 1.0
68 1.0
-68 1.0
69 1.0
-69 1.0
70 1.0
-70 1.0
71 1.0
-71 1.0
72 1.0
-72 1.0
73 1.0
-73 1.0
74 1.0
-74 1.0
75 1.0
-75 1.0
76 1.0
-76 1.0
77 1.0
-77 1.0
78 1.0
-78 1.0
79 1.0
-79 1.0
80 1.0
-80 1.0
81 1.0
-81 1.0
82 1.0
-82 1.0
83 1.0
-83 1.0
84 1.0
-84 1.0
85 1.0
-85 1.0
86 1.0
-86 1.0
87 1.0
-87 1.0
88 1.0
-88 1.0
89 1.0
-89 1.0
90 1.0
-90 1.0
91 1.0
-91 1.0
92 1.0
-92 1.0
93 1.0
-93 1.0
94 1.0
-94 1.0
95 1.0
-95 1.0
96 1.0
-96 1.0
97 1.0
-97 1.0
98 1.0
-98 1.0
99 1.0
-99 1.0
100 1.0
-100 1.0
101 1.0
-101 1.0
102 1.0
-102 1.0
103 1.0
-103 1.0
104 1.0
-104 1.0
105 1.0
-105 1.0
106 1.0
-106 1.0
107 1.0
-107 1.0
108 1.0
-108 1.0
109 1.0
-109 1.0
110 1.0
-110 1.0
111 1.0
-111 1.0
112 1.0
-112 1.0
113 1.0
-113 1.0
114 1.0
-114 1.0
115 1.0
-115 1.0
116 1.0
-116 1.0
117 1.0
-117 1.0
118 1.0
-118 1.0
119 1.0
-119 1.0
120 1.0
-120 1.0
121 1.0
-121 1.0
122 1.0
-122 1.0
123 1.0
-123 1.0
124 1.0
-124 1.0
125 1.0
-125 1.0
126 1.0
-126 1.0
127 1.0
-127 1.0
128 1.0
-128 1.0
129 1.0
-129 1.0
130 1.0
-130 1.0
131 1.0
-131 1.0
132 1.0
-132 1.0
133 1.0
-133 1.0
134 1.0
-134 1.0
135 1.0
-135 1.0
136 1.0
-136 1.0
137 1.0
-137 1.0
138 1.0
-138 1.0
139 1.0
-139 1.0
140 1.0
-140 1.0
141 1.0
-141 1.0
142 1.0
-142 1.0
143 1.0
-143 1.0
144 1.0
-144 1.0
145 0.5
-145 0.5
146 0.5
-146 0.5
147 0.5
-147 0.5
148 0.5
-148 0.5
149 0.038262
-149 0.961738
150 0.178902
-150 0.821098
151 0.084606
-151 0.915394
152 0.51967
-152 0.48033
153 0.287001
-153 0.712999
154 0.775936
-154 0.224064
155 0.5
-155 0.5
156 0.5
-156 0.5
157 0.5
-157 0.5
158 0.5
-158 0.5
159 0.58179
-159 0.41821
160 0.083213
-160 0.916786
161 0.5
-161 0.5
162 0.5
-162 0.5
163 0.695781
-163 0.304219
164 0.075307
-164 0.924693
165 0.095798
-165 0.904202
166 0.836283
-166 0.163717
167 0.420135
-167 0.579865
168 0.393297
-168 0.606703
169 0.5
-169 0.5
170 0.5
-170 0.5
171 0.5
-171 0.5
172 0.5
-172 0.5
173 0.381989
-173 0.618011
174 0.45365
-174 0.54635
175 0.911615
-175 0.088385
176 0.901659
-176 0.098341
177 0.5
-177 0.5
178 0.5
-178 0.5
179 0.5
-179 0.5
180 0.5
-180 0.5
181 0.190881
-181 0.809119
182 0.407956
-182 0.592044
183 0.548265
-183 0.451735
184 0.274094
-184 0.725906
185 0.217244
-185 0.782756
186 0.114897
-186 0.885103
187 0.27819
-187 0.72181
188 0.29255
-188 0.70745
189 0.373987
-189 0.626013
190 0.128833
-190 0.871167
191 0.983916
-191 0.016084
192 0.794122
-192 0.205878
193 0.424657
-193 0.575343
194 0.510115
-194 0.489885
195 0.310878
-195 0.689122
196 0.627744
-196 0.372256
197 0.5
-197 0.5
198 0.5
-198 0.5
199 0.5
-199 0.5
200 0.5
-200 0.5
201 0.82635
-201 0.17365
202 0.248119
-202 0.751881
203 0.588987
-203 0.411013
204 0.037032
-204 0.962968
205 0.5
-205 0.5
206 0.5
-206 0.5
207 0.5
-207 0.5
208 0.5
-208 0.5
209 0.005416
-209 0.994584
210 0.320971
-210 0.679029
211 0.616904
-211 0.383096
212 0.283606
-212 0.716394
213 0.615944
-213 0.384056
214 0.657594
-214 0.342406
215 0.59986
-215 0.40014
216 0.451716
-216 0.548284
217 0.264484
-217 0.735516
218 0.024517
-218 0.975483
219 0.575362
-219 0.424638
220 0.652261
-220 0.347739
221 0.183633
-221 0.816367
222 0.713249
-222 0.286751
223 0.859086
-223 0.140914
224 0.762752
-224 0.237248
225 0.573386
-225 0.426614
226 0.685436
-226 0.314564
227 0.5
-227 0.5
228 0.5
-228 0.5
229 0.5
-229 0.5
230 0.5
-230 0.5
231 0.448931
-231 0.551069
232 0.821562
-232 0.178438
233 0.452389
-233 0.547611
234 0.454347
-234 0.545653
235 0.5
-235 0.5
236 0.5
-236 0.5
237 0.5
-237 0.5
238 0.5
-238 0.5
239 0.5
-239 0.5
240 0.5
-240 0.5
241 0.5
-241 0.5
242 0.5
-242 0.5
243 0.5
-243 0.5
244 0.5
-244 0.5
245 0.5
-245 0.5
246 0.5
-246 0.5
247 0.5
-247 0.5
248 0.5
-248 0.5
249 0.5
-249 0.5
250 0.5
-250 0.5
251 0.825125
-251 0.174875
252 0.359627
-252 0.640373
253 0.259718
-253 0.740282
254 0.851048
-254 0.148952
255 0.5
-255 0.5
256 0.5
-256 0.5
257 0.5
-257 0.5
258 0.5
-258 0.5
259 0.041556
-259 0.958444
260 0.73178
-260 0.26822
261 0.5
-261 0.5
262 0.5
-262 0.5
263 0.5
-263 0.5
264 0.5
-264 0.5
265 0.73509
-265 0.26491
266 0.058908
-266 0.941092
267 0.011725
-267 0.988275
268 0.544184
-268 0.455816
269 0.5
-269 0.5
270 0.5
-270 0.5
271 0.5
-271 0.5
272 0.5
-272 0.5
273 0.5
-273 0.5
274 0.5
-274 0.5
275 0.5
-275 0.5
276 0.5
-276 0.5
277 0.5
-277 0.5
278 0.5
-278 0.5
279 0.5
-279 0.5
280 0.5
-280 0.5
281 0.5
-281 0.5
282 0.5
-282 0.5
283 0.5
-283 0.5
284 0.5
-284 0.5
285 0.485677
-285 0.514323
286 0.969999
-286 0.030001
287 0.207074
-287 0.792926
288 0.373504
-288 0.626496
289 0.5
-289 0.5
290 0.5
-290 0.5
291 0.5
-291 0.5
292 0.5
-292 0.5
293 0.722083
-293 0.277917
294 0.894509
-294 0.105491
295 0.189689
-295 0.810311
296 0.170747
-296 0.829253
297 0.5
-297 0.5
298 0.5
-298 0.5
299 0.5
-299 0.5
300 0.5
-300 0.5
301 0.441046
-301 0.558954
302 0.690075
-302 0.309925
303 0.4608
-303 0.5392
304 0.672856
-304 0.327144
305 0.5
-305 0.5
306 0.5
-306 0.5
307 0.144142
-307 0.855858
308 0.693267
-308 0.306733
309 0.97608
-309 0.02392
310 0.9342
-310 0.0658
311 0.5
-311 0.5
312 0.5
-312 0.5
313 0.5
-313 0.5
314 0.5
-314 0.5
315 0.5
-315 0.5
316 0.5
-316 0.5
317 0.5
-317 0.5
318 0.5
-318 0.5
319 0.5
-319 0.5
320 0.5
-320 0.5
321 0.5
-321 0.5
322 0.5
-322 0.5
323 0.5
-323 0.5
324 0.5
-324 0.5
325 0.5
-325 0.5
326 0.5
-326 0.5
327 0.5
-327 0.5
328 0.5
-328 0.5
329 0.5
-329 0.5
330 0.5
-330 0.5
331 0.562145
-331 0.437855
332 0.506388
-332 0.493612
333 0.239157
-333 0.760843
334 0.538226
-334 0.461774
335 0.5
-335 0.5
336 0.5
-336 0.5
337 0.5
-337 0.5
338 0.5
-338 0.5
339 0.632321
-339 0.367679
340 0.631593
-340 0.368407
341 0.233414
-341 0.766586
342 0.603691
-342 0.396309
343 0.492513
-343 0.507487
344 0.46957
-344 0.53043
345 0.448924
-345 0.551076
346 0.92236
-346 0.07764
347 0.530845
-347 0.469155
348 0.785872
-348 0.214128
349 0.471978
-349 0.528022
350 0.117152
-350 0.882848
351 0.5
-351 0.5
352 0.5
-352 0.5
353 0.5
-353 0.5
354 0.5
-354 0.5
355 0.5
-355 0.5
356 0.5
-356 0.5
357 0.262168
-357 0.737832
358 0.80216
-358 0.19784
359 0.416402
-359 0.583598
360 0.702756
-360 0.297244
361 0.5
-361 0.5
362 0.5
-362 0.5
363 0.5
-363 0.5
364 0.5
-364 0.5
365 0.822403
-365 0.177597
366 0.830518
-366 0.169482
367 0.520629
-367 0.479371
368 0.767817
-368 0.232183
369 0.5
-369 0.5
370 0.5
-370 0.5
371 0.5
-371 0.5
372 0.5
-372 0.5
373 0.031264
-373 0.968736
374 0.289602
-374 0.710398
375 0.864738
-375 0.135262
376 0.202356
-376 0.797644
377 0.258271
-377 0.741729
378 0.219469
-378 0.780531
379 0.16321
-379 0.83679
380 0.014051
-380 0.985949
381 0.041387
-381 0.958613
382 0.276219
-382 0.723781
383 0.584632
-383 0.415368
384 0.457789
-384 0.542211
385 0.804893
-385 0.195107
386 0.358496
-386 0.641504
387 0.263592
-387 0.736408
388 0.995704
-388 0.004296
389 0.18053
-389 0.81947
390 0.818107
-390 0.181893
391 0.786119
-391 0.213881
392 0.701159
-392 0.298841
393 0.109151
-393 0.890849
394 0.691359
-394 0.308641
395 0.802665
-395 0.197335
396 0.354542
-396 0.645458
397 0.550251
-397 0.449749
398 0.385806
-398 0.614194
399 0.414989
-399 0.585011
400 0.588162
-400 0.411838
401 0.645764
-401 0.354236
402 0.67326
-402 0.32674
403 0.808975
-403 0.191025
404 0.687311
-404 0.312689
405 0.590103
-405 0.409897
406 0.850362
-406 0.149638
407 0.174735
-407 0.825265
408 0.308151
-408 0.691849
409 0.942504
-409 0.057496
410 0.979628
-410 0.020372
411 0.206096
-411 0.793904
412 0.975332
-412 0.024668
413 0.622248
-413 0.377752
414 0.386626
-414 0.613374
415 0.408367
-415 0.591633
416 0.087786
-416 0.912214
417 0.379363
-417 0.620637
418 0.517518
-418 0.482482
419 0.182028
-419 0.817972
420 0.87206
-420 0.12794
421 0.288128
-421 0.711872
422 0.732279
-422 0.267721
423 0.5
-423 0.5
424 0.5
-424 0.5
425 0.5
-425 0.5
426 0.5
-426 0.5
427 0.65366
-427 0.34634
428 0.541453
-428 0.458547
429 0.50784
-429 0.49216
430 0.243763
-430 0.756237
431 0.5
-431 0.5
432 0.5
-432 0.5
433 0.5
-433 0.5
434 0.5
-434 0.5
435 0.5
-435 0.5
436 0.5
-436 0.5
437 0.5
-437 0.5
438 0.5
-438 0.5
439 0.5
-439 0.5
440 0.5
-440 0.5
441 0.5
-441 0.5
442 0.5
-442 0.5
443 0.873527
-443 0.126473
444 0.728286
-444 0.271714
445 0.161655
-445 0.838345
446 0.460566
-446 0.539434
447 0.044671
-447 0.955329
448 0.248368
-448 0.751632
449 0.890699
-449 0.109301
450 0.980846
-450 0.019154
451 0.428363
-451 0.571637
452 0.544359
-452 0.455641
453 0.936203
-453 0.063797
454 0.788122
-454 0.211878
455 0.914113
-455 0.085887
456 0.407572
-456 0.592428
457 0.5
-457 0.5
458 0.5
-458 0.5
459 0.5
-459 0.5
460 0.5
-460 0.5
461 0.5
-461 0.5
462 0.5
-462 0.5
463 0.5
-463 0.5
464 0.5
-464 0.5
465 0.5
-465 0.5
466 0.5
-466 0.5
467 0.5
-467 0.5
468 0.5
-468 0.5
469 0.5
-469 0.5
470 0.5
-470 0.5
471 0.5
-471 0.5
472 0.5
-472 0.5
473 0.488042
-473 0.511958
474 0.003702
-474 0.996298
475 0.806793
-475 0.193207
476 0.916404
-476 0.083596
477 0.329092
-477 0.670908
478 0.852607
-478 0.147393
479 0.336182
-479 0.663818
480 0.243205
-480 0.756795
481 0.5
-481 0.5
482 0.5
-482 0.5
483 0.5
-483 0.5
484 0.5
-484 0.5
485 0.125748
-485 0.874252
486 0.807529
-486 0.192471
487 0.971056
-487 0.028944
488 0.270845
-488 0.729155
489 0.5
-489 0.5
490 0.5
-490 0.5
491 0.455836
-491 0.544164
492 0.929375
-492 0.070625
493 0.381843
-493 0.618157
494 0.524167
-494 0.475833
495 0.262051
-495 0.737949
496 0.63717
-496 0.36283
497 0.332899
-497 0.667101
498 0.750092
-498 0.249908
499 0.139692
-499 0.860308
500 0.666497
-500 0.333503
501 0.188932
-501 0.811068
502 0.468784
-502 0.531216
503 0.525114
-503 0.474886
504 0.711989
-504 0.288011
505 0.779283
-505 0.220717
506 0.067916
-506 0.932084
507 0.860909
-507 0.139091
508 0.215462
-508 0.784538
509 0.40725
-509 0.59275
510 0.383952
-510 0.616048
511 0.5
-511 0.5
512 0.5
-512 0.5
513 0.5
-513 0.5
514 0.5
-514 0.5
515 0.574257
-515 0.425743
516 0.844925
-516 0.155075
517 0.797834
-517 0.202166
518 0.9561
-518 0.0439
519 0.5
-519 0.5
520 0.5
-520 0.5
521 0.5
-521 0.5
522 0.5
-522 0.5
523 0.647134
-523 0.352866
524 0.777378
-524 0.222622
525 0.63474
-525 0.36526
526 0.836066
-526 0.163934
527 0.5
-527 0.5
528 0.5
-528 0.5
529 0.5
-529 0.5
530 0.5
-530 0.5
531 0.5
-531 0.5
532 0.5
-532 0.5
533 0.5
-533 0.5
534 0.5
-534 0.5
535 0.5
-535 0.5
536 0.5
-536 0.5
537 0.5
-537 0.5
538 0.5
-538 0.5
539 0.5
-539 0.5
540 0.5
-540 0.5
541 0.5
-541 0.5
542 0.5
-542 0.5
543 0.5
-543 0.5
544 0.5
-544 0.5
545 0.346334
-545 0.653666
546 0.758824
-546 0.241176
547 0.14176
-547 0.85824
548 0.314577
-548 0.685423
549 0.5
-549 0.5
550 0.5
-550 0.5
551 0.5
-551 0.5
552 0.5
-552 0.5
553 0.5
-553 0.5
554 0.5
-554 0.5
555 0.5
-555 0.5
556 0.5
-556 0.5
557 0.830323
-557 0.169677
558 0.676859
-558 0.323141
559 0.585551
-559 0.414449
560 0.008311
-560 0.991689
561 0.735006
-561 0.264994
562 0.541306
-562 0.458694
563 0.260454
-563 0.739546
564 0.273549
-564 0.726451
565 0.432536
-565 0.567464
566 0.657019
-566 0.342981
567 0.142048
-567 0.857952
568 0.560719
-568 0.439281
569 0.5
-569 0.5
570 0.5
-570 0.5
571 0.5
-571 0.5
572 0.5
-572 0.5
573 0.5
-573 0.5
574 0.5
-574 0.5
575 0.5
-575 0.5
576 0.5
-576 0.5
577 0.274106
-577 0.725894
578 0.419588
-578 0.580412
579 0.995774
-579 0.004226
580 0.310393
-580 0.689607
581 0.5
-581 0.5
582 0.5
-582 0.5
583 0.5
-583 0.5
584 0.5
-584 0.5
585 0.5
-585 0.5
586 0.5
-586 0.5
587 0.690333
-587 0.309667
588 0.051829
-588 0.948171
589 0.240757
-589 0.759243
590 0.633094
-590 0.366906
591 0.5
-591 0.5
592 0.5
-592 0.5
593 0.5
-593 0.5
594 0.5
-594 0.5
595 0.5
-595 0.5
596 0.5
-596 0.5
597 0.5
-597 0.5
598 0.5
-598 0.5
599 0.5
-599 0.5
600 0.5
-600 0.5
601 0.5
-601 0.5
602 0.5
-602 0.5
603 0.286094
-603 0.713906
604 0.784265
-604 0.215735
605 0.929209
-605 0.070791
606 0.737983
-606 0.262017
607 0.5
-607 0.5
608 0.5
-608 0.5
609 0.5
-609 0.5
610 0.5
-610 0.5
611 0.630324
-611 0.369676
612 0.909286
-612 0.090714
613 0.709935
-613 0.290065
614 0.871081
-614 0.128919
615 0.1943
-615 0.8057
616 0.768856
-616 0.231144
617 0.317522
-617 0.682478
618 0.239383
-618 0.760617
619 0.5
-619 0.5
620 0.5
-620 0.5
621 0.5
-621 0.5
622 0.5
-622 0.5
623 0.5
-623 0.5
624 0.5
-624 0.5
625 0.5
-625 0.5
626 0.5
-626 0.5
627 0.32881
-627 0.67119
628 0.754693
-628 0.245307
629 0.5
-629 0.5
630 0.5
-630 0.5
631 0.5
-631 0.5
632 0.5
-632 0.5
633 0.546899
-633 0.453101
634 0.017511
-634 0.982489
635 0.161219
-635 0.838781
636 0.456185
-636 0.543815
637 0.0323
-637 0.9677
638 0.998565
-638 0.001435
639 0.921745
-639 0.078255
640 0.801156
-640 0.198844
641 0.5
-641 0.5
642 0.5
-642 0.5
643 0.5
-643 0.5
644 0.5
-644 0.5
645 0.5
-645 0.5
646 0.5
-646 0.5
647 0.5
-647 0.5
648 0.5
-648 0.5
649 0.5
-649 0.5
650 0.5
-650 0.5
651 0.5
-651 0.5
652 0.5
-652 0.5
653 0.014755
-653 0.985245
654 0.7474
-654 0.2526
655 0.824149
-655 0.175851
656 0.342701
-656 0.657299
657 0.5
-657 0.5
658 0.5
-658 0.5
659 0.5
-659 0.5
660 0.5
-660 0.5
661 0.548562
-661 0.451438
662 0.34435
-662 0.65565
663 0.773508
-663 0.226492
664 0.349718
-664 0.650282
665 0.934636
-665 0.065364
666 0.227086
-666 0.772914
667 0.715311
-667 0.284689
668 0.287284
-668 0.712716
669 0.718119
-669 0.281881
670 0.005215
-670 0.994785
671 0.687858
-671 0.312142
672 0.585033
-672 0.414967
