1 0.603944
-1 0.396056
2 1.0
-2 1.0
3 1.0
-3 1.0
4 1.0
-4 1.0
5 1.0
-5 1.0
6 1.0
-6 1.0
7 1.0
-7 1.0
8 1.0
-8 1.0
9 1.0
-9 1.0
10 1.0
-10 1.0
11 1.0
-11 1.0
12 1.0
-12 1.0
13 1.0
-13 1.0
14 1.0
-14 1.0
15 1.0
-15 1.0
16 1.0
-16 1.0
17 1.0
-17 1.0
18 1.0
-18 1.0
19 1.0
-19 1.0
20 1.0
-20 1.0
21 1.0
-21 1.0
22 1.0
-22 1.0
23 1.0
-23 1.0
24 1.0
-24 1.0
25 1.0
-25 1.0
26 1.0
-26 1.0
27 1.0
-27 1.0
28 1.0
-28 1.0
29 1.0
-29 1.0
30 1.0
-30 1.0
31 1.0
-31 1.0
32 1.0
-32 1.0
33 1.0
-33 1.0
34 1.0
-34 1.0
35 1.0
-35 1.0
36 1.0
-36 1.0
37 1.0
-37 1.0
38 1.0
-38 1.0
39 1.0
-39 1.0
40 1.0
-40 1.0
41 1.0
-41 1.0
42 1.0
-42 1.0
43 1.0
-43 1.0
44 1.0
-44 1.0
45 1.0
-45 1.0
46 1.0
-46 1.0
47 1.0
-47 1.0
48 1.0
-48 1.0
49 1.0
-49 1.0
50 1.0
-50 1.0
51 1.0
-51 1.0
52 1.0
-52 1.0
53 1.0
-53 1.0
54 1.0
-54 1.0
55 1.0
-55 1.0
56 1.0
-56 1.0
57 1.0
-57 1.0
58 1.0
-58 1.0
59 1.0
-59 1.0
60 1.0
-60 1.0
61 1.0
-61 1.0
62 1.0
-62 1.0
63 1.0
-63 1.0
64 1.0
-64 1.0
65 1.0
-65 1.0
66 1.0
-66 1.0
67 1.0
-67 1.0
68 1.0
-68 1.0
69 1.0
-69 1.0
70 1.0
-70 1.0
71 1.0
-71 1.0
72 1.0
-72 1.0
73 1.0
-73 1.0
74 1.0
-74 1.0
75 1.0
-75 1.0
76 1.0
-76 1.0
77 1.0
-77 1.0
78 1.0
-78 1.0
79 1.0
-79 1.0
80 1.0
-80 1.0
81 1.0
-81 1.0
82 1.0
-82 1.0
83 1.0
-83 1.0
84 1.0
-84 1.0
85 1.0
-85 1.0
86 1.0
-86 1.0
87 1.0
-87 1.0
88 1.0
-88 1.0
89 1.0
-89 1.0
90 1.0
-90 1.0
91 1.0
-91 1.0
92 1.0
-92 1.0
93 1.0
-93 1.0
94 1.0
-94 1.0
95 1.0
-95 1.0
96 1.0
-96 1.0
97 1.0
-97 1.0
98 1.0
-98 1.0
99 1.0
-99 1.0
100 1.0
-100 1.0
101 1.0
-101 1.0
102 1.0
-102 1.0
103 1.0
-103 1.0
104 1.0
-104 1.0
105 1.0
-105 1.0
106 1.0
-106 1.0
107 1.0
-107 1.0
108 1.0
-108 1.0
109 1.0
-109 1.0
110 1.0
-110 1.0
111 1.0
-111 1.0
112 1.0
-112 1.0
113 1.0
-113 1.0
114 1.0
-114 1.0
115 1.0
-115 1.0
116 1.0
-116 1.0
117 1.0
-117 1.0
118 1.0
-118 1.0
119 1.0
-119 1.0
120 1.0
-120 1.0
121 1.0
-121 1.0
122 1.0
-122 1.0
123 1.0
-123 1.0
124 1.0
-124 1.0
125 1.0
-125 1.0
126 1.0
-126 1.0
127 1.0
-127 1.0
128 1.0
-128 1.0
129 1.0
-129 1.0
130 1.0
-130 1.0
131 1.0
-131 1.0
132 1.0
-132 1.0
133 1.0
-133 1.0
134 1.0
-134 1.0
135 1.0
-135 1.0
136 1.0
-136 1.0
137 1.0
-137 1.0
138 1.0
-138 1.0
139 1.0
-139 1.0
140 1.0
-140 1.0
141 1.0
-141 1.0
142 1.0
-142 1.0
143 1.0
-143 1.0
144 1.0
-144 1.0
145 1.0
-145 1.0
146 1.0
-146 1.0
147 1.0
-147 1.0
148 1.0
-148 1.0
149 1.0
-149 1.0
150 1.0
-150 1.0
151 1.0
-151 1.0
152 1.0
-152 1.0
153 1.0
-153 1.0
154 1.0
-154 1.0
155 1.0
-155 1.0
156 1.0
-156 1.0
157 1.0
-157 1.0
158 1.0
-158 1.0
159 1.0
-159 1.0
160 1.0
-160 1.0
161 1.0
-161 1.0
162 1.0
-162 1.0
163 1.0
-163 1.0
164 1.0
-164 1.0
165 1.0
-165 1.0
166 1.0
-166 1.0
167 1.0
-167 1.0
168 1.0
-168 1.0
169 1.0
-169 1.0
170 1.0
-170 1.0
171 1.0
-171 1.0
172 1.0
-172 1.0
173 1.0
-173 1.0
174 1.0
-174 1.0
175 1.0
-175 1.0
176 1.0
-176 1.0
177 1.0
-177 1.0
178 1.0
-178 1.0
179 1.0
-179 1.0
180 1.0
-180 1.0
181 1.0
-181 1.0
182 1.0
-182 1.0
183 1.0
-183 1.0
184 1.0
-184 1.0
185 1.0
-185 1.0
186 1.0
-186 1.0
187 1.0
-187 1.0
188 1.0
-188 1.0
189 1.0
-189 1.0
190 1.0
-190 1.0
191 1.0
-191 1.0
192 1.0
-192 1.0
193 1.0
-193 1.0
194 1.0
-194 1.0
195 1.0
-195 1.0
196 1.0
-196 1.0
197 1.0
-197 1.0
198 1.0
-198 1.0
199 1.0
-199 1.0
200 1.0
-200 1.0
201 1.0
-201 1.0
202 1.0
-202 1.0
203 1.0
-203 1.0
204 1.0
-204 1.0
205 1.0
-205 1.0
206 1.0
-206 1.0
207 1.0
-207 1.0
208 1.0
-208 1.0
209 1.0
-209 1.0
210 1.0
-210 1.0
211 1.0
-211 1.0
212 1.0
-212 1.0
213 1.0
-213 1.0
214 1.0
-214 1.0
215 1.0
-215 1.0
216 1.0
-216 1.0
217 1.0
-217 1.0
218 1.0
-218 1.0
219 1.0
-219 1.0
220 1.0
-220 1.0
221 1.0
-221 1.0
222 1.0
-222 1.0
223 1.0
-223 1.0
224 1.0
-224 1.0
225 1.0
-225 1.0
226 1.0
-226 1.0
227 1.0
-227 1.0
228 1.0
-228 1.0
229 1.0
-229 1.0
230 1.0
-230 1.0
231 1.0
-231 1.0
232 1.0
-232 1.0
233 1.0
-233 1.0
234 1.0
-234 1.0
235 1.0
-235 1.0
236 1.0
-236 1.0
237 1.0
-237 1.0
238 1.0
-238 1.0
239 1.0
-239 1.0
240 1.0
-240 1.0
241 1.0
-241 1.0
242 1.0
-242 1.0
243 1.0
-243 1.0
244 1.0
-244 1.0
245 1.0
-245 1.0
246 1.0
-246 1.0
247 1.0
-247 1.0
248 1.0
-248 1.0
249 1.0
-249 1.0
250 1.0
-250 1.0
251 1.0
-251 1.0
252 1.0
-252 1.0
253 1.0
-253 1.0
254 1.0
-254 1.0
255 1.0
-255 1.0
256 1.0
-256 1.0
257 1.0
-257 1.0
258 1.0
-258 1.0
259 1.0
-259 1.0
260 1.0
-260 1.0
261 1.0
-261 1.0
262 1.0
-262 1.0
263 1.0
-263 1.0
264 1.0
-264 1.0
265 1.0
-265 1.0
266 1.0
-266 1.0
267 1.0
-267 1.0
268 1.0
-268 1.0
269 1.0
-269 1.0
270 1.0
-270 1.0
271 1.0
-271 1.0
272 1.0
-272 1.0
273 1.0
-273 1.0
274 1.0
-274 1.0
275 1.0
-275 1.0
276 1.0
-276 1.0
277 1.0
-277 1.0
278 1.0
-278 1.0
279 1.0
-279 1.0
280 1.0
-280 1.0
281 1.0
-281 1.0
282 1.0
-282 1.0
283 1.0
-283 1.0
284 1.0
-284 1.0
285 1.0
-285 1.0
286 1.0
-286 1.0
287 1.0
-287 1.0
288 1.0
-288 1.0
289 1.0
-289 1.0
290 1.0
-290 1.0
291 1.0
-291 1.0
292 1.0
-292 1.0
293 1.0
-293 1.0
294 1.0
-294 1.0
295 1.0
-295 1.0
296 1.0
-296 1.0
297 1.0
-297 1.0
298 1.0
-298 1.0
299 1.0
-299 1.0
300 1.0
-300 1.0
301 1.0
-301 1.0
302 1.0
-302 1.0
303 1.0
-303 1.0
304 1.0
-304 1.0
305 1.0
-305 1.0
306 1.0
-306 1.0
307 1.0
-307 1.0
308 1.0
-308 1.0
309 1.0
-309 1.0
310 1.0
-310 1.0
311 1.0
-311 1.0
312 1.0
-312 1.0
313 1.0
-313 1.0
314 1.0
-314 1.0
315 1.0
-315 1.0
316 1.0
-316 1.0
317 1.0
-317 1.0
318 1.0
-318 1.0
319 1.0
-319 1.0
320 1.0
-320 1.0
321 1.0
-321 1.0
322 1.0
-322 1.0
323 1.0
-323 1.0
324 1.0
-324 1.0
325 0.5
-325 0.5
326 0.5
-326 0.5
327 0.771193
-327 0.228807
328 0.7737
-328 0.2263
329 0.066805
-329 0.933195
330 0.124547
-330 0.875453
331 0.525898
-331 0.474102
332 0.846061
-332 0.153939
333 0.492905
-333 0.507095
334 0.192342
-334 0.807658
335 0.777239
-335 0.222761
336 0.55667
-336 0.44333
337 0.5
-337 0.5
338 0.5
-338 0.5
339 0.082724
-339 0.917276
340 0.792752
-340 0.207248
341 0.007713
-341 0.992287
342 0.71466
-342 0.28534
343 0.260431
-343 0.739569
344 0.516118
-344 0.483882
345 0.5
-345 0.5
346 0.5
-346 0.5
347 0.5
-347 0.5
348 0.5
-348 0.5
349 0.5
-349 0.5
350 0.5
-350 0.5
351 0.5
-351 0.5
352 0.5
-352 0.5
353 0.5
-353 0.5
354 0.5
-354 0.5
355 0.5
-355 0.5
356 0.5
-356 0.5
357 0.5
-357 0.5
358 0.5
-358 0.5
359 0.547264
-359 0.452736
360 0.391421
-360 0.608579
361 0.324503
-361 0.675497
362 0.948091
-362 0.051909
363 0.717151
-363 0.282849
364 0.870925
-364 0.129075
365 0.799876
-365 0.200124
366 0.663676
-366 0.336324
367 0.542186
-367 0.457814
368 0.807588
-368 0.192412
369 0.5
-369 0.5
370 0.5
-370 0.5
371 0.5
-371 0.5
372 0.5
-372 0.5
373 0.5
-373 0.5
374 0.5
-374 0.5
375 0.5
-375 0.5
376 0.5
-376 0.5
377 0.023556
-377 0.976444
378 0.138316
-378 0.861684
379 0.210541
-379 0.789459
380 0.376575
-380 0.623425
381 0.5
-381 0.5
382 0.5
-382 0.5
383 0.5
-383 0.5
384 0.5
-384 0.5
385 0.774342
-385 0.225658
386 0.136667
-386 0.863333
387 0.915166
-387 0.084834
388 0.491493
-388 0.508507
389 0.5
-389 0.5
390 0.5
-390 0.5
391 0.5
-391 0.5
392 0.5
-392 0.5
393 0.5
-393 0.5
394 0.5
-394 0.5
395 0.5
-395 0.5
396 0.5
-396 0.5
397 0.50729
-397 0.49271
398 0.958577
-398 0.041423
399 0.177952
-399 0.822048
400 0.302374
-400 0.697626
401 0.860032
-401 0.139968
402 0.32593
-402 0.67407
403 0.886889
-403 0.113111
404 0.070573
-404 0.929427
405 0.284762
-405 0.715238
406 0.335473
-406 0.664527
407 0.278159
-407 0.721841
408 0.495516
-408 0.504484
409 0.5
-409 0.5
410 0.5
-410 0.5
411 0.5
-411 0.5
412 0.5
-412 0.5
413 0.291896
-413 0.708104
414 0.959733
-414 0.040267
415 0.05272
-415 0.94728
416 0.963164
-416 0.036836
417 0.5
-417 0.5
418 0.5
-418 0.5
419 0.5
-419 0.5
420 0.5
-420 0.5
421 0.686348
-421 0.313652
422 0.825944
-422 0.174056
423 0.915407
-423 0.084593
424 0.8643
-424 0.1357
425 0.5
-425 0.5
426 0.5
-426 0.5
427 0.5
-427 0.5
428 0.5
-428 0.5
429 0.5
-429 0.5
430 0.5
-430 0.5
431 0.5
-431 0.5
432 0.5
-432 0.5
433 0.5
-433 0.5
434 0.5
-434 0.5
435 0.562319
-435 0.437681
436 0.840547
-436 0.159453
437 0.362357
-437 0.637643
438 0.854215
-438 0.145785
439 0.415077
-439 0.584923
440 0.817379
-440 0.182621
441 0.101533
-441 0.898467
442 0.566754
-442 0.433246
443 0.830353
-443 0.169647
444 0.885408
-444 0.114592
445 0.786978
-445 0.213022
446 0.516701
-446 0.483299
447 0.702385
-447 0.297615
448 0.381
-448 0.619
449 0.839669
-449 0.160331
450 0.366365
-450 0.633635
451 0.5
-451 0.5
452 0.5
-452 0.5
453 0.5
-453 0.5
454 0.5
-454 0.5
455 0.5
-455 0.5
456 0.5
-456 0.5
457 0.5
-457 0.5
458 0.5
-458 0.5
459 0.870948
-459 0.129052
460 0.406277
-460 0.593723
461 0.047374
-461 0.952626
462 0.725163
-462 0.274837
463 0.5
-463 0.5
464 0.5
-464 0.5
465 0.5
-465 0.5
466 0.5
-466 0.5
467 0.5
-467 0.5
468 0.5
-468 0.5
469 0.5
-469 0.5
470 0.5
-470 0.5
471 0.862053
-471 0.137947
472 0.036144
-472 0.963856
473 0.465633
-473 0.534367
474 0.228418
-474 0.771582
475 0.5
-475 0.5
476 0.5
-476 0.5
477 0.5
-477 0.5
478 0.5
-478 0.5
479 0.072327
-479 0.927673
480 0.095805
-480 0.904195
481 0.982528
-481 0.017472
482 0.380955
-482 0.619045
483 0.667545
-483 0.332455
484 0.251903
-484 0.748097
485 0.067811
-485 0.932189
486 0.714918
-486 0.285082
487 0.274368
-487 0.725632
488 0.177369
-488 0.822631
489 0.519607
-489 0.480393
490 0.582459
-490 0.417541
491 0.5
-491 0.5
492 0.5
-492 0.5
493 0.5
-493 0.5
494 0.5
-494 0.5
495 0.5
-495 0.5
496 0.5
-496 0.5
497 0.5
-497 0.5
498 0.5
-498 0.5
499 0.5
-499 0.5
500 0.5
-500 0.5
501 0.28809
-501 0.71191
502 0.595378
-502 0.404622
503 0.182555
-503 0.817445
504 0.186606
-504 0.813394
505 0.27836
-505 0.72164
506 0.169134
-506 0.830866
507 0.04866
-507 0.95134
508 0.939894
-508 0.060106
509 0.300563
-509 0.699437
510 0.007706
-510 0.992294
511 0.551597
-511 0.448403
512 0.277629
-512 0.722371
513 0.5
-513 0.5
514 0.5
-514 0.5
515 0.5
-515 0.5
516 0.5
-516 0.5
517 0.585434
-517 0.414566
518 0.056724
-518 0.943276
519 0.741501
-519 0.258499
520 0.96148
-520 0.03852
521 0.655521
-521 0.344479
522 0.37367
-522 0.62633
523 0.016657
-523 0.983343
524 0.797958
-524 0.202042
525 0.98899
-525 0.01101
526 0.086048
-526 0.913952
527 0.522713
-527 0.477287
528 0.171546
-528 0.828454
529 0.5
-529 0.5
530 0.5
-530 0.5
531 0.5
-531 0.5
532 0.5
-532 0.5
533 0.5
-533 0.5
534 0.5
-534 0.5
535 0.5
-535 0.5
536 0.5
-536 0.5
537 0.67958
-537 0.32042
538 0.559028
-538 0.440972
539 0.614507
-539 0.385493
540 0.544113
-540 0.455887
541 0.5
-541 0.5
542 0.5
-542 0.5
543 0.5
-543 0.5
544 0.5
-544 0.5
545 0.5
-545 0.5
546 0.5
-546 0.5
547 0.5
-547 0.5
548 0.5
-548 0.5
549 0.5
-549 0.5
550 0.5
-550 0.5
551 0.5
-551 0.5
552 0.5
-552 0.5
553 0.5
-553 0.5
554 0.5
-554 0.5
555 0.5
-555 0.5
556 0.5
-556 0.5
557 0.883883
-557 0.116117
558 0.76957
-558 0.23043
559 0.408043
-559 0.591957
560 0.701154
-560 0.298846
561 0.5
-561 0.5
562 0.5
-562 0.5
563 0.5
-563 0.5
564 0.5
-564 0.5
565 0.122809
-565 0.877191
566 0.012929
-566 0.987071
567 0.665246
-567 0.334754
568 0.213836
-568 0.786164
569 0.5
-569 0.5
570 0.5
-570 0.5
571 0.739916
-571 0.260084
572 0.86533
-572 0.13467
573 0.070564
-573 0.929436
574 0.100727
-574 0.899273
575 0.5
-575 0.5
576 0.5
-576 0.5
577 0.5
-577 0.5
578 0.5
-578 0.5
579 0.607638
-579 0.392362
580 0.434714
-580 0.565286
581 0.987413
-581 0.012587
582 0.185617
-582 0.814383
583 0.5
-583 0.5
584 0.5
-584 0.5
585 0.5
-585 0.5
586 0.5
-586 0.5
587 0.335413
-587 0.664587
588 0.199395
-588 0.800605
589 0.022369
-589 0.977631
590 0.955116
-590 0.044884
591 0.5
-591 0.5
592 0.5
-592 0.5
593 0.5
-593 0.5
594 0.5
-594 0.5
595 0.214572
-595 0.785428
596 0.143308
-596 0.856692
597 0.852001
-597 0.147999
598 0.285136
-598 0.714864
599 0.5
-599 0.5
600 0.5
-600 0.5
601 0.5
-601 0.5
602 0.5
-602 0.5
603 0.5
-603 0.5
604 0.5
-604 0.5
605 0.5
-605 0.5
606 0.5
-606 0.5
607 0.5
-607 0.5
608 0.5
-608 0.5
609 0.5
-609 0.5
610 0.5
-610 0.5
611 0.469394
-611 0.530606
612 0.642391
-612 0.357609
613 0.580541
-613 0.419459
614 0.42451
-614 0.57549
615 0.615839
-615 0.384161
616 0.044871
-616 0.955129
617 0.500635
-617 0.499365
618 0.019232
-618 0.980768
619 0.5
-619 0.5
620 0.5
-620 0.5
621 0.5
-621 0.5
622 0.5
-622 0.5
623 0.5
-623 0.5
624 0.5
-624 0.5
625 0.5
-625 0.5
626 0.5
-626 0.5
627 0.014633
-627 0.985367
628 0.427341
-628 0.572659
629 0.256046
-629 0.743954
630 0.418414
-630 0.581586
631 0.49291
-631 0.50709
632 0.415854
-632 0.584146
633 0.675552
-633 0.324448
634 0.935906
-634 0.064094
635 0.144946
-635 0.855054
636 0.578297
-636 0.421703
637 0.554567
-637 0.445433
638 0.569455
-638 0.430545
639 0.170406
-639 0.829594
640 0.614326
-640 0.385674
641 0.5
-641 0.5
642 0.5
-642 0.5
643 0.5
-643 0.5
644 0.5
-644 0.5
645 0.758752
-645 0.241248
646 0.715352
-646 0.284648
647 0.029868
-647 0.970132
648 0.042447
-648 0.957553
649 0.661576
-649 0.338424
650 0.818612
-650 0.181388
651 0.526453
-651 0.473547
652 0.088916
-652 0.911084
653 0.5
-653 0.5
654 0.5
-654 0.5
655 0.5
-655 0.5
656 0.5
-656 0.5
657 0.5
-657 0.5
658 0.5
-658 0.5
659 0.5
-659 0.5
660 0.5
-660 0.5
661 0.02044
-661 0.97956
662 0.624662
-662 0.375338
663 0.059721
-663 0.940279
664 0.634766
-664 0.365234
665 0.249359
-665 0.750641
666 0.280633
-666 0.719367
667 0.426924
-667 0.573076
668 0.601536
-668 0.398464
669 0.186002
-669 0.813998
670 0.360289
-670 0.639711
671 0.525394
-671 0.474606
672 0.21587
-672 0.78413
673 0.5
-673 0.5
674 0.5
-674 0.5
675 0.5
-675 0.5
676 0.5
-676 0.5
677 0.296005
-677 0.703995
678 0.508534
-678 0.491466
679 0.596848
-679 0.403152
680 0.863572
-680 0.136428
681 0.902887
-681 0.097113
682 0.367045
-682 0.632955
683 0.204002
-683 0.795998
684 0.353872
-684 0.646128
685 0.5
-685 0.5
686 0.5
-686 0.5
687 0.5
-687 0.5
688 0.5
-688 0.5
689 0.5
-689 0.5
690 0.5
-690 0.5
691 0.5
-691 0.5
692 0.5
-692 0.5
693 0.5
-693 0.5
694 0.5
-694 0.5
695 0.5
-695 0.5
696 0.5
-696 0.5
697 0.766957
-697 0.233043
698 0.662362
-698 0.337638
699 0.447908
-699 0.552092
700 0.988304
-700 0.011696
701 0.5
-701 0.5
702 0.5
-702 0.5
703 0.5
-703 0.5
704 0.5
-704 0.5
705 0.5
-705 0.5
706 0.5
-706 0.5
707 0.5
-707 0.5
708 0.5
-708 0.5
709 0.5
-709 0.5
710 0.5
-710 0.5
711 0.642189
-711 0.357811
712 0.037217
-712 0.962783
713 0.054176
-713 0.945824
714 0.651266
-714 0.348734
715 0.456572
-715 0.543428
716 0.940978
-716 0.059022
717 0.947474
-717 0.052526
718 0.460504
-718 0.539496
719 0.5
-719 0.5
720 0.5
-720 0.5
721 0.5
-721 0.5
722 0.5
-722 0.5
723 0.328241
-723 0.671759
724 0.320439
-724 0.679561
725 0.579986
-725 0.420014
726 0.55427
-726 0.44573
727 0.864295
-727 0.135705
728 0.288834
-728 0.711166
729 0.745827
-729 0.254173
730 0.012175
-730 0.987825
731 0.659833
-731 0.340167
732 0.5271
-732 0.4729
733 0.700476
-733 0.299524
734 0.92771
-734 0.07229
735 0.5
-735 0.5
736 0.5
-736 0.5
737 0.5
-737 0.5
738 0.5
-738 0.5
739 0.5
-739 0.5
740 0.5
-740 0.5
741 0.5
-741 0.5
742 0.5
-742 0.5
743 0.202874
-743 0.797126
744 0.556482
-744 0.443518
745 0.397591
-745 0.602409
746 0.868753
-746 0.131247
747 0.5
-747 0.5
748 0.5
-748 0.5
749 0.5
-749 0.5
750 0.5
-750 0.5
751 0.48416
-751 0.51584
752 0.433554
-752 0.566446
753 0.040098
-753 0.959902
754 0.229988
-754 0.770012
755 0.5
-755 0.5
756 0.5
-756 0.5
757 0.5
-757 0.5
758 0.5
-758 0.5
759 0.46367
-759 0.53633
760 0.234842
-760 0.765158
761 0.387429
-761 0.612571
762 0.991727
-762 0.008273
763 0.608594
-763 0.391406
764 0.298667
-764 0.701333
765 0.002994
-765 0.997006
766 0.770736
-766 0.229264
767 0.57586
-767 0.42414
768 0.97361
-768 0.02639
769 0.109564
-769 0.890436
770 0.973451
-770 0.026549
771 0.538577
-771 0.461423
772 0.962724
-772 0.037276
773 0.039357
-773 0.960643
774 0.288028
-774 0.711972
775 0.79062
-775 0.20938
776 0.772189
-776 0.227811
777 0.965536
-777 0.034464
778 0.830719
-778 0.169281
779 0.5
-779 0.5
780 0.5
-780 0.5
781 0.891996
-781 0.108004
782 0.384095
-782 0.615905
783 0.396699
-783 0.603301
784 0.709526
-784 0.290474
785 0.63154
-785 0.36846
786 0.096955
-786 0.903045
787 0.839491
-787 0.160509
788 0.522172
-788 0.477828
789 0.138158
-789 0.861842
790 0.525166
-790 0.474834
791 0.476285
-791 0.523715
792 0.691241
-792 0.308759
793 0.5
-793 0.5
794 0.5
-794 0.5
795 0.5
-795 0.5
796 0.5
-796 0.5
797 0.5
-797 0.5
798 0.5
-798 0.5
799 0.5
-799 0.5
800 0.5
-800 0.5
801 0.5
-801 0.5
802 0.5
-802 0.5
803 0.5
-803 0.5
804 0.5
-804 0.5
805 0.716425
-805 0.283575
806 0.293771
-806 0.706229
807 0.330079
-807 0.669921
808 0.113123
-808 0.886877
809 0.5
-809 0.5
810 0.5
-810 0.5
811 0.5
-811 0.5
812 0.5
-812 0.5
813 0.5
-813 0.5
814 0.5
-814 0.5
815 0.5
-815 0.5
816 0.5
-816 0.5
817 0.893026
-817 0.106974
818 0.731981
-818 0.268019
819 0.647538
-819 0.352462
820 0.967503
-820 0.032497
821 0.5
-821 0.5
822 0.5
-822 0.5
823 0.5
-823 0.5
824 0.5
-824 0.5
825 0.478088
-825 0.521912
826 0.01393
-826 0.98607
827 0.108605
-827 0.891395
828 0.431041
-828 0.568959
829 0.5
-829 0.5
830 0.5
-830 0.5
831 0.5
-831 0.5
832 0.5
-832 0.5
833 0.562512
-833 0.437488
834 0.005253
-834 0.994747
835 0.813027
-835 0.186973
836 0.579847
-836 0.420153
837 0.5
-837 0.5
838 0.5
-838 0.5
839 0.5
-839 0.5
840 0.5
-840 0.5
841 0.957115
-841 0.042885
842 0.632895
-842 0.367105
843 0.229611
-843 0.770389
844 0.924618
-844 0.075382
845 0.216531
-845 0.783469
846 0.929321
-846 0.070679
847 0.012987
-847 0.987013
848 0.830862
-848 0.169138
849 0.491075
-849 0.508925
850 0.844791
-850 0.155209
851 0.922116
-851 0.077884
852 0.260496
-852 0.739504
853 0.666401
-853 0.333599
854 0.069582
-854 0.930418
855 0.05107
-855 0.94893
856 0.330172
-856 0.669828
857 0.682747
-857 0.317253
858 0.613582
-858 0.386418
859 0.5
-859 0.5
860 0.5
-860 0.5
861 0.5
-861 0.5
862 0.5
-862 0.5
863 0.671601
-863 0.328399
864 0.015516
-864 0.984484
865 0.51084
-865 0.48916
866 0.628716
-866 0.371284
867 0.740451
-867 0.259549
868 0.553334
-868 0.446666
869 0.305545
-869 0.694455
870 0.956982
-870 0.043018
871 0.5
-871 0.5
872 0.5
-872 0.5
873 0.5
-873 0.5
874 0.5
-874 0.5
875 0.597673
-875 0.402327
876 0.731723
-876 0.268277
877 0.893132
-877 0.106868
878 0.264074
-878 0.735926
879 0.863104
-879 0.136896
880 0.315144
-880 0.684856
881 0.131476
-881 0.868524
882 0.545851
-882 0.454149
883 0.466901
-883 0.533099
884 0.041624
-884 0.958376
885 0.122154
-885 0.877846
886 0.074413
-886 0.925587
887 0.5
-887 0.5
888 0.5
-888 0.5
889 0.5
-889 0.5
890 0.5
-890 0.5
891 0.5
-891 0.5
892 0.5
-892 0.5
893 0.5
-893 0.5
894 0.5
-894 0.5
895 0.5
-895 0.5
896 0.5
-896 0.5
897 0.5
-897 0.5
898 0.5
-898 0.5
899 0.5
-899 0.5
900 0.5
-900 0.5
901 0.5
-901 0.5
902 0.5
-902 0.5
903 0.435912
-903 0.564088
904 0.573472
-904 0.426528
905 0.918339
-905 0.081661
906 0.981763
-906 0.018237
907 0.385239
-907 0.614761
908 0.023387
-908 0.976613
909 0.624352
-909 0.375648
910 0.459652
-910 0.540348
911 0.5
-911 0.5
912 0.5
-912 0.5
913 0.5
-913 0.5
914 0.5
-914 0.5
915 0.5
-915 0.5
916 0.5
-916 0.5
917 0.5
-917 0.5
918 0.5
-918 0.5
919 0.741432
-919 0.258568
920 0.845486
-920 0.154514
921 0.5
-921 0.5
922 0.5
-922 0.5
923 0.5
-923 0.5
924 0.5
-924 0.5
925 0.5
-925 0.5
926 0.5
-926 0.5
927 0.5
-927 0.5
928 0.5
-928 0.5
929 0.515643
-929 0.484357
930 0.644013
-930 0.355987
931 0.071265
-931 0.928735
932 0.53903
-932 0.46097
933 0.5
-933 0.5
934 0.5
-934 0.5
935 0.5
-935 0.5
936 0.5
-936 0.5
937 0.5
-937 0.5
938 0.5
-938 0.5
939 0.5
-939 0.5
940 0.5
-940 0.5
941 0.538706
-941 0.461294
942 0.51837
-942 0.48163
943 0.744622
-943 0.255378
944 0.280138
-944 0.719862
945 0.5
-945 0.5
946 0.5
-946 0.5
947 0.5
-947 0.5
948 0.5
-948 0.5
949 0.938742
-949 0.061258
950 0.023917
-950 0.976083
951 0.520867
-951 0.479133
952 0.080557
-952 0.919443
953 0.03651
-953 0.96349
954 0.72457
-954 0.27543
955 0.781208
-955 0.218792
956 0.57554
-956 0.42446
957 0.312126
-957 0.687874
958 0.294182
-958 0.705818
959 0.936573
-959 0.063427
960 0.04871
-960 0.951291
961 0.5
-961 0.5
962 0.5
-962 0.5
963 0.5
-963 0.5
964 0.5
-964 0.5
965 0.5
-965 0.5
966 0.5
-966 0.5
967 0.5
-967 0.5
968 0.5
-968 0.5
969 0.699932
-969 0.300068
970 0.608415
-970 0.391585
971 0.366536
-971 0.633464
972 0.956162
-972 0.043838
973 0.305278
-973 0.694722
974 0.980079
-974 0.019921
975 0.116268
-975 0.883732
976 0.385835
-976 0.614165
977 0.152778
-977 0.847222
978 0.110405
-978 0.889595
979 0.47123
-979 0.52877
980 0.728318
-980 0.271682
981 0.5
-981 0.5
982 0.5
-982 0.5
983 0.5
-983 0.5
984 0.5
-984 0.5
985 0.5
-985 0.5
986 0.5
-986 0.5
987 0.5
-987 0.5
988 0.5
-988 0.5
989 0.5
-989 0.5
990 0.5
-990 0.5
991 0.5
-991 0.5
992 0.5
-992 0.5
993 0.5
-993 0.5
994 0.5
-994 0.5
995 0.687314
-995 0.312686
996 0.217368
-996 0.782632
997 0.273089
-997 0.726911
998 0.992592
-998 0.007408
999 0.5
-999 0.5
1000 0.5
-1000 0.5
1001 0.5
-1001 0.5
1002 0.5
-1002 0.5
1003 0.5
-1003 0.5
1004 0.5
-1004 0.5
1005 0.5
-1005 0.5
1006 0.5
-1006 0.5
1007 0.974119
-1007 0.025881
1008 0.67963
-1008 0.32037
1009 0.789241
-1009 0.210759
1010 0.171874
-1010 0.828126
1011 0.783572
-1011 0.216428
1012 0.56076
-1012 0.43924
1013 0.808738
-1013 0.191262
1014 0.133446
-1014 0.866554
1015 0.370012
-1015 0.629988
1016 0.202718
-1016 0.797282
1017 0.206178
-1017 0.793822
1018 0.631218
-1018 0.368782
1019 0.893492
-1019 0.106508
1020 0.848586
-1020 0.151414
1021 0.153494
-1021 0.846506
1022 0.886083
-1022 0.113917
1023 0.5
-1023 0.5
1024 0.5
-1024 0.5
1025 0.5
-1025 0.5
1026 0.5
-1026 0.5
1027 0.5
-1027 0.5
1028 0.5
-1028 0.5
1029 0.5
-1029 0.5
1030 0.5
-1030 0.5
1031 0.408373
-1031 0.591627
1032 0.32802
-1032 0.67198
1033 0.766834
-1033 0.233166
1034 0.580247
-1034 0.419753
1035 0.5
-1035 0.5
1036 0.5
-1036 0.5
1037 0.5
-1037 0.5
1038 0.5
-1038 0.5
1039 0.5
-1039 0.5
1040 0.5
-1040 0.5
1041 0.5
-1041 0.5
1042 0.5
-1042 0.5
1043 0.126078
-1043 0.873922
1044 0.658565
-1044 0.341435
1045 0.920469
-1045 0.079531
1046 0.012161
-1046 0.987839
1047 0.463319
-1047 0.536681
1048 0.276671
-1048 0.723329
1049 0.638101
-1049 0.361899
1050 0.548304
-1050 0.451696
1051 0.5
-1051 0.5
1052 0.5
-1052 0.5
1053 0.5
-1053 0.5
1054 0.5
-1054 0.5
1055 0.353117
-1055 0.646883
1056 0.772929
-1056 0.227071
1057 0.880151
-1057 0.119849
1058 0.119951
-1058 0.880049
1059 0.5
-1059 0.5
1060 0.5
-1060 0.5
1061 0.494182
-1061 0.505818
1062 0.68891
-1062 0.31109
1063 0.354209
-1063 0.645791
1064 0.52059
-1064 0.47941
1065 0.240779
-1065 0.759221
1066 0.753176
-1066 0.246824
1067 0.67765
-1067 0.32235
1068 0.007754
-1068 0.992246
1069 0.336215
-1069 0.663785
1070 0.928222
-1070 0.071778
1071 0.891415
-1071 0.108585
1072 0.040814
-1072 0.959186
1073 0.5
-1073 0.5
1074 0.5
-1074 0.5
1075 0.5
-1075 0.5
1076 0.5
-1076 0.5
1077 0.843586
-1077 0.156414
1078 0.573622
-1078 0.426378
1079 0.973771
-1079 0.026229
1080 0.395717
-1080 0.604283
1081 0.746699
-1081 0.253301
1082 0.275868
-1082 0.724132
1083 0.04669
-1083 0.95331
1084 0.099875
-1084 0.900125
1085 0.5
-1085 0.5
1086 0.5
-1086 0.5
1087 0.5
-1087 0.5
1088 0.5
-1088 0.5
1089 0.5
-1089 0.5
1090 0.5
-1090 0.5
1091 0.5
-1091 0.5
1092 0.5
-1092 0.5
1093 0.5
-1093 0.5
1094 0.5
-1094 0.5
1095 0.5
-1095 0.5
1096 0.5
-1096 0.5
1097 0.639552
-1097 0.360448
1098 0.806578
-1098 0.193422
1099 0.446203
-1099 0.553797
1100 0.579397
-1100 0.420603
1101 0.5
-1101 0.5
1102 0.5
-1102 0.5
1103 0.5
-1103 0.5
1104 0.5
-1104 0.5
1105 0.505038
-1105 0.494962
1106 0.775888
-1106 0.224112
1107 0.094569
-1107 0.905431
1108 0.551728
-1108 0.448272
1109 0.250598
-1109 0.749402
1110 0.268774
-1110 0.731226
1111 0.46982
-1111 0.53018
1112 0.095538
-1112 0.904462
1113 0.5
-1113 0.5
1114 0.5
-1114 0.5
1115 0.5
-1115 0.5
1116 0.5
-1116 0.5
1117 0.5
-1117 0.5
1118 0.5
-1118 0.5
1119 0.5
-1119 0.5
1120 0.5
-1120 0.5
1121 0.69217
-1121 0.30783
1122 0.859414
-1122 0.140586
1123 0.644437
-1123 0.355563
1124 0.138373
-1124 0.861627
1125 0.5
-1125 0.5
1126 0.5
-1126 0.5
1127 0.5
-1127 0.5
1128 0.5
-1128 0.5
1129 0.5
-1129 0.5
1130 0.5
-1130 0.5
1131 0.998867
-1131 0.001133
1132 0.775063
-1132 0.224937
1133 0.284178
-1133 0.715822
1134 0.87463
-1134 0.12537
1135 0.5
-1135 0.5
1136 0.5
-1136 0.5
1137 0.5
-1137 0.5
1138 0.5
-1138 0.5
1139 0.929348
-1139 0.070652
1140 0.545045
-1140 0.454955
1141 0.381207
-1141 0.618793
1142 0.127755
-1142 0.872245
1143 0.580575
-1143 0.419425
1144 0.052637
-1144 0.947363
1145 0.73676
-1145 0.26324
1146 0.418434
-1146 0.581566
1147 0.596174
-1147 0.403826
1148 0.06287
-1148 0.93713
1149 0.88318
-1149 0.11682
1150 0.034985
-1150 0.965016
1151 0.076971
-1151 0.923029
1152 0.896778
-1152 0.103222
1153 0.939396
-1153 0.060604
1154 0.29995
-1154 0.70005
1155 0.671847
-1155 0.328153
1156 0.298818
-1156 0.701182
1157 0.352336
-1157 0.647664
1158 0.956024
-1158 0.043976
1159 0.5
-1159 0.5
1160 0.5
-1160 0.5
1161 0.5
-1161 0.5
1162 0.5
-1162 0.5
1163 0.5
-1163 0.5
1164 0.5
-1164 0.5
1165 0.5
-1165 0.5
1166 0.5
-1166 0.5
1167 0.463901
-1167 0.536099
1168 0.408597
-1168 0.591403
1169 0.608938
-1169 0.391062
1170 0.200661
-1170 0.799339
1171 0.353745
-1171 0.646255
1172 0.796835
-1172 0.203165
1173 0.889901
-1173 0.110099
1174 0.236926
-1174 0.763074
1175 0.601885
-1175 0.398115
1176 0.313897
-1176 0.686103
1177 0.728597
-1177 0.271403
1178 0.541281
-1178 0.458719
1179 0.30587
-1179 0.69413
1180 0.213127
-1180 0.786873
1181 0.912665
-1181 0.087335
1182 0.658206
-1182 0.341794
1183 0.5
-1183 0.5
1184 0.5
-1184 0.5
1185 0.5
-1185 0.5
1186 0.5
-1186 0.5
1187 0.080086
-1187 0.919914
1188 0.050826
-1188 0.949175
1189 0.963948
-1189 0.036052
1190 0.02709
-1190 0.97291
1191 0.520248
-1191 0.479752
1192 0.490991
-1192 0.509009
1193 0.287445
-1193 0.712555
1194 0.129186
-1194 0.870814
1195 0.114475
-1195 0.885525
1196 0.482931
-1196 0.517069
1197 0.488486
-1197 0.511514
1198 0.004376
-1198 0.995624
1199 0.320305
-1199 0.679695
1200 0.60626
-1200 0.39374
1201 0.5
-1201 0.5
1202 0.5
-1202 0.5
1203 0.5
-1203 0.5
1204 0.5
-1204 0.5
1205 0.5
-1205 0.5
1206 0.5
-1206 0.5
1207 0.5
-1207 0.5
1208 0.5
-1208 0.5
1209 0.5
-1209 0.5
1210 0.5
-1210 0.5
1211 0.5
-1211 0.5
1212 0.5
-1212 0.5
1213 0.5
-1213 0.5
1214 0.5
-1214 0.5
1215 0.5
-1215 0.5
1216 0.5
-1216 0.5
1217 0.467507
-1217 0.532493
1218 0.197968
-1218 0.802032
1219 0.497767
-1219 0.502233
1220 0.581982
-1220 0.418018
1221 0.986254
-1221 0.013746
1222 0.586358
-1222 0.413642
1223 0.400757
-1223 0.599243
1224 0.306559
-1224 0.693441
1225 0.5
-1225 0.5
1226 0.5
-1226 0.5
1227 0.5
-1227 0.5
1228 0.5
-1228 0.5
1229 0.700827
-1229 0.299173
1230 0.642377
-1230 0.357623
1231 0.723215
-1231 0.276785
1232 0.230647
-1232 0.769353
1233 0.5
-1233 0.5
1234 0.5
-1234 0.5
1235 0.5
-1235 0.5
1236 0.5
-1236 0.5
1237 0.840358
-1237 0.159642
1238 0.905519
-1238 0.094481
1239 0.041754
-1239 0.958246
1240 0.020421
-1240 0.979579
1241 0.84787
-1241 0.15213
1242 0.487927
-1242 0.512073
1243 0.172269
-1243 0.827731
1244 0.345637
-1244 0.654363
1245 0.5
-1245 0.5
1246 0.5
-1246 0.5
1247 0.5
-1247 0.5
1248 0.5
-1248 0.5
1249 0.848885
-1249 0.151115
1250 0.688435
-1250 0.311565
1251 0.993912
-1251 0.006088
1252 0.189043
-1252 0.810957
1253 0.704147
-1253 0.295853
1254 0.88987
-1254 0.11013
1255 0.412923
-1255 0.587077
1256 0.427362
-1256 0.572638
1257 0.5
-1257 0.5
1258 0.5
-1258 0.5
1259 0.5
-1259 0.5
1260 0.5
-1260 0.5
1261 0.285742
-1261 0.714258
1262 0.081181
-1262 0.918819
1263 0.462263
-1263 0.537737
1264 0.327496
-1264 0.672504
1265 0.5
-1265 0.5
1266 0.5
-1266 0.5
1267 0.5
-1267 0.5
1268 0.5
-1268 0.5
1269 0.659438
-1269 0.340562
1270 0.462001
-1270 0.537999
1271 0.315705
-1271 0.684295
1272 0.715926
-1272 0.284074
1273 0.491343
-1273 0.508657
1274 0.16459
-1274 0.83541
1275 0.5
-1275 0.5
1276 0.5
-1276 0.5
1277 0.5
-1277 0.5
1278 0.5
-1278 0.5
1279 0.616764
-1279 0.383236
1280 0.364021
-1280 0.635979
1281 0.28951
-1281 0.71049
1282 0.816524
-1282 0.183476
1283 0.530332
-1283 0.469668
1284 0.373269
-1284 0.626731
1285 0.208874
-1285 0.791126
1286 0.611514
-1286 0.388486
1287 0.53637
-1287 0.46363
1288 0.713115
-1288 0.286885
1289 0.272096
-1289 0.727904
1290 0.711736
-1290 0.288264
1291 0.5
-1291 0.5
1292 0.5
-1292 0.5
1293 0.5
-1293 0.5
1294 0.5
-1294 0.5
1295 0.5
-1295 0.5
1296 0.5
-1296 0.5
1297 0.5
-1297 0.5
1298 0.5
-1298 0.5
1299 0.5
-1299 0.5
1300 0.5
-1300 0.5
1301 0.5
-1301 0.5
1302 0.5
-1302 0.5
1303 0.5
-1303 0.5
1304 0.5
-1304 0.5
1305 0.5
-1305 0.5
1306 0.5
-1306 0.5
1307 0.326668
-1307 0.673332
1308 0.045797
-1308 0.954203
1309 0.058189
-1309 0.941811
1310 0.535543
-1310 0.464457
1311 0.893722
-1311 0.106278
1312 0.071913
-1312 0.928087
1313 0.370426
-1313 0.629574
1314 0.165818
-1314 0.834182
1315 0.673071
-1315 0.326929
1316 0.046747
-1316 0.953253
1317 0.016387
-1317 0.983613
1318 0.635154
-1318 0.364846
1319 0.5
-1319 0.5
1320 0.5
-1320 0.5
1321 0.5
-1321 0.5
1322 0.5
-1322 0.5
1323 0.5
-1323 0.5
1324 0.5
-1324 0.5
1325 0.5
-1325 0.5
1326 0.5
-1326 0.5
1327 0.190847
-1327 0.809153
1328 0.775828
-1328 0.224172
1329 0.86125
-1329 0.13875
1330 0.594383
-1330 0.405617
1331 0.5
-1331 0.5
1332 0.5
-1332 0.5
1333 0.5
-1333 0.5
1334 0.5
-1334 0.5
1335 0.5
-1335 0.5
1336 0.5
-1336 0.5
1337 0.5
-1337 0.5
1338 0.5
-1338 0.5
1339 0.5
-1339 0.5
1340 0.5
-1340 0.5
1341 0.328543
-1341 0.671457
1342 0.673053
-1342 0.326947
1343 0.100322
-1343 0.899678
1344 0.430561
-1344 0.569439
1345 0.548855
-1345 0.451145
1346 0.109553
-1346 0.890447
1347 0.941317
-1347 0.058683
1348 0.460603
-1348 0.539397
1349 0.092649
-1349 0.907351
1350 0.010476
-1350 0.989524
1351 0.843629
-1351 0.156371
1352 0.283497
-1352 0.716503
1353 0.704879
-1353 0.295121
1354 0.87788
-1354 0.12212
1355 0.077598
-1355 0.922402
1356 0.251049
-1356 0.748951
1357 0.414689
-1357 0.585311
1358 0.855409
-1358 0.144591
1359 0.255526
-1359 0.744474
1360 0.40909
-1360 0.59091
1361 0.5
-1361 0.5
1362 0.5
-1362 0.5
1363 0.5
-1363 0.5
1364 0.5
-1364 0.5
1365 0.728035
-1365 0.271965
1366 0.424733
-1366 0.575267
1367 0.484871
-1367 0.515129
1368 0.828357
-1368 0.171643
1369 0.070867
-1369 0.929133
1370 0.377212
-1370 0.622788
1371 0.964846
-1371 0.035154
1372 0.012184
-1372 0.987816
1373 0.815621
-1373 0.184379
1374 0.104833
-1374 0.895167
1375 0.848292
-1375 0.151708
1376 0.659251
-1376 0.340749
1377 0.5
-1377 0.5
1378 0.5
-1378 0.5
1379 0.5
-1379 0.5
1380 0.5
-1380 0.5
1381 0.065141
-1381 0.934859
1382 0.126883
-1382 0.873117
1383 0.470588
-1383 0.529412
1384 0.320667
-1384 0.679333
1385 0.824078
-1385 0.175922
1386 0.1047
-1386 0.8953
1387 0.309892
-1387 0.690108
1388 0.841467
-1388 0.158533
1389 0.5
-1389 0.5
1390 0.5
-1390 0.5
1391 0.5
-1391 0.5
1392 0.5
-1392 0.5
1393 0.5
-1393 0.5
1394 0.5
-1394 0.5
1395 0.5
-1395 0.5
1396 0.5
-1396 0.5
1397 0.612885
-1397 0.387115
1398 0.261383
-1398 0.738617
1399 0.794464
-1399 0.205536
1400 0.461177
-1400 0.538823
1401 0.182794
-1401 0.817206
1402 0.095774
-1402 0.904226
1403 0.284764
-1403 0.715236
1404 0.449004
-1404 0.550996
1405 0.899943
-1405 0.100057
1406 0.514145
-1406 0.485855
1407 0.934852
-1407 0.065148
1408 0.370531
-1408 0.629469
1409 0.470825
-1409 0.529175
1410 0.194609
-1410 0.805391
1411 0.780718
-1411 0.219282
1412 0.036076
-1412 0.963924
1413 0.140402
-1413 0.859598
1414 0.902427
-1414 0.097573
1415 0.766024
-1415 0.233976
1416 0.509007
-1416 0.490993
1417 0.003436
-1417 0.996564
1418 0.24694
-1418 0.75306
1419 0.5
-1419 0.5
1420 0.5
-1420 0.5
1421 0.5
-1421 0.5
1422 0.5
-1422 0.5
1423 0.670549
-1423 0.329451
1424 0.852568
-1424 0.147432
1425 0.874719
-1425 0.125281
1426 0.853343
-1426 0.146657
1427 0.159483
-1427 0.840517
1428 0.302346
-1428 0.697654
1429 0.75631
-1429 0.24369
1430 0.059426
-1430 0.940574
1431 0.691162
-1431 0.308838
1432 0.429957
-1432 0.570043
1433 0.651303
-1433 0.348697
1434 0.161987
-1434 0.838013
1435 0.590814
-1435 0.409186
1436 0.942705
-1436 0.057295
1437 0.660642
-1437 0.339358
1438 0.731216
-1438 0.268784
1439 0.266219
-1439 0.733781
1440 0.49724
-1440 0.50276
1441 0.354139
-1441 0.645861
1442 0.269655
-1442 0.730345
1443 0.540593
-1443 0.459407
1444 0.048161
-1444 0.951839
1445 0.436881
-1445 0.563119
1446 0.416678
-1446 0.583322
1447 0.5
-1447 0.5
1448 0.5
-1448 0.5
1449 0.5
-1449 0.5
1450 0.5
-1450 0.5
1451 0.240462
-1451 0.759538
1452 0.425169
-1452 0.574831
1453 0.242916
-1453 0.757084
1454 0.996772
-1454 0.003228
1455 0.5
-1455 0.5
1456 0.5
-1456 0.5
1457 0.5
-1457 0.5
1458 0.5
-1458 0.5
1459 0.301524
-1459 0.698476
1460 0.792626
-1460 0.207374
1461 0.19976
-1461 0.80024
1462 0.03274
-1462 0.96726
1463 0.465979
-1463 0.534021
1464 0.52998
-1464 0.47002
1465 0.991897
-1465 0.008103
1466 0.735634
-1466 0.264366
1467 0.5
-1467 0.5
1468 0.5
-1468 0.5
1469 0.5
-1469 0.5
1470 0.5
-1470 0.5
1471 0.5
-1471 0.5
1472 0.5
-1472 0.5
1473 0.5
-1473 0.5
1474 0.5
-1474 0.5
1475 0.755927
-1475 0.244073
1476 0.792861
-1476 0.207139
1477 0.219882
-1477 0.780118
1478 0.752699
-1478 0.247301
1479 0.5
-1479 0.5
1480 0.5
-1480 0.5
1481 0.5
-1481 0.5
1482 0.5
-1482 0.5
1483 0.5
-1483 0.5
1484 0.5
-1484 0.5
1485 0.5
-1485 0.5
1486 0.5
-1486 0.5
1487 0.5
-1487 0.5
1488 0.5
-1488 0.5
1489 0.5
-1489 0.5
1490 0.5
-1490 0.5
1491 0.5
-1491 0.5
1492 0.5
-1492 0.5
1493 0.5
-1493 0.5
1494 0.5
-1494 0.5
1495 0.5
-1495 0.5
1496 0.5
-1496 0.5
1497 0.23089
-1497 0.76911
1498 0.655104
-1498 0.344896
1499 0.309141
-1499 0.690859
1500 0.207856
-1500 0.792144
1501 0.5
-1501 0.5
1502 0.5
-1502 0.5
1503 0.5
-1503 0.5
1504 0.5
-1504 0.5
1505 0.604364
-1505 0.395636
1506 0.571467
-1506 0.428533
1507 0.697026
-1507 0.302974
1508 0.894919
-1508 0.105081
1509 0.5
-1509 0.5
1510 0.5
-1510 0.5
1511 0.5
-1511 0.5
1512 0.5
-1512 0.5
1513 0.630343
-1513 0.369657
1514 0.167055
-1514 0.832945
1515 0.411875
-1515 0.588125
1516 0.762842
-1516 0.237158
1517 0.5
-1517 0.5
1518 0.5
-1518 0.5
1519 0.5
-1519 0.5
1520 0.5
-1520 0.5
1521 0.076348
-1521 0.923652
1522 0.082587
-1522 0.917413
1523 0.473875
-1523 0.526125
1524 0.385489
-1524 0.614511
1525 0.5
-1525 0.5
1526 0.5
-1526 0.5
1527 0.5
-1527 0.5
1528 0.5
-1528 0.5
1529 0.425206
-1529 0.574794
1530 0.653001
-1530 0.346999
1531 0.438417
-1531 0.561583
1532 0.122232
-1532 0.877768
1533 0.741009
-1533 0.258991
1534 0.110781
-1534 0.889219
1535 0.526019
-1535 0.473981
1536 0.974488
-1536 0.025512
1537 0.5
-1537 0.5
1538 0.5
-1538 0.5
1539 0.5
-1539 0.5
1540 0.5
-1540 0.5
1541 0.5
-1541 0.5
1542 0.5
-1542 0.5
1543 0.5
-1543 0.5
1544 0.5
-1544 0.5
1545 0.5
-1545 0.5
1546 0.5
-1546 0.5
1547 0.5
-1547 0.5
1548 0.5
-1548 0.5
