1 0.644565
-1 0.355435
2 1.0
-2 1.0
3 1.0
-3 1.0
4 1.0
-4 1.0
5 1.0
-5 1.0
6 1.0
-6 1.0
7 1.0
-7 1.0
8 1.0
-8 1.0
9 1.0
-9 1.0
10 1.0
-10 1.0
11 1.0
-11 1.0
12 1.0
-12 1.0
13 1.0
-13 1.0
14 1.0
-14 1.0
15 1.0
-15 1.0
16 1.0
-16 1.0
17 1.0
-17 1.0
18 1.0
-18 1.0
19 1.0
-19 1.0
20 1.0
-20 1.0
21 1.0
-21 1.0
22 1.0
-22 1.0
23 1.0
-23 1.0
24 1.0
-24 1.0
25 1.0
-25 1.0
26 1.0
-26 1.0
27 1.0
-27 1.0
28 1.0
-28 1.0
29 1.0
-29 1.0
30 1.0
-30 1.0
31 1.0
-31 1.0
32 1.0
-32 1.0
33 1.0
-33 1.0
34 1.0
-34 1.0
35 1.0
-35 1.0
36 1.0
-36 1.0
37 1.0
-37 1.0
38 1.0
-38 1.0
39 1.0
-39 1.0
40 1.0
-40 1.0
41 1.0
-41 1.0
42 1.0
-42 1.0
43 1.0
-43 1.0
44 1.0
-44 1.0
45 1.0
-45 1.0
46 1.0
-46 1.0
47 1.0
-47 1.0
48 1.0
-48 1.0
49 1.0
-49 1.0
50 1.0
-50 1.0
51 1.0
-51 1.0
52 1.0
-52 1.0
53 1.0
-53 1.0
54 1.0
-54 1.0
55 1.0
-55 1.0
56 1.0
-56 1.0
57 1.0
-57 1.0
58 1.0
-58 1.0
59 1.0
-59 1.0
60 1.0
-60 1.0
61 1.0
-61 1.0
62 1.0
-62 1.0
63 1.0
-63 1.0
64 1.0
-64 1.0
65 1.0
-65 1.0
66 1.0
-66 1.0
67 1.0
-67 1.0
68 1.0
-68 1.0
69 1.0
-69 1.0
70 1.0
-70 1.0
71 1.0
-71 1.0
72 1.0
-72 1.0
73 1.0
-73 1.0
74 1.0
-74 1.0
75 1.0
-75 1.0
76 1.0
-76 1.0
77 1.0
-77 1.0
78 1.0
-78 1.0
79 1.0
-79 1.0
80 1.0
-80 1.0
81 1.0
-81 1.0
82 1.0
-82 1.0
83 1.0
-83 1.0
84 1.0
-84 1.0
85 1.0
-85 1.0
86 1.0
-86 1.0
87 1.0
-87 1.0
88 1.0
-88 1.0
89 1.0
-89 1.0
90 1.0
-90 1.0
91 1.0
-91 1.0
92 1.0
-92 1.0
93 1.0
-93 1.0
94 1.0
-94 1.0
95 1.0
-95 1.0
96 1.0
-96 1.0
97 1.0
-97 1.0
98 1.0
-98 1.0
99 1.0
-99 1.0
100 1.0
-100 1.0
101 1.0
-101 1.0
102 1.0
-102 1.0
103 1.0
-103 1.0
104 1.0
-104 1.0
105 1.0
-105 1.0
106 1.0
-106 1.0
107 1.0
-107 1.0
108 1.0
-108 1.0
109 1.0
-109 1.0
110 1.0
-110 1.0
111 1.0
-111 1.0
112 1.0
-112 1.0
113 1.0
-113 1.0
114 1.0
-114 1.0
115 1.0
-115 1.0
116 1.0
-116 1.0
117 1.0
-117 1.0
118 1.0
-118 1.0
119 1.0
-119 1.0
120 1.0
-120 1.0
121 1.0
-121 1.0
122 1.0
-122 1.0
123 1.0
-123 1.0
124 1.0
-124 1.0
125 1.0
-125 1.0
126 1.0
-126 1.0
127 1.0
-127 1.0
128 1.0
-128 1.0
129 1.0
-129 1.0
130 1.0
-130 1.0
131 1.0
-131 1.0
132 1.0
-132 1.0
133 1.0
-133 1.0
134 1.0
-134 1.0
135 1.0
-135 1.0
136 1.0
-136 1.0
137 1.0
-137 1.0
138 1.0
-138 1.0
139 1.0
-139 1.0
140 1.0
-140 1.0
141 1.0
-141 1.0
142 1.0
-142 1.0
143 1.0
-143 1.0
144 1.0
-144 1.0
145 1.0
-145 1.0
146 1.0
-146 1.0
147 1.0
-147 1.0
148 1.0
-148 1.0
149 1.0
-149 1.0
150 1.0
-150 1.0
151 1.0
-151 1.0
152 1.0
-152 1.0
153 1.0
-153 1.0
154 1.0
-154 1.0
155 1.0
-155 1.0
156 1.0
-156 1.0
157 1.0
-157 1.0
158 1.0
-158 1.0
159 1.0
-159 1.0
160 1.0
-160 1.0
161 1.0
-161 1.0
162 1.0
-162 1.0
163 1.0
-163 1.0
164 1.0
-164 1.0
165 1.0
-165 1.0
166 1.0
-166 1.0
167 1.0
-167 1.0
168 1.0
-168 1.0
169 1.0
-169 1.0
170 1.0
-170 1.0
171 1.0
-171 1.0
172 1.0
-172 1.0
173 1.0
-173 1.0
174 1.0
-174 1.0
175 1.0
-175 1.0
176 1.0
-176 1.0
177 1.0
-177 1.0
178 1.0
-178 1.0
179 1.0
-179 1.0
180 1.0
-180 1.0
181 1.0
-181 1.0
182 1.0
-182 1.0
183 1.0
-183 1.0
184 1.0
-184 1.0
185 1.0
-185 1.0
186 1.0
-186 1.0
187 1.0
-187 1.0
188 1.0
-188 1.0
189 1.0
-189 1.0
190 1.0
-190 1.0
191 1.0
-191 1.0
192 1.0
-192 1.0
193 1.0
-193 1.0
194 1.0
-194 1.0
195 1.0
-195 1.0
196 1.0
-196 1.0
197 1.0
-197 1.0
198 1.0
-198 1.0
199 1.0
-199 1.0
200 1.0
-200 1.0
201 1.0
-201 1.0
202 1.0
-202 1.0
203 1.0
-203 1.0
204 1.0
-204 1.0
205 1.0
-205 1.0
206 1.0
-206 1.0
207 1.0
-207 1.0
208 1.0
-208 1.0
209 1.0
-209 1.0
210 1.0
-210 1.0
211 1.0
-211 1.0
212 1.0
-212 1.0
213 1.0
-213 1.0
214 1.0
-214 1.0
215 1.0
-215 1.0
216 1.0
-216 1.0
217 1.0
-217 1.0
218 1.0
-218 1.0
219 1.0
-219 1.0
220 1.0
-220 1.0
221 1.0
-221 1.0
222 1.0
-222 1.0
223 1.0
-223 1.0
224 1.0
-224 1.0
225 1.0
-225 1.0
226 1.0
-226 1.0
227 1.0
-227 1.0
228 1.0
-228 1.0
229 1.0
-229 1.0
230 1.0
-230 1.0
231 1.0
-231 1.0
232 1.0
-232 1.0
233 1.0
-233 1.0
234 1.0
-234 1.0
235 1.0
-235 1.0
236 1.0
-236 1.0
237 1.0
-237 1.0
238 1.0
-238 1.0
239 1.0
-239 1.0
240 1.0
-240 1.0
241 1.0
-241 1.0
242 1.0
-242 1.0
243 1.0
-243 1.0
244 1.0
-244 1.0
245 1.0
-245 1.0
246 1.0
-246 1.0
247 1.0
-247 1.0
248 1.0
-248 1.0
249 1.0
-249 1.0
250 1.0
-250 1.0
251 1.0
-251 1.0
252 1.0
-252 1.0
253 1.0
-253 1.0
254 1.0
-254 1.0
255 1.0
-255 1.0
256 1.0
-256 1.0
257 0.5
-257 0.5
258 0.5
-258 0.5
259 0.616548
-259 0.383452
260 0.933103
-260 0.066897
261 0.895568
-261 0.104432
262 0.098491
-262 0.901509
263 0.077114
-263 0.922886
264 0.018434
-264 0.981565
265 0.086851
-265 0.913149
266 0.162587
-266 0.837413
267 0.5
-267 0.5
268 0.5
-268 0.5
269 0.69961
-269 0.30039
270 0.669306
-270 0.330694
271 0.5
-271 0.5
272 0.5
-272 0.5
273 0.5
-273 0.5
274 0.5
-274 0.5
275 0.685803
-275 0.314197
276 0.669988
-276 0.330012
277 0.5
-277 0.5
278 0.5
-278 0.5
279 0.5
-279 0.5
280 0.5
-280 0.5
281 0.5
-281 0.5
282 0.5
-282 0.5
283 0.324849
-283 0.675151
284 0.74664
-284 0.25336
285 0.853268
-285 0.146732
286 0.642207
-286 0.357793
287 0.645523
-287 0.354477
288 0.719321
-288 0.280679
289 0.570568
-289 0.429432
290 0.806172
-290 0.193828
291 0.878057
-291 0.121943
292 0.632858
-292 0.367142
293 0.598971
-293 0.401029
294 0.332467
-294 0.667533
295 0.573805
-295 0.426195
296 0.863872
-296 0.136128
297 0.5
-297 0.5
298 0.5
-298 0.5
299 0.5
-299 0.5
300 0.5
-300 0.5
301 0.328379
-301 0.671621
302 0.325241
-302 0.674759
303 0.932319
-303 0.067681
304 0.659584
-304 0.340416
305 0.06241
-305 0.93759
306 0.325025
-306 0.674975
307 0.031059
-307 0.968941
308 0.80905
-308 0.19095
309 0.884327
-309 0.115673
310 0.451258
-310 0.548742
311 0.620605
-311 0.379395
312 0.52985
-312 0.47015
313 0.5
-313 0.5
314 0.5
-314 0.5
315 0.5
-315 0.5
316 0.5
-316 0.5
317 0.881251
-317 0.118749
318 0.813104
-318 0.186896
319 0.065744
-319 0.934256
320 0.455056
-320 0.544944
321 0.531885
-321 0.468115
322 0.358091
-322 0.641909
323 0.919723
-323 0.080277
324 0.734624
-324 0.265376
325 0.832459
-325 0.167541
326 0.063003
-326 0.936997
327 0.27217
-327 0.72783
328 0.764777
-328 0.235223
329 0.97838
-329 0.02162
330 0.827187
-330 0.172813
331 0.047613
-331 0.952387
332 0.009439
-332 0.990561
333 0.971183
-333 0.028817
334 0.893766
-334 0.106234
335 0.087495
-335 0.912505
336 0.591788
-336 0.408212
337 0.5
-337 0.5
338 0.5
-338 0.5
339 0.5
-339 0.5
340 0.5
-340 0.5
341 0.5
-341 0.5
342 0.5
-342 0.5
343 0.5
-343 0.5
344 0.5
-344 0.5
345 0.85494
-345 0.14506
346 0.929223
-346 0.070777
347 0.5518
-347 0.4482
348 0.589564
-348 0.410436
349 0.384259
-349 0.615741
350 0.652567
-350 0.347433
351 0.5
-351 0.5
352 0.5
-352 0.5
353 0.5
-353 0.5
354 0.5
-354 0.5
355 0.5
-355 0.5
356 0.5
-356 0.5
357 0.5
-357 0.5
358 0.5
-358 0.5
359 0.985738
-359 0.014262
360 0.453523
-360 0.546477
361 0.958029
-361 0.041971
362 0.913601
-362 0.086399
363 0.192854
-363 0.807146
364 0.055598
-364 0.944402
365 0.234868
-365 0.765132
366 0.30893
-366 0.69107
367 0.5
-367 0.5
368 0.5
-368 0.5
369 0.5
-369 0.5
370 0.5
-370 0.5
371 0.194575
-371 0.805425
372 0.002427
-372 0.997573
373 0.685438
-373 0.314562
374 0.578834
-374 0.421166
375 0.833761
-375 0.166239
376 0.72787
-376 0.27213
377 0.030148
-377 0.969852
378 0.960462
-378 0.039538
379 0.452915
-379 0.547085
380 0.096603
-380 0.903397
381 0.316553
-381 0.683447
382 0.846865
-382 0.153135
383 0.5
-383 0.5
384 0.5
-384 0.5
385 0.5
-385 0.5
386 0.5
-386 0.5
387 0.557589
-387 0.442411
388 0.167392
-388 0.832608
389 0.801801
-389 0.198199
390 0.792457
-390 0.207543
391 0.5
-391 0.5
392 0.5
-392 0.5
393 0.5
-393 0.5
394 0.5
-394 0.5
395 0.5
-395 0.5
396 0.5
-396 0.5
397 0.5
-397 0.5
398 0.5
-398 0.5
399 0.5
-399 0.5
400 0.5
-400 0.5
401 0.5
-401 0.5
402 0.5
-402 0.5
403 0.741935
-403 0.258065
404 0.977198
-404 0.022802
405 0.750591
-405 0.249409
406 0.868444
-406 0.131556
407 0.583193
-407 0.416807
408 0.448476
-408 0.551524
409 0.968244
-409 0.031756
410 0.329397
-410 0.670603
411 0.5
-411 0.5
412 0.5
-412 0.5
413 0.5
-413 0.5
414 0.5
-414 0.5
415 0.5
-415 0.5
416 0.5
-416 0.5
417 0.398971
-417 0.601029
418 0.912145
-418 0.087855
419 0.134013
-419 0.865987
420 0.048821
-420 0.951179
421 0.985122
-421 0.014878
422 0.277503
-422 0.722497
423 0.098476
-423 0.901524
424 0.669991
-424 0.330009
425 0.5
-425 0.5
426 0.5
-426 0.5
427 0.5
-427 0.5
428 0.5
-428 0.5
429 0.5
-429 0.5
430 0.5
-430 0.5
431 0.5
-431 0.5
432 0.5
-432 0.5
433 0.374179
-433 0.625821
434 0.83385
-434 0.16615
435 0.116193
-435 0.883807
436 0.380245
-436 0.619755
437 0.247391
-437 0.752609
438 0.178767
-438 0.821233
439 0.581444
-439 0.418556
440 0.191089
-440 0.808911
441 0.5
-441 0.5
442 0.5
-442 0.5
443 0.5
-443 0.5
444 0.5
-444 0.5
445 0.668923
-445 0.331077
446 0.916384
-446 0.083616
447 0.016104
-447 0.983896
448 0.338914
-448 0.661086
449 0.5
-449 0.5
450 0.5
-450 0.5
451 0.5
-451 0.5
452 0.5
-452 0.5
453 0.222007
-453 0.777993
454 0.637198
-454 0.362802
455 0.782643
-455 0.217357
456 0.008804
-456 0.991196
457 0.5
-457 0.5
458 0.5
-458 0.5
459 0.5
-459 0.5
460 0.5
-460 0.5
461 0.5
-461 0.5
462 0.5
-462 0.5
463 0.5
-463 0.5
464 0.5
-464 0.5
465 0.153538
-465 0.846462
466 0.137873
-466 0.862127
467 0.401012
-467 0.598988
468 0.792418
-468 0.207582
469 0.5
-469 0.5
470 0.5
-470 0.5
471 0.5
-471 0.5
472 0.5
-472 0.5
473 0.636995
-473 0.363005
474 0.063086
-474 0.936914
475 0.655398
-475 0.344602
476 0.774582
-476 0.225418
477 0.821418
-477 0.178582
478 0.877406
-478 0.122594
479 0.5
-479 0.5
480 0.5
-480 0.5
481 0.5
-481 0.5
482 0.5
-482 0.5
483 0.5
-483 0.5
484 0.5
-484 0.5
485 0.5
-485 0.5
486 0.5
-486 0.5
487 0.283227
-487 0.716773
488 0.691169
-488 0.308831
489 0.100611
-489 0.899389
490 0.4211
-490 0.5789
491 0.5
-491 0.5
492 0.5
-492 0.5
493 0.5
-493 0.5
494 0.5
-494 0.5
495 0.570963
-495 0.429037
496 0.461073
-496 0.538927
497 0.185199
-497 0.814801
498 0.634049
-498 0.365951
499 0.5
-499 0.5
500 0.5
-500 0.5
501 0.5
-501 0.5
502 0.5
-502 0.5
503 0.790933
-503 0.209067
504 0.604212
-504 0.395788
505 0.243568
-505 0.756432
506 0.011487
-506 0.988513
507 0.058347
-507 0.941653
508 0.818021
-508 0.181979
509 0.999016
-509 0.000984
510 0.443515
-510 0.556485
511 0.946089
-511 0.053911
512 0.726742
-512 0.273258
513 0.483148
-513 0.516852
514 0.046701
-514 0.953299
515 0.5
-515 0.5
516 0.5
-516 0.5
517 0.5
-517 0.5
518 0.5
-518 0.5
519 0.172646
-519 0.827354
520 0.308406
-520 0.691594
521 0.002636
-521 0.997364
522 0.357845
-522 0.642155
523 0.368089
-523 0.631911
524 0.198443
-524 0.801557
525 0.351085
-525 0.648915
526 0.554961
-526 0.445039
527 0.171496
-527 0.828504
528 0.345894
-528 0.654106
529 0.520658
-529 0.479342
530 0.415063
-530 0.584937
531 0.5
-531 0.5
532 0.5
-532 0.5
533 0.5
-533 0.5
534 0.5
-534 0.5
535 0.967381
-535 0.032619
536 0.081182
-536 0.918818
537 0.450529
-537 0.549471
538 0.127883
-538 0.872117
539 0.791509
-539 0.208491
540 0.025857
-540 0.974143
541 0.5
-541 0.5
542 0.5
-542 0.5
543 0.5
-543 0.5
544 0.5
-544 0.5
545 0.5
-545 0.5
546 0.5
-546 0.5
547 0.5
-547 0.5
548 0.5
-548 0.5
549 0.5
-549 0.5
550 0.5
-550 0.5
551 0.5
-551 0.5
552 0.5
-552 0.5
553 0.581988
-553 0.418012
554 0.951804
-554 0.048196
555 0.238136
-555 0.761864
556 0.718065
-556 0.281935
557 0.5
-557 0.5
558 0.5
-558 0.5
559 0.5
-559 0.5
560 0.5
-560 0.5
561 0.985806
-561 0.014194
562 0.831448
-562 0.168552
563 0.062223
-563 0.937777
564 0.777315
-564 0.222685
565 0.129836
-565 0.870164
566 0.193266
-566 0.806734
567 0.620604
-567 0.379396
568 0.739011
-568 0.260989
569 0.692309
-569 0.307691
570 0.350823
-570 0.649177
571 0.728306
-571 0.271694
572 0.706469
-572 0.293531
573 0.5
-573 0.5
574 0.5
-574 0.5
575 0.5
-575 0.5
576 0.5
-576 0.5
577 0.746338
-577 0.253662
578 0.51651
-578 0.48349
579 0.560258
-579 0.439742
580 0.984474
-580 0.015526
581 0.5
-581 0.5
582 0.5
-582 0.5
583 0.5
-583 0.5
584 0.5
-584 0.5
585 0.022074
-585 0.977926
586 0.313416
-586 0.686584
587 0.61038
-587 0.38962
588 0.084296
-588 0.915704
589 0.5
-589 0.5
590 0.5
-590 0.5
591 0.5
-591 0.5
592 0.5
-592 0.5
593 0.065859
-593 0.934141
594 0.780599
-594 0.219401
595 0.303966
-595 0.696034
596 0.794165
-596 0.205835
597 0.5
-597 0.5
598 0.5
-598 0.5
599 0.558781
-599 0.441219
600 0.500273
-600 0.499727
601 0.601879
-601 0.398121
602 0.167235
-602 0.832765
603 0.5
-603 0.5
604 0.5
-604 0.5
605 0.5
-605 0.5
606 0.5
-606 0.5
607 0.629097
-607 0.370903
608 0.440699
-608 0.559301
609 0.040574
-609 0.959426
610 0.408028
-610 0.591972
611 0.5
-611 0.5
612 0.5
-612 0.5
613 0.5
-613 0.5
614 0.5
-614 0.5
615 0.5
-615 0.5
616 0.5
-616 0.5
617 0.5
-617 0.5
618 0.5
-618 0.5
619 0.354981
-619 0.645019
620 0.018311
-620 0.981689
621 0.58874
-621 0.41126
622 0.842049
-622 0.157951
623 0.256097
-623 0.743903
624 0.40083
-624 0.59917
625 0.153272
-625 0.846728
626 0.857976
-626 0.142024
627 0.399883
-627 0.600117
628 0.976365
-628 0.023635
629 0.295558
-629 0.704442
630 0.630968
-630 0.369032
631 0.5
-631 0.5
632 0.5
-632 0.5
633 0.5
-633 0.5
634 0.5
-634 0.5
635 0.2328
-635 0.7672
636 0.403085
-636 0.596915
637 0.686502
-637 0.313498
638 0.779869
-638 0.220131
639 0.172596
-639 0.827404
640 0.54107
-640 0.45893
641 0.57652
-641 0.42348
642 0.746978
-642 0.253022
643 0.5
-643 0.5
644 0.5
-644 0.5
645 0.5
-645 0.5
646 0.5
-646 0.5
647 0.926724
-647 0.073276
648 0.215933
-648 0.784067
649 0.344839
-649 0.655161
650 0.079996
-650 0.920003
651 0.5
-651 0.5
652 0.5
-652 0.5
653 0.5
-653 0.5
654 0.5
-654 0.5
655 0.5
-655 0.5
656 0.5
-656 0.5
657 0.5
-657 0.5
658 0.5
-658 0.5
659 0.5
-659 0.5
660 0.5
-660 0.5
661 0.72551
-661 0.27449
662 0.1623
-662 0.8377
663 0.51697
-663 0.48303
664 0.898105
-664 0.101895
665 0.09349
-665 0.90651
666 0.645084
-666 0.354916
667 0.958784
-667 0.041216
668 0.464585
-668 0.535415
669 0.232509
-669 0.767491
670 0.424421
-670 0.575579
671 0.691052
-671 0.308948
672 0.159233
-672 0.840767
673 0.035891
-673 0.964109
674 0.23923
-674 0.76077
675 0.714263
-675 0.285737
676 0.948796
-676 0.051204
677 0.764536
-677 0.235464
678 0.157258
-678 0.842742
679 0.829958
-679 0.170042
680 0.144138
-680 0.855862
681 0.5
-681 0.5
682 0.5
-682 0.5
683 0.5
-683 0.5
684 0.5
-684 0.5
685 0.309488
-685 0.690512
686 0.96539
-686 0.03461
687 0.8385
-687 0.1615
688 0.826457
-688 0.173543
689 0.54187
-689 0.45813
690 0.919947
-690 0.080053
691 0.508579
-691 0.491421
692 0.500654
-692 0.499346
693 0.5
-693 0.5
694 0.5
-694 0.5
695 0.5
-695 0.5
696 0.5
-696 0.5
697 0.449308
-697 0.550692
698 0.982565
-698 0.017435
699 0.131626
-699 0.868374
700 0.16357
-700 0.83643
701 0.850735
-701 0.149265
702 0.928106
-702 0.071894
703 0.088619
-703 0.911381
704 0.680693
-704 0.319307
705 0.5
-705 0.5
706 0.5
-706 0.5
707 0.5
-707 0.5
708 0.5
-708 0.5
709 0.5
-709 0.5
710 0.5
-710 0.5
711 0.5
-711 0.5
712 0.5
-712 0.5
713 0.422582
-713 0.577418
714 0.159077
-714 0.840923
715 0.458908
-715 0.541092
716 0.923236
-716 0.076764
717 0.71453
-717 0.28547
718 0.656399
-718 0.343601
719 0.352563
-719 0.647437
720 0.661204
-720 0.338796
721 0.801871
-721 0.198129
722 0.643769
-722 0.356231
723 0.965442
-723 0.034558
724 0.57513
-724 0.42487
725 0.531155
-725 0.468845
726 0.893548
-726 0.106452
727 0.211848
-727 0.788152
728 0.965792
-728 0.034208
729 0.12661
-729 0.87339
730 0.093413
-730 0.906587
731 0.5
-731 0.5
732 0.5
-732 0.5
733 0.5
-733 0.5
734 0.5
-734 0.5
735 0.5
-735 0.5
736 0.5
-736 0.5
737 0.5
-737 0.5
738 0.5
-738 0.5
739 0.5
-739 0.5
740 0.5
-740 0.5
741 0.5
-741 0.5
742 0.5
-742 0.5
743 0.5
-743 0.5
744 0.5
-744 0.5
745 0.5
-745 0.5
746 0.5
-746 0.5
747 0.486162
-747 0.513838
748 0.704159
-748 0.295841
749 0.305562
-749 0.694438
750 0.017317
-750 0.982683
751 0.969311
-751 0.030689
752 0.229165
-752 0.770835
753 0.563499
-753 0.436501
754 0.095921
-754 0.904079
755 0.5
-755 0.5
756 0.5
-756 0.5
757 0.5
-757 0.5
758 0.5
-758 0.5
759 0.839129
-759 0.160871
760 0.524053
-760 0.475947
761 0.849778
-761 0.150222
762 0.09115
-762 0.90885
763 0.5
-763 0.5
764 0.5
-764 0.5
765 0.5
-765 0.5
766 0.5
-766 0.5
767 0.5
-767 0.5
768 0.5
-768 0.5
769 0.5
-769 0.5
770 0.5
-770 0.5
771 0.5
-771 0.5
772 0.5
-772 0.5
773 0.5
-773 0.5
774 0.5
-774 0.5
775 0.5
-775 0.5
776 0.5
-776 0.5
777 0.5
-777 0.5
778 0.5
-778 0.5
779 0.5
-779 0.5
780 0.5
-780 0.5
781 0.5
-781 0.5
782 0.5
-782 0.5
783 0.5
-783 0.5
784 0.5
-784 0.5
785 0.5
-785 0.5
786 0.5
-786 0.5
787 0.5
-787 0.5
788 0.5
-788 0.5
789 0.5
-789 0.5
790 0.5
-790 0.5
791 0.5
-791 0.5
792 0.5
-792 0.5
793 0.335868
-793 0.664132
794 0.731365
-794 0.268635
795 0.631091
-795 0.368909
796 0.486165
-796 0.513835
797 0.981858
-797 0.018142
798 0.34062
-798 0.65938
799 0.126197
-799 0.873803
800 0.349942
-800 0.650058
801 0.445705
-801 0.554295
802 0.947191
-802 0.052809
803 0.808444
-803 0.191556
804 0.861134
-804 0.138866
805 0.719409
-805 0.280591
806 0.602278
-806 0.397722
807 0.324284
-807 0.675716
808 0.899698
-808 0.100302
809 0.5
-809 0.5
810 0.5
-810 0.5
811 0.5
-811 0.5
812 0.5
-812 0.5
813 0.320263
-813 0.679737
814 0.197845
-814 0.802155
815 0.217371
-815 0.782629
816 0.244552
-816 0.755448
817 0.983858
-817 0.016142
818 0.58042
-818 0.41958
819 0.346373
-819 0.653627
820 0.614949
-820 0.385051
821 0.5
-821 0.5
822 0.5
-822 0.5
823 0.5
-823 0.5
824 0.5
-824 0.5
825 0.199987
-825 0.800013
826 0.694273
-826 0.305727
827 0.893939
-827 0.106061
828 0.008431
-828 0.991569
829 0.760958
-829 0.239042
830 0.72784
-830 0.27216
831 0.157685
-831 0.842315
832 0.085241
-832 0.914759
833 0.469289
-833 0.530711
834 0.705919
-834 0.294081
835 0.231577
-835 0.768423
836 0.339997
-836 0.660003
837 0.741325
-837 0.258675
838 0.66026
-838 0.33974
839 0.911985
-839 0.088015
840 0.958697
-840 0.041303
841 0.526993
-841 0.473007
842 0.942555
-842 0.057445
843 0.485232
-843 0.514768
844 0.873366
-844 0.126634
845 0.551816
-845 0.448184
846 0.995738
-846 0.004262
847 0.5
-847 0.5
848 0.5
-848 0.5
849 0.5
-849 0.5
850 0.5
-850 0.5
851 0.994998
-851 0.005002
852 0.167439
-852 0.832561
853 0.493987
-853 0.506013
854 0.755955
-854 0.244045
855 0.651672
-855 0.348328
856 0.841197
-856 0.158803
857 0.522817
-857 0.477183
858 0.120961
-858 0.879039
859 0.754394
-859 0.245606
860 0.460958
-860 0.539042
861 0.261255
-861 0.738745
862 0.49572
-862 0.50428
863 0.5
-863 0.5
864 0.5
-864 0.5
865 0.5
-865 0.5
866 0.5
-866 0.5
867 0.5
-867 0.5
868 0.5
-868 0.5
869 0.5
-869 0.5
870 0.5
-870 0.5
871 0.108785
-871 0.891215
872 0.0221
-872 0.9779
873 0.813643
-873 0.186357
874 0.209843
-874 0.790157
875 0.5
-875 0.5
876 0.5
-876 0.5
877 0.5
-877 0.5
878 0.5
-878 0.5
879 0.5
-879 0.5
880 0.5
-880 0.5
881 0.5
-881 0.5
882 0.5
-882 0.5
883 0.5
-883 0.5
884 0.5
-884 0.5
885 0.5
-885 0.5
886 0.5
-886 0.5
887 0.783604
-887 0.216396
888 0.471173
-888 0.528827
889 0.62705
-889 0.37295
890 0.483838
-890 0.516162
891 0.138313
-891 0.861687
892 0.057437
-892 0.942563
893 0.822618
-893 0.177382
894 0.201393
-894 0.798607
895 0.931403
-895 0.068597
896 0.223493
-896 0.776507
897 0.440417
-897 0.559583
898 0.141246
-898 0.858754
899 0.5
-899 0.5
900 0.5
-900 0.5
901 0.5
-901 0.5
902 0.5
-902 0.5
903 0.5
-903 0.5
904 0.5
-904 0.5
905 0.5
-905 0.5
906 0.5
-906 0.5
907 0.5
-907 0.5
908 0.5
-908 0.5
909 0.5
-909 0.5
910 0.5
-910 0.5
911 0.5
-911 0.5
912 0.5
-912 0.5
913 0.772584
-913 0.227416
914 0.063446
-914 0.936554
915 0.33579
-915 0.66421
916 0.640728
-916 0.359272
917 0.5
-917 0.5
918 0.5
-918 0.5
919 0.5
-919 0.5
920 0.5
-920 0.5
921 0.460418
-921 0.539582
922 0.535996
-922 0.464004
923 0.031246
-923 0.968754
924 0.653058
-924 0.346942
925 0.784394
-925 0.215606
926 0.091908
-926 0.908092
927 0.188967
-927 0.811033
928 0.781368
-928 0.218632
929 0.5
-929 0.5
930 0.5
-930 0.5
931 0.5
-931 0.5
932 0.5
-932 0.5
933 0.619591
-933 0.380409
934 0.824177
-934 0.175823
935 0.131051
-935 0.868949
936 0.055987
-936 0.944013
937 0.903635
-937 0.096365
938 0.119432
-938 0.880568
939 0.01192
-939 0.98808
940 0.544364
-940 0.455636
941 0.5
-941 0.5
942 0.5
-942 0.5
943 0.5
-943 0.5
944 0.5
-944 0.5
945 0.5
-945 0.5
946 0.5
-946 0.5
947 0.5
-947 0.5
948 0.5
-948 0.5
949 0.820541
-949 0.179459
950 0.166626
-950 0.833374
951 0.630531
-951 0.369469
952 0.009508
-952 0.990492
953 0.059172
-953 0.940828
954 0.307352
-954 0.692648
955 0.49298
-955 0.50702
956 0.843387
-956 0.156613
957 0.5
-957 0.5
958 0.5
-958 0.5
959 0.5
-959 0.5
960 0.5
-960 0.5
961 0.563487
-961 0.436513
962 0.357306
-962 0.642694
963 0.638397
-963 0.361603
964 0.575407
-964 0.424593
965 0.959588
-965 0.040412
966 0.980554
-966 0.019446
967 0.909381
-967 0.090619
968 0.68393
-968 0.31607
969 0.5
-969 0.5
970 0.5
-970 0.5
971 0.5
-971 0.5
972 0.5
-972 0.5
973 0.5
-973 0.5
974 0.5
-974 0.5
975 0.5
-975 0.5
976 0.5
-976 0.5
977 0.5
-977 0.5
978 0.5
-978 0.5
979 0.3877
-979 0.6123
980 0.02475
-980 0.97525
981 0.36298
-981 0.63702
982 0.450881
-982 0.549119
983 0.5
-983 0.5
984 0.5
-984 0.5
985 0.5
-985 0.5
986 0.5
-986 0.5
987 0.158347
-987 0.841653
988 0.983321
-988 0.016679
989 0.477133
-989 0.522867
990 0.060017
-990 0.939983
991 0.457686
-991 0.542314
992 0.969398
-992 0.030602
993 0.626839
-993 0.373161
994 0.863387
-994 0.136613
995 0.5
-995 0.5
996 0.5
-996 0.5
997 0.5
-997 0.5
998 0.5
-998 0.5
999 0.602377
-999 0.397623
1000 0.66268
-1000 0.33732
1001 0.444965
-1001 0.555035
1002 0.682724
-1002 0.317276
1003 0.5
-1003 0.5
1004 0.5
-1004 0.5
1005 0.5
-1005 0.5
1006 0.5
-1006 0.5
1007 0.566571
-1007 0.433429
1008 0.153497
-1008 0.846503
1009 0.859543
-1009 0.140457
1010 0.367612
-1010 0.632388
1011 0.5
-1011 0.5
1012 0.5
-1012 0.5
1013 0.5
-1013 0.5
1014 0.5
-1014 0.5
1015 0.5
-1015 0.5
1016 0.5
-1016 0.5
1017 0.5
-1017 0.5
1018 0.5
-1018 0.5
1019 0.713245
-1019 0.286755
1020 0.714129
-1020 0.285871
1021 0.36815
-1021 0.63185
1022 0.79215
-1022 0.20785
1023 0.970526
-1023 0.029474
1024 0.45483
-1024 0.54517
1025 0.143637
-1025 0.856363
1026 0.653251
-1026 0.346749
1027 0.108195
-1027 0.891805
1028 0.723675
-1028 0.276325
1029 0.868481
-1029 0.131519
1030 0.435733
-1030 0.564267
1031 0.5
-1031 0.5
1032 0.5
-1032 0.5
1033 0.104523
-1033 0.895477
1034 0.802663
-1034 0.197337
1035 0.08765
-1035 0.91235
1036 0.865792
-1036 0.134208
1037 0.5
-1037 0.5
1038 0.5
-1038 0.5
1039 0.5
-1039 0.5
1040 0.5
-1040 0.5
1041 0.469972
-1041 0.530028
1042 0.045531
-1042 0.954469
1043 0.359757
-1043 0.640243
1044 0.306585
-1044 0.693415
1045 0.073886
-1045 0.926114
1046 0.674735
-1046 0.325265
1047 0.550926
-1047 0.449074
1048 0.772558
-1048 0.227442
1049 0.005756
-1049 0.994244
1050 0.916195
-1050 0.083805
1051 0.298512
-1051 0.701488
1052 0.655037
-1052 0.344963
1053 0.5
-1053 0.5
1054 0.5
-1054 0.5
1055 0.5
-1055 0.5
1056 0.5
-1056 0.5
1057 0.049351
-1057 0.950649
1058 0.371688
-1058 0.628312
1059 0.761233
-1059 0.238767
1060 0.137002
-1060 0.862998
1061 0.5
-1061 0.5
1062 0.5
-1062 0.5
1063 0.5
-1063 0.5
1064 0.5
-1064 0.5
1065 0.141956
-1065 0.858044
1066 0.474425
-1066 0.525575
1067 0.745966
-1067 0.254034
1068 0.501713
-1068 0.498287
1069 0.504742
-1069 0.495258
1070 0.575599
-1070 0.424401
1071 0.455745
-1071 0.544255
1072 0.055668
-1072 0.944332
1073 0.5
-1073 0.5
1074 0.5
-1074 0.5
1075 0.5
-1075 0.5
1076 0.5
-1076 0.5
1077 0.288742
-1077 0.711258
1078 0.421703
-1078 0.578297
1079 0.239979
-1079 0.760021
1080 0.748864
-1080 0.251136
1081 0.198548
-1081 0.801452
1082 0.798216
-1082 0.201784
1083 0.060557
-1083 0.939443
1084 0.959781
-1084 0.040219
1085 0.298037
-1085 0.701963
1086 0.049636
-1086 0.950364
1087 0.64161
-1087 0.35839
1088 0.639711
-1088 0.360289
1089 0.5
-1089 0.5
1090 0.5
-1090 0.5
1091 0.5
-1091 0.5
1092 0.5
-1092 0.5
1093 0.5
-1093 0.5
1094 0.5
-1094 0.5
1095 0.858981
-1095 0.141019
1096 0.765269
-1096 0.234731
1097 0.648422
-1097 0.351578
1098 0.207138
-1098 0.792862
1099 0.709847
-1099 0.290153
1100 0.471491
-1100 0.528509
1101 0.265792
-1101 0.734208
1102 0.426308
-1102 0.573692
1103 0.687495
-1103 0.312505
1104 0.666286
-1104 0.333714
1105 0.509098
-1105 0.490902
1106 0.376363
-1106 0.623637
1107 0.307313
-1107 0.692687
1108 0.43692
-1108 0.56308
1109 0.824615
-1109 0.175385
1110 0.242531
-1110 0.757469
1111 0.874251
-1111 0.125749
1112 0.884141
-1112 0.115859
1113 0.374669
-1113 0.625331
1114 0.92834
-1114 0.07166
1115 0.5
-1115 0.5
1116 0.5
-1116 0.5
1117 0.5
-1117 0.5
1118 0.5
-1118 0.5
1119 0.906952
-1119 0.093048
1120 0.298698
-1120 0.701302
1121 0.531647
-1121 0.468353
1122 0.555375
-1122 0.444625
1123 0.397922
-1123 0.602078
1124 0.265222
-1124 0.734778
1125 0.977327
-1125 0.022673
1126 0.663713
-1126 0.336287
1127 0.737561
-1127 0.262439
1128 0.351208
-1128 0.648792
1129 0.357816
-1129 0.642184
1130 0.246658
-1130 0.753342
1131 0.22265
-1131 0.77735
1132 0.553972
-1132 0.446028
1133 0.164492
-1133 0.835508
1134 0.047265
-1134 0.952735
1135 0.899449
-1135 0.100551
1136 0.921516
-1136 0.078484
1137 0.680643
-1137 0.319357
1138 0.274118
-1138 0.725882
1139 0.90683
-1139 0.09317
1140 0.430454
-1140 0.569546
1141 0.30671
-1141 0.69329
1142 0.221028
-1142 0.778972
1143 0.073088
-1143 0.926912
1144 0.12798
-1144 0.87202
1145 0.16887
-1145 0.83113
1146 0.604735
-1146 0.395265
1147 0.674706
-1147 0.325294
1148 0.002657
-1148 0.997343
1149 0.948577
-1149 0.051423
1150 0.652034
-1150 0.347966
1151 0.640106
-1151 0.359894
1152 0.389594
-1152 0.610406
1153 0.017578
-1153 0.982422
1154 0.997922
-1154 0.002078
1155 0.74515
-1155 0.25485
1156 0.220572
-1156 0.779428
1157 0.5
-1157 0.5
1158 0.5
-1158 0.5
1159 0.5
-1159 0.5
1160 0.5
-1160 0.5
1161 0.083208
-1161 0.916792
1162 0.039209
-1162 0.960791
1163 0.5742
-1163 0.4258
1164 0.513662
-1164 0.486338
1165 0.5
-1165 0.5
1166 0.5
-1166 0.5
1167 0.5
-1167 0.5
1168 0.5
-1168 0.5
1169 0.5
-1169 0.5
1170 0.5
-1170 0.5
1171 0.5
-1171 0.5
1172 0.5
-1172 0.5
1173 0.692767
-1173 0.307233
1174 0.195246
-1174 0.804754
1175 0.269038
-1175 0.730962
1176 0.710345
-1176 0.289655
1177 0.5
-1177 0.5
1178 0.5
-1178 0.5
1179 0.5
-1179 0.5
1180 0.5
-1180 0.5
1181 0.5
-1181 0.5
1182 0.5
-1182 0.5
1183 0.5
-1183 0.5
1184 0.5
-1184 0.5
1185 0.5
-1185 0.5
1186 0.5
-1186 0.5
1187 0.5
-1187 0.5
1188 0.5
-1188 0.5
1189 0.5
-1189 0.5
1190 0.5
-1190 0.5
1191 0.5
-1191 0.5
1192 0.5
-1192 0.5
1193 0.935045
-1193 0.064955
1194 0.725204
-1194 0.274796
1195 0.20395
-1195 0.79605
1196 0.814488
-1196 0.185512
1197 0.5
-1197 0.5
1198 0.5
-1198 0.5
1199 0.5
-1199 0.5
1200 0.5
-1200 0.5
1201 0.583812
-1201 0.416188
1202 0.006104
-1202 0.993896
1203 0.084332
-1203 0.915668
1204 0.948948
-1204 0.051052
1205 0.166573
-1205 0.833427
1206 0.123174
-1206 0.876826
1207 0.558613
-1207 0.441387
1208 0.916184
-1208 0.083816
1209 0.5
-1209 0.5
1210 0.5
-1210 0.5
1211 0.5
-1211 0.5
1212 0.5
-1212 0.5
1213 0.5
-1213 0.5
1214 0.5
-1214 0.5
1215 0.5
-1215 0.5
1216 0.5
-1216 0.5
