1 0.033114
-1 0.966886
2 1.0
-2 1.0
3 1.0
-3 1.0
4 1.0
-4 1.0
5 1.0
-5 1.0
6 1.0
-6 1.0
7 1.0
-7 1.0
8 1.0
-8 1.0
9 1.0
-9 1.0
10 1.0
-10 1.0
11 1.0
-11 1.0
12 1.0
-12 1.0
13 1.0
-13 1.0
14 1.0
-14 1.0
15 1.0
-15 1.0
16 1.0
-16 1.0
17 1.0
-17 1.0
18 1.0
-18 1.0
19 1.0
-19 1.0
20 1.0
-20 1.0
21 1.0
-21 1.0
22 1.0
-22 1.0
23 1.0
-23 1.0
24 1.0
-24 1.0
25 1.0
-25 1.0
26 1.0
-26 1.0
27 1.0
-27 1.0
28 1.0
-28 1.0
29 1.0
-29 1.0
30 1.0
-30 1.0
31 1.0
-31 1.0
32 1.0
-32 1.0
33 1.0
-33 1.0
34 1.0
-34 1.0
35 1.0
-35 1.0
36 1.0
-36 1.0
37 1.0
-37 1.0
38 1.0
-38 1.0
39 1.0
-39 1.0
40 1.0
-40 1.0
41 1.0
-41 1.0
42 1.0
-42 1.0
43 1.0
-43 1.0
44 1.0
-44 1.0
45 1.0
-45 1.0
46 1.0
-46 1.0
47 1.0
-47 1.0
48 1.0
-48 1.0
49 1.0
-49 1.0
50 1.0
-50 1.0
51 1.0
-51 1.0
52 1.0
-52 1.0
53 1.0
-53 1.0
54 1.0
-54 1.0
55 1.0
-55 1.0
56 1.0
-56 1.0
57 1.0
-57 1.0
58 1.0
-58 1.0
59 1.0
-59 1.0
60 1.0
-60 1.0
61 1.0
-61 1.0
62 1.0
-62 1.0
63 1.0
-63 1.0
64 1.0
-64 1.0
65 1.0
-65 1.0
66 1.0
-66 1.0
67 1.0
-67 1.0
68 1.0
-68 1.0
69 1.0
-69 1.0
70 1.0
-70 1.0
71 1.0
-71 1.0
72 1.0
-72 1.0
73 1.0
-73 1.0
74 1.0
-74 1.0
75 1.0
-75 1.0
76 1.0
-76 1.0
77 1.0
-77 1.0
78 1.0
-78 1.0
79 1.0
-79 1.0
80 1.0
-80 1.0
81 1.0
-81 1.0
82 1.0
-82 1.0
83 1.0
-83 1.0
84 1.0
-84 1.0
85 1.0
-85 1.0
86 1.0
-86 1.0
87 1.0
-87 1.0
88 1.0
-88 1.0
89 1.0
-89 1.0
90 1.0
-90 1.0
91 1.0
-91 1.0
92 1.0
-92 1.0
93 1.0
-93 1.0
94 1.0
-94 1.0
95 1.0
-95 1.0
96 1.0
-96 1.0
97 1.0
-97 1.0
98 1.0
-98 1.0
99 1.0
-99 1.0
100 1.0
-100 1.0
101 1.0
-101 1.0
102 1.0
-102 1.0
103 1.0
-103 1.0
104 1.0
-104 1.0
105 1.0
-105 1.0
106 1.0
-106 1.0
107 1.0
-107 1.0
108 1.0
-108 1.0
109 1.0
-109 1.0
110 1.0
-110 1.0
111 1.0
-111 1.0
112 1.0
-112 1.0
113 1.0
-113 1.0
114 1.0
-114 1.0
115 1.0
-115 1.0
116 1.0
-116 1.0
117 1.0
-117 1.0
118 1.0
-118 1.0
119 1.0
-119 1.0
120 1.0
-120 1.0
121 1.0
-121 1.0
122 1.0
-122 1.0
123 1.0
-123 1.0
124 1.0
-124 1.0
125 1.0
-125 1.0
126 1.0
-126 1.0
127 1.0
-127 1.0
128 1.0
-128 1.0
129 1.0
-129 1.0
130 1.0
-130 1.0
131 1.0
-131 1.0
132 1.0
-132 1.0
133 1.0
-133 1.0
134 1.0
-134 1.0
135 1.0
-135 1.0
136 1.0
-136 1.0
137 1.0
-137 1.0
138 1.0
-138 1.0
139 1.0
-139 1.0
140 1.0
-140 1.0
141 1.0
-141 1.0
142 1.0
-142 1.0
143 1.0
-143 1.0
144 1.0
-144 1.0
145 1.0
-145 1.0
146 1.0
-146 1.0
147 1.0
-147 1.0
148 1.0
-148 1.0
149 1.0
-149 1.0
150 1.0
-150 1.0
151 1.0
-151 1.0
152 1.0
-152 1.0
153 1.0
-153 1.0
154 1.0
-154 1.0
155 1.0
-155 1.0
156 1.0
-156 1.0
157 1.0
-157 1.0
158 1.0
-158 1.0
159 1.0
-159 1.0
160 1.0
-160 1.0
161 1.0
-161 1.0
162 1.0
-162 1.0
163 1.0
-163 1.0
164 1.0
-164 1.0
165 1.0
-165 1.0
166 1.0
-166 1.0
167 1.0
-167 1.0
168 1.0
-168 1.0
169 1.0
-169 1.0
170 1.0
-170 1.0
171 1.0
-171 1.0
172 1.0
-172 1.0
173 1.0
-173 1.0
174 1.0
-174 1.0
175 1.0
-175 1.0
176 1.0
-176 1.0
177 1.0
-177 1.0
178 1.0
-178 1.0
179 1.0
-179 1.0
180 1.0
-180 1.0
181 1.0
-181 1.0
182 1.0
-182 1.0
183 1.0
-183 1.0
184 1.0
-184 1.0
185 1.0
-185 1.0
186 1.0
-186 1.0
187 1.0
-187 1.0
188 1.0
-188 1.0
189 1.0
-189 1.0
190 1.0
-190 1.0
191 1.0
-191 1.0
192 1.0
-192 1.0
193 1.0
-193 1.0
194 1.0
-194 1.0
195 1.0
-195 1.0
196 1.0
-196 1.0
197 1.0
-197 1.0
198 1.0
-198 1.0
199 1.0
-199 1.0
200 1.0
-200 1.0
201 1.0
-201 1.0
202 1.0
-202 1.0
203 1.0
-203 1.0
204 1.0
-204 1.0
205 1.0
-205 1.0
206 1.0
-206 1.0
207 1.0
-207 1.0
208 1.0
-208 1.0
209 1.0
-209 1.0
210 1.0
-210 1.0
211 1.0
-211 1.0
212 1.0
-212 1.0
213 1.0
-213 1.0
214 1.0
-214 1.0
215 1.0
-215 1.0
216 1.0
-216 1.0
217 1.0
-217 1.0
218 1.0
-218 1.0
219 1.0
-219 1.0
220 1.0
-220 1.0
221 1.0
-221 1.0
222 1.0
-222 1.0
223 1.0
-223 1.0
224 1.0
-224 1.0
225 1.0
-225 1.0
226 1.0
-226 1.0
227 1.0
-227 1.0
228 1.0
-228 1.0
229 1.0
-229 1.0
230 1.0
-230 1.0
231 1.0
-231 1.0
232 1.0
-232 1.0
233 1.0
-233 1.0
234 1.0
-234 1.0
235 1.0
-235 1.0
236 1.0
-236 1.0
237 1.0
-237 1.0
238 1.0
-238 1.0
239 1.0
-239 1.0
240 1.0
-240 1.0
241 1.0
-241 1.0
242 1.0
-242 1.0
243 1.0
-243 1.0
244 1.0
-244 1.0
245 1.0
-245 1.0
246 1.0
-246 1.0
247 1.0
-247 1.0
248 1.0
-248 1.0
249 1.0
-249 1.0
250 1.0
-250 1.0
251 1.0
-251 1.0
252 1.0
-252 1.0
253 1.0
-253 1.0
254 1.0
-254 1.0
255 1.0
-255 1.0
256 1.0
-256 1.0
257 1.0
-257 1.0
258 1.0
-258 1.0
259 1.0
-259 1.0
260 1.0
-260 1.0
261 1.0
-261 1.0
262 1.0
-262 1.0
263 1.0
-263 1.0
264 1.0
-264 1.0
265 1.0
-265 1.0
266 1.0
-266 1.0
267 1.0
-267 1.0
268 1.0
-268 1.0
269 1.0
-269 1.0
270 1.0
-270 1.0
271 1.0
-271 1.0
272 1.0
-272 1.0
273 1.0
-273 1.0
274 1.0
-274 1.0
275 1.0
-275 1.0
276 1.0
-276 1.0
277 1.0
-277 1.0
278 1.0
-278 1.0
279 1.0
-279 1.0
280 1.0
-280 1.0
281 1.0
-281 1.0
282 1.0
-282 1.0
283 1.0
-283 1.0
284 1.0
-284 1.0
285 1.0
-285 1.0
286 1.0
-286 1.0
287 1.0
-287 1.0
288 1.0
-288 1.0
289 1.0
-289 1.0
290 1.0
-290 1.0
291 1.0
-291 1.0
292 1.0
-292 1.0
293 1.0
-293 1.0
294 1.0
-294 1.0
295 1.0
-295 1.0
296 1.0
-296 1.0
297 1.0
-297 1.0
298 1.0
-298 1.0
299 1.0
-299 1.0
300 1.0
-300 1.0
301 1.0
-301 1.0
302 1.0
-302 1.0
303 1.0
-303 1.0
304 1.0
-304 1.0
305 1.0
-305 1.0
306 1.0
-306 1.0
307 1.0
-307 1.0
308 1.0
-308 1.0
309 1.0
-309 1.0
310 1.0
-310 1.0
311 1.0
-311 1.0
312 1.0
-312 1.0
313 1.0
-313 1.0
314 1.0
-314 1.0
315 1.0
-315 1.0
316 1.0
-316 1.0
317 1.0
-317 1.0
318 1.0
-318 1.0
319 1.0
-319 1.0
320 1.0
-320 1.0
321 1.0
-321 1.0
322 1.0
-322 1.0
323 1.0
-323 1.0
324 1.0
-324 1.0
325 0.074463
-325 0.925537
326 0.47863
-326 0.52137
327 0.459739
-327 0.540261
328 0.08963
-328 0.91037
329 0.5
-329 0.5
330 0.5
-330 0.5
331 0.5
-331 0.5
332 0.5
-332 0.5
333 0.5
-333 0.5
334 0.5
-334 0.5
335 0.879548
-335 0.120452
336 0.328037
-336 0.671963
337 0.57316
-337 0.42684
338 0.326541
-338 0.673459
339 0.8943
-339 0.1057
340 0.047004
-340 0.952996
341 0.985728
-341 0.014272
342 0.084969
-342 0.915031
343 0.5
-343 0.5
344 0.5
-344 0.5
345 0.5
-345 0.5
346 0.5
-346 0.5
347 0.479835
-347 0.520165
348 0.953268
-348 0.046732
349 0.554298
-349 0.445702
350 0.431898
-350 0.568102
351 0.5
-351 0.5
352 0.5
-352 0.5
353 0.250256
-353 0.749744
354 0.204745
-354 0.795255
355 0.957501
-355 0.042499
356 0.531873
-356 0.468127
357 0.5
-357 0.5
358 0.5
-358 0.5
359 0.5
-359 0.5
360 0.5
-360 0.5
361 0.5
-361 0.5
362 0.5
-362 0.5
363 0.5
-363 0.5
364 0.5
-364 0.5
365 0.012094
-365 0.987906
366 0.86461
-366 0.13539
367 0.944576
-367 0.055424
368 0.155654
-368 0.844346
369 0.5
-369 0.5
370 0.5
-370 0.5
371 0.5
-371 0.5
372 0.5
-372 0.5
373 0.244875
-373 0.755125
374 0.460973
-374 0.539027
375 0.009521
-375 0.990479
376 0.258912
-376 0.741088
377 0.259777
-377 0.740223
378 0.463657
-378 0.536343
379 0.858074
-379 0.141926
380 0.217278
-380 0.782722
381 0.016098
-381 0.983902
382 0.698763
-382 0.301237
383 0.406951
-383 0.593049
384 0.502159
-384 0.497841
385 0.5
-385 0.5
386 0.5
-386 0.5
387 0.5
-387 0.5
388 0.5
-388 0.5
389 0.5
-389 0.5
390 0.5
-390 0.5
391 0.5
-391 0.5
392 0.5
-392 0.5
393 0.329686
-393 0.670314
394 0.460231
-394 0.539769
395 0.770217
-395 0.229783
396 0.020263
-396 0.979737
397 0.5
-397 0.5
398 0.5
-398 0.5
399 0.5
-399 0.5
400 0.5
-400 0.5
401 0.93278
-401 0.06722
402 0.830398
-402 0.169602
403 0.987707
-403 0.012293
404 0.790854
-404 0.209146
405 0.5
-405 0.5
406 0.5
-406 0.5
407 0.5
-407 0.5
408 0.5
-408 0.5
409 0.5
-409 0.5
410 0.5
-410 0.5
411 0.5
-411 0.5
412 0.5
-412 0.5
413 0.5
-413 0.5
414 0.5
-414 0.5
415 0.5
-415 0.5
416 0.5
-416 0.5
417 0.724596
-417 0.275404
418 0.246872
-418 0.753128
419 0.159707
-419 0.840293
420 0.494814
-420 0.505186
421 0.5
-421 0.5
422 0.5
-422 0.5
423 0.5
-423 0.5
424 0.5
-424 0.5
425 0.056322
-425 0.943678
426 0.532072
-426 0.467928
427 0.456933
-427 0.543067
428 0.044029
-428 0.955971
429 0.5
-429 0.5
430 0.5
-430 0.5
431 0.5
-431 0.5
432 0.5
-432 0.5
433 0.5
-433 0.5
434 0.5
-434 0.5
435 0.5
-435 0.5
436 0.5
-436 0.5
437 0.5
-437 0.5
438 0.5
-438 0.5
439 0.521987
-439 0.478013
440 0.43846
-440 0.56154
441 0.778289
-441 0.221711
442 0.221463
-442 0.778537
443 0.5
-443 0.5
444 0.5
-444 0.5
445 0.5
-445 0.5
446 0.5
-446 0.5
447 0.5
-447 0.5
448 0.5
-448 0.5
449 0.5
-449 0.5
450 0.5
-450 0.5
451 0.161546
-451 0.838454
452 0.797251
-452 0.202749
453 0.924919
-453 0.075081
454 0.484472
-454 0.515528
455 0.5
-455 0.5
456 0.5
-456 0.5
457 0.5
-457 0.5
458 0.5
-458 0.5
459 0.5
-459 0.5
460 0.5
-460 0.5
461 0.5
-461 0.5
462 0.5
-462 0.5
463 0.977305
-463 0.022695
464 0.402484
-464 0.597516
465 0.258575
-465 0.741425
466 0.755594
-466 0.244406
467 0.421631
-467 0.578369
468 0.780754
-468 0.219246
469 0.005116
-469 0.994884
470 0.079501
-470 0.920499
471 0.5
-471 0.5
472 0.5
-472 0.5
473 0.5
-473 0.5
474 0.5
-474 0.5
475 0.5
-475 0.5
476 0.5
-476 0.5
477 0.5
-477 0.5
478 0.5
-478 0.5
479 0.5
-479 0.5
480 0.5
-480 0.5
481 0.5
-481 0.5
482 0.5
-482 0.5
483 0.5
-483 0.5
484 0.5
-484 0.5
485 0.5
-485 0.5
486 0.5
-486 0.5
487 0.5
-487 0.5
488 0.5
-488 0.5
489 0.5
-489 0.5
490 0.5
-490 0.5
491 0.366111
-491 0.633889
492 0.094381
-492 0.905619
493 0.608336
-493 0.391664
494 0.371227
-494 0.628773
495 0.5
-495 0.5
496 0.5
-496 0.5
497 0.5
-497 0.5
498 0.5
-498 0.5
499 0.5
-499 0.5
500 0.5
-500 0.5
501 0.5
-501 0.5
502 0.5
-502 0.5
503 0.5
-503 0.5
504 0.5
-504 0.5
505 0.5
-505 0.5
506 0.5
-506 0.5
507 0.5
-507 0.5
508 0.5
-508 0.5
509 0.5
-509 0.5
510 0.5
-510 0.5
511 0.5
-511 0.5
512 0.5
-512 0.5
513 0.278698
-513 0.721302
514 0.590978
-514 0.409022
515 0.422772
-515 0.577228
516 0.10628
-516 0.89372
517 0.517154
-517 0.482846
518 0.714616
-518 0.285384
519 0.328315
-519 0.671685
520 0.691036
-520 0.308964
521 0.5
-521 0.5
522 0.5
-522 0.5
523 0.5
-523 0.5
524 0.5
-524 0.5
525 0.332508
-525 0.667492
526 0.703753
-526 0.296247
527 0.790588
-527 0.209412
528 0.39344
-528 0.60656
529 0.05492
-529 0.94508
530 0.109982
-530 0.890018
531 0.045705
-531 0.954295
532 0.104871
-532 0.895129
533 0.157733
-533 0.842267
534 0.614006
-534 0.385994
535 0.187619
-535 0.812381
536 0.364443
-536 0.635557
537 0.5
-537 0.5
538 0.5
-538 0.5
539 0.5
-539 0.5
540 0.5
-540 0.5
541 0.010885
-541 0.989115
542 0.877567
-542 0.122433
543 0.464037
-543 0.535963
544 0.3392
-544 0.6608
545 0.860037
-545 0.139963
546 0.07404
-546 0.92596
547 0.226804
-547 0.773196
548 0.835038
-548 0.164962
549 0.985773
-549 0.014227
550 0.167547
-550 0.832453
551 0.58393
-551 0.41607
552 0.776361
-552 0.223639
553 0.496088
-553 0.503912
554 0.831281
-554 0.168719
555 0.670968
-555 0.329032
556 0.541794
-556 0.458206
557 0.522739
-557 0.477261
558 0.699527
-558 0.300473
559 0.550158
-559 0.449842
560 0.710358
-560 0.289642
561 0.5
-561 0.5
562 0.5
-562 0.5
563 0.5
-563 0.5
564 0.5
-564 0.5
565 0.5
-565 0.5
566 0.5
-566 0.5
567 0.5
-567 0.5
568 0.5
-568 0.5
569 0.5
-569 0.5
570 0.5
-570 0.5
571 0.5
-571 0.5
572 0.5
-572 0.5
573 0.5
-573 0.5
574 0.5
-574 0.5
575 0.955007
-575 0.044993
576 0.443521
-576 0.556479
577 0.344179
-577 0.655821
578 0.451096
-578 0.548904
579 0.5
-579 0.5
580 0.5
-580 0.5
581 0.5
-581 0.5
582 0.5
-582 0.5
583 0.761111
-583 0.238889
584 0.248244
-584 0.751756
585 0.756386
-585 0.243614
586 0.774088
-586 0.225912
587 0.463498
-587 0.536502
588 0.840862
-588 0.159138
589 0.904654
-589 0.095346
590 0.920031
-590 0.079969
591 0.790634
-591 0.209366
592 0.8406
-592 0.1594
593 0.33538
-593 0.66462
594 0.245216
-594 0.754784
595 0.82628
-595 0.17372
596 0.926602
-596 0.073398
597 0.236853
-597 0.763147
598 0.197357
-598 0.802643
599 0.020045
-599 0.979955
600 0.152364
-600 0.847636
601 0.037282
-601 0.962718
602 0.364224
-602 0.635776
603 0.312083
-603 0.687917
604 0.379371
-604 0.620629
605 0.596349
-605 0.403651
606 0.523036
-606 0.476964
607 0.288765
-607 0.711235
608 0.284147
-608 0.715853
609 0.165501
-609 0.834499
610 0.045151
-610 0.954848
611 0.5
-611 0.5
612 0.5
-612 0.5
613 0.5
-613 0.5
614 0.5
-614 0.5
615 0.757032
-615 0.242968
616 0.269281
-616 0.730719
617 0.152997
-617 0.847003
618 0.002247
-618 0.997753
619 0.979277
-619 0.020723
620 0.92885
-620 0.07115
621 0.127341
-621 0.872659
622 0.176634
-622 0.823366
623 0.147386
-623 0.852614
624 0.328998
-624 0.671002
625 0.559894
-625 0.440106
626 0.511609
-626 0.488391
627 0.871977
-627 0.128023
628 0.89098
-628 0.10902
629 0.528806
-629 0.471194
630 0.395013
-630 0.604987
631 0.817571
-631 0.182429
632 0.67916
-632 0.32084
633 0.973739
-633 0.026261
634 0.862723
-634 0.137277
635 0.035483
-635 0.964517
636 0.371372
-636 0.628628
637 0.636491
-637 0.363509
638 0.001881
-638 0.998119
639 0.454108
-639 0.545892
640 0.758913
-640 0.241087
641 0.5
-641 0.5
642 0.5
-642 0.5
643 0.5
-643 0.5
644 0.5
-644 0.5
645 0.087162
-645 0.912838
646 0.763016
-646 0.236984
647 0.212621
-647 0.787379
648 0.234547
-648 0.765453
649 0.5
-649 0.5
650 0.5
-650 0.5
651 0.5
-651 0.5
652 0.5
-652 0.5
653 0.553277
-653 0.446723
654 0.039505
-654 0.960495
655 0.445375
-655 0.554625
656 0.370849
-656 0.629151
657 0.419114
-657 0.580886
658 0.233572
-658 0.766428
659 0.45606
-659 0.54394
660 0.454596
-660 0.545404
661 0.092551
-661 0.907449
662 0.456477
-662 0.543523
663 0.404996
-663 0.595004
664 0.546659
-664 0.453341
665 0.5
-665 0.5
666 0.5
-666 0.5
667 0.5
-667 0.5
668 0.5
-668 0.5
669 0.66656
-669 0.33344
670 0.521311
-670 0.478689
671 0.503162
-671 0.496838
672 0.879181
-672 0.120819
673 0.595176
-673 0.404824
674 0.651695
-674 0.348305
675 0.502015
-675 0.497985
676 0.619647
-676 0.380353
677 0.5
-677 0.5
678 0.5
-678 0.5
679 0.5
-679 0.5
680 0.5
-680 0.5
681 0.054357
-681 0.945643
682 0.00364
-682 0.99636
683 0.777344
-683 0.222656
684 0.510417
-684 0.489583
685 0.5
-685 0.5
686 0.5
-686 0.5
687 0.5
-687 0.5
688 0.5
-688 0.5
689 0.5
-689 0.5
690 0.5
-690 0.5
691 0.5
-691 0.5
692 0.5
-692 0.5
693 0.043536
-693 0.956464
694 0.773212
-694 0.226788
695 0.217074
-695 0.782926
696 0.546698
-696 0.453302
697 0.972933
-697 0.027067
698 0.141874
-698 0.858126
699 0.304088
-699 0.695912
700 0.474948
-700 0.525052
701 0.600275
-701 0.399725
702 0.6141
-702 0.3859
703 0.934444
-703 0.065556
704 0.935967
-704 0.064033
705 0.5
-705 0.5
706 0.5
-706 0.5
707 0.5
-707 0.5
708 0.5
-708 0.5
709 0.637848
-709 0.362152
710 0.103708
-710 0.896292
711 0.425132
-711 0.574868
712 0.253334
-712 0.746666
713 0.705318
-713 0.294682
714 0.686745
-714 0.313255
715 0.81197
-715 0.18803
716 0.382508
-716 0.617492
717 0.600261
-717 0.399739
718 0.585183
-718 0.414817
719 0.146959
-719 0.853041
720 0.237576
-720 0.762424
721 0.572515
-721 0.427485
722 0.288833
-722 0.711167
723 0.047463
-723 0.952537
724 0.050353
-724 0.949647
725 0.14194
-725 0.85806
726 0.661563
-726 0.338437
727 0.077907
-727 0.922093
728 0.860188
-728 0.139812
729 0.463014
-729 0.536986
730 0.068231
-730 0.931769
731 0.5
-731 0.5
732 0.5
-732 0.5
733 0.5
-733 0.5
734 0.5
-734 0.5
735 0.298171
-735 0.701829
736 0.781553
-736 0.218447
737 0.926014
-737 0.073986
738 0.003489
-738 0.996511
739 0.5
-739 0.5
740 0.5
-740 0.5
741 0.5
-741 0.5
742 0.5
-742 0.5
743 0.5
-743 0.5
744 0.5
-744 0.5
745 0.5
-745 0.5
746 0.5
-746 0.5
747 0.5
-747 0.5
748 0.5
-748 0.5
749 0.5
-749 0.5
750 0.5
-750 0.5
751 0.399728
-751 0.600272
752 0.592116
-752 0.407884
753 0.016956
-753 0.983044
754 0.467959
-754 0.532041
755 0.73553
-755 0.26447
756 0.03693
-756 0.96307
757 0.377526
-757 0.622474
758 0.091952
-758 0.908048
759 0.675697
-759 0.324303
760 0.873505
-760 0.126495
761 0.635623
-761 0.364377
762 0.679186
-762 0.320814
763 0.5
-763 0.5
764 0.5
-764 0.5
765 0.5
-765 0.5
766 0.5
-766 0.5
767 0.642997
-767 0.357003
768 0.431321
-768 0.568679
769 0.533504
-769 0.466496
770 0.665899
-770 0.334101
771 0.713386
-771 0.286614
772 0.736265
-772 0.263735
773 0.519258
-773 0.480742
774 0.035207
-774 0.964793
775 0.5
-775 0.5
776 0.5
-776 0.5
777 0.5
-777 0.5
778 0.5
-778 0.5
779 0.714879
-779 0.285121
780 0.825688
-780 0.174312
781 0.092405
-781 0.907595
782 0.91764
-782 0.08236
783 0.649434
-783 0.350566
784 0.768103
-784 0.231897
785 0.285057
-785 0.714943
786 0.447288
-786 0.552712
787 0.132949
-787 0.867051
788 0.403419
-788 0.596581
789 0.325558
-789 0.674442
790 0.604781
-790 0.395219
791 0.83722
-791 0.16278
792 0.968555
-792 0.031445
793 0.5
-793 0.5
794 0.5
-794 0.5
795 0.5
-795 0.5
796 0.5
-796 0.5
797 0.5
-797 0.5
798 0.5
-798 0.5
799 0.5
-799 0.5
800 0.5
-800 0.5
801 0.899219
-801 0.100781
802 0.668831
-802 0.331169
803 0.457147
-803 0.542853
804 0.614098
-804 0.385902
805 0.5
-805 0.5
806 0.5
-806 0.5
807 0.5
-807 0.5
808 0.5
-808 0.5
809 0.5
-809 0.5
810 0.5
-810 0.5
811 0.5
-811 0.5
812 0.5
-812 0.5
813 0.863828
-813 0.136172
814 0.661811
-814 0.338189
815 0.339661
-815 0.660339
816 0.701048
-816 0.298952
817 0.375763
-817 0.624237
818 0.071772
-818 0.928228
819 0.264819
-819 0.735181
820 0.361977
-820 0.638023
821 0.5
-821 0.5
822 0.5
-822 0.5
823 0.5
-823 0.5
824 0.5
-824 0.5
825 0.5
-825 0.5
826 0.5
-826 0.5
827 0.5
-827 0.5
828 0.5
-828 0.5
829 0.609474
-829 0.390526
830 0.683569
-830 0.316431
831 0.694269
-831 0.305731
832 0.021633
-832 0.978367
833 0.168876
-833 0.831124
834 0.224937
-834 0.775063
835 0.061436
-835 0.938564
836 0.090771
-836 0.909229
837 0.796317
-837 0.203683
838 0.954599
-838 0.045401
839 0.223
-839 0.777
840 0.135978
-840 0.864022
841 0.853366
-841 0.146634
842 0.51174
-842 0.48826
843 0.727418
-843 0.272582
844 0.118185
-844 0.881815
845 0.8833
-845 0.1167
846 0.753722
-846 0.246278
847 0.741167
-847 0.258833
848 0.158499
-848 0.841501
849 0.5
-849 0.5
850 0.5
-850 0.5
851 0.601837
-851 0.398163
852 0.302245
-852 0.697755
853 0.274548
-853 0.725452
854 0.589603
-854 0.410397
855 0.958117
-855 0.041883
856 0.283872
-856 0.716128
857 0.933351
-857 0.066649
858 0.688091
-858 0.311909
859 0.5
-859 0.5
860 0.5
-860 0.5
861 0.5
-861 0.5
862 0.5
-862 0.5
863 0.498118
-863 0.501882
864 0.942479
-864 0.057521
865 0.681822
-865 0.318178
866 0.153764
-866 0.846236
867 0.193562
-867 0.806438
868 0.881183
-868 0.118817
869 0.914029
-869 0.085971
870 0.06728
-870 0.93272
871 0.667751
-871 0.332249
872 0.808446
-872 0.191554
873 0.922981
-873 0.077019
874 0.895921
-874 0.104079
875 0.910931
-875 0.089069
876 0.497758
-876 0.502242
877 0.297981
-877 0.702019
878 0.185479
-878 0.814521
879 0.5
-879 0.5
880 0.5
-880 0.5
881 0.5
-881 0.5
882 0.5
-882 0.5
883 0.823981
-883 0.176019
884 0.301339
-884 0.698661
885 0.581214
-885 0.418786
886 0.3675
-886 0.6325
887 0.5
-887 0.5
888 0.5
-888 0.5
889 0.5
-889 0.5
890 0.5
-890 0.5
891 0.5
-891 0.5
892 0.5
-892 0.5
893 0.5
-893 0.5
894 0.5
-894 0.5
895 0.5
-895 0.5
896 0.5
-896 0.5
897 0.5
-897 0.5
898 0.5
-898 0.5
899 0.5
-899 0.5
900 0.5
-900 0.5
901 0.5
-901 0.5
902 0.5
-902 0.5
903 0.821958
-903 0.178042
904 0.381584
-904 0.618416
905 0.828033
-905 0.171967
906 0.193191
-906 0.806809
907 0.65972
-907 0.34028
908 0.017173
-908 0.982827
909 0.825974
-909 0.174026
910 0.240934
-910 0.759066
911 0.5
-911 0.5
912 0.5
-912 0.5
913 0.5
-913 0.5
914 0.5
-914 0.5
915 0.5
-915 0.5
916 0.5
-916 0.5
917 0.5
-917 0.5
918 0.5
-918 0.5
919 0.5
-919 0.5
920 0.5
-920 0.5
921 0.583313
-921 0.416687
922 0.127208
-922 0.872792
923 0.423312
-923 0.576688
924 0.820153
-924 0.179847
925 0.5
-925 0.5
926 0.5
-926 0.5
927 0.5
-927 0.5
928 0.5
-928 0.5
929 0.5
-929 0.5
930 0.5
-930 0.5
931 0.5
-931 0.5
932 0.5
-932 0.5
933 0.5
-933 0.5
934 0.5
-934 0.5
935 0.5
-935 0.5
936 0.5
-936 0.5
937 0.703388
-937 0.296612
938 0.222037
-938 0.777963
939 0.562068
-939 0.437932
940 0.880261
-940 0.119739
941 0.5
-941 0.5
942 0.5
-942 0.5
943 0.5
-943 0.5
944 0.5
-944 0.5
945 0.5
-945 0.5
946 0.5
-946 0.5
947 0.5
-947 0.5
948 0.5
-948 0.5
949 0.436936
-949 0.563064
950 0.842815
-950 0.157185
951 0.331905
-951 0.668095
952 0.609934
-952 0.390066
953 0.5
-953 0.5
954 0.5
-954 0.5
955 0.5
-955 0.5
956 0.5
-956 0.5
957 0.5
-957 0.5
958 0.5
-958 0.5
959 0.5
-959 0.5
960 0.5
-960 0.5
961 0.900906
-961 0.099094
962 0.017509
-962 0.982491
963 0.059371
-963 0.940629
964 0.462974
-964 0.537026
965 0.551081
-965 0.448919
966 0.594267
-966 0.405733
967 0.957348
-967 0.042652
968 0.213028
-968 0.786972
969 0.265964
-969 0.734036
970 0.710259
-970 0.289741
971 0.924956
-971 0.075044
972 0.701788
-972 0.298212
973 0.702111
-973 0.297889
974 0.138724
-974 0.861276
975 0.473617
-975 0.526383
976 0.034016
-976 0.965984
977 0.92314
-977 0.07686
978 0.74263
-978 0.25737
979 0.913175
-979 0.086825
980 0.807404
-980 0.192596
981 0.5
-981 0.5
982 0.5
-982 0.5
983 0.5
-983 0.5
984 0.5
-984 0.5
985 0.5
-985 0.5
986 0.5
-986 0.5
987 0.5
-987 0.5
988 0.5
-988 0.5
989 0.01553
-989 0.98447
990 0.334521
-990 0.665479
991 0.5
-991 0.5
992 0.5
-992 0.5
993 0.5
-993 0.5
994 0.5
-994 0.5
995 0.5
-995 0.5
996 0.5
-996 0.5
997 0.5
-997 0.5
998 0.5
-998 0.5
999 0.5
-999 0.5
1000 0.5
-1000 0.5
1001 0.5
-1001 0.5
1002 0.5
-1002 0.5
1003 0.741186
-1003 0.258814
1004 0.092772
-1004 0.907228
1005 0.656796
-1005 0.343204
1006 0.898096
-1006 0.101904
1007 0.54353
-1007 0.45647
1008 0.20393
-1008 0.79607
1009 0.979152
-1009 0.020848
1010 0.267598
-1010 0.732402
1011 0.5
-1011 0.5
1012 0.5
-1012 0.5
1013 0.5
-1013 0.5
1014 0.5
-1014 0.5
1015 0.5
-1015 0.5
1016 0.5
-1016 0.5
1017 0.5
-1017 0.5
1018 0.5
-1018 0.5
1019 0.5
-1019 0.5
1020 0.5
-1020 0.5
1021 0.5
-1021 0.5
1022 0.5
-1022 0.5
1023 0.5
-1023 0.5
1024 0.5
-1024 0.5
1025 0.5
-1025 0.5
1026 0.5
-1026 0.5
1027 0.777666
-1027 0.222334
1028 0.811435
-1028 0.188565
1029 0.698792
-1029 0.301208
1030 0.321195
-1030 0.678805
1031 0.5
-1031 0.5
1032 0.5
-1032 0.5
1033 0.5
-1033 0.5
1034 0.5
-1034 0.5
1035 0.506419
-1035 0.493581
1036 0.887295
-1036 0.112705
1037 0.025389
-1037 0.974611
1038 0.850785
-1038 0.149215
1039 0.958496
-1039 0.041504
1040 0.427087
-1040 0.572913
1041 0.296773
-1041 0.703227
1042 0.14941
-1042 0.85059
1043 0.5
-1043 0.5
1044 0.5
-1044 0.5
1045 0.5
-1045 0.5
1046 0.5
-1046 0.5
1047 0.5
-1047 0.5
1048 0.5
-1048 0.5
1049 0.5
-1049 0.5
1050 0.5
-1050 0.5
1051 0.5
-1051 0.5
1052 0.5
-1052 0.5
1053 0.5
-1053 0.5
1054 0.5
-1054 0.5
1055 0.594429
-1055 0.405571
1056 0.046227
-1056 0.953773
1057 0.244027
-1057 0.755973
1058 0.369284
-1058 0.630716
1059 0.750445
-1059 0.249555
1060 0.25658
-1060 0.74342
1061 0.60123
-1061 0.39877
1062 0.229193
-1062 0.770807
1063 0.669943
-1063 0.330057
1064 0.028317
-1064 0.971683
1065 0.819352
-1065 0.180648
1066 0.1886
-1066 0.8114
1067 0.087526
-1067 0.912474
1068 0.048286
-1068 0.951714
1069 0.993229
-1069 0.006771
1070 0.718971
-1070 0.281029
1071 0.178786
-1071 0.821214
1072 0.071083
-1072 0.928917
1073 0.5
-1073 0.5
1074 0.5
-1074 0.5
1075 0.5
-1075 0.5
1076 0.5
-1076 0.5
1077 0.250954
-1077 0.749046
1078 0.131031
-1078 0.868969
1079 0.682898
-1079 0.317102
1080 0.845383
-1080 0.154617
1081 0.5
-1081 0.5
1082 0.5
-1082 0.5
1083 0.5
-1083 0.5
1084 0.5
-1084 0.5
1085 0.5
-1085 0.5
1086 0.5
-1086 0.5
1087 0.5
-1087 0.5
1088 0.5
-1088 0.5
1089 0.5
-1089 0.5
1090 0.5
-1090 0.5
1091 0.5
-1091 0.5
1092 0.5
-1092 0.5
1093 0.5
-1093 0.5
1094 0.5
-1094 0.5
1095 0.5
-1095 0.5
1096 0.5
-1096 0.5
1097 0.152745
-1097 0.847255
1098 0.440522
-1098 0.559478
1099 0.282556
-1099 0.717444
1100 0.826342
-1100 0.173658
1101 0.5
-1101 0.5
1102 0.5
-1102 0.5
1103 0.5
-1103 0.5
1104 0.5
-1104 0.5
1105 0.5
-1105 0.5
1106 0.5
-1106 0.5
1107 0.5
-1107 0.5
1108 0.5
-1108 0.5
1109 0.871218
-1109 0.128782
1110 0.765249
-1110 0.234751
1111 0.817415
-1111 0.182585
1112 0.178134
-1112 0.821866
1113 0.881472
-1113 0.118528
1114 0.673651
-1114 0.326349
1115 0.305588
-1115 0.694412
1116 0.993816
-1116 0.006184
1117 0.5
-1117 0.5
1118 0.5
-1118 0.5
1119 0.5
-1119 0.5
1120 0.5
-1120 0.5
1121 0.878382
-1121 0.121618
1122 0.431516
-1122 0.568484
1123 0.055774
-1123 0.944226
1124 0.704724
-1124 0.295276
1125 0.589285
-1125 0.410715
1126 0.662096
-1126 0.337904
1127 0.725268
-1127 0.274732
1128 0.968179
-1128 0.031821
1129 0.640517
-1129 0.359483
1130 0.56174
-1130 0.43826
1131 0.233135
-1131 0.766865
1132 0.626549
-1132 0.373451
1133 0.367383
-1133 0.632617
1134 0.104353
-1134 0.895647
1135 0.5
-1135 0.5
1136 0.5
-1136 0.5
1137 0.5
-1137 0.5
1138 0.5
-1138 0.5
1139 0.689042
-1139 0.310958
1140 0.060086
-1140 0.939914
1141 0.066389
-1141 0.933611
1142 0.301792
-1142 0.698208
1143 0.792026
-1143 0.207974
1144 0.292786
-1144 0.707214
1145 0.658434
-1145 0.341566
1146 0.670407
-1146 0.329593
1147 0.714209
-1147 0.285791
1148 0.375131
-1148 0.624869
1149 0.461245
-1149 0.538755
1150 0.303494
-1150 0.696506
1151 0.5
-1151 0.5
1152 0.5
-1152 0.5
1153 0.5
-1153 0.5
1154 0.5
-1154 0.5
1155 0.628628
-1155 0.371372
1156 0.060164
-1156 0.939836
1157 0.459962
-1157 0.540038
1158 0.996012
-1158 0.003988
1159 0.5
-1159 0.5
1160 0.5
-1160 0.5
1161 0.5
-1161 0.5
1162 0.5
-1162 0.5
1163 0.5
-1163 0.5
1164 0.5
-1164 0.5
1165 0.5
-1165 0.5
1166 0.5
-1166 0.5
1167 0.5
-1167 0.5
1168 0.5
-1168 0.5
1169 0.5
-1169 0.5
1170 0.5
-1170 0.5
1171 0.243136
-1171 0.756864
1172 0.565026
-1172 0.434974
1173 0.307095
-1173 0.692905
1174 0.704381
-1174 0.295619
1175 0.344322
-1175 0.655678
1176 0.890894
-1176 0.109106
1177 0.140193
-1177 0.859807
1178 0.178277
-1178 0.821723
1179 0.973605
-1179 0.026395
1180 0.806905
-1180 0.193095
1181 0.778087
-1181 0.221913
1182 0.433567
-1182 0.566433
1183 0.942604
-1183 0.057396
1184 0.285328
-1184 0.714672
1185 0.983726
-1185 0.016274
1186 0.389609
-1186 0.610391
1187 0.230806
-1187 0.769194
1188 0.792751
-1188 0.207249
1189 0.444799
-1189 0.555201
1190 0.537973
-1190 0.462027
1191 0.5
-1191 0.5
1192 0.5
-1192 0.5
1193 0.5
-1193 0.5
1194 0.5
-1194 0.5
1195 0.455803
-1195 0.544197
1196 0.432819
-1196 0.567181
1197 0.146199
-1197 0.853801
1198 0.762898
-1198 0.237102
1199 0.5
-1199 0.5
1200 0.5
-1200 0.5
1201 0.5
-1201 0.5
1202 0.5
-1202 0.5
1203 0.5
-1203 0.5
1204 0.5
-1204 0.5
1205 0.5
-1205 0.5
1206 0.5
-1206 0.5
1207 0.5
-1207 0.5
1208 0.5
-1208 0.5
1209 0.5
-1209 0.5
1210 0.5
-1210 0.5
1211 0.5
-1211 0.5
1212 0.5
-1212 0.5
1213 0.5
-1213 0.5
1214 0.5
-1214 0.5
1215 0.5
-1215 0.5
1216 0.5
-1216 0.5
1217 0.5
-1217 0.5
1218 0.5
-1218 0.5
1219 0.5
-1219 0.5
1220 0.5
-1220 0.5
1221 0.106105
-1221 0.893895
1222 0.105553
-1222 0.894447
1223 0.653891
-1223 0.346109
1224 0.243305
-1224 0.756695
1225 0.5
-1225 0.5
1226 0.5
-1226 0.5
1227 0.5
-1227 0.5
1228 0.5
-1228 0.5
1229 0.5
-1229 0.5
1230 0.5
-1230 0.5
1231 0.5
-1231 0.5
1232 0.5
-1232 0.5
1233 0.5
-1233 0.5
1234 0.5
-1234 0.5
1235 0.5
-1235 0.5
1236 0.5
-1236 0.5
1237 0.5
-1237 0.5
1238 0.5
-1238 0.5
1239 0.5
-1239 0.5
1240 0.5
-1240 0.5
1241 0.5
-1241 0.5
1242 0.5
-1242 0.5
1243 0.5
-1243 0.5
1244 0.5
-1244 0.5
1245 0.256903
-1245 0.743097
1246 0.114139
-1246 0.885861
1247 0.405039
-1247 0.594961
1248 0.500208
-1248 0.499792
1249 0.5
-1249 0.5
1250 0.5
-1250 0.5
1251 0.5
-1251 0.5
1252 0.5
-1252 0.5
1253 0.913299
-1253 0.086701
1254 0.351771
-1254 0.648229
1255 0.330544
-1255 0.669456
1256 0.879085
-1256 0.120915
1257 0.5
-1257 0.5
1258 0.5
-1258 0.5
1259 0.5
-1259 0.5
1260 0.5
-1260 0.5
1261 0.322704
-1261 0.677296
1262 0.71693
-1262 0.28307
1263 0.867349
-1263 0.132651
1264 0.993756
-1264 0.006244
1265 0.5
-1265 0.5
1266 0.5
-1266 0.5
1267 0.5
-1267 0.5
1268 0.5
-1268 0.5
1269 0.5
-1269 0.5
1270 0.5
-1270 0.5
1271 0.165714
-1271 0.834286
1272 0.158236
-1272 0.841764
1273 0.25277
-1273 0.74723
1274 0.400126
-1274 0.599874
1275 0.5
-1275 0.5
1276 0.5
-1276 0.5
1277 0.5
-1277 0.5
1278 0.5
-1278 0.5
1279 0.888916
-1279 0.111084
1280 0.143946
-1280 0.856054
1281 0.702107
-1281 0.297893
1282 0.275018
-1282 0.724982
1283 0.5
-1283 0.5
1284 0.5
-1284 0.5
1285 0.5
-1285 0.5
1286 0.5
-1286 0.5
1287 0.402964
-1287 0.597036
1288 0.135181
-1288 0.864819
1289 0.890955
-1289 0.109045
1290 0.544859
-1290 0.455141
1291 0.5
-1291 0.5
1292 0.5
-1292 0.5
1293 0.5
-1293 0.5
1294 0.5
-1294 0.5
1295 0.5
-1295 0.5
1296 0.5
-1296 0.5
1297 0.5
-1297 0.5
1298 0.5
-1298 0.5
1299 0.782727
-1299 0.217273
1300 0.005413
-1300 0.994587
1301 0.461082
-1301 0.538918
1302 0.319872
-1302 0.680128
1303 0.284104
-1303 0.715896
1304 0.208789
-1304 0.791211
1305 0.962761
-1305 0.037239
1306 0.986211
-1306 0.013789
1307 0.5
-1307 0.5
1308 0.5
-1308 0.5
1309 0.5
-1309 0.5
1310 0.5
-1310 0.5
1311 0.534477
-1311 0.465523
1312 0.783616
-1312 0.216384
1313 0.846454
-1313 0.153546
1314 0.079336
-1314 0.920664
1315 0.5
-1315 0.5
1316 0.5
-1316 0.5
1317 0.5
-1317 0.5
1318 0.5
-1318 0.5
1319 0.917149
-1319 0.082851
1320 0.38469
-1320 0.61531
1321 0.94866
-1321 0.05134
1322 0.468508
-1322 0.531492
1323 0.5
-1323 0.5
1324 0.5
-1324 0.5
1325 0.5
-1325 0.5
1326 0.5
-1326 0.5
1327 0.5
-1327 0.5
1328 0.5
-1328 0.5
1329 0.5
-1329 0.5
1330 0.5
-1330 0.5
1331 0.5
-1331 0.5
1332 0.5
-1332 0.5
1333 0.5
-1333 0.5
1334 0.5
-1334 0.5
1335 0.5
-1335 0.5
1336 0.5
-1336 0.5
1337 0.5
-1337 0.5
1338 0.5
-1338 0.5
1339 0.552695
-1339 0.447305
1340 0.515578
-1340 0.484422
1341 0.479044
-1341 0.520956
1342 0.483203
-1342 0.516797
1343 0.503602
-1343 0.496398
1344 0.863735
-1344 0.136265
1345 0.5
-1345 0.5
1346 0.5
-1346 0.5
1347 0.5
-1347 0.5
1348 0.5
-1348 0.5
1349 0.158824
-1349 0.841176
1350 0.115393
-1350 0.884607
1351 0.21452
-1351 0.78548
1352 0.894472
-1352 0.105528
1353 0.5
-1353 0.5
1354 0.5
-1354 0.5
1355 0.5
-1355 0.5
1356 0.5
-1356 0.5
1357 0.5
-1357 0.5
1358 0.5
-1358 0.5
1359 0.5
-1359 0.5
1360 0.5
-1360 0.5
1361 0.161803
-1361 0.838197
1362 0.413525
-1362 0.586475
1363 0.686955
-1363 0.313045
1364 0.714498
-1364 0.285502
1365 0.273409
-1365 0.726591
1366 0.193542
-1366 0.806458
1367 0.412306
-1367 0.587694
1368 0.777012
-1368 0.222988
1369 0.5
-1369 0.5
1370 0.5
-1370 0.5
1371 0.5
-1371 0.5
1372 0.5
-1372 0.5
1373 0.60687
-1373 0.39313
1374 0.388929
-1374 0.611071
1375 0.766215
-1375 0.233785
1376 0.82139
-1376 0.17861
1377 0.5
-1377 0.5
1378 0.5
-1378 0.5
1379 0.5
-1379 0.5
1380 0.5
-1380 0.5
1381 0.747236
-1381 0.252764
1382 0.102067
-1382 0.897933
1383 0.674663
-1383 0.325337
1384 0.982588
-1384 0.017412
1385 0.5
-1385 0.5
1386 0.5
-1386 0.5
1387 0.5
-1387 0.5
1388 0.5
-1388 0.5
1389 0.582002
-1389 0.417998
1390 0.501446
-1390 0.498554
1391 0.052429
-1391 0.94757
1392 0.994308
-1392 0.005692
1393 0.5
-1393 0.5
1394 0.5
-1394 0.5
1395 0.5
-1395 0.5
1396 0.5
-1396 0.5
1397 0.5
-1397 0.5
1398 0.5
-1398 0.5
1399 0.5
-1399 0.5
1400 0.5
-1400 0.5
1401 0.740912
-1401 0.259088
1402 0.526128
-1402 0.473872
1403 0.842189
-1403 0.157811
1404 0.099911
-1404 0.900089
1405 0.690575
-1405 0.309425
1406 0.847147
-1406 0.152853
1407 0.605514
-1407 0.394486
1408 0.365239
-1408 0.634761
1409 0.844889
-1409 0.155111
1410 0.90632
-1410 0.09368
1411 0.497788
-1411 0.502212
1412 0.134356
-1412 0.865644
1413 0.833012
-1413 0.166988
1414 0.07979
-1414 0.92021
1415 0.885442
-1415 0.114558
1416 0.074098
-1416 0.925902
1417 0.914259
-1417 0.085741
1418 0.995148
-1418 0.004852
1419 0.941838
-1419 0.058162
1420 0.193283
-1420 0.806717
1421 0.981159
-1421 0.018841
1422 0.620238
-1422 0.379762
1423 0.438671
-1423 0.561329
1424 0.064854
-1424 0.935146
1425 0.624682
-1425 0.375318
1426 0.179583
-1426 0.820417
1427 0.466871
-1427 0.533129
1428 0.279494
-1428 0.720506
1429 0.094429
-1429 0.905571
1430 0.157446
-1430 0.842554
1431 0.5
-1431 0.5
1432 0.5
-1432 0.5
1433 0.5
-1433 0.5
1434 0.5
-1434 0.5
1435 0.5
-1435 0.5
1436 0.5
-1436 0.5
1437 0.5
-1437 0.5
1438 0.5
-1438 0.5
1439 0.5
-1439 0.5
1440 0.5
-1440 0.5
1441 0.5
-1441 0.5
1442 0.5
-1442 0.5
1443 0.109085
-1443 0.890915
1444 0.055258
-1444 0.944742
1445 0.837386
-1445 0.162614
1446 0.090244
-1446 0.909756
1447 0.835673
-1447 0.164327
1448 0.528915
-1448 0.471085
1449 0.74035
-1449 0.25965
1450 0.460355
-1450 0.539645
1451 0.331332
-1451 0.668668
1452 0.927225
-1452 0.072775
1453 0.987993
-1453 0.012007
1454 0.425762
-1454 0.574238
1455 0.5
-1455 0.5
1456 0.5
-1456 0.5
1457 0.5
-1457 0.5
1458 0.5
-1458 0.5
1459 0.03636
-1459 0.963641
1460 0.001512
-1460 0.998488
1461 0.713158
-1461 0.286842
1462 0.599719
-1462 0.400281
1463 0.835569
-1463 0.164431
1464 0.798881
-1464 0.201119
1465 0.413981
-1465 0.586019
1466 0.032078
-1466 0.967922
1467 0.058084
-1467 0.941916
1468 0.141163
-1468 0.858837
1469 0.96756
-1469 0.03244
1470 0.89547
-1470 0.10453
1471 0.5
-1471 0.5
1472 0.5
-1472 0.5
1473 0.5
-1473 0.5
1474 0.5
-1474 0.5
1475 0.5
-1475 0.5
1476 0.5
-1476 0.5
1477 0.5
-1477 0.5
1478 0.5
-1478 0.5
1479 0.5
-1479 0.5
1480 0.5
-1480 0.5
1481 0.5
-1481 0.5
1482 0.5
-1482 0.5
1483 0.5
-1483 0.5
1484 0.5
-1484 0.5
1485 0.649902
-1485 0.350098
1486 0.44683
-1486 0.55317
1487 0.408996
-1487 0.591004
1488 0.48547
-1488 0.51453
1489 0.5
-1489 0.5
1490 0.5
-1490 0.5
1491 0.5
-1491 0.5
1492 0.5
-1492 0.5
1493 0.125572
-1493 0.874428
1494 0.776531
-1494 0.223469
1495 0.890119
-1495 0.109881
1496 0.768628
-1496 0.231372
1497 0.650441
-1497 0.349559
1498 0.152035
-1498 0.847965
1499 0.699173
-1499 0.300827
1500 0.119262
-1500 0.880738
1501 0.817897
-1501 0.182103
1502 0.576076
-1502 0.423924
1503 0.007275
-1503 0.992725
1504 0.021292
-1504 0.978708
1505 0.5
-1505 0.5
1506 0.5
-1506 0.5
1507 0.5
-1507 0.5
1508 0.5
-1508 0.5
1509 0.5
-1509 0.5
1510 0.5
-1510 0.5
1511 0.5
-1511 0.5
1512 0.5
-1512 0.5
1513 0.5
-1513 0.5
1514 0.5
-1514 0.5
1515 0.5
-1515 0.5
1516 0.5
-1516 0.5
1517 0.655277
-1517 0.344723
1518 0.32352
-1518 0.67648
1519 0.411975
-1519 0.588025
1520 0.423905
-1520 0.576095
1521 0.062416
-1521 0.937584
1522 0.57594
-1522 0.42406
1523 0.530368
-1523 0.469632
1524 0.181678
-1524 0.818322
1525 0.5
-1525 0.5
1526 0.5
-1526 0.5
1527 0.5
-1527 0.5
1528 0.5
-1528 0.5
1529 0.723471
-1529 0.276529
1530 0.201599
-1530 0.798401
1531 0.695262
-1531 0.304738
1532 0.933696
-1532 0.066304
1533 0.129217
-1533 0.870783
1534 0.793823
-1534 0.206177
1535 0.006735
-1535 0.993265
1536 0.972168
-1536 0.027832
1537 0.5
-1537 0.5
1538 0.5
-1538 0.5
1539 0.5
-1539 0.5
1540 0.5
-1540 0.5
1541 0.5
-1541 0.5
1542 0.5
-1542 0.5
1543 0.5
-1543 0.5
1544 0.5
-1544 0.5
1545 0.339799
-1545 0.660201
1546 0.998813
-1546 0.001187
1547 0.563254
-1547 0.436746
1548 0.870166
-1548 0.129834
