1 0.512355
-1 0.487645
2 1.0
-2 1.0
3 1.0
-3 1.0
4 1.0
-4 1.0
5 1.0
-5 1.0
6 1.0
-6 1.0
7 1.0
-7 1.0
8 1.0
-8 1.0
9 1.0
-9 1.0
10 1.0
-10 1.0
11 1.0
-11 1.0
12 1.0
-12 1.0
13 1.0
-13 1.0
14 1.0
-14 1.0
15 1.0
-15 1.0
16 1.0
-16 1.0
17 1.0
-17 1.0
18 1.0
-18 1.0
19 1.0
-19 1.0
20 1.0
-20 1.0
21 1.0
-21 1.0
22 1.0
-22 1.0
23 1.0
-23 1.0
24 1.0
-24 1.0
25 1.0
-25 1.0
26 1.0
-26 1.0
27 1.0
-27 1.0
28 1.0
-28 1.0
29 1.0
-29 1.0
30 1.0
-30 1.0
31 1.0
-31 1.0
32 1.0
-32 1.0
33 1.0
-33 1.0
34 1.0
-34 1.0
35 1.0
-35 1.0
36 1.0
-36 1.0
37 1.0
-37 1.0
38 1.0
-38 1.0
39 1.0
-39 1.0
40 1.0
-40 1.0
41 1.0
-41 1.0
42 1.0
-42 1.0
43 1.0
-43 1.0
44 1.0
-44 1.0
45 1.0
-45 1.0
46 1.0
-46 1.0
47 1.0
-47 1.0
48 1.0
-48 1.0
49 1.0
-49 1.0
50 1.0
-50 1.0
51 1.0
-51 1.0
52 1.0
-52 1.0
53 1.0
-53 1.0
54 1.0
-54 1.0
55 1.0
-55 1.0
56 1.0
-56 1.0
57 1.0
-57 1.0
58 1.0
-58 1.0
59 1.0
-59 1.0
60 1.0
-60 1.0
61 1.0
-61 1.0
62 1.0
-62 1.0
63 1.0
-63 1.0
64 1.0
-64 1.0
65 1.0
-65 1.0
66 1.0
-66 1.0
67 1.0
-67 1.0
68 1.0
-68 1.0
69 1.0
-69 1.0
70 1.0
-70 1.0
71 1.0
-71 1.0
72 1.0
-72 1.0
73 1.0
-73 1.0
74 1.0
-74 1.0
75 1.0
-75 1.0
76 1.0
-76 1.0
77 1.0
-77 1.0
78 1.0
-78 1.0
79 1.0
-79 1.0
80 1.0
-80 1.0
81 1.0
-81 1.0
82 1.0
-82 1.0
83 1.0
-83 1.0
84 1.0
-84 1.0
85 1.0
-85 1.0
86 1.0
-86 1.0
87 1.0
-87 1.0
88 1.0
-88 1.0
89 1.0
-89 1.0
90 1.0
-90 1.0
91 1.0
-91 1.0
92 1.0
-92 1.0
93 1.0
-93 1.0
94 1.0
-94 1.0
95 1.0
-95 1.0
96 1.0
-96 1.0
97 1.0
-97 1.0
98 1.0
-98 1.0
99 1.0
-99 1.0
100 1.0
-100 1.0
101 1.0
-101 1.0
102 1.0
-102 1.0
103 1.0
-103 1.0
104 1.0
-104 1.0
105 1.0
-105 1.0
106 1.0
-106 1.0
107 1.0
-107 1.0
108 1.0
-108 1.0
109 1.0
-109 1.0
110 1.0
-110 1.0
111 1.0
-111 1.0
112 1.0
-112 1.0
113 1.0
-113 1.0
114 1.0
-114 1.0
115 1.0
-115 1.0
116 1.0
-116 1.0
117 1.0
-117 1.0
118 1.0
-118 1.0
119 1.0
-119 1.0
120 1.0
-120 1.0
121 1.0
-121 1.0
122 1.0
-122 1.0
123 1.0
-123 1.0
124 1.0
-124 1.0
125 1.0
-125 1.0
126 1.0
-126 1.0
127 1.0
-127 1.0
128 1.0
-128 1.0
129 1.0
-129 1.0
130 1.0
-130 1.0
131 1.0
-131 1.0
132 1.0
-132 1.0
133 1.0
-133 1.0
134 1.0
-134 1.0
135 1.0
-135 1.0
136 1.0
-136 1.0
137 1.0
-137 1.0
138 1.0
-138 1.0
139 1.0
-139 1.0
140 1.0
-140 1.0
141 1.0
-141 1.0
142 1.0
-142 1.0
143 1.0
-143 1.0
144 1.0
-144 1.0
145 1.0
-145 1.0
146 1.0
-146 1.0
147 1.0
-147 1.0
148 1.0
-148 1.0
149 1.0
-149 1.0
150 1.0
-150 1.0
151 1.0
-151 1.0
152 1.0
-152 1.0
153 1.0
-153 1.0
154 1.0
-154 1.0
155 1.0
-155 1.0
156 1.0
-156 1.0
157 1.0
-157 1.0
158 1.0
-158 1.0
159 1.0
-159 1.0
160 1.0
-160 1.0
161 1.0
-161 1.0
162 1.0
-162 1.0
163 1.0
-163 1.0
164 1.0
-164 1.0
165 1.0
-165 1.0
166 1.0
-166 1.0
167 1.0
-167 1.0
168 1.0
-168 1.0
169 1.0
-169 1.0
170 1.0
-170 1.0
171 1.0
-171 1.0
172 1.0
-172 1.0
173 1.0
-173 1.0
174 1.0
-174 1.0
175 1.0
-175 1.0
176 1.0
-176 1.0
177 1.0
-177 1.0
178 1.0
-178 1.0
179 1.0
-179 1.0
180 1.0
-180 1.0
181 1.0
-181 1.0
182 1.0
-182 1.0
183 1.0
-183 1.0
184 1.0
-184 1.0
185 1.0
-185 1.0
186 1.0
-186 1.0
187 1.0
-187 1.0
188 1.0
-188 1.0
189 1.0
-189 1.0
190 1.0
-190 1.0
191 1.0
-191 1.0
192 1.0
-192 1.0
193 1.0
-193 1.0
194 1.0
-194 1.0
195 1.0
-195 1.0
196 1.0
-196 1.0
197 0.5
-197 0.5
198 0.5
-198 0.5
199 0.5
-199 0.5
200 0.5
-200 0.5
201 0.576588
-201 0.423412
202 0.339162
-202 0.660838
203 0.695986
-203 0.304014
204 0.956034
-204 0.043966
205 0.405745
-205 0.594255
206 0.167954
-206 0.832046
207 0.244712
-207 0.755288
208 0.451933
-208 0.548067
209 0.579798
-209 0.420202
210 0.440964
-210 0.559036
211 0.5
-211 0.5
212 0.5
-212 0.5
213 0.5
-213 0.5
214 0.5
-214 0.5
215 0.581002
-215 0.418998
216 0.715665
-216 0.284335
217 0.5
-217 0.5
218 0.5
-218 0.5
219 0.5
-219 0.5
220 0.5
-220 0.5
221 0.5
-221 0.5
222 0.5
-222 0.5
223 0.5
-223 0.5
224 0.5
-224 0.5
225 0.281871
-225 0.718129
226 0.780483
-226 0.219517
227 0.189262
-227 0.810738
228 0.035474
-228 0.964526
229 0.5
-229 0.5
230 0.5
-230 0.5
231 0.5
-231 0.5
232 0.5
-232 0.5
233 0.5
-233 0.5
234 0.5
-234 0.5
235 0.5
-235 0.5
236 0.5
-236 0.5
237 0.5
-237 0.5
238 0.5
-238 0.5
239 0.5
-239 0.5
240 0.5
-240 0.5
241 0.5
-241 0.5
242 0.5
-242 0.5
243 0.5
-243 0.5
244 0.5
-244 0.5
245 0.590634
-245 0.409366
246 0.228133
-246 0.771867
247 0.234161
-247 0.765839
248 0.794529
-248 0.205471
249 0.5
-249 0.5
250 0.5
-250 0.5
251 0.5
-251 0.5
252 0.5
-252 0.5
253 0.5
-253 0.5
254 0.5
-254 0.5
255 0.5
-255 0.5
256 0.5
-256 0.5
257 0.5
-257 0.5
258 0.5
-258 0.5
259 0.5
-259 0.5
260 0.5
-260 0.5
261 0.233856
-261 0.766144
262 0.078395
-262 0.921605
263 0.015673
-263 0.984327
264 0.944142
-264 0.055858
265 0.5
-265 0.5
266 0.5
-266 0.5
267 0.5
-267 0.5
268 0.5
-268 0.5
269 0.5
-269 0.5
270 0.5
-270 0.5
271 0.5
-271 0.5
272 0.5
-272 0.5
273 0.461802
-273 0.538198
274 0.312931
-274 0.687069
275 0.363946
-275 0.636054
276 0.729297
-276 0.270703
277 0.415428
-277 0.584572
278 0.142088
-278 0.857912
279 0.349123
-279 0.650877
280 0.868129
-280 0.131871
281 0.164502
-281 0.835498
282 0.409745
-282 0.590255
283 0.5
-283 0.5
284 0.5
-284 0.5
285 0.5
-285 0.5
286 0.5
-286 0.5
287 0.5
-287 0.5
288 0.5
-288 0.5
289 0.5
-289 0.5
290 0.5
-290 0.5
291 0.373594
-291 0.626406
292 0.391144
-292 0.608856
293 0.975706
-293 0.024294
294 0.936332
-294 0.063668
295 0.5
-295 0.5
296 0.5
-296 0.5
297 0.5
-297 0.5
298 0.5
-298 0.5
299 0.5
-299 0.5
300 0.5
-300 0.5
301 0.5
-301 0.5
302 0.5
-302 0.5
303 0.86941
-303 0.13059
304 0.302976
-304 0.697024
305 0.560591
-305 0.439409
306 0.033912
-306 0.966088
307 0.919944
-307 0.080056
308 0.306088
-308 0.693912
309 0.889814
-309 0.110186
310 0.976668
-310 0.023332
311 0.145301
-311 0.854699
312 0.049065
-312 0.950935
313 0.262295
-313 0.737705
314 0.732923
-314 0.267077
315 0.5
-315 0.5
316 0.5
-316 0.5
317 0.5
-317 0.5
318 0.5
-318 0.5
319 0.5
-319 0.5
320 0.5
-320 0.5
321 0.5
-321 0.5
322 0.5
-322 0.5
323 0.5
-323 0.5
324 0.5
-324 0.5
325 0.5
-325 0.5
326 0.5
-326 0.5
327 0.5
-327 0.5
328 0.5
-328 0.5
329 0.5
-329 0.5
330 0.5
-330 0.5
331 0.495586
-331 0.504414
332 0.961994
-332 0.038006
333 0.3854
-333 0.6146
334 0.938662
-334 0.061338
335 0.754375
-335 0.245625
336 0.5307
-336 0.4693
337 0.01667
-337 0.98333
338 0.263623
-338 0.736377
339 0.024166
-339 0.975834
340 0.099233
-340 0.900767
341 0.5
-341 0.5
342 0.5
-342 0.5
343 0.5
-343 0.5
344 0.5
-344 0.5
345 0.189072
-345 0.810928
346 0.252488
-346 0.747512
347 0.81367
-347 0.18633
348 0.011317
-348 0.988683
349 0.602667
-349 0.397333
350 0.744162
-350 0.255838
351 0.258411
-351 0.741589
352 0.084127
-352 0.915873
353 0.5
-353 0.5
354 0.5
-354 0.5
355 0.5
-355 0.5
356 0.5
-356 0.5
357 0.5
-357 0.5
358 0.5
-358 0.5
359 0.5
-359 0.5
360 0.5
-360 0.5
361 0.5
-361 0.5
362 0.5
-362 0.5
363 0.5
-363 0.5
364 0.5
-364 0.5
365 0.086725
-365 0.913275
366 0.490473
-366 0.509527
367 0.952621
-367 0.047379
368 0.499715
-368 0.500285
369 0.527668
-369 0.472332
370 0.688787
-370 0.311213
371 0.007839
-371 0.992161
372 0.341338
-372 0.658662
373 0.786362
-373 0.213638
374 0.944005
-374 0.055995
375 0.444266
-375 0.555734
376 0.044772
-376 0.955228
377 0.5
-377 0.5
378 0.5
-378 0.5
379 0.5
-379 0.5
380 0.5
-380 0.5
381 0.24248
-381 0.75752
382 0.698107
-382 0.301893
383 0.545168
-383 0.454832
384 0.269313
-384 0.730687
385 0.5
-385 0.5
386 0.5
-386 0.5
387 0.5
-387 0.5
388 0.5
-388 0.5
389 0.5
-389 0.5
390 0.5
-390 0.5
391 0.813071
-391 0.186929
392 0.820947
-392 0.179053
393 0.301153
-393 0.698847
394 0.568422
-394 0.431578
395 0.5
-395 0.5
396 0.5
-396 0.5
397 0.5
-397 0.5
398 0.5
-398 0.5
399 0.5
-399 0.5
400 0.5
-400 0.5
401 0.5
-401 0.5
402 0.5
-402 0.5
403 0.493443
-403 0.506557
404 0.816399
-404 0.183601
405 0.698261
-405 0.301739
406 0.116351
-406 0.883649
407 0.5
-407 0.5
408 0.5
-408 0.5
409 0.5
-409 0.5
410 0.5
-410 0.5
411 0.612064
-411 0.387936
412 0.846897
-412 0.153103
413 0.374361
-413 0.625639
414 0.934661
-414 0.065339
415 0.175799
-415 0.824201
416 0.747732
-416 0.252268
417 0.536171
-417 0.463829
418 0.476953
-418 0.523047
419 0.5
-419 0.5
420 0.5
-420 0.5
421 0.5
-421 0.5
422 0.5
-422 0.5
423 0.5
-423 0.5
424 0.5
-424 0.5
425 0.5
-425 0.5
426 0.5
-426 0.5
427 0.216241
-427 0.783759
428 0.155877
-428 0.844123
429 0.687187
-429 0.312813
430 0.914502
-430 0.085498
431 0.5
-431 0.5
432 0.5
-432 0.5
433 0.5
-433 0.5
434 0.5
-434 0.5
435 0.5
-435 0.5
436 0.5
-436 0.5
437 0.5
-437 0.5
438 0.5
-438 0.5
439 0.143556
-439 0.856444
440 0.368715
-440 0.631285
441 0.5
-441 0.5
442 0.5
-442 0.5
443 0.5
-443 0.5
444 0.5
-444 0.5
445 0.642377
-445 0.357623
446 0.24434
-446 0.75566
447 0.832323
-447 0.167677
448 0.851075
-448 0.148925
449 0.494757
-449 0.505243
450 0.721864
-450 0.278136
451 0.75183
-451 0.24817
452 0.650634
-452 0.349366
453 0.5
-453 0.5
454 0.5
-454 0.5
455 0.5
-455 0.5
456 0.5
-456 0.5
457 0.229376
-457 0.770624
458 0.06176
-458 0.93824
459 0.450003
-459 0.549997
460 0.915699
-460 0.084301
461 0.417759
-461 0.582241
462 0.536682
-462 0.463318
463 0.639898
-463 0.360102
464 0.561315
-464 0.438685
465 0.822749
-465 0.177251
466 0.181824
-466 0.818176
467 0.590267
-467 0.409733
468 0.890387
-468 0.109613
469 0.5
-469 0.5
470 0.5
-470 0.5
471 0.5
-471 0.5
472 0.5
-472 0.5
473 0.5
-473 0.5
474 0.5
-474 0.5
475 0.5
-475 0.5
476 0.5
-476 0.5
477 0.5
-477 0.5
478 0.5
-478 0.5
479 0.5
-479 0.5
480 0.5
-480 0.5
481 0.5
-481 0.5
482 0.5
-482 0.5
483 0.5
-483 0.5
484 0.5
-484 0.5
485 0.499493
-485 0.500507
486 0.792495
-486 0.207505
487 0.351629
-487 0.648371
488 0.139391
-488 0.860609
489 0.5
-489 0.5
490 0.5
-490 0.5
491 0.5
-491 0.5
492 0.5
-492 0.5
493 0.80486
-493 0.19514
494 0.014844
-494 0.985156
495 0.5
-495 0.5
496 0.5
-496 0.5
497 0.5
-497 0.5
498 0.5
-498 0.5
499 0.874835
-499 0.125165
500 0.168563
-500 0.831437
501 0.654611
-501 0.345389
502 0.389589
-502 0.610411
503 0.722736
-503 0.277264
504 0.059462
-504 0.940538
505 0.080393
-505 0.919607
506 0.647469
-506 0.352531
507 0.586669
-507 0.413331
508 0.022205
-508 0.977795
509 0.773657
-509 0.226343
510 0.086163
-510 0.913837
511 0.125286
-511 0.874714
512 0.225554
-512 0.774446
513 0.168511
-513 0.831489
514 0.382313
-514 0.617687
515 0.5
-515 0.5
516 0.5
-516 0.5
517 0.5
-517 0.5
518 0.5
-518 0.5
519 0.5
-519 0.5
520 0.5
-520 0.5
521 0.5
-521 0.5
522 0.5
-522 0.5
523 0.5
-523 0.5
524 0.5
-524 0.5
525 0.5
-525 0.5
526 0.5
-526 0.5
527 0.5
-527 0.5
528 0.5
-528 0.5
529 0.5
-529 0.5
530 0.5
-530 0.5
531 0.477239
-531 0.522761
532 0.666512
-532 0.333488
533 0.815536
-533 0.184464
534 0.250896
-534 0.749104
535 0.630236
-535 0.369764
536 0.376182
-536 0.623818
537 0.978228
-537 0.021772
538 0.798746
-538 0.201254
539 0.165922
-539 0.834078
540 0.502892
-540 0.497108
541 0.988102
-541 0.011898
542 0.206143
-542 0.793857
543 0.5
-543 0.5
544 0.5
-544 0.5
545 0.5
-545 0.5
546 0.5
-546 0.5
547 0.034337
-547 0.965663
548 0.260236
-548 0.739764
549 0.39791
-549 0.60209
550 0.683363
-550 0.316637
551 0.354844
-551 0.645156
552 0.39736
-552 0.60264
553 0.873373
-553 0.126627
554 0.477202
-554 0.522798
555 0.622556
-555 0.377444
556 0.350612
-556 0.649388
557 0.5
-557 0.5
558 0.5
-558 0.5
559 0.5
-559 0.5
560 0.5
-560 0.5
561 0.874616
-561 0.125384
562 0.867073
-562 0.132927
563 0.736186
-563 0.263814
564 0.040538
-564 0.959462
565 0.5
-565 0.5
566 0.5
-566 0.5
567 0.5
-567 0.5
568 0.5
-568 0.5
569 0.221189
-569 0.778811
570 0.448561
-570 0.551439
571 0.704634
-571 0.295366
572 0.255526
-572 0.744474
573 0.600411
-573 0.399589
574 0.653436
-574 0.346564
575 0.39216
-575 0.60784
576 0.955255
-576 0.044745
577 0.5
-577 0.5
578 0.5
-578 0.5
579 0.5
-579 0.5
580 0.5
-580 0.5
581 0.5
-581 0.5
582 0.5
-582 0.5
583 0.5
-583 0.5
584 0.5
-584 0.5
585 0.5
-585 0.5
586 0.5
-586 0.5
587 0.5
-587 0.5
588 0.5
-588 0.5
589 0.5
-589 0.5
590 0.5
-590 0.5
591 0.5
-591 0.5
592 0.5
-592 0.5
593 0.190447
-593 0.809553
594 0.624315
-594 0.375685
595 0.312903
-595 0.687097
596 0.445973
-596 0.554027
597 0.5
-597 0.5
598 0.5
-598 0.5
599 0.5
-599 0.5
600 0.5
-600 0.5
601 0.5
-601 0.5
602 0.5
-602 0.5
603 0.678203
-603 0.321797
604 0.790598
-604 0.209402
605 0.876438
-605 0.123562
606 0.349914
-606 0.650086
607 0.5
-607 0.5
608 0.5
-608 0.5
609 0.5
-609 0.5
610 0.5
-610 0.5
611 0.5
-611 0.5
612 0.5
-612 0.5
613 0.5
-613 0.5
614 0.5
-614 0.5
615 0.5
-615 0.5
616 0.5
-616 0.5
617 0.5
-617 0.5
618 0.5
-618 0.5
619 0.5
-619 0.5
620 0.5
-620 0.5
621 0.5
-621 0.5
622 0.5
-622 0.5
623 0.5
-623 0.5
624 0.5
-624 0.5
625 0.5
-625 0.5
626 0.5
-626 0.5
627 0.97417
-627 0.02583
628 0.761311
-628 0.238689
629 0.724875
-629 0.275125
630 0.850608
-630 0.149392
631 0.5
-631 0.5
632 0.5
-632 0.5
633 0.5
-633 0.5
634 0.5
-634 0.5
635 0.38997
-635 0.61003
636 0.860911
-636 0.139089
637 0.833674
-637 0.166326
638 0.233953
-638 0.766047
639 0.5
-639 0.5
640 0.5
-640 0.5
641 0.5
-641 0.5
642 0.5
-642 0.5
643 0.673324
-643 0.326676
644 0.196996
-644 0.803004
645 0.485145
-645 0.514855
646 0.506819
-646 0.493181
647 0.5
-647 0.5
648 0.5
-648 0.5
649 0.5
-649 0.5
650 0.5
-650 0.5
651 0.381241
-651 0.618759
652 0.144691
-652 0.855309
653 0.284143
-653 0.715857
654 0.106115
-654 0.893885
655 0.395369
-655 0.604631
656 0.903619
-656 0.096381
657 0.424608
-657 0.575392
658 0.124111
-658 0.875889
659 0.426515
-659 0.573485
660 0.814578
-660 0.185422
661 0.260189
-661 0.739811
662 0.048531
-662 0.951469
663 0.07375
-663 0.92625
664 0.22303
-664 0.77697
665 0.359553
-665 0.640447
666 0.49079
-666 0.50921
667 0.846456
-667 0.153544
668 0.032878
-668 0.967122
669 0.331602
-669 0.668398
670 0.539697
-670 0.460303
671 0.14713
-671 0.85287
672 0.22515
-672 0.77485
673 0.594094
-673 0.405906
674 0.395671
-674 0.604329
675 0.502252
-675 0.497748
676 0.975335
-676 0.024665
677 0.786396
-677 0.213604
678 0.08145
-678 0.91855
679 0.535661
-679 0.464339
680 0.181764
-680 0.818236
681 0.038755
-681 0.961245
682 0.606373
-682 0.393627
683 0.10918
-683 0.89082
684 0.46527
-684 0.53473
685 0.5
-685 0.5
686 0.5
-686 0.5
687 0.5
-687 0.5
688 0.5
-688 0.5
689 0.325882
-689 0.674118
690 0.527506
-690 0.472494
691 0.439279
-691 0.560721
692 0.172338
-692 0.827662
693 0.127066
-693 0.872934
694 0.50394
-694 0.49606
695 0.100081
-695 0.899919
696 0.274196
-696 0.725804
697 0.079501
-697 0.920499
698 0.868291
-698 0.131709
699 0.124761
-699 0.875239
700 0.581753
-700 0.418247
701 0.665124
-701 0.334876
702 0.368149
-702 0.631851
703 0.925076
-703 0.074924
704 0.200785
-704 0.799215
705 0.910145
-705 0.089855
706 0.239539
-706 0.760461
707 0.156286
-707 0.843714
708 0.019325
-708 0.980675
709 0.577237
-709 0.422763
710 0.113528
-710 0.886472
711 0.5
-711 0.5
712 0.5
-712 0.5
713 0.5
-713 0.5
714 0.5
-714 0.5
715 0.818037
-715 0.181963
716 0.544938
-716 0.455062
717 0.369371
-717 0.630629
718 0.945103
-718 0.054897
719 0.5
-719 0.5
720 0.5
-720 0.5
721 0.5
-721 0.5
722 0.5
-722 0.5
723 0.5
-723 0.5
724 0.5
-724 0.5
725 0.5
-725 0.5
726 0.5
-726 0.5
727 0.5
-727 0.5
728 0.5
-728 0.5
729 0.5
-729 0.5
730 0.5
-730 0.5
731 0.5
-731 0.5
732 0.5
-732 0.5
733 0.5
-733 0.5
734 0.5
-734 0.5
735 0.5
-735 0.5
736 0.5
-736 0.5
737 0.5
-737 0.5
738 0.5
-738 0.5
739 0.340048
-739 0.659952
740 0.746548
-740 0.253452
741 0.359126
-741 0.640874
742 0.28515
-742 0.71485
743 0.828578
-743 0.171422
744 0.504449
-744 0.495551
745 0.573393
-745 0.426607
746 0.37753
-746 0.62247
747 0.476122
-747 0.523878
748 0.508236
-748 0.491764
749 0.523254
-749 0.476746
750 0.043974
-750 0.956026
751 0.5
-751 0.5
752 0.5
-752 0.5
753 0.5
-753 0.5
754 0.5
-754 0.5
755 0.260914
-755 0.739086
756 0.93174
-756 0.06826
757 0.533773
-757 0.466227
758 0.043205
-758 0.956795
759 0.677027
-759 0.322973
760 0.872215
-760 0.127785
761 0.011797
-761 0.988203
762 0.199038
-762 0.800962
763 0.5
-763 0.5
764 0.5
-764 0.5
765 0.820372
-765 0.179628
766 0.360679
-766 0.639321
767 0.824236
-767 0.175764
768 0.615798
-768 0.384202
769 0.5
-769 0.5
770 0.5
-770 0.5
771 0.5
-771 0.5
772 0.5
-772 0.5
773 0.075022
-773 0.924978
774 0.443979
-774 0.556021
775 0.709286
-775 0.290714
776 0.082113
-776 0.917887
777 0.521897
-777 0.478103
778 0.137972
-778 0.862028
779 0.969502
-779 0.030498
780 0.342684
-780 0.657316
781 0.5
-781 0.5
782 0.5
-782 0.5
783 0.5
-783 0.5
784 0.5
-784 0.5
785 0.314306
-785 0.685694
786 0.744068
-786 0.255932
787 0.752521
-787 0.247479
788 0.388131
-788 0.611869
789 0.291607
-789 0.708393
790 0.208503
-790 0.791497
791 0.106299
-791 0.893701
792 0.115843
-792 0.884157
793 0.295555
-793 0.704445
794 0.444528
-794 0.555472
795 0.013491
-795 0.986509
796 0.862342
-796 0.137658
797 0.5
-797 0.5
798 0.5
-798 0.5
799 0.5
-799 0.5
800 0.5
-800 0.5
801 0.5
-801 0.5
802 0.5
-802 0.5
803 0.5
-803 0.5
804 0.5
-804 0.5
805 0.5
-805 0.5
806 0.5
-806 0.5
807 0.5
-807 0.5
808 0.5
-808 0.5
809 0.5
-809 0.5
810 0.5
-810 0.5
811 0.5
-811 0.5
812 0.5
-812 0.5
813 0.725458
-813 0.274542
814 0.726737
-814 0.273263
815 0.909366
-815 0.090634
816 0.831757
-816 0.168243
817 0.733667
-817 0.266333
818 0.127312
-818 0.872688
819 0.5
-819 0.5
820 0.5
-820 0.5
821 0.5
-821 0.5
822 0.5
-822 0.5
823 0.461593
-823 0.538407
824 0.814051
-824 0.185949
825 0.946495
-825 0.053505
826 0.094347
-826 0.905653
827 0.103944
-827 0.896056
828 0.696604
-828 0.303396
829 0.976707
-829 0.023293
830 0.660279
-830 0.339721
831 0.5
-831 0.5
832 0.5
-832 0.5
833 0.5
-833 0.5
834 0.5
-834 0.5
835 0.415712
-835 0.584288
836 0.223573
-836 0.776427
837 0.672301
-837 0.327699
838 0.14117
-838 0.85883
839 0.581668
-839 0.418332
840 0.972927
-840 0.027073
841 0.792889
-841 0.207111
842 0.315334
-842 0.684666
843 0.5
-843 0.5
844 0.5
-844 0.5
845 0.5
-845 0.5
846 0.5
-846 0.5
847 0.5
-847 0.5
848 0.5
-848 0.5
849 0.5
-849 0.5
850 0.5
-850 0.5
851 0.5
-851 0.5
852 0.5
-852 0.5
853 0.5
-853 0.5
854 0.5
-854 0.5
855 0.185006
-855 0.814994
856 0.109083
-856 0.890917
857 0.386336
-857 0.613664
858 0.62088
-858 0.37912
859 0.357774
-859 0.642226
860 0.036592
-860 0.963408
861 0.121098
-861 0.878902
862 0.030076
-862 0.969924
863 0.5
-863 0.5
864 0.5
-864 0.5
865 0.5
-865 0.5
866 0.5
-866 0.5
867 0.250929
-867 0.749071
868 0.944293
-868 0.055707
869 0.98957
-869 0.01043
870 0.340823
-870 0.659177
871 0.478024
-871 0.521976
872 0.357735
-872 0.642265
873 0.780529
-873 0.219471
874 0.321142
-874 0.678858
875 0.1589
-875 0.8411
876 0.807072
-876 0.192928
877 0.5
-877 0.5
878 0.5
-878 0.5
879 0.5
-879 0.5
880 0.5
-880 0.5
881 0.502458
-881 0.497542
882 0.949689
-882 0.050311
883 0.816929
-883 0.183071
884 0.860232
-884 0.139768
885 0.938026
-885 0.061974
886 0.890308
-886 0.109692
887 0.164043
-887 0.835957
888 0.009434
-888 0.990566
889 0.314733
-889 0.685267
890 0.87373
-890 0.12627
891 0.429129
-891 0.570871
892 0.565662
-892 0.434338
893 0.418699
-893 0.581301
894 0.906485
-894 0.093515
895 0.494674
-895 0.505326
896 0.896723
-896 0.103277
897 0.5
-897 0.5
898 0.5
-898 0.5
899 0.5
-899 0.5
900 0.5
-900 0.5
901 0.66798
-901 0.33202
902 0.294645
-902 0.705355
903 0.089977
-903 0.910023
904 0.996789
-904 0.003211
905 0.5
-905 0.5
906 0.5
-906 0.5
907 0.5
-907 0.5
908 0.5
-908 0.5
909 0.969003
-909 0.030997
910 0.342976
-910 0.657024
911 0.096802
-911 0.903198
912 0.978436
-912 0.021564
913 0.411534
-913 0.588466
914 0.852166
-914 0.147834
915 0.274156
-915 0.725844
916 0.977197
-916 0.022803
917 0.692855
-917 0.307145
918 0.883682
-918 0.116318
919 0.164864
-919 0.835136
920 0.589578
-920 0.410422
921 0.5
-921 0.5
922 0.5
-922 0.5
923 0.5
-923 0.5
924 0.5
-924 0.5
