1 0.732716
-1 0.267284
2 1.0
-2 1.0
3 1.0
-3 1.0
4 1.0
-4 1.0
5 1.0
-5 1.0
6 1.0
-6 1.0
7 1.0
-7 1.0
8 1.0
-8 1.0
9 1.0
-9 1.0
10 1.0
-10 1.0
11 1.0
-11 1.0
12 1.0
-12 1.0
13 1.0
-13 1.0
14 1.0
-14 1.0
15 1.0
-15 1.0
16 1.0
-16 1.0
17 1.0
-17 1.0
18 1.0
-18 1.0
19 1.0
-19 1.0
20 1.0
-20 1.0
21 1.0
-21 1.0
22 1.0
-22 1.0
23 1.0
-23 1.0
24 1.0
-24 1.0
25 1.0
-25 1.0
26 1.0
-26 1.0
27 1.0
-27 1.0
28 1.0
-28 1.0
29 1.0
-29 1.0
30 1.0
-30 1.0
31 1.0
-31 1.0
32 1.0
-32 1.0
33 1.0
-33 1.0
34 1.0
-34 1.0
35 1.0
-35 1.0
36 1.0
-36 1.0
37 1.0
-37 1.0
38 1.0
-38 1.0
39 1.0
-39 1.0
40 1.0
-40 1.0
41 1.0
-41 1.0
42 1.0
-42 1.0
43 1.0
-43 1.0
44 1.0
-44 1.0
45 1.0
-45 1.0
46 1.0
-46 1.0
47 1.0
-47 1.0
48 1.0
-48 1.0
49 1.0
-49 1.0
50 1.0
-50 1.0
51 1.0
-51 1.0
52 1.0
-52 1.0
53 1.0
-53 1.0
54 1.0
-54 1.0
55 1.0
-55 1.0
56 1.0
-56 1.0
57 1.0
-57 1.0
58 1.0
-58 1.0
59 1.0
-59 1.0
60 1.0
-60 1.0
61 1.0
-61 1.0
62 1.0
-62 1.0
63 1.0
-63 1.0
64 1.0
-64 1.0
65 1.0
-65 1.0
66 1.0
-66 1.0
67 1.0
-67 1.0
68 1.0
-68 1.0
69 1.0
-69 1.0
70 1.0
-70 1.0
71 1.0
-71 1.0
72 1.0
-72 1.0
73 1.0
-73 1.0
74 1.0
-74 1.0
75 1.0
-75 1.0
76 1.0
-76 1.0
77 1.0
-77 1.0
78 1.0
-78 1.0
79 1.0
-79 1.0
80 1.0
-80 1.0
81 1.0
-81 1.0
82 1.0
-82 1.0
83 1.0
-83 1.0
84 1.0
-84 1.0
85 1.0
-85 1.0
86 1.0
-86 1.0
87 1.0
-87 1.0
88 1.0
-88 1.0
89 1.0
-89 1.0
90 1.0
-90 1.0
91 1.0
-91 1.0
92 1.0
-92 1.0
93 1.0
-93 1.0
94 1.0
-94 1.0
95 1.0
-95 1.0
96 1.0
-96 1.0
97 1.0
-97 1.0
98 1.0
-98 1.0
99 1.0
-99 1.0
100 1.0
-100 1.0
101 1.0
-101 1.0
102 1.0
-102 1.0
103 1.0
-103 1.0
104 1.0
-104 1.0
105 1.0
-105 1.0
106 1.0
-106 1.0
107 1.0
-107 1.0
108 1.0
-108 1.0
109 1.0
-109 1.0
110 1.0
-110 1.0
111 1.0
-111 1.0
112 1.0
-112 1.0
113 1.0
-113 1.0
114 1.0
-114 1.0
115 1.0
-115 1.0
116 1.0
-116 1.0
117 1.0
-117 1.0
118 1.0
-118 1.0
119 1.0
-119 1.0
120 1.0
-120 1.0
121 1.0
-121 1.0
122 1.0
-122 1.0
123 1.0
-123 1.0
124 1.0
-124 1.0
125 1.0
-125 1.0
126 1.0
-126 1.0
127 1.0
-127 1.0
128 1.0
-128 1.0
129 1.0
-129 1.0
130 1.0
-130 1.0
131 1.0
-131 1.0
132 1.0
-132 1.0
133 1.0
-133 1.0
134 1.0
-134 1.0
135 1.0
-135 1.0
136 1.0
-136 1.0
137 1.0
-137 1.0
138 1.0
-138 1.0
139 1.0
-139 1.0
140 1.0
-140 1.0
141 1.0
-141 1.0
142 1.0
-142 1.0
143 1.0
-143 1.0
144 1.0
-144 1.0
145 0.5
-145 0.5
146 0.5
-146 0.5
147 0.81825
-147 0.18175
148 0.271849
-148 0.728151
149 0.5
-149 0.5
150 0.5
-150 0.5
151 0.068821
-151 0.931179
152 0.193447
-152 0.806553
153 0.5
-153 0.5
154 0.5
-154 0.5
155 0.135816
-155 0.864184
156 0.709038
-156 0.290962
157 0.587622
-157 0.412378
158 0.82154
-158 0.17846
159 0.466966
-159 0.533034
160 0.273139
-160 0.726861
161 0.5
-161 0.5
162 0.5
-162 0.5
163 0.5
-163 0.5
164 0.5
-164 0.5
165 0.5
-165 0.5
166 0.5
-166 0.5
167 0.5
-167 0.5
168 0.5
-168 0.5
169 0.943429
-169 0.056571
170 0.587118
-170 0.412882
171 0.175954
-171 0.824046
172 0.47309
-172 0.52691
173 0.5
-173 0.5
174 0.5
-174 0.5
175 0.5
-175 0.5
176 0.5
-176 0.5
177 0.5
-177 0.5
178 0.5
-178 0.5
179 0.5
-179 0.5
180 0.5
-180 0.5
181 0.5
-181 0.5
182 0.5
-182 0.5
183 0.5
-183 0.5
184 0.5
-184 0.5
185 0.483573
-185 0.516427
186 0.075231
-186 0.924769
187 0.471286
-187 0.528714
188 0.72497
-188 0.27503
189 0.952723
-189 0.047277
190 0.639576
-190 0.360424
191 0.942363
-191 0.057637
192 0.191611
-192 0.808389
193 0.5
-193 0.5
194 0.5
-194 0.5
195 0.5
-195 0.5
196 0.5
-196 0.5
197 0.5
-197 0.5
198 0.5
-198 0.5
199 0.5
-199 0.5
200 0.5
-200 0.5
201 0.5
-201 0.5
202 0.5
-202 0.5
203 0.5
-203 0.5
204 0.5
-204 0.5
205 0.344473
-205 0.655527
206 0.987086
-206 0.012914
207 0.888665
-207 0.111335
208 0.554906
-208 0.445094
209 0.487987
-209 0.512013
210 0.038479
-210 0.961521
211 0.71129
-211 0.28871
212 0.959273
-212 0.040727
213 0.44294
-213 0.55706
214 0.911995
-214 0.088005
215 0.5
-215 0.5
216 0.5
-216 0.5
217 0.5
-217 0.5
218 0.5
-218 0.5
219 0.901118
-219 0.098882
220 0.629977
-220 0.370023
221 0.066432
-221 0.933569
222 0.685945
-222 0.314055
223 0.221328
-223 0.778672
224 0.488605
-224 0.511395
225 0.188591
-225 0.811409
226 0.54047
-226 0.45953
227 0.144169
-227 0.855831
228 0.814349
-228 0.185651
229 0.456493
-229 0.543507
230 0.488642
-230 0.511358
231 0.345158
-231 0.654842
232 0.043549
-232 0.956451
233 0.437494
-233 0.562506
234 0.833145
-234 0.166855
235 0.5
-235 0.5
236 0.5
-236 0.5
237 0.5
-237 0.5
238 0.5
-238 0.5
239 0.248501
-239 0.751499
240 0.977027
-240 0.022973
241 0.808019
-241 0.191981
242 0.812596
-242 0.187404
243 0.5
-243 0.5
244 0.5
-244 0.5
245 0.5
-245 0.5
246 0.5
-246 0.5
247 0.5
-247 0.5
248 0.5
-248 0.5
249 0.5
-249 0.5
250 0.5
-250 0.5
251 0.588447
-251 0.411553
252 0.123727
-252 0.876273
253 0.332931
-253 0.667069
254 0.04494
-254 0.95506
255 0.134366
-255 0.865634
256 0.390098
-256 0.609902
257 0.655918
-257 0.344082
258 0.57186
-258 0.42814
259 0.5
-259 0.5
260 0.5
-260 0.5
261 0.01566
-261 0.98434
262 0.583422
-262 0.416578
263 0.312368
-263 0.687632
264 0.720072
-264 0.279928
265 0.289395
-265 0.710605
266 0.528091
-266 0.471909
267 0.644519
-267 0.355481
268 0.537516
-268 0.462484
269 0.5
-269 0.5
270 0.5
-270 0.5
271 0.5
-271 0.5
272 0.5
-272 0.5
273 0.5
-273 0.5
274 0.5
-274 0.5
275 0.5
-275 0.5
276 0.5
-276 0.5
277 0.5
-277 0.5
278 0.5
-278 0.5
279 0.5
-279 0.5
280 0.5
-280 0.5
281 0.578154
-281 0.421846
282 0.511082
-282 0.488918
283 0.892884
-283 0.107116
284 0.316099
-284 0.683901
285 0.5
-285 0.5
286 0.5
-286 0.5
287 0.5
-287 0.5
288 0.5
-288 0.5
289 0.156708
-289 0.843292
290 0.375964
-290 0.624036
291 0.371004
-291 0.628996
292 0.375152
-292 0.624848
293 0.786618
-293 0.213382
294 0.35038
-294 0.64962
295 0.492091
-295 0.507909
296 0.993199
-296 0.006801
297 0.5
-297 0.5
298 0.5
-298 0.5
299 0.5
-299 0.5
300 0.5
-300 0.5
301 0.5
-301 0.5
302 0.5
-302 0.5
303 0.5
-303 0.5
304 0.5
-304 0.5
305 0.030802
-305 0.969198
306 0.214922
-306 0.785078
307 0.5
-307 0.5
308 0.5
-308 0.5
309 0.5
-309 0.5
310 0.5
-310 0.5
311 0.64011
-311 0.35989
312 0.908791
-312 0.091209
313 0.312624
-313 0.687376
314 0.011114
-314 0.988886
315 0.5
-315 0.5
316 0.5
-316 0.5
317 0.5
-317 0.5
318 0.5
-318 0.5
319 0.938044
-319 0.061956
320 0.67716
-320 0.32284
321 0.97027
-321 0.02973
322 0.713688
-322 0.286312
323 0.5
-323 0.5
324 0.5
-324 0.5
325 0.5
-325 0.5
326 0.5
-326 0.5
327 0.024447
-327 0.975553
328 0.860508
-328 0.139492
329 0.844709
-329 0.155291
330 0.239369
-330 0.760631
331 0.5
-331 0.5
332 0.5
-332 0.5
333 0.5
-333 0.5
334 0.5
-334 0.5
335 0.5
-335 0.5
336 0.5
-336 0.5
337 0.5
-337 0.5
338 0.5
-338 0.5
339 0.307652
-339 0.692348
340 0.66752
-340 0.33248
341 0.362814
-341 0.637186
342 0.941975
-342 0.058025
343 0.5
-343 0.5
344 0.5
-344 0.5
345 0.5
-345 0.5
346 0.5
-346 0.5
347 0.933605
-347 0.066395
348 0.583491
-348 0.416509
349 0.887893
-349 0.112107
350 0.636014
-350 0.363986
351 0.5
-351 0.5
352 0.5
-352 0.5
353 0.314913
-353 0.685087
354 0.54651
-354 0.45349
355 0.89983
-355 0.10017
356 0.481114
-356 0.518886
357 0.262666
-357 0.737334
358 0.85253
-358 0.14747
359 0.567605
-359 0.432395
360 0.377585
-360 0.622415
361 0.5
-361 0.5
362 0.5
-362 0.5
363 0.5
-363 0.5
364 0.5
-364 0.5
365 0.5
-365 0.5
366 0.5
-366 0.5
367 0.5
-367 0.5
368 0.5
-368 0.5
369 0.53885
-369 0.46115
370 0.327232
-370 0.672768
371 0.124647
-371 0.875353
372 0.472455
-372 0.527545
373 0.01254
-373 0.98746
374 0.108469
-374 0.891531
375 0.365128
-375 0.634872
376 0.714341
-376 0.285659
377 0.680041
-377 0.319959
378 0.260851
-378 0.739149
379 0.668759
-379 0.331241
380 0.161155
-380 0.838845
381 0.931425
-381 0.068575
382 0.013685
-382 0.986315
383 0.482203
-383 0.517797
384 0.30901
-384 0.69099
385 0.5
-385 0.5
386 0.5
-386 0.5
387 0.5
-387 0.5
388 0.5
-388 0.5
389 0.5
-389 0.5
390 0.5
-390 0.5
391 0.5
-391 0.5
392 0.5
-392 0.5
393 0.601114
-393 0.398886
394 0.598525
-394 0.401475
395 0.87035
-395 0.12965
396 0.725761
-396 0.274239
397 0.5
-397 0.5
398 0.5
-398 0.5
399 0.179448
-399 0.820552
400 0.1462
-400 0.8538
401 0.452642
-401 0.547358
402 0.948377
-402 0.051623
403 0.713493
-403 0.286507
404 0.617137
-404 0.382863
405 0.987396
-405 0.012604
406 0.628091
-406 0.371909
407 0.001081
-407 0.998919
408 0.110294
-408 0.889706
409 0.857572
-409 0.142428
410 0.175372
-410 0.824628
411 0.567877
-411 0.432123
412 0.130966
-412 0.869034
413 0.004504
-413 0.995496
414 0.987129
-414 0.012871
415 0.344406
-415 0.655594
416 0.057302
-416 0.942698
417 0.595059
-417 0.404941
418 0.887525
-418 0.112475
419 0.193584
-419 0.806416
420 0.757875
-420 0.242125
421 0.384178
-421 0.615822
422 0.264563
-422 0.735437
423 0.122479
-423 0.877521
424 0.444011
-424 0.555989
425 0.685148
-425 0.314852
426 0.575121
-426 0.424879
427 0.5
-427 0.5
428 0.5
-428 0.5
429 0.5
-429 0.5
430 0.5
-430 0.5
431 0.558087
-431 0.441913
432 0.499866
-432 0.500134
433 0.026999
-433 0.973001
434 0.415659
-434 0.584341
435 0.74107
-435 0.25893
436 0.983536
-436 0.016464
437 0.806204
-437 0.193796
438 0.745574
-438 0.254426
439 0.341588
-439 0.658412
440 0.08998
-440 0.91002
441 0.027967
-441 0.972033
442 0.936647
-442 0.063353
443 0.686384
-443 0.313616
444 0.130231
-444 0.869769
445 0.070562
-445 0.929438
446 0.394795
-446 0.605205
447 0.274327
-447 0.725673
448 0.19304
-448 0.80696
449 0.959475
-449 0.040525
450 0.768161
-450 0.231839
451 0.231195
-451 0.768805
452 0.470863
-452 0.529137
453 0.5
-453 0.5
454 0.5
-454 0.5
455 0.5
-455 0.5
456 0.5
-456 0.5
457 0.5
-457 0.5
458 0.5
-458 0.5
459 0.5
-459 0.5
460 0.5
-460 0.5
461 0.487123
-461 0.512877
462 0.168668
-462 0.831332
463 0.292543
-463 0.707457
464 0.577103
-464 0.422897
465 0.5
-465 0.5
466 0.5
-466 0.5
467 0.5
-467 0.5
468 0.5
-468 0.5
469 0.5
-469 0.5
470 0.5
-470 0.5
471 0.5
-471 0.5
472 0.5
-472 0.5
473 0.52379
-473 0.47621
474 0.914783
-474 0.085217
475 0.824217
-475 0.175783
476 0.994654
-476 0.005346
477 0.064937
-477 0.935063
478 0.964302
-478 0.035698
479 0.945038
-479 0.054962
480 0.863744
-480 0.136256
481 0.5
-481 0.5
482 0.5
-482 0.5
483 0.5
-483 0.5
484 0.5
-484 0.5
485 0.5
-485 0.5
486 0.5
-486 0.5
487 0.5
-487 0.5
488 0.5
-488 0.5
489 0.641518
-489 0.358482
490 0.051258
-490 0.948742
491 0.5
-491 0.5
492 0.5
-492 0.5
493 0.5
-493 0.5
494 0.5
-494 0.5
495 0.5
-495 0.5
496 0.5
-496 0.5
497 0.5
-497 0.5
498 0.5
-498 0.5
499 0.582134
-499 0.417866
500 0.678647
-500 0.321353
501 0.51108
-501 0.48892
502 0.647071
-502 0.352929
503 0.456118
-503 0.543882
504 0.510815
-504 0.489185
505 0.076765
-505 0.923235
506 0.401634
-506 0.598366
507 0.655334
-507 0.344666
508 0.088699
-508 0.911301
509 0.86524
-509 0.13476
510 0.184858
-510 0.815142
511 0.5
-511 0.5
512 0.5
-512 0.5
513 0.5
-513 0.5
514 0.5
-514 0.5
515 0.5
-515 0.5
516 0.5
-516 0.5
517 0.5
-517 0.5
518 0.5
-518 0.5
519 0.076168
-519 0.923832
520 0.579036
-520 0.420964
521 0.391675
-521 0.608325
522 0.760161
-522 0.239839
523 0.5
-523 0.5
524 0.5
-524 0.5
525 0.5
-525 0.5
526 0.5
-526 0.5
527 0.5
-527 0.5
528 0.5
-528 0.5
529 0.5
-529 0.5
530 0.5
-530 0.5
531 0.813856
-531 0.186144
532 0.576089
-532 0.423911
533 0.585961
-533 0.414039
534 0.998713
-534 0.001287
535 0.896083
-535 0.103917
536 0.005639
-536 0.994361
537 0.847723
-537 0.152277
538 0.063822
-538 0.936178
539 0.173232
-539 0.826768
540 0.3239
-540 0.6761
541 0.089198
-541 0.910802
542 0.278196
-542 0.721804
543 0.166442
-543 0.833558
544 0.165366
-544 0.834634
545 0.558118
-545 0.441882
546 0.925527
-546 0.074473
547 0.97579
-547 0.02421
548 0.531927
-548 0.468073
549 0.5
-549 0.5
550 0.5
-550 0.5
551 0.5
-551 0.5
552 0.5
-552 0.5
553 0.5
-553 0.5
554 0.5
-554 0.5
555 0.5
-555 0.5
556 0.5
-556 0.5
557 0.417184
-557 0.582816
558 0.593639
-558 0.406361
559 0.487266
-559 0.512734
560 0.422822
-560 0.577178
561 0.5
-561 0.5
562 0.5
-562 0.5
563 0.5
-563 0.5
564 0.5
-564 0.5
565 0.5
-565 0.5
566 0.5
-566 0.5
567 0.5
-567 0.5
568 0.5
-568 0.5
569 0.743889
-569 0.256111
570 0.800117
-570 0.199883
571 0.770108
-571 0.229892
572 0.275816
-572 0.724184
573 0.5
-573 0.5
574 0.5
-574 0.5
575 0.5
-575 0.5
576 0.5
-576 0.5
577 0.215161
-577 0.784839
578 0.245295
-578 0.754705
579 0.718348
-579 0.281652
580 0.633631
-580 0.366369
581 0.309531
-581 0.690469
582 0.050815
-582 0.949185
583 0.796797
-583 0.203203
584 0.473637
-584 0.526363
585 0.040391
-585 0.959609
586 0.131787
-586 0.868213
587 0.660417
-587 0.339583
588 0.790676
-588 0.209324
589 0.97961
-589 0.02039
590 0.369641
-590 0.630359
591 0.165381
-591 0.834619
592 0.244231
-592 0.755769
593 0.52208
-593 0.47792
594 0.90927
-594 0.09073
595 0.5
-595 0.5
596 0.5
-596 0.5
597 0.5
-597 0.5
598 0.5
-598 0.5
599 0.819348
-599 0.180652
600 0.734444
-600 0.265556
601 0.326834
-601 0.673166
602 0.034508
-602 0.965492
603 0.045181
-603 0.954819
604 0.668139
-604 0.331861
605 0.979696
-605 0.020304
606 0.354713
-606 0.645287
607 0.573293
-607 0.426707
608 0.15151
-608 0.84849
609 0.192591
-609 0.807409
610 0.613685
-610 0.386315
611 0.5
-611 0.5
612 0.5
-612 0.5
613 0.5
-613 0.5
614 0.5
-614 0.5
615 0.801735
-615 0.198265
616 0.297864
-616 0.702136
617 0.887974
-617 0.112026
618 0.323815
-618 0.676185
619 0.5
-619 0.5
620 0.5
-620 0.5
621 0.5
-621 0.5
622 0.5
-622 0.5
623 0.5
-623 0.5
624 0.5
-624 0.5
625 0.5
-625 0.5
626 0.5
-626 0.5
627 0.997908
-627 0.002092
628 0.377943
-628 0.622057
629 0.977604
-629 0.022396
630 0.732656
-630 0.267344
631 0.382073
-631 0.617927
632 0.550898
-632 0.449102
633 0.574663
-633 0.425337
634 0.164582
-634 0.835418
635 0.167463
-635 0.832537
636 0.727535
-636 0.272465
637 0.5
-637 0.5
638 0.5
-638 0.5
639 0.5
-639 0.5
640 0.5
-640 0.5
641 0.5
-641 0.5
642 0.5
-642 0.5
643 0.5
-643 0.5
644 0.5
-644 0.5
645 0.757235
-645 0.242765
646 0.043849
-646 0.956151
647 0.266715
-647 0.733285
648 0.763163
-648 0.236837
649 0.5
-649 0.5
650 0.5
-650 0.5
651 0.5
-651 0.5
652 0.5
-652 0.5
653 0.5
-653 0.5
654 0.5
-654 0.5
655 0.5
-655 0.5
656 0.5
-656 0.5
657 0.090689
-657 0.909311
658 0.619156
-658 0.380844
659 0.975878
-659 0.024122
660 0.258152
-660 0.741848
661 0.5
-661 0.5
662 0.5
-662 0.5
663 0.5
-663 0.5
664 0.5
-664 0.5
665 0.5
-665 0.5
666 0.5
-666 0.5
667 0.5
-667 0.5
668 0.5
-668 0.5
669 0.486839
-669 0.513161
670 0.413965
-670 0.586035
671 0.159449
-671 0.840551
672 0.250002
-672 0.749998
