1 0.794926
-1 0.205074
2 1.0
-2 1.0
3 1.0
-3 1.0
4 1.0
-4 1.0
5 1.0
-5 1.0
6 1.0
-6 1.0
7 1.0
-7 1.0
8 1.0
-8 1.0
9 1.0
-9 1.0
10 1.0
-10 1.0
11 1.0
-11 1.0
12 1.0
-12 1.0
13 1.0
-13 1.0
14 1.0
-14 1.0
15 1.0
-15 1.0
16 1.0
-16 1.0
17 1.0
-17 1.0
18 1.0
-18 1.0
19 1.0
-19 1.0
20 1.0
-20 1.0
21 1.0
-21 1.0
22 1.0
-22 1.0
23 1.0
-23 1.0
24 1.0
-24 1.0
25 1.0
-25 1.0
26 1.0
-26 1.0
27 1.0
-27 1.0
28 1.0
-28 1.0
29 1.0
-29 1.0
30 1.0
-30 1.0
31 1.0
-31 1.0
32 1.0
-32 1.0
33 1.0
-33 1.0
34 1.0
-34 1.0
35 1.0
-35 1.0
36 1.0
-36 1.0
37 1.0
-37 1.0
38 1.0
-38 1.0
39 1.0
-39 1.0
40 1.0
-40 1.0
41 1.0
-41 1.0
42 1.0
-42 1.0
43 1.0
-43 1.0
44 1.0
-44 1.0
45 1.0
-45 1.0
46 1.0
-46 1.0
47 1.0
-47 1.0
48 1.0
-48 1.0
49 1.0
-49 1.0
50 1.0
-50 1.0
51 1.0
-51 1.0
52 1.0
-52 1.0
53 1.0
-53 1.0
54 1.0
-54 1.0
55 1.0
-55 1.0
56 1.0
-56 1.0
57 1.0
-57 1.0
58 1.0
-58 1.0
59 1.0
-59 1.0
60 1.0
-60 1.0
61 1.0
-61 1.0
62 1.0
-62 1.0
63 1.0
-63 1.0
64 1.0
-64 1.0
65 1.0
-65 1.0
66 1.0
-66 1.0
67 1.0
-67 1.0
68 1.0
-68 1.0
69 1.0
-69 1.0
70 1.0
-70 1.0
71 1.0
-71 1.0
72 1.0
-72 1.0
73 1.0
-73 1.0
74 1.0
-74 1.0
75 1.0
-75 1.0
76 1.0
-76 1.0
77 1.0
-77 1.0
78 1.0
-78 1.0
79 1.0
-79 1.0
80 1.0
-80 1.0
81 1.0
-81 1.0
82 1.0
-82 1.0
83 1.0
-83 1.0
84 1.0
-84 1.0
85 1.0
-85 1.0
86 1.0
-86 1.0
87 1.0
-87 1.0
88 1.0
-88 1.0
89 1.0
-89 1.0
90 1.0
-90 1.0
91 1.0
-91 1.0
92 1.0
-92 1.0
93 1.0
-93 1.0
94 1.0
-94 1.0
95 1.0
-95 1.0
96 1.0
-96 1.0
97 1.0
-97 1.0
98 1.0
-98 1.0
99 1.0
-99 1.0
100 1.0
-100 1.0
101 1.0
-101 1.0
102 1.0
-102 1.0
103 1.0
-103 1.0
104 1.0
-104 1.0
105 1.0
-105 1.0
106 1.0
-106 1.0
107 1.0
-107 1.0
108 1.0
-108 1.0
109 1.0
-109 1.0
110 1.0
-110 1.0
111 1.0
-111 1.0
112 1.0
-112 1.0
113 1.0
-113 1.0
114 1.0
-114 1.0
115 1.0
-115 1.0
116 1.0
-116 1.0
117 1.0
-117 1.0
118 1.0
-118 1.0
119 1.0
-119 1.0
120 1.0
-120 1.0
121 1.0
-121 1.0
122 1.0
-122 1.0
123 1.0
-123 1.0
124 1.0
-124 1.0
125 1.0
-125 1.0
126 1.0
-126 1.0
127 1.0
-127 1.0
128 1.0
-128 1.0
129 1.0
-129 1.0
130 1.0
-130 1.0
131 1.0
-131 1.0
132 1.0
-132 1.0
133 1.0
-133 1.0
134 1.0
-134 1.0
135 1.0
-135 1.0
136 1.0
-136 1.0
137 1.0
-137 1.0
138 1.0
-138 1.0
139 1.0
-139 1.0
140 1.0
-140 1.0
141 1.0
-141 1.0
142 1.0
-142 1.0
143 1.0
-143 1.0
144 1.0
-144 1.0
145 1.0
-145 1.0
146 1.0
-146 1.0
147 1.0
-147 1.0
148 1.0
-148 1.0
149 1.0
-149 1.0
150 1.0
-150 1.0
151 1.0
-151 1.0
152 1.0
-152 1.0
153 1.0
-153 1.0
154 1.0
-154 1.0
155 1.0
-155 1.0
156 1.0
-156 1.0
157 1.0
-157 1.0
158 1.0
-158 1.0
159 1.0
-159 1.0
160 1.0
-160 1.0
161 1.0
-161 1.0
162 1.0
-162 1.0
163 1.0
-163 1.0
164 1.0
-164 1.0
165 1.0
-165 1.0
166 1.0
-166 1.0
167 1.0
-167 1.0
168 1.0
-168 1.0
169 1.0
-169 1.0
170 1.0
-170 1.0
171 1.0
-171 1.0
172 1.0
-172 1.0
173 1.0
-173 1.0
174 1.0
-174 1.0
175 1.0
-175 1.0
176 1.0
-176 1.0
177 1.0
-177 1.0
178 1.0
-178 1.0
179 1.0
-179 1.0
180 1.0
-180 1.0
181 1.0
-181 1.0
182 1.0
-182 1.0
183 1.0
-183 1.0
184 1.0
-184 1.0
185 1.0
-185 1.0
186 1.0
-186 1.0
187 1.0
-187 1.0
188 1.0
-188 1.0
189 1.0
-189 1.0
190 1.0
-190 1.0
191 1.0
-191 1.0
192 1.0
-192 1.0
193 1.0
-193 1.0
194 1.0
-194 1.0
195 1.0
-195 1.0
196 1.0
-196 1.0
197 1.0
-197 1.0
198 1.0
-198 1.0
199 1.0
-199 1.0
200 1.0
-200 1.0
201 1.0
-201 1.0
202 1.0
-202 1.0
203 1.0
-203 1.0
204 1.0
-204 1.0
205 1.0
-205 1.0
206 1.0
-206 1.0
207 1.0
-207 1.0
208 1.0
-208 1.0
209 1.0
-209 1.0
210 1.0
-210 1.0
211 1.0
-211 1.0
212 1.0
-212 1.0
213 1.0
-213 1.0
214 1.0
-214 1.0
215 1.0
-215 1.0
216 1.0
-216 1.0
217 1.0
-217 1.0
218 1.0
-218 1.0
219 1.0
-219 1.0
220 1.0
-220 1.0
221 1.0
-221 1.0
222 1.0
-222 1.0
223 1.0
-223 1.0
224 1.0
-224 1.0
225 1.0
-225 1.0
226 1.0
-226 1.0
227 1.0
-227 1.0
228 1.0
-228 1.0
229 1.0
-229 1.0
230 1.0
-230 1.0
231 1.0
-231 1.0
232 1.0
-232 1.0
233 1.0
-233 1.0
234 1.0
-234 1.0
235 1.0
-235 1.0
236 1.0
-236 1.0
237 1.0
-237 1.0
238 1.0
-238 1.0
239 1.0
-239 1.0
240 1.0
-240 1.0
241 1.0
-241 1.0
242 1.0
-242 1.0
243 1.0
-243 1.0
244 1.0
-244 1.0
245 1.0
-245 1.0
246 1.0
-246 1.0
247 1.0
-247 1.0
248 1.0
-248 1.0
249 1.0
-249 1.0
250 1.0
-250 1.0
251 1.0
-251 1.0
252 1.0
-252 1.0
253 1.0
-253 1.0
254 1.0
-254 1.0
255 1.0
-255 1.0
256 1.0
-256 1.0
257 1.0
-257 1.0
258 1.0
-258 1.0
259 1.0
-259 1.0
260 1.0
-260 1.0
261 1.0
-261 1.0
262 1.0
-262 1.0
263 1.0
-263 1.0
264 1.0
-264 1.0
265 1.0
-265 1.0
266 1.0
-266 1.0
267 1.0
-267 1.0
268 1.0
-268 1.0
269 1.0
-269 1.0
270 1.0
-270 1.0
271 1.0
-271 1.0
272 1.0
-272 1.0
273 1.0
-273 1.0
274 1.0
-274 1.0
275 1.0
-275 1.0
276 1.0
-276 1.0
277 1.0
-277 1.0
278 1.0
-278 1.0
279 1.0
-279 1.0
280 1.0
-280 1.0
281 1.0
-281 1.0
282 1.0
-282 1.0
283 1.0
-283 1.0
284 1.0
-284 1.0
285 1.0
-285 1.0
286 1.0
-286 1.0
287 1.0
-287 1.0
288 1.0
-288 1.0
289 1.0
-289 1.0
290 1.0
-290 1.0
291 1.0
-291 1.0
292 1.0
-292 1.0
293 1.0
-293 1.0
294 1.0
-294 1.0
295 1.0
-295 1.0
296 1.0
-296 1.0
297 1.0
-297 1.0
298 1.0
-298 1.0
299 1.0
-299 1.0
300 1.0
-300 1.0
301 1.0
-301 1.0
302 1.0
-302 1.0
303 1.0
-303 1.0
304 1.0
-304 1.0
305 1.0
-305 1.0
306 1.0
-306 1.0
307 1.0
-307 1.0
308 1.0
-308 1.0
309 1.0
-309 1.0
310 1.0
-310 1.0
311 1.0
-311 1.0
312 1.0
-312 1.0
313 1.0
-313 1.0
314 1.0
-314 1.0
315 1.0
-315 1.0
316 1.0
-316 1.0
317 1.0
-317 1.0
318 1.0
-318 1.0
319 1.0
-319 1.0
320 1.0
-320 1.0
321 1.0
-321 1.0
322 1.0
-322 1.0
323 1.0
-323 1.0
324 1.0
-324 1.0
325 0.613648
-325 0.386352
326 0.177665
-326 0.822335
327 0.5
-327 0.5
328 0.5
-328 0.5
329 0.5
-329 0.5
330 0.5
-330 0.5
331 0.826855
-331 0.173145
332 0.723207
-332 0.276793
333 0.628328
-333 0.371672
334 0.051273
-334 0.948727
335 0.5
-335 0.5
336 0.5
-336 0.5
337 0.5
-337 0.5
338 0.5
-338 0.5
339 0.955285
-339 0.044715
340 0.980715
-340 0.019285
341 0.5
-341 0.5
342 0.5
-342 0.5
343 0.647445
-343 0.352555
344 0.019079
-344 0.980921
345 0.988583
-345 0.011417
346 0.484387
-346 0.515613
347 0.5
-347 0.5
348 0.5
-348 0.5
349 0.5
-349 0.5
350 0.5
-350 0.5
351 0.456978
-351 0.543022
352 0.801646
-352 0.198354
353 0.662718
-353 0.337282
354 0.418069
-354 0.581931
355 0.489574
-355 0.510426
356 0.141276
-356 0.858724
357 0.5
-357 0.5
358 0.5
-358 0.5
359 0.5
-359 0.5
360 0.5
-360 0.5
361 0.345301
-361 0.654699
362 0.667515
-362 0.332485
363 0.744204
-363 0.255796
364 0.300587
-364 0.699413
365 0.183477
-365 0.816523
366 0.109798
-366 0.890202
367 0.444351
-367 0.555649
368 0.830922
-368 0.169078
369 0.5
-369 0.5
370 0.5
-370 0.5
371 0.5
-371 0.5
372 0.5
-372 0.5
373 0.179782
-373 0.820218
374 0.686572
-374 0.313428
375 0.349554
-375 0.650446
376 0.981428
-376 0.018572
377 0.5
-377 0.5
378 0.5
-378 0.5
379 0.5
-379 0.5
380 0.5
-380 0.5
381 0.030521
-381 0.969479
382 0.619747
-382 0.380253
383 0.73332
-383 0.26668
384 0.705396
-384 0.294604
385 0.078622
-385 0.921378
386 0.372911
-386 0.627089
387 0.266182
-387 0.733818
388 0.379209
-388 0.620791
389 0.5
-389 0.5
390 0.5
-390 0.5
391 0.5
-391 0.5
392 0.5
-392 0.5
393 0.860554
-393 0.139446
394 0.100087
-394 0.899913
395 0.231147
-395 0.768853
396 0.737718
-396 0.262282
397 0.5
-397 0.5
398 0.5
-398 0.5
399 0.5
-399 0.5
400 0.5
-400 0.5
401 0.035907
-401 0.964093
402 0.485549
-402 0.514451
403 0.298423
-403 0.701577
404 0.891442
-404 0.108558
405 0.839195
-405 0.160805
406 0.921963
-406 0.078037
407 0.607142
-407 0.392858
408 0.572516
-408 0.427484
409 0.12912
-409 0.87088
410 0.651138
-410 0.348862
411 0.000269
-411 0.999731
412 0.395302
-412 0.604698
413 0.5
-413 0.5
414 0.5
-414 0.5
415 0.5
-415 0.5
416 0.5
-416 0.5
417 0.5
-417 0.5
418 0.5
-418 0.5
419 0.5
-419 0.5
420 0.5
-420 0.5
421 0.5
-421 0.5
422 0.5
-422 0.5
423 0.5
-423 0.5
424 0.5
-424 0.5
425 0.040715
-425 0.959285
426 0.450932
-426 0.549068
427 0.200021
-427 0.799979
428 0.932157
-428 0.067843
429 0.5
-429 0.5
430 0.5
-430 0.5
431 0.045469
-431 0.954531
432 0.611732
-432 0.388268
433 0.481478
-433 0.518522
434 0.174589
-434 0.825411
435 0.5
-435 0.5
436 0.5
-436 0.5
437 0.5
-437 0.5
438 0.5
-438 0.5
439 0.5
-439 0.5
440 0.5
-440 0.5
441 0.5
-441 0.5
442 0.5
-442 0.5
443 0.5
-443 0.5
444 0.5
-444 0.5
445 0.5
-445 0.5
446 0.5
-446 0.5
447 0.425353
-447 0.574647
448 0.042769
-448 0.957231
449 0.775677
-449 0.224323
450 0.326951
-450 0.673049
451 0.5
-451 0.5
452 0.5
-452 0.5
453 0.5
-453 0.5
454 0.5
-454 0.5
455 0.86976
-455 0.13024
456 0.710404
-456 0.289596
457 0.177921
-457 0.822079
458 0.351238
-458 0.648762
459 0.440791
-459 0.559209
460 0.832985
-460 0.167015
461 0.454885
-461 0.545115
462 0.734008
-462 0.265992
463 0.5
-463 0.5
464 0.5
-464 0.5
465 0.5
-465 0.5
466 0.5
-466 0.5
467 0.5
-467 0.5
468 0.5
-468 0.5
469 0.5
-469 0.5
470 0.5
-470 0.5
471 0.5
-471 0.5
472 0.5
-472 0.5
473 0.5
-473 0.5
474 0.5
-474 0.5
475 0.340376
-475 0.659624
476 0.627151
-476 0.372849
477 0.365668
-477 0.634332
478 0.356016
-478 0.643984
479 0.5
-479 0.5
480 0.5
-480 0.5
481 0.5
-481 0.5
482 0.5
-482 0.5
483 0.887484
-483 0.112516
484 0.550569
-484 0.449431
485 0.409999
-485 0.590001
486 0.342369
-486 0.657631
487 0.5
-487 0.5
488 0.5
-488 0.5
489 0.5
-489 0.5
490 0.5
-490 0.5
491 0.327537
-491 0.672463
492 0.73605
-492 0.26395
493 0.798405
-493 0.201595
494 0.142107
-494 0.857893
495 0.012529
-495 0.987471
496 0.766972
-496 0.233028
497 0.334187
-497 0.665813
498 0.269422
-498 0.730578
499 0.5
-499 0.5
500 0.5
-500 0.5
501 0.794665
-501 0.205335
502 0.538552
-502 0.461448
503 0.965814
-503 0.034186
504 0.086752
-504 0.913248
505 0.5
-505 0.5
506 0.5
-506 0.5
507 0.5
-507 0.5
508 0.5
-508 0.5
509 0.130757
-509 0.869243
510 0.178603
-510 0.821397
511 0.319096
-511 0.680904
512 0.415334
-512 0.584666
513 0.531204
-513 0.468796
514 0.246488
-514 0.753512
515 0.997084
-515 0.002916
516 0.153446
-516 0.846554
517 0.733134
-517 0.266866
518 0.951851
-518 0.048149
519 0.716132
-519 0.283868
520 0.555576
-520 0.444424
521 0.483105
-521 0.516895
522 0.889763
-522 0.110237
523 0.233802
-523 0.766198
524 0.650619
-524 0.349381
525 0.5
-525 0.5
526 0.5
-526 0.5
527 0.5
-527 0.5
528 0.5
-528 0.5
529 0.071608
-529 0.928392
530 0.001004
-530 0.998996
531 0.621278
-531 0.378722
532 0.651796
-532 0.348204
533 0.598006
-533 0.401994
534 0.782552
-534 0.217448
535 0.948211
-535 0.051789
536 0.917102
-536 0.082898
537 0.5
-537 0.5
538 0.5
-538 0.5
539 0.5
-539 0.5
540 0.5
-540 0.5
541 0.0184
-541 0.9816
542 0.603172
-542 0.396828
543 0.553603
-543 0.446397
544 0.734532
-544 0.265468
545 0.5
-545 0.5
546 0.5
-546 0.5
547 0.5
-547 0.5
548 0.5
-548 0.5
549 0.111158
-549 0.888842
550 0.595386
-550 0.404614
551 0.313539
-551 0.686461
552 0.712357
-552 0.287643
553 0.5
-553 0.5
554 0.5
-554 0.5
555 0.5
-555 0.5
556 0.5
-556 0.5
557 0.5
-557 0.5
558 0.5
-558 0.5
559 0.5
-559 0.5
560 0.5
-560 0.5
561 0.5
-561 0.5
562 0.5
-562 0.5
563 0.5
-563 0.5
564 0.5
-564 0.5
565 0.5
-565 0.5
566 0.5
-566 0.5
567 0.5
-567 0.5
568 0.5
-568 0.5
569 0.103606
-569 0.896394
570 0.831142
-570 0.168858
571 0.855393
-571 0.144607
572 0.699398
-572 0.300602
573 0.788205
-573 0.211795
574 0.450779
-574 0.549221
575 0.5
-575 0.5
576 0.5
-576 0.5
577 0.5
-577 0.5
578 0.5
-578 0.5
579 0.5
-579 0.5
580 0.5
-580 0.5
581 0.5
-581 0.5
582 0.5
-582 0.5
583 0.5
-583 0.5
584 0.5
-584 0.5
585 0.5
-585 0.5
586 0.5
-586 0.5
587 0.5
-587 0.5
588 0.5
-588 0.5
589 0.5
-589 0.5
590 0.5
-590 0.5
591 0.521938
-591 0.478062
592 0.5237
-592 0.4763
593 0.538999
-593 0.461001
594 0.198985
-594 0.801015
595 0.5
-595 0.5
596 0.5
-596 0.5
597 0.5
-597 0.5
598 0.5
-598 0.5
599 0.5
-599 0.5
600 0.5
-600 0.5
601 0.5
-601 0.5
602 0.5
-602 0.5
603 0.5
-603 0.5
604 0.5
-604 0.5
605 0.5
-605 0.5
606 0.5
-606 0.5
607 0.5
-607 0.5
608 0.5
-608 0.5
609 0.5
-609 0.5
610 0.5
-610 0.5
611 0.834542
-611 0.165458
612 0.095699
-612 0.904301
613 0.818071
-613 0.181929
614 0.254636
-614 0.745364
615 0.340009
-615 0.659991
616 0.778336
-616 0.221664
617 0.342556
-617 0.657444
618 0.538994
-618 0.461006
619 0.5
-619 0.5
620 0.5
-620 0.5
621 0.5
-621 0.5
622 0.5
-622 0.5
623 0.5
-623 0.5
624 0.5
-624 0.5
625 0.5
-625 0.5
626 0.5
-626 0.5
627 0.5
-627 0.5
628 0.5
-628 0.5
629 0.5
-629 0.5
630 0.5
-630 0.5
631 0.400395
-631 0.599605
632 0.495926
-632 0.504074
633 0.448332
-633 0.551668
634 0.400466
-634 0.599534
635 0.5
-635 0.5
636 0.5
-636 0.5
637 0.5
-637 0.5
638 0.5
-638 0.5
639 0.5
-639 0.5
640 0.5
-640 0.5
641 0.26798
-641 0.73202
642 0.739085
-642 0.260915
643 0.070075
-643 0.929925
644 0.425408
-644 0.574592
645 0.5
-645 0.5
646 0.5
-646 0.5
647 0.5
-647 0.5
648 0.5
-648 0.5
649 0.5
-649 0.5
650 0.5
-650 0.5
651 0.5
-651 0.5
652 0.5
-652 0.5
653 0.708274
-653 0.291726
654 0.674573
-654 0.325427
655 0.385148
-655 0.614852
656 0.655552
-656 0.344448
657 0.5
-657 0.5
658 0.5
-658 0.5
659 0.5
-659 0.5
660 0.5
-660 0.5
661 0.5
-661 0.5
662 0.5
-662 0.5
663 0.5
-663 0.5
664 0.5
-664 0.5
665 0.5
-665 0.5
666 0.5
-666 0.5
667 0.5
-667 0.5
668 0.5
-668 0.5
669 0.426975
-669 0.573025
670 0.865371
-670 0.134629
671 0.306184
-671 0.693816
672 0.579299
-672 0.420701
673 0.5
-673 0.5
674 0.5
-674 0.5
675 0.5
-675 0.5
676 0.5
-676 0.5
677 0.5
-677 0.5
678 0.5
-678 0.5
679 0.5
-679 0.5
680 0.5
-680 0.5
681 0.5
-681 0.5
682 0.5
-682 0.5
683 0.5
-683 0.5
684 0.5
-684 0.5
685 0.5
-685 0.5
686 0.5
-686 0.5
687 0.5
-687 0.5
688 0.5
-688 0.5
689 0.5
-689 0.5
690 0.5
-690 0.5
691 0.5
-691 0.5
692 0.5
-692 0.5
693 0.5
-693 0.5
694 0.5
-694 0.5
695 0.5
-695 0.5
696 0.5
-696 0.5
697 0.340426
-697 0.659574
698 0.317878
-698 0.682122
699 0.39031
-699 0.60969
700 0.437121
-700 0.562879
701 0.5
-701 0.5
702 0.5
-702 0.5
703 0.5
-703 0.5
704 0.5
-704 0.5
705 0.178645
-705 0.821355
706 0.683191
-706 0.316809
707 0.267018
-707 0.732982
708 0.549171
-708 0.450829
709 0.30831
-709 0.69169
710 0.630139
-710 0.369861
711 0.5
-711 0.5
712 0.5
-712 0.5
713 0.5
-713 0.5
714 0.5
-714 0.5
715 0.206759
-715 0.793241
716 0.10324
-716 0.89676
717 0.302911
-717 0.697089
718 0.271585
-718 0.728415
719 0.5
-719 0.5
720 0.5
-720 0.5
721 0.5
-721 0.5
722 0.5
-722 0.5
723 0.5
-723 0.5
724 0.5
-724 0.5
725 0.5
-725 0.5
726 0.5
-726 0.5
727 0.5
-727 0.5
728 0.5
-728 0.5
729 0.5
-729 0.5
730 0.5
-730 0.5
731 0.5
-731 0.5
732 0.5
-732 0.5
733 0.5
-733 0.5
734 0.5
-734 0.5
735 0.5
-735 0.5
736 0.5
-736 0.5
737 0.5
-737 0.5
738 0.5
-738 0.5
739 0.233716
-739 0.766284
740 0.595911
-740 0.404089
741 0.212944
-741 0.787056
742 0.505301
-742 0.494699
743 0.464635
-743 0.535365
744 0.42101
-744 0.57899
745 0.406261
-745 0.593739
746 0.056752
-746 0.943248
747 0.460913
-747 0.539087
748 0.085991
-748 0.914009
749 0.351614
-749 0.648386
750 0.453044
-750 0.546956
751 0.5
-751 0.5
752 0.5
-752 0.5
753 0.5
-753 0.5
754 0.5
-754 0.5
755 0.572222
-755 0.427778
756 0.199784
-756 0.800216
757 0.28015
-757 0.71985
758 0.121491
-758 0.878509
759 0.738199
-759 0.261801
760 0.688319
-760 0.311681
761 0.788025
-761 0.211975
762 0.765156
-762 0.234844
763 0.5
-763 0.5
764 0.5
-764 0.5
765 0.5
-765 0.5
766 0.5
-766 0.5
767 0.375637
-767 0.624363
768 0.925183
-768 0.074817
769 0.925082
-769 0.074918
770 0.432389
-770 0.567611
771 0.385994
-771 0.614006
772 0.51838
-772 0.48162
773 0.931395
-773 0.068605
774 0.839039
-774 0.160961
775 0.263579
-775 0.736421
776 0.154013
-776 0.845987
777 0.206962
-777 0.793038
778 0.754977
-778 0.245023
779 0.5
-779 0.5
780 0.5
-780 0.5
781 0.29426
-781 0.70574
782 0.900675
-782 0.099325
783 0.493069
-783 0.506931
784 0.032459
-784 0.967541
785 0.281094
-785 0.718906
786 0.797615
-786 0.202385
787 0.769983
-787 0.230017
788 0.979152
-788 0.020848
789 0.546884
-789 0.453116
790 0.890153
-790 0.109847
791 0.30066
-791 0.69934
792 0.065704
-792 0.934296
793 0.5
-793 0.5
794 0.5
-794 0.5
795 0.5
-795 0.5
796 0.5
-796 0.5
797 0.5
-797 0.5
798 0.5
-798 0.5
799 0.5
-799 0.5
800 0.5
-800 0.5
801 0.5
-801 0.5
802 0.5
-802 0.5
803 0.5
-803 0.5
804 0.5
-804 0.5
805 0.5
-805 0.5
806 0.5
-806 0.5
807 0.5
-807 0.5
808 0.5
-808 0.5
809 0.484498
-809 0.515502
810 0.508276
-810 0.491724
811 0.338057
-811 0.661943
812 0.46365
-812 0.53635
813 0.5
-813 0.5
814 0.5
-814 0.5
815 0.5
-815 0.5
816 0.5
-816 0.5
817 0.831266
-817 0.168734
818 0.94143
-818 0.05857
819 0.317773
-819 0.682227
820 0.636889
-820 0.363111
821 0.5
-821 0.5
822 0.5
-822 0.5
823 0.5
-823 0.5
824 0.5
-824 0.5
825 0.5
-825 0.5
826 0.5
-826 0.5
827 0.5
-827 0.5
828 0.5
-828 0.5
829 0.966006
-829 0.033994
830 0.983299
-830 0.016701
831 0.04382
-831 0.95618
832 0.676667
-832 0.323333
833 0.528319
-833 0.471681
834 0.184943
-834 0.815057
835 0.889429
-835 0.110571
836 0.991969
-836 0.008031
837 0.5
-837 0.5
838 0.5
-838 0.5
839 0.5
-839 0.5
840 0.5
-840 0.5
841 0.926393
-841 0.073607
842 0.666444
-842 0.333556
843 0.28314
-843 0.71686
844 0.563282
-844 0.436718
845 0.817472
-845 0.182528
846 0.93719
-846 0.06281
847 0.518684
-847 0.481316
848 0.444065
-848 0.555935
849 0.5
-849 0.5
850 0.5
-850 0.5
851 0.5
-851 0.5
852 0.5
-852 0.5
853 0.5
-853 0.5
854 0.5
-854 0.5
855 0.357396
-855 0.642604
856 0.326012
-856 0.673988
857 0.353023
-857 0.646977
858 0.908768
-858 0.091232
859 0.537966
-859 0.462034
860 0.798197
-860 0.201803
861 0.8463
-861 0.1537
862 0.027671
-862 0.972329
863 0.192072
-863 0.807928
864 0.122798
-864 0.877202
865 0.29758
-865 0.70242
866 0.157438
-866 0.842562
867 0.5
-867 0.5
868 0.5
-868 0.5
869 0.5
-869 0.5
870 0.5
-870 0.5
871 0.5
-871 0.5
872 0.5
-872 0.5
873 0.5
-873 0.5
874 0.5
-874 0.5
875 0.5
-875 0.5
876 0.5
-876 0.5
877 0.5
-877 0.5
878 0.5
-878 0.5
879 0.5
-879 0.5
880 0.5
-880 0.5
881 0.5
-881 0.5
882 0.5
-882 0.5
883 0.5
-883 0.5
884 0.5
-884 0.5
885 0.5
-885 0.5
886 0.5
-886 0.5
887 0.318075
-887 0.681925
888 0.380599
-888 0.619401
889 0.961479
-889 0.038521
890 0.367265
-890 0.632735
891 0.5
-891 0.5
892 0.5
-892 0.5
893 0.5
-893 0.5
894 0.5
-894 0.5
895 0.760666
-895 0.239334
896 0.362223
-896 0.637777
897 0.390759
-897 0.609241
898 0.650576
-898 0.349424
899 0.5
-899 0.5
900 0.5
-900 0.5
901 0.5
-901 0.5
902 0.5
-902 0.5
903 0.683796
-903 0.316204
904 0.190559
-904 0.809441
905 0.157094
-905 0.842906
906 0.396051
-906 0.603949
907 0.324701
-907 0.675299
908 0.906504
-908 0.093496
909 0.568198
-909 0.431802
910 0.519978
-910 0.480022
911 0.372239
-911 0.627761
912 0.838053
-912 0.161947
913 0.370122
-913 0.629878
914 0.333718
-914 0.666282
915 0.5
-915 0.5
916 0.5
-916 0.5
917 0.5
-917 0.5
918 0.5
-918 0.5
919 0.5
-919 0.5
920 0.5
-920 0.5
921 0.758106
-921 0.241894
922 0.105216
-922 0.894784
923 0.41929
-923 0.58071
924 0.192322
-924 0.807678
925 0.670127
-925 0.329873
926 0.07263
-926 0.92737
927 0.07833
-927 0.92167
928 0.197581
-928 0.802419
929 0.268889
-929 0.731111
930 0.354675
-930 0.645325
931 0.152477
-931 0.847523
932 0.225118
-932 0.774882
933 0.058981
-933 0.941019
934 0.793315
-934 0.206685
935 0.199354
-935 0.800646
936 0.048504
-936 0.951496
937 0.5
-937 0.5
938 0.5
-938 0.5
939 0.5
-939 0.5
940 0.5
-940 0.5
941 0.5
-941 0.5
942 0.5
-942 0.5
943 0.5
-943 0.5
944 0.5
-944 0.5
945 0.389035
-945 0.610965
946 0.247452
-946 0.752548
947 0.329423
-947 0.670577
948 0.581358
-948 0.418642
949 0.5
-949 0.5
950 0.5
-950 0.5
951 0.5
-951 0.5
952 0.5
-952 0.5
953 0.5
-953 0.5
954 0.5
-954 0.5
955 0.5
-955 0.5
956 0.5
-956 0.5
957 0.412213
-957 0.587787
958 0.430535
-958 0.569465
959 0.670376
-959 0.329624
960 0.577767
-960 0.422233
961 0.5
-961 0.5
962 0.5
-962 0.5
963 0.5
-963 0.5
964 0.5
-964 0.5
965 0.5
-965 0.5
966 0.5
-966 0.5
967 0.5
-967 0.5
968 0.5
-968 0.5
969 0.5
-969 0.5
970 0.5
-970 0.5
971 0.5
-971 0.5
972 0.5
-972 0.5
973 0.602896
-973 0.397104
974 0.567396
-974 0.432604
975 0.699589
-975 0.300411
976 0.800027
-976 0.199973
977 0.093369
-977 0.906631
978 0.351833
-978 0.648167
979 0.540701
-979 0.459299
980 0.712267
-980 0.287733
981 0.162572
-981 0.837428
982 0.12448
-982 0.87552
983 0.01355
-983 0.98645
984 0.832948
-984 0.167052
985 0.481492
-985 0.518508
986 0.921949
-986 0.078051
987 0.779285
-987 0.220715
988 0.192158
-988 0.807842
989 0.5
-989 0.5
990 0.5
-990 0.5
991 0.5
-991 0.5
992 0.5
-992 0.5
993 0.5
-993 0.5
994 0.5
-994 0.5
995 0.5
-995 0.5
996 0.5
-996 0.5
997 0.5
-997 0.5
998 0.5
-998 0.5
999 0.413711
-999 0.586289
1000 0.788306
-1000 0.211694
1001 0.825052
-1001 0.174948
1002 0.50708
-1002 0.49292
1003 0.5
-1003 0.5
1004 0.5
-1004 0.5
1005 0.5
-1005 0.5
1006 0.5
-1006 0.5
1007 0.5
-1007 0.5
1008 0.5
-1008 0.5
1009 0.5
-1009 0.5
1010 0.5
-1010 0.5
1011 0.5
-1011 0.5
1012 0.5
-1012 0.5
1013 0.5
-1013 0.5
1014 0.5
-1014 0.5
1015 0.951117
-1015 0.048883
1016 0.352248
-1016 0.647752
1017 0.717694
-1017 0.282306
1018 0.317555
-1018 0.682445
1019 0.5
-1019 0.5
1020 0.5
-1020 0.5
1021 0.5
-1021 0.5
1022 0.5
-1022 0.5
1023 0.5
-1023 0.5
1024 0.5
-1024 0.5
1025 0.5
-1025 0.5
1026 0.5
-1026 0.5
1027 0.5
-1027 0.5
1028 0.5
-1028 0.5
1029 0.5
-1029 0.5
1030 0.5
-1030 0.5
1031 0.479656
-1031 0.520344
1032 0.525047
-1032 0.474953
1033 0.735834
-1033 0.264166
1034 0.697851
-1034 0.302149
1035 0.561194
-1035 0.438806
1036 0.108205
-1036 0.891795
1037 0.235814
-1037 0.764186
1038 0.477924
-1038 0.522076
1039 0.171471
-1039 0.828529
1040 0.429041
-1040 0.570959
1041 0.201412
-1041 0.798588
1042 0.889164
-1042 0.110836
1043 0.693084
-1043 0.306916
1044 0.992241
-1044 0.007759
1045 0.343997
-1045 0.656003
1046 0.898879
-1046 0.101121
1047 0.5
-1047 0.5
1048 0.5
-1048 0.5
1049 0.5
-1049 0.5
1050 0.5
-1050 0.5
1051 0.983056
-1051 0.016944
1052 0.693785
-1052 0.306215
1053 0.990904
-1053 0.009096
1054 0.726008
-1054 0.273992
1055 0.680664
-1055 0.319336
1056 0.205664
-1056 0.794336
1057 0.382605
-1057 0.617395
1058 0.416498
-1058 0.583502
1059 0.190874
-1059 0.809126
1060 0.977692
-1060 0.022308
1061 0.5
-1061 0.5
1062 0.5
-1062 0.5
1063 0.5
-1063 0.5
1064 0.5
-1064 0.5
1065 0.062295
-1065 0.937705
1066 0.487323
-1066 0.512677
1067 0.631253
-1067 0.368747
1068 0.755379
-1068 0.244621
1069 0.5
-1069 0.5
1070 0.5
-1070 0.5
1071 0.5
-1071 0.5
1072 0.5
-1072 0.5
1073 0.5
-1073 0.5
1074 0.5
-1074 0.5
1075 0.5
-1075 0.5
1076 0.5
-1076 0.5
1077 0.808516
-1077 0.191484
1078 0.235479
-1078 0.764521
1079 0.37357
-1079 0.62643
1080 0.48918
-1080 0.51082
1081 0.5
-1081 0.5
1082 0.5
-1082 0.5
1083 0.5
-1083 0.5
1084 0.5
-1084 0.5
1085 0.356377
-1085 0.643623
1086 0.373737
-1086 0.626263
1087 0.338985
-1087 0.661015
1088 0.21726
-1088 0.78274
1089 0.223642
-1089 0.776358
1090 0.279554
-1090 0.720446
1091 0.459219
-1091 0.540781
1092 0.854896
-1092 0.145104
1093 0.5
-1093 0.5
1094 0.5
-1094 0.5
1095 0.5
-1095 0.5
1096 0.5
-1096 0.5
1097 0.861832
-1097 0.138168
1098 0.028357
-1098 0.971643
1099 0.416265
-1099 0.583735
1100 0.679444
-1100 0.320556
1101 0.932277
-1101 0.067723
1102 0.48796
-1102 0.51204
1103 0.773308
-1103 0.226692
1104 0.305848
-1104 0.694152
1105 0.214451
-1105 0.785549
1106 0.062023
-1106 0.937977
1107 0.882817
-1107 0.117183
1108 0.559108
-1108 0.440892
1109 0.5
-1109 0.5
1110 0.5
-1110 0.5
1111 0.5
-1111 0.5
1112 0.5
-1112 0.5
1113 0.5
-1113 0.5
1114 0.5
-1114 0.5
1115 0.5
-1115 0.5
1116 0.5
-1116 0.5
1117 0.5
-1117 0.5
1118 0.5
-1118 0.5
1119 0.5
-1119 0.5
1120 0.5
-1120 0.5
1121 0.5
-1121 0.5
1122 0.5
-1122 0.5
1123 0.5
-1123 0.5
1124 0.5
-1124 0.5
1125 0.820834
-1125 0.179166
1126 0.956435
-1126 0.043565
1127 0.165656
-1127 0.834344
1128 0.594142
-1128 0.405858
1129 0.5
-1129 0.5
1130 0.5
-1130 0.5
1131 0.324305
-1131 0.675695
1132 0.025612
-1132 0.974388
1133 0.3677
-1133 0.6323
1134 0.333378
-1134 0.666622
1135 0.283185
-1135 0.716815
1136 0.716188
-1136 0.283812
1137 0.89697
-1137 0.10303
1138 0.415929
-1138 0.584071
1139 0.5
-1139 0.5
1140 0.5
-1140 0.5
1141 0.5
-1141 0.5
1142 0.5
-1142 0.5
1143 0.5
-1143 0.5
1144 0.5
-1144 0.5
1145 0.5
-1145 0.5
1146 0.5
-1146 0.5
1147 0.5
-1147 0.5
1148 0.5
-1148 0.5
1149 0.5
-1149 0.5
1150 0.5
-1150 0.5
1151 0.5
-1151 0.5
1152 0.5
-1152 0.5
1153 0.5
-1153 0.5
1154 0.5
-1154 0.5
1155 0.5
-1155 0.5
1156 0.5
-1156 0.5
1157 0.5
-1157 0.5
1158 0.5
-1158 0.5
1159 0.5
-1159 0.5
1160 0.5
-1160 0.5
1161 0.5
-1161 0.5
1162 0.5
-1162 0.5
1163 0.336441
-1163 0.663559
1164 0.293784
-1164 0.706216
1165 0.603695
-1165 0.396305
1166 0.745932
-1166 0.254068
1167 0.241218
-1167 0.758782
1168 0.169279
-1168 0.830721
1169 0.98112
-1169 0.01888
1170 0.13339
-1170 0.86661
1171 0.5
-1171 0.5
1172 0.5
-1172 0.5
1173 0.5
-1173 0.5
1174 0.5
-1174 0.5
1175 0.5
-1175 0.5
1176 0.5
-1176 0.5
1177 0.5
-1177 0.5
1178 0.5
-1178 0.5
1179 0.5
-1179 0.5
1180 0.5
-1180 0.5
1181 0.5
-1181 0.5
1182 0.5
-1182 0.5
1183 0.5
-1183 0.5
1184 0.5
-1184 0.5
1185 0.5
-1185 0.5
1186 0.5
-1186 0.5
1187 0.438939
-1187 0.561061
1188 0.211515
-1188 0.788485
1189 0.868884
-1189 0.131116
1190 0.042634
-1190 0.957366
1191 0.438126
-1191 0.561874
1192 0.283852
-1192 0.716148
1193 0.126727
-1193 0.873273
1194 0.419246
-1194 0.580754
1195 0.5
-1195 0.5
1196 0.5
-1196 0.5
1197 0.5
-1197 0.5
1198 0.5
-1198 0.5
1199 0.5
-1199 0.5
1200 0.5
-1200 0.5
1201 0.022133
-1201 0.977867
1202 0.925109
-1202 0.074891
1203 0.392768
-1203 0.607232
1204 0.15097
-1204 0.84903
1205 0.5
-1205 0.5
1206 0.5
-1206 0.5
1207 0.5
-1207 0.5
1208 0.5
-1208 0.5
1209 0.5
-1209 0.5
1210 0.5
-1210 0.5
1211 0.5
-1211 0.5
1212 0.5
-1212 0.5
1213 0.552703
-1213 0.447297
1214 0.832019
-1214 0.167981
1215 0.806759
-1215 0.193241
1216 0.510151
-1216 0.489849
1217 0.5
-1217 0.5
1218 0.5
-1218 0.5
1219 0.5
-1219 0.5
1220 0.5
-1220 0.5
1221 0.499888
-1221 0.500112
1222 0.233661
-1222 0.766339
1223 0.547284
-1223 0.452716
1224 0.789461
-1224 0.210539
1225 0.5
-1225 0.5
1226 0.5
-1226 0.5
1227 0.5
-1227 0.5
1228 0.5
-1228 0.5
1229 0.407732
-1229 0.592268
1230 0.324008
-1230 0.675992
1231 0.664261
-1231 0.335739
1232 0.686225
-1232 0.313775
1233 0.130375
-1233 0.869625
1234 0.07426
-1234 0.92574
1235 0.254319
-1235 0.745681
1236 0.471562
-1236 0.528438
1237 0.5
-1237 0.5
1238 0.5
-1238 0.5
1239 0.5
-1239 0.5
1240 0.5
-1240 0.5
1241 0.13956
-1241 0.86044
1242 0.915814
-1242 0.084186
1243 0.171294
-1243 0.828706
1244 0.828951
-1244 0.171049
1245 0.5
-1245 0.5
1246 0.5
-1246 0.5
1247 0.5
-1247 0.5
1248 0.5
-1248 0.5
1249 0.5
-1249 0.5
1250 0.5
-1250 0.5
1251 0.5
-1251 0.5
1252 0.5
-1252 0.5
1253 0.892456
-1253 0.107544
1254 0.518256
-1254 0.481744
1255 0.195859
-1255 0.804141
1256 0.556717
-1256 0.443283
1257 0.5
-1257 0.5
1258 0.5
-1258 0.5
1259 0.5
-1259 0.5
1260 0.5
-1260 0.5
1261 0.5
-1261 0.5
1262 0.5
-1262 0.5
1263 0.5
-1263 0.5
1264 0.5
-1264 0.5
1265 0.5
-1265 0.5
1266 0.5
-1266 0.5
1267 0.5
-1267 0.5
1268 0.5
-1268 0.5
1269 0.5
-1269 0.5
1270 0.5
-1270 0.5
1271 0.5
-1271 0.5
1272 0.5
-1272 0.5
1273 0.5
-1273 0.5
1274 0.5
-1274 0.5
1275 0.5
-1275 0.5
1276 0.5
-1276 0.5
1277 0.5
-1277 0.5
1278 0.5
-1278 0.5
1279 0.5
-1279 0.5
1280 0.5
-1280 0.5
1281 0.5
-1281 0.5
1282 0.5
-1282 0.5
1283 0.667358
-1283 0.332642
1284 0.253142
-1284 0.746858
1285 0.359654
-1285 0.640346
1286 0.826012
-1286 0.173988
1287 0.757408
-1287 0.242592
1288 0.008932
-1288 0.991068
1289 0.754828
-1289 0.245172
1290 0.980365
-1290 0.019635
1291 0.079938
-1291 0.920062
1292 0.119137
-1292 0.880863
1293 0.6149
-1293 0.3851
1294 0.233999
-1294 0.766001
1295 0.638949
-1295 0.361051
1296 0.716898
-1296 0.283102
1297 0.901344
-1297 0.098656
1298 0.345698
-1298 0.654302
1299 0.5
-1299 0.5
1300 0.5
-1300 0.5
1301 0.5
-1301 0.5
1302 0.5
-1302 0.5
1303 0.272737
-1303 0.727263
1304 0.064069
-1304 0.935931
1305 0.648184
-1305 0.351816
1306 0.253003
-1306 0.746997
1307 0.5
-1307 0.5
1308 0.5
-1308 0.5
1309 0.5
-1309 0.5
1310 0.5
-1310 0.5
1311 0.86089
-1311 0.13911
1312 0.745589
-1312 0.254411
1313 0.755304
-1313 0.244696
1314 0.615718
-1314 0.384282
1315 0.481573
-1315 0.518427
1316 0.695656
-1316 0.304344
1317 0.845091
-1317 0.154909
1318 0.096474
-1318 0.903526
1319 0.526667
-1319 0.473333
1320 0.735422
-1320 0.264578
1321 0.646553
-1321 0.353447
1322 0.428011
-1322 0.571989
1323 0.5
-1323 0.5
1324 0.5
-1324 0.5
1325 0.5
-1325 0.5
1326 0.5
-1326 0.5
1327 0.007293
-1327 0.992707
1328 0.086575
-1328 0.913425
1329 0.828713
-1329 0.171287
1330 0.655477
-1330 0.344523
1331 0.5
-1331 0.5
1332 0.5
-1332 0.5
1333 0.5
-1333 0.5
1334 0.5
-1334 0.5
1335 0.5
-1335 0.5
1336 0.5
-1336 0.5
1337 0.5
-1337 0.5
1338 0.5
-1338 0.5
1339 0.74373
-1339 0.25627
1340 0.243188
-1340 0.756812
1341 0.5
-1341 0.5
1342 0.5
-1342 0.5
1343 0.5
-1343 0.5
1344 0.5
-1344 0.5
1345 0.5
-1345 0.5
1346 0.5
-1346 0.5
1347 0.5
-1347 0.5
1348 0.5
-1348 0.5
1349 0.5
-1349 0.5
1350 0.5
-1350 0.5
1351 0.5
-1351 0.5
1352 0.5
-1352 0.5
1353 0.607352
-1353 0.392648
1354 0.033435
-1354 0.966565
1355 0.111906
-1355 0.888094
1356 0.474535
-1356 0.525465
1357 0.5
-1357 0.5
1358 0.5
-1358 0.5
1359 0.5
-1359 0.5
1360 0.5
-1360 0.5
1361 0.607402
-1361 0.392598
1362 0.139768
-1362 0.860232
1363 0.28842
-1363 0.71158
1364 0.351132
-1364 0.648868
1365 0.5
-1365 0.5
1366 0.5
-1366 0.5
1367 0.5
-1367 0.5
1368 0.5
-1368 0.5
1369 0.5
-1369 0.5
1370 0.5
-1370 0.5
1371 0.5
-1371 0.5
1372 0.5
-1372 0.5
1373 0.612937
-1373 0.387063
1374 0.32457
-1374 0.67543
1375 0.345129
-1375 0.654871
1376 0.391576
-1376 0.608424
1377 0.117457
-1377 0.882543
1378 0.998929
-1378 0.001071
1379 0.735963
-1379 0.264037
1380 0.229363
-1380 0.770637
1381 0.5
-1381 0.5
1382 0.5
-1382 0.5
1383 0.5
-1383 0.5
1384 0.5
-1384 0.5
1385 0.759811
-1385 0.240189
1386 0.250432
-1386 0.749568
1387 0.119128
-1387 0.880872
1388 0.04823
-1388 0.95177
1389 0.502083
-1389 0.497917
1390 0.667709
-1390 0.332291
1391 0.541517
-1391 0.458483
1392 0.2247
-1392 0.7753
1393 0.596959
-1393 0.403041
1394 0.022401
-1394 0.977599
1395 0.335362
-1395 0.664638
1396 0.1959
-1396 0.8041
1397 0.994737
-1397 0.005263
1398 0.808837
-1398 0.191163
1399 0.300876
-1399 0.699124
1400 0.339866
-1400 0.660134
1401 0.5
-1401 0.5
1402 0.5
-1402 0.5
1403 0.5
-1403 0.5
1404 0.5
-1404 0.5
1405 0.672806
-1405 0.327194
1406 0.79277
-1406 0.20723
1407 0.287894
-1407 0.712106
1408 0.7796
-1408 0.2204
1409 0.5
-1409 0.5
1410 0.5
-1410 0.5
1411 0.686231
-1411 0.313769
1412 0.386382
-1412 0.613618
1413 0.587642
-1413 0.412358
1414 0.287795
-1414 0.712205
1415 0.255351
-1415 0.744649
1416 0.829313
-1416 0.170687
1417 0.113166
-1417 0.886834
1418 0.803253
-1418 0.196747
1419 0.5
-1419 0.5
1420 0.5
-1420 0.5
1421 0.5
-1421 0.5
1422 0.5
-1422 0.5
1423 0.5
-1423 0.5
1424 0.5
-1424 0.5
1425 0.5
-1425 0.5
1426 0.5
-1426 0.5
1427 0.5
-1427 0.5
1428 0.5
-1428 0.5
1429 0.5
-1429 0.5
1430 0.5
-1430 0.5
1431 0.94829
-1431 0.05171
1432 0.905122
-1432 0.094878
1433 0.28317
-1433 0.71683
1434 0.38409
-1434 0.61591
1435 0.5
-1435 0.5
1436 0.5
-1436 0.5
1437 0.5
-1437 0.5
1438 0.5
-1438 0.5
1439 0.5
-1439 0.5
1440 0.5
-1440 0.5
1441 0.5
-1441 0.5
1442 0.5
-1442 0.5
1443 0.5
-1443 0.5
1444 0.5
-1444 0.5
1445 0.5
-1445 0.5
1446 0.5
-1446 0.5
1447 0.740795
-1447 0.259205
1448 0.666881
-1448 0.333119
1449 0.220577
-1449 0.779423
1450 0.214013
-1450 0.785987
1451 0.5
-1451 0.5
1452 0.5
-1452 0.5
1453 0.5
-1453 0.5
1454 0.5
-1454 0.5
1455 0.74054
-1455 0.25946
1456 0.666905
-1456 0.333095
1457 0.915807
-1457 0.084193
1458 0.12463
-1458 0.87537
1459 0.738388
-1459 0.261612
1460 0.194951
-1460 0.805049
1461 0.398039
-1461 0.601961
1462 0.148611
-1462 0.851389
1463 0.845262
-1463 0.154738
1464 0.814184
-1464 0.185816
1465 0.740498
-1465 0.259502
1466 0.405651
-1466 0.594349
1467 0.5
-1467 0.5
1468 0.5
-1468 0.5
1469 0.5
-1469 0.5
1470 0.5
-1470 0.5
1471 0.631249
-1471 0.368751
1472 0.256953
-1472 0.743047
1473 0.130012
-1473 0.869988
1474 0.845262
-1474 0.154738
1475 0.766742
-1475 0.233258
1476 0.989816
-1476 0.010184
1477 0.684323
-1477 0.315677
1478 0.558992
-1478 0.441008
1479 0.31696
-1479 0.68304
1480 0.299532
-1480 0.700468
1481 0.5
-1481 0.5
1482 0.5
-1482 0.5
1483 0.5
-1483 0.5
1484 0.5
-1484 0.5
1485 0.655823
-1485 0.344177
1486 0.119766
-1486 0.880234
1487 0.172182
-1487 0.827818
1488 0.501085
-1488 0.498915
1489 0.91268
-1489 0.08732
1490 0.906736
-1490 0.093264
1491 0.216962
-1491 0.783038
1492 0.266878
-1492 0.733122
1493 0.5
-1493 0.5
1494 0.5
-1494 0.5
1495 0.5
-1495 0.5
1496 0.5
-1496 0.5
1497 0.5
-1497 0.5
1498 0.5
-1498 0.5
1499 0.5
-1499 0.5
1500 0.5
-1500 0.5
1501 0.353481
-1501 0.646519
1502 0.373524
-1502 0.626476
1503 0.32534
-1503 0.67466
1504 0.670441
-1504 0.329559
1505 0.743844
-1505 0.256156
1506 0.903208
-1506 0.096792
1507 0.097218
-1507 0.902782
1508 0.001628
-1508 0.998372
1509 0.716332
-1509 0.283668
1510 0.65745
-1510 0.34255
1511 0.99413
-1511 0.00587
1512 0.888513
-1512 0.111487
1513 0.5
-1513 0.5
1514 0.5
-1514 0.5
1515 0.5
-1515 0.5
1516 0.5
-1516 0.5
1517 0.5
-1517 0.5
1518 0.5
-1518 0.5
1519 0.5
-1519 0.5
1520 0.5
-1520 0.5
1521 0.038923
-1521 0.961077
1522 0.039183
-1522 0.960817
1523 0.575048
-1523 0.424952
1524 0.708081
-1524 0.291919
1525 0.14879
-1525 0.85121
1526 0.061562
-1526 0.938438
1527 0.227239
-1527 0.772761
1528 0.47413
-1528 0.52587
1529 0.900295
-1529 0.099705
1530 0.217974
-1530 0.782026
1531 0.635211
-1531 0.364789
1532 0.997513
-1532 0.002487
1533 0.5
-1533 0.5
1534 0.5
-1534 0.5
1535 0.5
-1535 0.5
1536 0.5
-1536 0.5
1537 0.035588
-1537 0.964412
1538 0.431785
-1538 0.568215
1539 0.40355
-1539 0.59645
1540 0.100859
-1540 0.899141
1541 0.471622
-1541 0.528378
1542 0.174474
-1542 0.825526
1543 0.829284
-1543 0.170716
1544 0.396642
-1544 0.603358
1545 0.5
-1545 0.5
1546 0.5
-1546 0.5
1547 0.5
-1547 0.5
1548 0.5
-1548 0.5
