1 0.916233
-1 0.083767
2 1.0
-2 1.0
3 1.0
-3 1.0
4 1.0
-4 1.0
5 1.0
-5 1.0
6 1.0
-6 1.0
7 1.0
-7 1.0
8 1.0
-8 1.0
9 1.0
-9 1.0
10 1.0
-10 1.0
11 1.0
-11 1.0
12 1.0
-12 1.0
13 1.0
-13 1.0
14 1.0
-14 1.0
15 1.0
-15 1.0
16 1.0
-16 1.0
17 1.0
-17 1.0
18 1.0
-18 1.0
19 1.0
-19 1.0
20 1.0
-20 1.0
21 1.0
-21 1.0
22 1.0
-22 1.0
23 1.0
-23 1.0
24 1.0
-24 1.0
25 1.0
-25 1.0
26 1.0
-26 1.0
27 1.0
-27 1.0
28 1.0
-28 1.0
29 1.0
-29 1.0
30 1.0
-30 1.0
31 1.0
-31 1.0
32 1.0
-32 1.0
33 1.0
-33 1.0
34 1.0
-34 1.0
35 1.0
-35 1.0
36 1.0
-36 1.0
37 1.0
-37 1.0
38 1.0
-38 1.0
39 1.0
-39 1.0
40 1.0
-40 1.0
41 1.0
-41 1.0
42 1.0
-42 1.0
43 1.0
-43 1.0
44 1.0
-44 1.0
45 1.0
-45 1.0
46 1.0
-46 1.0
47 1.0
-47 1.0
48 1.0
-48 1.0
49 1.0
-49 1.0
50 1.0
-50 1.0
51 1.0
-51 1.0
52 1.0
-52 1.0
53 1.0
-53 1.0
54 1.0
-54 1.0
55 1.0
-55 1.0
56 1.0
-56 1.0
57 1.0
-57 1.0
58 1.0
-58 1.0
59 1.0
-59 1.0
60 1.0
-60 1.0
61 1.0
-61 1.0
62 1.0
-62 1.0
63 1.0
-63 1.0
64 1.0
-64 1.0
65 1.0
-65 1.0
66 1.0
-66 1.0
67 1.0
-67 1.0
68 1.0
-68 1.0
69 1.0
-69 1.0
70 1.0
-70 1.0
71 1.0
-71 1.0
72 1.0
-72 1.0
73 1.0
-73 1.0
74 1.0
-74 1.0
75 1.0
-75 1.0
76 1.0
-76 1.0
77 1.0
-77 1.0
78 1.0
-78 1.0
79 1.0
-79 1.0
80 1.0
-80 1.0
81 1.0
-81 1.0
82 1.0
-82 1.0
83 1.0
-83 1.0
84 1.0
-84 1.0
85 1.0
-85 1.0
86 1.0
-86 1.0
87 1.0
-87 1.0
88 1.0
-88 1.0
89 1.0
-89 1.0
90 1.0
-90 1.0
91 1.0
-91 1.0
92 1.0
-92 1.0
93 1.0
-93 1.0
94 1.0
-94 1.0
95 1.0
-95 1.0
96 1.0
-96 1.0
97 1.0
-97 1.0
98 1.0
-98 1.0
99 1.0
-99 1.0
100 1.0
-100 1.0
101 1.0
-101 1.0
102 1.0
-102 1.0
103 1.0
-103 1.0
104 1.0
-104 1.0
105 1.0
-105 1.0
106 1.0
-106 1.0
107 1.0
-107 1.0
108 1.0
-108 1.0
109 1.0
-109 1.0
110 1.0
-110 1.0
111 1.0
-111 1.0
112 1.0
-112 1.0
113 1.0
-113 1.0
114 1.0
-114 1.0
115 1.0
-115 1.0
116 1.0
-116 1.0
117 1.0
-117 1.0
118 1.0
-118 1.0
119 1.0
-119 1.0
120 1.0
-120 1.0
121 1.0
-121 1.0
122 1.0
-122 1.0
123 1.0
-123 1.0
124 1.0
-124 1.0
125 1.0
-125 1.0
126 1.0
-126 1.0
127 1.0
-127 1.0
128 1.0
-128 1.0
129 1.0
-129 1.0
130 1.0
-130 1.0
131 1.0
-131 1.0
132 1.0
-132 1.0
133 1.0
-133 1.0
134 1.0
-134 1.0
135 1.0
-135 1.0
136 1.0
-136 1.0
137 1.0
-137 1.0
138 1.0
-138 1.0
139 1.0
-139 1.0
140 1.0
-140 1.0
141 1.0
-141 1.0
142 1.0
-142 1.0
143 1.0
-143 1.0
144 1.0
-144 1.0
145 1.0
-145 1.0
146 1.0
-146 1.0
147 1.0
-147 1.0
148 1.0
-148 1.0
149 1.0
-149 1.0
150 1.0
-150 1.0
151 1.0
-151 1.0
152 1.0
-152 1.0
153 1.0
-153 1.0
154 1.0
-154 1.0
155 1.0
-155 1.0
156 1.0
-156 1.0
157 1.0
-157 1.0
158 1.0
-158 1.0
159 1.0
-159 1.0
160 1.0
-160 1.0
161 1.0
-161 1.0
162 1.0
-162 1.0
163 1.0
-163 1.0
164 1.0
-164 1.0
165 1.0
-165 1.0
166 1.0
-166 1.0
167 1.0
-167 1.0
168 1.0
-168 1.0
169 1.0
-169 1.0
170 1.0
-170 1.0
171 1.0
-171 1.0
172 1.0
-172 1.0
173 1.0
-173 1.0
174 1.0
-174 1.0
175 1.0
-175 1.0
176 1.0
-176 1.0
177 1.0
-177 1.0
178 1.0
-178 1.0
179 1.0
-179 1.0
180 1.0
-180 1.0
181 1.0
-181 1.0
182 1.0
-182 1.0
183 1.0
-183 1.0
184 1.0
-184 1.0
185 1.0
-185 1.0
186 1.0
-186 1.0
187 1.0
-187 1.0
188 1.0
-188 1.0
189 1.0
-189 1.0
190 1.0
-190 1.0
191 1.0
-191 1.0
192 1.0
-192 1.0
193 1.0
-193 1.0
194 1.0
-194 1.0
195 1.0
-195 1.0
196 1.0
-196 1.0
197 1.0
-197 1.0
198 1.0
-198 1.0
199 1.0
-199 1.0
200 1.0
-200 1.0
201 1.0
-201 1.0
202 1.0
-202 1.0
203 1.0
-203 1.0
204 1.0
-204 1.0
205 1.0
-205 1.0
206 1.0
-206 1.0
207 1.0
-207 1.0
208 1.0
-208 1.0
209 1.0
-209 1.0
210 1.0
-210 1.0
211 1.0
-211 1.0
212 1.0
-212 1.0
213 1.0
-213 1.0
214 1.0
-214 1.0
215 1.0
-215 1.0
216 1.0
-216 1.0
217 1.0
-217 1.0
218 1.0
-218 1.0
219 1.0
-219 1.0
220 1.0
-220 1.0
221 1.0
-221 1.0
222 1.0
-222 1.0
223 1.0
-223 1.0
224 1.0
-224 1.0
225 1.0
-225 1.0
226 1.0
-226 1.0
227 1.0
-227 1.0
228 1.0
-228 1.0
229 1.0
-229 1.0
230 1.0
-230 1.0
231 1.0
-231 1.0
232 1.0
-232 1.0
233 1.0
-233 1.0
234 1.0
-234 1.0
235 1.0
-235 1.0
236 1.0
-236 1.0
237 1.0
-237 1.0
238 1.0
-238 1.0
239 1.0
-239 1.0
240 1.0
-240 1.0
241 1.0
-241 1.0
242 1.0
-242 1.0
243 1.0
-243 1.0
244 1.0
-244 1.0
245 1.0
-245 1.0
246 1.0
-246 1.0
247 1.0
-247 1.0
248 1.0
-248 1.0
249 1.0
-249 1.0
250 1.0
-250 1.0
251 1.0
-251 1.0
252 1.0
-252 1.0
253 1.0
-253 1.0
254 1.0
-254 1.0
255 1.0
-255 1.0
256 1.0
-256 1.0
257 1.0
-257 1.0
258 1.0
-258 1.0
259 1.0
-259 1.0
260 1.0
-260 1.0
261 1.0
-261 1.0
262 1.0
-262 1.0
263 1.0
-263 1.0
264 1.0
-264 1.0
265 1.0
-265 1.0
266 1.0
-266 1.0
267 1.0
-267 1.0
268 1.0
-268 1.0
269 1.0
-269 1.0
270 1.0
-270 1.0
271 1.0
-271 1.0
272 1.0
-272 1.0
273 1.0
-273 1.0
274 1.0
-274 1.0
275 1.0
-275 1.0
276 1.0
-276 1.0
277 1.0
-277 1.0
278 1.0
-278 1.0
279 1.0
-279 1.0
280 1.0
-280 1.0
281 1.0
-281 1.0
282 1.0
-282 1.0
283 1.0
-283 1.0
284 1.0
-284 1.0
285 1.0
-285 1.0
286 1.0
-286 1.0
287 1.0
-287 1.0
288 1.0
-288 1.0
289 1.0
-289 1.0
290 1.0
-290 1.0
291 1.0
-291 1.0
292 1.0
-292 1.0
293 1.0
-293 1.0
294 1.0
-294 1.0
295 1.0
-295 1.0
296 1.0
-296 1.0
297 1.0
-297 1.0
298 1.0
-298 1.0
299 1.0
-299 1.0
300 1.0
-300 1.0
301 1.0
-301 1.0
302 1.0
-302 1.0
303 1.0
-303 1.0
304 1.0
-304 1.0
305 1.0
-305 1.0
306 1.0
-306 1.0
307 1.0
-307 1.0
308 1.0
-308 1.0
309 1.0
-309 1.0
310 1.0
-310 1.0
311 1.0
-311 1.0
312 1.0
-312 1.0
313 1.0
-313 1.0
314 1.0
-314 1.0
315 1.0
-315 1.0
316 1.0
-316 1.0
317 1.0
-317 1.0
318 1.0
-318 1.0
319 1.0
-319 1.0
320 1.0
-320 1.0
321 1.0
-321 1.0
322 1.0
-322 1.0
323 1.0
-323 1.0
324 1.0
-324 1.0
325 1.0
-325 1.0
326 1.0
-326 1.0
327 1.0
-327 1.0
328 1.0
-328 1.0
329 1.0
-329 1.0
330 1.0
-330 1.0
331 1.0
-331 1.0
332 1.0
-332 1.0
333 1.0
-333 1.0
334 1.0
-334 1.0
335 1.0
-335 1.0
336 1.0
-336 1.0
337 1.0
-337 1.0
338 1.0
-338 1.0
339 1.0
-339 1.0
340 1.0
-340 1.0
341 1.0
-341 1.0
342 1.0
-342 1.0
343 1.0
-343 1.0
344 1.0
-344 1.0
345 1.0
-345 1.0
346 1.0
-346 1.0
347 1.0
-347 1.0
348 1.0
-348 1.0
349 1.0
-349 1.0
350 1.0
-350 1.0
351 1.0
-351 1.0
352 1.0
-352 1.0
353 1.0
-353 1.0
354 1.0
-354 1.0
355 1.0
-355 1.0
356 1.0
-356 1.0
357 1.0
-357 1.0
358 1.0
-358 1.0
359 1.0
-359 1.0
360 1.0
-360 1.0
361 1.0
-361 1.0
362 1.0
-362 1.0
363 1.0
-363 1.0
364 1.0
-364 1.0
365 1.0
-365 1.0
366 1.0
-366 1.0
367 1.0
-367 1.0
368 1.0
-368 1.0
369 1.0
-369 1.0
370 1.0
-370 1.0
371 1.0
-371 1.0
372 1.0
-372 1.0
373 1.0
-373 1.0
374 1.0
-374 1.0
375 1.0
-375 1.0
376 1.0
-376 1.0
377 1.0
-377 1.0
378 1.0
-378 1.0
379 1.0
-379 1.0
380 1.0
-380 1.0
381 1.0
-381 1.0
382 1.0
-382 1.0
383 1.0
-383 1.0
384 1.0
-384 1.0
385 1.0
-385 1.0
386 1.0
-386 1.0
387 1.0
-387 1.0
388 1.0
-388 1.0
389 1.0
-389 1.0
390 1.0
-390 1.0
391 1.0
-391 1.0
392 1.0
-392 1.0
393 1.0
-393 1.0
394 1.0
-394 1.0
395 1.0
-395 1.0
396 1.0
-396 1.0
397 1.0
-397 1.0
398 1.0
-398 1.0
399 1.0
-399 1.0
400 1.0
-400 1.0
401 0.984095
-401 0.015905
402 0.713011
-402 0.286989
403 0.5
-403 0.5
404 0.5
-404 0.5
405 0.715852
-405 0.284148
406 0.593794
-406 0.406206
407 0.5
-407 0.5
408 0.5
-408 0.5
409 0.5
-409 0.5
410 0.5
-410 0.5
411 0.5
-411 0.5
412 0.5
-412 0.5
413 0.5
-413 0.5
414 0.5
-414 0.5
415 0.586943
-415 0.413057
416 0.87373
-416 0.12627
417 0.684599
-417 0.315401
418 0.050867
-418 0.949133
419 0.5
-419 0.5
420 0.5
-420 0.5
421 0.684875
-421 0.315125
422 0.164084
-422 0.835916
423 0.5
-423 0.5
424 0.5
-424 0.5
425 0.150181
-425 0.849819
426 0.412419
-426 0.587581
427 0.863191
-427 0.136809
428 0.892659
-428 0.107341
429 0.374707
-429 0.625293
430 0.608512
-430 0.391488
431 0.5
-431 0.5
432 0.5
-432 0.5
433 0.5
-433 0.5
434 0.5
-434 0.5
435 0.5
-435 0.5
436 0.5
-436 0.5
437 0.5
-437 0.5
438 0.5
-438 0.5
439 0.5
-439 0.5
440 0.5
-440 0.5
441 0.5
-441 0.5
442 0.5
-442 0.5
443 0.5
-443 0.5
444 0.5
-444 0.5
445 0.5
-445 0.5
446 0.5
-446 0.5
447 0.5
-447 0.5
448 0.5
-448 0.5
449 0.5
-449 0.5
450 0.5
-450 0.5
451 0.5
-451 0.5
452 0.5
-452 0.5
453 0.5
-453 0.5
454 0.5
-454 0.5
455 0.5
-455 0.5
456 0.5
-456 0.5
457 0.5
-457 0.5
458 0.5
-458 0.5
459 0.5
-459 0.5
460 0.5
-460 0.5
461 0.335239
-461 0.664761
462 0.553859
-462 0.446141
463 0.614369
-463 0.385631
464 0.665092
-464 0.334908
465 0.890961
-465 0.109039
466 0.868674
-466 0.131326
467 0.579108
-467 0.420892
468 0.852152
-468 0.147848
469 0.5
-469 0.5
470 0.5
-470 0.5
471 0.5
-471 0.5
472 0.5
-472 0.5
473 0.563294
-473 0.436706
474 0.822296
-474 0.177704
475 0.787423
-475 0.212577
476 0.050534
-476 0.949466
477 0.250907
-477 0.749093
478 0.400964
-478 0.599036
479 0.508255
-479 0.491745
480 0.509607
-480 0.490393
481 0.5
-481 0.5
482 0.5
-482 0.5
483 0.5
-483 0.5
484 0.5
-484 0.5
485 0.5
-485 0.5
486 0.5
-486 0.5
487 0.5
-487 0.5
488 0.5
-488 0.5
489 0.587023
-489 0.412977
490 0.092009
-490 0.907991
491 0.410023
-491 0.589977
492 0.166131
-492 0.833869
493 0.533146
-493 0.466854
494 0.782279
-494 0.217721
495 0.776093
-495 0.223907
496 0.759381
-496 0.240619
497 0.5
-497 0.5
498 0.5
-498 0.5
499 0.5
-499 0.5
500 0.5
-500 0.5
501 0.5
-501 0.5
502 0.5
-502 0.5
503 0.5
-503 0.5
504 0.5
-504 0.5
505 0.075917
-505 0.924083
506 0.457142
-506 0.542858
507 0.562236
-507 0.437764
508 0.616935
-508 0.383065
509 0.148915
-509 0.851085
510 0.493192
-510 0.506808
511 0.747854
-511 0.252146
512 0.349963
-512 0.650037
513 0.5
-513 0.5
514 0.5
-514 0.5
515 0.5
-515 0.5
516 0.5
-516 0.5
517 0.5
-517 0.5
518 0.5
-518 0.5
519 0.5
-519 0.5
520 0.5
-520 0.5
521 0.5
-521 0.5
522 0.5
-522 0.5
523 0.5
-523 0.5
524 0.5
-524 0.5
525 0.5
-525 0.5
526 0.5
-526 0.5
527 0.5
-527 0.5
528 0.5
-528 0.5
529 0.5
-529 0.5
530 0.5
-530 0.5
531 0.5
-531 0.5
532 0.5
-532 0.5
533 0.5
-533 0.5
534 0.5
-534 0.5
535 0.5
-535 0.5
536 0.5
-536 0.5
537 0.5
-537 0.5
538 0.5
-538 0.5
539 0.842846
-539 0.157154
540 0.409919
-540 0.590081
541 0.996642
-541 0.003358
542 0.820556
-542 0.179444
543 0.158868
-543 0.841132
544 0.557647
-544 0.442353
545 0.096835
-545 0.903165
546 0.072983
-546 0.927017
547 0.443105
-547 0.556895
548 0.52641
-548 0.47359
549 0.050388
-549 0.949612
550 0.45096
-550 0.54904
551 0.257535
-551 0.742465
552 0.628656
-552 0.371344
553 0.313528
-553 0.686472
554 0.364958
-554 0.635042
555 0.314142
-555 0.685858
556 0.034616
-556 0.965384
557 0.752818
-557 0.247182
558 0.140323
-558 0.859677
559 0.116558
-559 0.883442
560 0.714359
-560 0.285641
561 0.021726
-561 0.978274
562 0.51484
-562 0.48516
563 0.632234
-563 0.367766
564 0.357686
-564 0.642314
565 0.03319
-565 0.96681
566 0.628876
-566 0.371124
567 0.5
-567 0.5
568 0.5
-568 0.5
569 0.5
-569 0.5
570 0.5
-570 0.5
571 0.353302
-571 0.646698
572 0.266336
-572 0.733664
573 0.387139
-573 0.612861
574 0.40369
-574 0.59631
575 0.157195
-575 0.842805
576 0.661225
-576 0.338775
577 0.345951
-577 0.654049
578 0.470723
-578 0.529277
579 0.5
-579 0.5
580 0.5
-580 0.5
581 0.5
-581 0.5
582 0.5
-582 0.5
583 0.097596
-583 0.902404
584 0.639547
-584 0.360453
585 0.935715
-585 0.064285
586 0.612437
-586 0.387563
587 0.5
-587 0.5
588 0.5
-588 0.5
589 0.5
-589 0.5
590 0.5
-590 0.5
591 0.5
-591 0.5
592 0.5
-592 0.5
593 0.5
-593 0.5
594 0.5
-594 0.5
595 0.5
-595 0.5
596 0.5
-596 0.5
597 0.829266
-597 0.170734
598 0.389632
-598 0.610368
599 0.302472
-599 0.697528
600 0.175217
-600 0.824783
601 0.328656
-601 0.671344
602 0.403437
-602 0.596563
603 0.64522
-603 0.35478
604 0.389455
-604 0.610545
605 0.5
-605 0.5
606 0.5
-606 0.5
607 0.5
-607 0.5
608 0.5
-608 0.5
609 0.5
-609 0.5
610 0.5
-610 0.5
611 0.5
-611 0.5
612 0.5
-612 0.5
613 0.5
-613 0.5
614 0.5
-614 0.5
615 0.5
-615 0.5
616 0.5
-616 0.5
617 0.833805
-617 0.166195
618 0.334807
-618 0.665193
619 0.74879
-619 0.25121
620 0.066242
-620 0.933758
621 0.578055
-621 0.421945
622 0.455874
-622 0.544126
623 0.278526
-623 0.721474
624 0.753272
-624 0.246728
625 0.5
-625 0.5
626 0.5
-626 0.5
627 0.5
-627 0.5
628 0.5
-628 0.5
629 0.531857
-629 0.468143
630 0.300081
-630 0.699919
631 0.023255
-631 0.976745
632 0.741812
-632 0.258188
633 0.117763
-633 0.882237
634 0.214585
-634 0.785415
635 0.34635
-635 0.65365
636 0.182395
-636 0.817605
637 0.350285
-637 0.649715
638 0.395391
-638 0.604609
639 0.774551
-639 0.225449
640 0.33879
-640 0.66121
641 0.5
-641 0.5
642 0.5
-642 0.5
643 0.5
-643 0.5
644 0.5
-644 0.5
645 0.5
-645 0.5
646 0.5
-646 0.5
647 0.5
-647 0.5
648 0.5
-648 0.5
649 0.5
-649 0.5
650 0.5
-650 0.5
651 0.5
-651 0.5
652 0.5
-652 0.5
653 0.189381
-653 0.810619
654 0.504246
-654 0.495754
655 0.985928
-655 0.014072
656 0.212636
-656 0.787364
657 0.5
-657 0.5
658 0.5
-658 0.5
659 0.5
-659 0.5
660 0.5
-660 0.5
661 0.444009
-661 0.555991
662 0.221803
-662 0.778197
663 0.908185
-663 0.091815
664 0.21856
-664 0.78144
665 0.400827
-665 0.599173
666 0.629931
-666 0.370069
667 0.733189
-667 0.266811
668 0.228275
-668 0.771725
669 0.972025
-669 0.027975
670 0.031777
-670 0.968223
671 0.528307
-671 0.471693
672 0.666736
-672 0.333264
673 0.5
-673 0.5
674 0.5
-674 0.5
675 0.803015
-675 0.196985
676 0.667992
-676 0.332008
677 0.650066
-677 0.349934
678 0.488861
-678 0.511139
679 0.154312
-679 0.845688
680 0.474789
-680 0.525211
681 0.070009
-681 0.929991
682 0.40037
-682 0.59963
683 0.400409
-683 0.599591
684 0.861012
-684 0.138988
685 0.871476
-685 0.128524
686 0.913204
-686 0.086796
687 0.5
-687 0.5
688 0.5
-688 0.5
689 0.5
-689 0.5
690 0.5
-690 0.5
691 0.5
-691 0.5
692 0.5
-692 0.5
693 0.5
-693 0.5
694 0.5
-694 0.5
695 0.5
-695 0.5
696 0.5
-696 0.5
697 0.5
-697 0.5
698 0.5
-698 0.5
699 0.399088
-699 0.600912
700 0.159695
-700 0.840305
701 0.353565
-701 0.646435
702 0.887949
-702 0.112051
703 0.5
-703 0.5
704 0.5
-704 0.5
705 0.5
-705 0.5
706 0.5
-706 0.5
707 0.5
-707 0.5
708 0.5
-708 0.5
709 0.5
-709 0.5
710 0.5
-710 0.5
711 0.5
-711 0.5
712 0.5
-712 0.5
713 0.5
-713 0.5
714 0.5
-714 0.5
715 0.5
-715 0.5
716 0.5
-716 0.5
717 0.5
-717 0.5
718 0.5
-718 0.5
719 0.377054
-719 0.622946
720 0.166881
-720 0.833119
721 0.753294
-721 0.246706
722 0.973127
-722 0.026873
723 0.456794
-723 0.543206
724 0.372215
-724 0.627785
725 0.81828
-725 0.18172
726 0.810359
-726 0.189641
727 0.5
-727 0.5
728 0.5
-728 0.5
729 0.5
-729 0.5
730 0.5
-730 0.5
731 0.409912
-731 0.590088
732 0.995741
-732 0.004259
733 0.219771
-733 0.780229
734 0.810602
-734 0.189398
735 0.5
-735 0.5
736 0.5
-736 0.5
737 0.5
-737 0.5
738 0.5
-738 0.5
739 0.5
-739 0.5
740 0.5
-740 0.5
741 0.5
-741 0.5
742 0.5
-742 0.5
743 0.281104
-743 0.718896
744 0.377695
-744 0.622305
745 0.721942
-745 0.278058
746 0.939689
-746 0.060311
747 0.094157
-747 0.905843
748 0.757969
-748 0.242031
749 0.644847
-749 0.355153
750 0.354322
-750 0.645678
751 0.963083
-751 0.036917
752 0.977225
-752 0.022775
753 0.189565
-753 0.810435
754 0.962824
-754 0.037176
755 0.925653
-755 0.074347
756 0.185306
-756 0.814694
757 0.5
-757 0.5
758 0.5
-758 0.5
759 0.5
-759 0.5
760 0.5
-760 0.5
761 0.25836
-761 0.74164
762 0.245912
-762 0.754088
763 0.342456
-763 0.657544
764 0.15529
-764 0.84471
765 0.456678
-765 0.543322
766 0.779691
-766 0.220309
767 0.366488
-767 0.633512
768 0.737783
-768 0.262217
769 0.5
-769 0.5
770 0.5
-770 0.5
771 0.5
-771 0.5
772 0.5
-772 0.5
773 0.5
-773 0.5
774 0.5
-774 0.5
775 0.5
-775 0.5
776 0.5
-776 0.5
777 0.544499
-777 0.455501
778 0.78937
-778 0.21063
779 0.476958
-779 0.523042
780 0.470152
-780 0.529848
781 0.659552
-781 0.340448
782 0.206407
-782 0.793593
783 0.230002
-783 0.769998
784 0.389368
-784 0.610632
785 0.153208
-785 0.846792
786 0.647728
-786 0.352272
787 0.221255
-787 0.778745
788 0.495663
-788 0.504337
789 0.838928
-789 0.161072
790 0.952342
-790 0.047658
791 0.582709
-791 0.417291
792 0.205416
-792 0.794584
793 0.740094
-793 0.259906
794 0.293846
-794 0.706154
795 0.367596
-795 0.632404
796 0.731968
-796 0.268032
797 0.5
-797 0.5
798 0.5
-798 0.5
799 0.5
-799 0.5
800 0.5
-800 0.5
801 0.527478
-801 0.472522
802 0.376292
-802 0.623708
803 0.757864
-803 0.242136
804 0.004436
-804 0.995564
805 0.73254
-805 0.26746
806 0.663988
-806 0.336012
807 0.052851
-807 0.947149
808 0.962542
-808 0.037458
809 0.5
-809 0.5
810 0.5
-810 0.5
811 0.5
-811 0.5
812 0.5
-812 0.5
813 0.504101
-813 0.495899
814 0.088378
-814 0.911622
815 0.563754
-815 0.436246
816 0.08681
-816 0.91319
817 0.5
-817 0.5
818 0.5
-818 0.5
819 0.5
-819 0.5
820 0.5
-820 0.5
821 0.064074
-821 0.935926
822 0.42451
-822 0.57549
823 0.927562
-823 0.072438
824 0.077418
-824 0.922582
825 0.5
-825 0.5
826 0.5
-826 0.5
827 0.5
-827 0.5
828 0.5
-828 0.5
829 0.5
-829 0.5
830 0.5
-830 0.5
831 0.5
-831 0.5
832 0.5
-832 0.5
833 0.5
-833 0.5
834 0.5
-834 0.5
835 0.5
-835 0.5
836 0.5
-836 0.5
837 0.5
-837 0.5
838 0.5
-838 0.5
839 0.639919
-839 0.360081
840 0.61867
-840 0.38133
841 0.191706
-841 0.808294
842 0.893797
-842 0.106203
843 0.5
-843 0.5
844 0.5
-844 0.5
845 0.5
-845 0.5
846 0.5
-846 0.5
847 0.932009
-847 0.067991
848 0.920837
-848 0.079163
849 0.196085
-849 0.803915
850 0.828065
-850 0.171935
851 0.82868
-851 0.17132
852 0.481985
-852 0.518015
853 0.135064
-853 0.864936
854 0.307719
-854 0.692281
855 0.408383
-855 0.591617
856 0.839609
-856 0.160391
857 0.217448
-857 0.782552
858 0.735058
-858 0.264942
859 0.5
-859 0.5
860 0.5
-860 0.5
861 0.5
-861 0.5
862 0.5
-862 0.5
863 0.5
-863 0.5
864 0.5
-864 0.5
865 0.5
-865 0.5
866 0.5
-866 0.5
867 0.5
-867 0.5
868 0.5
-868 0.5
869 0.5
-869 0.5
870 0.5
-870 0.5
871 0.747132
-871 0.252868
872 0.295375
-872 0.704625
873 0.842448
-873 0.157552
874 0.943217
-874 0.056783
875 0.5
-875 0.5
876 0.5
-876 0.5
877 0.5
-877 0.5
878 0.5
-878 0.5
879 0.5
-879 0.5
880 0.5
-880 0.5
881 0.5
-881 0.5
882 0.5
-882 0.5
883 0.318918
-883 0.681082
884 0.373518
-884 0.626482
885 0.409502
-885 0.590498
886 0.528145
-886 0.471855
887 0.5
-887 0.5
888 0.5
-888 0.5
889 0.5
-889 0.5
890 0.5
-890 0.5
891 0.822243
-891 0.177757
892 0.976444
-892 0.023556
893 0.012322
-893 0.987678
894 0.629594
-894 0.370406
895 0.5
-895 0.5
896 0.5
-896 0.5
897 0.5
-897 0.5
898 0.5
-898 0.5
899 0.5
-899 0.5
900 0.5
-900 0.5
901 0.5
-901 0.5
902 0.5
-902 0.5
903 0.5
-903 0.5
904 0.5
-904 0.5
905 0.5
-905 0.5
906 0.5
-906 0.5
907 0.5
-907 0.5
908 0.5
-908 0.5
909 0.615625
-909 0.384375
910 0.937743
-910 0.062257
911 0.03464
-911 0.96536
912 0.319803
-912 0.680197
913 0.564803
-913 0.435197
914 0.937328
-914 0.062672
915 0.507159
-915 0.492841
916 0.387046
-916 0.612954
917 0.519481
-917 0.480519
918 0.01664
-918 0.98336
919 0.253581
-919 0.746419
920 0.453414
-920 0.546586
921 0.5
-921 0.5
922 0.5
-922 0.5
923 0.5
-923 0.5
924 0.5
-924 0.5
925 0.5
-925 0.5
926 0.5
-926 0.5
927 0.5
-927 0.5
928 0.5
-928 0.5
929 0.581603
-929 0.418397
930 0.067284
-930 0.932716
931 0.378601
-931 0.621399
932 0.787725
-932 0.212275
933 0.5
-933 0.5
934 0.5
-934 0.5
935 0.5
-935 0.5
936 0.5
-936 0.5
937 0.987652
-937 0.012348
938 0.880802
-938 0.119198
939 0.660482
-939 0.339518
940 0.494811
-940 0.505189
941 0.5
-941 0.5
942 0.5
-942 0.5
943 0.5
-943 0.5
944 0.5
-944 0.5
945 0.5
-945 0.5
946 0.5
-946 0.5
947 0.5
-947 0.5
948 0.5
-948 0.5
949 0.5
-949 0.5
950 0.5
-950 0.5
951 0.5
-951 0.5
952 0.5
-952 0.5
953 0.5
-953 0.5
954 0.5
-954 0.5
955 0.5
-955 0.5
956 0.5
-956 0.5
957 0.5
-957 0.5
958 0.5
-958 0.5
959 0.5
-959 0.5
960 0.5
-960 0.5
961 0.5
-961 0.5
962 0.5
-962 0.5
963 0.5
-963 0.5
964 0.5
-964 0.5
965 0.3494
-965 0.6506
966 0.824593
-966 0.175407
967 0.628463
-967 0.371537
968 0.633889
-968 0.366111
969 0.096168
-969 0.903832
970 0.311743
-970 0.688257
971 0.369028
-971 0.630972
972 0.793669
-972 0.206331
973 0.733019
-973 0.266981
974 0.865528
-974 0.134472
975 0.89922
-975 0.10078
976 0.10845
-976 0.89155
977 0.072138
-977 0.927862
978 0.333243
-978 0.666757
979 0.63518
-979 0.36482
980 0.31234
-980 0.68766
981 0.098532
-981 0.901467
982 0.029424
-982 0.970576
983 0.821388
-983 0.178612
984 0.965236
-984 0.034764
985 0.5
-985 0.5
986 0.5
-986 0.5
987 0.280493
-987 0.719507
988 0.10369
-988 0.89631
989 0.805433
-989 0.194567
990 0.894664
-990 0.105336
991 0.5
-991 0.5
992 0.5
-992 0.5
993 0.5
-993 0.5
994 0.5
-994 0.5
995 0.398722
-995 0.601278
996 0.65148
-996 0.34852
997 0.412965
-997 0.587035
998 0.101629
-998 0.898371
999 0.5
-999 0.5
1000 0.5
-1000 0.5
1001 0.5
-1001 0.5
1002 0.5
-1002 0.5
1003 0.5
-1003 0.5
1004 0.5
-1004 0.5
1005 0.5
-1005 0.5
1006 0.5
-1006 0.5
1007 0.41475
-1007 0.58525
1008 0.584217
-1008 0.415783
1009 0.936993
-1009 0.063007
1010 0.575883
-1010 0.424117
1011 0.492087
-1011 0.507913
1012 0.856376
-1012 0.143624
1013 0.710046
-1013 0.289954
1014 0.29752
-1014 0.70248
1015 0.163136
-1015 0.836864
1016 0.927545
-1016 0.072455
1017 0.274168
-1017 0.725832
1018 0.250115
-1018 0.749885
1019 0.5
-1019 0.5
1020 0.5
-1020 0.5
1021 0.5
-1021 0.5
1022 0.5
-1022 0.5
1023 0.245978
-1023 0.754022
1024 0.584921
-1024 0.415079
1025 0.751315
-1025 0.248685
1026 0.738927
-1026 0.261073
1027 0.824301
-1027 0.175699
1028 0.565119
-1028 0.434881
1029 0.69619
-1029 0.30381
1030 0.209627
-1030 0.790373
1031 0.5
-1031 0.5
1032 0.5
-1032 0.5
1033 0.5
-1033 0.5
1034 0.5
-1034 0.5
1035 0.5
-1035 0.5
1036 0.5
-1036 0.5
1037 0.5
-1037 0.5
1038 0.5
-1038 0.5
1039 0.5
-1039 0.5
1040 0.5
-1040 0.5
1041 0.5
-1041 0.5
1042 0.5
-1042 0.5
1043 0.532089
-1043 0.467911
1044 0.975307
-1044 0.024693
1045 0.290654
-1045 0.709346
1046 0.393568
-1046 0.606432
1047 0.5
-1047 0.5
1048 0.5
-1048 0.5
1049 0.5
-1049 0.5
1050 0.5
-1050 0.5
1051 0.5
-1051 0.5
1052 0.5
-1052 0.5
1053 0.5
-1053 0.5
1054 0.5
-1054 0.5
1055 0.27154
-1055 0.72846
1056 0.053757
-1056 0.946243
1057 0.450741
-1057 0.549259
1058 0.183705
-1058 0.816295
1059 0.651001
-1059 0.348999
1060 0.702225
-1060 0.297775
1061 0.755722
-1061 0.244278
1062 0.707637
-1062 0.292363
1063 0.150268
-1063 0.849732
1064 0.515312
-1064 0.484688
1065 0.5
-1065 0.5
1066 0.5
-1066 0.5
1067 0.5
-1067 0.5
1068 0.5
-1068 0.5
1069 0.254964
-1069 0.745036
1070 0.398016
-1070 0.601984
1071 0.854198
-1071 0.145802
1072 0.296084
-1072 0.703916
1073 0.5
-1073 0.5
1074 0.5
-1074 0.5
1075 0.5
-1075 0.5
1076 0.5
-1076 0.5
1077 0.359626
-1077 0.640374
1078 0.796285
-1078 0.203715
1079 0.531618
-1079 0.468382
1080 0.631166
-1080 0.368834
1081 0.982359
-1081 0.017641
1082 0.814871
-1082 0.185129
1083 0.508739
-1083 0.491261
1084 0.633359
-1084 0.366641
1085 0.264461
-1085 0.735539
1086 0.340996
-1086 0.659004
1087 0.447887
-1087 0.552113
1088 0.414729
-1088 0.585271
1089 0.770379
-1089 0.229621
1090 0.887087
-1090 0.112913
1091 0.453464
-1091 0.546536
1092 0.734689
-1092 0.265311
1093 0.025927
-1093 0.974073
1094 0.989653
-1094 0.010347
1095 0.289551
-1095 0.710449
1096 0.880124
-1096 0.119876
1097 0.5
-1097 0.5
1098 0.5
-1098 0.5
1099 0.5
-1099 0.5
1100 0.5
-1100 0.5
1101 0.5
-1101 0.5
1102 0.5
-1102 0.5
1103 0.5
-1103 0.5
1104 0.5
-1104 0.5
1105 0.65778
-1105 0.34222
1106 0.593488
-1106 0.406512
1107 0.548808
-1107 0.451192
1108 0.16652
-1108 0.83348
1109 0.5
-1109 0.5
1110 0.5
-1110 0.5
1111 0.5
-1111 0.5
1112 0.5
-1112 0.5
1113 0.424152
-1113 0.575848
1114 0.284171
-1114 0.715829
1115 0.732797
-1115 0.267203
1116 0.877616
-1116 0.122384
1117 0.5
-1117 0.5
1118 0.5
-1118 0.5
1119 0.5
-1119 0.5
1120 0.5
-1120 0.5
1121 0.294249
-1121 0.705751
1122 0.240994
-1122 0.759006
1123 0.384644
-1123 0.615356
1124 0.668505
-1124 0.331495
1125 0.396096
-1125 0.603904
1126 0.748016
-1126 0.251984
1127 0.086911
-1127 0.913089
1128 0.203834
-1128 0.796166
1129 0.5
-1129 0.5
1130 0.5
-1130 0.5
1131 0.5
-1131 0.5
1132 0.5
-1132 0.5
1133 0.5
-1133 0.5
1134 0.5
-1134 0.5
1135 0.5
-1135 0.5
1136 0.5
-1136 0.5
1137 0.304825
-1137 0.695175
1138 0.171476
-1138 0.828524
1139 0.233523
-1139 0.766477
1140 0.037622
-1140 0.962378
1141 0.5
-1141 0.5
1142 0.5
-1142 0.5
1143 0.952635
-1143 0.047365
1144 0.260895
-1144 0.739105
1145 0.575837
-1145 0.424163
1146 0.736301
-1146 0.263699
1147 0.816831
-1147 0.183169
1148 0.120946
-1148 0.879054
1149 0.223649
-1149 0.776351
1150 0.800971
-1150 0.199029
1151 0.971665
-1151 0.028335
1152 0.887882
-1152 0.112118
1153 0.720876
-1153 0.279124
1154 0.33081
-1154 0.66919
1155 0.582491
-1155 0.417509
1156 0.283443
-1156 0.716557
1157 0.078386
-1157 0.921614
1158 0.610625
-1158 0.389375
1159 0.5
-1159 0.5
1160 0.5
-1160 0.5
1161 0.5
-1161 0.5
1162 0.5
-1162 0.5
1163 0.5
-1163 0.5
1164 0.5
-1164 0.5
1165 0.5
-1165 0.5
1166 0.5
-1166 0.5
1167 0.07414
-1167 0.92586
1168 0.383451
-1168 0.616549
1169 0.2101
-1169 0.7899
1170 0.649977
-1170 0.350023
1171 0.5
-1171 0.5
1172 0.5
-1172 0.5
1173 0.5
-1173 0.5
1174 0.5
-1174 0.5
1175 0.960558
-1175 0.039442
1176 0.155661
-1176 0.844339
1177 0.478617
-1177 0.521383
1178 0.291369
-1178 0.708631
1179 0.061107
-1179 0.938893
1180 0.574812
-1180 0.425188
1181 0.942777
-1181 0.057223
1182 0.671732
-1182 0.328268
1183 0.5
-1183 0.5
1184 0.5
-1184 0.5
1185 0.5
-1185 0.5
1186 0.5
-1186 0.5
1187 0.5
-1187 0.5
1188 0.5
-1188 0.5
1189 0.5
-1189 0.5
1190 0.5
-1190 0.5
1191 0.602362
-1191 0.397638
1192 0.443976
-1192 0.556024
1193 0.776151
-1193 0.223849
1194 0.252338
-1194 0.747662
1195 0.541395
-1195 0.458605
1196 0.719146
-1196 0.280854
1197 0.804427
-1197 0.195573
1198 0.530288
-1198 0.469712
1199 0.562167
-1199 0.437833
1200 0.490847
-1200 0.509153
1201 0.142585
-1201 0.857415
1202 0.040783
-1202 0.959217
1203 0.006976
-1203 0.993024
1204 0.101891
-1204 0.898109
1205 0.357027
-1205 0.642973
1206 0.949752
-1206 0.050248
1207 0.394764
-1207 0.605236
1208 0.406476
-1208 0.593524
1209 0.515095
-1209 0.484905
1210 0.642748
-1210 0.357252
1211 0.5
-1211 0.5
1212 0.5
-1212 0.5
1213 0.5
-1213 0.5
1214 0.5
-1214 0.5
1215 0.5
-1215 0.5
1216 0.5
-1216 0.5
1217 0.5
-1217 0.5
1218 0.5
-1218 0.5
1219 0.5
-1219 0.5
1220 0.5
-1220 0.5
1221 0.733199
-1221 0.266801
1222 0.145114
-1222 0.854886
1223 0.357228
-1223 0.642772
1224 0.720124
-1224 0.279876
1225 0.848075
-1225 0.151925
1226 0.86271
-1226 0.13729
1227 0.748065
-1227 0.251935
1228 0.63029
-1228 0.36971
1229 0.849955
-1229 0.150045
1230 0.987317
-1230 0.012683
1231 0.819438
-1231 0.180562
1232 0.623578
-1232 0.376422
1233 0.5
-1233 0.5
1234 0.5
-1234 0.5
1235 0.5
-1235 0.5
1236 0.5
-1236 0.5
1237 0.297287
-1237 0.702713
1238 0.495757
-1238 0.504243
1239 0.929157
-1239 0.070843
1240 0.630269
-1240 0.369731
1241 0.5
-1241 0.5
1242 0.5
-1242 0.5
1243 0.5
-1243 0.5
1244 0.5
-1244 0.5
1245 0.117636
-1245 0.882364
1246 0.438124
-1246 0.561876
1247 0.89303
-1247 0.10697
1248 0.474864
-1248 0.525136
1249 0.5
-1249 0.5
1250 0.5
-1250 0.5
1251 0.5
-1251 0.5
1252 0.5
-1252 0.5
1253 0.890643
-1253 0.109357
1254 0.198331
-1254 0.801669
1255 0.940546
-1255 0.059454
1256 0.710081
-1256 0.289919
1257 0.322628
-1257 0.677372
1258 0.935994
-1258 0.064006
1259 0.960583
-1259 0.039417
1260 0.347457
-1260 0.652543
1261 0.5
-1261 0.5
1262 0.5
-1262 0.5
1263 0.5
-1263 0.5
1264 0.5
-1264 0.5
1265 0.350414
-1265 0.649586
1266 0.682241
-1266 0.317759
1267 0.280011
-1267 0.719989
1268 0.055338
-1268 0.944662
1269 0.5
-1269 0.5
1270 0.5
-1270 0.5
1271 0.5
-1271 0.5
1272 0.5
-1272 0.5
1273 0.923498
-1273 0.076502
1274 0.19545
-1274 0.80455
1275 0.672667
-1275 0.327333
1276 0.271874
-1276 0.728126
1277 0.5
-1277 0.5
1278 0.5
-1278 0.5
1279 0.5
-1279 0.5
1280 0.5
-1280 0.5
1281 0.5
-1281 0.5
1282 0.5
-1282 0.5
1283 0.5
-1283 0.5
1284 0.5
-1284 0.5
1285 0.404054
-1285 0.595946
1286 0.681957
-1286 0.318043
1287 0.642627
-1287 0.357373
1288 0.679067
-1288 0.320933
1289 0.993041
-1289 0.006959
1290 0.361308
-1290 0.638692
1291 0.951283
-1291 0.048717
1292 0.048379
-1292 0.951621
1293 0.34893
-1293 0.65107
1294 0.541841
-1294 0.458159
1295 0.114652
-1295 0.885348
1296 0.221441
-1296 0.778559
1297 0.5
-1297 0.5
1298 0.5
-1298 0.5
1299 0.5
-1299 0.5
1300 0.5
-1300 0.5
1301 0.5
-1301 0.5
1302 0.5
-1302 0.5
1303 0.654795
-1303 0.345205
1304 0.702919
-1304 0.297081
1305 0.072345
-1305 0.927655
1306 0.066648
-1306 0.933352
1307 0.325043
-1307 0.674957
1308 0.825958
-1308 0.174042
1309 0.610097
-1309 0.389903
1310 0.308127
-1310 0.691873
1311 0.5
-1311 0.5
1312 0.5
-1312 0.5
1313 0.5
-1313 0.5
1314 0.5
-1314 0.5
1315 0.270387
-1315 0.729613
1316 0.914608
-1316 0.085392
1317 0.992174
-1317 0.007826
1318 0.061851
-1318 0.938149
1319 0.5
-1319 0.5
1320 0.5
-1320 0.5
1321 0.5
-1321 0.5
1322 0.5
-1322 0.5
1323 0.5
-1323 0.5
1324 0.5
-1324 0.5
1325 0.5
-1325 0.5
1326 0.5
-1326 0.5
1327 0.5
-1327 0.5
1328 0.5
-1328 0.5
1329 0.5
-1329 0.5
1330 0.5
-1330 0.5
1331 0.014841
-1331 0.985159
1332 0.248634
-1332 0.751366
1333 0.010423
-1333 0.989577
1334 0.244853
-1334 0.755147
1335 0.961177
-1335 0.038823
1336 0.153932
-1336 0.846068
1337 0.504013
-1337 0.495987
1338 0.904971
-1338 0.095029
1339 0.5
-1339 0.5
1340 0.5
-1340 0.5
1341 0.5
-1341 0.5
1342 0.5
-1342 0.5
1343 0.5
-1343 0.5
1344 0.5
-1344 0.5
1345 0.5
-1345 0.5
1346 0.5
-1346 0.5
1347 0.5
-1347 0.5
1348 0.5
-1348 0.5
1349 0.5
-1349 0.5
1350 0.5
-1350 0.5
1351 0.658681
-1351 0.341319
1352 0.502054
-1352 0.497946
1353 0.084163
-1353 0.915837
1354 0.847564
-1354 0.152436
1355 0.5
-1355 0.5
1356 0.5
-1356 0.5
1357 0.5
-1357 0.5
1358 0.5
-1358 0.5
1359 0.5
-1359 0.5
1360 0.5
-1360 0.5
1361 0.5
-1361 0.5
1362 0.5
-1362 0.5
1363 0.685508
-1363 0.314492
1364 0.852546
-1364 0.147454
1365 0.560175
-1365 0.439825
1366 0.171678
-1366 0.828322
1367 0.991334
-1367 0.008666
1368 0.834351
-1368 0.165649
1369 0.701843
-1369 0.298157
1370 0.150059
-1370 0.849941
1371 0.770851
-1371 0.229149
1372 0.902569
-1372 0.097431
1373 0.11368
-1373 0.88632
1374 0.307298
-1374 0.692702
1375 0.82059
-1375 0.17941
1376 0.965979
-1376 0.034021
1377 0.5
-1377 0.5
1378 0.5
-1378 0.5
1379 0.5
-1379 0.5
1380 0.5
-1380 0.5
1381 0.710261
-1381 0.289739
1382 0.488093
-1382 0.511907
1383 0.783207
-1383 0.216793
1384 0.640173
-1384 0.359827
1385 0.5
-1385 0.5
1386 0.5
-1386 0.5
1387 0.5
-1387 0.5
1388 0.5
-1388 0.5
1389 0.469356
-1389 0.530644
1390 0.901584
-1390 0.098416
1391 0.461351
-1391 0.538649
1392 0.46069
-1392 0.53931
1393 0.163194
-1393 0.836806
1394 0.610749
-1394 0.389251
1395 0.447611
-1395 0.552389
1396 0.934045
-1396 0.065955
1397 0.56129
-1397 0.43871
1398 0.241343
-1398 0.758657
1399 0.191709
-1399 0.808291
1400 0.38188
-1400 0.61812
1401 0.5
-1401 0.5
1402 0.5
-1402 0.5
1403 0.5
-1403 0.5
1404 0.5
-1404 0.5
1405 0.403451
-1405 0.596549
1406 0.465938
-1406 0.534062
1407 0.480022
-1407 0.519978
1408 0.043624
-1408 0.956376
1409 0.524419
-1409 0.475581
1410 0.117723
-1410 0.882277
1411 0.621271
-1411 0.378729
1412 0.254325
-1412 0.745675
1413 0.5
-1413 0.5
1414 0.5
-1414 0.5
1415 0.5
-1415 0.5
1416 0.5
-1416 0.5
1417 0.668913
-1417 0.331087
1418 0.162066
-1418 0.837934
1419 0.339453
-1419 0.660547
1420 0.602958
-1420 0.397042
1421 0.900743
-1421 0.099257
1422 0.844301
-1422 0.155699
1423 0.867093
-1423 0.132907
1424 0.282624
-1424 0.717376
1425 0.5
-1425 0.5
1426 0.5
-1426 0.5
1427 0.5
-1427 0.5
1428 0.5
-1428 0.5
1429 0.769305
-1429 0.230695
1430 0.335888
-1430 0.664112
1431 0.013039
-1431 0.986961
1432 0.249327
-1432 0.750673
1433 0.5
-1433 0.5
1434 0.5
-1434 0.5
1435 0.5
-1435 0.5
1436 0.5
-1436 0.5
1437 0.5
-1437 0.5
1438 0.5
-1438 0.5
1439 0.5
-1439 0.5
1440 0.5
-1440 0.5
1441 0.075821
-1441 0.924179
1442 0.716235
-1442 0.283765
1443 0.150409
-1443 0.849591
1444 0.415275
-1444 0.584725
1445 0.5
-1445 0.5
1446 0.5
-1446 0.5
1447 0.5
-1447 0.5
1448 0.5
-1448 0.5
1449 0.5
-1449 0.5
1450 0.5
-1450 0.5
1451 0.5
-1451 0.5
1452 0.5
-1452 0.5
1453 0.056911
-1453 0.943089
1454 0.200459
-1454 0.799541
1455 0.306238
-1455 0.693762
1456 0.579972
-1456 0.420028
1457 0.453167
-1457 0.546833
1458 0.079984
-1458 0.920016
1459 0.5
-1459 0.5
1460 0.5
-1460 0.5
1461 0.5
-1461 0.5
1462 0.5
-1462 0.5
1463 0.5
-1463 0.5
1464 0.5
-1464 0.5
1465 0.5
-1465 0.5
1466 0.5
-1466 0.5
1467 0.5
-1467 0.5
1468 0.5
-1468 0.5
1469 0.5
-1469 0.5
1470 0.5
-1470 0.5
1471 0.894023
-1471 0.105977
1472 0.69779
-1472 0.30221
1473 0.080172
-1473 0.919828
1474 0.826156
-1474 0.173844
1475 0.367778
-1475 0.632222
1476 0.690727
-1476 0.309273
1477 0.580687
-1477 0.419313
1478 0.42469
-1478 0.57531
1479 0.308726
-1479 0.691274
1480 0.730928
-1480 0.269072
1481 0.471158
-1481 0.528842
1482 0.761893
-1482 0.238107
1483 0.548365
-1483 0.451635
1484 0.56146
-1484 0.43854
1485 0.918967
-1485 0.081033
1486 0.167176
-1486 0.832824
1487 0.211
-1487 0.789
1488 0.833309
-1488 0.166691
1489 0.022989
-1489 0.977011
1490 0.578856
-1490 0.421144
1491 0.5
-1491 0.5
1492 0.5
-1492 0.5
1493 0.5
-1493 0.5
1494 0.5
-1494 0.5
1495 0.5
-1495 0.5
1496 0.5
-1496 0.5
1497 0.5
-1497 0.5
1498 0.5
-1498 0.5
1499 0.5
-1499 0.5
1500 0.5
-1500 0.5
1501 0.5
-1501 0.5
1502 0.5
-1502 0.5
1503 0.901563
-1503 0.098437
1504 0.914024
-1504 0.085976
1505 0.385859
-1505 0.614141
1506 0.37272
-1506 0.62728
1507 0.196771
-1507 0.803229
1508 0.921085
-1508 0.078915
1509 0.237377
-1509 0.762623
1510 0.115737
-1510 0.884263
1511 0.5
-1511 0.5
1512 0.5
-1512 0.5
1513 0.5
-1513 0.5
1514 0.5
-1514 0.5
1515 0.137246
-1515 0.862754
1516 0.456753
-1516 0.543247
1517 0.267579
-1517 0.732421
1518 0.054484
-1518 0.945516
1519 0.5
-1519 0.5
1520 0.5
-1520 0.5
1521 0.5
-1521 0.5
1522 0.5
-1522 0.5
1523 0.869367
-1523 0.130633
1524 0.912246
-1524 0.087754
1525 0.92948
-1525 0.07052
1526 0.879744
-1526 0.120256
1527 0.584411
-1527 0.415589
1528 0.781307
-1528 0.218693
1529 0.431568
-1529 0.568432
1530 0.97027
-1530 0.02973
1531 0.5
-1531 0.5
1532 0.5
-1532 0.5
1533 0.5
-1533 0.5
1534 0.5
-1534 0.5
1535 0.5
-1535 0.5
1536 0.5
-1536 0.5
1537 0.5
-1537 0.5
1538 0.5
-1538 0.5
1539 0.5
-1539 0.5
1540 0.5
-1540 0.5
1541 0.5
-1541 0.5
1542 0.5
-1542 0.5
1543 0.5
-1543 0.5
1544 0.5
-1544 0.5
1545 0.113448
-1545 0.886552
1546 0.501406
-1546 0.498594
1547 0.399036
-1547 0.600964
1548 0.812687
-1548 0.187313
1549 0.5
-1549 0.5
1550 0.5
-1550 0.5
1551 0.5
-1551 0.5
1552 0.5
-1552 0.5
1553 0.5
-1553 0.5
1554 0.5
-1554 0.5
1555 0.5
-1555 0.5
1556 0.5
-1556 0.5
1557 0.5
-1557 0.5
1558 0.5
-1558 0.5
1559 0.5
-1559 0.5
1560 0.5
-1560 0.5
1561 0.5
-1561 0.5
1562 0.5
-1562 0.5
1563 0.5
-1563 0.5
1564 0.5
-1564 0.5
1565 0.5
-1565 0.5
1566 0.5
-1566 0.5
1567 0.5
-1567 0.5
1568 0.5
-1568 0.5
1569 0.5
-1569 0.5
1570 0.5
-1570 0.5
1571 0.5
-1571 0.5
1572 0.5
-1572 0.5
1573 0.676446
-1573 0.323554
1574 0.501599
-1574 0.498401
1575 0.704524
-1575 0.295476
1576 0.003023
-1576 0.996977
1577 0.964919
-1577 0.035081
1578 0.299871
-1578 0.700129
1579 0.719275
-1579 0.280725
1580 0.332798
-1580 0.667202
1581 0.98024
-1581 0.01976
1582 0.04554
-1582 0.95446
1583 0.510425
-1583 0.489575
1584 0.404577
-1584 0.595423
1585 0.5
-1585 0.5
1586 0.5
-1586 0.5
1587 0.5
-1587 0.5
1588 0.5
-1588 0.5
1589 0.097535
-1589 0.902465
1590 0.391878
-1590 0.608122
1591 0.653472
-1591 0.346528
1592 0.476436
-1592 0.523564
1593 0.775064
-1593 0.224936
1594 0.356744
-1594 0.643256
1595 0.121674
-1595 0.878326
1596 0.709343
-1596 0.290657
1597 0.997372
-1597 0.002628
1598 0.385788
-1598 0.614212
1599 0.109423
-1599 0.890577
1600 0.701896
-1600 0.298104
1601 0.5
-1601 0.5
1602 0.5
-1602 0.5
1603 0.5
-1603 0.5
1604 0.5
-1604 0.5
1605 0.452442
-1605 0.547558
1606 0.342362
-1606 0.657638
1607 0.045153
-1607 0.954847
1608 0.962867
-1608 0.037133
1609 0.183729
-1609 0.816271
1610 0.829474
-1610 0.170526
1611 0.854051
-1611 0.145949
1612 0.567373
-1612 0.432627
1613 0.306126
-1613 0.693874
1614 0.951586
-1614 0.048414
1615 0.959598
-1615 0.040402
1616 0.428022
-1616 0.571978
1617 0.516509
-1617 0.483491
1618 0.734661
-1618 0.265339
1619 0.638183
-1619 0.361817
1620 0.444004
-1620 0.555996
1621 0.39259
-1621 0.60741
1622 0.635554
-1622 0.364446
1623 0.502013
-1623 0.497987
1624 0.337451
-1624 0.662549
1625 0.218603
-1625 0.781397
1626 0.14486
-1626 0.85514
1627 0.5
-1627 0.5
1628 0.5
-1628 0.5
1629 0.5
-1629 0.5
1630 0.5
-1630 0.5
1631 0.049032
-1631 0.950968
1632 0.322594
-1632 0.677406
1633 0.596283
-1633 0.403717
1634 0.23276
-1634 0.76724
1635 0.5
-1635 0.5
1636 0.5
-1636 0.5
1637 0.5
-1637 0.5
1638 0.5
-1638 0.5
1639 0.5
-1639 0.5
1640 0.5
-1640 0.5
1641 0.5
-1641 0.5
1642 0.5
-1642 0.5
1643 0.5
-1643 0.5
1644 0.5
-1644 0.5
1645 0.5
-1645 0.5
1646 0.5
-1646 0.5
1647 0.5
-1647 0.5
1648 0.5
-1648 0.5
1649 0.5
-1649 0.5
1650 0.5
-1650 0.5
1651 0.657149
-1651 0.342851
1652 0.797628
-1652 0.202372
1653 0.814533
-1653 0.185467
1654 0.016877
-1654 0.983123
1655 0.863565
-1655 0.136435
1656 0.339471
-1656 0.660529
1657 0.243255
-1657 0.756745
1658 0.096325
-1658 0.903675
1659 0.5
-1659 0.5
1660 0.5
-1660 0.5
1661 0.5
-1661 0.5
1662 0.5
-1662 0.5
1663 0.586343
-1663 0.413657
1664 0.687952
-1664 0.312048
1665 0.084875
-1665 0.915125
1666 0.843808
-1666 0.156192
1667 0.91826
-1667 0.08174
1668 0.545277
-1668 0.454723
1669 0.582909
-1669 0.417091
1670 0.387198
-1670 0.612802
1671 0.5
-1671 0.5
1672 0.5
-1672 0.5
1673 0.5
-1673 0.5
1674 0.5
-1674 0.5
1675 0.5
-1675 0.5
1676 0.5
-1676 0.5
1677 0.5
-1677 0.5
1678 0.5
-1678 0.5
1679 0.5
-1679 0.5
1680 0.5
-1680 0.5
1681 0.5
-1681 0.5
1682 0.5
-1682 0.5
1683 0.5
-1683 0.5
1684 0.5
-1684 0.5
1685 0.5
-1685 0.5
1686 0.5
-1686 0.5
1687 0.5
-1687 0.5
1688 0.5
-1688 0.5
1689 0.871286
-1689 0.128714
1690 0.516968
-1690 0.483032
1691 0.701223
-1691 0.298777
1692 0.810422
-1692 0.189578
1693 0.5
-1693 0.5
1694 0.5
-1694 0.5
1695 0.5
-1695 0.5
1696 0.5
-1696 0.5
1697 0.5
-1697 0.5
1698 0.5
-1698 0.5
1699 0.5
-1699 0.5
1700 0.5
-1700 0.5
1701 0.958337
-1701 0.041663
1702 0.83903
-1702 0.16097
1703 0.133415
-1703 0.866585
1704 0.422279
-1704 0.577721
1705 0.973313
-1705 0.026687
1706 0.129476
-1706 0.870524
1707 0.300036
-1707 0.699964
1708 0.30475
-1708 0.69525
1709 0.5
-1709 0.5
1710 0.5
-1710 0.5
1711 0.5
-1711 0.5
1712 0.5
-1712 0.5
1713 0.5
-1713 0.5
1714 0.5
-1714 0.5
1715 0.5
-1715 0.5
1716 0.5
-1716 0.5
1717 0.5
-1717 0.5
1718 0.5
-1718 0.5
1719 0.5
-1719 0.5
1720 0.5
-1720 0.5
1721 0.069895
-1721 0.930105
1722 0.885692
-1722 0.114308
1723 0.783603
-1723 0.216397
1724 0.09015
-1724 0.90985
1725 0.74194
-1725 0.25806
1726 0.929181
-1726 0.070819
1727 0.652094
-1727 0.347906
1728 0.164219
-1728 0.835781
1729 0.5
-1729 0.5
1730 0.5
-1730 0.5
1731 0.5
-1731 0.5
1732 0.5
-1732 0.5
1733 0.012424
-1733 0.987576
1734 0.777326
-1734 0.222674
1735 0.238781
-1735 0.761219
1736 0.457596
-1736 0.542404
1737 0.5
-1737 0.5
1738 0.5
-1738 0.5
1739 0.5
-1739 0.5
1740 0.5
-1740 0.5
1741 0.084271
-1741 0.915729
1742 0.284209
-1742 0.715791
1743 0.421145
-1743 0.578855
1744 0.138153
-1744 0.861847
1745 0.5
-1745 0.5
1746 0.5
-1746 0.5
1747 0.5
-1747 0.5
1748 0.5
-1748 0.5
1749 0.5
-1749 0.5
1750 0.5
-1750 0.5
1751 0.5
-1751 0.5
1752 0.5
-1752 0.5
1753 0.67793
-1753 0.32207
1754 0.702335
-1754 0.297665
1755 0.046837
-1755 0.953163
1756 0.428517
-1756 0.571483
1757 0.677539
-1757 0.322461
1758 0.440941
-1758 0.559059
1759 0.409819
-1759 0.590181
1760 0.916319
-1760 0.083681
1761 0.466405
-1761 0.533595
1762 0.620594
-1762 0.379406
1763 0.672592
-1763 0.327408
1764 0.319221
-1764 0.680779
1765 0.5
-1765 0.5
1766 0.5
-1766 0.5
1767 0.5
-1767 0.5
1768 0.5
-1768 0.5
1769 0.5
-1769 0.5
1770 0.5
-1770 0.5
1771 0.5
-1771 0.5
1772 0.5
-1772 0.5
1773 0.5
-1773 0.5
1774 0.5
-1774 0.5
1775 0.5
-1775 0.5
1776 0.5
-1776 0.5
1777 0.5
-1777 0.5
1778 0.5
-1778 0.5
1779 0.906509
-1779 0.093491
1780 0.293938
-1780 0.706062
1781 0.381719
-1781 0.618281
1782 0.539002
-1782 0.460998
1783 0.82266
-1783 0.17734
1784 0.94882
-1784 0.05118
1785 0.887796
-1785 0.112204
1786 0.721198
-1786 0.278802
1787 0.5
-1787 0.5
1788 0.5
-1788 0.5
1789 0.5
-1789 0.5
1790 0.5
-1790 0.5
1791 0.5
-1791 0.5
1792 0.5
-1792 0.5
1793 0.5
-1793 0.5
1794 0.5
-1794 0.5
1795 0.5
-1795 0.5
1796 0.5
-1796 0.5
1797 0.5
-1797 0.5
1798 0.5
-1798 0.5
1799 0.5
-1799 0.5
1800 0.5
-1800 0.5
1801 0.5
-1801 0.5
1802 0.5
-1802 0.5
1803 0.960071
-1803 0.039929
1804 0.087362
-1804 0.912638
1805 0.051369
-1805 0.948631
1806 0.931548
-1806 0.068452
1807 0.00019
-1807 0.99981
1808 0.819344
-1808 0.180656
1809 0.63122
-1809 0.36878
1810 0.415416
-1810 0.584584
1811 0.5
-1811 0.5
1812 0.5
-1812 0.5
1813 0.5
-1813 0.5
1814 0.5
-1814 0.5
1815 0.5
-1815 0.5
1816 0.5
-1816 0.5
1817 0.5
-1817 0.5
1818 0.5
-1818 0.5
1819 0.396663
-1819 0.603337
1820 0.949947
-1820 0.050053
1821 0.899422
-1821 0.100578
1822 0.873833
-1822 0.126167
1823 0.5
-1823 0.5
1824 0.5
-1824 0.5
1825 0.5
-1825 0.5
1826 0.5
-1826 0.5
1827 0.5
-1827 0.5
1828 0.5
-1828 0.5
1829 0.5
-1829 0.5
1830 0.5
-1830 0.5
1831 0.329301
-1831 0.670699
1832 0.521416
-1832 0.478584
1833 0.695548
-1833 0.304452
1834 0.960521
-1834 0.039479
1835 0.023281
-1835 0.976719
1836 0.985531
-1836 0.014469
1837 0.086694
-1837 0.913307
1838 0.350991
-1838 0.649009
1839 0.374495
-1839 0.625505
1840 0.45447
-1840 0.54553
1841 0.932167
-1841 0.067833
1842 0.34188
-1842 0.65812
1843 0.5
-1843 0.5
1844 0.5
-1844 0.5
1845 0.079924
-1845 0.920076
1846 0.805938
-1846 0.194062
1847 0.612376
-1847 0.387624
1848 0.431555
-1848 0.568445
1849 0.5
-1849 0.5
1850 0.5
-1850 0.5
1851 0.5
-1851 0.5
1852 0.5
-1852 0.5
1853 0.053632
-1853 0.946368
1854 0.989845
-1854 0.010155
1855 0.380128
-1855 0.619872
1856 0.929836
-1856 0.070164
1857 0.5
-1857 0.5
1858 0.5
-1858 0.5
1859 0.5
-1859 0.5
1860 0.5
-1860 0.5
1861 0.265197
-1861 0.734803
1862 0.925069
-1862 0.074931
1863 0.999656
-1863 0.000344
1864 0.243053
-1864 0.756947
1865 0.5
-1865 0.5
1866 0.5
-1866 0.5
1867 0.5
-1867 0.5
1868 0.5
-1868 0.5
1869 0.5
-1869 0.5
1870 0.5
-1870 0.5
1871 0.5
-1871 0.5
1872 0.5
-1872 0.5
1873 0.5
-1873 0.5
1874 0.5
-1874 0.5
1875 0.5
-1875 0.5
1876 0.5
-1876 0.5
1877 0.343531
-1877 0.656469
1878 0.174672
-1878 0.825328
1879 0.791424
-1879 0.208576
1880 0.723659
-1880 0.276341
1881 0.5
-1881 0.5
1882 0.5
-1882 0.5
1883 0.5
-1883 0.5
1884 0.5
-1884 0.5
1885 0.5
-1885 0.5
1886 0.5
-1886 0.5
1887 0.5
-1887 0.5
1888 0.5
-1888 0.5
1889 0.688211
-1889 0.311789
1890 0.832341
-1890 0.167659
1891 0.073705
-1891 0.926295
1892 0.329654
-1892 0.670346
1893 0.5
-1893 0.5
1894 0.5
-1894 0.5
1895 0.5
-1895 0.5
1896 0.5
-1896 0.5
1897 0.176057
-1897 0.823943
1898 0.055178
-1898 0.944822
1899 0.933016
-1899 0.066984
1900 0.660686
-1900 0.339314
1901 0.5
-1901 0.5
1902 0.5
-1902 0.5
1903 0.5
-1903 0.5
1904 0.5
-1904 0.5
1905 0.455399
-1905 0.544601
1906 0.636587
-1906 0.363413
1907 0.353079
-1907 0.646921
1908 0.185292
-1908 0.814708
1909 0.5
-1909 0.5
1910 0.5
-1910 0.5
1911 0.5
-1911 0.5
1912 0.5
-1912 0.5
1913 0.580741
-1913 0.419259
1914 0.893516
-1914 0.106484
1915 0.774406
-1915 0.225594
1916 0.654446
-1916 0.345554
1917 0.5
-1917 0.5
1918 0.5
-1918 0.5
1919 0.5
-1919 0.5
1920 0.5
-1920 0.5
