1 0.992077
-1 0.007923
2 1.0
-2 1.0
3 1.0
-3 1.0
4 1.0
-4 1.0
5 1.0
-5 1.0
6 1.0
-6 1.0
7 1.0
-7 1.0
8 1.0
-8 1.0
9 1.0
-9 1.0
10 1.0
-10 1.0
11 1.0
-11 1.0
12 1.0
-12 1.0
13 1.0
-13 1.0
14 1.0
-14 1.0
15 1.0
-15 1.0
16 1.0
-16 1.0
17 1.0
-17 1.0
18 1.0
-18 1.0
19 1.0
-19 1.0
20 1.0
-20 1.0
21 1.0
-21 1.0
22 1.0
-22 1.0
23 1.0
-23 1.0
24 1.0
-24 1.0
25 1.0
-25 1.0
26 1.0
-26 1.0
27 1.0
-27 1.0
28 1.0
-28 1.0
29 1.0
-29 1.0
30 1.0
-30 1.0
31 1.0
-31 1.0
32 1.0
-32 1.0
33 1.0
-33 1.0
34 1.0
-34 1.0
35 1.0
-35 1.0
36 1.0
-36 1.0
37 1.0
-37 1.0
38 1.0
-38 1.0
39 1.0
-39 1.0
40 1.0
-40 1.0
41 1.0
-41 1.0
42 1.0
-42 1.0
43 1.0
-43 1.0
44 1.0
-44 1.0
45 1.0
-45 1.0
46 1.0
-46 1.0
47 1.0
-47 1.0
48 1.0
-48 1.0
49 1.0
-49 1.0
50 1.0
-50 1.0
51 1.0
-51 1.0
52 1.0
-52 1.0
53 1.0
-53 1.0
54 1.0
-54 1.0
55 1.0
-55 1.0
56 1.0
-56 1.0
57 1.0
-57 1.0
58 1.0
-58 1.0
59 1.0
-59 1.0
60 1.0
-60 1.0
61 1.0
-61 1.0
62 1.0
-62 1.0
63 1.0
-63 1.0
64 1.0
-64 1.0
65 1.0
-65 1.0
66 1.0
-66 1.0
67 1.0
-67 1.0
68 1.0
-68 1.0
69 1.0
-69 1.0
70 1.0
-70 1.0
71 1.0
-71 1.0
72 1.0
-72 1.0
73 1.0
-73 1.0
74 1.0
-74 1.0
75 1.0
-75 1.0
76 1.0
-76 1.0
77 1.0
-77 1.0
78 1.0
-78 1.0
79 1.0
-79 1.0
80 1.0
-80 1.0
81 1.0
-81 1.0
82 1.0
-82 1.0
83 1.0
-83 1.0
84 1.0
-84 1.0
85 1.0
-85 1.0
86 1.0
-86 1.0
87 1.0
-87 1.0
88 1.0
-88 1.0
89 1.0
-89 1.0
90 1.0
-90 1.0
91 1.0
-91 1.0
92 1.0
-92 1.0
93 1.0
-93 1.0
94 1.0
-94 1.0
95 1.0
-95 1.0
96 1.0
-96 1.0
97 1.0
-97 1.0
98 1.0
-98 1.0
99 1.0
-99 1.0
100 1.0
-100 1.0
101 0.917429
-101 0.082571
102 0.189309
-102 0.810691
103 0.5
-103 0.5
104 0.5
-104 0.5
105 0.5
-105 0.5
106 0.5
-106 0.5
107 0.5
-107 0.5
108 0.5
-108 0.5
109 0.5
-109 0.5
110 0.5
-110 0.5
111 0.429313
-111 0.570687
112 0.899501
-112 0.100499
113 0.5
-113 0.5
114 0.5
-114 0.5
115 0.773651
-115 0.226349
116 0.045976
-116 0.954024
117 0.5
-117 0.5
118 0.5
-118 0.5
119 0.750811
-119 0.249189
120 0.843887
-120 0.156113
121 0.5
-121 0.5
122 0.5
-122 0.5
123 0.5
-123 0.5
124 0.5
-124 0.5
125 0.191844
-125 0.808156
126 0.100071
-126 0.899929
127 0.818113
-127 0.181887
128 0.381154
-128 0.618846
129 0.5
-129 0.5
130 0.5
-130 0.5
131 0.5
-131 0.5
132 0.5
-132 0.5
133 0.5
-133 0.5
134 0.5
-134 0.5
135 0.5
-135 0.5
136 0.5
-136 0.5
137 0.903182
-137 0.096818
138 0.321401
-138 0.678599
139 0.765104
-139 0.234896
140 0.676834
-140 0.323166
141 0.5
-141 0.5
142 0.5
-142 0.5
143 0.5
-143 0.5
144 0.5
-144 0.5
145 0.5
-145 0.5
146 0.5
-146 0.5
147 0.5
-147 0.5
148 0.5
-148 0.5
149 0.5
-149 0.5
150 0.5
-150 0.5
151 0.5
-151 0.5
152 0.5
-152 0.5
153 0.5
-153 0.5
154 0.5
-154 0.5
155 0.5
-155 0.5
156 0.5
-156 0.5
157 0.5
-157 0.5
158 0.5
-158 0.5
159 0.5
-159 0.5
160 0.5
-160 0.5
161 0.5
-161 0.5
162 0.5
-162 0.5
163 0.12449
-163 0.87551
164 0.145584
-164 0.854416
165 0.664459
-165 0.335541
166 0.491867
-166 0.508133
167 0.328115
-167 0.671885
168 0.74129
-168 0.25871
169 0.532369
-169 0.467631
170 0.835658
-170 0.164342
171 0.5
-171 0.5
172 0.5
-172 0.5
173 0.5
-173 0.5
174 0.5
-174 0.5
175 0.5
-175 0.5
176 0.5
-176 0.5
177 0.5
-177 0.5
178 0.5
-178 0.5
179 0.5
-179 0.5
180 0.5
-180 0.5
181 0.5
-181 0.5
182 0.5
-182 0.5
183 0.5
-183 0.5
184 0.5
-184 0.5
185 0.5
-185 0.5
186 0.5
-186 0.5
187 0.766023
-187 0.233977
188 0.582159
-188 0.417841
189 0.941262
-189 0.058738
190 0.430482
-190 0.569518
191 0.5
-191 0.5
192 0.5
-192 0.5
193 0.5
-193 0.5
194 0.5
-194 0.5
195 0.5
-195 0.5
196 0.5
-196 0.5
197 0.822578
-197 0.177422
198 0.263223
-198 0.736777
199 0.63443
-199 0.36557
200 0.344253
-200 0.655747
201 0.5
-201 0.5
202 0.5
-202 0.5
203 0.5
-203 0.5
204 0.5
-204 0.5
205 0.5
-205 0.5
206 0.5
-206 0.5
207 0.5
-207 0.5
208 0.5
-208 0.5
209 0.5
-209 0.5
210 0.5
-210 0.5
211 0.5
-211 0.5
212 0.5
-212 0.5
213 0.5
-213 0.5
214 0.5
-214 0.5
215 0.5
-215 0.5
216 0.5
-216 0.5
217 0.5
-217 0.5
218 0.5
-218 0.5
219 0.5
-219 0.5
220 0.5
-220 0.5
221 0.5
-221 0.5
222 0.5
-222 0.5
223 0.5
-223 0.5
224 0.5
-224 0.5
225 0.5
-225 0.5
226 0.5
-226 0.5
227 0.5
-227 0.5
228 0.5
-228 0.5
229 0.5
-229 0.5
230 0.5
-230 0.5
231 0.5
-231 0.5
232 0.5
-232 0.5
233 0.543319
-233 0.456681
234 0.381813
-234 0.618187
235 0.990449
-235 0.009551
236 0.775687
-236 0.224313
237 0.385222
-237 0.614778
238 0.378842
-238 0.621158
239 0.5
-239 0.5
240 0.5
-240 0.5
241 0.5
-241 0.5
242 0.5
-242 0.5
243 0.5
-243 0.5
244 0.5
-244 0.5
245 0.5
-245 0.5
246 0.5
-246 0.5
247 0.366799
-247 0.633201
248 0.70402
-248 0.29598
249 0.351058
-249 0.648942
250 0.303202
-250 0.696798
251 0.5
-251 0.5
252 0.5
-252 0.5
253 0.5
-253 0.5
254 0.5
-254 0.5
255 0.572925
-255 0.427075
256 0.758544
-256 0.241456
257 0.559307
-257 0.440693
258 0.116244
-258 0.883756
259 0.5
-259 0.5
260 0.5
-260 0.5
261 0.5
-261 0.5
262 0.5
-262 0.5
263 0.5
-263 0.5
264 0.5
-264 0.5
265 0.5
-265 0.5
266 0.5
-266 0.5
267 0.5
-267 0.5
268 0.5
-268 0.5
269 0.5
-269 0.5
270 0.5
-270 0.5
271 0.5
-271 0.5
272 0.5
-272 0.5
273 0.123281
-273 0.876719
274 0.972548
-274 0.027452
275 0.297534
-275 0.702466
276 0.148728
-276 0.851272
277 0.5
-277 0.5
278 0.5
-278 0.5
279 0.5
-279 0.5
280 0.5
-280 0.5
281 0.5
-281 0.5
282 0.5
-282 0.5
283 0.5
-283 0.5
284 0.5
-284 0.5
285 0.5
-285 0.5
286 0.5
-286 0.5
287 0.5
-287 0.5
288 0.5
-288 0.5
289 0.5
-289 0.5
290 0.5
-290 0.5
291 0.5
-291 0.5
292 0.5
-292 0.5
293 0.16659
-293 0.83341
294 0.315124
-294 0.684876
295 0.456422
-295 0.543578
296 0.585851
-296 0.414149
297 0.450754
-297 0.549246
298 0.709133
-298 0.290867
299 0.909162
-299 0.090838
300 0.748288
-300 0.251712
301 0.981781
-301 0.018219
302 0.641708
-302 0.358292
303 0.687648
-303 0.312352
304 0.058982
-304 0.941018
305 0.5
-305 0.5
306 0.5
-306 0.5
307 0.5
-307 0.5
308 0.5
-308 0.5
309 0.172056
-309 0.827944
310 0.234965
-310 0.765035
311 0.490986
-311 0.509014
312 0.34615
-312 0.65385
313 0.171208
-313 0.828792
314 0.598914
-314 0.401086
315 0.5
-315 0.5
316 0.5
-316 0.5
317 0.5
-317 0.5
318 0.5
-318 0.5
319 0.5
-319 0.5
320 0.5
-320 0.5
321 0.5
-321 0.5
322 0.5
-322 0.5
323 0.5
-323 0.5
324 0.5
-324 0.5
325 0.5
-325 0.5
326 0.5
-326 0.5
327 0.5
-327 0.5
328 0.5
-328 0.5
329 0.5
-329 0.5
330 0.5
-330 0.5
331 0.5
-331 0.5
332 0.5
-332 0.5
333 0.5
-333 0.5
334 0.5
-334 0.5
335 0.5
-335 0.5
336 0.5
-336 0.5
337 0.5
-337 0.5
338 0.5
-338 0.5
339 0.5
-339 0.5
340 0.5
-340 0.5
341 0.5
-341 0.5
342 0.5
-342 0.5
343 0.5
-343 0.5
344 0.5
-344 0.5
345 0.5
-345 0.5
346 0.5
-346 0.5
347 0.975699
-347 0.024301
348 0.042943
-348 0.957057
349 0.5
-349 0.5
350 0.5
-350 0.5
351 0.5
-351 0.5
352 0.5
-352 0.5
353 0.5
-353 0.5
354 0.5
-354 0.5
355 0.5
-355 0.5
356 0.5
-356 0.5
357 0.221095
-357 0.778905
358 0.583801
-358 0.416199
359 0.47642
-359 0.52358
360 0.171395
-360 0.828605
361 0.5
-361 0.5
362 0.5
-362 0.5
363 0.5
-363 0.5
364 0.5
-364 0.5
365 0.5
-365 0.5
366 0.5
-366 0.5
367 0.5
-367 0.5
368 0.5
-368 0.5
369 0.5
-369 0.5
370 0.5
-370 0.5
371 0.5
-371 0.5
372 0.5
-372 0.5
373 0.5
-373 0.5
374 0.5
-374 0.5
375 0.5
-375 0.5
376 0.5
-376 0.5
377 0.608716
-377 0.391284
378 0.989812
-378 0.010188
379 0.436629
-379 0.563371
380 0.876314
-380 0.123686
381 0.657724
-381 0.342276
382 0.460115
-382 0.539885
383 0.37626
-383 0.62374
384 0.829119
-384 0.170881
385 0.03401
-385 0.96599
386 0.229335
-386 0.770665
387 0.5
-387 0.5
388 0.5
-388 0.5
389 0.5
-389 0.5
390 0.5
-390 0.5
391 0.5
-391 0.5
392 0.5
-392 0.5
393 0.5
-393 0.5
394 0.5
-394 0.5
395 0.5
-395 0.5
396 0.5
-396 0.5
397 0.5
-397 0.5
398 0.5
-398 0.5
399 0.5
-399 0.5
400 0.5
-400 0.5
401 0.5
-401 0.5
402 0.5
-402 0.5
403 0.5
-403 0.5
404 0.5
-404 0.5
405 0.5
-405 0.5
406 0.5
-406 0.5
407 0.5
-407 0.5
408 0.5
-408 0.5
409 0.5
-409 0.5
410 0.5
-410 0.5
411 0.5
-411 0.5
412 0.5
-412 0.5
413 0.5
-413 0.5
414 0.5
-414 0.5
415 0.5
-415 0.5
416 0.5
-416 0.5
417 0.5
-417 0.5
418 0.5
-418 0.5
419 0.5
-419 0.5
420 0.5
-420 0.5
421 0.5
-421 0.5
422 0.5
-422 0.5
423 0.5
-423 0.5
424 0.5
-424 0.5
425 0.5
-425 0.5
426 0.5
-426 0.5
427 0.5
-427 0.5
428 0.5
-428 0.5
429 0.5
-429 0.5
430 0.5
-430 0.5
431 0.5
-431 0.5
432 0.5
-432 0.5
433 0.5
-433 0.5
434 0.5
-434 0.5
435 0.5
-435 0.5
436 0.5
-436 0.5
437 0.5
-437 0.5
438 0.5
-438 0.5
439 0.5
-439 0.5
440 0.5
-440 0.5
441 0.5
-441 0.5
442 0.5
-442 0.5
443 0.5
-443 0.5
444 0.5
-444 0.5
445 0.269242
-445 0.730758
446 0.878786
-446 0.121214
447 0.763072
-447 0.236928
448 0.622001
-448 0.377999
449 0.5
-449 0.5
450 0.5
-450 0.5
451 0.5
-451 0.5
452 0.5
-452 0.5
453 0.5
-453 0.5
454 0.5
-454 0.5
455 0.5
-455 0.5
456 0.5
-456 0.5
457 0.5
-457 0.5
458 0.5
-458 0.5
459 0.5
-459 0.5
460 0.5
-460 0.5
