1 0.405549
-1 0.594451
2 1.0
-2 1.0
3 1.0
-3 1.0
4 1.0
-4 1.0
5 1.0
-5 1.0
6 1.0
-6 1.0
7 1.0
-7 1.0
8 1.0
-8 1.0
9 1.0
-9 1.0
10 1.0
-10 1.0
11 1.0
-11 1.0
12 1.0
-12 1.0
13 1.0
-13 1.0
14 1.0
-14 1.0
15 1.0
-15 1.0
16 1.0
-16 1.0
17 1.0
-17 1.0
18 1.0
-18 1.0
19 1.0
-19 1.0
20 1.0
-20 1.0
21 1.0
-21 1.0
22 1.0
-22 1.0
23 1.0
-23 1.0
24 1.0
-24 1.0
25 1.0
-25 1.0
26 1.0
-26 1.0
27 1.0
-27 1.0
28 1.0
-28 1.0
29 1.0
-29 1.0
30 1.0
-30 1.0
31 1.0
-31 1.0
32 1.0
-32 1.0
33 1.0
-33 1.0
34 1.0
-34 1.0
35 1.0
-35 1.0
36 1.0
-36 1.0
37 1.0
-37 1.0
38 1.0
-38 1.0
39 1.0
-39 1.0
40 1.0
-40 1.0
41 1.0
-41 1.0
42 1.0
-42 1.0
43 1.0
-43 1.0
44 1.0
-44 1.0
45 1.0
-45 1.0
46 1.0
-46 1.0
47 1.0
-47 1.0
48 1.0
-48 1.0
49 1.0
-49 1.0
50 1.0
-50 1.0
51 1.0
-51 1.0
52 1.0
-52 1.0
53 1.0
-53 1.0
54 1.0
-54 1.0
55 1.0
-55 1.0
56 1.0
-56 1.0
57 1.0
-57 1.0
58 1.0
-58 1.0
59 1.0
-59 1.0
60 1.0
-60 1.0
61 1.0
-61 1.0
62 1.0
-62 1.0
63 1.0
-63 1.0
64 1.0
-64 1.0
65 1.0
-65 1.0
66 1.0
-66 1.0
67 1.0
-67 1.0
68 1.0
-68 1.0
69 1.0
-69 1.0
70 1.0
-70 1.0
71 1.0
-71 1.0
72 1.0
-72 1.0
73 1.0
-73 1.0
74 1.0
-74 1.0
75 1.0
-75 1.0
76 1.0
-76 1.0
77 1.0
-77 1.0
78 1.0
-78 1.0
79 1.0
-79 1.0
80 1.0
-80 1.0
81 1.0
-81 1.0
82 1.0
-82 1.0
83 1.0
-83 1.0
84 1.0
-84 1.0
85 1.0
-85 1.0
86 1.0
-86 1.0
87 1.0
-87 1.0
88 1.0
-88 1.0
89 1.0
-89 1.0
90 1.0
-90 1.0
91 1.0
-91 1.0
92 1.0
-92 1.0
93 1.0
-93 1.0
94 1.0
-94 1.0
95 1.0
-95 1.0
96 1.0
-96 1.0
97 1.0
-97 1.0
98 1.0
-98 1.0
99 1.0
-99 1.0
100 1.0
-100 1.0
101 1.0
-101 1.0
102 1.0
-102 1.0
103 1.0
-103 1.0
104 1.0
-104 1.0
105 1.0
-105 1.0
106 1.0
-106 1.0
107 1.0
-107 1.0
108 1.0
-108 1.0
109 1.0
-109 1.0
110 1.0
-110 1.0
111 1.0
-111 1.0
112 1.0
-112 1.0
113 1.0
-113 1.0
114 1.0
-114 1.0
115 1.0
-115 1.0
116 1.0
-116 1.0
117 1.0
-117 1.0
118 1.0
-118 1.0
119 1.0
-119 1.0
120 1.0
-120 1.0
121 1.0
-121 1.0
122 1.0
-122 1.0
123 1.0
-123 1.0
124 1.0
-124 1.0
125 1.0
-125 1.0
126 1.0
-126 1.0
127 1.0
-127 1.0
128 1.0
-128 1.0
129 1.0
-129 1.0
130 1.0
-130 1.0
131 1.0
-131 1.0
132 1.0
-132 1.0
133 1.0
-133 1.0
134 1.0
-134 1.0
135 1.0
-135 1.0
136 1.0
-136 1.0
137 1.0
-137 1.0
138 1.0
-138 1.0
139 1.0
-139 1.0
140 1.0
-140 1.0
141 1.0
-141 1.0
142 1.0
-142 1.0
143 1.0
-143 1.0
144 1.0
-144 1.0
145 1.0
-145 1.0
146 1.0
-146 1.0
147 1.0
-147 1.0
148 1.0
-148 1.0
149 1.0
-149 1.0
150 1.0
-150 1.0
151 1.0
-151 1.0
152 1.0
-152 1.0
153 1.0
-153 1.0
154 1.0
-154 1.0
155 1.0
-155 1.0
156 1.0
-156 1.0
157 1.0
-157 1.0
158 1.0
-158 1.0
159 1.0
-159 1.0
160 1.0
-160 1.0
161 1.0
-161 1.0
162 1.0
-162 1.0
163 1.0
-163 1.0
164 1.0
-164 1.0
165 1.0
-165 1.0
166 1.0
-166 1.0
167 1.0
-167 1.0
168 1.0
-168 1.0
169 1.0
-169 1.0
170 1.0
-170 1.0
171 1.0
-171 1.0
172 1.0
-172 1.0
173 1.0
-173 1.0
174 1.0
-174 1.0
175 1.0
-175 1.0
176 1.0
-176 1.0
177 1.0
-177 1.0
178 1.0
-178 1.0
179 1.0
-179 1.0
180 1.0
-180 1.0
181 1.0
-181 1.0
182 1.0
-182 1.0
183 1.0
-183 1.0
184 1.0
-184 1.0
185 1.0
-185 1.0
186 1.0
-186 1.0
187 1.0
-187 1.0
188 1.0
-188 1.0
189 1.0
-189 1.0
190 1.0
-190 1.0
191 1.0
-191 1.0
192 1.0
-192 1.0
193 1.0
-193 1.0
194 1.0
-194 1.0
195 1.0
-195 1.0
196 1.0
-196 1.0
197 0.5
-197 0.5
198 0.5
-198 0.5
199 0.5
-199 0.5
200 0.5
-200 0.5
201 0.713078
-201 0.286922
202 0.031996
-202 0.968005
203 0.5
-203 0.5
204 0.5
-204 0.5
205 0.5
-205 0.5
206 0.5
-206 0.5
207 0.5
-207 0.5
208 0.5
-208 0.5
209 0.871342
-209 0.128658
210 0.961572
-210 0.038428
211 0.5
-211 0.5
212 0.5
-212 0.5
213 0.5
-213 0.5
214 0.5
-214 0.5
215 0.286188
-215 0.713812
216 0.264804
-216 0.735196
217 0.703767
-217 0.296233
218 0.092146
-218 0.907854
219 0.5
-219 0.5
220 0.5
-220 0.5
221 0.5
-221 0.5
222 0.5
-222 0.5
223 0.5
-223 0.5
224 0.5
-224 0.5
225 0.5
-225 0.5
226 0.5
-226 0.5
227 0.5
-227 0.5
228 0.5
-228 0.5
229 0.5
-229 0.5
230 0.5
-230 0.5
231 0.5
-231 0.5
232 0.5
-232 0.5
233 0.0602
-233 0.9398
234 0.74293
-234 0.25707
235 0.672817
-235 0.327183
236 0.021772
-236 0.978228
237 0.5
-237 0.5
238 0.5
-238 0.5
239 0.5
-239 0.5
240 0.5
-240 0.5
241 0.5
-241 0.5
242 0.5
-242 0.5
243 0.5
-243 0.5
244 0.5
-244 0.5
245 0.5
-245 0.5
246 0.5
-246 0.5
247 0.5
-247 0.5
248 0.5
-248 0.5
249 0.5
-249 0.5
250 0.5
-250 0.5
251 0.5
-251 0.5
252 0.5
-252 0.5
253 0.5
-253 0.5
254 0.5
-254 0.5
255 0.5
-255 0.5
256 0.5
-256 0.5
257 0.5
-257 0.5
258 0.5
-258 0.5
259 0.5
-259 0.5
260 0.5
-260 0.5
261 0.5
-261 0.5
262 0.5
-262 0.5
263 0.5
-263 0.5
264 0.5
-264 0.5
265 0.5
-265 0.5
266 0.5
-266 0.5
267 0.5
-267 0.5
268 0.5
-268 0.5
269 0.5
-269 0.5
270 0.5
-270 0.5
271 0.5
-271 0.5
272 0.5
-272 0.5
273 0.5
-273 0.5
274 0.5
-274 0.5
275 0.5
-275 0.5
276 0.5
-276 0.5
277 0.5
-277 0.5
278 0.5
-278 0.5
279 0.5
-279 0.5
280 0.5
-280 0.5
281 0.5
-281 0.5
282 0.5
-282 0.5
283 0.5
-283 0.5
284 0.5
-284 0.5
285 0.5
-285 0.5
286 0.5
-286 0.5
287 0.048378
-287 0.951622
288 0.139779
-288 0.860221
289 0.818535
-289 0.181465
290 0.585421
-290 0.414579
291 0.5
-291 0.5
292 0.5
-292 0.5
293 0.5
-293 0.5
294 0.5
-294 0.5
295 0.377958
-295 0.622042
296 0.625932
-296 0.374068
297 0.267789
-297 0.732211
298 0.474488
-298 0.525512
299 0.5
-299 0.5
300 0.5
-300 0.5
301 0.5
-301 0.5
302 0.5
-302 0.5
303 0.536211
-303 0.463789
304 0.156246
-304 0.843754
305 0.596015
-305 0.403985
306 0.210464
-306 0.789536
307 0.5
-307 0.5
308 0.5
-308 0.5
309 0.5
-309 0.5
310 0.5
-310 0.5
311 0.5
-311 0.5
312 0.5
-312 0.5
313 0.5
-313 0.5
314 0.5
-314 0.5
315 0.295682
-315 0.704318
316 0.215238
-316 0.784762
317 0.19621
-317 0.80379
318 0.2489
-318 0.7511
319 0.960009
-319 0.039991
320 0.626858
-320 0.373142
321 0.390999
-321 0.609001
322 0.227798
-322 0.772202
323 0.5
-323 0.5
324 0.5
-324 0.5
325 0.5
-325 0.5
326 0.5
-326 0.5
327 0.5
-327 0.5
328 0.5
-328 0.5
329 0.5
-329 0.5
330 0.5
-330 0.5
331 0.162648
-331 0.837352
332 0.0208
-332 0.9792
333 0.5
-333 0.5
334 0.5
-334 0.5
335 0.5
-335 0.5
336 0.5
-336 0.5
337 0.5
-337 0.5
338 0.5
-338 0.5
339 0.5
-339 0.5
340 0.5
-340 0.5
341 0.343289
-341 0.656711
342 0.633074
-342 0.366926
343 0.757901
-343 0.242099
344 0.303298
-344 0.696702
345 0.5
-345 0.5
346 0.5
-346 0.5
347 0.5
-347 0.5
348 0.5
-348 0.5
349 0.5
-349 0.5
350 0.5
-350 0.5
351 0.5
-351 0.5
352 0.5
-352 0.5
353 0.5
-353 0.5
354 0.5
-354 0.5
355 0.5
-355 0.5
356 0.5
-356 0.5
357 0.5
-357 0.5
358 0.5
-358 0.5
359 0.5
-359 0.5
360 0.5
-360 0.5
361 0.5
-361 0.5
362 0.5
-362 0.5
363 0.5
-363 0.5
364 0.5
-364 0.5
365 0.5
-365 0.5
366 0.5
-366 0.5
367 0.5
-367 0.5
368 0.5
-368 0.5
369 0.5
-369 0.5
370 0.5
-370 0.5
371 0.5
-371 0.5
372 0.5
-372 0.5
373 0.5
-373 0.5
374 0.5
-374 0.5
375 0.5
-375 0.5
376 0.5
-376 0.5
377 0.5
-377 0.5
378 0.5
-378 0.5
379 0.5
-379 0.5
380 0.5
-380 0.5
381 0.5
-381 0.5
382 0.5
-382 0.5
383 0.5
-383 0.5
384 0.5
-384 0.5
385 0.887831
-385 0.112169
386 0.227002
-386 0.772998
387 0.220347
-387 0.779653
388 0.65281
-388 0.34719
389 0.317347
-389 0.682653
390 0.185936
-390 0.814064
391 0.983237
-391 0.016763
392 0.411458
-392 0.588542
393 0.169128
-393 0.830872
394 0.180224
-394 0.819776
395 0.457156
-395 0.542844
396 0.80232
-396 0.19768
397 0.553925
-397 0.446075
398 0.71534
-398 0.28466
399 0.5
-399 0.5
400 0.5
-400 0.5
401 0.5
-401 0.5
402 0.5
-402 0.5
403 0.5
-403 0.5
404 0.5
-404 0.5
405 0.5
-405 0.5
406 0.5
-406 0.5
407 0.5
-407 0.5
408 0.5
-408 0.5
409 0.5
-409 0.5
410 0.5
-410 0.5
411 0.182476
-411 0.817524
412 0.68374
-412 0.31626
413 0.417434
-413 0.582566
414 0.499823
-414 0.500177
415 0.253953
-415 0.746047
416 0.48306
-416 0.51694
417 0.281135
-417 0.718865
418 0.423081
-418 0.576919
419 0.5
-419 0.5
420 0.5
-420 0.5
421 0.5
-421 0.5
422 0.5
-422 0.5
423 0.5
-423 0.5
424 0.5
-424 0.5
425 0.5
-425 0.5
426 0.5
-426 0.5
427 0.646639
-427 0.353361
428 0.928325
-428 0.071675
429 0.189845
-429 0.810155
430 0.282712
-430 0.717288
431 0.5
-431 0.5
432 0.5
-432 0.5
433 0.5
-433 0.5
434 0.5
-434 0.5
435 0.892313
-435 0.107687
436 0.005409
-436 0.994591
437 0.391598
-437 0.608402
438 0.392136
-438 0.607864
439 0.645551
-439 0.354449
440 0.875196
-440 0.124804
441 0.5
-441 0.5
442 0.5
-442 0.5
443 0.5
-443 0.5
444 0.5
-444 0.5
445 0.5
-445 0.5
446 0.5
-446 0.5
447 0.5
-447 0.5
448 0.5
-448 0.5
449 0.5
-449 0.5
450 0.5
-450 0.5
451 0.5
-451 0.5
452 0.5
-452 0.5
453 0.5
-453 0.5
454 0.5
-454 0.5
455 0.5
-455 0.5
456 0.5
-456 0.5
457 0.899539
-457 0.100461
458 0.743946
-458 0.256054
459 0.732576
-459 0.267424
460 0.791852
-460 0.208148
461 0.5
-461 0.5
462 0.5
-462 0.5
463 0.5
-463 0.5
464 0.5
-464 0.5
465 0.5
-465 0.5
466 0.5
-466 0.5
467 0.5
-467 0.5
468 0.5
-468 0.5
469 0.601749
-469 0.398251
470 0.48521
-470 0.51479
471 0.331674
-471 0.668326
472 0.226996
-472 0.773004
473 0.5
-473 0.5
474 0.5
-474 0.5
475 0.5
-475 0.5
476 0.5
-476 0.5
477 0.5
-477 0.5
478 0.5
-478 0.5
479 0.5
-479 0.5
480 0.5
-480 0.5
481 0.5
-481 0.5
482 0.5
-482 0.5
483 0.5
-483 0.5
484 0.5
-484 0.5
485 0.5
-485 0.5
486 0.5
-486 0.5
487 0.5
-487 0.5
488 0.5
-488 0.5
489 0.5
-489 0.5
490 0.5
-490 0.5
491 0.5
-491 0.5
492 0.5
-492 0.5
493 0.5
-493 0.5
494 0.5
-494 0.5
495 0.94359
-495 0.05641
496 0.818153
-496 0.181847
497 0.875936
-497 0.124064
498 0.909916
-498 0.090084
499 0.435827
-499 0.564173
500 0.157533
-500 0.842467
501 0.046351
-501 0.953649
502 0.703304
-502 0.296696
503 0.647796
-503 0.352204
504 0.160482
-504 0.839518
505 0.203051
-505 0.796949
506 0.007654
-506 0.992346
507 0.5
-507 0.5
508 0.5
-508 0.5
509 0.5
-509 0.5
510 0.5
-510 0.5
511 0.5
-511 0.5
512 0.5
-512 0.5
513 0.5
-513 0.5
514 0.5
-514 0.5
515 0.5
-515 0.5
516 0.5
-516 0.5
517 0.5
-517 0.5
518 0.5
-518 0.5
519 0.574394
-519 0.425606
520 0.683222
-520 0.316778
521 0.788786
-521 0.211214
522 0.450329
-522 0.549671
523 0.5
-523 0.5
524 0.5
-524 0.5
525 0.5
-525 0.5
526 0.5
-526 0.5
527 0.5
-527 0.5
528 0.5
-528 0.5
529 0.5
-529 0.5
530 0.5
-530 0.5
531 0.5
-531 0.5
532 0.5
-532 0.5
533 0.5
-533 0.5
534 0.5
-534 0.5
535 0.5
-535 0.5
536 0.5
-536 0.5
537 0.5
-537 0.5
538 0.5
-538 0.5
539 0.5
-539 0.5
540 0.5
-540 0.5
541 0.5
-541 0.5
542 0.5
-542 0.5
543 0.5
-543 0.5
544 0.5
-544 0.5
545 0.5
-545 0.5
546 0.5
-546 0.5
547 0.5
-547 0.5
548 0.5
-548 0.5
549 0.5
-549 0.5
550 0.5
-550 0.5
551 0.5
-551 0.5
552 0.5
-552 0.5
553 0.5
-553 0.5
554 0.5
-554 0.5
555 0.5
-555 0.5
556 0.5
-556 0.5
557 0.5
-557 0.5
558 0.5
-558 0.5
559 0.5
-559 0.5
560 0.5
-560 0.5
561 0.5
-561 0.5
562 0.5
-562 0.5
563 0.5
-563 0.5
564 0.5
-564 0.5
565 0.5
-565 0.5
566 0.5
-566 0.5
567 0.5
-567 0.5
568 0.5
-568 0.5
569 0.603923
-569 0.396077
570 0.228568
-570 0.771432
571 0.182289
-571 0.817711
572 0.919035
-572 0.080965
573 0.5
-573 0.5
574 0.5
-574 0.5
575 0.5
-575 0.5
576 0.5
-576 0.5
577 0.5
-577 0.5
578 0.5
-578 0.5
579 0.5
-579 0.5
580 0.5
-580 0.5
581 0.5
-581 0.5
582 0.5
-582 0.5
583 0.5
-583 0.5
584 0.5
-584 0.5
585 0.5
-585 0.5
586 0.5
-586 0.5
587 0.5
-587 0.5
588 0.5
-588 0.5
589 0.5
-589 0.5
590 0.5
-590 0.5
591 0.5
-591 0.5
592 0.5
-592 0.5
593 0.5
-593 0.5
594 0.5
-594 0.5
595 0.5
-595 0.5
596 0.5
-596 0.5
597 0.5
-597 0.5
598 0.5
-598 0.5
599 0.5
-599 0.5
600 0.5
-600 0.5
601 0.5
-601 0.5
602 0.5
-602 0.5
603 0.5
-603 0.5
604 0.5
-604 0.5
605 0.5
-605 0.5
606 0.5
-606 0.5
607 0.5
-607 0.5
608 0.5
-608 0.5
609 0.5
-609 0.5
610 0.5
-610 0.5
611 0.5
-611 0.5
612 0.5
-612 0.5
613 0.5
-613 0.5
614 0.5
-614 0.5
615 0.5
-615 0.5
616 0.5
-616 0.5
617 0.5
-617 0.5
618 0.5
-618 0.5
619 0.922067
-619 0.077933
620 0.8667
-620 0.1333
621 0.363395
-621 0.636605
622 0.231988
-622 0.768012
623 0.5
-623 0.5
624 0.5
-624 0.5
625 0.5
-625 0.5
626 0.5
-626 0.5
627 0.5
-627 0.5
628 0.5
-628 0.5
629 0.5
-629 0.5
630 0.5
-630 0.5
631 0.766262
-631 0.233738
632 0.508024
-632 0.491976
633 0.159805
-633 0.840195
634 0.146103
-634 0.853897
635 0.5
-635 0.5
636 0.5
-636 0.5
637 0.5
-637 0.5
638 0.5
-638 0.5
639 0.5
-639 0.5
640 0.5
-640 0.5
641 0.5
-641 0.5
642 0.5
-642 0.5
643 0.5
-643 0.5
644 0.5
-644 0.5
645 0.5
-645 0.5
646 0.5
-646 0.5
647 0.5
-647 0.5
648 0.5
-648 0.5
649 0.5
-649 0.5
650 0.5
-650 0.5
651 0.5
-651 0.5
652 0.5
-652 0.5
653 0.5
-653 0.5
654 0.5
-654 0.5
655 0.5
-655 0.5
656 0.5
-656 0.5
657 0.5
-657 0.5
658 0.5
-658 0.5
659 0.5
-659 0.5
660 0.5
-660 0.5
661 0.5
-661 0.5
662 0.5
-662 0.5
663 0.5
-663 0.5
664 0.5
-664 0.5
665 0.5
-665 0.5
666 0.5
-666 0.5
667 0.5
-667 0.5
668 0.5
-668 0.5
669 0.5
-669 0.5
670 0.5
-670 0.5
671 0.5
-671 0.5
672 0.5
-672 0.5
673 0.5
-673 0.5
674 0.5
-674 0.5
675 0.5
-675 0.5
676 0.5
-676 0.5
677 0.5
-677 0.5
678 0.5
-678 0.5
679 0.5
-679 0.5
680 0.5
-680 0.5
681 0.5
-681 0.5
682 0.5
-682 0.5
683 0.5
-683 0.5
684 0.5
-684 0.5
685 0.5
-685 0.5
686 0.5
-686 0.5
687 0.5
-687 0.5
688 0.5
-688 0.5
689 0.5
-689 0.5
690 0.5
-690 0.5
691 0.5
-691 0.5
692 0.5
-692 0.5
693 0.5
-693 0.5
694 0.5
-694 0.5
695 0.5
-695 0.5
696 0.5
-696 0.5
697 0.459493
-697 0.540507
698 0.268709
-698 0.731291
699 0.863687
-699 0.136313
700 0.981852
-700 0.018148
701 0.5
-701 0.5
702 0.5
-702 0.5
703 0.5
-703 0.5
704 0.5
-704 0.5
705 0.5
-705 0.5
706 0.5
-706 0.5
707 0.5
-707 0.5
708 0.5
-708 0.5
709 0.5
-709 0.5
710 0.5
-710 0.5
711 0.5
-711 0.5
712 0.5
-712 0.5
713 0.5
-713 0.5
714 0.5
-714 0.5
715 0.5
-715 0.5
716 0.5
-716 0.5
717 0.5
-717 0.5
718 0.5
-718 0.5
719 0.5
-719 0.5
720 0.5
-720 0.5
721 0.5
-721 0.5
722 0.5
-722 0.5
723 0.837534
-723 0.162466
724 0.293848
-724 0.706152
725 0.441183
-725 0.558817
726 0.824144
-726 0.175856
727 0.198402
-727 0.801598
728 0.06417
-728 0.93583
729 0.927364
-729 0.072636
730 0.776278
-730 0.223722
731 0.919522
-731 0.080478
732 0.517275
-732 0.482725
733 0.918743
-733 0.081257
734 0.402904
-734 0.597096
735 0.023227
-735 0.976773
736 0.572544
-736 0.427456
737 0.837686
-737 0.162314
738 0.43108
-738 0.56892
739 0.5
-739 0.5
740 0.5
-740 0.5
741 0.5
-741 0.5
742 0.5
-742 0.5
743 0.5
-743 0.5
744 0.5
-744 0.5
745 0.5
-745 0.5
746 0.5
-746 0.5
747 0.380859
-747 0.619141
748 0.300862
-748 0.699138
749 0.227646
-749 0.772354
750 0.822042
-750 0.177958
751 0.5
-751 0.5
752 0.5
-752 0.5
753 0.5
-753 0.5
754 0.5
-754 0.5
755 0.14155
-755 0.85845
756 0.87439
-756 0.12561
757 0.313997
-757 0.686003
758 0.060293
-758 0.939707
759 0.5
-759 0.5
760 0.5
-760 0.5
761 0.5
-761 0.5
762 0.5
-762 0.5
763 0.5
-763 0.5
764 0.5
-764 0.5
765 0.5
-765 0.5
766 0.5
-766 0.5
767 0.5
-767 0.5
768 0.5
-768 0.5
769 0.810608
-769 0.189392
770 0.906436
-770 0.093564
771 0.263475
-771 0.736525
772 0.744406
-772 0.255594
773 0.5
-773 0.5
774 0.5
-774 0.5
775 0.5
-775 0.5
776 0.5
-776 0.5
777 0.129781
-777 0.870219
778 0.878519
-778 0.121481
779 0.954424
-779 0.045576
780 0.926503
-780 0.073497
781 0.5
-781 0.5
782 0.5
-782 0.5
783 0.5
-783 0.5
784 0.5
-784 0.5
785 0.5
-785 0.5
786 0.5
-786 0.5
787 0.5
-787 0.5
788 0.5
-788 0.5
789 0.039593
-789 0.960407
790 0.565786
-790 0.434214
791 0.129494
-791 0.870506
792 0.154497
-792 0.845503
793 0.929641
-793 0.070359
794 0.965105
-794 0.034895
795 0.866556
-795 0.133444
796 0.193115
-796 0.806885
797 0.5
-797 0.5
798 0.5
-798 0.5
799 0.5
-799 0.5
800 0.5
-800 0.5
801 0.5
-801 0.5
802 0.5
-802 0.5
803 0.5
-803 0.5
804 0.5
-804 0.5
805 0.5
-805 0.5
806 0.5
-806 0.5
807 0.5
-807 0.5
808 0.5
-808 0.5
809 0.5
-809 0.5
810 0.5
-810 0.5
811 0.5
-811 0.5
812 0.5
-812 0.5
813 0.5
-813 0.5
814 0.5
-814 0.5
815 0.5
-815 0.5
816 0.5
-816 0.5
817 0.522542
-817 0.477458
818 0.897084
-818 0.102916
819 0.5
-819 0.5
820 0.5
-820 0.5
821 0.5
-821 0.5
822 0.5
-822 0.5
823 0.5
-823 0.5
824 0.5
-824 0.5
825 0.5
-825 0.5
826 0.5
-826 0.5
827 0.5
-827 0.5
828 0.5
-828 0.5
829 0.5
-829 0.5
830 0.5
-830 0.5
831 0.5
-831 0.5
832 0.5
-832 0.5
833 0.5
-833 0.5
834 0.5
-834 0.5
835 0.5
-835 0.5
836 0.5
-836 0.5
837 0.5
-837 0.5
838 0.5
-838 0.5
839 0.5
-839 0.5
840 0.5
-840 0.5
841 0.5
-841 0.5
842 0.5
-842 0.5
843 0.162571
-843 0.837429
844 0.460574
-844 0.539426
845 0.38795
-845 0.61205
846 0.976997
-846 0.023003
847 0.67611
-847 0.32389
848 0.054613
-848 0.945387
849 0.853587
-849 0.146413
850 0.64539
-850 0.35461
851 0.5
-851 0.5
852 0.5
-852 0.5
853 0.5
-853 0.5
854 0.5
-854 0.5
855 0.5
-855 0.5
856 0.5
-856 0.5
857 0.5
-857 0.5
858 0.5
-858 0.5
859 0.5
-859 0.5
860 0.5
-860 0.5
861 0.5
-861 0.5
862 0.5
-862 0.5
863 0.5
-863 0.5
864 0.5
-864 0.5
865 0.5
-865 0.5
866 0.5
-866 0.5
867 0.5
-867 0.5
868 0.5
-868 0.5
869 0.5
-869 0.5
870 0.5
-870 0.5
871 0.5
-871 0.5
872 0.5
-872 0.5
873 0.589959
-873 0.410041
874 0.96973
-874 0.03027
875 0.604389
-875 0.395611
876 0.115158
-876 0.884842
877 0.5
-877 0.5
878 0.5
-878 0.5
879 0.5
-879 0.5
880 0.5
-880 0.5
881 0.5
-881 0.5
882 0.5
-882 0.5
883 0.5
-883 0.5
884 0.5
-884 0.5
885 0.5
-885 0.5
886 0.5
-886 0.5
887 0.5
-887 0.5
888 0.5
-888 0.5
889 0.989728
-889 0.010272
890 0.817845
-890 0.182155
891 0.250763
-891 0.749237
892 0.711613
-892 0.288387
893 0.5
-893 0.5
894 0.5
-894 0.5
895 0.5
-895 0.5
896 0.5
-896 0.5
897 0.5
-897 0.5
898 0.5
-898 0.5
899 0.5
-899 0.5
900 0.5
-900 0.5
901 0.5
-901 0.5
902 0.5
-902 0.5
903 0.5
-903 0.5
904 0.5
-904 0.5
905 0.5
-905 0.5
906 0.5
-906 0.5
907 0.5
-907 0.5
908 0.5
-908 0.5
909 0.248581
-909 0.751419
910 0.006709
-910 0.993291
911 0.991646
-911 0.008354
912 0.952843
-912 0.047157
913 0.981374
-913 0.018626
914 0.770689
-914 0.229311
915 0.112457
-915 0.887543
916 0.692986
-916 0.307014
917 0.5
-917 0.5
918 0.5
-918 0.5
919 0.5
-919 0.5
920 0.5
-920 0.5
921 0.5
-921 0.5
922 0.5
-922 0.5
923 0.5
-923 0.5
924 0.5
-924 0.5
