1 0.706746
-1 0.293254
2 1.0
-2 1.0
3 1.0
-3 1.0
4 1.0
-4 1.0
5 1.0
-5 1.0
6 1.0
-6 1.0
7 1.0
-7 1.0
8 1.0
-8 1.0
9 1.0
-9 1.0
10 1.0
-10 1.0
11 1.0
-11 1.0
12 1.0
-12 1.0
13 1.0
-13 1.0
14 1.0
-14 1.0
15 1.0
-15 1.0
16 1.0
-16 1.0
17 1.0
-17 1.0
18 1.0
-18 1.0
19 1.0
-19 1.0
20 1.0
-20 1.0
21 1.0
-21 1.0
22 1.0
-22 1.0
23 1.0
-23 1.0
24 1.0
-24 1.0
25 1.0
-25 1.0
26 1.0
-26 1.0
27 1.0
-27 1.0
28 1.0
-28 1.0
29 1.0
-29 1.0
30 1.0
-30 1.0
31 1.0
-31 1.0
32 1.0
-32 1.0
33 1.0
-33 1.0
34 1.0
-34 1.0
35 1.0
-35 1.0
36 1.0
-36 1.0
37 1.0
-37 1.0
38 1.0
-38 1.0
39 1.0
-39 1.0
40 1.0
-40 1.0
41 1.0
-41 1.0
42 1.0
-42 1.0
43 1.0
-43 1.0
44 1.0
-44 1.0
45 1.0
-45 1.0
46 1.0
-46 1.0
47 1.0
-47 1.0
48 1.0
-48 1.0
49 1.0
-49 1.0
50 1.0
-50 1.0
51 1.0
-51 1.0
52 1.0
-52 1.0
53 1.0
-53 1.0
54 1.0
-54 1.0
55 1.0
-55 1.0
56 1.0
-56 1.0
57 1.0
-57 1.0
58 1.0
-58 1.0
59 1.0
-59 1.0
60 1.0
-60 1.0
61 1.0
-61 1.0
62 1.0
-62 1.0
63 1.0
-63 1.0
64 1.0
-64 1.0
65 1.0
-65 1.0
66 1.0
-66 1.0
67 1.0
-67 1.0
68 1.0
-68 1.0
69 1.0
-69 1.0
70 1.0
-70 1.0
71 1.0
-71 1.0
72 1.0
-72 1.0
73 1.0
-73 1.0
74 1.0
-74 1.0
75 1.0
-75 1.0
76 1.0
-76 1.0
77 1.0
-77 1.0
78 1.0
-78 1.0
79 1.0
-79 1.0
80 1.0
-80 1.0
81 1.0
-81 1.0
82 1.0
-82 1.0
83 1.0
-83 1.0
84 1.0
-84 1.0
85 1.0
-85 1.0
86 1.0
-86 1.0
87 1.0
-87 1.0
88 1.0
-88 1.0
89 1.0
-89 1.0
90 1.0
-90 1.0
91 1.0
-91 1.0
92 1.0
-92 1.0
93 1.0
-93 1.0
94 1.0
-94 1.0
95 1.0
-95 1.0
96 1.0
-96 1.0
97 1.0
-97 1.0
98 1.0
-98 1.0
99 1.0
-99 1.0
100 1.0
-100 1.0
101 1.0
-101 1.0
102 1.0
-102 1.0
103 1.0
-103 1.0
104 1.0
-104 1.0
105 1.0
-105 1.0
106 1.0
-106 1.0
107 1.0
-107 1.0
108 1.0
-108 1.0
109 1.0
-109 1.0
110 1.0
-110 1.0
111 1.0
-111 1.0
112 1.0
-112 1.0
113 1.0
-113 1.0
114 1.0
-114 1.0
115 1.0
-115 1.0
116 1.0
-116 1.0
117 1.0
-117 1.0
118 1.0
-118 1.0
119 1.0
-119 1.0
120 1.0
-120 1.0
121 1.0
-121 1.0
122 1.0
-122 1.0
123 1.0
-123 1.0
124 1.0
-124 1.0
125 1.0
-125 1.0
126 1.0
-126 1.0
127 1.0
-127 1.0
128 1.0
-128 1.0
129 1.0
-129 1.0
130 1.0
-130 1.0
131 1.0
-131 1.0
132 1.0
-132 1.0
133 1.0
-133 1.0
134 1.0
-134 1.0
135 1.0
-135 1.0
136 1.0
-136 1.0
137 1.0
-137 1.0
138 1.0
-138 1.0
139 1.0
-139 1.0
140 1.0
-140 1.0
141 1.0
-141 1.0
142 1.0
-142 1.0
143 1.0
-143 1.0
144 1.0
-144 1.0
145 0.5
-145 0.5
146 0.5
-146 0.5
147 0.5
-147 0.5
148 0.5
-148 0.5
149 0.5
-149 0.5
150 0.5
-150 0.5
151 0.5
-151 0.5
152 0.5
-152 0.5
153 0.5
-153 0.5
154 0.5
-154 0.5
155 0.868587
-155 0.131413
156 0.347538
-156 0.652462
157 0.5
-157 0.5
158 0.5
-158 0.5
159 0.5
-159 0.5
160 0.5
-160 0.5
161 0.5
-161 0.5
162 0.5
-162 0.5
163 0.306572
-163 0.693428
164 0.710944
-164 0.289056
165 0.5
-165 0.5
166 0.5
-166 0.5
167 0.5
-167 0.5
168 0.5
-168 0.5
169 0.5
-169 0.5
170 0.5
-170 0.5
171 0.5
-171 0.5
172 0.5
-172 0.5
173 0.749631
-173 0.250369
174 0.307186
-174 0.692814
175 0.65759
-175 0.34241
176 0.792007
-176 0.207993
177 0.5
-177 0.5
178 0.5
-178 0.5
179 0.5
-179 0.5
180 0.5
-180 0.5
181 0.5
-181 0.5
182 0.5
-182 0.5
183 0.5
-183 0.5
184 0.5
-184 0.5
185 0.5
-185 0.5
186 0.5
-186 0.5
187 0.5
-187 0.5
188 0.5
-188 0.5
189 0.5
-189 0.5
190 0.5
-190 0.5
191 0.5
-191 0.5
192 0.5
-192 0.5
193 0.5
-193 0.5
194 0.5
-194 0.5
195 0.5
-195 0.5
196 0.5
-196 0.5
197 0.5
-197 0.5
198 0.5
-198 0.5
199 0.5
-199 0.5
200 0.5
-200 0.5
201 0.5
-201 0.5
202 0.5
-202 0.5
203 0.5
-203 0.5
204 0.5
-204 0.5
205 0.773115
-205 0.226885
206 0.611044
-206 0.388956
207 0.375855
-207 0.624145
208 0.425495
-208 0.574505
209 0.5
-209 0.5
210 0.5
-210 0.5
211 0.5
-211 0.5
212 0.5
-212 0.5
213 0.5
-213 0.5
214 0.5
-214 0.5
215 0.322296
-215 0.677704
216 0.349477
-216 0.650523
217 0.274451
-217 0.725549
218 0.369574
-218 0.630426
219 0.5
-219 0.5
220 0.5
-220 0.5
221 0.5
-221 0.5
222 0.5
-222 0.5
223 0.5
-223 0.5
224 0.5
-224 0.5
225 0.5
-225 0.5
226 0.5
-226 0.5
227 0.483845
-227 0.516155
228 0.19756
-228 0.80244
229 0.784209
-229 0.215791
230 0.25696
-230 0.74304
231 0.160064
-231 0.839936
232 0.682455
-232 0.317545
233 0.471082
-233 0.528918
234 0.724247
-234 0.275753
235 0.5
-235 0.5
236 0.5
-236 0.5
237 0.5
-237 0.5
238 0.5
-238 0.5
239 0.5
-239 0.5
240 0.5
-240 0.5
241 0.5
-241 0.5
242 0.5
-242 0.5
243 0.5
-243 0.5
244 0.5
-244 0.5
245 0.5
-245 0.5
246 0.5
-246 0.5
247 0.5
-247 0.5
248 0.5
-248 0.5
249 0.5
-249 0.5
250 0.5
-250 0.5
251 0.314445
-251 0.685555
252 0.08419
-252 0.91581
253 0.555004
-253 0.444996
254 0.571405
-254 0.428595
255 0.715068
-255 0.284932
256 0.253861
-256 0.746139
257 0.363876
-257 0.636124
258 0.439315
-258 0.560685
259 0.5
-259 0.5
260 0.5
-260 0.5
261 0.5
-261 0.5
262 0.5
-262 0.5
263 0.5
-263 0.5
264 0.5
-264 0.5
265 0.5
-265 0.5
266 0.5
-266 0.5
267 0.5
-267 0.5
268 0.5
-268 0.5
269 0.5
-269 0.5
270 0.5
-270 0.5
271 0.5
-271 0.5
272 0.5
-272 0.5
273 0.5
-273 0.5
274 0.5
-274 0.5
275 0.5
-275 0.5
276 0.5
-276 0.5
277 0.5
-277 0.5
278 0.5
-278 0.5
279 0.5
-279 0.5
280 0.5
-280 0.5
281 0.5
-281 0.5
282 0.5
-282 0.5
283 0.5
-283 0.5
284 0.5
-284 0.5
285 0.5
-285 0.5
286 0.5
-286 0.5
287 0.5
-287 0.5
288 0.5
-288 0.5
289 0.5
-289 0.5
290 0.5
-290 0.5
291 0.5
-291 0.5
292 0.5
-292 0.5
293 0.37632
-293 0.62368
294 0.615619
-294 0.384381
295 0.334177
-295 0.665823
296 0.228233
-296 0.771767
297 0.5
-297 0.5
298 0.5
-298 0.5
299 0.5
-299 0.5
300 0.5
-300 0.5
301 0.5
-301 0.5
302 0.5
-302 0.5
303 0.5
-303 0.5
304 0.5
-304 0.5
305 0.008991
-305 0.991009
306 0.178379
-306 0.821621
307 0.5
-307 0.5
308 0.5
-308 0.5
309 0.5
-309 0.5
310 0.5
-310 0.5
311 0.5
-311 0.5
312 0.5
-312 0.5
313 0.5
-313 0.5
314 0.5
-314 0.5
315 0.5
-315 0.5
316 0.5
-316 0.5
317 0.5
-317 0.5
318 0.5
-318 0.5
319 0.5
-319 0.5
320 0.5
-320 0.5
321 0.5
-321 0.5
322 0.5
-322 0.5
323 0.5
-323 0.5
324 0.5
-324 0.5
325 0.5
-325 0.5
326 0.5
-326 0.5
327 0.5
-327 0.5
328 0.5
-328 0.5
329 0.5
-329 0.5
330 0.5
-330 0.5
331 0.5
-331 0.5
332 0.5
-332 0.5
333 0.5
-333 0.5
334 0.5
-334 0.5
335 0.5
-335 0.5
336 0.5
-336 0.5
337 0.5
-337 0.5
338 0.5
-338 0.5
339 0.5
-339 0.5
340 0.5
-340 0.5
341 0.5
-341 0.5
342 0.5
-342 0.5
343 0.5
-343 0.5
344 0.5
-344 0.5
345 0.5
-345 0.5
346 0.5
-346 0.5
347 0.5
-347 0.5
348 0.5
-348 0.5
349 0.5
-349 0.5
350 0.5
-350 0.5
351 0.5
-351 0.5
352 0.5
-352 0.5
353 0.973289
-353 0.026711
354 0.887549
-354 0.112451
355 0.045025
-355 0.954975
356 0.025312
-356 0.974688
357 0.474419
-357 0.525581
358 0.545204
-358 0.454796
359 0.845585
-359 0.154415
360 0.899491
-360 0.100509
361 0.5
-361 0.5
362 0.5
-362 0.5
363 0.5
-363 0.5
364 0.5
-364 0.5
365 0.5
-365 0.5
366 0.5
-366 0.5
367 0.5
-367 0.5
368 0.5
-368 0.5
369 0.633016
-369 0.366984
370 0.63165
-370 0.36835
371 0.61027
-371 0.38973
372 0.165132
-372 0.834868
373 0.5
-373 0.5
374 0.5
-374 0.5
375 0.5
-375 0.5
376 0.5
-376 0.5
377 0.5
-377 0.5
378 0.5
-378 0.5
379 0.5
-379 0.5
380 0.5
-380 0.5
381 0.1291
-381 0.8709
382 0.060799
-382 0.939201
383 0.844917
-383 0.155083
384 0.662569
-384 0.337431
385 0.5
-385 0.5
386 0.5
-386 0.5
387 0.5
-387 0.5
388 0.5
-388 0.5
389 0.5
-389 0.5
390 0.5
-390 0.5
391 0.5
-391 0.5
392 0.5
-392 0.5
393 0.5
-393 0.5
394 0.5
-394 0.5
395 0.5
-395 0.5
396 0.5
-396 0.5
397 0.366103
-397 0.633897
398 0.467243
-398 0.532757
399 0.5
-399 0.5
400 0.5
-400 0.5
401 0.5
-401 0.5
402 0.5
-402 0.5
403 0.5
-403 0.5
404 0.5
-404 0.5
405 0.5
-405 0.5
406 0.5
-406 0.5
407 0.5
-407 0.5
408 0.5
-408 0.5
409 0.5
-409 0.5
410 0.5
-410 0.5
411 0.5
-411 0.5
412 0.5
-412 0.5
413 0.5
-413 0.5
414 0.5
-414 0.5
415 0.438109
-415 0.561891
416 0.226169
-416 0.773831
417 0.517757
-417 0.482243
418 0.079865
-418 0.920135
419 0.5
-419 0.5
420 0.5
-420 0.5
421 0.5
-421 0.5
422 0.5
-422 0.5
423 0.5
-423 0.5
424 0.5
-424 0.5
425 0.5
-425 0.5
426 0.5
-426 0.5
427 0.5
-427 0.5
428 0.5
-428 0.5
429 0.5
-429 0.5
430 0.5
-430 0.5
431 0.017593
-431 0.982407
432 0.075685
-432 0.924315
433 0.476587
-433 0.523413
434 0.080761
-434 0.919239
435 0.5
-435 0.5
436 0.5
-436 0.5
437 0.5
-437 0.5
438 0.5
-438 0.5
439 0.5
-439 0.5
440 0.5
-440 0.5
441 0.5
-441 0.5
442 0.5
-442 0.5
443 0.5
-443 0.5
444 0.5
-444 0.5
445 0.5
-445 0.5
446 0.5
-446 0.5
447 0.5
-447 0.5
448 0.5
-448 0.5
449 0.5
-449 0.5
450 0.5
-450 0.5
451 0.5
-451 0.5
452 0.5
-452 0.5
453 0.5
-453 0.5
454 0.5
-454 0.5
455 0.5
-455 0.5
456 0.5
-456 0.5
457 0.5
-457 0.5
458 0.5
-458 0.5
459 0.5
-459 0.5
460 0.5
-460 0.5
461 0.5
-461 0.5
462 0.5
-462 0.5
463 0.5
-463 0.5
464 0.5
-464 0.5
465 0.899641
-465 0.100359
466 0.140981
-466 0.859019
467 0.364364
-467 0.635636
468 0.470921
-468 0.529079
469 0.5
-469 0.5
470 0.5
-470 0.5
471 0.5
-471 0.5
472 0.5
-472 0.5
473 0.5
-473 0.5
474 0.5
-474 0.5
475 0.5
-475 0.5
476 0.5
-476 0.5
477 0.5
-477 0.5
478 0.5
-478 0.5
479 0.5
-479 0.5
480 0.5
-480 0.5
481 0.5
-481 0.5
482 0.5
-482 0.5
483 0.5
-483 0.5
484 0.5
-484 0.5
485 0.5
-485 0.5
486 0.5
-486 0.5
487 0.5
-487 0.5
488 0.5
-488 0.5
489 0.5
-489 0.5
490 0.5
-490 0.5
491 0.663055
-491 0.336945
492 0.365309
-492 0.634691
493 0.613222
-493 0.386778
494 0.502063
-494 0.497937
495 0.5
-495 0.5
496 0.5
-496 0.5
497 0.5
-497 0.5
498 0.5
-498 0.5
499 0.74886
-499 0.25114
500 0.552372
-500 0.447628
501 0.344042
-501 0.655958
502 0.164702
-502 0.835298
503 0.383287
-503 0.616713
504 0.661946
-504 0.338054
505 0.113405
-505 0.886595
506 0.106639
-506 0.893361
507 0.5
-507 0.5
508 0.5
-508 0.5
509 0.5
-509 0.5
510 0.5
-510 0.5
511 0.5
-511 0.5
512 0.5
-512 0.5
513 0.5
-513 0.5
514 0.5
-514 0.5
515 0.5
-515 0.5
516 0.5
-516 0.5
517 0.5
-517 0.5
518 0.5
-518 0.5
519 0.5
-519 0.5
520 0.5
-520 0.5
521 0.5
-521 0.5
522 0.5
-522 0.5
523 0.5
-523 0.5
524 0.5
-524 0.5
525 0.5
-525 0.5
526 0.5
-526 0.5
527 0.132208
-527 0.867792
528 0.873869
-528 0.126131
529 0.667166
-529 0.332834
530 0.748845
-530 0.251155
531 0.5
-531 0.5
532 0.5
-532 0.5
533 0.5
-533 0.5
534 0.5
-534 0.5
535 0.395434
-535 0.604566
536 0.923126
-536 0.076874
537 0.5
-537 0.5
538 0.5
-538 0.5
539 0.5
-539 0.5
540 0.5
-540 0.5
541 0.5
-541 0.5
542 0.5
-542 0.5
543 0.5
-543 0.5
544 0.5
-544 0.5
545 0.5
-545 0.5
546 0.5
-546 0.5
547 0.5
-547 0.5
548 0.5
-548 0.5
549 0.65276
-549 0.34724
550 0.77965
-550 0.22035
551 0.130484
-551 0.869516
552 0.526629
-552 0.473371
553 0.5
-553 0.5
554 0.5
-554 0.5
555 0.5
-555 0.5
556 0.5
-556 0.5
557 0.5
-557 0.5
558 0.5
-558 0.5
559 0.5
-559 0.5
560 0.5
-560 0.5
561 0.5
-561 0.5
562 0.5
-562 0.5
563 0.5
-563 0.5
564 0.5
-564 0.5
565 0.499329
-565 0.500671
566 0.973192
-566 0.026808
567 0.31405
-567 0.68595
568 0.917611
-568 0.082389
569 0.5
-569 0.5
570 0.5
-570 0.5
571 0.5
-571 0.5
572 0.5
-572 0.5
573 0.5
-573 0.5
574 0.5
-574 0.5
575 0.5
-575 0.5
576 0.5
-576 0.5
577 0.5
-577 0.5
578 0.5
-578 0.5
579 0.5
-579 0.5
580 0.5
-580 0.5
581 0.932482
-581 0.067518
582 0.134169
-582 0.865831
583 0.275294
-583 0.724706
584 0.261248
-584 0.738752
585 0.473177
-585 0.526823
586 0.730821
-586 0.269179
587 0.5
-587 0.5
588 0.5
-588 0.5
589 0.5
-589 0.5
590 0.5
-590 0.5
591 0.5
-591 0.5
592 0.5
-592 0.5
593 0.5
-593 0.5
594 0.5
-594 0.5
595 0.25777
-595 0.74223
596 0.510326
-596 0.489674
597 0.964431
-597 0.035569
598 0.085434
-598 0.914566
599 0.5
-599 0.5
600 0.5
-600 0.5
601 0.5
-601 0.5
602 0.5
-602 0.5
603 0.5
-603 0.5
604 0.5
-604 0.5
605 0.5
-605 0.5
606 0.5
-606 0.5
607 0.913253
-607 0.086747
608 0.325563
-608 0.674437
609 0.622579
-609 0.377421
610 0.082315
-610 0.917685
611 0.5
-611 0.5
612 0.5
-612 0.5
613 0.5
-613 0.5
614 0.5
-614 0.5
615 0.5
-615 0.5
616 0.5
-616 0.5
617 0.5
-617 0.5
618 0.5
-618 0.5
619 0.5
-619 0.5
620 0.5
-620 0.5
621 0.5
-621 0.5
622 0.5
-622 0.5
623 0.947592
-623 0.052408
624 0.782475
-624 0.217525
625 0.032808
-625 0.967191
626 0.027671
-626 0.972329
627 0.5
-627 0.5
628 0.5
-628 0.5
629 0.082919
-629 0.917081
630 0.202651
-630 0.797349
631 0.776627
-631 0.223373
632 0.974677
-632 0.025323
633 0.5
-633 0.5
634 0.5
-634 0.5
635 0.5
-635 0.5
636 0.5
-636 0.5
637 0.5
-637 0.5
638 0.5
-638 0.5
639 0.5
-639 0.5
640 0.5
-640 0.5
641 0.057959
-641 0.942041
642 0.155888
-642 0.844112
643 0.692245
-643 0.307755
644 0.561329
-644 0.438671
645 0.5
-645 0.5
646 0.5
-646 0.5
647 0.5
-647 0.5
648 0.5
-648 0.5
649 0.833025
-649 0.166975
650 0.941239
-650 0.058761
651 0.004392
-651 0.995608
652 0.299482
-652 0.700518
653 0.5
-653 0.5
654 0.5
-654 0.5
655 0.5
-655 0.5
656 0.5
-656 0.5
657 0.5
-657 0.5
658 0.5
-658 0.5
659 0.5
-659 0.5
660 0.5
-660 0.5
661 0.5
-661 0.5
662 0.5
-662 0.5
663 0.5
-663 0.5
664 0.5
-664 0.5
665 0.394658
-665 0.605342
666 0.912752
-666 0.087248
667 0.096377
-667 0.903623
668 0.086903
-668 0.913097
669 0.5
-669 0.5
670 0.5
-670 0.5
671 0.5
-671 0.5
672 0.5
-672 0.5
