1 0.417111
-1 0.582889
2 1.0
-2 1.0
3 1.0
-3 1.0
4 1.0
-4 1.0
5 1.0
-5 1.0
6 1.0
-6 1.0
7 1.0
-7 1.0
8 1.0
-8 1.0
9 1.0
-9 1.0
10 1.0
-10 1.0
11 1.0
-11 1.0
12 1.0
-12 1.0
13 1.0
-13 1.0
14 1.0
-14 1.0
15 1.0
-15 1.0
16 1.0
-16 1.0
17 1.0
-17 1.0
18 1.0
-18 1.0
19 1.0
-19 1.0
20 1.0
-20 1.0
21 1.0
-21 1.0
22 1.0
-22 1.0
23 1.0
-23 1.0
24 1.0
-24 1.0
25 1.0
-25 1.0
26 1.0
-26 1.0
27 1.0
-27 1.0
28 1.0
-28 1.0
29 1.0
-29 1.0
30 1.0
-30 1.0
31 1.0
-31 1.0
32 1.0
-32 1.0
33 1.0
-33 1.0
34 1.0
-34 1.0
35 1.0
-35 1.0
36 1.0
-36 1.0
37 1.0
-37 1.0
38 1.0
-38 1.0
39 1.0
-39 1.0
40 1.0
-40 1.0
41 1.0
-41 1.0
42 1.0
-42 1.0
43 1.0
-43 1.0
44 1.0
-44 1.0
45 1.0
-45 1.0
46 1.0
-46 1.0
47 1.0
-47 1.0
48 1.0
-48 1.0
49 1.0
-49 1.0
50 1.0
-50 1.0
51 1.0
-51 1.0
52 1.0
-52 1.0
53 1.0
-53 1.0
54 1.0
-54 1.0
55 1.0
-55 1.0
56 1.0
-56 1.0
57 1.0
-57 1.0
58 1.0
-58 1.0
59 1.0
-59 1.0
60 1.0
-60 1.0
61 1.0
-61 1.0
62 1.0
-62 1.0
63 1.0
-63 1.0
64 1.0
-64 1.0
65 1.0
-65 1.0
66 1.0
-66 1.0
67 1.0
-67 1.0
68 1.0
-68 1.0
69 1.0
-69 1.0
70 1.0
-70 1.0
71 1.0
-71 1.0
72 1.0
-72 1.0
73 1.0
-73 1.0
74 1.0
-74 1.0
75 1.0
-75 1.0
76 1.0
-76 1.0
77 1.0
-77 1.0
78 1.0
-78 1.0
79 1.0
-79 1.0
80 1.0
-80 1.0
81 1.0
-81 1.0
82 1.0
-82 1.0
83 1.0
-83 1.0
84 1.0
-84 1.0
85 1.0
-85 1.0
86 1.0
-86 1.0
87 1.0
-87 1.0
88 1.0
-88 1.0
89 1.0
-89 1.0
90 1.0
-90 1.0
91 1.0
-91 1.0
92 1.0
-92 1.0
93 1.0
-93 1.0
94 1.0
-94 1.0
95 1.0
-95 1.0
96 1.0
-96 1.0
97 1.0
-97 1.0
98 1.0
-98 1.0
99 1.0
-99 1.0
100 1.0
-100 1.0
101 1.0
-101 1.0
102 1.0
-102 1.0
103 1.0
-103 1.0
104 1.0
-104 1.0
105 1.0
-105 1.0
106 1.0
-106 1.0
107 1.0
-107 1.0
108 1.0
-108 1.0
109 1.0
-109 1.0
110 1.0
-110 1.0
111 1.0
-111 1.0
112 1.0
-112 1.0
113 1.0
-113 1.0
114 1.0
-114 1.0
115 1.0
-115 1.0
116 1.0
-116 1.0
117 1.0
-117 1.0
118 1.0
-118 1.0
119 1.0
-119 1.0
120 1.0
-120 1.0
121 1.0
-121 1.0
122 1.0
-122 1.0
123 1.0
-123 1.0
124 1.0
-124 1.0
125 1.0
-125 1.0
126 1.0
-126 1.0
127 1.0
-127 1.0
128 1.0
-128 1.0
129 1.0
-129 1.0
130 1.0
-130 1.0
131 1.0
-131 1.0
132 1.0
-132 1.0
133 1.0
-133 1.0
134 1.0
-134 1.0
135 1.0
-135 1.0
136 1.0
-136 1.0
137 1.0
-137 1.0
138 1.0
-138 1.0
139 1.0
-139 1.0
140 1.0
-140 1.0
141 1.0
-141 1.0
142 1.0
-142 1.0
143 1.0
-143 1.0
144 1.0
-144 1.0
145 1.0
-145 1.0
146 1.0
-146 1.0
147 1.0
-147 1.0
148 1.0
-148 1.0
149 1.0
-149 1.0
150 1.0
-150 1.0
151 1.0
-151 1.0
152 1.0
-152 1.0
153 1.0
-153 1.0
154 1.0
-154 1.0
155 1.0
-155 1.0
156 1.0
-156 1.0
157 1.0
-157 1.0
158 1.0
-158 1.0
159 1.0
-159 1.0
160 1.0
-160 1.0
161 1.0
-161 1.0
162 1.0
-162 1.0
163 1.0
-163 1.0
164 1.0
-164 1.0
165 1.0
-165 1.0
166 1.0
-166 1.0
167 1.0
-167 1.0
168 1.0
-168 1.0
169 1.0
-169 1.0
170 1.0
-170 1.0
171 1.0
-171 1.0
172 1.0
-172 1.0
173 1.0
-173 1.0
174 1.0
-174 1.0
175 1.0
-175 1.0
176 1.0
-176 1.0
177 1.0
-177 1.0
178 1.0
-178 1.0
179 1.0
-179 1.0
180 1.0
-180 1.0
181 1.0
-181 1.0
182 1.0
-182 1.0
183 1.0
-183 1.0
184 1.0
-184 1.0
185 1.0
-185 1.0
186 1.0
-186 1.0
187 1.0
-187 1.0
188 1.0
-188 1.0
189 1.0
-189 1.0
190 1.0
-190 1.0
191 1.0
-191 1.0
192 1.0
-192 1.0
193 1.0
-193 1.0
194 1.0
-194 1.0
195 1.0
-195 1.0
196 1.0
-196 1.0
197 1.0
-197 1.0
198 1.0
-198 1.0
199 1.0
-199 1.0
200 1.0
-200 1.0
201 1.0
-201 1.0
202 1.0
-202 1.0
203 1.0
-203 1.0
204 1.0
-204 1.0
205 1.0
-205 1.0
206 1.0
-206 1.0
207 1.0
-207 1.0
208 1.0
-208 1.0
209 1.0
-209 1.0
210 1.0
-210 1.0
211 1.0
-211 1.0
212 1.0
-212 1.0
213 1.0
-213 1.0
214 1.0
-214 1.0
215 1.0
-215 1.0
216 1.0
-216 1.0
217 1.0
-217 1.0
218 1.0
-218 1.0
219 1.0
-219 1.0
220 1.0
-220 1.0
221 1.0
-221 1.0
222 1.0
-222 1.0
223 1.0
-223 1.0
224 1.0
-224 1.0
225 1.0
-225 1.0
226 1.0
-226 1.0
227 1.0
-227 1.0
228 1.0
-228 1.0
229 1.0
-229 1.0
230 1.0
-230 1.0
231 1.0
-231 1.0
232 1.0
-232 1.0
233 1.0
-233 1.0
234 1.0
-234 1.0
235 1.0
-235 1.0
236 1.0
-236 1.0
237 1.0
-237 1.0
238 1.0
-238 1.0
239 1.0
-239 1.0
240 1.0
-240 1.0
241 1.0
-241 1.0
242 1.0
-242 1.0
243 1.0
-243 1.0
244 1.0
-244 1.0
245 1.0
-245 1.0
246 1.0
-246 1.0
247 1.0
-247 1.0
248 1.0
-248 1.0
249 1.0
-249 1.0
250 1.0
-250 1.0
251 1.0
-251 1.0
252 1.0
-252 1.0
253 1.0
-253 1.0
254 1.0
-254 1.0
255 1.0
-255 1.0
256 1.0
-256 1.0
257 1.0
-257 1.0
258 1.0
-258 1.0
259 1.0
-259 1.0
260 1.0
-260 1.0
261 1.0
-261 1.0
262 1.0
-262 1.0
263 1.0
-263 1.0
264 1.0
-264 1.0
265 1.0
-265 1.0
266 1.0
-266 1.0
267 1.0
-267 1.0
268 1.0
-268 1.0
269 1.0
-269 1.0
270 1.0
-270 1.0
271 1.0
-271 1.0
272 1.0
-272 1.0
273 1.0
-273 1.0
274 1.0
-274 1.0
275 1.0
-275 1.0
276 1.0
-276 1.0
277 1.0
-277 1.0
278 1.0
-278 1.0
279 1.0
-279 1.0
280 1.0
-280 1.0
281 1.0
-281 1.0
282 1.0
-282 1.0
283 1.0
-283 1.0
284 1.0
-284 1.0
285 1.0
-285 1.0
286 1.0
-286 1.0
287 1.0
-287 1.0
288 1.0
-288 1.0
289 1.0
-289 1.0
290 0.839343
-290 0.160657
291 0.371538
-291 0.628462
292 0.043291
-292 0.956709
293 0.969639
-293 0.030361
294 0.5
-294 0.5
295 0.5
-295 0.5
296 0.5
-296 0.5
297 0.5
-297 0.5
298 0.5
-298 0.5
299 0.5
-299 0.5
300 0.664881
-300 0.335119
301 0.534982
-301 0.465018
302 0.673908
-302 0.326092
303 0.021497
-303 0.978503
304 0.5
-304 0.5
305 0.5
-305 0.5
306 0.265274
-306 0.734726
307 0.355372
-307 0.644628
308 0.5
-308 0.5
309 0.5
-309 0.5
310 0.5
-310 0.5
311 0.5
-311 0.5
312 0.5
-312 0.5
313 0.5
-313 0.5
314 0.5
-314 0.5
315 0.5
-315 0.5
316 0.5
-316 0.5
317 0.5
-317 0.5
318 0.5
-318 0.5
319 0.5
-319 0.5
320 0.5
-320 0.5
321 0.5
-321 0.5
322 0.487699
-322 0.512301
323 0.926171
-323 0.073829
324 0.5
-324 0.5
325 0.5
-325 0.5
326 0.5
-326 0.5
327 0.5
-327 0.5
328 0.5
-328 0.5
329 0.5
-329 0.5
330 0.5
-330 0.5
331 0.5
-331 0.5
332 0.5
-332 0.5
333 0.5
-333 0.5
334 0.5
-334 0.5
335 0.5
-335 0.5
336 0.5
-336 0.5
337 0.5
-337 0.5
338 0.5
-338 0.5
339 0.5
-339 0.5
340 0.5
-340 0.5
341 0.5
-341 0.5
342 0.5
-342 0.5
343 0.5
-343 0.5
344 0.772617
-344 0.227383
345 0.503712
-345 0.496288
346 0.621474
-346 0.378526
347 0.260316
-347 0.739684
348 0.5
-348 0.5
349 0.5
-349 0.5
350 0.5
-350 0.5
351 0.5
-351 0.5
352 0.958038
-352 0.041962
353 0.124554
-353 0.875446
354 0.03052
-354 0.96948
355 0.011103
-355 0.988897
356 0.5
-356 0.5
357 0.5
-357 0.5
358 0.5
-358 0.5
359 0.5
-359 0.5
360 0.5
-360 0.5
361 0.5
-361 0.5
362 0.5
-362 0.5
363 0.5
-363 0.5
364 0.04917
-364 0.95083
365 0.972575
-365 0.027425
366 0.254658
-366 0.745342
367 0.270896
-367 0.729104
368 0.5
-368 0.5
369 0.5
-369 0.5
370 0.5
-370 0.5
371 0.5
-371 0.5
372 0.5
-372 0.5
373 0.5
-373 0.5
374 0.5
-374 0.5
375 0.5
-375 0.5
376 0.5
-376 0.5
377 0.5
-377 0.5
378 0.5
-378 0.5
379 0.5
-379 0.5
380 0.5
-380 0.5
381 0.5
-381 0.5
382 0.5
-382 0.5
383 0.5
-383 0.5
384 0.5
-384 0.5
385 0.5
-385 0.5
386 0.5
-386 0.5
387 0.5
-387 0.5
388 0.5
-388 0.5
389 0.5
-389 0.5
390 0.5
-390 0.5
391 0.5
-391 0.5
392 0.5
-392 0.5
393 0.5
-393 0.5
394 0.5
-394 0.5
395 0.5
-395 0.5
396 0.5
-396 0.5
397 0.5
-397 0.5
398 0.5
-398 0.5
399 0.5
-399 0.5
400 0.5
-400 0.5
401 0.5
-401 0.5
402 0.261888
-402 0.738112
403 0.38936
-403 0.61064
404 0.073412
-404 0.926588
405 0.304492
-405 0.695508
406 0.5
-406 0.5
407 0.5
-407 0.5
408 0.5
-408 0.5
409 0.5
-409 0.5
410 0.5
-410 0.5
411 0.5
-411 0.5
412 0.5
-412 0.5
413 0.5
-413 0.5
414 0.5
-414 0.5
415 0.5
-415 0.5
416 0.5
-416 0.5
417 0.5
-417 0.5
418 0.5
-418 0.5
419 0.5
-419 0.5
420 0.5
-420 0.5
421 0.5
-421 0.5
422 0.5
-422 0.5
423 0.5
-423 0.5
424 0.5
-424 0.5
425 0.5
-425 0.5
426 0.5
-426 0.5
427 0.5
-427 0.5
428 0.5
-428 0.5
429 0.5
-429 0.5
430 0.5
-430 0.5
431 0.5
-431 0.5
432 0.5
-432 0.5
433 0.5
-433 0.5
434 0.5
-434 0.5
435 0.5
-435 0.5
436 0.5
-436 0.5
437 0.5
-437 0.5
438 0.5
-438 0.5
439 0.5
-439 0.5
440 0.5
-440 0.5
441 0.5
-441 0.5
442 0.926511
-442 0.073489
443 0.597816
-443 0.402184
444 0.749483
-444 0.250517
445 0.734662
-445 0.265338
446 0.5
-446 0.5
447 0.5
-447 0.5
448 0.5
-448 0.5
449 0.5
-449 0.5
450 0.5
-450 0.5
451 0.5
-451 0.5
452 0.5
-452 0.5
453 0.5
-453 0.5
454 0.5
-454 0.5
455 0.5
-455 0.5
456 0.5
-456 0.5
457 0.5
-457 0.5
458 0.5
-458 0.5
459 0.5
-459 0.5
460 0.903973
-460 0.096027
461 0.28312
-461 0.71688
462 0.619333
-462 0.380667
463 0.28522
-463 0.71478
464 0.5
-464 0.5
465 0.5
-465 0.5
466 0.5
-466 0.5
467 0.5
-467 0.5
468 0.5
-468 0.5
469 0.5
-469 0.5
470 0.5
-470 0.5
471 0.5
-471 0.5
472 0.5
-472 0.5
473 0.5
-473 0.5
474 0.5
-474 0.5
475 0.5
-475 0.5
476 0.5
-476 0.5
477 0.5
-477 0.5
478 0.5
-478 0.5
479 0.5
-479 0.5
480 0.5
-480 0.5
481 0.5
-481 0.5
482 0.5
-482 0.5
483 0.5
-483 0.5
484 0.5
-484 0.5
485 0.5
-485 0.5
486 0.5
-486 0.5
487 0.5
-487 0.5
488 0.201756
-488 0.798244
489 0.455857
-489 0.544143
490 0.771775
-490 0.228225
491 0.921437
-491 0.078563
492 0.5
-492 0.5
493 0.5
-493 0.5
494 0.5
-494 0.5
495 0.5
-495 0.5
496 0.999518
-496 0.000482
497 0.219603
-497 0.780397
498 0.772227
-498 0.227773
499 0.094442
-499 0.905558
500 0.5
-500 0.5
501 0.5
-501 0.5
502 0.5
-502 0.5
503 0.5
-503 0.5
504 0.5
-504 0.5
505 0.5
-505 0.5
506 0.5
-506 0.5
507 0.5
-507 0.5
508 0.5
-508 0.5
509 0.5
-509 0.5
510 0.5
-510 0.5
511 0.5
-511 0.5
512 0.245849
-512 0.754151
513 0.149752
-513 0.850248
514 0.634412
-514 0.365588
515 0.167287
-515 0.832713
516 0.5
-516 0.5
517 0.5
-517 0.5
518 0.5
-518 0.5
519 0.5
-519 0.5
520 0.5
-520 0.5
521 0.5
-521 0.5
522 0.5
-522 0.5
523 0.5
-523 0.5
524 0.5
-524 0.5
525 0.5
-525 0.5
526 0.5
-526 0.5
527 0.5
-527 0.5
528 0.5
-528 0.5
529 0.5
-529 0.5
530 0.5
-530 0.5
531 0.5
-531 0.5
532 0.5
-532 0.5
533 0.5
-533 0.5
534 0.809599
-534 0.190401
535 0.923504
-535 0.076496
536 0.626409
-536 0.373591
537 0.055448
-537 0.944552
538 0.5
-538 0.5
539 0.5
-539 0.5
540 0.5
-540 0.5
541 0.5
-541 0.5
542 0.612552
-542 0.387448
543 0.01116
-543 0.98884
544 0.095595
-544 0.904405
545 0.744451
-545 0.255549
546 0.197614
-546 0.802386
547 0.970792
-547 0.029208
548 0.135831
-548 0.864169
549 0.63924
-549 0.36076
550 0.5
-550 0.5
551 0.5
-551 0.5
552 0.5
-552 0.5
553 0.5
-553 0.5
554 0.5
-554 0.5
555 0.5
-555 0.5
556 0.5
-556 0.5
557 0.5
-557 0.5
558 0.61886
-558 0.38114
559 0.904953
-559 0.095047
560 0.398428
-560 0.601572
561 0.674308
-561 0.325692
562 0.65925
-562 0.34075
563 0.897044
-563 0.102956
564 0.458379
-564 0.541621
565 0.052638
-565 0.947362
566 0.5
-566 0.5
567 0.5
-567 0.5
568 0.5
-568 0.5
569 0.5
-569 0.5
570 0.956055
-570 0.043945
571 0.786174
-571 0.213826
572 0.048165
-572 0.951835
573 0.595295
-573 0.404705
574 0.5
-574 0.5
575 0.5
-575 0.5
576 0.5
-576 0.5
577 0.5
-577 0.5
578 0.039588
-578 0.960412
579 0.416103
-579 0.583897
580 0.823862
-580 0.176138
581 0.848849
-581 0.151151
582 0.5
-582 0.5
583 0.5
-583 0.5
584 0.5
-584 0.5
585 0.5
-585 0.5
586 0.5
-586 0.5
587 0.5
-587 0.5
588 0.5
-588 0.5
589 0.5
-589 0.5
590 0.5
-590 0.5
591 0.5
-591 0.5
592 0.769995
-592 0.230005
593 0.460349
-593 0.539651
594 0.625407
-594 0.374593
595 0.682329
-595 0.317671
596 0.5
-596 0.5
597 0.5
-597 0.5
598 0.5
-598 0.5
599 0.5
-599 0.5
600 0.5
-600 0.5
601 0.5
-601 0.5
602 0.5
-602 0.5
603 0.5
-603 0.5
604 0.5
-604 0.5
605 0.5
-605 0.5
606 0.5
-606 0.5
607 0.5
-607 0.5
608 0.211423
-608 0.788577
609 0.744748
-609 0.255252
610 0.987654
-610 0.012346
611 0.492138
-611 0.507862
612 0.5
-612 0.5
613 0.5
-613 0.5
614 0.5
-614 0.5
615 0.5
-615 0.5
616 0.5
-616 0.5
617 0.5
-617 0.5
618 0.5
-618 0.5
619 0.5
-619 0.5
620 0.5
-620 0.5
621 0.5
-621 0.5
622 0.5
-622 0.5
623 0.5
-623 0.5
624 0.5
-624 0.5
625 0.5
-625 0.5
626 0.5
-626 0.5
627 0.5
-627 0.5
628 0.5
-628 0.5
629 0.5
-629 0.5
630 0.5
-630 0.5
631 0.5
-631 0.5
632 0.445281
-632 0.554719
633 0.112598
-633 0.887402
634 0.801687
-634 0.198313
635 0.937419
-635 0.062581
636 0.5
-636 0.5
637 0.5
-637 0.5
638 0.5
-638 0.5
639 0.5
-639 0.5
640 0.5
-640 0.5
641 0.5
-641 0.5
642 0.5
-642 0.5
643 0.5
-643 0.5
644 0.5
-644 0.5
645 0.5
-645 0.5
646 0.5
-646 0.5
647 0.5
-647 0.5
648 0.5
-648 0.5
649 0.5
-649 0.5
650 0.5
-650 0.5
651 0.5
-651 0.5
652 0.5
-652 0.5
653 0.5
-653 0.5
654 0.5
-654 0.5
655 0.5
-655 0.5
656 0.5
-656 0.5
657 0.5
-657 0.5
658 0.5
-658 0.5
659 0.5
-659 0.5
660 0.5
-660 0.5
661 0.5
-661 0.5
662 0.787635
-662 0.212365
663 0.148133
-663 0.851867
664 0.186016
-664 0.813984
665 0.277542
-665 0.722458
666 0.06259
-666 0.93741
667 0.324277
-667 0.675723
668 0.245507
-668 0.754493
669 0.017412
-669 0.982588
670 0.5
-670 0.5
671 0.5
-671 0.5
672 0.5
-672 0.5
673 0.5
-673 0.5
674 0.5
-674 0.5
675 0.5
-675 0.5
676 0.5
-676 0.5
677 0.5
-677 0.5
678 0.5
-678 0.5
679 0.5
-679 0.5
680 0.5
-680 0.5
681 0.5
-681 0.5
682 0.5
-682 0.5
683 0.5
-683 0.5
684 0.5
-684 0.5
685 0.5
-685 0.5
686 0.845917
-686 0.154083
687 0.228811
-687 0.771189
688 0.920789
-688 0.079211
689 0.031932
-689 0.968068
690 0.5
-690 0.5
691 0.5
-691 0.5
692 0.5
-692 0.5
693 0.5
-693 0.5
694 0.5
-694 0.5
695 0.5
-695 0.5
696 0.5
-696 0.5
697 0.5
-697 0.5
698 0.5
-698 0.5
699 0.5
-699 0.5
700 0.5
-700 0.5
701 0.5
-701 0.5
702 0.5
-702 0.5
703 0.5
-703 0.5
704 0.5
-704 0.5
705 0.5
-705 0.5
706 0.798583
-706 0.201417
707 0.402471
-707 0.597529
708 0.157385
-708 0.842615
709 0.668393
-709 0.331607
710 0.930041
-710 0.069959
711 0.51431
-711 0.48569
712 0.072458
-712 0.927542
713 0.85083
-713 0.14917
714 0.5
-714 0.5
715 0.5
-715 0.5
716 0.5
-716 0.5
717 0.5
-717 0.5
718 0.5
-718 0.5
719 0.5
-719 0.5
720 0.000564
-720 0.999436
721 0.40877
-721 0.59123
722 0.098084
-722 0.901916
723 0.589519
-723 0.410481
724 0.5
-724 0.5
725 0.5
-725 0.5
726 0.5
-726 0.5
727 0.5
-727 0.5
728 0.5
-728 0.5
729 0.5
-729 0.5
730 0.5
-730 0.5
731 0.5
-731 0.5
732 0.118387
-732 0.881613
733 0.986474
-733 0.013526
734 0.621537
-734 0.378463
735 0.962034
-735 0.037966
736 0.135847
-736 0.864153
737 0.034493
-737 0.965507
738 0.767345
-738 0.232655
739 0.682089
-739 0.317911
740 0.5
-740 0.5
741 0.5
-741 0.5
742 0.5
-742 0.5
743 0.5
-743 0.5
744 0.5
-744 0.5
745 0.5
-745 0.5
746 0.5
-746 0.5
747 0.5
-747 0.5
748 0.5
-748 0.5
749 0.5
-749 0.5
750 0.5
-750 0.5
751 0.5
-751 0.5
752 0.5
-752 0.5
753 0.5
-753 0.5
754 0.5
-754 0.5
755 0.5
-755 0.5
756 0.5
-756 0.5
757 0.5
-757 0.5
758 0.5
-758 0.5
759 0.5
-759 0.5
760 0.5
-760 0.5
761 0.5
-761 0.5
762 0.5
-762 0.5
763 0.5
-763 0.5
764 0.763449
-764 0.236551
765 0.182032
-765 0.817968
766 0.855139
-766 0.144861
767 0.922721
-767 0.077279
768 0.5
-768 0.5
769 0.5
-769 0.5
770 0.5
-770 0.5
771 0.5
-771 0.5
772 0.423324
-772 0.576676
773 0.689193
-773 0.310807
774 0.637772
-774 0.362228
775 0.401002
-775 0.598998
776 0.5
-776 0.5
777 0.5
-777 0.5
778 0.5
-778 0.5
779 0.5
-779 0.5
780 0.887458
-780 0.112542
781 0.352762
-781 0.647238
782 0.538448
-782 0.461552
783 0.928701
-783 0.071299
784 0.5
-784 0.5
785 0.5
-785 0.5
786 0.5
-786 0.5
787 0.5
-787 0.5
788 0.5
-788 0.5
789 0.5
-789 0.5
790 0.5
-790 0.5
791 0.5
-791 0.5
792 0.5
-792 0.5
793 0.5
-793 0.5
794 0.5
-794 0.5
795 0.5
-795 0.5
796 0.5
-796 0.5
797 0.5
-797 0.5
798 0.5
-798 0.5
799 0.5
-799 0.5
800 0.5
-800 0.5
801 0.5
-801 0.5
802 0.5
-802 0.5
803 0.5
-803 0.5
804 0.5
-804 0.5
805 0.5
-805 0.5
806 0.5
-806 0.5
807 0.5
-807 0.5
808 0.5
-808 0.5
809 0.5
-809 0.5
810 0.5
-810 0.5
811 0.5
-811 0.5
812 0.5
-812 0.5
813 0.5
-813 0.5
814 0.5
-814 0.5
815 0.5
-815 0.5
816 0.5
-816 0.5
817 0.5
-817 0.5
818 0.5
-818 0.5
819 0.5
-819 0.5
820 0.5
-820 0.5
821 0.5
-821 0.5
822 0.5
-822 0.5
823 0.5
-823 0.5
824 0.5
-824 0.5
825 0.5
-825 0.5
826 0.5
-826 0.5
827 0.5
-827 0.5
828 0.5
-828 0.5
829 0.5
-829 0.5
830 0.5
-830 0.5
831 0.5
-831 0.5
832 0.5
-832 0.5
833 0.5
-833 0.5
834 0.964805
-834 0.035195
835 0.474355
-835 0.525645
836 0.274377
-836 0.725623
837 0.131229
-837 0.868771
838 0.5
-838 0.5
839 0.5
-839 0.5
840 0.5
-840 0.5
841 0.5
-841 0.5
842 0.355503
-842 0.644497
843 0.568146
-843 0.431854
844 0.652777
-844 0.347223
845 0.114438
-845 0.885562
846 0.5
-846 0.5
847 0.5
-847 0.5
848 0.5
-848 0.5
849 0.5
-849 0.5
850 0.5
-850 0.5
851 0.5
-851 0.5
852 0.245094
-852 0.754906
853 0.236955
-853 0.763045
854 0.733001
-854 0.266999
855 0.842131
-855 0.157869
856 0.5
-856 0.5
857 0.5
-857 0.5
858 0.5
-858 0.5
859 0.5
-859 0.5
860 0.5
-860 0.5
861 0.5
-861 0.5
862 0.5
-862 0.5
863 0.5
-863 0.5
864 0.5
-864 0.5
865 0.5
-865 0.5
866 0.5
-866 0.5
867 0.5
-867 0.5
868 0.5
-868 0.5
869 0.5
-869 0.5
870 0.5
-870 0.5
871 0.5
-871 0.5
872 0.5
-872 0.5
873 0.5
-873 0.5
874 0.5
-874 0.5
875 0.5
-875 0.5
876 0.5
-876 0.5
877 0.5
-877 0.5
878 0.5
-878 0.5
879 0.5
-879 0.5
880 0.5
-880 0.5
881 0.5
-881 0.5
882 0.5
-882 0.5
883 0.5
-883 0.5
884 0.5
-884 0.5
885 0.5
-885 0.5
886 0.5
-886 0.5
887 0.5
-887 0.5
888 0.521013
-888 0.478987
889 0.438636
-889 0.561364
890 0.730927
-890 0.269073
891 0.592826
-891 0.407174
892 0.5
-892 0.5
893 0.5
-893 0.5
894 0.5
-894 0.5
895 0.5
-895 0.5
896 0.5
-896 0.5
897 0.5
-897 0.5
898 0.5
-898 0.5
899 0.5
-899 0.5
900 0.5
-900 0.5
901 0.5
-901 0.5
902 0.5
-902 0.5
903 0.5
-903 0.5
904 0.5
-904 0.5
905 0.5
-905 0.5
906 0.5
-906 0.5
907 0.5
-907 0.5
908 0.488997
-908 0.511003
909 0.283613
-909 0.716387
910 0.067602
-910 0.932398
911 0.266364
-911 0.733636
912 0.5
-912 0.5
913 0.5
-913 0.5
914 0.5
-914 0.5
915 0.5
-915 0.5
916 0.831897
-916 0.168103
917 0.414226
-917 0.585774
918 0.5
-918 0.5
919 0.5
-919 0.5
920 0.5
-920 0.5
921 0.5
-921 0.5
922 0.5
-922 0.5
923 0.5
-923 0.5
924 0.5
-924 0.5
925 0.5
-925 0.5
926 0.5
-926 0.5
927 0.5
-927 0.5
928 0.5
-928 0.5
929 0.5
-929 0.5
930 0.5
-930 0.5
931 0.5
-931 0.5
932 0.5
-932 0.5
933 0.5
-933 0.5
934 0.021152
-934 0.978848
935 0.543076
-935 0.456924
936 0.057331
-936 0.942669
937 0.609767
-937 0.390233
938 0.5
-938 0.5
939 0.5
-939 0.5
940 0.5
-940 0.5
941 0.5
-941 0.5
942 0.5
-942 0.5
943 0.5
-943 0.5
944 0.5
-944 0.5
945 0.5
-945 0.5
946 0.5
-946 0.5
947 0.5
-947 0.5
948 0.5
-948 0.5
949 0.5
-949 0.5
950 0.5
-950 0.5
951 0.5
-951 0.5
952 0.5
-952 0.5
953 0.5
-953 0.5
954 0.043421
-954 0.956579
955 0.505443
-955 0.494557
956 0.344675
-956 0.655325
957 0.99697
-957 0.00303
958 0.143897
-958 0.856103
959 0.018122
-959 0.981878
960 0.325231
-960 0.674769
961 0.201228
-961 0.798772
962 0.5
-962 0.5
963 0.5
-963 0.5
964 0.5
-964 0.5
965 0.5
-965 0.5
966 0.5
-966 0.5
967 0.5
-967 0.5
968 0.5
-968 0.5
969 0.5
-969 0.5
970 0.5
-970 0.5
971 0.5
-971 0.5
972 0.5
-972 0.5
973 0.5
-973 0.5
974 0.007651
-974 0.992349
975 0.344967
-975 0.655033
976 0.634388
-976 0.365612
977 0.87387
-977 0.12613
978 0.5
-978 0.5
979 0.5
-979 0.5
980 0.5
-980 0.5
981 0.5
-981 0.5
982 0.350293
-982 0.649707
983 0.952025
-983 0.047975
984 0.675524
-984 0.324476
985 0.153253
-985 0.846747
986 0.560274
-986 0.439726
987 0.248831
-987 0.751169
988 0.5
-988 0.5
989 0.5
-989 0.5
990 0.5
-990 0.5
991 0.5
-991 0.5
992 0.5
-992 0.5
993 0.5
-993 0.5
994 0.5
-994 0.5
995 0.5
-995 0.5
996 0.5
-996 0.5
997 0.5
-997 0.5
998 0.5
-998 0.5
999 0.5
-999 0.5
1000 0.5
-1000 0.5
1001 0.5
-1001 0.5
1002 0.5
-1002 0.5
1003 0.5
-1003 0.5
1004 0.5
-1004 0.5
1005 0.5
-1005 0.5
1006 0.5
-1006 0.5
1007 0.5
-1007 0.5
1008 0.5
-1008 0.5
1009 0.5
-1009 0.5
1010 0.5
-1010 0.5
1011 0.5
-1011 0.5
1012 0.5
-1012 0.5
1013 0.5
-1013 0.5
1014 0.5
-1014 0.5
1015 0.5
-1015 0.5
1016 0.116173
-1016 0.883827
1017 0.439486
-1017 0.560514
1018 0.677924
-1018 0.322076
1019 0.872706
-1019 0.127294
1020 0.5
-1020 0.5
1021 0.5
-1021 0.5
1022 0.5
-1022 0.5
1023 0.5
-1023 0.5
1024 0.311684
-1024 0.688316
1025 0.425871
-1025 0.574129
1026 0.499826
-1026 0.500174
1027 0.154943
-1027 0.845057
1028 0.767123
-1028 0.232877
1029 0.80633
-1029 0.19367
1030 0.176943
-1030 0.823057
1031 0.384714
-1031 0.615286
1032 0.5
-1032 0.5
1033 0.5
-1033 0.5
1034 0.5
-1034 0.5
1035 0.5
-1035 0.5
1036 0.5
-1036 0.5
1037 0.5
-1037 0.5
1038 0.5
-1038 0.5
1039 0.5
-1039 0.5
1040 0.5
-1040 0.5
1041 0.5
-1041 0.5
1042 0.5
-1042 0.5
1043 0.5
-1043 0.5
1044 0.5
-1044 0.5
1045 0.5
-1045 0.5
1046 0.5
-1046 0.5
1047 0.5
-1047 0.5
1048 0.350133
-1048 0.649867
1049 0.933823
-1049 0.066177
1050 0.5
-1050 0.5
1051 0.5
-1051 0.5
1052 0.5
-1052 0.5
1053 0.5
-1053 0.5
1054 0.5
-1054 0.5
1055 0.5
-1055 0.5
1056 0.5
-1056 0.5
1057 0.5
-1057 0.5
1058 0.5
-1058 0.5
1059 0.5
-1059 0.5
1060 0.5
-1060 0.5
1061 0.5
-1061 0.5
1062 0.5
-1062 0.5
1063 0.5
-1063 0.5
1064 0.5
-1064 0.5
1065 0.5
-1065 0.5
1066 0.5
-1066 0.5
1067 0.5
-1067 0.5
1068 0.5
-1068 0.5
1069 0.5
-1069 0.5
1070 0.5
-1070 0.5
1071 0.5
-1071 0.5
1072 0.5
-1072 0.5
1073 0.5
-1073 0.5
1074 0.154601
-1074 0.845399
1075 0.448738
-1075 0.551262
1076 0.772107
-1076 0.227893
1077 0.768151
-1077 0.231849
1078 0.5
-1078 0.5
1079 0.5
-1079 0.5
1080 0.5
-1080 0.5
1081 0.5
-1081 0.5
1082 0.5
-1082 0.5
1083 0.5
-1083 0.5
1084 0.5
-1084 0.5
1085 0.5
-1085 0.5
1086 0.5
-1086 0.5
1087 0.5
-1087 0.5
1088 0.5
-1088 0.5
1089 0.5
-1089 0.5
1090 0.5
-1090 0.5
1091 0.5
-1091 0.5
1092 0.5
-1092 0.5
1093 0.5
-1093 0.5
1094 0.5
-1094 0.5
1095 0.5
-1095 0.5
1096 0.5
-1096 0.5
1097 0.5
-1097 0.5
1098 0.21998
-1098 0.78002
1099 0.668092
-1099 0.331908
1100 0.764048
-1100 0.235952
1101 0.988131
-1101 0.011869
1102 0.933191
-1102 0.066809
1103 0.047662
-1103 0.952338
1104 0.895421
-1104 0.104579
1105 0.766689
-1105 0.233311
1106 0.5
-1106 0.5
1107 0.5
-1107 0.5
1108 0.5
-1108 0.5
1109 0.5
-1109 0.5
1110 0.5
-1110 0.5
1111 0.5
-1111 0.5
1112 0.5
-1112 0.5
1113 0.5
-1113 0.5
1114 0.5
-1114 0.5
1115 0.5
-1115 0.5
1116 0.5
-1116 0.5
1117 0.5
-1117 0.5
1118 0.5
-1118 0.5
1119 0.5
-1119 0.5
1120 0.5
-1120 0.5
1121 0.5
-1121 0.5
1122 0.5
-1122 0.5
1123 0.5
-1123 0.5
1124 0.634273
-1124 0.365727
1125 0.260292
-1125 0.739708
1126 0.747403
-1126 0.252597
1127 0.472251
-1127 0.527749
1128 0.5
-1128 0.5
1129 0.5
-1129 0.5
1130 0.5
-1130 0.5
1131 0.5
-1131 0.5
1132 0.5
-1132 0.5
1133 0.5
-1133 0.5
1134 0.5
-1134 0.5
1135 0.5
-1135 0.5
1136 0.5
-1136 0.5
1137 0.5
-1137 0.5
1138 0.5
-1138 0.5
1139 0.5
-1139 0.5
1140 0.5
-1140 0.5
1141 0.5
-1141 0.5
1142 0.5
-1142 0.5
1143 0.5
-1143 0.5
1144 0.5
-1144 0.5
1145 0.5
-1145 0.5
1146 0.5
-1146 0.5
1147 0.5
-1147 0.5
1148 0.5
-1148 0.5
1149 0.5
-1149 0.5
1150 0.5
-1150 0.5
1151 0.5
-1151 0.5
1152 0.5
-1152 0.5
1153 0.5
-1153 0.5
1154 0.5
-1154 0.5
1155 0.5
-1155 0.5
1156 0.5
-1156 0.5
1157 0.5
-1157 0.5
1158 0.5
-1158 0.5
1159 0.5
-1159 0.5
1160 0.5
-1160 0.5
1161 0.5
-1161 0.5
1162 0.5
-1162 0.5
1163 0.5
-1163 0.5
1164 0.5
-1164 0.5
1165 0.5
-1165 0.5
1166 0.5
-1166 0.5
1167 0.5
-1167 0.5
1168 0.5
-1168 0.5
1169 0.5
-1169 0.5
1170 0.5
-1170 0.5
1171 0.5
-1171 0.5
1172 0.908653
-1172 0.091347
1173 0.163253
-1173 0.836747
1174 0.616114
-1174 0.383886
1175 0.307366
-1175 0.692634
1176 0.5
-1176 0.5
1177 0.5
-1177 0.5
1178 0.5
-1178 0.5
1179 0.5
-1179 0.5
1180 0.5
-1180 0.5
1181 0.5
-1181 0.5
1182 0.5
-1182 0.5
1183 0.5
-1183 0.5
1184 0.5
-1184 0.5
1185 0.5
-1185 0.5
1186 0.5
-1186 0.5
1187 0.5
-1187 0.5
1188 0.5
-1188 0.5
1189 0.5
-1189 0.5
1190 0.5
-1190 0.5
1191 0.5
-1191 0.5
1192 0.5
-1192 0.5
1193 0.5
-1193 0.5
1194 0.5
-1194 0.5
1195 0.5
-1195 0.5
1196 0.5
-1196 0.5
1197 0.5
-1197 0.5
1198 0.5
-1198 0.5
1199 0.5
-1199 0.5
1200 0.5
-1200 0.5
1201 0.5
-1201 0.5
1202 0.5
-1202 0.5
1203 0.5
-1203 0.5
1204 0.5
-1204 0.5
1205 0.5
-1205 0.5
1206 0.5
-1206 0.5
1207 0.5
-1207 0.5
1208 0.5
-1208 0.5
1209 0.5
-1209 0.5
1210 0.5
-1210 0.5
1211 0.5
-1211 0.5
1212 0.5
-1212 0.5
1213 0.5
-1213 0.5
1214 0.428278
-1214 0.571722
1215 0.100235
-1215 0.899765
1216 0.433554
-1216 0.566446
1217 0.125844
-1217 0.874156
1218 0.787889
-1218 0.212111
1219 0.59364
-1219 0.40636
1220 0.373995
-1220 0.626005
1221 0.063659
-1221 0.936341
1222 0.037892
-1222 0.962108
1223 0.955543
-1223 0.044457
1224 0.653906
-1224 0.346094
1225 0.048172
-1225 0.951828
1226 0.5
-1226 0.5
1227 0.5
-1227 0.5
1228 0.5
-1228 0.5
1229 0.5
-1229 0.5
1230 0.5
-1230 0.5
1231 0.5
-1231 0.5
1232 0.5
-1232 0.5
1233 0.5
-1233 0.5
1234 0.5
-1234 0.5
1235 0.5
-1235 0.5
1236 0.5
-1236 0.5
1237 0.5
-1237 0.5
1238 0.669566
-1238 0.330434
1239 0.882392
-1239 0.117608
1240 0.060952
-1240 0.939048
1241 0.103119
-1241 0.896881
1242 0.5
-1242 0.5
1243 0.5
-1243 0.5
1244 0.5
-1244 0.5
1245 0.5
-1245 0.5
1246 0.571966
-1246 0.428034
1247 0.346189
-1247 0.653811
1248 0.225872
-1248 0.774128
1249 0.394361
-1249 0.605639
1250 0.540683
-1250 0.459317
1251 0.463158
-1251 0.536842
1252 0.163728
-1252 0.836272
1253 0.735756
-1253 0.264244
1254 0.21146
-1254 0.78854
1255 0.163606
-1255 0.836394
1256 0.5
-1256 0.5
1257 0.5
-1257 0.5
1258 0.5
-1258 0.5
1259 0.5
-1259 0.5
1260 0.589599
-1260 0.410401
1261 0.57683
-1261 0.42317
1262 0.719318
-1262 0.280682
1263 0.259164
-1263 0.740836
1264 0.5
-1264 0.5
1265 0.5
-1265 0.5
1266 0.5
-1266 0.5
1267 0.5
-1267 0.5
1268 0.5
-1268 0.5
1269 0.5
-1269 0.5
1270 0.5
-1270 0.5
1271 0.5
-1271 0.5
1272 0.5
-1272 0.5
1273 0.5
-1273 0.5
1274 0.5
-1274 0.5
1275 0.5
-1275 0.5
1276 0.5
-1276 0.5
1277 0.5
-1277 0.5
1278 0.5
-1278 0.5
1279 0.5
-1279 0.5
1280 0.410785
-1280 0.589215
1281 0.279641
-1281 0.720359
1282 0.162263
-1282 0.837737
1283 0.271064
-1283 0.728936
1284 0.5
-1284 0.5
1285 0.5
-1285 0.5
1286 0.5
-1286 0.5
1287 0.5
-1287 0.5
1288 0.5
-1288 0.5
1289 0.5
-1289 0.5
1290 0.5
-1290 0.5
1291 0.5
-1291 0.5
1292 0.5
-1292 0.5
1293 0.5
-1293 0.5
1294 0.5
-1294 0.5
1295 0.5
-1295 0.5
1296 0.5
-1296 0.5
1297 0.5
-1297 0.5
1298 0.5
-1298 0.5
1299 0.5
-1299 0.5
1300 0.5
-1300 0.5
1301 0.5
-1301 0.5
1302 0.5
-1302 0.5
1303 0.5
-1303 0.5
1304 0.5
-1304 0.5
1305 0.5
-1305 0.5
1306 0.5
-1306 0.5
1307 0.5
-1307 0.5
1308 0.5
-1308 0.5
1309 0.5
-1309 0.5
1310 0.5
-1310 0.5
1311 0.5
-1311 0.5
1312 0.5
-1312 0.5
1313 0.5
-1313 0.5
1314 0.5
-1314 0.5
1315 0.5
-1315 0.5
1316 0.5
-1316 0.5
1317 0.5
-1317 0.5
1318 0.5
-1318 0.5
1319 0.5
-1319 0.5
1320 0.5
-1320 0.5
1321 0.5
-1321 0.5
1322 0.664289
-1322 0.335711
1323 0.783166
-1323 0.216834
1324 0.485236
-1324 0.514764
1325 0.478293
-1325 0.521707
1326 0.5
-1326 0.5
1327 0.5
-1327 0.5
1328 0.5
-1328 0.5
1329 0.5
-1329 0.5
1330 0.5
-1330 0.5
1331 0.5
-1331 0.5
1332 0.5
-1332 0.5
1333 0.5
-1333 0.5
1334 0.633795
-1334 0.366205
1335 0.570991
-1335 0.429009
1336 0.113564
-1336 0.886436
1337 0.176222
-1337 0.823778
1338 0.5
-1338 0.5
1339 0.5
-1339 0.5
1340 0.5
-1340 0.5
1341 0.5
-1341 0.5
1342 0.407068
-1342 0.592932
1343 0.560273
-1343 0.439727
1344 0.66401
-1344 0.33599
1345 0.587684
-1345 0.412316
1346 0.5
-1346 0.5
1347 0.5
-1347 0.5
1348 0.5
-1348 0.5
1349 0.5
-1349 0.5
1350 0.5
-1350 0.5
1351 0.5
-1351 0.5
1352 0.5
-1352 0.5
1353 0.5
-1353 0.5
1354 0.5
-1354 0.5
1355 0.5
-1355 0.5
1356 0.5
-1356 0.5
1357 0.5
-1357 0.5
1358 0.5
-1358 0.5
1359 0.5
-1359 0.5
1360 0.5
-1360 0.5
1361 0.5
-1361 0.5
1362 0.50962
-1362 0.49038
1363 0.959878
-1363 0.040122
1364 0.703623
-1364 0.296377
1365 0.104053
-1365 0.895947
1366 0.110691
-1366 0.889309
1367 0.664326
-1367 0.335674
1368 0.584592
-1368 0.415408
1369 0.698375
-1369 0.301625
1370 0.5
-1370 0.5
1371 0.5
-1371 0.5
1372 0.5
-1372 0.5
1373 0.5
-1373 0.5
1374 0.5
-1374 0.5
1375 0.5
-1375 0.5
1376 0.5
-1376 0.5
1377 0.5
-1377 0.5
