1 0.365113
-1 0.634887
2 1.0
-2 1.0
3 1.0
-3 1.0
4 1.0
-4 1.0
5 1.0
-5 1.0
6 1.0
-6 1.0
7 1.0
-7 1.0
8 1.0
-8 1.0
9 1.0
-9 1.0
10 1.0
-10 1.0
11 1.0
-11 1.0
12 1.0
-12 1.0
13 1.0
-13 1.0
14 1.0
-14 1.0
15 1.0
-15 1.0
16 1.0
-16 1.0
17 1.0
-17 1.0
18 1.0
-18 1.0
19 1.0
-19 1.0
20 1.0
-20 1.0
21 1.0
-21 1.0
22 1.0
-22 1.0
23 1.0
-23 1.0
24 1.0
-24 1.0
25 1.0
-25 1.0
26 1.0
-26 1.0
27 1.0
-27 1.0
28 1.0
-28 1.0
29 1.0
-29 1.0
30 1.0
-30 1.0
31 1.0
-31 1.0
32 1.0
-32 1.0
33 1.0
-33 1.0
34 1.0
-34 1.0
35 1.0
-35 1.0
36 1.0
-36 1.0
37 1.0
-37 1.0
38 1.0
-38 1.0
39 1.0
-39 1.0
40 1.0
-40 1.0
41 1.0
-41 1.0
42 1.0
-42 1.0
43 1.0
-43 1.0
44 1.0
-44 1.0
45 1.0
-45 1.0
46 1.0
-46 1.0
47 1.0
-47 1.0
48 1.0
-48 1.0
49 1.0
-49 1.0
50 1.0
-50 1.0
51 1.0
-51 1.0
52 1.0
-52 1.0
53 1.0
-53 1.0
54 1.0
-54 1.0
55 1.0
-55 1.0
56 1.0
-56 1.0
57 1.0
-57 1.0
58 1.0
-58 1.0
59 1.0
-59 1.0
60 1.0
-60 1.0
61 1.0
-61 1.0
62 1.0
-62 1.0
63 1.0
-63 1.0
64 1.0
-64 1.0
65 1.0
-65 1.0
66 1.0
-66 1.0
67 1.0
-67 1.0
68 1.0
-68 1.0
69 1.0
-69 1.0
70 1.0
-70 1.0
71 1.0
-71 1.0
72 1.0
-72 1.0
73 1.0
-73 1.0
74 1.0
-74 1.0
75 1.0
-75 1.0
76 1.0
-76 1.0
77 1.0
-77 1.0
78 1.0
-78 1.0
79 1.0
-79 1.0
80 1.0
-80 1.0
81 1.0
-81 1.0
82 1.0
-82 1.0
83 1.0
-83 1.0
84 1.0
-84 1.0
85 1.0
-85 1.0
86 1.0
-86 1.0
87 1.0
-87 1.0
88 1.0
-88 1.0
89 1.0
-89 1.0
90 1.0
-90 1.0
91 1.0
-91 1.0
92 1.0
-92 1.0
93 1.0
-93 1.0
94 1.0
-94 1.0
95 1.0
-95 1.0
96 1.0
-96 1.0
97 1.0
-97 1.0
98 1.0
-98 1.0
99 1.0
-99 1.0
100 1.0
-100 1.0
101 1.0
-101 1.0
102 1.0
-102 1.0
103 1.0
-103 1.0
104 1.0
-104 1.0
105 1.0
-105 1.0
106 1.0
-106 1.0
107 1.0
-107 1.0
108 1.0
-108 1.0
109 1.0
-109 1.0
110 1.0
-110 1.0
111 1.0
-111 1.0
112 1.0
-112 1.0
113 1.0
-113 1.0
114 1.0
-114 1.0
115 1.0
-115 1.0
116 1.0
-116 1.0
117 1.0
-117 1.0
118 1.0
-118 1.0
119 1.0
-119 1.0
120 1.0
-120 1.0
121 1.0
-121 1.0
122 1.0
-122 1.0
123 1.0
-123 1.0
124 1.0
-124 1.0
125 1.0
-125 1.0
126 1.0
-126 1.0
127 1.0
-127 1.0
128 1.0
-128 1.0
129 1.0
-129 1.0
130 1.0
-130 1.0
131 1.0
-131 1.0
132 1.0
-132 1.0
133 1.0
-133 1.0
134 1.0
-134 1.0
135 1.0
-135 1.0
136 1.0
-136 1.0
137 1.0
-137 1.0
138 1.0
-138 1.0
139 1.0
-139 1.0
140 1.0
-140 1.0
141 1.0
-141 1.0
142 1.0
-142 1.0
143 1.0
-143 1.0
144 1.0
-144 1.0
145 0.080982
-145 0.919018
146 0.835267
-146 0.164733
147 0.5
-147 0.5
148 0.5
-148 0.5
149 0.5
-149 0.5
150 0.5
-150 0.5
151 0.598686
-151 0.401314
152 0.764634
-152 0.235366
153 0.5
-153 0.5
154 0.5
-154 0.5
155 0.379201
-155 0.620799
156 0.879263
-156 0.120737
157 0.5
-157 0.5
158 0.5
-158 0.5
159 0.495758
-159 0.504242
160 0.015494
-160 0.984506
161 0.5
-161 0.5
162 0.5
-162 0.5
163 0.5
-163 0.5
164 0.5
-164 0.5
165 0.5
-165 0.5
166 0.5
-166 0.5
167 0.5
-167 0.5
168 0.5
-168 0.5
169 0.5
-169 0.5
170 0.5
-170 0.5
171 0.5
-171 0.5
172 0.5
-172 0.5
173 0.747141
-173 0.252859
174 0.848533
-174 0.151467
175 0.468076
-175 0.531924
176 0.924165
-176 0.075835
177 0.5
-177 0.5
178 0.5
-178 0.5
179 0.5
-179 0.5
180 0.5
-180 0.5
181 0.5
-181 0.5
182 0.5
-182 0.5
183 0.5
-183 0.5
184 0.5
-184 0.5
185 0.5
-185 0.5
186 0.5
-186 0.5
187 0.5
-187 0.5
188 0.5
-188 0.5
189 0.5
-189 0.5
190 0.5
-190 0.5
191 0.5
-191 0.5
192 0.5
-192 0.5
193 0.016345
-193 0.983655
194 0.661707
-194 0.338293
195 0.85265
-195 0.14735
196 0.875005
-196 0.124995
197 0.5
-197 0.5
198 0.5
-198 0.5
199 0.5
-199 0.5
200 0.5
-200 0.5
201 0.5
-201 0.5
202 0.5
-202 0.5
203 0.5
-203 0.5
204 0.5
-204 0.5
205 0.5
-205 0.5
206 0.5
-206 0.5
207 0.5
-207 0.5
208 0.5
-208 0.5
209 0.5
-209 0.5
210 0.5
-210 0.5
211 0.5
-211 0.5
212 0.5
-212 0.5
213 0.5
-213 0.5
214 0.5
-214 0.5
215 0.5
-215 0.5
216 0.5
-216 0.5
217 0.5
-217 0.5
218 0.5
-218 0.5
219 0.5
-219 0.5
220 0.5
-220 0.5
221 0.5
-221 0.5
222 0.5
-222 0.5
223 0.5
-223 0.5
224 0.5
-224 0.5
225 0.5
-225 0.5
226 0.5
-226 0.5
227 0.5
-227 0.5
228 0.5
-228 0.5
229 0.5
-229 0.5
230 0.5
-230 0.5
231 0.5
-231 0.5
232 0.5
-232 0.5
233 0.5
-233 0.5
234 0.5
-234 0.5
235 0.175134
-235 0.824866
236 0.154575
-236 0.845425
237 0.367546
-237 0.632454
238 0.555325
-238 0.444675
239 0.5
-239 0.5
240 0.5
-240 0.5
241 0.5
-241 0.5
242 0.5
-242 0.5
243 0.896455
-243 0.103545
244 0.442612
-244 0.557388
245 0.179955
-245 0.820045
246 0.243054
-246 0.756946
247 0.506311
-247 0.493689
248 0.113607
-248 0.886393
249 0.502543
-249 0.497457
250 0.025205
-250 0.974795
251 0.5
-251 0.5
252 0.5
-252 0.5
253 0.5
-253 0.5
254 0.5
-254 0.5
255 0.5
-255 0.5
256 0.5
-256 0.5
257 0.5
-257 0.5
258 0.5
-258 0.5
259 0.5
-259 0.5
260 0.5
-260 0.5
261 0.441513
-261 0.558487
262 0.919956
-262 0.080044
263 0.356949
-263 0.643051
264 0.697002
-264 0.302998
265 0.5
-265 0.5
266 0.5
-266 0.5
267 0.5
-267 0.5
268 0.5
-268 0.5
269 0.5
-269 0.5
270 0.5
-270 0.5
271 0.5
-271 0.5
272 0.5
-272 0.5
273 0.5
-273 0.5
274 0.5
-274 0.5
275 0.5
-275 0.5
276 0.5
-276 0.5
277 0.5
-277 0.5
278 0.5
-278 0.5
279 0.5
-279 0.5
280 0.5
-280 0.5
281 0.5
-281 0.5
282 0.5
-282 0.5
283 0.5
-283 0.5
284 0.5
-284 0.5
285 0.22841
-285 0.77159
286 0.646182
-286 0.353818
287 0.215932
-287 0.784068
288 0.925412
-288 0.074588
289 0.5
-289 0.5
290 0.5
-290 0.5
291 0.5
-291 0.5
292 0.5
-292 0.5
293 0.5
-293 0.5
294 0.5
-294 0.5
295 0.5
-295 0.5
296 0.5
-296 0.5
297 0.5
-297 0.5
298 0.5
-298 0.5
299 0.5
-299 0.5
300 0.5
-300 0.5
301 0.5
-301 0.5
302 0.5
-302 0.5
303 0.5
-303 0.5
304 0.5
-304 0.5
305 0.5
-305 0.5
306 0.5
-306 0.5
307 0.5
-307 0.5
308 0.5
-308 0.5
309 0.5
-309 0.5
310 0.5
-310 0.5
311 0.103551
-311 0.896449
312 0.765594
-312 0.234406
313 0.844888
-313 0.155112
314 0.759691
-314 0.240309
315 0.616948
-315 0.383052
316 0.254595
-316 0.745405
317 0.557172
-317 0.442828
318 0.132113
-318 0.867887
319 0.5
-319 0.5
320 0.5
-320 0.5
321 0.5
-321 0.5
322 0.5
-322 0.5
323 0.5
-323 0.5
324 0.5
-324 0.5
325 0.5
-325 0.5
326 0.5
-326 0.5
327 0.5
-327 0.5
328 0.5
-328 0.5
329 0.5
-329 0.5
330 0.5
-330 0.5
331 0.5
-331 0.5
332 0.5
-332 0.5
333 0.5
-333 0.5
334 0.5
-334 0.5
335 0.5
-335 0.5
336 0.5
-336 0.5
337 0.5
-337 0.5
338 0.5
-338 0.5
339 0.748973
-339 0.251027
340 0.255057
-340 0.744943
341 0.080411
-341 0.919589
342 0.306145
-342 0.693855
343 0.5
-343 0.5
344 0.5
-344 0.5
345 0.5
-345 0.5
346 0.5
-346 0.5
347 0.5
-347 0.5
348 0.5
-348 0.5
349 0.5
-349 0.5
350 0.5
-350 0.5
351 0.5
-351 0.5
352 0.5
-352 0.5
353 0.5
-353 0.5
354 0.5
-354 0.5
355 0.5
-355 0.5
356 0.5
-356 0.5
357 0.5
-357 0.5
358 0.5
-358 0.5
359 0.5
-359 0.5
360 0.5
-360 0.5
361 0.5
-361 0.5
362 0.5
-362 0.5
363 0.5
-363 0.5
364 0.5
-364 0.5
365 0.5
-365 0.5
366 0.5
-366 0.5
367 0.5
-367 0.5
368 0.5
-368 0.5
369 0.184785
-369 0.815215
370 0.553141
-370 0.446859
371 0.771074
-371 0.228926
372 0.269295
-372 0.730705
373 0.020815
-373 0.979185
374 0.51838
-374 0.48162
375 0.195679
-375 0.804321
376 0.144857
-376 0.855143
377 0.917834
-377 0.082166
378 0.54741
-378 0.45259
379 0.224089
-379 0.775911
380 0.608053
-380 0.391947
381 0.5
-381 0.5
382 0.5
-382 0.5
383 0.5
-383 0.5
384 0.5
-384 0.5
385 0.450642
-385 0.549358
386 0.045759
-386 0.954241
387 0.734132
-387 0.265868
388 0.05025
-388 0.94975
389 0.5
-389 0.5
390 0.5
-390 0.5
391 0.5
-391 0.5
392 0.5
-392 0.5
393 0.5
-393 0.5
394 0.5
-394 0.5
395 0.5
-395 0.5
396 0.5
-396 0.5
397 0.313463
-397 0.686537
398 0.885054
-398 0.114946
399 0.45832
-399 0.54168
400 0.869256
-400 0.130744
401 0.886953
-401 0.113047
402 0.00573
-402 0.99427
403 0.5
-403 0.5
404 0.5
-404 0.5
405 0.5
-405 0.5
406 0.5
-406 0.5
407 0.5
-407 0.5
408 0.5
-408 0.5
409 0.5
-409 0.5
410 0.5
-410 0.5
411 0.5
-411 0.5
412 0.5
-412 0.5
413 0.5
-413 0.5
414 0.5
-414 0.5
415 0.250866
-415 0.749134
416 0.599484
-416 0.400516
417 0.492113
-417 0.507887
418 0.348245
-418 0.651755
419 0.5
-419 0.5
420 0.5
-420 0.5
421 0.5
-421 0.5
422 0.5
-422 0.5
423 0.5
-423 0.5
424 0.5
-424 0.5
425 0.5
-425 0.5
426 0.5
-426 0.5
427 0.5
-427 0.5
428 0.5
-428 0.5
429 0.5
-429 0.5
430 0.5
-430 0.5
431 0.5
-431 0.5
432 0.5
-432 0.5
433 0.5
-433 0.5
434 0.5
-434 0.5
435 0.5
-435 0.5
436 0.5
-436 0.5
437 0.5
-437 0.5
438 0.5
-438 0.5
439 0.5
-439 0.5
440 0.5
-440 0.5
441 0.5
-441 0.5
442 0.5
-442 0.5
443 0.5
-443 0.5
444 0.5
-444 0.5
445 0.5
-445 0.5
446 0.5
-446 0.5
447 0.5
-447 0.5
448 0.5
-448 0.5
449 0.5
-449 0.5
450 0.5
-450 0.5
451 0.5
-451 0.5
452 0.5
-452 0.5
453 0.5
-453 0.5
454 0.5
-454 0.5
455 0.5
-455 0.5
456 0.5
-456 0.5
457 0.5
-457 0.5
458 0.5
-458 0.5
459 0.5
-459 0.5
460 0.5
-460 0.5
461 0.5
-461 0.5
462 0.5
-462 0.5
463 0.5
-463 0.5
464 0.5
-464 0.5
465 0.5
-465 0.5
466 0.5
-466 0.5
467 0.5
-467 0.5
468 0.5
-468 0.5
469 0.55751
-469 0.44249
470 0.972716
-470 0.027284
471 0.94802
-471 0.05198
472 0.929567
-472 0.070433
473 0.5
-473 0.5
474 0.5
-474 0.5
475 0.5
-475 0.5
476 0.5
-476 0.5
477 0.5
-477 0.5
478 0.5
-478 0.5
479 0.5
-479 0.5
480 0.5
-480 0.5
481 0.5
-481 0.5
482 0.5
-482 0.5
483 0.5
-483 0.5
484 0.5
-484 0.5
485 0.5
-485 0.5
486 0.5
-486 0.5
487 0.5
-487 0.5
488 0.5
-488 0.5
489 0.062487
-489 0.937513
490 0.870824
-490 0.129176
491 0.5
-491 0.5
492 0.5
-492 0.5
493 0.5
-493 0.5
494 0.5
-494 0.5
495 0.316848
-495 0.683152
496 0.334988
-496 0.665012
497 0.096192
-497 0.903808
498 0.961818
-498 0.038182
499 0.5
-499 0.5
500 0.5
-500 0.5
501 0.5
-501 0.5
502 0.5
-502 0.5
503 0.5
-503 0.5
504 0.5
-504 0.5
505 0.5
-505 0.5
506 0.5
-506 0.5
507 0.5
-507 0.5
508 0.5
-508 0.5
509 0.5
-509 0.5
510 0.5
-510 0.5
511 0.5
-511 0.5
512 0.5
-512 0.5
513 0.5
-513 0.5
514 0.5
-514 0.5
515 0.5
-515 0.5
516 0.5
-516 0.5
517 0.5
-517 0.5
518 0.5
-518 0.5
519 0.5
-519 0.5
520 0.5
-520 0.5
521 0.5
-521 0.5
522 0.5
-522 0.5
523 0.5
-523 0.5
524 0.5
-524 0.5
525 0.5
-525 0.5
526 0.5
-526 0.5
527 0.5
-527 0.5
528 0.5
-528 0.5
529 0.5
-529 0.5
530 0.5
-530 0.5
531 0.5
-531 0.5
532 0.5
-532 0.5
533 0.5
-533 0.5
534 0.5
-534 0.5
535 0.5
-535 0.5
536 0.5
-536 0.5
537 0.5
-537 0.5
538 0.5
-538 0.5
539 0.5
-539 0.5
540 0.5
-540 0.5
541 0.374266
-541 0.625734
542 0.339349
-542 0.660651
543 0.846058
-543 0.153942
544 0.456101
-544 0.543899
545 0.5
-545 0.5
546 0.5
-546 0.5
547 0.5
-547 0.5
548 0.5
-548 0.5
549 0.5
-549 0.5
550 0.5
-550 0.5
551 0.5
-551 0.5
552 0.5
-552 0.5
553 0.5
-553 0.5
554 0.5
-554 0.5
555 0.5
-555 0.5
556 0.5
-556 0.5
557 0.5
-557 0.5
558 0.5
-558 0.5
559 0.5
-559 0.5
560 0.5
-560 0.5
561 0.95267
-561 0.04733
562 0.239427
-562 0.760573
563 0.284153
-563 0.715847
564 0.059248
-564 0.940752
565 0.239576
-565 0.760424
566 0.433514
-566 0.566486
567 0.27812
-567 0.72188
568 0.085635
-568 0.914365
569 0.57432
-569 0.42568
570 0.157316
-570 0.842684
571 0.523744
-571 0.476256
572 0.789191
-572 0.210809
573 0.5
-573 0.5
574 0.5
-574 0.5
575 0.5
-575 0.5
576 0.5
-576 0.5
577 0.5
-577 0.5
578 0.5
-578 0.5
579 0.5
-579 0.5
580 0.5
-580 0.5
581 0.5
-581 0.5
582 0.5
-582 0.5
583 0.5
-583 0.5
584 0.5
-584 0.5
585 0.5
-585 0.5
586 0.5
-586 0.5
587 0.5
-587 0.5
588 0.5
-588 0.5
589 0.5
-589 0.5
590 0.5
-590 0.5
591 0.5
-591 0.5
592 0.5
-592 0.5
593 0.5
-593 0.5
594 0.5
-594 0.5
595 0.595418
-595 0.404582
596 0.700232
-596 0.299768
597 0.381776
-597 0.618224
598 0.813057
-598 0.186943
599 0.5
-599 0.5
600 0.5
-600 0.5
601 0.5
-601 0.5
602 0.5
-602 0.5
603 0.5
-603 0.5
604 0.5
-604 0.5
605 0.5
-605 0.5
606 0.5
-606 0.5
607 0.5
-607 0.5
608 0.5
-608 0.5
609 0.5
-609 0.5
610 0.5
-610 0.5
611 0.689926
-611 0.310074
612 0.07479
-612 0.92521
613 0.747629
-613 0.252371
614 0.748527
-614 0.251473
615 0.5
-615 0.5
616 0.5
-616 0.5
617 0.5
-617 0.5
618 0.5
-618 0.5
619 0.138462
-619 0.861538
620 0.596781
-620 0.403219
621 0.69652
-621 0.30348
622 0.520238
-622 0.479762
623 0.5
-623 0.5
624 0.5
-624 0.5
625 0.5
-625 0.5
626 0.5
-626 0.5
627 0.5
-627 0.5
628 0.5
-628 0.5
629 0.5
-629 0.5
630 0.5
-630 0.5
631 0.5
-631 0.5
632 0.5
-632 0.5
633 0.002447
-633 0.997553
634 0.093249
-634 0.906751
635 0.968448
-635 0.031552
636 0.692373
-636 0.307627
637 0.5
-637 0.5
638 0.5
-638 0.5
639 0.5
-639 0.5
640 0.5
-640 0.5
641 0.5
-641 0.5
642 0.5
-642 0.5
643 0.5
-643 0.5
644 0.5
-644 0.5
645 0.5
-645 0.5
646 0.5
-646 0.5
647 0.5
-647 0.5
648 0.5
-648 0.5
649 0.5
-649 0.5
650 0.5
-650 0.5
651 0.5
-651 0.5
652 0.5
-652 0.5
653 0.5
-653 0.5
654 0.5
-654 0.5
655 0.5
-655 0.5
656 0.5
-656 0.5
657 0.097355
-657 0.902644
658 0.574249
-658 0.425751
659 0.069467
-659 0.930534
660 0.065803
-660 0.934197
661 0.5
-661 0.5
662 0.5
-662 0.5
663 0.5
-663 0.5
664 0.5
-664 0.5
665 0.5
-665 0.5
666 0.5
-666 0.5
667 0.5
-667 0.5
668 0.5
-668 0.5
669 0.5
-669 0.5
670 0.5
-670 0.5
671 0.5
-671 0.5
672 0.5
-672 0.5
