1 0.75524
-1 0.24476
2 1.0
-2 1.0
3 1.0
-3 1.0
4 1.0
-4 1.0
5 1.0
-5 1.0
6 1.0
-6 1.0
7 1.0
-7 1.0
8 1.0
-8 1.0
9 1.0
-9 1.0
10 1.0
-10 1.0
11 1.0
-11 1.0
12 1.0
-12 1.0
13 1.0
-13 1.0
14 1.0
-14 1.0
15 1.0
-15 1.0
16 1.0
-16 1.0
17 1.0
-17 1.0
18 1.0
-18 1.0
19 1.0
-19 1.0
20 1.0
-20 1.0
21 1.0
-21 1.0
22 1.0
-22 1.0
23 1.0
-23 1.0
24 1.0
-24 1.0
25 1.0
-25 1.0
26 1.0
-26 1.0
27 1.0
-27 1.0
28 1.0
-28 1.0
29 1.0
-29 1.0
30 1.0
-30 1.0
31 1.0
-31 1.0
32 1.0
-32 1.0
33 1.0
-33 1.0
34 1.0
-34 1.0
35 1.0
-35 1.0
36 1.0
-36 1.0
37 1.0
-37 1.0
38 1.0
-38 1.0
39 1.0
-39 1.0
40 1.0
-40 1.0
41 1.0
-41 1.0
42 1.0
-42 1.0
43 1.0
-43 1.0
44 1.0
-44 1.0
45 1.0
-45 1.0
46 1.0
-46 1.0
47 1.0
-47 1.0
48 1.0
-48 1.0
49 1.0
-49 1.0
50 1.0
-50 1.0
51 1.0
-51 1.0
52 1.0
-52 1.0
53 1.0
-53 1.0
54 1.0
-54 1.0
55 1.0
-55 1.0
56 1.0
-56 1.0
57 1.0
-57 1.0
58 1.0
-58 1.0
59 1.0
-59 1.0
60 1.0
-60 1.0
61 1.0
-61 1.0
62 1.0
-62 1.0
63 1.0
-63 1.0
64 1.0
-64 1.0
65 1.0
-65 1.0
66 1.0
-66 1.0
67 1.0
-67 1.0
68 1.0
-68 1.0
69 1.0
-69 1.0
70 1.0
-70 1.0
71 1.0
-71 1.0
72 1.0
-72 1.0
73 1.0
-73 1.0
74 1.0
-74 1.0
75 1.0
-75 1.0
76 1.0
-76 1.0
77 1.0
-77 1.0
78 1.0
-78 1.0
79 1.0
-79 1.0
80 1.0
-80 1.0
81 1.0
-81 1.0
82 1.0
-82 1.0
83 1.0
-83 1.0
84 1.0
-84 1.0
85 1.0
-85 1.0
86 1.0
-86 1.0
87 1.0
-87 1.0
88 1.0
-88 1.0
89 1.0
-89 1.0
90 1.0
-90 1.0
91 1.0
-91 1.0
92 1.0
-92 1.0
93 1.0
-93 1.0
94 1.0
-94 1.0
95 1.0
-95 1.0
96 1.0
-96 1.0
97 1.0
-97 1.0
98 1.0
-98 1.0
99 1.0
-99 1.0
100 1.0
-100 1.0
101 1.0
-101 1.0
102 1.0
-102 1.0
103 1.0
-103 1.0
104 1.0
-104 1.0
105 1.0
-105 1.0
106 1.0
-106 1.0
107 1.0
-107 1.0
108 1.0
-108 1.0
109 1.0
-109 1.0
110 1.0
-110 1.0
111 1.0
-111 1.0
112 1.0
-112 1.0
113 1.0
-113 1.0
114 1.0
-114 1.0
115 1.0
-115 1.0
116 1.0
-116 1.0
117 1.0
-117 1.0
118 1.0
-118 1.0
119 1.0
-119 1.0
120 1.0
-120 1.0
121 1.0
-121 1.0
122 1.0
-122 1.0
123 1.0
-123 1.0
124 1.0
-124 1.0
125 1.0
-125 1.0
126 1.0
-126 1.0
127 1.0
-127 1.0
128 1.0
-128 1.0
129 1.0
-129 1.0
130 1.0
-130 1.0
131 1.0
-131 1.0
132 1.0
-132 1.0
133 1.0
-133 1.0
134 1.0
-134 1.0
135 1.0
-135 1.0
136 1.0
-136 1.0
137 1.0
-137 1.0
138 1.0
-138 1.0
139 1.0
-139 1.0
140 1.0
-140 1.0
141 1.0
-141 1.0
142 1.0
-142 1.0
143 1.0
-143 1.0
144 1.0
-144 1.0
145 1.0
-145 1.0
146 1.0
-146 1.0
147 1.0
-147 1.0
148 1.0
-148 1.0
149 1.0
-149 1.0
150 1.0
-150 1.0
151 1.0
-151 1.0
152 1.0
-152 1.0
153 1.0
-153 1.0
154 1.0
-154 1.0
155 1.0
-155 1.0
156 1.0
-156 1.0
157 1.0
-157 1.0
158 1.0
-158 1.0
159 1.0
-159 1.0
160 1.0
-160 1.0
161 1.0
-161 1.0
162 1.0
-162 1.0
163 1.0
-163 1.0
164 1.0
-164 1.0
165 1.0
-165 1.0
166 1.0
-166 1.0
167 1.0
-167 1.0
168 1.0
-168 1.0
169 1.0
-169 1.0
170 1.0
-170 1.0
171 1.0
-171 1.0
172 1.0
-172 1.0
173 1.0
-173 1.0
174 1.0
-174 1.0
175 1.0
-175 1.0
176 1.0
-176 1.0
177 1.0
-177 1.0
178 1.0
-178 1.0
179 1.0
-179 1.0
180 1.0
-180 1.0
181 1.0
-181 1.0
182 1.0
-182 1.0
183 1.0
-183 1.0
184 1.0
-184 1.0
185 1.0
-185 1.0
186 1.0
-186 1.0
187 1.0
-187 1.0
188 1.0
-188 1.0
189 1.0
-189 1.0
190 1.0
-190 1.0
191 1.0
-191 1.0
192 1.0
-192 1.0
193 1.0
-193 1.0
194 1.0
-194 1.0
195 1.0
-195 1.0
196 1.0
-196 1.0
197 1.0
-197 1.0
198 1.0
-198 1.0
199 1.0
-199 1.0
200 1.0
-200 1.0
201 1.0
-201 1.0
202 1.0
-202 1.0
203 1.0
-203 1.0
204 1.0
-204 1.0
205 1.0
-205 1.0
206 1.0
-206 1.0
207 1.0
-207 1.0
208 1.0
-208 1.0
209 1.0
-209 1.0
210 1.0
-210 1.0
211 1.0
-211 1.0
212 1.0
-212 1.0
213 1.0
-213 1.0
214 1.0
-214 1.0
215 1.0
-215 1.0
216 1.0
-216 1.0
217 1.0
-217 1.0
218 1.0
-218 1.0
219 1.0
-219 1.0
220 1.0
-220 1.0
221 1.0
-221 1.0
222 1.0
-222 1.0
223 1.0
-223 1.0
224 1.0
-224 1.0
225 1.0
-225 1.0
226 1.0
-226 1.0
227 1.0
-227 1.0
228 1.0
-228 1.0
229 1.0
-229 1.0
230 1.0
-230 1.0
231 1.0
-231 1.0
232 1.0
-232 1.0
233 1.0
-233 1.0
234 1.0
-234 1.0
235 1.0
-235 1.0
236 1.0
-236 1.0
237 1.0
-237 1.0
238 1.0
-238 1.0
239 1.0
-239 1.0
240 1.0
-240 1.0
241 1.0
-241 1.0
242 1.0
-242 1.0
243 1.0
-243 1.0
244 1.0
-244 1.0
245 1.0
-245 1.0
246 1.0
-246 1.0
247 1.0
-247 1.0
248 1.0
-248 1.0
249 1.0
-249 1.0
250 1.0
-250 1.0
251 1.0
-251 1.0
252 1.0
-252 1.0
253 1.0
-253 1.0
254 1.0
-254 1.0
255 1.0
-255 1.0
256 1.0
-256 1.0
257 1.0
-257 1.0
258 1.0
-258 1.0
259 1.0
-259 1.0
260 1.0
-260 1.0
261 1.0
-261 1.0
262 1.0
-262 1.0
263 1.0
-263 1.0
264 1.0
-264 1.0
265 1.0
-265 1.0
266 1.0
-266 1.0
267 1.0
-267 1.0
268 1.0
-268 1.0
269 1.0
-269 1.0
270 1.0
-270 1.0
271 1.0
-271 1.0
272 1.0
-272 1.0
273 1.0
-273 1.0
274 1.0
-274 1.0
275 1.0
-275 1.0
276 1.0
-276 1.0
277 1.0
-277 1.0
278 1.0
-278 1.0
279 1.0
-279 1.0
280 1.0
-280 1.0
281 1.0
-281 1.0
282 1.0
-282 1.0
283 1.0
-283 1.0
284 1.0
-284 1.0
285 1.0
-285 1.0
286 1.0
-286 1.0
287 1.0
-287 1.0
288 1.0
-288 1.0
289 1.0
-289 1.0
290 1.0
-290 1.0
291 1.0
-291 1.0
292 1.0
-292 1.0
293 1.0
-293 1.0
294 1.0
-294 1.0
295 1.0
-295 1.0
296 1.0
-296 1.0
297 1.0
-297 1.0
298 1.0
-298 1.0
299 1.0
-299 1.0
300 1.0
-300 1.0
301 1.0
-301 1.0
302 1.0
-302 1.0
303 1.0
-303 1.0
304 1.0
-304 1.0
305 1.0
-305 1.0
306 1.0
-306 1.0
307 1.0
-307 1.0
308 1.0
-308 1.0
309 1.0
-309 1.0
310 1.0
-310 1.0
311 1.0
-311 1.0
312 1.0
-312 1.0
313 1.0
-313 1.0
314 1.0
-314 1.0
315 1.0
-315 1.0
316 1.0
-316 1.0
317 1.0
-317 1.0
318 1.0
-318 1.0
319 1.0
-319 1.0
320 1.0
-320 1.0
321 1.0
-321 1.0
322 1.0
-322 1.0
323 1.0
-323 1.0
324 1.0
-324 1.0
325 1.0
-325 1.0
326 1.0
-326 1.0
327 1.0
-327 1.0
328 1.0
-328 1.0
329 1.0
-329 1.0
330 1.0
-330 1.0
331 1.0
-331 1.0
332 1.0
-332 1.0
333 1.0
-333 1.0
334 1.0
-334 1.0
335 1.0
-335 1.0
336 1.0
-336 1.0
337 1.0
-337 1.0
338 1.0
-338 1.0
339 1.0
-339 1.0
340 1.0
-340 1.0
341 1.0
-341 1.0
342 1.0
-342 1.0
343 1.0
-343 1.0
344 1.0
-344 1.0
345 1.0
-345 1.0
346 1.0
-346 1.0
347 1.0
-347 1.0
348 1.0
-348 1.0
349 1.0
-349 1.0
350 1.0
-350 1.0
351 1.0
-351 1.0
352 1.0
-352 1.0
353 1.0
-353 1.0
354 1.0
-354 1.0
355 1.0
-355 1.0
356 1.0
-356 1.0
357 1.0
-357 1.0
358 1.0
-358 1.0
359 1.0
-359 1.0
360 1.0
-360 1.0
361 1.0
-361 1.0
362 0.5
-362 0.5
363 0.5
-363 0.5
364 0.5
-364 0.5
365 0.5
-365 0.5
366 0.5
-366 0.5
367 0.5
-367 0.5
368 0.584374
-368 0.415626
369 0.8544
-369 0.1456
370 0.5
-370 0.5
371 0.5
-371 0.5
372 0.5
-372 0.5
373 0.5
-373 0.5
374 0.5
-374 0.5
375 0.5
-375 0.5
376 0.5
-376 0.5
377 0.5
-377 0.5
378 0.5
-378 0.5
379 0.5
-379 0.5
380 0.5
-380 0.5
381 0.5
-381 0.5
382 0.5
-382 0.5
383 0.5
-383 0.5
384 0.5
-384 0.5
385 0.5
-385 0.5
386 0.5
-386 0.5
387 0.5
-387 0.5
388 0.540014
-388 0.459986
389 0.448794
-389 0.551206
390 0.5
-390 0.5
391 0.5
-391 0.5
392 0.5
-392 0.5
393 0.5
-393 0.5
394 0.5
-394 0.5
395 0.5
-395 0.5
396 0.5
-396 0.5
397 0.5
-397 0.5
398 0.55743
-398 0.44257
399 0.117062
-399 0.882938
400 0.5
-400 0.5
401 0.5
-401 0.5
402 0.5
-402 0.5
403 0.5
-403 0.5
404 0.5
-404 0.5
405 0.5
-405 0.5
406 0.5
-406 0.5
407 0.5
-407 0.5
408 0.5
-408 0.5
409 0.5
-409 0.5
410 0.5
-410 0.5
411 0.5
-411 0.5
412 0.5
-412 0.5
413 0.5
-413 0.5
414 0.5
-414 0.5
415 0.5
-415 0.5
416 0.5
-416 0.5
417 0.5
-417 0.5
418 0.5
-418 0.5
419 0.5
-419 0.5
420 0.140783
-420 0.859217
421 0.379563
-421 0.620437
422 0.938622
-422 0.061378
423 0.698213
-423 0.301787
424 0.5
-424 0.5
425 0.5
-425 0.5
426 0.5
-426 0.5
427 0.5
-427 0.5
428 0.5
-428 0.5
429 0.5
-429 0.5
430 0.5
-430 0.5
431 0.5
-431 0.5
432 0.873528
-432 0.126472
433 0.835102
-433 0.164898
434 0.27958
-434 0.72042
435 0.718811
-435 0.281189
436 0.5
-436 0.5
437 0.5
-437 0.5
438 0.5
-438 0.5
439 0.5
-439 0.5
440 0.5
-440 0.5
441 0.5
-441 0.5
442 0.5
-442 0.5
443 0.5
-443 0.5
444 0.5
-444 0.5
445 0.5
-445 0.5
446 0.5
-446 0.5
447 0.5
-447 0.5
448 0.306546
-448 0.693454
449 0.209264
-449 0.790736
450 0.323249
-450 0.676751
451 0.493514
-451 0.506486
452 0.5
-452 0.5
453 0.5
-453 0.5
454 0.5
-454 0.5
455 0.5
-455 0.5
456 0.5
-456 0.5
457 0.5
-457 0.5
458 0.5
-458 0.5
459 0.5
-459 0.5
460 0.5
-460 0.5
461 0.5
-461 0.5
462 0.5
-462 0.5
463 0.5
-463 0.5
464 0.521907
-464 0.478093
465 0.153741
-465 0.846259
466 0.842173
-466 0.157827
467 0.646746
-467 0.353254
468 0.5
-468 0.5
469 0.5
-469 0.5
470 0.5
-470 0.5
471 0.5
-471 0.5
472 0.700566
-472 0.299434
473 0.929562
-473 0.070438
474 0.5
-474 0.5
475 0.5
-475 0.5
476 0.5
-476 0.5
477 0.5
-477 0.5
478 0.046595
-478 0.953405
479 0.398302
-479 0.601698
480 0.344859
-480 0.655141
481 0.071382
-481 0.928618
482 0.5
-482 0.5
483 0.5
-483 0.5
484 0.5
-484 0.5
485 0.5
-485 0.5
486 0.5
-486 0.5
487 0.5
-487 0.5
488 0.5
-488 0.5
489 0.5
-489 0.5
490 0.5
-490 0.5
491 0.5
-491 0.5
492 0.5
-492 0.5
493 0.5
-493 0.5
494 0.5
-494 0.5
495 0.5
-495 0.5
496 0.5
-496 0.5
497 0.5
-497 0.5
498 0.5
-498 0.5
499 0.5
-499 0.5
500 0.5
-500 0.5
501 0.5
-501 0.5
502 0.5
-502 0.5
503 0.5
-503 0.5
504 0.5
-504 0.5
505 0.5
-505 0.5
506 0.5
-506 0.5
507 0.5
-507 0.5
508 0.5
-508 0.5
509 0.5
-509 0.5
510 0.5
-510 0.5
511 0.5
-511 0.5
512 0.5
-512 0.5
513 0.5
-513 0.5
514 0.5
-514 0.5
515 0.5
-515 0.5
516 0.5
-516 0.5
517 0.5
-517 0.5
518 0.5
-518 0.5
519 0.5
-519 0.5
520 0.5
-520 0.5
521 0.5
-521 0.5
522 0.5
-522 0.5
523 0.5
-523 0.5
524 0.5
-524 0.5
525 0.5
-525 0.5
526 0.5
-526 0.5
527 0.5
-527 0.5
528 0.5
-528 0.5
529 0.5
-529 0.5
530 0.907592
-530 0.092408
531 0.822882
-531 0.177118
532 0.693578
-532 0.306422
533 0.398356
-533 0.601644
534 0.91372
-534 0.08628
535 0.246837
-535 0.753163
536 0.627329
-536 0.372671
537 0.555694
-537 0.444306
538 0.5
-538 0.5
539 0.5
-539 0.5
540 0.5
-540 0.5
541 0.5
-541 0.5
542 0.5
-542 0.5
543 0.5
-543 0.5
544 0.5
-544 0.5
545 0.5
-545 0.5
546 0.5
-546 0.5
547 0.5
-547 0.5
548 0.5
-548 0.5
549 0.5
-549 0.5
550 0.5
-550 0.5
551 0.5
-551 0.5
552 0.5
-552 0.5
553 0.5
-553 0.5
554 0.5
-554 0.5
555 0.5
-555 0.5
556 0.5
-556 0.5
557 0.5
-557 0.5
558 0.5
-558 0.5
559 0.5
-559 0.5
560 0.5
-560 0.5
561 0.5
-561 0.5
562 0.5
-562 0.5
563 0.5
-563 0.5
564 0.296435
-564 0.703565
565 0.934462
-565 0.065538
566 0.037169
-566 0.962831
567 0.799463
-567 0.200537
568 0.5
-568 0.5
569 0.5
-569 0.5
570 0.5
-570 0.5
571 0.5
-571 0.5
572 0.5
-572 0.5
573 0.5
-573 0.5
574 0.5
-574 0.5
575 0.5
-575 0.5
576 0.5
-576 0.5
577 0.5
-577 0.5
578 0.5
-578 0.5
579 0.5
-579 0.5
580 0.5
-580 0.5
581 0.5
-581 0.5
582 0.5
-582 0.5
583 0.5
-583 0.5
584 0.5
-584 0.5
585 0.5
-585 0.5
586 0.5
-586 0.5
587 0.5
-587 0.5
588 0.573572
-588 0.426428
589 0.045694
-589 0.954306
590 0.85462
-590 0.14538
591 0.610741
-591 0.389259
592 0.400634
-592 0.599366
593 0.729276
-593 0.270724
594 0.781665
-594 0.218335
595 0.965327
-595 0.034673
596 0.5
-596 0.5
597 0.5
-597 0.5
598 0.5
-598 0.5
599 0.5
-599 0.5
600 0.874438
-600 0.125562
601 0.72334
-601 0.27666
602 0.3031
-602 0.6969
603 0.883876
-603 0.116124
604 0.5
-604 0.5
605 0.5
-605 0.5
606 0.5
-606 0.5
607 0.5
-607 0.5
608 0.683905
-608 0.316095
609 0.82395
-609 0.17605
610 0.60006
-610 0.39994
611 0.370766
-611 0.629234
612 0.5
-612 0.5
613 0.5
-613 0.5
614 0.5
-614 0.5
615 0.5
-615 0.5
616 0.5
-616 0.5
617 0.5
-617 0.5
618 0.5
-618 0.5
619 0.5
-619 0.5
620 0.5
-620 0.5
621 0.5
-621 0.5
622 0.5
-622 0.5
623 0.5
-623 0.5
624 0.5
-624 0.5
625 0.5
-625 0.5
626 0.5
-626 0.5
627 0.5
-627 0.5
628 0.5
-628 0.5
629 0.5
-629 0.5
630 0.5
-630 0.5
631 0.5
-631 0.5
632 0.5
-632 0.5
633 0.5
-633 0.5
634 0.354065
-634 0.645935
635 0.553318
-635 0.446682
636 0.419641
-636 0.580359
637 0.874283
-637 0.125717
638 0.5
-638 0.5
639 0.5
-639 0.5
640 0.5
-640 0.5
641 0.5
-641 0.5
642 0.5
-642 0.5
643 0.5
-643 0.5
644 0.5
-644 0.5
645 0.5
-645 0.5
646 0.5
-646 0.5
647 0.5
-647 0.5
648 0.5
-648 0.5
649 0.5
-649 0.5
650 0.5
-650 0.5
651 0.5
-651 0.5
652 0.5
-652 0.5
653 0.5
-653 0.5
654 0.5
-654 0.5
655 0.5
-655 0.5
656 0.5
-656 0.5
657 0.5
-657 0.5
658 0.112073
-658 0.887927
659 0.67811
-659 0.32189
660 0.501745
-660 0.498255
661 0.531714
-661 0.468286
662 0.5
-662 0.5
663 0.5
-663 0.5
664 0.5
-664 0.5
665 0.5
-665 0.5
666 0.5
-666 0.5
667 0.5
-667 0.5
668 0.5
-668 0.5
669 0.5
-669 0.5
670 0.5
-670 0.5
671 0.5
-671 0.5
672 0.5
-672 0.5
673 0.5
-673 0.5
674 0.5
-674 0.5
675 0.5
-675 0.5
676 0.5
-676 0.5
677 0.5
-677 0.5
678 0.5
-678 0.5
679 0.5
-679 0.5
680 0.5
-680 0.5
681 0.5
-681 0.5
682 0.5
-682 0.5
683 0.5
-683 0.5
684 0.5
-684 0.5
685 0.5
-685 0.5
686 0.784804
-686 0.215196
687 0.029051
-687 0.970949
688 0.554499
-688 0.445501
689 0.836941
-689 0.163059
690 0.5
-690 0.5
691 0.5
-691 0.5
692 0.5
-692 0.5
693 0.5
-693 0.5
694 0.5
-694 0.5
695 0.5
-695 0.5
696 0.5
-696 0.5
697 0.5
-697 0.5
698 0.5
-698 0.5
699 0.5
-699 0.5
700 0.5
-700 0.5
701 0.5
-701 0.5
702 0.5
-702 0.5
703 0.5
-703 0.5
704 0.5
-704 0.5
705 0.5
-705 0.5
706 0.5
-706 0.5
707 0.5
-707 0.5
708 0.5
-708 0.5
709 0.5
-709 0.5
710 0.5
-710 0.5
711 0.5
-711 0.5
712 0.5
-712 0.5
713 0.5
-713 0.5
714 0.5
-714 0.5
715 0.5
-715 0.5
716 0.5
-716 0.5
717 0.5
-717 0.5
718 0.5
-718 0.5
719 0.5
-719 0.5
720 0.5
-720 0.5
721 0.5
-721 0.5
722 0.5
-722 0.5
723 0.5
-723 0.5
724 0.5
-724 0.5
725 0.5
-725 0.5
726 0.5
-726 0.5
727 0.5
-727 0.5
728 0.5
-728 0.5
729 0.5
-729 0.5
730 0.5
-730 0.5
731 0.5
-731 0.5
732 0.5
-732 0.5
733 0.5
-733 0.5
734 0.5
-734 0.5
735 0.5
-735 0.5
736 0.5
-736 0.5
737 0.5
-737 0.5
738 0.5
-738 0.5
739 0.5
-739 0.5
740 0.5
-740 0.5
741 0.5
-741 0.5
742 0.5
-742 0.5
743 0.5
-743 0.5
744 0.5
-744 0.5
745 0.5
-745 0.5
746 0.5
-746 0.5
747 0.5
-747 0.5
748 0.5
-748 0.5
749 0.5
-749 0.5
750 0.5
-750 0.5
751 0.5
-751 0.5
752 0.5
-752 0.5
753 0.5
-753 0.5
754 0.5
-754 0.5
755 0.5
-755 0.5
756 0.5
-756 0.5
757 0.5
-757 0.5
758 0.5
-758 0.5
759 0.5
-759 0.5
760 0.5
-760 0.5
761 0.5
-761 0.5
762 0.5
-762 0.5
763 0.5
-763 0.5
764 0.5
-764 0.5
765 0.5
-765 0.5
766 0.5
-766 0.5
767 0.5
-767 0.5
768 0.284406
-768 0.715594
769 0.780659
-769 0.219341
770 0.473555
-770 0.526445
771 0.714097
-771 0.285903
772 0.35573
-772 0.64427
773 0.076834
-773 0.923166
774 0.5
-774 0.5
775 0.5
-775 0.5
776 0.5
-776 0.5
777 0.5
-777 0.5
778 0.5
-778 0.5
779 0.5
-779 0.5
780 0.5
-780 0.5
781 0.5
-781 0.5
782 0.5
-782 0.5
783 0.5
-783 0.5
784 0.5
-784 0.5
785 0.5
-785 0.5
786 0.5
-786 0.5
787 0.5
-787 0.5
788 0.5
-788 0.5
789 0.5
-789 0.5
790 0.5
-790 0.5
791 0.5
-791 0.5
792 0.5
-792 0.5
793 0.5
-793 0.5
794 0.5
-794 0.5
795 0.5
-795 0.5
796 0.5
-796 0.5
797 0.5
-797 0.5
798 0.5
-798 0.5
799 0.5
-799 0.5
800 0.5
-800 0.5
801 0.5
-801 0.5
802 0.5
-802 0.5
803 0.5
-803 0.5
804 0.5
-804 0.5
805 0.5
-805 0.5
806 0.5
-806 0.5
807 0.5
-807 0.5
808 0.5
-808 0.5
809 0.5
-809 0.5
810 0.5
-810 0.5
811 0.5
-811 0.5
812 0.5
-812 0.5
813 0.5
-813 0.5
814 0.5
-814 0.5
815 0.5
-815 0.5
816 0.5
-816 0.5
817 0.5
-817 0.5
818 0.917259
-818 0.082741
819 0.113921
-819 0.886079
820 0.836398
-820 0.163602
821 0.375451
-821 0.624549
822 0.5
-822 0.5
823 0.5
-823 0.5
824 0.5
-824 0.5
825 0.5
-825 0.5
826 0.5
-826 0.5
827 0.5
-827 0.5
828 0.5
-828 0.5
829 0.5
-829 0.5
830 0.5
-830 0.5
831 0.5
-831 0.5
832 0.5
-832 0.5
833 0.5
-833 0.5
834 0.31574
-834 0.68426
835 0.262924
-835 0.737076
836 0.210515
-836 0.789485
837 0.651132
-837 0.348868
838 0.779395
-838 0.220605
839 0.395055
-839 0.604945
840 0.652095
-840 0.347905
841 0.884018
-841 0.115982
842 0.5
-842 0.5
843 0.5
-843 0.5
844 0.164565
-844 0.835435
845 0.944805
-845 0.055195
846 0.197993
-846 0.802007
847 0.38096
-847 0.61904
848 0.5
-848 0.5
849 0.5
-849 0.5
850 0.5
-850 0.5
851 0.5
-851 0.5
852 0.5
-852 0.5
853 0.5
-853 0.5
854 0.5
-854 0.5
855 0.5
-855 0.5
856 0.5
-856 0.5
857 0.5
-857 0.5
858 0.5
-858 0.5
859 0.5
-859 0.5
860 0.741222
-860 0.258778
861 0.912304
-861 0.087696
862 0.486434
-862 0.513566
863 0.578521
-863 0.421479
864 0.5
-864 0.5
865 0.5
-865 0.5
866 0.5
-866 0.5
867 0.5
-867 0.5
868 0.573657
-868 0.426343
869 0.374221
-869 0.625779
870 0.744774
-870 0.255226
871 0.771649
-871 0.228351
872 0.420474
-872 0.579526
873 0.404855
-873 0.595145
874 0.531203
-874 0.468797
875 0.371528
-875 0.628472
876 0.106107
-876 0.893893
877 0.598301
-877 0.401699
878 0.781996
-878 0.218004
879 0.112117
-879 0.887883
880 0.5
-880 0.5
881 0.5
-881 0.5
882 0.5
-882 0.5
883 0.5
-883 0.5
884 0.5
-884 0.5
885 0.5
-885 0.5
886 0.5
-886 0.5
887 0.5
-887 0.5
888 0.5
-888 0.5
889 0.5
-889 0.5
890 0.5
-890 0.5
891 0.5
-891 0.5
892 0.5
-892 0.5
893 0.5
-893 0.5
894 0.5
-894 0.5
895 0.5
-895 0.5
896 0.5
-896 0.5
897 0.5
-897 0.5
898 0.5
-898 0.5
899 0.5
-899 0.5
900 0.5
-900 0.5
901 0.5
-901 0.5
902 0.5
-902 0.5
903 0.5
-903 0.5
904 0.5
-904 0.5
905 0.5
-905 0.5
906 0.5
-906 0.5
907 0.5
-907 0.5
908 0.5
-908 0.5
909 0.5
-909 0.5
910 0.5
-910 0.5
911 0.5
-911 0.5
912 0.593177
-912 0.406823
913 0.341249
-913 0.658751
914 0.768613
-914 0.231387
915 0.865368
-915 0.134632
916 0.5
-916 0.5
917 0.5
-917 0.5
918 0.51979
-918 0.48021
919 0.456864
-919 0.543136
920 0.754462
-920 0.245538
921 0.667539
-921 0.332461
922 0.5
-922 0.5
923 0.5
-923 0.5
924 0.5
-924 0.5
925 0.5
-925 0.5
926 0.5
-926 0.5
927 0.5
-927 0.5
928 0.5
-928 0.5
929 0.5
-929 0.5
930 0.5
-930 0.5
931 0.5
-931 0.5
932 0.5
-932 0.5
933 0.5
-933 0.5
934 0.5
-934 0.5
935 0.5
-935 0.5
936 0.5
-936 0.5
937 0.5
-937 0.5
938 0.5
-938 0.5
939 0.5
-939 0.5
940 0.5
-940 0.5
941 0.5
-941 0.5
942 0.5
-942 0.5
943 0.5
-943 0.5
944 0.5
-944 0.5
945 0.5
-945 0.5
946 0.833774
-946 0.166226
947 0.063679
-947 0.936321
948 0.447711
-948 0.552289
949 0.434578
-949 0.565422
950 0.5
-950 0.5
951 0.5
-951 0.5
952 0.5
-952 0.5
953 0.5
-953 0.5
954 0.5
-954 0.5
955 0.5
-955 0.5
956 0.5
-956 0.5
957 0.5
-957 0.5
958 0.5
-958 0.5
959 0.5
-959 0.5
960 0.5
-960 0.5
961 0.5
-961 0.5
962 0.626328
-962 0.373672
963 0.326788
-963 0.673212
964 0.509568
-964 0.490432
965 0.713772
-965 0.286228
966 0.5
-966 0.5
967 0.5
-967 0.5
968 0.5
-968 0.5
969 0.5
-969 0.5
970 0.5
-970 0.5
971 0.5
-971 0.5
972 0.5
-972 0.5
973 0.5
-973 0.5
974 0.066646
-974 0.933354
975 0.344515
-975 0.655485
976 0.372765
-976 0.627235
977 0.54911
-977 0.45089
978 0.5
-978 0.5
979 0.5
-979 0.5
980 0.5
-980 0.5
981 0.5
-981 0.5
982 0.5
-982 0.5
983 0.5
-983 0.5
984 0.5
-984 0.5
985 0.5
-985 0.5
986 0.5
-986 0.5
987 0.5
-987 0.5
988 0.5
-988 0.5
989 0.5
-989 0.5
990 0.5
-990 0.5
991 0.5
-991 0.5
992 0.5
-992 0.5
993 0.5
-993 0.5
994 0.5
-994 0.5
995 0.5
-995 0.5
996 0.5
-996 0.5
997 0.5
-997 0.5
998 0.5
-998 0.5
999 0.5
-999 0.5
1000 0.5
-1000 0.5
1001 0.5
-1001 0.5
1002 0.5
-1002 0.5
1003 0.5
-1003 0.5
1004 0.5
-1004 0.5
1005 0.5
-1005 0.5
1006 0.5
-1006 0.5
1007 0.5
-1007 0.5
1008 0.5
-1008 0.5
1009 0.5
-1009 0.5
1010 0.5
-1010 0.5
1011 0.5
-1011 0.5
1012 0.987886
-1012 0.012114
1013 0.454538
-1013 0.545462
1014 0.980769
-1014 0.019231
1015 0.935715
-1015 0.064285
1016 0.5
-1016 0.5
1017 0.5
-1017 0.5
1018 0.5
-1018 0.5
1019 0.5
-1019 0.5
1020 0.214655
-1020 0.785345
1021 0.8931
-1021 0.1069
1022 0.673178
-1022 0.326822
1023 0.226371
-1023 0.773629
1024 0.756851
-1024 0.243149
1025 0.610853
-1025 0.389147
1026 0.542061
-1026 0.457939
1027 0.54577
-1027 0.45423
1028 0.5
-1028 0.5
1029 0.5
-1029 0.5
1030 0.5
-1030 0.5
1031 0.5
-1031 0.5
1032 0.699647
-1032 0.300353
1033 0.293521
-1033 0.706479
1034 0.199001
-1034 0.800999
1035 0.24249
-1035 0.75751
1036 0.965647
-1036 0.034353
1037 0.230375
-1037 0.769625
1038 0.291474
-1038 0.708526
1039 0.946417
-1039 0.053583
1040 0.5
-1040 0.5
1041 0.5
-1041 0.5
1042 0.5
-1042 0.5
1043 0.5
-1043 0.5
1044 0.5
-1044 0.5
1045 0.5
-1045 0.5
1046 0.5
-1046 0.5
1047 0.5
-1047 0.5
1048 0.442932
-1048 0.557068
1049 0.760007
-1049 0.239993
1050 0.485013
-1050 0.514987
1051 0.984993
-1051 0.015007
1052 0.5
-1052 0.5
1053 0.5
-1053 0.5
1054 0.5
-1054 0.5
1055 0.5
-1055 0.5
1056 0.5
-1056 0.5
1057 0.5
-1057 0.5
1058 0.5
-1058 0.5
1059 0.5
-1059 0.5
1060 0.943563
-1060 0.056437
1061 0.230736
-1061 0.769264
1062 0.14705
-1062 0.85295
1063 0.88998
-1063 0.11002
1064 0.5
-1064 0.5
1065 0.5
-1065 0.5
1066 0.5
-1066 0.5
1067 0.5
-1067 0.5
1068 0.5
-1068 0.5
1069 0.5
-1069 0.5
1070 0.5
-1070 0.5
1071 0.5
-1071 0.5
1072 0.5
-1072 0.5
1073 0.5
-1073 0.5
1074 0.121602
-1074 0.878398
1075 0.191703
-1075 0.808297
1076 0.680544
-1076 0.319456
1077 0.695058
-1077 0.304942
1078 0.5
-1078 0.5
1079 0.5
-1079 0.5
1080 0.5
-1080 0.5
1081 0.5
-1081 0.5
1082 0.5
-1082 0.5
1083 0.5
-1083 0.5
1084 0.5
-1084 0.5
1085 0.5
-1085 0.5
1086 0.5
-1086 0.5
1087 0.5
-1087 0.5
1088 0.5
-1088 0.5
1089 0.5
-1089 0.5
1090 0.5
-1090 0.5
1091 0.5
-1091 0.5
1092 0.5
-1092 0.5
1093 0.5
-1093 0.5
1094 0.5
-1094 0.5
1095 0.5
-1095 0.5
1096 0.5
-1096 0.5
1097 0.5
-1097 0.5
1098 0.5
-1098 0.5
1099 0.5
-1099 0.5
1100 0.5
-1100 0.5
1101 0.5
-1101 0.5
1102 0.5
-1102 0.5
1103 0.5
-1103 0.5
1104 0.5
-1104 0.5
1105 0.5
-1105 0.5
1106 0.050057
-1106 0.949943
1107 0.209368
-1107 0.790632
1108 0.631455
-1108 0.368545
1109 0.777793
-1109 0.222207
1110 0.5
-1110 0.5
1111 0.5
-1111 0.5
1112 0.5
-1112 0.5
1113 0.5
-1113 0.5
1114 0.338693
-1114 0.661307
1115 0.884022
-1115 0.115978
1116 0.859819
-1116 0.140181
1117 0.666051
-1117 0.333949
1118 0.02585
-1118 0.97415
1119 0.405776
-1119 0.594224
1120 0.226041
-1120 0.773959
1121 0.077808
-1121 0.922192
1122 0.5
-1122 0.5
1123 0.5
-1123 0.5
1124 0.5
-1124 0.5
1125 0.5
-1125 0.5
1126 0.5
-1126 0.5
1127 0.5
-1127 0.5
1128 0.5
-1128 0.5
1129 0.5
-1129 0.5
1130 0.5
-1130 0.5
1131 0.5
-1131 0.5
1132 0.5
-1132 0.5
1133 0.5
-1133 0.5
1134 0.894239
-1134 0.105761
1135 0.48579
-1135 0.51421
1136 0.700211
-1136 0.299789
1137 0.443783
-1137 0.556217
1138 0.519917
-1138 0.480083
1139 0.782476
-1139 0.217524
1140 0.379736
-1140 0.620264
1141 0.448527
-1141 0.551473
1142 0.831536
-1142 0.168464
1143 0.405586
-1143 0.594414
1144 0.057577
-1144 0.942423
1145 0.483394
-1145 0.516606
1146 0.897185
-1146 0.102815
1147 0.644535
-1147 0.355465
1148 0.257716
-1148 0.742284
1149 0.287469
-1149 0.712531
1150 0.407906
-1150 0.592094
1151 0.674664
-1151 0.325336
1152 0.5
-1152 0.5
1153 0.5
-1153 0.5
1154 0.5
-1154 0.5
1155 0.5
-1155 0.5
1156 0.5
-1156 0.5
1157 0.5
-1157 0.5
1158 0.5
-1158 0.5
1159 0.5
-1159 0.5
1160 0.5
-1160 0.5
1161 0.5
-1161 0.5
1162 0.5
-1162 0.5
1163 0.5
-1163 0.5
1164 0.221376
-1164 0.778624
1165 0.062448
-1165 0.937552
1166 0.253066
-1166 0.746934
1167 0.052912
-1167 0.947088
1168 0.5
-1168 0.5
1169 0.5
-1169 0.5
1170 0.5
-1170 0.5
1171 0.5
-1171 0.5
1172 0.262269
-1172 0.737731
1173 0.042494
-1173 0.957506
1174 0.164196
-1174 0.835804
1175 0.936933
-1175 0.063067
1176 0.5
-1176 0.5
1177 0.5
-1177 0.5
1178 0.5
-1178 0.5
1179 0.5
-1179 0.5
1180 0.5
-1180 0.5
1181 0.5
-1181 0.5
1182 0.5
-1182 0.5
1183 0.5
-1183 0.5
1184 0.5
-1184 0.5
1185 0.5
-1185 0.5
1186 0.5
-1186 0.5
1187 0.5
-1187 0.5
1188 0.616873
-1188 0.383127
1189 0.231657
-1189 0.768343
1190 0.974121
-1190 0.025879
1191 0.084907
-1191 0.915093
1192 0.5
-1192 0.5
1193 0.5
-1193 0.5
1194 0.5
-1194 0.5
1195 0.5
-1195 0.5
1196 0.605849
-1196 0.394151
1197 0.882128
-1197 0.117872
1198 0.956822
-1198 0.043178
1199 0.542783
-1199 0.457217
1200 0.5
-1200 0.5
1201 0.5
-1201 0.5
1202 0.5
-1202 0.5
1203 0.5
-1203 0.5
1204 0.5
-1204 0.5
1205 0.5
-1205 0.5
1206 0.5
-1206 0.5
1207 0.5
-1207 0.5
1208 0.5
-1208 0.5
1209 0.5
-1209 0.5
1210 0.5
-1210 0.5
1211 0.5
-1211 0.5
1212 0.5
-1212 0.5
1213 0.5
-1213 0.5
1214 0.5
-1214 0.5
1215 0.5
-1215 0.5
1216 0.5
-1216 0.5
1217 0.5
-1217 0.5
1218 0.5
-1218 0.5
1219 0.5
-1219 0.5
1220 0.5
-1220 0.5
1221 0.5
-1221 0.5
1222 0.993332
-1222 0.006668
1223 0.162075
-1223 0.837925
1224 0.171323
-1224 0.828677
1225 0.223701
-1225 0.776299
1226 0.5
-1226 0.5
1227 0.5
-1227 0.5
1228 0.5
-1228 0.5
1229 0.5
-1229 0.5
1230 0.5
-1230 0.5
1231 0.5
-1231 0.5
1232 0.5
-1232 0.5
1233 0.5
-1233 0.5
1234 0.5
-1234 0.5
1235 0.5
-1235 0.5
1236 0.5
-1236 0.5
1237 0.5
-1237 0.5
1238 0.5
-1238 0.5
1239 0.5
-1239 0.5
1240 0.5
-1240 0.5
1241 0.5
-1241 0.5
1242 0.5
-1242 0.5
1243 0.5
-1243 0.5
1244 0.5
-1244 0.5
1245 0.5
-1245 0.5
1246 0.133923
-1246 0.866077
1247 0.797841
-1247 0.202159
1248 0.148525
-1248 0.851475
1249 0.305246
-1249 0.694754
1250 0.5
-1250 0.5
1251 0.5
-1251 0.5
1252 0.5
-1252 0.5
1253 0.5
-1253 0.5
1254 1e-05
-1254 0.99999
1255 0.82897
-1255 0.17103
1256 0.017379
-1256 0.982621
1257 0.985526
-1257 0.014474
1258 0.5
-1258 0.5
1259 0.5
-1259 0.5
1260 0.5
-1260 0.5
1261 0.5
-1261 0.5
1262 0.5
-1262 0.5
1263 0.5
-1263 0.5
1264 0.5
-1264 0.5
1265 0.5
-1265 0.5
1266 0.5
-1266 0.5
1267 0.5
-1267 0.5
1268 0.5
-1268 0.5
1269 0.5
-1269 0.5
1270 0.5
-1270 0.5
1271 0.5
-1271 0.5
1272 0.5
-1272 0.5
1273 0.5
-1273 0.5
1274 0.5
-1274 0.5
1275 0.5
-1275 0.5
1276 0.5
-1276 0.5
1277 0.5
-1277 0.5
1278 0.5
-1278 0.5
1279 0.5
-1279 0.5
1280 0.5
-1280 0.5
1281 0.5
-1281 0.5
1282 0.5
-1282 0.5
1283 0.5
-1283 0.5
1284 0.5
-1284 0.5
1285 0.5
-1285 0.5
1286 0.775844
-1286 0.224156
1287 0.381639
-1287 0.618361
1288 0.5
-1288 0.5
1289 0.5
-1289 0.5
1290 0.5
-1290 0.5
1291 0.5
-1291 0.5
1292 0.5
-1292 0.5
1293 0.5
-1293 0.5
1294 0.5
-1294 0.5
1295 0.5
-1295 0.5
1296 0.5
-1296 0.5
1297 0.5
-1297 0.5
1298 0.5
-1298 0.5
1299 0.5
-1299 0.5
1300 0.5
-1300 0.5
1301 0.5
-1301 0.5
1302 0.5
-1302 0.5
1303 0.5
-1303 0.5
1304 0.812953
-1304 0.187047
1305 0.099034
-1305 0.900966
1306 0.199349
-1306 0.800651
1307 0.304696
-1307 0.695304
1308 0.272898
-1308 0.727102
1309 0.089528
-1309 0.910472
1310 0.623108
-1310 0.376892
1311 0.654537
-1311 0.345463
1312 0.5
-1312 0.5
1313 0.5
-1313 0.5
1314 0.5
-1314 0.5
1315 0.5
-1315 0.5
1316 0.807897
-1316 0.192103
1317 0.369515
-1317 0.630485
1318 0.858231
-1318 0.141769
1319 0.363365
-1319 0.636635
1320 0.5
-1320 0.5
1321 0.5
-1321 0.5
1322 0.5
-1322 0.5
1323 0.5
-1323 0.5
1324 0.73432
-1324 0.26568
1325 0.502501
-1325 0.497499
1326 0.481186
-1326 0.518814
1327 0.165013
-1327 0.834987
1328 0.5
-1328 0.5
1329 0.5
-1329 0.5
1330 0.5
-1330 0.5
1331 0.5
-1331 0.5
1332 0.5
-1332 0.5
1333 0.5
-1333 0.5
1334 0.5
-1334 0.5
1335 0.5
-1335 0.5
1336 0.5
-1336 0.5
1337 0.5
-1337 0.5
1338 0.5
-1338 0.5
1339 0.5
-1339 0.5
1340 0.5
-1340 0.5
1341 0.5
-1341 0.5
1342 0.5
-1342 0.5
1343 0.5
-1343 0.5
1344 0.5
-1344 0.5
1345 0.5
-1345 0.5
1346 0.5
-1346 0.5
1347 0.5
-1347 0.5
1348 0.861892
-1348 0.138108
1349 0.549741
-1349 0.450259
1350 0.257837
-1350 0.742163
1351 0.343077
-1351 0.656923
1352 0.5
-1352 0.5
1353 0.5
-1353 0.5
1354 0.5
-1354 0.5
1355 0.5
-1355 0.5
1356 0.5
-1356 0.5
1357 0.5
-1357 0.5
1358 0.5
-1358 0.5
1359 0.5
-1359 0.5
1360 0.5
-1360 0.5
1361 0.5
-1361 0.5
1362 0.5
-1362 0.5
1363 0.5
-1363 0.5
1364 0.5
-1364 0.5
1365 0.5
-1365 0.5
1366 0.479252
-1366 0.520748
1367 0.94877
-1367 0.05123
1368 0.633357
-1368 0.366643
1369 0.933894
-1369 0.066106
1370 0.5
-1370 0.5
1371 0.5
-1371 0.5
1372 0.5
-1372 0.5
1373 0.5
-1373 0.5
1374 0.5
-1374 0.5
1375 0.5
-1375 0.5
1376 0.5
-1376 0.5
1377 0.5
-1377 0.5
1378 0.5
-1378 0.5
1379 0.5
-1379 0.5
1380 0.5
-1380 0.5
1381 0.5
-1381 0.5
1382 0.5
-1382 0.5
1383 0.5
-1383 0.5
1384 0.5
-1384 0.5
1385 0.5
-1385 0.5
1386 0.5
-1386 0.5
1387 0.5
-1387 0.5
1388 0.5
-1388 0.5
1389 0.5
-1389 0.5
1390 0.149824
-1390 0.850176
1391 0.06514
-1391 0.93486
1392 0.998991
-1392 0.001009
1393 0.577808
-1393 0.422192
1394 0.878242
-1394 0.121758
1395 0.761128
-1395 0.238872
1396 0.700123
-1396 0.299877
1397 0.307234
-1397 0.692766
1398 0.5
-1398 0.5
1399 0.5
-1399 0.5
1400 0.5
-1400 0.5
1401 0.5
-1401 0.5
1402 0.5
-1402 0.5
1403 0.5
-1403 0.5
1404 0.5
-1404 0.5
1405 0.5
-1405 0.5
1406 0.5
-1406 0.5
1407 0.5
-1407 0.5
1408 0.5
-1408 0.5
1409 0.5
-1409 0.5
1410 0.520298
-1410 0.479702
1411 0.174739
-1411 0.825261
1412 0.910778
-1412 0.089222
1413 0.036766
-1413 0.963234
1414 0.5
-1414 0.5
1415 0.5
-1415 0.5
1416 0.5
-1416 0.5
1417 0.5
-1417 0.5
1418 0.322809
-1418 0.677191
1419 0.723172
-1419 0.276828
1420 0.525527
-1420 0.474473
1421 0.022932
-1421 0.977068
1422 0.5
-1422 0.5
1423 0.5
-1423 0.5
1424 0.5
-1424 0.5
1425 0.5
-1425 0.5
1426 0.408
-1426 0.592
1427 0.400165
-1427 0.599835
1428 0.868136
-1428 0.131864
1429 0.367703
-1429 0.632297
1430 0.126861
-1430 0.873139
1431 0.202537
-1431 0.797463
1432 0.859909
-1432 0.140091
1433 0.649606
-1433 0.350394
1434 0.5
-1434 0.5
1435 0.5
-1435 0.5
1436 0.037702
-1436 0.962298
1437 0.416973
-1437 0.583027
1438 0.130329
-1438 0.869671
1439 0.883641
-1439 0.116359
1440 0.5
-1440 0.5
1441 0.5
-1441 0.5
1442 0.5
-1442 0.5
1443 0.5
-1443 0.5
1444 0.5
-1444 0.5
1445 0.5
-1445 0.5
1446 0.5
-1446 0.5
1447 0.5
-1447 0.5
1448 0.814746
-1448 0.185254
1449 0.933785
-1449 0.066215
1450 0.732372
-1450 0.267628
1451 0.222747
-1451 0.777253
1452 0.5
-1452 0.5
1453 0.5
-1453 0.5
1454 0.5
-1454 0.5
1455 0.5
-1455 0.5
1456 0.101204
-1456 0.898796
1457 0.376975
-1457 0.623025
1458 0.919911
-1458 0.080089
1459 0.481411
-1459 0.518589
1460 0.5
-1460 0.5
1461 0.5
-1461 0.5
1462 0.5
-1462 0.5
1463 0.5
-1463 0.5
1464 0.5
-1464 0.5
1465 0.5
-1465 0.5
1466 0.5
-1466 0.5
1467 0.5
-1467 0.5
1468 0.5
-1468 0.5
1469 0.5
-1469 0.5
1470 0.5
-1470 0.5
1471 0.5
-1471 0.5
1472 0.5
-1472 0.5
1473 0.5
-1473 0.5
1474 0.5
-1474 0.5
1475 0.5
-1475 0.5
1476 0.5
-1476 0.5
1477 0.5
-1477 0.5
1478 0.5
-1478 0.5
1479 0.5
-1479 0.5
1480 0.776554
-1480 0.223446
1481 0.904478
-1481 0.095522
1482 0.725542
-1482 0.274458
1483 0.257965
-1483 0.742035
1484 0.5
-1484 0.5
1485 0.5
-1485 0.5
1486 0.5
-1486 0.5
1487 0.5
-1487 0.5
1488 0.5
-1488 0.5
1489 0.5
-1489 0.5
1490 0.5
-1490 0.5
1491 0.5
-1491 0.5
1492 0.5
-1492 0.5
1493 0.5
-1493 0.5
1494 0.5
-1494 0.5
1495 0.5
-1495 0.5
1496 0.5
-1496 0.5
1497 0.5
-1497 0.5
1498 0.5
-1498 0.5
1499 0.5
-1499 0.5
1500 0.5
-1500 0.5
1501 0.5
-1501 0.5
1502 0.5
-1502 0.5
1503 0.5
-1503 0.5
1504 0.5
-1504 0.5
1505 0.5
-1505 0.5
1506 0.5
-1506 0.5
1507 0.5
-1507 0.5
1508 0.624305
-1508 0.375695
1509 0.524914
-1509 0.475086
1510 0.06175
-1510 0.93825
1511 0.049322
-1511 0.950677
1512 0.657465
-1512 0.342535
1513 0.332297
-1513 0.667703
1514 0.5
-1514 0.5
1515 0.5
-1515 0.5
1516 0.5
-1516 0.5
1517 0.5
-1517 0.5
1518 0.5
-1518 0.5
1519 0.5
-1519 0.5
1520 0.5
-1520 0.5
1521 0.5
-1521 0.5
1522 0.5
-1522 0.5
1523 0.5
-1523 0.5
1524 0.5
-1524 0.5
1525 0.5
-1525 0.5
1526 0.5
-1526 0.5
1527 0.5
-1527 0.5
1528 0.5
-1528 0.5
1529 0.5
-1529 0.5
1530 0.5
-1530 0.5
1531 0.5
-1531 0.5
1532 0.5
-1532 0.5
1533 0.5
-1533 0.5
1534 0.5
-1534 0.5
1535 0.5
-1535 0.5
1536 0.5
-1536 0.5
1537 0.5
-1537 0.5
1538 0.5
-1538 0.5
1539 0.5
-1539 0.5
1540 0.5
-1540 0.5
1541 0.5
-1541 0.5
1542 0.5
-1542 0.5
1543 0.5
-1543 0.5
1544 0.5
-1544 0.5
1545 0.5
-1545 0.5
1546 0.5
-1546 0.5
1547 0.5
-1547 0.5
1548 0.5
-1548 0.5
1549 0.5
-1549 0.5
1550 0.008117
-1550 0.991883
1551 0.826911
-1551 0.173089
1552 0.779041
-1552 0.220959
1553 0.960715
-1553 0.039285
1554 0.5
-1554 0.5
1555 0.5
-1555 0.5
1556 0.5
-1556 0.5
1557 0.5
-1557 0.5
1558 0.5
-1558 0.5
1559 0.5
-1559 0.5
1560 0.5
-1560 0.5
1561 0.5
-1561 0.5
1562 0.5
-1562 0.5
1563 0.5
-1563 0.5
1564 0.5
-1564 0.5
1565 0.5
-1565 0.5
1566 0.36585
-1566 0.63415
1567 0.806146
-1567 0.193854
1568 0.741964
-1568 0.258036
1569 0.099645
-1569 0.900355
1570 0.5
-1570 0.5
1571 0.5
-1571 0.5
1572 0.5
-1572 0.5
1573 0.5
-1573 0.5
1574 0.5
-1574 0.5
1575 0.5
-1575 0.5
1576 0.5
-1576 0.5
1577 0.5
-1577 0.5
1578 0.5
-1578 0.5
1579 0.5
-1579 0.5
1580 0.5
-1580 0.5
1581 0.5
-1581 0.5
1582 0.675098
-1582 0.324902
1583 0.413725
-1583 0.586275
1584 0.5
-1584 0.5
1585 0.5
-1585 0.5
1586 0.5
-1586 0.5
1587 0.5
-1587 0.5
1588 0.5
-1588 0.5
1589 0.5
-1589 0.5
1590 0.5
-1590 0.5
1591 0.5
-1591 0.5
1592 0.5
-1592 0.5
1593 0.5
-1593 0.5
1594 0.5
-1594 0.5
1595 0.5
-1595 0.5
1596 0.5
-1596 0.5
1597 0.5
-1597 0.5
1598 0.5
-1598 0.5
1599 0.5
-1599 0.5
1600 0.5
-1600 0.5
1601 0.5
-1601 0.5
1602 0.5
-1602 0.5
1603 0.5
-1603 0.5
1604 0.15993
-1604 0.84007
1605 0.079649
-1605 0.920351
1606 0.594495
-1606 0.405505
1607 0.573656
-1607 0.426344
1608 0.5
-1608 0.5
1609 0.5
-1609 0.5
1610 0.5
-1610 0.5
1611 0.5
-1611 0.5
1612 0.5
-1612 0.5
1613 0.5
-1613 0.5
1614 0.5
-1614 0.5
1615 0.5
-1615 0.5
1616 0.5
-1616 0.5
1617 0.5
-1617 0.5
1618 0.5
-1618 0.5
1619 0.5
-1619 0.5
1620 0.5
-1620 0.5
1621 0.5
-1621 0.5
1622 0.5
-1622 0.5
1623 0.5
-1623 0.5
1624 0.5
-1624 0.5
1625 0.5
-1625 0.5
1626 0.5
-1626 0.5
1627 0.5
-1627 0.5
1628 0.5
-1628 0.5
1629 0.5
-1629 0.5
1630 0.5
-1630 0.5
1631 0.5
-1631 0.5
1632 0.5
-1632 0.5
1633 0.5
-1633 0.5
1634 0.5
-1634 0.5
1635 0.5
-1635 0.5
1636 0.5
-1636 0.5
1637 0.5
-1637 0.5
1638 0.5
-1638 0.5
1639 0.5
-1639 0.5
1640 0.5
-1640 0.5
1641 0.5
-1641 0.5
1642 0.5
-1642 0.5
1643 0.5
-1643 0.5
1644 0.5
-1644 0.5
1645 0.5
-1645 0.5
1646 0.5
-1646 0.5
1647 0.5
-1647 0.5
1648 0.926287
-1648 0.073713
1649 0.110526
-1649 0.889474
1650 0.939753
-1650 0.060247
1651 0.059188
-1651 0.940812
1652 0.990484
-1652 0.009516
1653 0.352019
-1653 0.647981
1654 0.909175
-1654 0.090825
1655 0.635709
-1655 0.364291
1656 0.5
-1656 0.5
1657 0.5
-1657 0.5
1658 0.5
-1658 0.5
1659 0.5
-1659 0.5
1660 0.5
-1660 0.5
1661 0.5
-1661 0.5
1662 0.045374
-1662 0.954626
1663 0.520397
-1663 0.479603
1664 0.37035
-1664 0.62965
1665 0.052893
-1665 0.947107
1666 0.76679
-1666 0.23321
1667 0.392654
-1667 0.607346
1668 0.935095
-1668 0.064905
1669 0.959721
-1669 0.040279
1670 0.5
-1670 0.5
1671 0.5
-1671 0.5
1672 0.5
-1672 0.5
1673 0.5
-1673 0.5
1674 0.5
-1674 0.5
1675 0.5
-1675 0.5
1676 0.5
-1676 0.5
1677 0.5
-1677 0.5
1678 0.850005
-1678 0.149995
1679 0.765307
-1679 0.234693
1680 0.52843
-1680 0.47157
1681 0.068512
-1681 0.931488
1682 0.5
-1682 0.5
1683 0.5
-1683 0.5
1684 0.5
-1684 0.5
1685 0.5
-1685 0.5
1686 0.299238
-1686 0.700762
1687 0.653954
-1687 0.346046
1688 0.364811
-1688 0.635189
1689 0.669588
-1689 0.330412
1690 0.5
-1690 0.5
1691 0.5
-1691 0.5
1692 0.5
-1692 0.5
1693 0.5
-1693 0.5
1694 0.5
-1694 0.5
1695 0.5
-1695 0.5
1696 0.5
-1696 0.5
1697 0.5
-1697 0.5
1698 0.5
-1698 0.5
1699 0.5
-1699 0.5
1700 0.5
-1700 0.5
1701 0.5
-1701 0.5
1702 0.5
-1702 0.5
1703 0.5
-1703 0.5
1704 0.5
-1704 0.5
1705 0.5
-1705 0.5
1706 0.250836
-1706 0.749164
1707 0.933897
-1707 0.066103
1708 0.268353
-1708 0.731647
1709 0.859416
-1709 0.140584
1710 0.567591
-1710 0.432409
1711 0.51337
-1711 0.48663
1712 0.143124
-1712 0.856876
1713 0.237179
-1713 0.762821
1714 0.5
-1714 0.5
1715 0.5
-1715 0.5
1716 0.5
-1716 0.5
1717 0.5
-1717 0.5
1718 0.5
-1718 0.5
1719 0.5
-1719 0.5
1720 0.5
-1720 0.5
1721 0.5
-1721 0.5
1722 0.5
-1722 0.5
1723 0.5
-1723 0.5
1724 0.5
-1724 0.5
1725 0.5
-1725 0.5
1726 0.5
-1726 0.5
1727 0.5
-1727 0.5
1728 0.5
-1728 0.5
1729 0.5
-1729 0.5
