1 0.230599
-1 0.769401
2 1.0
-2 1.0
3 1.0
-3 1.0
4 1.0
-4 1.0
5 1.0
-5 1.0
6 1.0
-6 1.0
7 1.0
-7 1.0
8 1.0
-8 1.0
9 1.0
-9 1.0
10 1.0
-10 1.0
11 1.0
-11 1.0
12 1.0
-12 1.0
13 1.0
-13 1.0
14 1.0
-14 1.0
15 1.0
-15 1.0
16 1.0
-16 1.0
17 1.0
-17 1.0
18 1.0
-18 1.0
19 1.0
-19 1.0
20 1.0
-20 1.0
21 1.0
-21 1.0
22 1.0
-22 1.0
23 1.0
-23 1.0
24 1.0
-24 1.0
25 1.0
-25 1.0
26 1.0
-26 1.0
27 1.0
-27 1.0
28 1.0
-28 1.0
29 1.0
-29 1.0
30 1.0
-30 1.0
31 1.0
-31 1.0
32 1.0
-32 1.0
33 1.0
-33 1.0
34 1.0
-34 1.0
35 1.0
-35 1.0
36 1.0
-36 1.0
37 1.0
-37 1.0
38 1.0
-38 1.0
39 1.0
-39 1.0
40 1.0
-40 1.0
41 1.0
-41 1.0
42 1.0
-42 1.0
43 1.0
-43 1.0
44 1.0
-44 1.0
45 1.0
-45 1.0
46 1.0
-46 1.0
47 1.0
-47 1.0
48 1.0
-48 1.0
49 1.0
-49 1.0
50 1.0
-50 1.0
51 1.0
-51 1.0
52 1.0
-52 1.0
53 1.0
-53 1.0
54 1.0
-54 1.0
55 1.0
-55 1.0
56 1.0
-56 1.0
57 1.0
-57 1.0
58 1.0
-58 1.0
59 1.0
-59 1.0
60 1.0
-60 1.0
61 1.0
-61 1.0
62 1.0
-62 1.0
63 1.0
-63 1.0
64 1.0
-64 1.0
65 1.0
-65 1.0
66 1.0
-66 1.0
67 1.0
-67 1.0
68 1.0
-68 1.0
69 1.0
-69 1.0
70 1.0
-70 1.0
71 1.0
-71 1.0
72 1.0
-72 1.0
73 1.0
-73 1.0
74 1.0
-74 1.0
75 1.0
-75 1.0
76 1.0
-76 1.0
77 1.0
-77 1.0
78 1.0
-78 1.0
79 1.0
-79 1.0
80 1.0
-80 1.0
81 1.0
-81 1.0
82 1.0
-82 1.0
83 1.0
-83 1.0
84 1.0
-84 1.0
85 1.0
-85 1.0
86 1.0
-86 1.0
87 1.0
-87 1.0
88 1.0
-88 1.0
89 1.0
-89 1.0
90 1.0
-90 1.0
91 1.0
-91 1.0
92 1.0
-92 1.0
93 1.0
-93 1.0
94 1.0
-94 1.0
95 1.0
-95 1.0
96 1.0
-96 1.0
97 1.0
-97 1.0
98 1.0
-98 1.0
99 1.0
-99 1.0
100 1.0
-100 1.0
101 0.876456
-101 0.123544
102 0.990734
-102 0.009266
103 0.5
-103 0.5
104 0.5
-104 0.5
105 0.5
-105 0.5
106 0.5
-106 0.5
107 0.498531
-107 0.501469
108 0.135465
-108 0.864535
109 0.062063
-109 0.937937
110 0.89814
-110 0.10186
111 0.5
-111 0.5
112 0.5
-112 0.5
113 0.5
-113 0.5
114 0.5
-114 0.5
115 0.255626
-115 0.744374
116 0.958215
-116 0.041785
117 0.5
-117 0.5
118 0.5
-118 0.5
119 0.5
-119 0.5
120 0.5
-120 0.5
121 0.470952
-121 0.529048
122 0.661312
-122 0.338688
123 0.631644
-123 0.368356
124 0.071186
-124 0.928814
125 0.862243
-125 0.137757
126 0.838046
-126 0.161954
127 0.627586
-127 0.372414
128 0.852978
-128 0.147022
129 0.5
-129 0.5
130 0.5
-130 0.5
131 0.5
-131 0.5
132 0.5
-132 0.5
133 0.5
-133 0.5
134 0.5
-134 0.5
135 0.5
-135 0.5
136 0.5
-136 0.5
137 0.5
-137 0.5
138 0.5
-138 0.5
139 0.5
-139 0.5
140 0.5
-140 0.5
141 0.5
-141 0.5
142 0.5
-142 0.5
143 0.5
-143 0.5
144 0.5
-144 0.5
145 0.5
-145 0.5
146 0.5
-146 0.5
147 0.5
-147 0.5
148 0.5
-148 0.5
149 0.53307
-149 0.46693
150 0.394492
-150 0.605508
151 0.824715
-151 0.175285
152 0.160656
-152 0.839344
153 0.5
-153 0.5
154 0.5
-154 0.5
155 0.5
-155 0.5
156 0.5
-156 0.5
157 0.5
-157 0.5
158 0.5
-158 0.5
159 0.916623
-159 0.083377
160 0.075775
-160 0.924225
161 0.02225
-161 0.97775
162 0.403052
-162 0.596948
163 0.5
-163 0.5
164 0.5
-164 0.5
165 0.5
-165 0.5
166 0.5
-166 0.5
167 0.169063
-167 0.830937
168 0.537045
-168 0.462955
169 0.108484
-169 0.891516
170 0.069667
-170 0.930333
171 0.5
-171 0.5
172 0.5
-172 0.5
173 0.5
-173 0.5
174 0.5
-174 0.5
175 0.263912
-175 0.736088
176 0.58415
-176 0.41585
177 0.243878
-177 0.756122
178 0.398979
-178 0.601021
179 0.5
-179 0.5
180 0.5
-180 0.5
181 0.5
-181 0.5
182 0.5
-182 0.5
183 0.5
-183 0.5
184 0.5
-184 0.5
185 0.5
-185 0.5
186 0.5
-186 0.5
187 0.5
-187 0.5
188 0.5
-188 0.5
189 0.5
-189 0.5
190 0.5
-190 0.5
191 0.5
-191 0.5
192 0.5
-192 0.5
193 0.5
-193 0.5
194 0.5
-194 0.5
195 0.5
-195 0.5
196 0.5
-196 0.5
197 0.994618
-197 0.005382
198 0.434683
-198 0.565317
199 0.225446
-199 0.774554
200 0.991026
-200 0.008974
201 0.5
-201 0.5
202 0.5
-202 0.5
203 0.5
-203 0.5
204 0.5
-204 0.5
205 0.5
-205 0.5
206 0.5
-206 0.5
207 0.5
-207 0.5
208 0.5
-208 0.5
209 0.5
-209 0.5
210 0.5
-210 0.5
211 0.5
-211 0.5
212 0.5
-212 0.5
213 0.993715
-213 0.006285
214 0.189881
-214 0.810119
215 0.030376
-215 0.969624
216 0.999629
-216 0.000371
217 0.35341
-217 0.64659
218 0.542588
-218 0.457412
219 0.904456
-219 0.095544
220 0.746112
-220 0.253888
221 0.5
-221 0.5
222 0.5
-222 0.5
223 0.5
-223 0.5
224 0.5
-224 0.5
225 0.5
-225 0.5
226 0.5
-226 0.5
227 0.5
-227 0.5
228 0.5
-228 0.5
229 0.5
-229 0.5
230 0.5
-230 0.5
231 0.5
-231 0.5
232 0.5
-232 0.5
233 0.5
-233 0.5
234 0.5
-234 0.5
235 0.5
-235 0.5
236 0.5
-236 0.5
237 0.5
-237 0.5
238 0.5
-238 0.5
239 0.5
-239 0.5
240 0.5
-240 0.5
241 0.5
-241 0.5
242 0.5
-242 0.5
243 0.5
-243 0.5
244 0.5
-244 0.5
245 0.5
-245 0.5
246 0.5
-246 0.5
247 0.103323
-247 0.896677
248 0.314419
-248 0.685581
249 0.718638
-249 0.281362
250 0.774677
-250 0.225323
251 0.5
-251 0.5
252 0.5
-252 0.5
253 0.5
-253 0.5
254 0.5
-254 0.5
255 0.085667
-255 0.914332
256 0.254783
-256 0.745217
257 0.324175
-257 0.675825
258 0.061912
-258 0.938088
259 0.5
-259 0.5
260 0.5
-260 0.5
261 0.5
-261 0.5
262 0.5
-262 0.5
263 0.5
-263 0.5
264 0.5
-264 0.5
265 0.5
-265 0.5
266 0.5
-266 0.5
267 0.5
-267 0.5
268 0.5
-268 0.5
269 0.5
-269 0.5
270 0.5
-270 0.5
271 0.5
-271 0.5
272 0.5
-272 0.5
273 0.5
-273 0.5
274 0.5
-274 0.5
275 0.5
-275 0.5
276 0.5
-276 0.5
277 0.363313
-277 0.636687
278 0.391975
-278 0.608025
279 0.212135
-279 0.787865
280 0.231345
-280 0.768655
281 0.5
-281 0.5
282 0.5
-282 0.5
283 0.5
-283 0.5
284 0.5
-284 0.5
285 0.5
-285 0.5
286 0.5
-286 0.5
287 0.5
-287 0.5
288 0.5
-288 0.5
289 0.626725
-289 0.373275
290 0.045421
-290 0.954579
291 0.438781
-291 0.561219
292 0.95367
-292 0.04633
293 0.723288
-293 0.276712
294 0.526767
-294 0.473233
295 0.798271
-295 0.201729
296 0.39036
-296 0.60964
297 0.5
-297 0.5
298 0.5
-298 0.5
299 0.5
-299 0.5
300 0.5
-300 0.5
301 0.5
-301 0.5
302 0.5
-302 0.5
303 0.5
-303 0.5
304 0.5
-304 0.5
305 0.5
-305 0.5
306 0.5
-306 0.5
307 0.5
-307 0.5
308 0.5
-308 0.5
309 0.932732
-309 0.067268
310 0.476409
-310 0.523591
311 0.732552
-311 0.267448
312 0.30318
-312 0.69682
313 0.768439
-313 0.231561
314 0.359277
-314 0.640723
315 0.5
-315 0.5
316 0.5
-316 0.5
317 0.5
-317 0.5
318 0.5
-318 0.5
319 0.003435
-319 0.996565
320 0.320868
-320 0.679132
321 0.92646
-321 0.07354
322 0.846737
-322 0.153263
323 0.5
-323 0.5
324 0.5
-324 0.5
325 0.5
-325 0.5
326 0.5
-326 0.5
327 0.5
-327 0.5
328 0.5
-328 0.5
329 0.5
-329 0.5
330 0.5
-330 0.5
331 0.5
-331 0.5
332 0.5
-332 0.5
333 0.5
-333 0.5
334 0.5
-334 0.5
335 0.5
-335 0.5
336 0.5
-336 0.5
337 0.5
-337 0.5
338 0.5
-338 0.5
339 0.5
-339 0.5
340 0.5
-340 0.5
341 0.5
-341 0.5
342 0.5
-342 0.5
343 0.337125
-343 0.662875
344 0.280113
-344 0.719887
345 0.710607
-345 0.289393
346 0.183862
-346 0.816138
347 0.002428
-347 0.997572
348 0.693608
-348 0.306392
349 0.5
-349 0.5
350 0.5
-350 0.5
351 0.5
-351 0.5
352 0.5
-352 0.5
353 0.5
-353 0.5
354 0.5
-354 0.5
355 0.5
-355 0.5
356 0.5
-356 0.5
357 0.5
-357 0.5
358 0.5
-358 0.5
359 0.5
-359 0.5
360 0.5
-360 0.5
361 0.5
-361 0.5
362 0.5
-362 0.5
363 0.5
-363 0.5
364 0.5
-364 0.5
365 0.5
-365 0.5
366 0.5
-366 0.5
367 0.5
-367 0.5
368 0.5
-368 0.5
369 0.5
-369 0.5
370 0.5
-370 0.5
371 0.5
-371 0.5
372 0.5
-372 0.5
373 0.5
-373 0.5
374 0.5
-374 0.5
375 0.5
-375 0.5
376 0.5
-376 0.5
377 0.5
-377 0.5
378 0.5
-378 0.5
379 0.5
-379 0.5
380 0.5
-380 0.5
381 0.147066
-381 0.852934
382 0.197024
-382 0.802976
383 0.078679
-383 0.921321
384 0.589265
-384 0.410735
385 0.5
-385 0.5
386 0.5
-386 0.5
387 0.5
-387 0.5
388 0.5
-388 0.5
389 0.5
-389 0.5
390 0.5
-390 0.5
391 0.5
-391 0.5
392 0.5
-392 0.5
393 0.5
-393 0.5
394 0.5
-394 0.5
395 0.5
-395 0.5
396 0.5
-396 0.5
397 0.5
-397 0.5
398 0.5
-398 0.5
399 0.5
-399 0.5
400 0.5
-400 0.5
401 0.5
-401 0.5
402 0.5
-402 0.5
403 0.5
-403 0.5
404 0.5
-404 0.5
405 0.5
-405 0.5
406 0.5
-406 0.5
407 0.5
-407 0.5
408 0.5
-408 0.5
409 0.5
-409 0.5
410 0.5
-410 0.5
411 0.514932
-411 0.485068
412 0.475622
-412 0.524378
413 0.807851
-413 0.192149
414 0.449927
-414 0.550073
415 0.062305
-415 0.937695
416 0.599549
-416 0.400451
417 0.955145
-417 0.044855
418 0.716799
-418 0.283201
419 0.466639
-419 0.533361
420 0.464941
-420 0.535059
421 0.535937
-421 0.464063
422 0.116955
-422 0.883045
423 0.5
-423 0.5
424 0.5
-424 0.5
425 0.5
-425 0.5
426 0.5
-426 0.5
427 0.5
-427 0.5
428 0.5
-428 0.5
429 0.5
-429 0.5
430 0.5
-430 0.5
431 0.5
-431 0.5
432 0.5
-432 0.5
433 0.5
-433 0.5
434 0.5
-434 0.5
435 0.5
-435 0.5
436 0.5
-436 0.5
437 0.5
-437 0.5
438 0.5
-438 0.5
439 0.5
-439 0.5
440 0.5
-440 0.5
441 0.5
-441 0.5
442 0.5
-442 0.5
443 0.5
-443 0.5
444 0.5
-444 0.5
445 0.5
-445 0.5
446 0.5
-446 0.5
447 0.5
-447 0.5
448 0.5
-448 0.5
449 0.483841
-449 0.516159
450 0.333511
-450 0.666489
451 0.590314
-451 0.409686
452 0.632867
-452 0.367133
453 0.5
-453 0.5
454 0.5
-454 0.5
455 0.5
-455 0.5
456 0.5
-456 0.5
457 0.5
-457 0.5
458 0.5
-458 0.5
459 0.5
-459 0.5
460 0.5
-460 0.5
