1 0.383787
-1 0.616213
2 1.0
-2 1.0
3 1.0
-3 1.0
4 1.0
-4 1.0
5 1.0
-5 1.0
6 1.0
-6 1.0
7 1.0
-7 1.0
8 1.0
-8 1.0
9 1.0
-9 1.0
10 1.0
-10 1.0
11 1.0
-11 1.0
12 1.0
-12 1.0
13 1.0
-13 1.0
14 1.0
-14 1.0
15 1.0
-15 1.0
16 1.0
-16 1.0
17 1.0
-17 1.0
18 1.0
-18 1.0
19 1.0
-19 1.0
20 1.0
-20 1.0
21 1.0
-21 1.0
22 1.0
-22 1.0
23 1.0
-23 1.0
24 1.0
-24 1.0
25 1.0
-25 1.0
26 1.0
-26 1.0
27 1.0
-27 1.0
28 1.0
-28 1.0
29 1.0
-29 1.0
30 1.0
-30 1.0
31 1.0
-31 1.0
32 1.0
-32 1.0
33 1.0
-33 1.0
34 1.0
-34 1.0
35 1.0
-35 1.0
36 1.0
-36 1.0
37 1.0
-37 1.0
38 1.0
-38 1.0
39 1.0
-39 1.0
40 1.0
-40 1.0
41 1.0
-41 1.0
42 1.0
-42 1.0
43 1.0
-43 1.0
44 1.0
-44 1.0
45 1.0
-45 1.0
46 1.0
-46 1.0
47 1.0
-47 1.0
48 1.0
-48 1.0
49 1.0
-49 1.0
50 1.0
-50 1.0
51 1.0
-51 1.0
52 1.0
-52 1.0
53 1.0
-53 1.0
54 1.0
-54 1.0
55 1.0
-55 1.0
56 1.0
-56 1.0
57 1.0
-57 1.0
58 1.0
-58 1.0
59 1.0
-59 1.0
60 1.0
-60 1.0
61 1.0
-61 1.0
62 1.0
-62 1.0
63 1.0
-63 1.0
64 1.0
-64 1.0
65 1.0
-65 1.0
66 1.0
-66 1.0
67 1.0
-67 1.0
68 1.0
-68 1.0
69 1.0
-69 1.0
70 1.0
-70 1.0
71 1.0
-71 1.0
72 1.0
-72 1.0
73 1.0
-73 1.0
74 1.0
-74 1.0
75 1.0
-75 1.0
76 1.0
-76 1.0
77 1.0
-77 1.0
78 1.0
-78 1.0
79 1.0
-79 1.0
80 1.0
-80 1.0
81 1.0
-81 1.0
82 1.0
-82 1.0
83 1.0
-83 1.0
84 1.0
-84 1.0
85 1.0
-85 1.0
86 1.0
-86 1.0
87 1.0
-87 1.0
88 1.0
-88 1.0
89 1.0
-89 1.0
90 1.0
-90 1.0
91 1.0
-91 1.0
92 1.0
-92 1.0
93 1.0
-93 1.0
94 1.0
-94 1.0
95 1.0
-95 1.0
96 1.0
-96 1.0
97 1.0
-97 1.0
98 1.0
-98 1.0
99 1.0
-99 1.0
100 1.0
-100 1.0
101 1.0
-101 1.0
102 1.0
-102 1.0
103 1.0
-103 1.0
104 1.0
-104 1.0
105 1.0
-105 1.0
106 1.0
-106 1.0
107 1.0
-107 1.0
108 1.0
-108 1.0
109 1.0
-109 1.0
110 1.0
-110 1.0
111 1.0
-111 1.0
112 1.0
-112 1.0
113 1.0
-113 1.0
114 1.0
-114 1.0
115 1.0
-115 1.0
116 1.0
-116 1.0
117 1.0
-117 1.0
118 1.0
-118 1.0
119 1.0
-119 1.0
120 1.0
-120 1.0
121 1.0
-121 1.0
122 1.0
-122 1.0
123 1.0
-123 1.0
124 1.0
-124 1.0
125 1.0
-125 1.0
126 1.0
-126 1.0
127 1.0
-127 1.0
128 1.0
-128 1.0
129 1.0
-129 1.0
130 1.0
-130 1.0
131 1.0
-131 1.0
132 1.0
-132 1.0
133 1.0
-133 1.0
134 1.0
-134 1.0
135 1.0
-135 1.0
136 1.0
-136 1.0
137 1.0
-137 1.0
138 1.0
-138 1.0
139 1.0
-139 1.0
140 1.0
-140 1.0
141 1.0
-141 1.0
142 1.0
-142 1.0
143 1.0
-143 1.0
144 1.0
-144 1.0
145 1.0
-145 1.0
146 1.0
-146 1.0
147 1.0
-147 1.0
148 1.0
-148 1.0
149 1.0
-149 1.0
150 1.0
-150 1.0
151 1.0
-151 1.0
152 1.0
-152 1.0
153 1.0
-153 1.0
154 1.0
-154 1.0
155 1.0
-155 1.0
156 1.0
-156 1.0
157 1.0
-157 1.0
158 1.0
-158 1.0
159 1.0
-159 1.0
160 1.0
-160 1.0
161 1.0
-161 1.0
162 1.0
-162 1.0
163 1.0
-163 1.0
164 1.0
-164 1.0
165 1.0
-165 1.0
166 1.0
-166 1.0
167 1.0
-167 1.0
168 1.0
-168 1.0
169 1.0
-169 1.0
170 1.0
-170 1.0
171 1.0
-171 1.0
172 1.0
-172 1.0
173 1.0
-173 1.0
174 1.0
-174 1.0
175 1.0
-175 1.0
176 1.0
-176 1.0
177 1.0
-177 1.0
178 1.0
-178 1.0
179 1.0
-179 1.0
180 1.0
-180 1.0
181 1.0
-181 1.0
182 1.0
-182 1.0
183 1.0
-183 1.0
184 1.0
-184 1.0
185 1.0
-185 1.0
186 1.0
-186 1.0
187 1.0
-187 1.0
188 1.0
-188 1.0
189 1.0
-189 1.0
190 1.0
-190 1.0
191 1.0
-191 1.0
192 1.0
-192 1.0
193 1.0
-193 1.0
194 1.0
-194 1.0
195 1.0
-195 1.0
196 1.0
-196 1.0
197 1.0
-197 1.0
198 1.0
-198 1.0
199 1.0
-199 1.0
200 1.0
-200 1.0
201 1.0
-201 1.0
202 1.0
-202 1.0
203 1.0
-203 1.0
204 1.0
-204 1.0
205 1.0
-205 1.0
206 1.0
-206 1.0
207 1.0
-207 1.0
208 1.0
-208 1.0
209 1.0
-209 1.0
210 1.0
-210 1.0
211 1.0
-211 1.0
212 1.0
-212 1.0
213 1.0
-213 1.0
214 1.0
-214 1.0
215 1.0
-215 1.0
216 1.0
-216 1.0
217 1.0
-217 1.0
218 1.0
-218 1.0
219 1.0
-219 1.0
220 1.0
-220 1.0
221 1.0
-221 1.0
222 1.0
-222 1.0
223 1.0
-223 1.0
224 1.0
-224 1.0
225 1.0
-225 1.0
226 1.0
-226 1.0
227 1.0
-227 1.0
228 1.0
-228 1.0
229 1.0
-229 1.0
230 1.0
-230 1.0
231 1.0
-231 1.0
232 1.0
-232 1.0
233 1.0
-233 1.0
234 1.0
-234 1.0
235 1.0
-235 1.0
236 1.0
-236 1.0
237 1.0
-237 1.0
238 1.0
-238 1.0
239 1.0
-239 1.0
240 1.0
-240 1.0
241 1.0
-241 1.0
242 1.0
-242 1.0
243 1.0
-243 1.0
244 1.0
-244 1.0
245 1.0
-245 1.0
246 1.0
-246 1.0
247 1.0
-247 1.0
248 1.0
-248 1.0
249 1.0
-249 1.0
250 1.0
-250 1.0
251 1.0
-251 1.0
252 1.0
-252 1.0
253 1.0
-253 1.0
254 1.0
-254 1.0
255 1.0
-255 1.0
256 1.0
-256 1.0
257 1.0
-257 1.0
258 1.0
-258 1.0
259 1.0
-259 1.0
260 1.0
-260 1.0
261 1.0
-261 1.0
262 1.0
-262 1.0
263 1.0
-263 1.0
264 1.0
-264 1.0
265 1.0
-265 1.0
266 1.0
-266 1.0
267 1.0
-267 1.0
268 1.0
-268 1.0
269 1.0
-269 1.0
270 1.0
-270 1.0
271 1.0
-271 1.0
272 1.0
-272 1.0
273 1.0
-273 1.0
274 1.0
-274 1.0
275 1.0
-275 1.0
276 1.0
-276 1.0
277 1.0
-277 1.0
278 1.0
-278 1.0
279 1.0
-279 1.0
280 1.0
-280 1.0
281 1.0
-281 1.0
282 1.0
-282 1.0
283 1.0
-283 1.0
284 1.0
-284 1.0
285 1.0
-285 1.0
286 1.0
-286 1.0
287 1.0
-287 1.0
288 1.0
-288 1.0
289 1.0
-289 1.0
290 1.0
-290 1.0
291 1.0
-291 1.0
292 1.0
-292 1.0
293 1.0
-293 1.0
294 1.0
-294 1.0
295 1.0
-295 1.0
296 1.0
-296 1.0
297 1.0
-297 1.0
298 1.0
-298 1.0
299 1.0
-299 1.0
300 1.0
-300 1.0
301 1.0
-301 1.0
302 1.0
-302 1.0
303 1.0
-303 1.0
304 1.0
-304 1.0
305 1.0
-305 1.0
306 1.0
-306 1.0
307 1.0
-307 1.0
308 1.0
-308 1.0
309 1.0
-309 1.0
310 1.0
-310 1.0
311 1.0
-311 1.0
312 1.0
-312 1.0
313 1.0
-313 1.0
314 1.0
-314 1.0
315 1.0
-315 1.0
316 1.0
-316 1.0
317 1.0
-317 1.0
318 1.0
-318 1.0
319 1.0
-319 1.0
320 1.0
-320 1.0
321 1.0
-321 1.0
322 1.0
-322 1.0
323 1.0
-323 1.0
324 1.0
-324 1.0
325 1.0
-325 1.0
326 1.0
-326 1.0
327 1.0
-327 1.0
328 1.0
-328 1.0
329 1.0
-329 1.0
330 1.0
-330 1.0
331 1.0
-331 1.0
332 1.0
-332 1.0
333 1.0
-333 1.0
334 1.0
-334 1.0
335 1.0
-335 1.0
336 1.0
-336 1.0
337 1.0
-337 1.0
338 1.0
-338 1.0
339 1.0
-339 1.0
340 1.0
-340 1.0
341 1.0
-341 1.0
342 1.0
-342 1.0
343 1.0
-343 1.0
344 1.0
-344 1.0
345 1.0
-345 1.0
346 1.0
-346 1.0
347 1.0
-347 1.0
348 1.0
-348 1.0
349 1.0
-349 1.0
350 1.0
-350 1.0
351 1.0
-351 1.0
352 1.0
-352 1.0
353 1.0
-353 1.0
354 1.0
-354 1.0
355 1.0
-355 1.0
356 1.0
-356 1.0
357 1.0
-357 1.0
358 1.0
-358 1.0
359 1.0
-359 1.0
360 1.0
-360 1.0
361 1.0
-361 1.0
362 1.0
-362 1.0
363 1.0
-363 1.0
364 1.0
-364 1.0
365 1.0
-365 1.0
366 1.0
-366 1.0
367 1.0
-367 1.0
368 1.0
-368 1.0
369 1.0
-369 1.0
370 1.0
-370 1.0
371 1.0
-371 1.0
372 1.0
-372 1.0
373 1.0
-373 1.0
374 1.0
-374 1.0
375 1.0
-375 1.0
376 1.0
-376 1.0
377 1.0
-377 1.0
378 1.0
-378 1.0
379 1.0
-379 1.0
380 1.0
-380 1.0
381 1.0
-381 1.0
382 1.0
-382 1.0
383 1.0
-383 1.0
384 1.0
-384 1.0
385 1.0
-385 1.0
386 1.0
-386 1.0
387 1.0
-387 1.0
388 1.0
-388 1.0
389 1.0
-389 1.0
390 1.0
-390 1.0
391 1.0
-391 1.0
392 1.0
-392 1.0
393 1.0
-393 1.0
394 1.0
-394 1.0
395 1.0
-395 1.0
396 1.0
-396 1.0
397 1.0
-397 1.0
398 1.0
-398 1.0
399 1.0
-399 1.0
400 1.0
-400 1.0
401 0.5
-401 0.5
402 0.5
-402 0.5
403 0.5
-403 0.5
404 0.5
-404 0.5
405 0.5
-405 0.5
406 0.5
-406 0.5
407 0.5
-407 0.5
408 0.5
-408 0.5
409 0.216699
-409 0.783301
410 0.42989
-410 0.57011
411 0.5
-411 0.5
412 0.5
-412 0.5
413 0.5
-413 0.5
414 0.5
-414 0.5
415 0.5
-415 0.5
416 0.5
-416 0.5
417 0.5
-417 0.5
418 0.5
-418 0.5
419 0.353463
-419 0.646537
420 0.209744
-420 0.790256
421 0.5
-421 0.5
422 0.5
-422 0.5
423 0.512398
-423 0.487602
424 0.145662
-424 0.854338
425 0.5
-425 0.5
426 0.5
-426 0.5
427 0.5
-427 0.5
428 0.5
-428 0.5
429 0.5
-429 0.5
430 0.5
-430 0.5
431 0.101346
-431 0.898654
432 0.150239
-432 0.849761
433 0.5
-433 0.5
434 0.5
-434 0.5
435 0.5
-435 0.5
436 0.5
-436 0.5
437 0.5
-437 0.5
438 0.5
-438 0.5
439 0.657957
-439 0.342043
440 0.331706
-440 0.668294
441 0.940999
-441 0.059001
442 0.912235
-442 0.087765
443 0.14792
-443 0.85208
444 0.483583
-444 0.516417
445 0.501382
-445 0.498618
446 0.693327
-446 0.306673
447 0.971447
-447 0.028553
448 0.709403
-448 0.290597
449 0.5
-449 0.5
450 0.5
-450 0.5
451 0.5
-451 0.5
452 0.5
-452 0.5
453 0.5
-453 0.5
454 0.5
-454 0.5
455 0.5
-455 0.5
456 0.5
-456 0.5
457 0.5
-457 0.5
458 0.5
-458 0.5
459 0.5
-459 0.5
460 0.5
-460 0.5
461 0.5
-461 0.5
462 0.5
-462 0.5
463 0.5
-463 0.5
464 0.5
-464 0.5
465 0.5
-465 0.5
466 0.5
-466 0.5
467 0.5
-467 0.5
468 0.5
-468 0.5
469 0.915153
-469 0.084847
470 0.906508
-470 0.093492
471 0.884374
-471 0.115626
472 0.624556
-472 0.375444
473 0.5
-473 0.5
474 0.5
-474 0.5
475 0.5
-475 0.5
476 0.5
-476 0.5
477 0.5
-477 0.5
478 0.5
-478 0.5
479 0.5
-479 0.5
480 0.5
-480 0.5
481 0.5
-481 0.5
482 0.5
-482 0.5
483 0.5
-483 0.5
484 0.5
-484 0.5
485 0.299145
-485 0.700855
486 0.332334
-486 0.667666
487 0.937043
-487 0.062957
488 0.564995
-488 0.435005
489 0.5
-489 0.5
490 0.5
-490 0.5
491 0.5
-491 0.5
492 0.5
-492 0.5
493 0.181621
-493 0.818379
494 0.808906
-494 0.191094
495 0.518474
-495 0.481526
496 0.601548
-496 0.398452
497 0.5
-497 0.5
498 0.5
-498 0.5
499 0.5
-499 0.5
500 0.5
-500 0.5
501 0.16851
-501 0.83149
502 0.644959
-502 0.355041
503 0.017252
-503 0.982748
504 0.121857
-504 0.878143
505 0.528606
-505 0.471394
506 0.534951
-506 0.465049
507 0.708927
-507 0.291073
508 0.530267
-508 0.469733
509 0.5
-509 0.5
510 0.5
-510 0.5
511 0.5
-511 0.5
512 0.5
-512 0.5
513 0.5
-513 0.5
514 0.5
-514 0.5
515 0.5
-515 0.5
516 0.5
-516 0.5
517 0.5
-517 0.5
518 0.5
-518 0.5
519 0.165729
-519 0.834271
520 0.785564
-520 0.214436
521 0.531235
-521 0.468765
522 0.342854
-522 0.657146
523 0.17599
-523 0.82401
524 0.563569
-524 0.436431
525 0.556452
-525 0.443548
526 0.980884
-526 0.019116
527 0.5
-527 0.5
528 0.5
-528 0.5
529 0.5
-529 0.5
530 0.5
-530 0.5
531 0.5
-531 0.5
532 0.5
-532 0.5
533 0.5
-533 0.5
534 0.5
-534 0.5
535 0.5
-535 0.5
536 0.5
-536 0.5
537 0.5
-537 0.5
538 0.5
-538 0.5
539 0.5
-539 0.5
540 0.5
-540 0.5
541 0.5
-541 0.5
542 0.5
-542 0.5
543 0.5
-543 0.5
544 0.5
-544 0.5
545 0.5
-545 0.5
546 0.5
-546 0.5
547 0.5
-547 0.5
548 0.5
-548 0.5
549 0.5
-549 0.5
550 0.5
-550 0.5
551 0.5
-551 0.5
552 0.5
-552 0.5
553 0.5
-553 0.5
554 0.5
-554 0.5
555 0.5
-555 0.5
556 0.5
-556 0.5
557 0.5
-557 0.5
558 0.5
-558 0.5
559 0.5
-559 0.5
560 0.5
-560 0.5
561 0.5
-561 0.5
562 0.5
-562 0.5
563 0.5
-563 0.5
564 0.5
-564 0.5
565 0.5
-565 0.5
566 0.5
-566 0.5
567 0.5
-567 0.5
568 0.5
-568 0.5
569 0.5
-569 0.5
570 0.5
-570 0.5
571 0.5
-571 0.5
572 0.5
-572 0.5
573 0.5
-573 0.5
574 0.5
-574 0.5
575 0.5
-575 0.5
576 0.5
-576 0.5
577 0.5
-577 0.5
578 0.5
-578 0.5
579 0.5
-579 0.5
580 0.5
-580 0.5
581 0.5
-581 0.5
582 0.5
-582 0.5
583 0.5
-583 0.5
584 0.5
-584 0.5
585 0.5
-585 0.5
586 0.5
-586 0.5
587 0.286645
-587 0.713355
588 0.447343
-588 0.552657
589 0.961864
-589 0.038136
590 0.328271
-590 0.671729
591 0.5
-591 0.5
592 0.5
-592 0.5
593 0.5
-593 0.5
594 0.5
-594 0.5
595 0.5
-595 0.5
596 0.5
-596 0.5
597 0.600496
-597 0.399504
598 0.288538
-598 0.711462
599 0.818415
-599 0.181585
600 0.134028
-600 0.865972
601 0.5
-601 0.5
602 0.5
-602 0.5
603 0.5
-603 0.5
604 0.5
-604 0.5
605 0.5
-605 0.5
606 0.5
-606 0.5
607 0.5
-607 0.5
608 0.5
-608 0.5
609 0.519341
-609 0.480659
610 0.854939
-610 0.145061
611 0.069007
-611 0.930993
612 0.472898
-612 0.527102
613 0.5
-613 0.5
614 0.5
-614 0.5
615 0.5
-615 0.5
616 0.5
-616 0.5
617 0.546405
-617 0.453595
618 0.698429
-618 0.301571
619 0.863629
-619 0.136371
620 0.861545
-620 0.138455
621 0.5
-621 0.5
622 0.5
-622 0.5
623 0.5
-623 0.5
624 0.5
-624 0.5
625 0.5
-625 0.5
626 0.5
-626 0.5
627 0.5
-627 0.5
628 0.5
-628 0.5
629 0.5
-629 0.5
630 0.5
-630 0.5
631 0.5
-631 0.5
632 0.5
-632 0.5
633 0.5
-633 0.5
634 0.5
-634 0.5
635 0.5
-635 0.5
636 0.5
-636 0.5
637 0.5
-637 0.5
638 0.5
-638 0.5
639 0.5
-639 0.5
640 0.5
-640 0.5
641 0.5
-641 0.5
642 0.5
-642 0.5
643 0.5
-643 0.5
644 0.5
-644 0.5
645 0.5
-645 0.5
646 0.5
-646 0.5
647 0.5
-647 0.5
648 0.5
-648 0.5
649 0.5
-649 0.5
650 0.5
-650 0.5
651 0.5
-651 0.5
652 0.5
-652 0.5
653 0.5
-653 0.5
654 0.5
-654 0.5
655 0.5
-655 0.5
656 0.5
-656 0.5
657 0.5
-657 0.5
658 0.5
-658 0.5
659 0.5
-659 0.5
660 0.5
-660 0.5
661 0.41674
-661 0.58326
662 0.408256
-662 0.591744
663 0.591934
-663 0.408066
664 0.316187
-664 0.683813
665 0.5
-665 0.5
666 0.5
-666 0.5
667 0.5
-667 0.5
668 0.5
-668 0.5
669 0.5
-669 0.5
670 0.5
-670 0.5
671 0.5
-671 0.5
672 0.5
-672 0.5
673 0.5
-673 0.5
674 0.5
-674 0.5
675 0.118543
-675 0.881457
676 0.047928
-676 0.952072
677 0.430928
-677 0.569072
678 0.712952
-678 0.287048
679 0.697005
-679 0.302995
680 0.72124
-680 0.27876
681 0.933242
-681 0.066758
682 0.396149
-682 0.603851
683 0.699824
-683 0.300176
684 0.383298
-684 0.616702
685 0.552428
-685 0.447572
686 0.661701
-686 0.338299
687 0.960684
-687 0.039316
688 0.253635
-688 0.746365
689 0.116225
-689 0.883775
690 0.408812
-690 0.591188
691 0.5
-691 0.5
692 0.5
-692 0.5
693 0.5
-693 0.5
694 0.5
-694 0.5
695 0.5
-695 0.5
696 0.5
-696 0.5
697 0.5
-697 0.5
698 0.5
-698 0.5
699 0.301505
-699 0.698495
700 0.027768
-700 0.972232
701 0.038868
-701 0.961132
702 0.732433
-702 0.267567
703 0.5
-703 0.5
704 0.5
-704 0.5
705 0.5
-705 0.5
706 0.5
-706 0.5
707 0.5
-707 0.5
708 0.5
-708 0.5
709 0.5
-709 0.5
710 0.5
-710 0.5
711 0.476326
-711 0.523674
712 0.125149
-712 0.874851
713 0.361947
-713 0.638053
714 0.891225
-714 0.108775
715 0.5
-715 0.5
716 0.5
-716 0.5
717 0.5
-717 0.5
718 0.5
-718 0.5
719 0.5
-719 0.5
720 0.5
-720 0.5
721 0.5
-721 0.5
722 0.5
-722 0.5
723 0.522233
-723 0.477767
724 0.767481
-724 0.232519
725 0.633733
-725 0.366267
726 0.262953
-726 0.737047
727 0.5
-727 0.5
728 0.5
-728 0.5
729 0.5
-729 0.5
730 0.5
-730 0.5
731 0.5
-731 0.5
732 0.5
-732 0.5
733 0.5
-733 0.5
734 0.5
-734 0.5
735 0.5
-735 0.5
736 0.5
-736 0.5
737 0.5
-737 0.5
738 0.5
-738 0.5
739 0.5
-739 0.5
740 0.5
-740 0.5
741 0.5
-741 0.5
742 0.5
-742 0.5
743 0.5
-743 0.5
744 0.5
-744 0.5
745 0.5
-745 0.5
746 0.5
-746 0.5
747 0.5
-747 0.5
748 0.5
-748 0.5
749 0.5
-749 0.5
750 0.5
-750 0.5
751 0.5
-751 0.5
752 0.5
-752 0.5
753 0.197952
-753 0.802048
754 0.67198
-754 0.32802
755 0.723789
-755 0.276211
756 0.362888
-756 0.637112
757 0.821433
-757 0.178567
758 0.520274
-758 0.479726
759 0.129793
-759 0.870207
760 0.928001
-760 0.071999
761 0.5
-761 0.5
762 0.5
-762 0.5
763 0.5
-763 0.5
764 0.5
-764 0.5
765 0.5
-765 0.5
766 0.5
-766 0.5
767 0.5
-767 0.5
768 0.5
-768 0.5
769 0.5
-769 0.5
770 0.5
-770 0.5
771 0.5
-771 0.5
772 0.5
-772 0.5
773 0.5
-773 0.5
774 0.5
-774 0.5
775 0.5
-775 0.5
776 0.5
-776 0.5
777 0.5
-777 0.5
778 0.5
-778 0.5
779 0.5
-779 0.5
780 0.5
-780 0.5
781 0.5
-781 0.5
782 0.5
-782 0.5
783 0.5
-783 0.5
784 0.5
-784 0.5
785 0.5
-785 0.5
786 0.5
-786 0.5
787 0.5
-787 0.5
788 0.5
-788 0.5
789 0.5
-789 0.5
790 0.5
-790 0.5
791 0.5
-791 0.5
792 0.5
-792 0.5
793 0.5
-793 0.5
794 0.5
-794 0.5
795 0.5
-795 0.5
796 0.5
-796 0.5
797 0.5
-797 0.5
798 0.5
-798 0.5
799 0.5
-799 0.5
800 0.5
-800 0.5
801 0.5
-801 0.5
802 0.5
-802 0.5
803 0.5
-803 0.5
804 0.5
-804 0.5
805 0.5
-805 0.5
806 0.5
-806 0.5
807 0.5
-807 0.5
808 0.5
-808 0.5
809 0.785299
-809 0.214701
810 0.727852
-810 0.272148
811 0.747388
-811 0.252612
812 0.427163
-812 0.572837
813 0.5
-813 0.5
814 0.5
-814 0.5
815 0.5
-815 0.5
816 0.5
-816 0.5
817 0.362574
-817 0.637426
818 0.953316
-818 0.046684
819 0.698212
-819 0.301788
820 0.108959
-820 0.891041
821 0.5
-821 0.5
822 0.5
-822 0.5
823 0.5
-823 0.5
824 0.5
-824 0.5
825 0.5
-825 0.5
826 0.5
-826 0.5
827 0.5
-827 0.5
828 0.5
-828 0.5
829 0.5
-829 0.5
830 0.5
-830 0.5
831 0.5
-831 0.5
832 0.5
-832 0.5
833 0.5
-833 0.5
834 0.5
-834 0.5
835 0.5
-835 0.5
836 0.5
-836 0.5
837 0.5
-837 0.5
838 0.5
-838 0.5
839 0.487092
-839 0.512908
840 0.939851
-840 0.060149
841 0.675733
-841 0.324267
842 0.433781
-842 0.566219
843 0.5
-843 0.5
844 0.5
-844 0.5
845 0.5
-845 0.5
846 0.5
-846 0.5
847 0.5
-847 0.5
848 0.5
-848 0.5
849 0.5
-849 0.5
850 0.5
-850 0.5
851 0.5
-851 0.5
852 0.5
-852 0.5
853 0.5
-853 0.5
854 0.5
-854 0.5
855 0.5
-855 0.5
856 0.5
-856 0.5
857 0.5
-857 0.5
858 0.5
-858 0.5
859 0.5
-859 0.5
860 0.5
-860 0.5
861 0.5
-861 0.5
862 0.5
-862 0.5
863 0.772073
-863 0.227927
864 0.452346
-864 0.547654
865 0.51051
-865 0.48949
866 0.205854
-866 0.794146
867 0.13956
-867 0.86044
868 0.337847
-868 0.662153
869 0.166156
-869 0.833844
870 0.145108
-870 0.854892
871 0.5
-871 0.5
872 0.5
-872 0.5
873 0.5
-873 0.5
874 0.5
-874 0.5
875 0.306321
-875 0.693679
876 0.385824
-876 0.614176
877 0.564403
-877 0.435597
878 0.427119
-878 0.572881
879 0.5
-879 0.5
880 0.5
-880 0.5
881 0.5
-881 0.5
882 0.5
-882 0.5
883 0.587066
-883 0.412934
884 0.531273
-884 0.468727
885 0.281668
-885 0.718332
886 0.099561
-886 0.900439
887 0.5
-887 0.5
888 0.5
-888 0.5
889 0.5
-889 0.5
890 0.5
-890 0.5
891 0.5
-891 0.5
892 0.5
-892 0.5
893 0.5
-893 0.5
894 0.5
-894 0.5
895 0.5
-895 0.5
896 0.5
-896 0.5
897 0.5
-897 0.5
898 0.5
-898 0.5
899 0.5
-899 0.5
900 0.5
-900 0.5
901 0.5
-901 0.5
902 0.5
-902 0.5
903 0.724663
-903 0.275337
904 0.893336
-904 0.106664
905 0.439678
-905 0.560322
906 0.979333
-906 0.020667
907 0.5
-907 0.5
908 0.5
-908 0.5
909 0.5
-909 0.5
910 0.5
-910 0.5
911 0.5
-911 0.5
912 0.5
-912 0.5
913 0.217868
-913 0.782132
914 0.351797
-914 0.648203
915 0.031371
-915 0.968629
916 0.524547
-916 0.475453
917 0.5
-917 0.5
918 0.5
-918 0.5
919 0.5
-919 0.5
920 0.5
-920 0.5
921 0.5
-921 0.5
922 0.5
-922 0.5
923 0.5
-923 0.5
924 0.5
-924 0.5
925 0.5
-925 0.5
926 0.5
-926 0.5
927 0.5
-927 0.5
928 0.5
-928 0.5
929 0.406558
-929 0.593442
930 0.529095
-930 0.470905
931 0.827683
-931 0.172317
932 0.984473
-932 0.015527
933 0.394082
-933 0.605918
934 0.093661
-934 0.906339
935 0.683494
-935 0.316506
936 0.060042
-936 0.939958
937 0.5
-937 0.5
938 0.5
-938 0.5
939 0.5
-939 0.5
940 0.5
-940 0.5
941 0.288611
-941 0.711389
942 0.115455
-942 0.884545
943 0.799838
-943 0.200162
944 0.817754
-944 0.182246
945 0.05659
-945 0.94341
946 0.035983
-946 0.964017
947 0.757849
-947 0.242151
948 0.115349
-948 0.884651
949 0.276724
-949 0.723276
950 0.361939
-950 0.638061
951 0.048426
-951 0.951574
952 0.789946
-952 0.210054
953 0.5
-953 0.5
954 0.5
-954 0.5
955 0.5
-955 0.5
956 0.5
-956 0.5
957 0.5
-957 0.5
958 0.5
-958 0.5
959 0.5
-959 0.5
960 0.5
-960 0.5
961 0.5
-961 0.5
962 0.5
-962 0.5
963 0.5
-963 0.5
964 0.5
-964 0.5
965 0.5
-965 0.5
966 0.5
-966 0.5
967 0.5
-967 0.5
968 0.5
-968 0.5
969 0.49297
-969 0.50703
970 0.115374
-970 0.884626
971 0.906578
-971 0.093422
972 0.250819
-972 0.749181
973 0.5
-973 0.5
974 0.5
-974 0.5
975 0.5
-975 0.5
976 0.5
-976 0.5
977 0.5
-977 0.5
978 0.5
-978 0.5
979 0.5
-979 0.5
980 0.5
-980 0.5
981 0.5
-981 0.5
982 0.5
-982 0.5
983 0.5
-983 0.5
984 0.5
-984 0.5
985 0.5
-985 0.5
986 0.5
-986 0.5
987 0.68446
-987 0.31554
988 0.25459
-988 0.74541
989 0.577374
-989 0.422626
990 0.255775
-990 0.744225
991 0.5
-991 0.5
992 0.5
-992 0.5
993 0.5
-993 0.5
994 0.5
-994 0.5
995 0.5
-995 0.5
996 0.5
-996 0.5
997 0.5
-997 0.5
998 0.5
-998 0.5
999 0.5
-999 0.5
1000 0.5
-1000 0.5
1001 0.5
-1001 0.5
1002 0.5
-1002 0.5
1003 0.5
-1003 0.5
1004 0.5
-1004 0.5
1005 0.5
-1005 0.5
1006 0.5
-1006 0.5
1007 0.5
-1007 0.5
1008 0.5
-1008 0.5
1009 0.5
-1009 0.5
1010 0.5
-1010 0.5
1011 0.523083
-1011 0.476917
1012 0.834192
-1012 0.165808
1013 0.068152
-1013 0.931848
1014 0.100457
-1014 0.899543
1015 0.5
-1015 0.5
1016 0.5
-1016 0.5
1017 0.5
-1017 0.5
1018 0.5
-1018 0.5
1019 0.5
-1019 0.5
1020 0.5
-1020 0.5
1021 0.5
-1021 0.5
1022 0.5
-1022 0.5
1023 0.877577
-1023 0.122423
1024 0.36824
-1024 0.63176
1025 0.271207
-1025 0.728793
1026 0.996026
-1026 0.003974
1027 0.826305
-1027 0.173695
1028 0.890994
-1028 0.109006
1029 0.944966
-1029 0.055034
1030 0.405872
-1030 0.594128
1031 0.5
-1031 0.5
1032 0.5
-1032 0.5
1033 0.5
-1033 0.5
1034 0.5
-1034 0.5
1035 0.5
-1035 0.5
1036 0.5
-1036 0.5
1037 0.5
-1037 0.5
1038 0.5
-1038 0.5
1039 0.5
-1039 0.5
1040 0.5
-1040 0.5
1041 0.5
-1041 0.5
1042 0.5
-1042 0.5
1043 0.530253
-1043 0.469747
1044 0.761522
-1044 0.238478
1045 0.619802
-1045 0.380198
1046 0.684616
-1046 0.315384
1047 0.5
-1047 0.5
1048 0.5
-1048 0.5
1049 0.5
-1049 0.5
1050 0.5
-1050 0.5
1051 0.619159
-1051 0.380841
1052 0.384399
-1052 0.615601
1053 0.897429
-1053 0.102571
1054 0.025031
-1054 0.974969
1055 0.5
-1055 0.5
1056 0.5
-1056 0.5
1057 0.5
-1057 0.5
1058 0.5
-1058 0.5
1059 0.5
-1059 0.5
1060 0.5
-1060 0.5
1061 0.5
-1061 0.5
1062 0.5
-1062 0.5
1063 0.055856
-1063 0.944144
1064 0.039624
-1064 0.960376
1065 0.5
-1065 0.5
1066 0.5
-1066 0.5
1067 0.5
-1067 0.5
1068 0.5
-1068 0.5
1069 0.5
-1069 0.5
1070 0.5
-1070 0.5
1071 0.5
-1071 0.5
1072 0.5
-1072 0.5
1073 0.5
-1073 0.5
1074 0.5
-1074 0.5
1075 0.5
-1075 0.5
1076 0.5
-1076 0.5
1077 0.5
-1077 0.5
1078 0.5
-1078 0.5
1079 0.5
-1079 0.5
1080 0.5
-1080 0.5
1081 0.5
-1081 0.5
1082 0.5
-1082 0.5
1083 0.5
-1083 0.5
1084 0.5
-1084 0.5
1085 0.5
-1085 0.5
1086 0.5
-1086 0.5
1087 0.5
-1087 0.5
1088 0.5
-1088 0.5
1089 0.5
-1089 0.5
1090 0.5
-1090 0.5
1091 0.5
-1091 0.5
1092 0.5
-1092 0.5
1093 0.611651
-1093 0.388349
1094 0.945506
-1094 0.054494
1095 0.31407
-1095 0.68593
1096 0.647114
-1096 0.352886
1097 0.5
-1097 0.5
1098 0.5
-1098 0.5
1099 0.5
-1099 0.5
1100 0.5
-1100 0.5
1101 0.153699
-1101 0.846301
1102 0.706453
-1102 0.293547
1103 0.641893
-1103 0.358107
1104 0.439195
-1104 0.560805
1105 0.5
-1105 0.5
1106 0.5
-1106 0.5
1107 0.5
-1107 0.5
1108 0.5
-1108 0.5
1109 0.5
-1109 0.5
1110 0.5
-1110 0.5
1111 0.5
-1111 0.5
1112 0.5
-1112 0.5
1113 0.800138
-1113 0.199862
1114 0.993086
-1114 0.006914
1115 0.533058
-1115 0.466942
1116 0.169181
-1116 0.830819
1117 0.5
-1117 0.5
1118 0.5
-1118 0.5
1119 0.5
-1119 0.5
1120 0.5
-1120 0.5
1121 0.5
-1121 0.5
1122 0.5
-1122 0.5
1123 0.5
-1123 0.5
1124 0.5
-1124 0.5
1125 0.5
-1125 0.5
1126 0.5
-1126 0.5
1127 0.5
-1127 0.5
1128 0.5
-1128 0.5
1129 0.5
-1129 0.5
1130 0.5
-1130 0.5
1131 0.5
-1131 0.5
1132 0.5
-1132 0.5
1133 0.5
-1133 0.5
1134 0.5
-1134 0.5
1135 0.5
-1135 0.5
1136 0.5
-1136 0.5
1137 0.592275
-1137 0.407725
1138 0.365163
-1138 0.634837
1139 0.157029
-1139 0.842971
1140 0.768252
-1140 0.231748
1141 0.937861
-1141 0.062139
1142 0.889735
-1142 0.110265
1143 0.5
-1143 0.5
1144 0.5
-1144 0.5
1145 0.5
-1145 0.5
1146 0.5
-1146 0.5
1147 0.5
-1147 0.5
1148 0.5
-1148 0.5
1149 0.5
-1149 0.5
1150 0.5
-1150 0.5
1151 0.5
-1151 0.5
1152 0.5
-1152 0.5
1153 0.5
-1153 0.5
1154 0.5
-1154 0.5
1155 0.5
-1155 0.5
1156 0.5
-1156 0.5
1157 0.5
-1157 0.5
1158 0.5
-1158 0.5
1159 0.5
-1159 0.5
1160 0.5
-1160 0.5
1161 0.5
-1161 0.5
1162 0.5
-1162 0.5
1163 0.5
-1163 0.5
1164 0.5
-1164 0.5
1165 0.5
-1165 0.5
1166 0.5
-1166 0.5
1167 0.5
-1167 0.5
1168 0.5
-1168 0.5
1169 0.5
-1169 0.5
1170 0.5
-1170 0.5
1171 0.5
-1171 0.5
1172 0.5
-1172 0.5
1173 0.5
-1173 0.5
1174 0.5
-1174 0.5
1175 0.727346
-1175 0.272654
1176 0.960088
-1176 0.039912
1177 0.661182
-1177 0.338818
1178 0.753772
-1178 0.246228
1179 0.5
-1179 0.5
1180 0.5
-1180 0.5
1181 0.5
-1181 0.5
1182 0.5
-1182 0.5
1183 0.5
-1183 0.5
1184 0.5
-1184 0.5
1185 0.5
-1185 0.5
1186 0.5
-1186 0.5
1187 0.5
-1187 0.5
1188 0.5
-1188 0.5
1189 0.5
-1189 0.5
1190 0.5
-1190 0.5
1191 0.641124
-1191 0.358876
1192 0.7288
-1192 0.2712
1193 0.056867
-1193 0.943133
1194 0.995626
-1194 0.004374
1195 0.5
-1195 0.5
1196 0.5
-1196 0.5
1197 0.5
-1197 0.5
1198 0.5
-1198 0.5
1199 0.882897
-1199 0.117103
1200 0.63419
-1200 0.36581
1201 0.723041
-1201 0.276959
1202 0.544079
-1202 0.455921
1203 0.5
-1203 0.5
1204 0.5
-1204 0.5
1205 0.5
-1205 0.5
1206 0.5
-1206 0.5
1207 0.5
-1207 0.5
1208 0.5
-1208 0.5
1209 0.5
-1209 0.5
1210 0.5
-1210 0.5
1211 0.5
-1211 0.5
1212 0.5
-1212 0.5
1213 0.5
-1213 0.5
1214 0.5
-1214 0.5
1215 0.5
-1215 0.5
1216 0.5
-1216 0.5
1217 0.5
-1217 0.5
1218 0.5
-1218 0.5
1219 0.5
-1219 0.5
1220 0.5
-1220 0.5
1221 0.5
-1221 0.5
1222 0.5
-1222 0.5
1223 0.5
-1223 0.5
1224 0.5
-1224 0.5
1225 0.5
-1225 0.5
1226 0.5
-1226 0.5
1227 0.5
-1227 0.5
1228 0.5
-1228 0.5
1229 0.112686
-1229 0.887314
1230 0.779993
-1230 0.220007
1231 0.902685
-1231 0.097315
1232 0.288173
-1232 0.711827
1233 0.5
-1233 0.5
1234 0.5
-1234 0.5
1235 0.5
-1235 0.5
1236 0.5
-1236 0.5
1237 0.5
-1237 0.5
1238 0.5
-1238 0.5
1239 0.5
-1239 0.5
1240 0.5
-1240 0.5
1241 0.5
-1241 0.5
1242 0.5
-1242 0.5
1243 0.5
-1243 0.5
1244 0.5
-1244 0.5
1245 0.299247
-1245 0.700753
1246 0.362422
-1246 0.637578
1247 0.452025
-1247 0.547975
1248 0.853277
-1248 0.146723
1249 0.5
-1249 0.5
1250 0.5
-1250 0.5
1251 0.5
-1251 0.5
1252 0.5
-1252 0.5
1253 0.5
-1253 0.5
1254 0.5
-1254 0.5
1255 0.5
-1255 0.5
1256 0.5
-1256 0.5
1257 0.5
-1257 0.5
1258 0.5
-1258 0.5
1259 0.5
-1259 0.5
1260 0.5
-1260 0.5
1261 0.5
-1261 0.5
1262 0.5
-1262 0.5
1263 0.5
-1263 0.5
1264 0.5
-1264 0.5
1265 0.5
-1265 0.5
1266 0.5
-1266 0.5
1267 0.5
-1267 0.5
1268 0.5
-1268 0.5
1269 0.156486
-1269 0.843514
1270 0.848331
-1270 0.151669
1271 0.148489
-1271 0.851511
1272 0.608511
-1272 0.391489
1273 0.5
-1273 0.5
1274 0.5
-1274 0.5
1275 0.5
-1275 0.5
1276 0.5
-1276 0.5
1277 0.5
-1277 0.5
1278 0.5
-1278 0.5
1279 0.5
-1279 0.5
1280 0.5
-1280 0.5
1281 0.5
-1281 0.5
1282 0.5
-1282 0.5
1283 0.5
-1283 0.5
1284 0.5
-1284 0.5
1285 0.5
-1285 0.5
1286 0.5
-1286 0.5
1287 0.5
-1287 0.5
1288 0.5
-1288 0.5
1289 0.5
-1289 0.5
1290 0.5
-1290 0.5
1291 0.5
-1291 0.5
1292 0.5
-1292 0.5
1293 0.476736
-1293 0.523264
1294 0.929578
-1294 0.070422
1295 0.72316
-1295 0.27684
1296 0.625225
-1296 0.374775
1297 0.5
-1297 0.5
1298 0.5
-1298 0.5
1299 0.5
-1299 0.5
1300 0.5
-1300 0.5
1301 0.5
-1301 0.5
1302 0.5
-1302 0.5
1303 0.5
-1303 0.5
1304 0.5
-1304 0.5
1305 0.5
-1305 0.5
1306 0.5
-1306 0.5
1307 0.5
-1307 0.5
1308 0.5
-1308 0.5
1309 0.5
-1309 0.5
1310 0.5
-1310 0.5
1311 0.5
-1311 0.5
1312 0.5
-1312 0.5
1313 0.5
-1313 0.5
1314 0.5
-1314 0.5
1315 0.5
-1315 0.5
1316 0.5
-1316 0.5
1317 0.5
-1317 0.5
1318 0.5
-1318 0.5
1319 0.5
-1319 0.5
1320 0.5
-1320 0.5
1321 0.5
-1321 0.5
1322 0.5
-1322 0.5
1323 0.5
-1323 0.5
1324 0.5
-1324 0.5
1325 0.5
-1325 0.5
1326 0.5
-1326 0.5
1327 0.5
-1327 0.5
1328 0.5
-1328 0.5
1329 0.5
-1329 0.5
1330 0.5
-1330 0.5
1331 0.81976
-1331 0.18024
1332 0.50878
-1332 0.49122
1333 0.313677
-1333 0.686323
1334 0.587279
-1334 0.412721
1335 0.5
-1335 0.5
1336 0.5
-1336 0.5
1337 0.5
-1337 0.5
1338 0.5
-1338 0.5
1339 0.39069
-1339 0.60931
1340 0.040227
-1340 0.959773
1341 0.160014
-1341 0.839986
1342 0.586226
-1342 0.413774
1343 0.5
-1343 0.5
1344 0.5
-1344 0.5
1345 0.5
-1345 0.5
1346 0.5
-1346 0.5
1347 0.994881
-1347 0.005119
1348 0.694003
-1348 0.305997
1349 0.35972
-1349 0.64028
1350 0.103346
-1350 0.896654
1351 0.5
-1351 0.5
1352 0.5
-1352 0.5
1353 0.5
-1353 0.5
1354 0.5
-1354 0.5
1355 0.546557
-1355 0.453443
1356 0.035448
-1356 0.964552
1357 0.072985
-1357 0.927014
1358 0.133837
-1358 0.866163
1359 0.5
-1359 0.5
1360 0.5
-1360 0.5
1361 0.5
-1361 0.5
1362 0.5
-1362 0.5
1363 0.5
-1363 0.5
1364 0.5
-1364 0.5
1365 0.5
-1365 0.5
1366 0.5
-1366 0.5
1367 0.135233
-1367 0.864767
1368 0.66229
-1368 0.33771
1369 0.020221
-1369 0.979779
1370 0.033825
-1370 0.966175
1371 0.5
-1371 0.5
1372 0.5
-1372 0.5
1373 0.5
-1373 0.5
1374 0.5
-1374 0.5
1375 0.5
-1375 0.5
1376 0.5
-1376 0.5
1377 0.5
-1377 0.5
1378 0.5
-1378 0.5
1379 0.5
-1379 0.5
1380 0.5
-1380 0.5
1381 0.5
-1381 0.5
1382 0.5
-1382 0.5
1383 0.5
-1383 0.5
1384 0.5
-1384 0.5
1385 0.5
-1385 0.5
1386 0.5
-1386 0.5
1387 0.5
-1387 0.5
1388 0.5
-1388 0.5
1389 0.5
-1389 0.5
1390 0.5
-1390 0.5
1391 0.5
-1391 0.5
1392 0.5
-1392 0.5
1393 0.265438
-1393 0.734562
1394 0.161897
-1394 0.838103
1395 0.286833
-1395 0.713167
1396 0.280541
-1396 0.719459
1397 0.157228
-1397 0.842772
1398 0.39899
-1398 0.60101
1399 0.996038
-1399 0.003962
1400 0.427331
-1400 0.572669
1401 0.012088
-1401 0.987912
1402 0.424231
-1402 0.575769
1403 0.990299
-1403 0.009701
1404 0.787447
-1404 0.212553
1405 0.084736
-1405 0.915264
1406 0.635791
-1406 0.364209
1407 0.644983
-1407 0.355017
1408 0.289642
-1408 0.710358
1409 0.047889
-1409 0.952111
1410 0.675
-1410 0.325
1411 0.508623
-1411 0.491377
1412 0.165754
-1412 0.834246
1413 0.5
-1413 0.5
1414 0.5
-1414 0.5
1415 0.5
-1415 0.5
1416 0.5
-1416 0.5
1417 0.5
-1417 0.5
1418 0.5
-1418 0.5
1419 0.5
-1419 0.5
1420 0.5
-1420 0.5
1421 0.5
-1421 0.5
1422 0.5
-1422 0.5
1423 0.5
-1423 0.5
1424 0.5
-1424 0.5
1425 0.5
-1425 0.5
1426 0.5
-1426 0.5
1427 0.5
-1427 0.5
1428 0.5
-1428 0.5
1429 0.429821
-1429 0.570179
1430 0.346066
-1430 0.653934
1431 0.550317
-1431 0.449683
1432 0.47771
-1432 0.52229
1433 0.5
-1433 0.5
1434 0.5
-1434 0.5
1435 0.5
-1435 0.5
1436 0.5
-1436 0.5
1437 0.397935
-1437 0.602065
1438 0.023941
-1438 0.976059
1439 0.088725
-1439 0.911275
1440 0.919462
-1440 0.080538
1441 0.5
-1441 0.5
1442 0.5
-1442 0.5
1443 0.5
-1443 0.5
1444 0.5
-1444 0.5
1445 0.5
-1445 0.5
1446 0.5
-1446 0.5
1447 0.5
-1447 0.5
1448 0.5
-1448 0.5
1449 0.5
-1449 0.5
1450 0.5
-1450 0.5
1451 0.5
-1451 0.5
1452 0.5
-1452 0.5
1453 0.5
-1453 0.5
1454 0.5
-1454 0.5
1455 0.5
-1455 0.5
1456 0.5
-1456 0.5
1457 0.5
-1457 0.5
1458 0.5
-1458 0.5
1459 0.5
-1459 0.5
1460 0.5
-1460 0.5
1461 0.5
-1461 0.5
1462 0.5
-1462 0.5
1463 0.5
-1463 0.5
1464 0.5
-1464 0.5
1465 0.5
-1465 0.5
1466 0.5
-1466 0.5
1467 0.5
-1467 0.5
1468 0.5
-1468 0.5
1469 0.5
-1469 0.5
1470 0.5
-1470 0.5
1471 0.5
-1471 0.5
1472 0.5
-1472 0.5
1473 0.5
-1473 0.5
1474 0.5
-1474 0.5
1475 0.673352
-1475 0.326648
1476 0.999359
-1476 0.000641
1477 0.541606
-1477 0.458394
1478 0.778507
-1478 0.221493
1479 0.5
-1479 0.5
1480 0.5
-1480 0.5
1481 0.5
-1481 0.5
1482 0.5
-1482 0.5
1483 0.5
-1483 0.5
1484 0.5
-1484 0.5
1485 0.5
-1485 0.5
1486 0.5
-1486 0.5
1487 0.5
-1487 0.5
1488 0.5
-1488 0.5
1489 0.5
-1489 0.5
1490 0.5
-1490 0.5
1491 0.333753
-1491 0.666247
1492 0.961982
-1492 0.038018
1493 0.39647
-1493 0.60353
1494 0.876714
-1494 0.123286
1495 0.944047
-1495 0.055953
1496 0.629577
-1496 0.370423
1497 0.775277
-1497 0.224723
1498 0.568668
-1498 0.431332
1499 0.628566
-1499 0.371434
1500 0.24202
-1500 0.75798
1501 0.938117
-1501 0.061883
1502 0.170173
-1502 0.829827
1503 0.5
-1503 0.5
1504 0.5
-1504 0.5
1505 0.5
-1505 0.5
1506 0.5
-1506 0.5
1507 0.5
-1507 0.5
1508 0.5
-1508 0.5
1509 0.5
-1509 0.5
1510 0.5
-1510 0.5
1511 0.116685
-1511 0.883315
1512 0.128795
-1512 0.871205
1513 0.469597
-1513 0.530403
1514 0.783054
-1514 0.216946
1515 0.414143
-1515 0.585857
1516 0.116807
-1516 0.883193
1517 0.882687
-1517 0.117313
1518 0.810613
-1518 0.189387
1519 0.708152
-1519 0.291848
1520 0.75466
-1520 0.24534
1521 0.623097
-1521 0.376903
1522 0.483428
-1522 0.516572
1523 0.5
-1523 0.5
1524 0.5
-1524 0.5
1525 0.5
-1525 0.5
1526 0.5
-1526 0.5
1527 0.5
-1527 0.5
1528 0.5
-1528 0.5
1529 0.5
-1529 0.5
1530 0.5
-1530 0.5
1531 0.197593
-1531 0.802407
1532 0.788397
-1532 0.211603
1533 0.5
-1533 0.5
1534 0.5
-1534 0.5
1535 0.5
-1535 0.5
1536 0.5
-1536 0.5
1537 0.5
-1537 0.5
1538 0.5
-1538 0.5
1539 0.5
-1539 0.5
1540 0.5
-1540 0.5
1541 0.5
-1541 0.5
1542 0.5
-1542 0.5
1543 0.5
-1543 0.5
1544 0.5
-1544 0.5
1545 0.5
-1545 0.5
1546 0.5
-1546 0.5
1547 0.5
-1547 0.5
1548 0.5
-1548 0.5
1549 0.5
-1549 0.5
1550 0.5
-1550 0.5
1551 0.5
-1551 0.5
1552 0.5
-1552 0.5
1553 0.5
-1553 0.5
1554 0.5
-1554 0.5
1555 0.5
-1555 0.5
1556 0.5
-1556 0.5
1557 0.5
-1557 0.5
1558 0.5
-1558 0.5
1559 0.5
-1559 0.5
1560 0.5
-1560 0.5
1561 0.97352
-1561 0.02648
1562 0.74558
-1562 0.25442
1563 0.529362
-1563 0.470638
1564 0.957637
-1564 0.042363
1565 0.5
-1565 0.5
1566 0.5
-1566 0.5
1567 0.5
-1567 0.5
1568 0.5
-1568 0.5
1569 0.5
-1569 0.5
1570 0.5
-1570 0.5
1571 0.5
-1571 0.5
1572 0.5
-1572 0.5
1573 0.5
-1573 0.5
1574 0.5
-1574 0.5
1575 0.5
-1575 0.5
1576 0.5
-1576 0.5
1577 0.5
-1577 0.5
1578 0.5
-1578 0.5
1579 0.5
-1579 0.5
1580 0.5
-1580 0.5
1581 0.5
-1581 0.5
1582 0.5
-1582 0.5
1583 0.5
-1583 0.5
1584 0.5
-1584 0.5
1585 0.5
-1585 0.5
1586 0.5
-1586 0.5
1587 0.5
-1587 0.5
1588 0.5
-1588 0.5
1589 0.5
-1589 0.5
1590 0.5
-1590 0.5
1591 0.5
-1591 0.5
1592 0.5
-1592 0.5
1593 0.5
-1593 0.5
1594 0.5
-1594 0.5
1595 0.5
-1595 0.5
1596 0.5
-1596 0.5
1597 0.5
-1597 0.5
1598 0.5
-1598 0.5
1599 0.5
-1599 0.5
1600 0.5
-1600 0.5
1601 0.457413
-1601 0.542587
1602 0.560123
-1602 0.439877
1603 0.301902
-1603 0.698098
1604 0.147269
-1604 0.852731
1605 0.446918
-1605 0.553082
1606 0.140295
-1606 0.859705
1607 0.552667
-1607 0.447333
1608 0.807933
-1608 0.192067
1609 0.5
-1609 0.5
1610 0.5
-1610 0.5
1611 0.5
-1611 0.5
1612 0.5
-1612 0.5
1613 0.5
-1613 0.5
1614 0.5
-1614 0.5
1615 0.5
-1615 0.5
1616 0.5
-1616 0.5
1617 0.5
-1617 0.5
1618 0.5
-1618 0.5
1619 0.5
-1619 0.5
1620 0.5
-1620 0.5
1621 0.5
-1621 0.5
1622 0.5
-1622 0.5
1623 0.5
-1623 0.5
1624 0.5
-1624 0.5
1625 0.5
-1625 0.5
1626 0.5
-1626 0.5
1627 0.615751
-1627 0.384249
1628 0.529082
-1628 0.470918
1629 0.027336
-1629 0.972664
1630 0.585574
-1630 0.414426
1631 0.167632
-1631 0.832368
1632 0.138241
-1632 0.861759
1633 0.783933
-1633 0.216067
1634 0.704498
-1634 0.295502
1635 0.5
-1635 0.5
1636 0.5
-1636 0.5
1637 0.5
-1637 0.5
1638 0.5
-1638 0.5
1639 0.5
-1639 0.5
1640 0.5
-1640 0.5
1641 0.5
-1641 0.5
1642 0.5
-1642 0.5
1643 0.082329
-1643 0.917671
1644 0.030989
-1644 0.969011
1645 0.11051
-1645 0.88949
1646 0.603236
-1646 0.396764
1647 0.5
-1647 0.5
1648 0.5
-1648 0.5
1649 0.5
-1649 0.5
1650 0.5
-1650 0.5
1651 0.212434
-1651 0.787566
1652 0.288601
-1652 0.711399
1653 0.933294
-1653 0.066706
1654 0.798008
-1654 0.201992
1655 0.5
-1655 0.5
1656 0.5
-1656 0.5
1657 0.5
-1657 0.5
1658 0.5
-1658 0.5
1659 0.5
-1659 0.5
1660 0.5
-1660 0.5
1661 0.5
-1661 0.5
1662 0.5
-1662 0.5
1663 0.5
-1663 0.5
1664 0.5
-1664 0.5
1665 0.5
-1665 0.5
1666 0.5
-1666 0.5
1667 0.5
-1667 0.5
1668 0.5
-1668 0.5
1669 0.5
-1669 0.5
1670 0.5
-1670 0.5
1671 0.5
-1671 0.5
1672 0.5
-1672 0.5
1673 0.5
-1673 0.5
1674 0.5
-1674 0.5
1675 0.5
-1675 0.5
1676 0.5
-1676 0.5
1677 0.5
-1677 0.5
1678 0.5
-1678 0.5
1679 0.5
-1679 0.5
1680 0.5
-1680 0.5
1681 0.5
-1681 0.5
1682 0.5
-1682 0.5
1683 0.5
-1683 0.5
1684 0.5
-1684 0.5
1685 0.5
-1685 0.5
1686 0.5
-1686 0.5
1687 0.5
-1687 0.5
1688 0.5
-1688 0.5
1689 0.5
-1689 0.5
1690 0.5
-1690 0.5
1691 0.5
-1691 0.5
1692 0.5
-1692 0.5
1693 0.208383
-1693 0.791617
1694 0.375766
-1694 0.624234
1695 0.725301
-1695 0.274699
1696 0.132721
-1696 0.867279
1697 0.5
-1697 0.5
1698 0.5
-1698 0.5
1699 0.5
-1699 0.5
1700 0.5
-1700 0.5
1701 0.177342
-1701 0.822658
1702 0.586459
-1702 0.413541
1703 0.026092
-1703 0.973908
1704 0.802974
-1704 0.197026
1705 0.5
-1705 0.5
1706 0.5
-1706 0.5
1707 0.5
-1707 0.5
1708 0.5
-1708 0.5
1709 0.5
-1709 0.5
1710 0.5
-1710 0.5
1711 0.5
-1711 0.5
1712 0.5
-1712 0.5
1713 0.5
-1713 0.5
1714 0.5
-1714 0.5
1715 0.5
-1715 0.5
1716 0.5
-1716 0.5
1717 0.506867
-1717 0.493133
1718 0.75258
-1718 0.24742
1719 0.277229
-1719 0.722771
1720 0.232168
-1720 0.767832
1721 0.338451
-1721 0.661549
1722 0.503563
-1722 0.496437
1723 0.701878
-1723 0.298122
1724 0.991085
-1724 0.008915
1725 0.5
-1725 0.5
1726 0.5
-1726 0.5
1727 0.5
-1727 0.5
1728 0.5
-1728 0.5
1729 0.199188
-1729 0.800812
1730 0.828687
-1730 0.171313
1731 0.205432
-1731 0.794568
1732 0.049052
-1732 0.950948
1733 0.5
-1733 0.5
1734 0.5
-1734 0.5
1735 0.5
-1735 0.5
1736 0.5
-1736 0.5
1737 0.5
-1737 0.5
1738 0.5
-1738 0.5
1739 0.5
-1739 0.5
1740 0.5
-1740 0.5
1741 0.500681
-1741 0.499319
1742 0.314284
-1742 0.685716
1743 0.50491
-1743 0.49509
1744 0.77791
-1744 0.22209
1745 0.5
-1745 0.5
1746 0.5
-1746 0.5
1747 0.5
-1747 0.5
1748 0.5
-1748 0.5
1749 0.5
-1749 0.5
1750 0.5
-1750 0.5
1751 0.5
-1751 0.5
1752 0.5
-1752 0.5
1753 0.5
-1753 0.5
1754 0.5
-1754 0.5
1755 0.5
-1755 0.5
1756 0.5
-1756 0.5
1757 0.268397
-1757 0.731603
1758 0.740106
-1758 0.259894
1759 0.840252
-1759 0.159748
1760 0.981388
-1760 0.018612
1761 0.5
-1761 0.5
1762 0.5
-1762 0.5
1763 0.5
-1763 0.5
1764 0.5
-1764 0.5
1765 0.18089
-1765 0.81911
1766 0.354108
-1766 0.645892
1767 0.5
-1767 0.5
1768 0.5
-1768 0.5
1769 0.5
-1769 0.5
1770 0.5
-1770 0.5
1771 0.5
-1771 0.5
1772 0.5
-1772 0.5
1773 0.5
-1773 0.5
1774 0.5
-1774 0.5
1775 0.6317
-1775 0.3683
1776 0.062944
-1776 0.937056
1777 0.851104
-1777 0.148896
1778 0.878975
-1778 0.121025
1779 0.779795
-1779 0.220205
1780 0.331683
-1780 0.668317
1781 0.917262
-1781 0.082738
1782 0.048192
-1782 0.951808
1783 0.5
-1783 0.5
1784 0.5
-1784 0.5
1785 0.5
-1785 0.5
1786 0.5
-1786 0.5
1787 0.5
-1787 0.5
1788 0.5
-1788 0.5
1789 0.5
-1789 0.5
1790 0.5
-1790 0.5
1791 0.5
-1791 0.5
1792 0.5
-1792 0.5
1793 0.5
-1793 0.5
1794 0.5
-1794 0.5
1795 0.5
-1795 0.5
1796 0.5
-1796 0.5
1797 0.5
-1797 0.5
1798 0.5
-1798 0.5
1799 0.5
-1799 0.5
1800 0.5
-1800 0.5
1801 0.5
-1801 0.5
1802 0.5
-1802 0.5
1803 0.5
-1803 0.5
1804 0.5
-1804 0.5
1805 0.5
-1805 0.5
1806 0.5
-1806 0.5
1807 0.696957
-1807 0.303043
1808 0.291346
-1808 0.708654
1809 0.161843
-1809 0.838157
1810 0.70868
-1810 0.29132
1811 0.5
-1811 0.5
1812 0.5
-1812 0.5
1813 0.5
-1813 0.5
1814 0.5
-1814 0.5
1815 0.463591
-1815 0.536409
1816 0.371744
-1816 0.628256
1817 0.144363
-1817 0.855637
1818 0.321756
-1818 0.678244
1819 0.5
-1819 0.5
1820 0.5
-1820 0.5
1821 0.5
-1821 0.5
1822 0.5
-1822 0.5
1823 0.449465
-1823 0.550535
1824 0.286679
-1824 0.713321
1825 0.006183
-1825 0.993817
1826 0.883243
-1826 0.116757
1827 0.028364
-1827 0.971636
1828 0.096816
-1828 0.903184
1829 0.550674
-1829 0.449326
1830 0.967807
-1830 0.032193
1831 0.5
-1831 0.5
1832 0.5
-1832 0.5
1833 0.5
-1833 0.5
1834 0.5
-1834 0.5
1835 0.5
-1835 0.5
1836 0.5
-1836 0.5
1837 0.5
-1837 0.5
1838 0.5
-1838 0.5
1839 0.5
-1839 0.5
1840 0.5
-1840 0.5
1841 0.5
-1841 0.5
1842 0.5
-1842 0.5
1843 0.5
-1843 0.5
1844 0.5
-1844 0.5
1845 0.5
-1845 0.5
1846 0.5
-1846 0.5
1847 0.5
-1847 0.5
1848 0.5
-1848 0.5
1849 0.5
-1849 0.5
1850 0.5
-1850 0.5
1851 0.5
-1851 0.5
1852 0.5
-1852 0.5
1853 0.918428
-1853 0.081572
1854 0.053288
-1854 0.946712
1855 0.310903
-1855 0.689097
1856 0.338731
-1856 0.661269
1857 0.5
-1857 0.5
1858 0.5
-1858 0.5
1859 0.5
-1859 0.5
1860 0.5
-1860 0.5
1861 0.5
-1861 0.5
1862 0.5
-1862 0.5
1863 0.5
-1863 0.5
1864 0.5
-1864 0.5
1865 0.5
-1865 0.5
1866 0.5
-1866 0.5
1867 0.5
-1867 0.5
1868 0.5
-1868 0.5
1869 0.5
-1869 0.5
1870 0.5
-1870 0.5
1871 0.5
-1871 0.5
1872 0.5
-1872 0.5
1873 0.5
-1873 0.5
1874 0.5
-1874 0.5
1875 0.5
-1875 0.5
1876 0.5
-1876 0.5
1877 0.5
-1877 0.5
1878 0.5
-1878 0.5
1879 0.5
-1879 0.5
1880 0.5
-1880 0.5
1881 0.384953
-1881 0.615047
1882 0.486099
-1882 0.513901
1883 0.78155
-1883 0.21845
1884 0.47645
-1884 0.52355
1885 0.5
-1885 0.5
1886 0.5
-1886 0.5
1887 0.5
-1887 0.5
1888 0.5
-1888 0.5
1889 0.5
-1889 0.5
1890 0.5
-1890 0.5
1891 0.5
-1891 0.5
1892 0.5
-1892 0.5
1893 0.5
-1893 0.5
1894 0.5
-1894 0.5
1895 0.5
-1895 0.5
1896 0.5
-1896 0.5
1897 0.107416
-1897 0.892584
1898 0.736447
-1898 0.263553
1899 0.07168
-1899 0.92832
1900 0.71093
-1900 0.28907
1901 0.5
-1901 0.5
1902 0.5
-1902 0.5
1903 0.5
-1903 0.5
1904 0.5
-1904 0.5
1905 0.5
-1905 0.5
1906 0.5
-1906 0.5
1907 0.5
-1907 0.5
1908 0.5
-1908 0.5
1909 0.042287
-1909 0.957713
1910 0.393584
-1910 0.606416
1911 0.59824
-1911 0.40176
1912 0.84416
-1912 0.15584
1913 0.5
-1913 0.5
1914 0.5
-1914 0.5
1915 0.5
-1915 0.5
1916 0.5
-1916 0.5
1917 0.896969
-1917 0.103031
1918 0.651265
-1918 0.348735
1919 0.273426
-1919 0.726574
1920 0.768624
-1920 0.231376
