1 0.497489
-1 0.502511
2 1.0
-2 1.0
3 1.0
-3 1.0
4 1.0
-4 1.0
5 1.0
-5 1.0
6 1.0
-6 1.0
7 1.0
-7 1.0
8 1.0
-8 1.0
9 1.0
-9 1.0
10 1.0
-10 1.0
11 1.0
-11 1.0
12 1.0
-12 1.0
13 1.0
-13 1.0
14 1.0
-14 1.0
15 1.0
-15 1.0
16 1.0
-16 1.0
17 1.0
-17 1.0
18 1.0
-18 1.0
19 1.0
-19 1.0
20 1.0
-20 1.0
21 1.0
-21 1.0
22 1.0
-22 1.0
23 1.0
-23 1.0
24 1.0
-24 1.0
25 1.0
-25 1.0
26 1.0
-26 1.0
27 1.0
-27 1.0
28 1.0
-28 1.0
29 1.0
-29 1.0
30 1.0
-30 1.0
31 1.0
-31 1.0
32 1.0
-32 1.0
33 1.0
-33 1.0
34 1.0
-34 1.0
35 1.0
-35 1.0
36 1.0
-36 1.0
37 1.0
-37 1.0
38 1.0
-38 1.0
39 1.0
-39 1.0
40 1.0
-40 1.0
41 1.0
-41 1.0
42 1.0
-42 1.0
43 1.0
-43 1.0
44 1.0
-44 1.0
45 1.0
-45 1.0
46 1.0
-46 1.0
47 1.0
-47 1.0
48 1.0
-48 1.0
49 1.0
-49 1.0
50 1.0
-50 1.0
51 1.0
-51 1.0
52 1.0
-52 1.0
53 1.0
-53 1.0
54 1.0
-54 1.0
55 1.0
-55 1.0
56 1.0
-56 1.0
57 1.0
-57 1.0
58 1.0
-58 1.0
59 1.0
-59 1.0
60 1.0
-60 1.0
61 1.0
-61 1.0
62 1.0
-62 1.0
63 1.0
-63 1.0
64 1.0
-64 1.0
65 1.0
-65 1.0
66 1.0
-66 1.0
67 1.0
-67 1.0
68 1.0
-68 1.0
69 1.0
-69 1.0
70 1.0
-70 1.0
71 1.0
-71 1.0
72 1.0
-72 1.0
73 1.0
-73 1.0
74 1.0
-74 1.0
75 1.0
-75 1.0
76 1.0
-76 1.0
77 1.0
-77 1.0
78 1.0
-78 1.0
79 1.0
-79 1.0
80 1.0
-80 1.0
81 1.0
-81 1.0
82 1.0
-82 1.0
83 1.0
-83 1.0
84 1.0
-84 1.0
85 1.0
-85 1.0
86 1.0
-86 1.0
87 1.0
-87 1.0
88 1.0
-88 1.0
89 1.0
-89 1.0
90 1.0
-90 1.0
91 1.0
-91 1.0
92 1.0
-92 1.0
93 1.0
-93 1.0
94 1.0
-94 1.0
95 1.0
-95 1.0
96 1.0
-96 1.0
97 1.0
-97 1.0
98 1.0
-98 1.0
99 1.0
-99 1.0
100 1.0
-100 1.0
101 1.0
-101 1.0
102 1.0
-102 1.0
103 1.0
-103 1.0
104 1.0
-104 1.0
105 1.0
-105 1.0
106 1.0
-106 1.0
107 1.0
-107 1.0
108 1.0
-108 1.0
109 1.0
-109 1.0
110 1.0
-110 1.0
111 1.0
-111 1.0
112 1.0
-112 1.0
113 1.0
-113 1.0
114 1.0
-114 1.0
115 1.0
-115 1.0
116 1.0
-116 1.0
117 1.0
-117 1.0
118 1.0
-118 1.0
119 1.0
-119 1.0
120 1.0
-120 1.0
121 1.0
-121 1.0
122 1.0
-122 1.0
123 1.0
-123 1.0
124 1.0
-124 1.0
125 1.0
-125 1.0
126 1.0
-126 1.0
127 1.0
-127 1.0
128 1.0
-128 1.0
129 1.0
-129 1.0
130 1.0
-130 1.0
131 1.0
-131 1.0
132 1.0
-132 1.0
133 1.0
-133 1.0
134 1.0
-134 1.0
135 1.0
-135 1.0
136 1.0
-136 1.0
137 1.0
-137 1.0
138 1.0
-138 1.0
139 1.0
-139 1.0
140 1.0
-140 1.0
141 1.0
-141 1.0
142 1.0
-142 1.0
143 1.0
-143 1.0
144 1.0
-144 1.0
145 1.0
-145 1.0
146 1.0
-146 1.0
147 1.0
-147 1.0
148 1.0
-148 1.0
149 1.0
-149 1.0
150 1.0
-150 1.0
151 1.0
-151 1.0
152 1.0
-152 1.0
153 1.0
-153 1.0
154 1.0
-154 1.0
155 1.0
-155 1.0
156 1.0
-156 1.0
157 1.0
-157 1.0
158 1.0
-158 1.0
159 1.0
-159 1.0
160 1.0
-160 1.0
161 1.0
-161 1.0
162 1.0
-162 1.0
163 1.0
-163 1.0
164 1.0
-164 1.0
165 1.0
-165 1.0
166 1.0
-166 1.0
167 1.0
-167 1.0
168 1.0
-168 1.0
169 1.0
-169 1.0
170 1.0
-170 1.0
171 1.0
-171 1.0
172 1.0
-172 1.0
173 1.0
-173 1.0
174 1.0
-174 1.0
175 1.0
-175 1.0
176 1.0
-176 1.0
177 1.0
-177 1.0
178 1.0
-178 1.0
179 1.0
-179 1.0
180 1.0
-180 1.0
181 1.0
-181 1.0
182 1.0
-182 1.0
183 1.0
-183 1.0
184 1.0
-184 1.0
185 1.0
-185 1.0
186 1.0
-186 1.0
187 1.0
-187 1.0
188 1.0
-188 1.0
189 1.0
-189 1.0
190 1.0
-190 1.0
191 1.0
-191 1.0
192 1.0
-192 1.0
193 1.0
-193 1.0
194 1.0
-194 1.0
195 1.0
-195 1.0
196 1.0
-196 1.0
197 1.0
-197 1.0
198 1.0
-198 1.0
199 1.0
-199 1.0
200 1.0
-200 1.0
201 1.0
-201 1.0
202 1.0
-202 1.0
203 1.0
-203 1.0
204 1.0
-204 1.0
205 1.0
-205 1.0
206 1.0
-206 1.0
207 1.0
-207 1.0
208 1.0
-208 1.0
209 1.0
-209 1.0
210 1.0
-210 1.0
211 1.0
-211 1.0
212 1.0
-212 1.0
213 1.0
-213 1.0
214 1.0
-214 1.0
215 1.0
-215 1.0
216 1.0
-216 1.0
217 1.0
-217 1.0
218 1.0
-218 1.0
219 1.0
-219 1.0
220 1.0
-220 1.0
221 1.0
-221 1.0
222 1.0
-222 1.0
223 1.0
-223 1.0
224 1.0
-224 1.0
225 1.0
-225 1.0
226 1.0
-226 1.0
227 1.0
-227 1.0
228 1.0
-228 1.0
229 1.0
-229 1.0
230 1.0
-230 1.0
231 1.0
-231 1.0
232 1.0
-232 1.0
233 1.0
-233 1.0
234 1.0
-234 1.0
235 1.0
-235 1.0
236 1.0
-236 1.0
237 1.0
-237 1.0
238 1.0
-238 1.0
239 1.0
-239 1.0
240 1.0
-240 1.0
241 1.0
-241 1.0
242 1.0
-242 1.0
243 1.0
-243 1.0
244 1.0
-244 1.0
245 1.0
-245 1.0
246 1.0
-246 1.0
247 1.0
-247 1.0
248 1.0
-248 1.0
249 1.0
-249 1.0
250 1.0
-250 1.0
251 1.0
-251 1.0
252 1.0
-252 1.0
253 1.0
-253 1.0
254 1.0
-254 1.0
255 1.0
-255 1.0
256 1.0
-256 1.0
257 1.0
-257 1.0
258 1.0
-258 1.0
259 1.0
-259 1.0
260 1.0
-260 1.0
261 1.0
-261 1.0
262 1.0
-262 1.0
263 1.0
-263 1.0
264 1.0
-264 1.0
265 1.0
-265 1.0
266 1.0
-266 1.0
267 1.0
-267 1.0
268 1.0
-268 1.0
269 1.0
-269 1.0
270 1.0
-270 1.0
271 1.0
-271 1.0
272 1.0
-272 1.0
273 1.0
-273 1.0
274 1.0
-274 1.0
275 1.0
-275 1.0
276 1.0
-276 1.0
277 1.0
-277 1.0
278 1.0
-278 1.0
279 1.0
-279 1.0
280 1.0
-280 1.0
281 1.0
-281 1.0
282 1.0
-282 1.0
283 1.0
-283 1.0
284 1.0
-284 1.0
285 1.0
-285 1.0
286 1.0
-286 1.0
287 1.0
-287 1.0
288 1.0
-288 1.0
289 1.0
-289 1.0
290 1.0
-290 1.0
291 1.0
-291 1.0
292 1.0
-292 1.0
293 1.0
-293 1.0
294 1.0
-294 1.0
295 1.0
-295 1.0
296 1.0
-296 1.0
297 1.0
-297 1.0
298 1.0
-298 1.0
299 1.0
-299 1.0
300 1.0
-300 1.0
301 1.0
-301 1.0
302 1.0
-302 1.0
303 1.0
-303 1.0
304 1.0
-304 1.0
305 1.0
-305 1.0
306 1.0
-306 1.0
307 1.0
-307 1.0
308 1.0
-308 1.0
309 1.0
-309 1.0
310 1.0
-310 1.0
311 1.0
-311 1.0
312 1.0
-312 1.0
313 1.0
-313 1.0
314 1.0
-314 1.0
315 1.0
-315 1.0
316 1.0
-316 1.0
317 1.0
-317 1.0
318 1.0
-318 1.0
319 1.0
-319 1.0
320 1.0
-320 1.0
321 1.0
-321 1.0
322 1.0
-322 1.0
323 1.0
-323 1.0
324 1.0
-324 1.0
325 1.0
-325 1.0
326 1.0
-326 1.0
327 1.0
-327 1.0
328 1.0
-328 1.0
329 1.0
-329 1.0
330 1.0
-330 1.0
331 1.0
-331 1.0
332 1.0
-332 1.0
333 1.0
-333 1.0
334 1.0
-334 1.0
335 1.0
-335 1.0
336 1.0
-336 1.0
337 1.0
-337 1.0
338 1.0
-338 1.0
339 1.0
-339 1.0
340 1.0
-340 1.0
341 1.0
-341 1.0
342 1.0
-342 1.0
343 1.0
-343 1.0
344 1.0
-344 1.0
345 1.0
-345 1.0
346 1.0
-346 1.0
347 1.0
-347 1.0
348 1.0
-348 1.0
349 1.0
-349 1.0
350 1.0
-350 1.0
351 1.0
-351 1.0
352 1.0
-352 1.0
353 1.0
-353 1.0
354 1.0
-354 1.0
355 1.0
-355 1.0
356 1.0
-356 1.0
357 1.0
-357 1.0
358 1.0
-358 1.0
359 1.0
-359 1.0
360 1.0
-360 1.0
361 1.0
-361 1.0
362 1.0
-362 1.0
363 1.0
-363 1.0
364 1.0
-364 1.0
365 1.0
-365 1.0
366 1.0
-366 1.0
367 1.0
-367 1.0
368 1.0
-368 1.0
369 1.0
-369 1.0
370 1.0
-370 1.0
371 1.0
-371 1.0
372 1.0
-372 1.0
373 1.0
-373 1.0
374 1.0
-374 1.0
375 1.0
-375 1.0
376 1.0
-376 1.0
377 1.0
-377 1.0
378 1.0
-378 1.0
379 1.0
-379 1.0
380 1.0
-380 1.0
381 1.0
-381 1.0
382 1.0
-382 1.0
383 1.0
-383 1.0
384 1.0
-384 1.0
385 1.0
-385 1.0
386 1.0
-386 1.0
387 1.0
-387 1.0
388 1.0
-388 1.0
389 1.0
-389 1.0
390 1.0
-390 1.0
391 1.0
-391 1.0
392 1.0
-392 1.0
393 1.0
-393 1.0
394 1.0
-394 1.0
395 1.0
-395 1.0
396 1.0
-396 1.0
397 1.0
-397 1.0
398 1.0
-398 1.0
399 1.0
-399 1.0
400 1.0
-400 1.0
401 1.0
-401 1.0
402 1.0
-402 1.0
403 1.0
-403 1.0
404 1.0
-404 1.0
405 1.0
-405 1.0
406 1.0
-406 1.0
407 1.0
-407 1.0
408 1.0
-408 1.0
409 1.0
-409 1.0
410 1.0
-410 1.0
411 1.0
-411 1.0
412 1.0
-412 1.0
413 1.0
-413 1.0
414 1.0
-414 1.0
415 1.0
-415 1.0
416 1.0
-416 1.0
417 1.0
-417 1.0
418 1.0
-418 1.0
419 1.0
-419 1.0
420 1.0
-420 1.0
421 1.0
-421 1.0
422 1.0
-422 1.0
423 1.0
-423 1.0
424 1.0
-424 1.0
425 1.0
-425 1.0
426 1.0
-426 1.0
427 1.0
-427 1.0
428 1.0
-428 1.0
429 1.0
-429 1.0
430 1.0
-430 1.0
431 1.0
-431 1.0
432 1.0
-432 1.0
433 1.0
-433 1.0
434 1.0
-434 1.0
435 1.0
-435 1.0
436 1.0
-436 1.0
437 1.0
-437 1.0
438 1.0
-438 1.0
439 1.0
-439 1.0
440 1.0
-440 1.0
441 1.0
-441 1.0
442 1.0
-442 1.0
443 1.0
-443 1.0
444 1.0
-444 1.0
445 1.0
-445 1.0
446 1.0
-446 1.0
447 1.0
-447 1.0
448 1.0
-448 1.0
449 1.0
-449 1.0
450 1.0
-450 1.0
451 1.0
-451 1.0
452 1.0
-452 1.0
453 1.0
-453 1.0
454 1.0
-454 1.0
455 1.0
-455 1.0
456 1.0
-456 1.0
457 1.0
-457 1.0
458 1.0
-458 1.0
459 1.0
-459 1.0
460 1.0
-460 1.0
461 1.0
-461 1.0
462 1.0
-462 1.0
463 1.0
-463 1.0
464 1.0
-464 1.0
465 1.0
-465 1.0
466 1.0
-466 1.0
467 1.0
-467 1.0
468 1.0
-468 1.0
469 1.0
-469 1.0
470 1.0
-470 1.0
471 1.0
-471 1.0
472 1.0
-472 1.0
473 1.0
-473 1.0
474 1.0
-474 1.0
475 1.0
-475 1.0
476 1.0
-476 1.0
477 1.0
-477 1.0
478 1.0
-478 1.0
479 1.0
-479 1.0
480 1.0
-480 1.0
481 1.0
-481 1.0
482 1.0
-482 1.0
483 1.0
-483 1.0
484 1.0
-484 1.0
485 1.0
-485 1.0
486 1.0
-486 1.0
487 1.0
-487 1.0
488 1.0
-488 1.0
489 1.0
-489 1.0
490 1.0
-490 1.0
491 1.0
-491 1.0
492 1.0
-492 1.0
493 1.0
-493 1.0
494 1.0
-494 1.0
495 1.0
-495 1.0
496 1.0
-496 1.0
497 1.0
-497 1.0
498 1.0
-498 1.0
499 1.0
-499 1.0
500 1.0
-500 1.0
501 1.0
-501 1.0
502 1.0
-502 1.0
503 1.0
-503 1.0
504 1.0
-504 1.0
505 1.0
-505 1.0
506 1.0
-506 1.0
507 1.0
-507 1.0
508 1.0
-508 1.0
509 1.0
-509 1.0
510 1.0
-510 1.0
511 1.0
-511 1.0
512 1.0
-512 1.0
513 1.0
-513 1.0
514 1.0
-514 1.0
515 1.0
-515 1.0
516 1.0
-516 1.0
517 1.0
-517 1.0
518 1.0
-518 1.0
519 1.0
-519 1.0
520 1.0
-520 1.0
521 1.0
-521 1.0
522 1.0
-522 1.0
523 1.0
-523 1.0
524 1.0
-524 1.0
525 1.0
-525 1.0
526 1.0
-526 1.0
527 1.0
-527 1.0
528 1.0
-528 1.0
529 1.0
-529 1.0
530 1.0
-530 1.0
531 1.0
-531 1.0
532 1.0
-532 1.0
533 1.0
-533 1.0
534 1.0
-534 1.0
535 1.0
-535 1.0
536 1.0
-536 1.0
537 1.0
-537 1.0
538 1.0
-538 1.0
539 1.0
-539 1.0
540 1.0
-540 1.0
541 1.0
-541 1.0
542 1.0
-542 1.0
543 1.0
-543 1.0
544 1.0
-544 1.0
545 1.0
-545 1.0
546 1.0
-546 1.0
547 1.0
-547 1.0
548 1.0
-548 1.0
549 1.0
-549 1.0
550 1.0
-550 1.0
551 1.0
-551 1.0
552 1.0
-552 1.0
553 1.0
-553 1.0
554 1.0
-554 1.0
555 1.0
-555 1.0
556 1.0
-556 1.0
557 1.0
-557 1.0
558 1.0
-558 1.0
559 1.0
-559 1.0
560 1.0
-560 1.0
561 1.0
-561 1.0
562 1.0
-562 1.0
563 1.0
-563 1.0
564 1.0
-564 1.0
565 1.0
-565 1.0
566 1.0
-566 1.0
567 1.0
-567 1.0
568 1.0
-568 1.0
569 1.0
-569 1.0
570 1.0
-570 1.0
571 1.0
-571 1.0
572 1.0
-572 1.0
573 1.0
-573 1.0
574 1.0
-574 1.0
575 1.0
-575 1.0
576 1.0
-576 1.0
577 1.0
-577 1.0
578 1.0
-578 1.0
579 1.0
-579 1.0
580 1.0
-580 1.0
581 1.0
-581 1.0
582 1.0
-582 1.0
583 1.0
-583 1.0
584 1.0
-584 1.0
585 1.0
-585 1.0
586 1.0
-586 1.0
587 1.0
-587 1.0
588 1.0
-588 1.0
589 1.0
-589 1.0
590 1.0
-590 1.0
591 1.0
-591 1.0
592 1.0
-592 1.0
593 1.0
-593 1.0
594 1.0
-594 1.0
595 1.0
-595 1.0
596 1.0
-596 1.0
597 1.0
-597 1.0
598 1.0
-598 1.0
599 1.0
-599 1.0
600 1.0
-600 1.0
601 1.0
-601 1.0
602 1.0
-602 1.0
603 1.0
-603 1.0
604 1.0
-604 1.0
605 1.0
-605 1.0
606 1.0
-606 1.0
607 1.0
-607 1.0
608 1.0
-608 1.0
609 1.0
-609 1.0
610 1.0
-610 1.0
611 1.0
-611 1.0
612 1.0
-612 1.0
613 1.0
-613 1.0
614 1.0
-614 1.0
615 1.0
-615 1.0
616 1.0
-616 1.0
617 1.0
-617 1.0
618 1.0
-618 1.0
619 1.0
-619 1.0
620 1.0
-620 1.0
621 1.0
-621 1.0
622 1.0
-622 1.0
623 1.0
-623 1.0
624 1.0
-624 1.0
625 1.0
-625 1.0
626 1.0
-626 1.0
627 1.0
-627 1.0
628 1.0
-628 1.0
629 1.0
-629 1.0
630 1.0
-630 1.0
631 1.0
-631 1.0
632 1.0
-632 1.0
633 1.0
-633 1.0
634 1.0
-634 1.0
635 1.0
-635 1.0
636 1.0
-636 1.0
637 1.0
-637 1.0
638 1.0
-638 1.0
639 1.0
-639 1.0
640 1.0
-640 1.0
641 1.0
-641 1.0
642 1.0
-642 1.0
643 1.0
-643 1.0
644 1.0
-644 1.0
645 1.0
-645 1.0
646 1.0
-646 1.0
647 1.0
-647 1.0
648 1.0
-648 1.0
649 1.0
-649 1.0
650 1.0
-650 1.0
651 1.0
-651 1.0
652 1.0
-652 1.0
653 1.0
-653 1.0
654 1.0
-654 1.0
655 1.0
-655 1.0
656 1.0
-656 1.0
657 1.0
-657 1.0
658 1.0
-658 1.0
659 1.0
-659 1.0
660 1.0
-660 1.0
661 1.0
-661 1.0
662 1.0
-662 1.0
663 1.0
-663 1.0
664 1.0
-664 1.0
665 1.0
-665 1.0
666 1.0
-666 1.0
667 1.0
-667 1.0
668 1.0
-668 1.0
669 1.0
-669 1.0
670 1.0
-670 1.0
671 1.0
-671 1.0
672 1.0
-672 1.0
673 1.0
-673 1.0
674 1.0
-674 1.0
675 1.0
-675 1.0
676 1.0
-676 1.0
677 0.211857
-677 0.788143
678 0.355003
-678 0.644997
679 0.5
-679 0.5
680 0.5
-680 0.5
681 0.5
-681 0.5
682 0.5
-682 0.5
683 0.5
-683 0.5
684 0.5
-684 0.5
685 0.316091
-685 0.683909
686 0.332252
-686 0.667748
687 0.329046
-687 0.670954
688 0.429116
-688 0.570884
689 0.5
-689 0.5
690 0.5
-690 0.5
691 0.5
-691 0.5
692 0.5
-692 0.5
693 0.941849
-693 0.058151
694 0.732033
-694 0.267967
695 0.442301
-695 0.557699
696 0.840909
-696 0.159091
697 0.5
-697 0.5
698 0.5
-698 0.5
699 0.5
-699 0.5
700 0.5
-700 0.5
701 0.5
-701 0.5
702 0.5
-702 0.5
703 0.5
-703 0.5
704 0.5
-704 0.5
705 0.5
-705 0.5
706 0.5
-706 0.5
707 0.5
-707 0.5
708 0.5
-708 0.5
709 0.5
-709 0.5
710 0.5
-710 0.5
711 0.5
-711 0.5
712 0.5
-712 0.5
713 0.414667
-713 0.585333
714 0.313557
-714 0.686443
715 0.5
-715 0.5
716 0.5
-716 0.5
717 0.5
-717 0.5
718 0.5
-718 0.5
719 0.5
-719 0.5
720 0.5
-720 0.5
721 0.5
-721 0.5
722 0.5
-722 0.5
723 0.5
-723 0.5
724 0.5
-724 0.5
725 0.5
-725 0.5
726 0.5
-726 0.5
727 0.5
-727 0.5
728 0.5
-728 0.5
729 0.5
-729 0.5
730 0.5
-730 0.5
731 0.5
-731 0.5
732 0.5
-732 0.5
733 0.210388
-733 0.789612
734 0.517435
-734 0.482565
735 0.272389
-735 0.727611
736 0.256138
-736 0.743862
737 0.5
-737 0.5
738 0.5
-738 0.5
739 0.5
-739 0.5
740 0.5
-740 0.5
741 0.751322
-741 0.248678
742 0.870755
-742 0.129245
743 0.597004
-743 0.402996
744 0.241134
-744 0.758866
745 0.5
-745 0.5
746 0.5
-746 0.5
747 0.5
-747 0.5
748 0.5
-748 0.5
749 0.5
-749 0.5
750 0.5
-750 0.5
751 0.5
-751 0.5
752 0.5
-752 0.5
753 0.822645
-753 0.177355
754 0.27339
-754 0.72661
755 0.258811
-755 0.741189
756 0.594516
-756 0.405484
757 0.5
-757 0.5
758 0.5
-758 0.5
759 0.5
-759 0.5
760 0.5
-760 0.5
761 0.5
-761 0.5
762 0.5
-762 0.5
763 0.5
-763 0.5
764 0.5
-764 0.5
765 0.152816
-765 0.847184
766 0.812332
-766 0.187668
767 0.80657
-767 0.19343
768 0.74982
-768 0.25018
769 0.5
-769 0.5
770 0.5
-770 0.5
771 0.5
-771 0.5
772 0.5
-772 0.5
773 0.5
-773 0.5
774 0.5
-774 0.5
775 0.5
-775 0.5
776 0.5
-776 0.5
777 0.5
-777 0.5
778 0.5
-778 0.5
779 0.5
-779 0.5
780 0.5
-780 0.5
781 0.5
-781 0.5
782 0.5
-782 0.5
783 0.5
-783 0.5
784 0.5
-784 0.5
785 0.5
-785 0.5
786 0.5
-786 0.5
787 0.5
-787 0.5
788 0.5
-788 0.5
789 0.5
-789 0.5
790 0.5
-790 0.5
791 0.5
-791 0.5
792 0.5
-792 0.5
793 0.5
-793 0.5
794 0.5
-794 0.5
795 0.5
-795 0.5
796 0.5
-796 0.5
797 0.5
-797 0.5
798 0.5
-798 0.5
799 0.5
-799 0.5
800 0.5
-800 0.5
801 0.5
-801 0.5
802 0.5
-802 0.5
803 0.5
-803 0.5
804 0.5
-804 0.5
805 0.284456
-805 0.715544
806 0.084176
-806 0.915824
807 0.588686
-807 0.411314
808 0.49675
-808 0.50325
809 0.652721
-809 0.347279
810 0.770086
-810 0.229914
811 0.39537
-811 0.60463
812 0.972664
-812 0.027336
813 0.5
-813 0.5
814 0.5
-814 0.5
815 0.5
-815 0.5
816 0.5
-816 0.5
817 0.5
-817 0.5
818 0.5
-818 0.5
819 0.5
-819 0.5
820 0.5
-820 0.5
821 0.927829
-821 0.072171
822 0.916242
-822 0.083758
823 0.950167
-823 0.049833
824 0.346314
-824 0.653686
825 0.5
-825 0.5
826 0.5
-826 0.5
827 0.5
-827 0.5
828 0.5
-828 0.5
829 0.5
-829 0.5
830 0.5
-830 0.5
831 0.5
-831 0.5
832 0.5
-832 0.5
833 0.5
-833 0.5
834 0.5
-834 0.5
835 0.5
-835 0.5
836 0.5
-836 0.5
837 0.5
-837 0.5
838 0.5
-838 0.5
839 0.5
-839 0.5
840 0.5
-840 0.5
841 0.5
-841 0.5
842 0.5
-842 0.5
843 0.204999
-843 0.795001
844 0.833847
-844 0.166153
845 0.697327
-845 0.302673
846 0.132828
-846 0.867172
847 0.647494
-847 0.352506
848 0.479142
-848 0.520858
849 0.965979
-849 0.034021
850 0.661853
-850 0.338147
851 0.5
-851 0.5
852 0.5
-852 0.5
853 0.5
-853 0.5
854 0.5
-854 0.5
855 0.5
-855 0.5
856 0.5
-856 0.5
857 0.5
-857 0.5
858 0.5
-858 0.5
859 0.5
-859 0.5
860 0.5
-860 0.5
861 0.5
-861 0.5
862 0.5
-862 0.5
863 0.570153
-863 0.429847
864 0.884743
-864 0.115257
865 0.116688
-865 0.883312
866 0.983392
-866 0.016608
867 0.93781
-867 0.06219
868 0.188391
-868 0.811609
869 0.717421
-869 0.282579
870 0.635137
-870 0.364863
871 0.5
-871 0.5
872 0.5
-872 0.5
873 0.5
-873 0.5
874 0.5
-874 0.5
875 0.081235
-875 0.918765
876 0.117005
-876 0.882995
877 0.497763
-877 0.502237
878 0.929585
-878 0.070415
879 0.5
-879 0.5
880 0.5
-880 0.5
881 0.5
-881 0.5
882 0.5
-882 0.5
883 0.5
-883 0.5
884 0.5
-884 0.5
885 0.5
-885 0.5
886 0.5
-886 0.5
887 0.5
-887 0.5
888 0.5
-888 0.5
889 0.5
-889 0.5
890 0.5
-890 0.5
891 0.572626
-891 0.427374
892 0.855907
-892 0.144093
893 0.689201
-893 0.310799
894 0.207763
-894 0.792237
895 0.5
-895 0.5
896 0.5
-896 0.5
897 0.5
-897 0.5
898 0.5
-898 0.5
899 0.5
-899 0.5
900 0.5
-900 0.5
901 0.5
-901 0.5
902 0.5
-902 0.5
903 0.5
-903 0.5
904 0.5
-904 0.5
905 0.5
-905 0.5
906 0.5
-906 0.5
907 0.966741
-907 0.033259
908 0.261494
-908 0.738506
909 0.491663
-909 0.508337
910 0.080712
-910 0.919288
911 0.5
-911 0.5
912 0.5
-912 0.5
913 0.5
-913 0.5
914 0.5
-914 0.5
915 0.5
-915 0.5
916 0.5
-916 0.5
917 0.5
-917 0.5
918 0.5
-918 0.5
919 0.5
-919 0.5
920 0.5
-920 0.5
921 0.5
-921 0.5
922 0.5
-922 0.5
923 0.350268
-923 0.649732
924 0.501591
-924 0.498409
925 0.66826
-925 0.33174
926 0.282909
-926 0.717091
927 0.5
-927 0.5
928 0.5
-928 0.5
929 0.5
-929 0.5
930 0.5
-930 0.5
931 0.5
-931 0.5
932 0.5
-932 0.5
933 0.5
-933 0.5
934 0.5
-934 0.5
935 0.5
-935 0.5
936 0.5
-936 0.5
937 0.5
-937 0.5
938 0.5
-938 0.5
939 0.5
-939 0.5
940 0.5
-940 0.5
941 0.5
-941 0.5
942 0.5
-942 0.5
943 0.5
-943 0.5
944 0.5
-944 0.5
945 0.5
-945 0.5
946 0.5
-946 0.5
947 0.5
-947 0.5
948 0.5
-948 0.5
949 0.099163
-949 0.900837
950 0.24961
-950 0.75039
951 0.171936
-951 0.828064
952 0.58906
-952 0.41094
953 0.5
-953 0.5
954 0.5
-954 0.5
955 0.5
-955 0.5
956 0.5
-956 0.5
957 0.5
-957 0.5
958 0.5
-958 0.5
959 0.5
-959 0.5
960 0.5
-960 0.5
961 0.5
-961 0.5
962 0.5
-962 0.5
963 0.5
-963 0.5
964 0.5
-964 0.5
965 0.84025
-965 0.15975
966 0.174717
-966 0.825283
967 0.648119
-967 0.351881
968 0.089692
-968 0.910308
969 0.802821
-969 0.197179
970 0.709988
-970 0.290012
971 0.336843
-971 0.663157
972 0.400393
-972 0.599607
973 0.5
-973 0.5
974 0.5
-974 0.5
975 0.5
-975 0.5
976 0.5
-976 0.5
977 0.5
-977 0.5
978 0.5
-978 0.5
979 0.5
-979 0.5
980 0.5
-980 0.5
981 0.917398
-981 0.082602
982 0.293719
-982 0.706281
983 0.194761
-983 0.805239
984 0.57607
-984 0.42393
985 0.489353
-985 0.510647
986 0.571275
-986 0.428725
987 0.4405
-987 0.5595
988 0.294304
-988 0.705696
989 0.5
-989 0.5
990 0.5
-990 0.5
991 0.5
-991 0.5
992 0.5
-992 0.5
993 0.5
-993 0.5
994 0.5
-994 0.5
995 0.5
-995 0.5
996 0.5
-996 0.5
997 0.5
-997 0.5
998 0.5
-998 0.5
999 0.5
-999 0.5
1000 0.5
-1000 0.5
1001 0.413063
-1001 0.586937
1002 0.49315
-1002 0.50685
1003 0.424275
-1003 0.575725
1004 0.321615
-1004 0.678385
1005 0.5
-1005 0.5
1006 0.5
-1006 0.5
1007 0.5
-1007 0.5
1008 0.5
-1008 0.5
1009 0.5
-1009 0.5
1010 0.5
-1010 0.5
1011 0.5
-1011 0.5
1012 0.5
-1012 0.5
1013 0.5
-1013 0.5
1014 0.5
-1014 0.5
1015 0.5
-1015 0.5
1016 0.5
-1016 0.5
1017 0.5
-1017 0.5
1018 0.5
-1018 0.5
1019 0.5
-1019 0.5
1020 0.5
-1020 0.5
1021 0.219791
-1021 0.780209
1022 0.236381
-1022 0.763619
1023 0.614063
-1023 0.385937
1024 0.700729
-1024 0.299271
1025 0.5
-1025 0.5
1026 0.5
-1026 0.5
1027 0.5
-1027 0.5
1028 0.5
-1028 0.5
1029 0.5
-1029 0.5
1030 0.5
-1030 0.5
1031 0.5
-1031 0.5
1032 0.5
-1032 0.5
1033 0.5
-1033 0.5
1034 0.5
-1034 0.5
1035 0.5
-1035 0.5
1036 0.5
-1036 0.5
1037 0.5
-1037 0.5
1038 0.5
-1038 0.5
1039 0.043505
-1039 0.956495
1040 0.123962
-1040 0.876038
1041 0.604469
-1041 0.395531
1042 0.322899
-1042 0.677101
1043 0.5
-1043 0.5
1044 0.5
-1044 0.5
1045 0.5
-1045 0.5
1046 0.5
-1046 0.5
1047 0.5
-1047 0.5
1048 0.5
-1048 0.5
1049 0.5
-1049 0.5
1050 0.5
-1050 0.5
1051 0.5
-1051 0.5
1052 0.5
-1052 0.5
1053 0.5
-1053 0.5
1054 0.5
-1054 0.5
1055 0.5
-1055 0.5
1056 0.5
-1056 0.5
1057 0.5
-1057 0.5
1058 0.5
-1058 0.5
1059 0.5
-1059 0.5
1060 0.5
-1060 0.5
1061 0.5
-1061 0.5
1062 0.5
-1062 0.5
1063 0.5
-1063 0.5
1064 0.5
-1064 0.5
1065 0.5
-1065 0.5
1066 0.5
-1066 0.5
1067 0.5
-1067 0.5
1068 0.5
-1068 0.5
1069 0.5
-1069 0.5
1070 0.5
-1070 0.5
1071 0.5
-1071 0.5
1072 0.5
-1072 0.5
1073 0.5
-1073 0.5
1074 0.5
-1074 0.5
1075 0.5
-1075 0.5
1076 0.5
-1076 0.5
1077 0.5
-1077 0.5
1078 0.5
-1078 0.5
1079 0.5
-1079 0.5
1080 0.5
-1080 0.5
1081 0.5
-1081 0.5
1082 0.5
-1082 0.5
1083 0.114121
-1083 0.885879
1084 0.483362
-1084 0.516638
1085 0.692825
-1085 0.307175
1086 0.903302
-1086 0.096698
1087 0.5
-1087 0.5
1088 0.5
-1088 0.5
1089 0.5
-1089 0.5
1090 0.5
-1090 0.5
1091 0.235141
-1091 0.764859
1092 0.506715
-1092 0.493285
1093 0.938205
-1093 0.061795
1094 0.842343
-1094 0.157657
1095 0.979035
-1095 0.020965
1096 0.137588
-1096 0.862412
1097 0.475773
-1097 0.524227
1098 0.177141
-1098 0.822859
1099 0.5
-1099 0.5
1100 0.5
-1100 0.5
1101 0.5
-1101 0.5
1102 0.5
-1102 0.5
1103 0.5
-1103 0.5
1104 0.5
-1104 0.5
1105 0.5
-1105 0.5
1106 0.5
-1106 0.5
1107 0.5
-1107 0.5
1108 0.5
-1108 0.5
1109 0.5
-1109 0.5
1110 0.5
-1110 0.5
1111 0.5
-1111 0.5
1112 0.5
-1112 0.5
1113 0.5
-1113 0.5
1114 0.5
-1114 0.5
1115 0.5
-1115 0.5
1116 0.5
-1116 0.5
1117 0.5
-1117 0.5
1118 0.5
-1118 0.5
1119 0.5
-1119 0.5
1120 0.5
-1120 0.5
1121 0.5
-1121 0.5
1122 0.5
-1122 0.5
1123 0.5
-1123 0.5
1124 0.5
-1124 0.5
1125 0.5
-1125 0.5
1126 0.5
-1126 0.5
1127 0.5
-1127 0.5
1128 0.5
-1128 0.5
1129 0.5
-1129 0.5
1130 0.5
-1130 0.5
1131 0.590804
-1131 0.409196
1132 0.743905
-1132 0.256095
1133 0.984422
-1133 0.015578
1134 0.104175
-1134 0.895825
1135 0.5
-1135 0.5
1136 0.5
-1136 0.5
1137 0.5
-1137 0.5
1138 0.5
-1138 0.5
1139 0.5
-1139 0.5
1140 0.5
-1140 0.5
1141 0.5
-1141 0.5
1142 0.5
-1142 0.5
1143 0.5
-1143 0.5
1144 0.5
-1144 0.5
1145 0.870863
-1145 0.129137
1146 0.112045
-1146 0.887955
1147 0.034147
-1147 0.965853
1148 0.356496
-1148 0.643504
1149 0.5
-1149 0.5
1150 0.5
-1150 0.5
1151 0.5
-1151 0.5
1152 0.5
-1152 0.5
1153 0.5
-1153 0.5
1154 0.5
-1154 0.5
1155 0.5
-1155 0.5
1156 0.5
-1156 0.5
1157 0.5
-1157 0.5
1158 0.5
-1158 0.5
1159 0.5
-1159 0.5
1160 0.5
-1160 0.5
1161 0.5
-1161 0.5
1162 0.5
-1162 0.5
1163 0.5
-1163 0.5
1164 0.5
-1164 0.5
1165 0.5
-1165 0.5
1166 0.5
-1166 0.5
1167 0.5
-1167 0.5
1168 0.5
-1168 0.5
1169 0.5
-1169 0.5
1170 0.5
-1170 0.5
1171 0.5
-1171 0.5
1172 0.5
-1172 0.5
1173 0.5
-1173 0.5
1174 0.5
-1174 0.5
1175 0.5
-1175 0.5
1176 0.5
-1176 0.5
1177 0.5
-1177 0.5
1178 0.5
-1178 0.5
1179 0.5
-1179 0.5
1180 0.5
-1180 0.5
1181 0.5
-1181 0.5
1182 0.5
-1182 0.5
1183 0.5
-1183 0.5
1184 0.5
-1184 0.5
1185 0.5
-1185 0.5
1186 0.5
-1186 0.5
1187 0.5
-1187 0.5
1188 0.5
-1188 0.5
1189 0.5
-1189 0.5
1190 0.5
-1190 0.5
1191 0.5
-1191 0.5
1192 0.5
-1192 0.5
1193 0.516867
-1193 0.483133
1194 0.513852
-1194 0.486148
1195 0.994283
-1195 0.005717
1196 0.570978
-1196 0.429022
1197 0.299147
-1197 0.700853
1198 0.897569
-1198 0.102431
1199 0.404186
-1199 0.595814
1200 0.937926
-1200 0.062074
1201 0.5
-1201 0.5
1202 0.5
-1202 0.5
1203 0.5
-1203 0.5
1204 0.5
-1204 0.5
1205 0.5
-1205 0.5
1206 0.5
-1206 0.5
1207 0.5
-1207 0.5
1208 0.5
-1208 0.5
1209 0.5
-1209 0.5
1210 0.5
-1210 0.5
1211 0.5
-1211 0.5
1212 0.5
-1212 0.5
1213 0.5
-1213 0.5
1214 0.5
-1214 0.5
1215 0.5
-1215 0.5
1216 0.5
-1216 0.5
1217 0.64841
-1217 0.35159
1218 0.147053
-1218 0.852947
1219 0.310688
-1219 0.689312
1220 0.642693
-1220 0.357307
1221 0.5
-1221 0.5
1222 0.5
-1222 0.5
1223 0.5
-1223 0.5
1224 0.5
-1224 0.5
1225 0.016655
-1225 0.983345
1226 0.614599
-1226 0.385401
1227 0.980734
-1227 0.019266
1228 0.575841
-1228 0.424159
1229 0.5
-1229 0.5
1230 0.5
-1230 0.5
1231 0.5
-1231 0.5
1232 0.5
-1232 0.5
1233 0.5
-1233 0.5
1234 0.5
-1234 0.5
1235 0.5
-1235 0.5
1236 0.5
-1236 0.5
1237 0.5
-1237 0.5
1238 0.5
-1238 0.5
1239 0.395505
-1239 0.604495
1240 0.755612
-1240 0.244388
1241 0.52086
-1241 0.47914
1242 0.192342
-1242 0.807658
1243 0.5
-1243 0.5
1244 0.5
-1244 0.5
1245 0.5
-1245 0.5
1246 0.5
-1246 0.5
1247 0.001544
-1247 0.998456
1248 0.219794
-1248 0.780206
1249 0.868322
-1249 0.131678
1250 0.018199
-1250 0.981801
1251 0.849056
-1251 0.150944
1252 0.59404
-1252 0.40596
1253 0.217228
-1253 0.782772
1254 0.208866
-1254 0.791134
1255 0.5
-1255 0.5
1256 0.5
-1256 0.5
1257 0.5
-1257 0.5
1258 0.5
-1258 0.5
1259 0.030621
-1259 0.969379
1260 0.876432
-1260 0.123568
1261 0.895607
-1261 0.104393
1262 0.887905
-1262 0.112095
1263 0.291112
-1263 0.708888
1264 0.643517
-1264 0.356483
1265 0.287965
-1265 0.712035
1266 0.483454
-1266 0.516546
1267 0.5
-1267 0.5
1268 0.5
-1268 0.5
1269 0.5
-1269 0.5
1270 0.5
-1270 0.5
1271 0.5
-1271 0.5
1272 0.5
-1272 0.5
1273 0.5
-1273 0.5
1274 0.5
-1274 0.5
1275 0.5
-1275 0.5
1276 0.5
-1276 0.5
1277 0.5
-1277 0.5
1278 0.5
-1278 0.5
1279 0.5
-1279 0.5
1280 0.5
-1280 0.5
1281 0.5
-1281 0.5
1282 0.5
-1282 0.5
1283 0.5
-1283 0.5
1284 0.5
-1284 0.5
1285 0.5
-1285 0.5
1286 0.5
-1286 0.5
1287 0.5
-1287 0.5
1288 0.5
-1288 0.5
1289 0.5
-1289 0.5
1290 0.5
-1290 0.5
1291 0.304673
-1291 0.695327
1292 0.054645
-1292 0.945355
1293 0.869154
-1293 0.130846
1294 0.398928
-1294 0.601072
1295 0.5
-1295 0.5
1296 0.5
-1296 0.5
1297 0.5
-1297 0.5
1298 0.5
-1298 0.5
1299 0.5
-1299 0.5
1300 0.5
-1300 0.5
1301 0.5
-1301 0.5
1302 0.5
-1302 0.5
1303 0.242116
-1303 0.757884
1304 0.298349
-1304 0.701651
1305 0.045983
-1305 0.954017
1306 0.696275
-1306 0.303725
1307 0.213249
-1307 0.786751
1308 0.908774
-1308 0.091226
1309 0.719152
-1309 0.280848
1310 0.256948
-1310 0.743052
1311 0.5
-1311 0.5
1312 0.5
-1312 0.5
1313 0.5
-1313 0.5
1314 0.5
-1314 0.5
1315 0.5
-1315 0.5
1316 0.5
-1316 0.5
1317 0.5
-1317 0.5
1318 0.5
-1318 0.5
1319 0.5
-1319 0.5
1320 0.5
-1320 0.5
1321 0.5
-1321 0.5
1322 0.5
-1322 0.5
1323 0.5
-1323 0.5
1324 0.5
-1324 0.5
1325 0.5
-1325 0.5
1326 0.5
-1326 0.5
1327 0.5
-1327 0.5
1328 0.5
-1328 0.5
1329 0.5
-1329 0.5
1330 0.5
-1330 0.5
1331 0.5
-1331 0.5
1332 0.5
-1332 0.5
1333 0.5
-1333 0.5
1334 0.5
-1334 0.5
1335 0.5
-1335 0.5
1336 0.5
-1336 0.5
1337 0.5
-1337 0.5
1338 0.5
-1338 0.5
1339 0.5
-1339 0.5
1340 0.5
-1340 0.5
1341 0.5
-1341 0.5
1342 0.5
-1342 0.5
1343 0.5
-1343 0.5
1344 0.5
-1344 0.5
1345 0.412797
-1345 0.587203
1346 0.088438
-1346 0.911562
1347 0.934313
-1347 0.065687
1348 0.620911
-1348 0.379089
1349 0.5
-1349 0.5
1350 0.5
-1350 0.5
1351 0.5
-1351 0.5
1352 0.5
-1352 0.5
1353 0.5
-1353 0.5
1354 0.5
-1354 0.5
1355 0.5
-1355 0.5
1356 0.5
-1356 0.5
1357 0.413285
-1357 0.586715
1358 0.211822
-1358 0.788178
1359 0.466599
-1359 0.533401
1360 0.718505
-1360 0.281495
1361 0.5
-1361 0.5
1362 0.5
-1362 0.5
1363 0.5
-1363 0.5
1364 0.5
-1364 0.5
1365 0.5
-1365 0.5
1366 0.5
-1366 0.5
1367 0.5
-1367 0.5
1368 0.5
-1368 0.5
1369 0.518793
-1369 0.481207
1370 0.915274
-1370 0.084726
1371 0.017196
-1371 0.982804
1372 0.453106
-1372 0.546894
1373 0.5
-1373 0.5
1374 0.5
-1374 0.5
1375 0.5
-1375 0.5
1376 0.5
-1376 0.5
1377 0.343648
-1377 0.656352
1378 0.505023
-1378 0.494977
1379 0.159135
-1379 0.840865
1380 0.468593
-1380 0.531407
1381 0.5
-1381 0.5
1382 0.5
-1382 0.5
1383 0.5
-1383 0.5
1384 0.5
-1384 0.5
1385 0.5
-1385 0.5
1386 0.5
-1386 0.5
1387 0.5
-1387 0.5
1388 0.5
-1388 0.5
1389 0.5
-1389 0.5
1390 0.5
-1390 0.5
1391 0.5
-1391 0.5
1392 0.5
-1392 0.5
1393 0.5
-1393 0.5
1394 0.5
-1394 0.5
1395 0.5
-1395 0.5
1396 0.5
-1396 0.5
1397 0.5
-1397 0.5
1398 0.5
-1398 0.5
1399 0.5
-1399 0.5
1400 0.5
-1400 0.5
1401 0.5
-1401 0.5
1402 0.5
-1402 0.5
1403 0.5
-1403 0.5
1404 0.5
-1404 0.5
1405 0.5
-1405 0.5
1406 0.5
-1406 0.5
1407 0.5
-1407 0.5
1408 0.5
-1408 0.5
1409 0.5
-1409 0.5
1410 0.5
-1410 0.5
1411 0.5
-1411 0.5
1412 0.5
-1412 0.5
1413 0.5
-1413 0.5
1414 0.5
-1414 0.5
1415 0.5
-1415 0.5
1416 0.5
-1416 0.5
1417 0.5
-1417 0.5
1418 0.5
-1418 0.5
1419 0.5
-1419 0.5
1420 0.5
-1420 0.5
1421 0.322683
-1421 0.677317
1422 0.83213
-1422 0.16787
1423 0.332947
-1423 0.667053
1424 0.369689
-1424 0.630311
1425 0.5
-1425 0.5
1426 0.5
-1426 0.5
1427 0.5
-1427 0.5
1428 0.5
-1428 0.5
1429 0.5
-1429 0.5
1430 0.5
-1430 0.5
1431 0.5
-1431 0.5
1432 0.5
-1432 0.5
1433 0.5
-1433 0.5
1434 0.5
-1434 0.5
1435 0.5
-1435 0.5
1436 0.5
-1436 0.5
1437 0.5
-1437 0.5
1438 0.5
-1438 0.5
1439 0.5
-1439 0.5
1440 0.5
-1440 0.5
1441 0.5
-1441 0.5
1442 0.5
-1442 0.5
1443 0.5
-1443 0.5
1444 0.5
-1444 0.5
1445 0.5
-1445 0.5
1446 0.5
-1446 0.5
1447 0.5
-1447 0.5
1448 0.5
-1448 0.5
1449 0.5
-1449 0.5
1450 0.5
-1450 0.5
1451 0.614003
-1451 0.385997
1452 0.101073
-1452 0.898927
1453 0.623656
-1453 0.376344
1454 0.940377
-1454 0.059623
1455 0.5
-1455 0.5
1456 0.5
-1456 0.5
1457 0.5
-1457 0.5
1458 0.5
-1458 0.5
1459 0.5
-1459 0.5
1460 0.5
-1460 0.5
1461 0.5
-1461 0.5
1462 0.5
-1462 0.5
1463 0.5
-1463 0.5
1464 0.5
-1464 0.5
1465 0.5
-1465 0.5
1466 0.5
-1466 0.5
1467 0.5
-1467 0.5
1468 0.5
-1468 0.5
1469 0.5
-1469 0.5
1470 0.5
-1470 0.5
1471 0.5
-1471 0.5
1472 0.5
-1472 0.5
1473 0.5
-1473 0.5
1474 0.5
-1474 0.5
1475 0.5
-1475 0.5
1476 0.5
-1476 0.5
1477 0.5
-1477 0.5
1478 0.5
-1478 0.5
1479 0.5
-1479 0.5
1480 0.5
-1480 0.5
1481 0.5
-1481 0.5
1482 0.5
-1482 0.5
1483 0.5
-1483 0.5
1484 0.5
-1484 0.5
1485 0.5
-1485 0.5
1486 0.5
-1486 0.5
1487 0.5
-1487 0.5
1488 0.5
-1488 0.5
1489 0.5
-1489 0.5
1490 0.5
-1490 0.5
1491 0.269756
-1491 0.730244
1492 0.269679
-1492 0.730321
1493 0.342456
-1493 0.657544
1494 0.72143
-1494 0.27857
1495 0.488388
-1495 0.511612
1496 0.755562
-1496 0.244438
1497 0.079299
-1497 0.920701
1498 0.672469
-1498 0.327531
1499 0.5
-1499 0.5
1500 0.5
-1500 0.5
1501 0.5
-1501 0.5
1502 0.5
-1502 0.5
1503 0.5
-1503 0.5
1504 0.5
-1504 0.5
1505 0.5
-1505 0.5
1506 0.5
-1506 0.5
1507 0.5
-1507 0.5
1508 0.5
-1508 0.5
1509 0.5
-1509 0.5
1510 0.5
-1510 0.5
1511 0.490178
-1511 0.509822
1512 0.133161
-1512 0.866839
1513 0.641036
-1513 0.358964
1514 0.058588
-1514 0.941412
1515 0.5
-1515 0.5
1516 0.5
-1516 0.5
1517 0.5
-1517 0.5
1518 0.5
-1518 0.5
1519 0.5
-1519 0.5
1520 0.5
-1520 0.5
1521 0.5
-1521 0.5
1522 0.5
-1522 0.5
1523 0.5
-1523 0.5
1524 0.5
-1524 0.5
1525 0.5
-1525 0.5
1526 0.5
-1526 0.5
1527 0.409772
-1527 0.590228
1528 0.963029
-1528 0.036971
1529 0.722163
-1529 0.277837
1530 0.192777
-1530 0.807223
1531 0.5
-1531 0.5
1532 0.5
-1532 0.5
1533 0.5
-1533 0.5
1534 0.5
-1534 0.5
1535 0.50622
-1535 0.49378
1536 0.950372
-1536 0.049628
1537 0.490428
-1537 0.509572
1538 0.564808
-1538 0.435192
1539 0.5
-1539 0.5
1540 0.5
-1540 0.5
1541 0.5
-1541 0.5
1542 0.5
-1542 0.5
1543 0.966963
-1543 0.033037
1544 0.181794
-1544 0.818206
1545 0.5
-1545 0.5
1546 0.5
-1546 0.5
1547 0.5
-1547 0.5
1548 0.5
-1548 0.5
1549 0.5
-1549 0.5
1550 0.5
-1550 0.5
1551 0.5
-1551 0.5
1552 0.5
-1552 0.5
1553 0.5
-1553 0.5
1554 0.5
-1554 0.5
1555 0.5
-1555 0.5
1556 0.5
-1556 0.5
1557 0.5
-1557 0.5
1558 0.5
-1558 0.5
1559 0.5
-1559 0.5
1560 0.5
-1560 0.5
1561 0.5
-1561 0.5
1562 0.5
-1562 0.5
1563 0.5
-1563 0.5
1564 0.5
-1564 0.5
1565 0.266833
-1565 0.733167
1566 0.209152
-1566 0.790848
1567 0.990989
-1567 0.009011
1568 0.015095
-1568 0.984905
1569 0.5
-1569 0.5
1570 0.5
-1570 0.5
1571 0.5
-1571 0.5
1572 0.5
-1572 0.5
1573 0.098204
-1573 0.901796
1574 0.625649
-1574 0.374351
1575 0.429461
-1575 0.570539
1576 0.479454
-1576 0.520546
1577 0.5
-1577 0.5
1578 0.5
-1578 0.5
1579 0.5
-1579 0.5
1580 0.5
-1580 0.5
1581 0.5
-1581 0.5
1582 0.5
-1582 0.5
1583 0.5
-1583 0.5
1584 0.5
-1584 0.5
1585 0.5
-1585 0.5
1586 0.5
-1586 0.5
1587 0.5
-1587 0.5
1588 0.5
-1588 0.5
1589 0.5
-1589 0.5
1590 0.5
-1590 0.5
1591 0.5
-1591 0.5
1592 0.5
-1592 0.5
1593 0.5
-1593 0.5
1594 0.5
-1594 0.5
1595 0.5
-1595 0.5
1596 0.5
-1596 0.5
1597 0.5
-1597 0.5
1598 0.5
-1598 0.5
1599 0.5
-1599 0.5
1600 0.5
-1600 0.5
1601 0.5
-1601 0.5
1602 0.5
-1602 0.5
1603 0.5
-1603 0.5
1604 0.5
-1604 0.5
1605 0.5
-1605 0.5
1606 0.5
-1606 0.5
1607 0.5
-1607 0.5
1608 0.5
-1608 0.5
1609 0.5
-1609 0.5
1610 0.5
-1610 0.5
1611 0.5
-1611 0.5
1612 0.5
-1612 0.5
1613 0.5
-1613 0.5
1614 0.5
-1614 0.5
1615 0.5
-1615 0.5
1616 0.5
-1616 0.5
1617 0.895931
-1617 0.104069
1618 0.427891
-1618 0.572109
1619 0.986268
-1619 0.013732
1620 0.15702
-1620 0.84298
1621 0.5
-1621 0.5
1622 0.5
-1622 0.5
1623 0.5
-1623 0.5
1624 0.5
-1624 0.5
1625 0.577932
-1625 0.422068
1626 0.486397
-1626 0.513603
1627 0.378207
-1627 0.621793
1628 0.803454
-1628 0.196546
1629 0.5
-1629 0.5
1630 0.5
-1630 0.5
1631 0.5
-1631 0.5
1632 0.5
-1632 0.5
1633 0.5
-1633 0.5
1634 0.5
-1634 0.5
1635 0.5
-1635 0.5
1636 0.5
-1636 0.5
1637 0.5
-1637 0.5
1638 0.5
-1638 0.5
1639 0.5
-1639 0.5
1640 0.5
-1640 0.5
1641 0.5
-1641 0.5
1642 0.5
-1642 0.5
1643 0.5
-1643 0.5
1644 0.5
-1644 0.5
1645 0.5
-1645 0.5
1646 0.5
-1646 0.5
1647 0.5
-1647 0.5
1648 0.5
-1648 0.5
1649 0.5
-1649 0.5
1650 0.5
-1650 0.5
1651 0.5
-1651 0.5
1652 0.5
-1652 0.5
1653 0.5
-1653 0.5
1654 0.5
-1654 0.5
1655 0.5
-1655 0.5
1656 0.5
-1656 0.5
1657 0.5
-1657 0.5
1658 0.5
-1658 0.5
1659 0.792293
-1659 0.207707
1660 0.899927
-1660 0.100073
1661 0.726662
-1661 0.273338
1662 0.85034
-1662 0.14966
1663 0.5
-1663 0.5
1664 0.5
-1664 0.5
1665 0.5
-1665 0.5
1666 0.5
-1666 0.5
1667 0.5
-1667 0.5
1668 0.5
-1668 0.5
1669 0.5
-1669 0.5
1670 0.5
-1670 0.5
1671 0.5
-1671 0.5
1672 0.5
-1672 0.5
1673 0.5
-1673 0.5
1674 0.5
-1674 0.5
1675 0.5
-1675 0.5
1676 0.5
-1676 0.5
1677 0.5
-1677 0.5
1678 0.5
-1678 0.5
1679 0.5
-1679 0.5
1680 0.5
-1680 0.5
1681 0.5
-1681 0.5
1682 0.5
-1682 0.5
1683 0.5
-1683 0.5
1684 0.5
-1684 0.5
1685 0.5
-1685 0.5
1686 0.5
-1686 0.5
1687 0.5
-1687 0.5
1688 0.5
-1688 0.5
1689 0.5
-1689 0.5
1690 0.5
-1690 0.5
1691 0.473598
-1691 0.526402
1692 0.857572
-1692 0.142428
1693 0.349911
-1693 0.650089
1694 0.138097
-1694 0.861903
1695 0.5
-1695 0.5
1696 0.5
-1696 0.5
1697 0.5
-1697 0.5
1698 0.5
-1698 0.5
1699 0.5
-1699 0.5
1700 0.5
-1700 0.5
1701 0.5
-1701 0.5
1702 0.5
-1702 0.5
1703 0.5
-1703 0.5
1704 0.5
-1704 0.5
1705 0.5
-1705 0.5
1706 0.5
-1706 0.5
1707 0.5
-1707 0.5
1708 0.5
-1708 0.5
1709 0.5
-1709 0.5
1710 0.5
-1710 0.5
1711 0.5
-1711 0.5
1712 0.5
-1712 0.5
1713 0.5
-1713 0.5
1714 0.5
-1714 0.5
1715 0.5
-1715 0.5
1716 0.5
-1716 0.5
1717 0.5
-1717 0.5
1718 0.5
-1718 0.5
1719 0.5
-1719 0.5
1720 0.5
-1720 0.5
1721 0.5
-1721 0.5
1722 0.5
-1722 0.5
1723 0.5
-1723 0.5
1724 0.5
-1724 0.5
1725 0.5
-1725 0.5
1726 0.5
-1726 0.5
1727 0.5
-1727 0.5
1728 0.5
-1728 0.5
1729 0.5
-1729 0.5
1730 0.5
-1730 0.5
1731 0.5
-1731 0.5
1732 0.5
-1732 0.5
1733 0.5
-1733 0.5
1734 0.5
-1734 0.5
1735 0.5
-1735 0.5
1736 0.5
-1736 0.5
1737 0.5
-1737 0.5
1738 0.5
-1738 0.5
1739 0.5
-1739 0.5
1740 0.5
-1740 0.5
1741 0.5
-1741 0.5
1742 0.5
-1742 0.5
1743 0.5
-1743 0.5
1744 0.5
-1744 0.5
1745 0.5
-1745 0.5
1746 0.5
-1746 0.5
1747 0.5
-1747 0.5
1748 0.5
-1748 0.5
1749 0.5
-1749 0.5
1750 0.5
-1750 0.5
1751 0.5
-1751 0.5
1752 0.5
-1752 0.5
1753 0.5
-1753 0.5
1754 0.5
-1754 0.5
1755 0.5
-1755 0.5
1756 0.5
-1756 0.5
1757 0.5
-1757 0.5
1758 0.5
-1758 0.5
1759 0.5
-1759 0.5
1760 0.5
-1760 0.5
1761 0.5
-1761 0.5
1762 0.5
-1762 0.5
1763 0.5
-1763 0.5
1764 0.5
-1764 0.5
1765 0.262005
-1765 0.737995
1766 0.35476
-1766 0.64524
1767 0.74782
-1767 0.25218
1768 0.369782
-1768 0.630218
1769 0.5
-1769 0.5
1770 0.5
-1770 0.5
1771 0.5
-1771 0.5
1772 0.5
-1772 0.5
1773 0.5
-1773 0.5
1774 0.5
-1774 0.5
1775 0.5
-1775 0.5
1776 0.5
-1776 0.5
1777 0.5
-1777 0.5
1778 0.5
-1778 0.5
1779 0.5
-1779 0.5
1780 0.5
-1780 0.5
1781 0.730499
-1781 0.269501
1782 0.613793
-1782 0.386207
1783 0.189777
-1783 0.810223
1784 0.683565
-1784 0.316435
1785 0.5
-1785 0.5
1786 0.5
-1786 0.5
1787 0.5
-1787 0.5
1788 0.5
-1788 0.5
1789 0.270886
-1789 0.729114
1790 0.49044
-1790 0.50956
1791 0.689275
-1791 0.310725
1792 0.640667
-1792 0.359333
1793 0.5
-1793 0.5
1794 0.5
-1794 0.5
1795 0.5
-1795 0.5
1796 0.5
-1796 0.5
1797 0.5
-1797 0.5
1798 0.5
-1798 0.5
1799 0.5
-1799 0.5
1800 0.5
-1800 0.5
1801 0.5
-1801 0.5
1802 0.5
-1802 0.5
1803 0.5
-1803 0.5
1804 0.5
-1804 0.5
1805 0.5
-1805 0.5
1806 0.5
-1806 0.5
1807 0.5
-1807 0.5
1808 0.5
-1808 0.5
1809 0.5
-1809 0.5
1810 0.5
-1810 0.5
1811 0.5
-1811 0.5
1812 0.5
-1812 0.5
1813 0.5
-1813 0.5
1814 0.5
-1814 0.5
1815 0.5
-1815 0.5
1816 0.5
-1816 0.5
1817 0.5
-1817 0.5
1818 0.5
-1818 0.5
1819 0.5
-1819 0.5
1820 0.5
-1820 0.5
1821 0.5
-1821 0.5
1822 0.5
-1822 0.5
1823 0.5
-1823 0.5
1824 0.5
-1824 0.5
1825 0.5
-1825 0.5
1826 0.5
-1826 0.5
1827 0.5
-1827 0.5
1828 0.5
-1828 0.5
1829 0.5
-1829 0.5
1830 0.5
-1830 0.5
1831 0.5
-1831 0.5
1832 0.5
-1832 0.5
1833 0.5
-1833 0.5
1834 0.5
-1834 0.5
1835 0.5
-1835 0.5
1836 0.5
-1836 0.5
1837 0.5
-1837 0.5
1838 0.5
-1838 0.5
1839 0.5
-1839 0.5
1840 0.5
-1840 0.5
1841 0.5
-1841 0.5
1842 0.5
-1842 0.5
1843 0.5
-1843 0.5
1844 0.5
-1844 0.5
1845 0.5
-1845 0.5
1846 0.5
-1846 0.5
1847 0.5
-1847 0.5
1848 0.5
-1848 0.5
1849 0.5
-1849 0.5
1850 0.5
-1850 0.5
1851 0.79515
-1851 0.20485
1852 0.780883
-1852 0.219117
1853 0.013987
-1853 0.986013
1854 0.231811
-1854 0.768189
1855 0.5
-1855 0.5
1856 0.5
-1856 0.5
1857 0.5
-1857 0.5
1858 0.5
-1858 0.5
1859 0.5
-1859 0.5
1860 0.5
-1860 0.5
1861 0.5
-1861 0.5
1862 0.5
-1862 0.5
1863 0.257792
-1863 0.742208
1864 0.234394
-1864 0.765606
1865 0.939814
-1865 0.060186
1866 0.397128
-1866 0.602872
1867 0.5
-1867 0.5
1868 0.5
-1868 0.5
1869 0.5
-1869 0.5
1870 0.5
-1870 0.5
1871 0.5
-1871 0.5
1872 0.5
-1872 0.5
1873 0.5
-1873 0.5
1874 0.5
-1874 0.5
1875 0.5
-1875 0.5
1876 0.5
-1876 0.5
1877 0.5
-1877 0.5
1878 0.5
-1878 0.5
1879 0.119166
-1879 0.880834
1880 0.92427
-1880 0.07573
1881 0.706723
-1881 0.293277
1882 0.285575
-1882 0.714425
1883 0.5
-1883 0.5
1884 0.5
-1884 0.5
1885 0.5
-1885 0.5
1886 0.5
-1886 0.5
1887 0.828635
-1887 0.171365
1888 0.14335
-1888 0.85665
1889 0.12629
-1889 0.87371
1890 0.768449
-1890 0.231551
1891 0.5
-1891 0.5
1892 0.5
-1892 0.5
1893 0.5
-1893 0.5
1894 0.5
-1894 0.5
1895 0.5
-1895 0.5
1896 0.5
-1896 0.5
1897 0.5
-1897 0.5
1898 0.5
-1898 0.5
1899 0.5
-1899 0.5
1900 0.5
-1900 0.5
1901 0.5
-1901 0.5
1902 0.5
-1902 0.5
1903 0.5
-1903 0.5
1904 0.5
-1904 0.5
1905 0.5
-1905 0.5
1906 0.5
-1906 0.5
1907 0.687925
-1907 0.312075
1908 0.123016
-1908 0.876984
1909 0.643874
-1909 0.356126
1910 0.573482
-1910 0.426518
1911 0.5
-1911 0.5
1912 0.5
-1912 0.5
1913 0.5
-1913 0.5
1914 0.5
-1914 0.5
1915 0.5
-1915 0.5
1916 0.5
-1916 0.5
1917 0.5
-1917 0.5
1918 0.5
-1918 0.5
1919 0.5
-1919 0.5
1920 0.5
-1920 0.5
1921 0.5
-1921 0.5
1922 0.5
-1922 0.5
1923 0.957564
-1923 0.042436
1924 0.298269
-1924 0.701731
1925 0.019556
-1925 0.980444
1926 0.650222
-1926 0.349778
1927 0.044311
-1927 0.955689
1928 0.462046
-1928 0.537954
1929 0.386017
-1929 0.613983
1930 0.77579
-1930 0.22421
1931 0.5
-1931 0.5
1932 0.5
-1932 0.5
1933 0.5
-1933 0.5
1934 0.5
-1934 0.5
1935 0.5
-1935 0.5
1936 0.5
-1936 0.5
1937 0.5
-1937 0.5
1938 0.5
-1938 0.5
1939 0.5
-1939 0.5
1940 0.5
-1940 0.5
1941 0.5
-1941 0.5
1942 0.5
-1942 0.5
1943 0.857609
-1943 0.142391
1944 0.819946
-1944 0.180054
1945 0.5196
-1945 0.4804
1946 0.037757
-1946 0.962243
1947 0.5
-1947 0.5
1948 0.5
-1948 0.5
1949 0.5
-1949 0.5
1950 0.5
-1950 0.5
1951 0.5
-1951 0.5
1952 0.5
-1952 0.5
1953 0.5
-1953 0.5
1954 0.5
-1954 0.5
1955 0.5
-1955 0.5
1956 0.5
-1956 0.5
1957 0.5
-1957 0.5
1958 0.5
-1958 0.5
1959 0.5
-1959 0.5
1960 0.5
-1960 0.5
1961 0.5
-1961 0.5
1962 0.5
-1962 0.5
1963 0.5
-1963 0.5
1964 0.5
-1964 0.5
1965 0.5
-1965 0.5
1966 0.5
-1966 0.5
1967 0.5
-1967 0.5
1968 0.5
-1968 0.5
1969 0.5
-1969 0.5
1970 0.5
-1970 0.5
1971 0.5
-1971 0.5
1972 0.5
-1972 0.5
1973 0.5
-1973 0.5
1974 0.5
-1974 0.5
1975 0.5
-1975 0.5
1976 0.5
-1976 0.5
1977 0.5
-1977 0.5
1978 0.5
-1978 0.5
1979 0.5
-1979 0.5
1980 0.5
-1980 0.5
1981 0.5
-1981 0.5
1982 0.5
-1982 0.5
1983 0.5
-1983 0.5
1984 0.5
-1984 0.5
1985 0.5
-1985 0.5
1986 0.5
-1986 0.5
1987 0.5
-1987 0.5
1988 0.5
-1988 0.5
1989 0.5
-1989 0.5
1990 0.5
-1990 0.5
1991 0.5
-1991 0.5
1992 0.5
-1992 0.5
1993 0.5
-1993 0.5
1994 0.5
-1994 0.5
1995 0.5
-1995 0.5
1996 0.5
-1996 0.5
1997 0.5
-1997 0.5
1998 0.5
-1998 0.5
1999 0.5
-1999 0.5
2000 0.5
-2000 0.5
2001 0.109446
-2001 0.890554
2002 0.713712
-2002 0.286288
2003 0.721358
-2003 0.278642
2004 0.539248
-2004 0.460752
2005 0.5
-2005 0.5
2006 0.5
-2006 0.5
2007 0.5
-2007 0.5
2008 0.5
-2008 0.5
2009 0.5
-2009 0.5
2010 0.5
-2010 0.5
2011 0.5
-2011 0.5
2012 0.5
-2012 0.5
2013 0.5
-2013 0.5
2014 0.5
-2014 0.5
2015 0.5
-2015 0.5
2016 0.5
-2016 0.5
2017 0.822874
-2017 0.177126
2018 0.389021
-2018 0.610979
2019 0.078125
-2019 0.921875
2020 0.134248
-2020 0.865752
2021 0.5
-2021 0.5
2022 0.5
-2022 0.5
2023 0.5
-2023 0.5
2024 0.5
-2024 0.5
2025 0.5
-2025 0.5
2026 0.5
-2026 0.5
2027 0.5
-2027 0.5
2028 0.5
-2028 0.5
2029 0.5
-2029 0.5
2030 0.5
-2030 0.5
2031 0.5
-2031 0.5
2032 0.5
-2032 0.5
2033 0.5
-2033 0.5
2034 0.5
-2034 0.5
2035 0.5
-2035 0.5
2036 0.5
-2036 0.5
2037 0.5
-2037 0.5
2038 0.5
-2038 0.5
2039 0.5
-2039 0.5
2040 0.5
-2040 0.5
2041 0.5
-2041 0.5
2042 0.5
-2042 0.5
2043 0.5
-2043 0.5
2044 0.5
-2044 0.5
2045 0.416938
-2045 0.583062
2046 0.503944
-2046 0.496056
2047 0.236456
-2047 0.763544
2048 0.945967
-2048 0.054033
2049 0.5
-2049 0.5
2050 0.5
-2050 0.5
2051 0.5
-2051 0.5
2052 0.5
-2052 0.5
2053 0.594574
-2053 0.405426
2054 0.284647
-2054 0.715353
2055 0.5
-2055 0.5
2056 0.5
-2056 0.5
2057 0.5
-2057 0.5
2058 0.5
-2058 0.5
2059 0.5
-2059 0.5
2060 0.5
-2060 0.5
2061 0.5
-2061 0.5
2062 0.5
-2062 0.5
2063 0.476094
-2063 0.523906
2064 0.613252
-2064 0.386748
2065 0.597448
-2065 0.402552
2066 0.125658
-2066 0.874342
2067 0.5
-2067 0.5
2068 0.5
-2068 0.5
2069 0.5
-2069 0.5
2070 0.5
-2070 0.5
2071 0.5
-2071 0.5
2072 0.5
-2072 0.5
2073 0.5
-2073 0.5
2074 0.5
-2074 0.5
2075 0.5
-2075 0.5
2076 0.5
-2076 0.5
2077 0.5
-2077 0.5
2078 0.5
-2078 0.5
2079 0.5
-2079 0.5
2080 0.5
-2080 0.5
2081 0.5
-2081 0.5
2082 0.5
-2082 0.5
2083 0.5
-2083 0.5
2084 0.5
-2084 0.5
2085 0.5
-2085 0.5
2086 0.5
-2086 0.5
2087 0.5
-2087 0.5
2088 0.5
-2088 0.5
2089 0.5
-2089 0.5
2090 0.5
-2090 0.5
2091 0.5
-2091 0.5
2092 0.5
-2092 0.5
2093 0.5
-2093 0.5
2094 0.5
-2094 0.5
2095 0.5
-2095 0.5
2096 0.5
-2096 0.5
2097 0.5
-2097 0.5
2098 0.5
-2098 0.5
2099 0.371212
-2099 0.628788
2100 0.004399
-2100 0.995601
2101 0.987256
-2101 0.012744
2102 0.472581
-2102 0.527419
2103 0.5
-2103 0.5
2104 0.5
-2104 0.5
2105 0.5
-2105 0.5
2106 0.5
-2106 0.5
2107 0.5
-2107 0.5
2108 0.5
-2108 0.5
2109 0.5
-2109 0.5
2110 0.5
-2110 0.5
2111 0.072905
-2111 0.927095
2112 0.234247
-2112 0.765753
2113 0.965594
-2113 0.034406
2114 0.196199
-2114 0.803801
2115 0.5
-2115 0.5
2116 0.5
-2116 0.5
2117 0.5
-2117 0.5
2118 0.5
-2118 0.5
2119 0.5
-2119 0.5
2120 0.5
-2120 0.5
2121 0.5
-2121 0.5
2122 0.5
-2122 0.5
2123 0.5
-2123 0.5
2124 0.5
-2124 0.5
2125 0.5
-2125 0.5
2126 0.5
-2126 0.5
2127 0.588833
-2127 0.411167
2128 0.704208
-2128 0.295792
2129 0.790554
-2129 0.209446
2130 0.247867
-2130 0.752133
2131 0.158159
-2131 0.841841
2132 0.405006
-2132 0.594994
2133 0.036183
-2133 0.963817
2134 0.721023
-2134 0.278977
2135 0.5
-2135 0.5
2136 0.5
-2136 0.5
2137 0.5
-2137 0.5
2138 0.5
-2138 0.5
2139 0.5
-2139 0.5
2140 0.5
-2140 0.5
2141 0.5
-2141 0.5
2142 0.5
-2142 0.5
2143 0.540982
-2143 0.459018
2144 0.436825
-2144 0.563175
2145 0.363431
-2145 0.636569
2146 0.629502
-2146 0.370498
2147 0.5
-2147 0.5
2148 0.5
-2148 0.5
2149 0.5
-2149 0.5
2150 0.5
-2150 0.5
2151 0.5
-2151 0.5
2152 0.5
-2152 0.5
2153 0.5
-2153 0.5
2154 0.5
-2154 0.5
2155 0.83167
-2155 0.16833
2156 0.854334
-2156 0.145666
2157 0.5
-2157 0.5
2158 0.5
-2158 0.5
2159 0.5
-2159 0.5
2160 0.5
-2160 0.5
2161 0.5
-2161 0.5
2162 0.5
-2162 0.5
2163 0.5
-2163 0.5
2164 0.5
-2164 0.5
2165 0.5
-2165 0.5
2166 0.5
-2166 0.5
2167 0.5
-2167 0.5
2168 0.5
-2168 0.5
2169 0.5
-2169 0.5
2170 0.5
-2170 0.5
2171 0.5
-2171 0.5
2172 0.5
-2172 0.5
2173 0.5
-2173 0.5
2174 0.5
-2174 0.5
2175 0.5
-2175 0.5
2176 0.5
-2176 0.5
2177 0.5
-2177 0.5
2178 0.5
-2178 0.5
2179 0.5
-2179 0.5
2180 0.5
-2180 0.5
2181 0.5
-2181 0.5
2182 0.5
-2182 0.5
2183 0.5
-2183 0.5
2184 0.5
-2184 0.5
2185 0.5
-2185 0.5
2186 0.5
-2186 0.5
2187 0.5
-2187 0.5
2188 0.5
-2188 0.5
2189 0.5
-2189 0.5
2190 0.5
-2190 0.5
2191 0.5
-2191 0.5
2192 0.5
-2192 0.5
2193 0.5
-2193 0.5
2194 0.5
-2194 0.5
2195 0.5
-2195 0.5
2196 0.5
-2196 0.5
2197 0.5
-2197 0.5
2198 0.5
-2198 0.5
2199 0.5
-2199 0.5
2200 0.5
-2200 0.5
2201 0.11177
-2201 0.88823
2202 0.861896
-2202 0.138104
2203 0.451708
-2203 0.548292
2204 0.653993
-2204 0.346007
2205 0.782443
-2205 0.217557
2206 0.188004
-2206 0.811996
2207 0.665165
-2207 0.334835
2208 0.598389
-2208 0.401611
2209 0.5
-2209 0.5
2210 0.5
-2210 0.5
2211 0.5
-2211 0.5
2212 0.5
-2212 0.5
2213 0.5
-2213 0.5
2214 0.5
-2214 0.5
2215 0.5
-2215 0.5
2216 0.5
-2216 0.5
2217 0.5
-2217 0.5
2218 0.5
-2218 0.5
2219 0.5
-2219 0.5
2220 0.5
-2220 0.5
2221 0.5
-2221 0.5
2222 0.5
-2222 0.5
2223 0.5
-2223 0.5
2224 0.5
-2224 0.5
2225 0.5
-2225 0.5
2226 0.5
-2226 0.5
2227 0.5
-2227 0.5
2228 0.5
-2228 0.5
2229 0.5
-2229 0.5
2230 0.5
-2230 0.5
2231 0.5
-2231 0.5
2232 0.5
-2232 0.5
2233 0.988964
-2233 0.011036
2234 0.639608
-2234 0.360392
2235 0.825145
-2235 0.174855
2236 0.108655
-2236 0.891345
2237 0.5
-2237 0.5
2238 0.5
-2238 0.5
2239 0.5
-2239 0.5
2240 0.5
-2240 0.5
2241 0.084855
-2241 0.915145
2242 0.088472
-2242 0.911528
2243 0.249414
-2243 0.750586
2244 0.333213
-2244 0.666787
2245 0.5
-2245 0.5
2246 0.5
-2246 0.5
2247 0.5
-2247 0.5
2248 0.5
-2248 0.5
2249 0.5
-2249 0.5
2250 0.5
-2250 0.5
2251 0.5
-2251 0.5
2252 0.5
-2252 0.5
2253 0.5
-2253 0.5
2254 0.5
-2254 0.5
2255 0.5
-2255 0.5
2256 0.5
-2256 0.5
2257 0.5
-2257 0.5
2258 0.5
-2258 0.5
2259 0.5
-2259 0.5
2260 0.5
-2260 0.5
2261 0.5
-2261 0.5
2262 0.5
-2262 0.5
2263 0.5
-2263 0.5
2264 0.5
-2264 0.5
2265 0.5
-2265 0.5
2266 0.5
-2266 0.5
2267 0.5
-2267 0.5
2268 0.5
-2268 0.5
2269 0.5
-2269 0.5
2270 0.5
-2270 0.5
2271 0.5
-2271 0.5
2272 0.5
-2272 0.5
2273 0.5
-2273 0.5
2274 0.5
-2274 0.5
2275 0.801638
-2275 0.198362
2276 0.732281
-2276 0.267719
2277 0.120054
-2277 0.879946
2278 0.235471
-2278 0.764529
2279 0.641442
-2279 0.358558
2280 0.550097
-2280 0.449903
2281 0.798376
-2281 0.201624
2282 0.0983
-2282 0.9017
2283 0.300892
-2283 0.699108
2284 0.380302
-2284 0.619698
2285 0.265931
-2285 0.734069
2286 0.348971
-2286 0.651029
2287 0.49386
-2287 0.50614
2288 0.841745
-2288 0.158255
2289 0.854701
-2289 0.145299
2290 0.948645
-2290 0.051355
2291 0.5
-2291 0.5
2292 0.5
-2292 0.5
2293 0.5
-2293 0.5
2294 0.5
-2294 0.5
2295 0.5
-2295 0.5
2296 0.5
-2296 0.5
2297 0.5
-2297 0.5
2298 0.5
-2298 0.5
2299 0.5
-2299 0.5
2300 0.5
-2300 0.5
2301 0.5
-2301 0.5
2302 0.5
-2302 0.5
2303 0.5
-2303 0.5
2304 0.5
-2304 0.5
2305 0.5
-2305 0.5
2306 0.5
-2306 0.5
2307 0.5
-2307 0.5
2308 0.5
-2308 0.5
2309 0.5
-2309 0.5
2310 0.5
-2310 0.5
2311 0.5
-2311 0.5
2312 0.5
-2312 0.5
2313 0.5
-2313 0.5
2314 0.5
-2314 0.5
2315 0.5
-2315 0.5
2316 0.5
-2316 0.5
2317 0.5
-2317 0.5
2318 0.5
-2318 0.5
2319 0.5
-2319 0.5
2320 0.5
-2320 0.5
2321 0.5
-2321 0.5
2322 0.5
-2322 0.5
2323 0.5
-2323 0.5
2324 0.5
-2324 0.5
2325 0.5
-2325 0.5
2326 0.5
-2326 0.5
2327 0.087975
-2327 0.912025
2328 0.633586
-2328 0.366414
2329 0.74773
-2329 0.25227
2330 0.460819
-2330 0.539181
2331 0.5
-2331 0.5
2332 0.5
-2332 0.5
2333 0.5
-2333 0.5
2334 0.5
-2334 0.5
2335 0.5
-2335 0.5
2336 0.5
-2336 0.5
2337 0.5
-2337 0.5
2338 0.5
-2338 0.5
2339 0.5
-2339 0.5
2340 0.5
-2340 0.5
2341 0.5
-2341 0.5
2342 0.5
-2342 0.5
2343 0.5
-2343 0.5
2344 0.5
-2344 0.5
2345 0.5
-2345 0.5
2346 0.5
-2346 0.5
2347 0.5
-2347 0.5
2348 0.5
-2348 0.5
2349 0.5
-2349 0.5
2350 0.5
-2350 0.5
2351 0.5
-2351 0.5
2352 0.5
-2352 0.5
2353 0.5
-2353 0.5
2354 0.5
-2354 0.5
2355 0.5
-2355 0.5
2356 0.5
-2356 0.5
2357 0.5
-2357 0.5
2358 0.5
-2358 0.5
2359 0.5
-2359 0.5
2360 0.5
-2360 0.5
2361 0.5
-2361 0.5
2362 0.5
-2362 0.5
2363 0.5
-2363 0.5
2364 0.5
-2364 0.5
2365 0.541589
-2365 0.458411
2366 0.921158
-2366 0.078842
2367 0.282109
-2367 0.717891
2368 0.958996
-2368 0.041004
2369 0.5
-2369 0.5
2370 0.5
-2370 0.5
2371 0.5
-2371 0.5
2372 0.5
-2372 0.5
2373 0.789564
-2373 0.210436
2374 0.70902
-2374 0.29098
2375 0.467044
-2375 0.532956
2376 0.176604
-2376 0.823396
2377 0.5
-2377 0.5
2378 0.5
-2378 0.5
2379 0.5
-2379 0.5
2380 0.5
-2380 0.5
2381 0.5
-2381 0.5
2382 0.5
-2382 0.5
2383 0.5
-2383 0.5
2384 0.5
-2384 0.5
2385 0.5
-2385 0.5
2386 0.5
-2386 0.5
2387 0.5
-2387 0.5
2388 0.5
-2388 0.5
2389 0.5
-2389 0.5
2390 0.5
-2390 0.5
2391 0.5
-2391 0.5
2392 0.5
-2392 0.5
2393 0.5
-2393 0.5
2394 0.5
-2394 0.5
2395 0.5
-2395 0.5
2396 0.5
-2396 0.5
2397 0.5
-2397 0.5
2398 0.5
-2398 0.5
2399 0.5
-2399 0.5
2400 0.5
-2400 0.5
2401 0.5
-2401 0.5
2402 0.5
-2402 0.5
2403 0.5
-2403 0.5
2404 0.5
-2404 0.5
2405 0.5
-2405 0.5
2406 0.5
-2406 0.5
2407 0.5
-2407 0.5
2408 0.5
-2408 0.5
2409 0.294412
-2409 0.705588
2410 0.896297
-2410 0.103703
2411 0.934
-2411 0.066
2412 0.232414
-2412 0.767586
2413 0.5
-2413 0.5
2414 0.5
-2414 0.5
2415 0.5
-2415 0.5
2416 0.5
-2416 0.5
2417 0.5
-2417 0.5
2418 0.5
-2418 0.5
2419 0.5
-2419 0.5
2420 0.5
-2420 0.5
2421 0.5
-2421 0.5
2422 0.5
-2422 0.5
2423 0.5
-2423 0.5
2424 0.5
-2424 0.5
2425 0.5
-2425 0.5
2426 0.5
-2426 0.5
2427 0.5
-2427 0.5
2428 0.5
-2428 0.5
2429 0.5
-2429 0.5
2430 0.5
-2430 0.5
2431 0.5
-2431 0.5
2432 0.5
-2432 0.5
2433 0.5
-2433 0.5
2434 0.5
-2434 0.5
2435 0.5
-2435 0.5
2436 0.5
-2436 0.5
2437 0.5
-2437 0.5
2438 0.5
-2438 0.5
2439 0.5
-2439 0.5
2440 0.5
-2440 0.5
2441 0.5
-2441 0.5
2442 0.5
-2442 0.5
2443 0.5
-2443 0.5
2444 0.5
-2444 0.5
2445 0.5
-2445 0.5
2446 0.5
-2446 0.5
2447 0.5
-2447 0.5
2448 0.5
-2448 0.5
2449 0.5
-2449 0.5
2450 0.5
-2450 0.5
2451 0.5
-2451 0.5
2452 0.5
-2452 0.5
2453 0.5
-2453 0.5
2454 0.5
-2454 0.5
2455 0.5
-2455 0.5
2456 0.5
-2456 0.5
2457 0.5
-2457 0.5
2458 0.5
-2458 0.5
2459 0.5
-2459 0.5
2460 0.5
-2460 0.5
2461 0.5
-2461 0.5
2462 0.5
-2462 0.5
2463 0.5
-2463 0.5
2464 0.5
-2464 0.5
2465 0.5
-2465 0.5
2466 0.5
-2466 0.5
2467 0.5
-2467 0.5
2468 0.5
-2468 0.5
2469 0.5
-2469 0.5
2470 0.5
-2470 0.5
2471 0.5
-2471 0.5
2472 0.5
-2472 0.5
2473 0.5
-2473 0.5
2474 0.5
-2474 0.5
2475 0.5
-2475 0.5
2476 0.5
-2476 0.5
2477 0.5
-2477 0.5
2478 0.5
-2478 0.5
2479 0.5
-2479 0.5
2480 0.5
-2480 0.5
2481 0.5
-2481 0.5
2482 0.5
-2482 0.5
2483 0.5
-2483 0.5
2484 0.5
-2484 0.5
2485 0.5
-2485 0.5
2486 0.5
-2486 0.5
2487 0.5
-2487 0.5
2488 0.5
-2488 0.5
2489 0.5
-2489 0.5
2490 0.5
-2490 0.5
2491 0.5
-2491 0.5
2492 0.5
-2492 0.5
2493 0.5
-2493 0.5
2494 0.5
-2494 0.5
2495 0.5
-2495 0.5
2496 0.5
-2496 0.5
2497 0.5
-2497 0.5
2498 0.5
-2498 0.5
2499 0.5
-2499 0.5
2500 0.5
-2500 0.5
2501 0.5
-2501 0.5
2502 0.5
-2502 0.5
2503 0.5
-2503 0.5
2504 0.5
-2504 0.5
2505 0.5
-2505 0.5
2506 0.5
-2506 0.5
2507 0.5
-2507 0.5
2508 0.5
-2508 0.5
2509 0.5
-2509 0.5
2510 0.5
-2510 0.5
2511 0.5
-2511 0.5
2512 0.5
-2512 0.5
2513 0.5
-2513 0.5
2514 0.5
-2514 0.5
2515 0.5
-2515 0.5
2516 0.5
-2516 0.5
2517 0.5
-2517 0.5
2518 0.5
-2518 0.5
2519 0.5
-2519 0.5
2520 0.5
-2520 0.5
2521 0.5
-2521 0.5
2522 0.5
-2522 0.5
2523 0.5
-2523 0.5
2524 0.5
-2524 0.5
2525 0.5
-2525 0.5
2526 0.5
-2526 0.5
2527 0.5
-2527 0.5
2528 0.5
-2528 0.5
2529 0.5
-2529 0.5
2530 0.5
-2530 0.5
2531 0.5
-2531 0.5
2532 0.5
-2532 0.5
2533 0.5
-2533 0.5
2534 0.5
-2534 0.5
2535 0.5
-2535 0.5
2536 0.5
-2536 0.5
2537 0.5
-2537 0.5
2538 0.5
-2538 0.5
2539 0.5
-2539 0.5
2540 0.5
-2540 0.5
2541 0.5
-2541 0.5
2542 0.5
-2542 0.5
2543 0.5
-2543 0.5
2544 0.5
-2544 0.5
2545 0.5
-2545 0.5
2546 0.5
-2546 0.5
2547 0.5
-2547 0.5
2548 0.5
-2548 0.5
2549 0.5
-2549 0.5
2550 0.5
-2550 0.5
2551 0.5
-2551 0.5
2552 0.5
-2552 0.5
2553 0.5
-2553 0.5
2554 0.5
-2554 0.5
2555 0.5
-2555 0.5
2556 0.5
-2556 0.5
2557 0.5
-2557 0.5
2558 0.5
-2558 0.5
2559 0.5
-2559 0.5
2560 0.5
-2560 0.5
2561 0.5
-2561 0.5
2562 0.5
-2562 0.5
2563 0.5
-2563 0.5
2564 0.5
-2564 0.5
2565 0.5
-2565 0.5
2566 0.5
-2566 0.5
2567 0.5
-2567 0.5
2568 0.5
-2568 0.5
2569 0.5
-2569 0.5
2570 0.5
-2570 0.5
2571 0.5
-2571 0.5
2572 0.5
-2572 0.5
2573 0.5
-2573 0.5
2574 0.5
-2574 0.5
2575 0.5
-2575 0.5
2576 0.5
-2576 0.5
2577 0.288849
-2577 0.711151
2578 0.402967
-2578 0.597033
2579 0.981909
-2579 0.018091
2580 0.691352
-2580 0.308648
2581 0.100133
-2581 0.899867
2582 0.323886
-2582 0.676114
2583 0.936329
-2583 0.063671
2584 0.474847
-2584 0.525153
2585 0.5
-2585 0.5
2586 0.5
-2586 0.5
2587 0.5
-2587 0.5
2588 0.5
-2588 0.5
2589 0.5
-2589 0.5
2590 0.5
-2590 0.5
2591 0.5
-2591 0.5
2592 0.5
-2592 0.5
2593 0.5
-2593 0.5
2594 0.5
-2594 0.5
2595 0.5
-2595 0.5
2596 0.5
-2596 0.5
2597 0.5
-2597 0.5
2598 0.5
-2598 0.5
2599 0.5
-2599 0.5
2600 0.5
-2600 0.5
2601 0.5
-2601 0.5
2602 0.5
-2602 0.5
2603 0.5
-2603 0.5
2604 0.5
-2604 0.5
2605 0.5
-2605 0.5
2606 0.5
-2606 0.5
2607 0.5
-2607 0.5
2608 0.5
-2608 0.5
2609 0.5
-2609 0.5
2610 0.5
-2610 0.5
2611 0.5
-2611 0.5
2612 0.5
-2612 0.5
2613 0.5
-2613 0.5
2614 0.5
-2614 0.5
2615 0.5
-2615 0.5
2616 0.5
-2616 0.5
2617 0.577665
-2617 0.422335
2618 0.923809
-2618 0.076191
2619 0.836541
-2619 0.163459
2620 0.348751
-2620 0.651249
2621 0.5
-2621 0.5
2622 0.5
-2622 0.5
2623 0.5
-2623 0.5
2624 0.5
-2624 0.5
2625 0.5
-2625 0.5
2626 0.5
-2626 0.5
2627 0.5
-2627 0.5
2628 0.5
-2628 0.5
2629 0.5
-2629 0.5
2630 0.5
-2630 0.5
2631 0.5
-2631 0.5
2632 0.5
-2632 0.5
2633 0.5
-2633 0.5
2634 0.5
-2634 0.5
2635 0.5
-2635 0.5
2636 0.5
-2636 0.5
2637 0.850529
-2637 0.149471
2638 0.470176
-2638 0.529824
2639 0.013187
-2639 0.986813
2640 0.984535
-2640 0.015465
2641 0.5
-2641 0.5
2642 0.5
-2642 0.5
2643 0.5
-2643 0.5
2644 0.5
-2644 0.5
2645 0.817415
-2645 0.182585
2646 0.671216
-2646 0.328784
2647 0.674756
-2647 0.325244
2648 0.586794
-2648 0.413206
2649 0.5
-2649 0.5
2650 0.5
-2650 0.5
2651 0.5
-2651 0.5
2652 0.5
-2652 0.5
2653 0.5
-2653 0.5
2654 0.5
-2654 0.5
2655 0.5
-2655 0.5
2656 0.5
-2656 0.5
2657 0.5
-2657 0.5
2658 0.5
-2658 0.5
2659 0.5
-2659 0.5
2660 0.5
-2660 0.5
2661 0.492425
-2661 0.507575
2662 0.890718
-2662 0.109282
2663 0.260824
-2663 0.739176
2664 0.505612
-2664 0.494388
2665 0.739711
-2665 0.260289
2666 0.484516
-2666 0.515484
2667 0.5
-2667 0.5
2668 0.5
-2668 0.5
2669 0.5
-2669 0.5
2670 0.5
-2670 0.5
2671 0.023159
-2671 0.976841
2672 0.546616
-2672 0.453384
2673 0.409615
-2673 0.590385
2674 0.895549
-2674 0.104451
2675 0.5
-2675 0.5
2676 0.5
-2676 0.5
2677 0.5
-2677 0.5
2678 0.5
-2678 0.5
2679 0.07471
-2679 0.92529
2680 0.690781
-2680 0.309219
2681 0.014582
-2681 0.985418
2682 0.460787
-2682 0.539213
2683 0.5
-2683 0.5
2684 0.5
-2684 0.5
2685 0.5
-2685 0.5
2686 0.5
-2686 0.5
2687 0.5
-2687 0.5
2688 0.5
-2688 0.5
2689 0.5
-2689 0.5
2690 0.5
-2690 0.5
2691 0.5
-2691 0.5
2692 0.5
-2692 0.5
2693 0.5
-2693 0.5
2694 0.5
-2694 0.5
2695 0.5
-2695 0.5
2696 0.5
-2696 0.5
2697 0.5
-2697 0.5
2698 0.5
-2698 0.5
2699 0.904919
-2699 0.095081
2700 0.175069
-2700 0.824931
2701 0.65976
-2701 0.34024
2702 0.786442
-2702 0.213558
2703 0.5
-2703 0.5
2704 0.5
-2704 0.5
2705 0.5
-2705 0.5
2706 0.5
-2706 0.5
2707 0.5
-2707 0.5
2708 0.5
-2708 0.5
2709 0.5
-2709 0.5
2710 0.5
-2710 0.5
2711 0.5
-2711 0.5
2712 0.5
-2712 0.5
2713 0.5
-2713 0.5
2714 0.5
-2714 0.5
2715 0.5
-2715 0.5
2716 0.5
-2716 0.5
2717 0.5
-2717 0.5
2718 0.5
-2718 0.5
2719 0.5
-2719 0.5
2720 0.5
-2720 0.5
2721 0.5
-2721 0.5
2722 0.5
-2722 0.5
2723 0.5
-2723 0.5
2724 0.5
-2724 0.5
2725 0.5
-2725 0.5
2726 0.5
-2726 0.5
2727 0.5
-2727 0.5
2728 0.5
-2728 0.5
2729 0.5
-2729 0.5
2730 0.5
-2730 0.5
2731 0.5
-2731 0.5
2732 0.5
-2732 0.5
2733 0.5
-2733 0.5
2734 0.5
-2734 0.5
2735 0.5
-2735 0.5
2736 0.5
-2736 0.5
2737 0.5
-2737 0.5
2738 0.5
-2738 0.5
2739 0.5
-2739 0.5
2740 0.5
-2740 0.5
2741 0.5
-2741 0.5
2742 0.5
-2742 0.5
2743 0.799952
-2743 0.200048
2744 0.396834
-2744 0.603166
2745 0.795588
-2745 0.204412
2746 0.086184
-2746 0.913816
2747 0.773892
-2747 0.226108
2748 0.032176
-2748 0.967824
2749 0.327085
-2749 0.672915
2750 0.431234
-2750 0.568766
2751 0.5
-2751 0.5
2752 0.5
-2752 0.5
2753 0.5
-2753 0.5
2754 0.5
-2754 0.5
2755 0.5
-2755 0.5
2756 0.5
-2756 0.5
2757 0.5
-2757 0.5
2758 0.5
-2758 0.5
2759 0.5
-2759 0.5
2760 0.5
-2760 0.5
2761 0.5
-2761 0.5
2762 0.5
-2762 0.5
2763 0.5
-2763 0.5
2764 0.5
-2764 0.5
2765 0.5
-2765 0.5
2766 0.5
-2766 0.5
2767 0.5
-2767 0.5
2768 0.5
-2768 0.5
2769 0.397691
-2769 0.602309
2770 0.709697
-2770 0.290303
2771 0.74354
-2771 0.25646
2772 0.171583
-2772 0.828417
2773 0.5
-2773 0.5
2774 0.5
-2774 0.5
2775 0.5
-2775 0.5
2776 0.5
-2776 0.5
2777 0.5
-2777 0.5
2778 0.5
-2778 0.5
2779 0.5
-2779 0.5
2780 0.5
-2780 0.5
2781 0.5
-2781 0.5
2782 0.5
-2782 0.5
2783 0.5
-2783 0.5
2784 0.5
-2784 0.5
2785 0.280801
-2785 0.719199
2786 0.450522
-2786 0.549478
2787 0.518173
-2787 0.481827
2788 0.619131
-2788 0.380869
2789 0.5
-2789 0.5
2790 0.5
-2790 0.5
2791 0.5
-2791 0.5
2792 0.5
-2792 0.5
2793 0.5
-2793 0.5
2794 0.5
-2794 0.5
2795 0.5
-2795 0.5
2796 0.5
-2796 0.5
2797 0.5
-2797 0.5
2798 0.5
-2798 0.5
2799 0.5
-2799 0.5
2800 0.5
-2800 0.5
2801 0.5
-2801 0.5
2802 0.5
-2802 0.5
2803 0.5
-2803 0.5
2804 0.5
-2804 0.5
2805 0.5
-2805 0.5
2806 0.5
-2806 0.5
2807 0.5
-2807 0.5
2808 0.5
-2808 0.5
2809 0.966607
-2809 0.033393
2810 0.015371
-2810 0.984629
2811 0.361981
-2811 0.638019
2812 0.484781
-2812 0.515219
2813 0.5
-2813 0.5
2814 0.5
-2814 0.5
2815 0.5
-2815 0.5
2816 0.5
-2816 0.5
2817 0.5
-2817 0.5
2818 0.5
-2818 0.5
2819 0.5
-2819 0.5
2820 0.5
-2820 0.5
2821 0.437075
-2821 0.562925
2822 0.249162
-2822 0.750838
2823 0.671866
-2823 0.328134
2824 0.149937
-2824 0.850063
2825 0.635196
-2825 0.364804
2826 0.421771
-2826 0.578229
2827 0.319965
-2827 0.680035
2828 0.714661
-2828 0.285339
2829 0.5
-2829 0.5
2830 0.5
-2830 0.5
2831 0.5
-2831 0.5
2832 0.5
-2832 0.5
2833 0.5
-2833 0.5
2834 0.5
-2834 0.5
2835 0.5
-2835 0.5
2836 0.5
-2836 0.5
2837 0.5
-2837 0.5
2838 0.5
-2838 0.5
2839 0.5
-2839 0.5
2840 0.5
-2840 0.5
2841 0.5
-2841 0.5
2842 0.5
-2842 0.5
2843 0.5
-2843 0.5
2844 0.5
-2844 0.5
2845 0.5
-2845 0.5
2846 0.5
-2846 0.5
2847 0.5
-2847 0.5
2848 0.5
-2848 0.5
2849 0.345905
-2849 0.654095
2850 0.676605
-2850 0.323395
2851 0.398705
-2851 0.601295
2852 0.665869
-2852 0.334131
2853 0.5
-2853 0.5
2854 0.5
-2854 0.5
2855 0.5
-2855 0.5
2856 0.5
-2856 0.5
2857 0.5
-2857 0.5
2858 0.5
-2858 0.5
2859 0.5
-2859 0.5
2860 0.5
-2860 0.5
2861 0.795342
-2861 0.204658
2862 0.450655
-2862 0.549345
2863 0.324405
-2863 0.675595
2864 0.587911
-2864 0.412089
2865 0.5
-2865 0.5
2866 0.5
-2866 0.5
2867 0.5
-2867 0.5
2868 0.5
-2868 0.5
2869 0.5
-2869 0.5
2870 0.5
-2870 0.5
2871 0.5
-2871 0.5
2872 0.5
-2872 0.5
2873 0.5
-2873 0.5
2874 0.5
-2874 0.5
2875 0.5
-2875 0.5
2876 0.5
-2876 0.5
2877 0.5
-2877 0.5
2878 0.5
-2878 0.5
2879 0.716444
-2879 0.283556
2880 0.757194
-2880 0.242806
2881 0.569869
-2881 0.430131
2882 0.656445
-2882 0.343555
2883 0.5
-2883 0.5
2884 0.5
-2884 0.5
2885 0.5
-2885 0.5
2886 0.5
-2886 0.5
2887 0.5
-2887 0.5
2888 0.5
-2888 0.5
2889 0.5
-2889 0.5
2890 0.5
-2890 0.5
2891 0.5
-2891 0.5
2892 0.5
-2892 0.5
2893 0.5
-2893 0.5
2894 0.5
-2894 0.5
2895 0.984376
-2895 0.015624
2896 0.039121
-2896 0.960878
2897 0.259859
-2897 0.740141
2898 0.144021
-2898 0.855979
2899 0.5
-2899 0.5
2900 0.5
-2900 0.5
2901 0.5
-2901 0.5
2902 0.5
-2902 0.5
2903 0.5
-2903 0.5
2904 0.5
-2904 0.5
2905 0.5
-2905 0.5
2906 0.5
-2906 0.5
2907 0.5
-2907 0.5
2908 0.5
-2908 0.5
2909 0.5
-2909 0.5
2910 0.5
-2910 0.5
2911 0.5
-2911 0.5
2912 0.5
-2912 0.5
2913 0.5
-2913 0.5
2914 0.5
-2914 0.5
2915 0.5
-2915 0.5
2916 0.5
-2916 0.5
2917 0.5
-2917 0.5
2918 0.5
-2918 0.5
2919 0.5
-2919 0.5
2920 0.5
-2920 0.5
2921 0.5
-2921 0.5
2922 0.5
-2922 0.5
2923 0.138943
-2923 0.861057
2924 0.685432
-2924 0.314568
2925 0.978557
-2925 0.021443
2926 0.796789
-2926 0.203211
2927 0.5
-2927 0.5
2928 0.5
-2928 0.5
2929 0.5
-2929 0.5
2930 0.5
-2930 0.5
2931 0.206141
-2931 0.793859
2932 0.943462
-2932 0.056538
2933 0.50548
-2933 0.49452
2934 0.939415
-2934 0.060585
2935 0.5
-2935 0.5
2936 0.5
-2936 0.5
2937 0.5
-2937 0.5
2938 0.5
-2938 0.5
2939 0.873437
-2939 0.126563
2940 0.249826
-2940 0.750174
2941 0.141747
-2941 0.858253
2942 0.953107
-2942 0.046893
2943 0.5
-2943 0.5
2944 0.5
-2944 0.5
2945 0.5
-2945 0.5
2946 0.5
-2946 0.5
2947 0.49482
-2947 0.50518
2948 0.744308
-2948 0.255692
2949 0.573863
-2949 0.426137
2950 0.473377
-2950 0.526623
2951 0.5
-2951 0.5
2952 0.5
-2952 0.5
2953 0.5
-2953 0.5
2954 0.5
-2954 0.5
2955 0.5
-2955 0.5
2956 0.5
-2956 0.5
2957 0.5
-2957 0.5
2958 0.5
-2958 0.5
2959 0.5
-2959 0.5
2960 0.5
-2960 0.5
2961 0.5
-2961 0.5
2962 0.5
-2962 0.5
2963 0.750593
-2963 0.249407
2964 0.923364
-2964 0.076636
2965 0.140658
-2965 0.859342
2966 0.892341
-2966 0.107659
2967 0.390268
-2967 0.609732
2968 0.193886
-2968 0.806114
2969 0.948371
-2969 0.051629
2970 0.899521
-2970 0.100479
2971 0.836802
-2971 0.163198
2972 0.394341
-2972 0.605659
2973 0.5
-2973 0.5
2974 0.5
-2974 0.5
2975 0.5
-2975 0.5
2976 0.5
-2976 0.5
2977 0.5
-2977 0.5
2978 0.5
-2978 0.5
2979 0.5
-2979 0.5
2980 0.5
-2980 0.5
2981 0.5
-2981 0.5
2982 0.5
-2982 0.5
2983 0.5
-2983 0.5
2984 0.5
-2984 0.5
2985 0.5
-2985 0.5
2986 0.5
-2986 0.5
2987 0.5
-2987 0.5
2988 0.5
-2988 0.5
2989 0.5
-2989 0.5
2990 0.5
-2990 0.5
2991 0.5
-2991 0.5
2992 0.5
-2992 0.5
2993 0.5
-2993 0.5
2994 0.5
-2994 0.5
2995 0.5
-2995 0.5
2996 0.5
-2996 0.5
2997 0.5
-2997 0.5
2998 0.5
-2998 0.5
2999 0.5
-2999 0.5
3000 0.5
-3000 0.5
3001 0.5
-3001 0.5
3002 0.5
-3002 0.5
3003 0.5
-3003 0.5
3004 0.5
-3004 0.5
3005 0.5
-3005 0.5
3006 0.5
-3006 0.5
3007 0.5
-3007 0.5
3008 0.5
-3008 0.5
3009 0.191517
-3009 0.808483
3010 0.616809
-3010 0.383191
3011 0.146507
-3011 0.853493
3012 0.867048
-3012 0.132952
3013 0.5
-3013 0.5
3014 0.5
-3014 0.5
3015 0.5
-3015 0.5
3016 0.5
-3016 0.5
3017 0.473285
-3017 0.526715
3018 0.650997
-3018 0.349003
3019 0.2566
-3019 0.7434
3020 0.882888
-3020 0.117112
3021 0.5
-3021 0.5
3022 0.5
-3022 0.5
3023 0.5
-3023 0.5
3024 0.5
-3024 0.5
3025 0.5
-3025 0.5
3026 0.5
-3026 0.5
3027 0.5
-3027 0.5
3028 0.5
-3028 0.5
3029 0.5
-3029 0.5
3030 0.5
-3030 0.5
3031 0.5
-3031 0.5
3032 0.5
-3032 0.5
3033 0.964435
-3033 0.035565
3034 0.261663
-3034 0.738337
3035 0.13976
-3035 0.86024
3036 0.216764
-3036 0.783236
3037 0.5
-3037 0.5
3038 0.5
-3038 0.5
3039 0.5
-3039 0.5
3040 0.5
-3040 0.5
3041 0.953957
-3041 0.046043
3042 0.713315
-3042 0.286685
3043 0.86118
-3043 0.13882
3044 0.114167
-3044 0.885833
3045 0.5
-3045 0.5
3046 0.5
-3046 0.5
3047 0.5
-3047 0.5
3048 0.5
-3048 0.5
3049 0.5
-3049 0.5
3050 0.5
-3050 0.5
3051 0.5
-3051 0.5
3052 0.5
-3052 0.5
3053 0.615012
-3053 0.384988
3054 0.272134
-3054 0.727866
3055 0.609615
-3055 0.390385
3056 0.009627
-3056 0.990373
3057 0.5
-3057 0.5
3058 0.5
-3058 0.5
3059 0.5
-3059 0.5
3060 0.5
-3060 0.5
3061 0.559616
-3061 0.440384
3062 0.552141
-3062 0.447859
3063 0.878223
-3063 0.121777
3064 0.979415
-3064 0.020585
3065 0.5
-3065 0.5
3066 0.5
-3066 0.5
3067 0.5
-3067 0.5
3068 0.5
-3068 0.5
3069 0.5
-3069 0.5
3070 0.5
-3070 0.5
3071 0.5
-3071 0.5
3072 0.5
-3072 0.5
3073 0.5
-3073 0.5
3074 0.5
-3074 0.5
3075 0.5
-3075 0.5
3076 0.5
-3076 0.5
3077 0.5
-3077 0.5
3078 0.5
-3078 0.5
3079 0.2526
-3079 0.7474
3080 0.934865
-3080 0.065135
3081 0.512981
-3081 0.487019
3082 0.52389
-3082 0.47611
3083 0.5
-3083 0.5
3084 0.5
-3084 0.5
3085 0.5
-3085 0.5
3086 0.5
-3086 0.5
3087 0.842825
-3087 0.157175
3088 0.436914
-3088 0.563086
3089 0.661794
-3089 0.338206
3090 0.535556
-3090 0.464444
3091 0.5
-3091 0.5
3092 0.5
-3092 0.5
3093 0.5
-3093 0.5
3094 0.5
-3094 0.5
3095 0.5
-3095 0.5
3096 0.5
-3096 0.5
3097 0.5
-3097 0.5
3098 0.5
-3098 0.5
3099 0.5
-3099 0.5
3100 0.5
-3100 0.5
3101 0.5
-3101 0.5
3102 0.5
-3102 0.5
3103 0.5
-3103 0.5
3104 0.5
-3104 0.5
3105 0.5
-3105 0.5
3106 0.5
-3106 0.5
3107 0.5
-3107 0.5
3108 0.5
-3108 0.5
3109 0.5
-3109 0.5
3110 0.5
-3110 0.5
3111 0.5
-3111 0.5
3112 0.5
-3112 0.5
3113 0.5
-3113 0.5
3114 0.5
-3114 0.5
3115 0.5
-3115 0.5
3116 0.5
-3116 0.5
3117 0.5
-3117 0.5
3118 0.5
-3118 0.5
3119 0.009757
-3119 0.990243
3120 0.179307
-3120 0.820693
3121 0.847346
-3121 0.152654
3122 0.024036
-3122 0.975963
3123 0.5
-3123 0.5
3124 0.5
-3124 0.5
3125 0.5
-3125 0.5
3126 0.5
-3126 0.5
3127 0.5
-3127 0.5
3128 0.5
-3128 0.5
3129 0.5
-3129 0.5
3130 0.5
-3130 0.5
3131 0.544973
-3131 0.455027
3132 0.532817
-3132 0.467183
3133 0.43244
-3133 0.56756
3134 0.507687
-3134 0.492313
3135 0.5
-3135 0.5
3136 0.5
-3136 0.5
3137 0.5
-3137 0.5
3138 0.5
-3138 0.5
3139 0.5
-3139 0.5
3140 0.5
-3140 0.5
3141 0.5
-3141 0.5
3142 0.5
-3142 0.5
3143 0.5
-3143 0.5
3144 0.5
-3144 0.5
3145 0.5
-3145 0.5
3146 0.5
-3146 0.5
3147 0.5
-3147 0.5
3148 0.5
-3148 0.5
3149 0.5
-3149 0.5
3150 0.5
-3150 0.5
3151 0.5
-3151 0.5
3152 0.5
-3152 0.5
3153 0.5
-3153 0.5
3154 0.5
-3154 0.5
3155 0.5
-3155 0.5
3156 0.5
-3156 0.5
3157 0.5
-3157 0.5
3158 0.5
-3158 0.5
3159 0.5
-3159 0.5
3160 0.5
-3160 0.5
3161 0.5
-3161 0.5
3162 0.5
-3162 0.5
3163 0.42111
-3163 0.57889
3164 0.68956
-3164 0.31044
3165 0.752158
-3165 0.247842
3166 0.698095
-3166 0.301905
3167 0.534407
-3167 0.465593
3168 0.984837
-3168 0.015163
3169 0.219379
-3169 0.780621
3170 0.164002
-3170 0.835998
3171 0.5
-3171 0.5
3172 0.5
-3172 0.5
3173 0.5
-3173 0.5
3174 0.5
-3174 0.5
3175 0.5
-3175 0.5
3176 0.5
-3176 0.5
3177 0.691991
-3177 0.308009
3178 0.07684
-3178 0.92316
3179 0.795303
-3179 0.204697
3180 0.010569
-3180 0.989431
3181 0.5
-3181 0.5
3182 0.5
-3182 0.5
3183 0.5
-3183 0.5
3184 0.5
-3184 0.5
3185 0.5
-3185 0.5
3186 0.5
-3186 0.5
3187 0.5
-3187 0.5
3188 0.5
-3188 0.5
3189 0.5
-3189 0.5
3190 0.5
-3190 0.5
3191 0.5
-3191 0.5
3192 0.5
-3192 0.5
3193 0.5
-3193 0.5
3194 0.5
-3194 0.5
3195 0.5
-3195 0.5
3196 0.5
-3196 0.5
3197 0.011312
-3197 0.988688
3198 0.924418
-3198 0.075582
3199 0.159151
-3199 0.840849
3200 0.313911
-3200 0.686089
3201 0.5
-3201 0.5
3202 0.5
-3202 0.5
3203 0.5
-3203 0.5
3204 0.5
-3204 0.5
3205 0.843145
-3205 0.156855
3206 0.623298
-3206 0.376702
3207 0.009759
-3207 0.990241
3208 0.803538
-3208 0.196462
3209 0.37284
-3209 0.62716
3210 0.441164
-3210 0.558836
3211 0.497497
-3211 0.502503
3212 0.530371
-3212 0.469629
3213 0.5
-3213 0.5
3214 0.5
-3214 0.5
3215 0.5
-3215 0.5
3216 0.5
-3216 0.5
3217 0.998402
-3217 0.001598
3218 0.278796
-3218 0.721204
3219 0.492251
-3219 0.507749
3220 0.035687
-3220 0.964313
3221 0.5
-3221 0.5
3222 0.5
-3222 0.5
3223 0.5
-3223 0.5
3224 0.5
-3224 0.5
3225 0.5
-3225 0.5
3226 0.5
-3226 0.5
3227 0.5
-3227 0.5
3228 0.5
-3228 0.5
3229 0.5
-3229 0.5
3230 0.5
-3230 0.5
3231 0.5
-3231 0.5
3232 0.5
-3232 0.5
3233 0.921063
-3233 0.078937
3234 0.63749
-3234 0.36251
3235 0.259644
-3235 0.740356
3236 0.451434
-3236 0.548566
3237 0.5
-3237 0.5
3238 0.5
-3238 0.5
3239 0.5
-3239 0.5
3240 0.5
-3240 0.5
3241 0.392526
-3241 0.607474
3242 0.230538
-3242 0.769462
3243 0.267898
-3243 0.732102
3244 0.428213
-3244 0.571787
3245 0.5
-3245 0.5
3246 0.5
-3246 0.5
3247 0.5
-3247 0.5
3248 0.5
-3248 0.5
3249 0.028582
-3249 0.971418
3250 0.508995
-3250 0.491005
3251 0.587783
-3251 0.412217
3252 0.578225
-3252 0.421775
3253 0.5
-3253 0.5
3254 0.5
-3254 0.5
3255 0.5
-3255 0.5
3256 0.5
-3256 0.5
3257 0.5
-3257 0.5
3258 0.5
-3258 0.5
3259 0.5
-3259 0.5
3260 0.5
-3260 0.5
3261 0.647098
-3261 0.352902
3262 0.938461
-3262 0.061539
3263 0.336342
-3263 0.663658
3264 0.59884
-3264 0.40116
3265 0.5
-3265 0.5
3266 0.5
-3266 0.5
3267 0.5
-3267 0.5
3268 0.5
-3268 0.5
3269 0.5
-3269 0.5
3270 0.5
-3270 0.5
3271 0.5
-3271 0.5
3272 0.5
-3272 0.5
3273 0.5
-3273 0.5
3274 0.5
-3274 0.5
3275 0.5
-3275 0.5
3276 0.5
-3276 0.5
