1 0.409834
-1 0.590166
2 1.0
-2 1.0
3 1.0
-3 1.0
4 1.0
-4 1.0
5 1.0
-5 1.0
6 1.0
-6 1.0
7 1.0
-7 1.0
8 1.0
-8 1.0
9 1.0
-9 1.0
10 1.0
-10 1.0
11 1.0
-11 1.0
12 1.0
-12 1.0
13 1.0
-13 1.0
14 1.0
-14 1.0
15 1.0
-15 1.0
16 1.0
-16 1.0
17 1.0
-17 1.0
18 1.0
-18 1.0
19 1.0
-19 1.0
20 1.0
-20 1.0
21 1.0
-21 1.0
22 1.0
-22 1.0
23 1.0
-23 1.0
24 1.0
-24 1.0
25 1.0
-25 1.0
26 1.0
-26 1.0
27 1.0
-27 1.0
28 1.0
-28 1.0
29 1.0
-29 1.0
30 1.0
-30 1.0
31 1.0
-31 1.0
32 1.0
-32 1.0
33 1.0
-33 1.0
34 1.0
-34 1.0
35 1.0
-35 1.0
36 1.0
-36 1.0
37 1.0
-37 1.0
38 1.0
-38 1.0
39 1.0
-39 1.0
40 1.0
-40 1.0
41 1.0
-41 1.0
42 1.0
-42 1.0
43 1.0
-43 1.0
44 1.0
-44 1.0
45 1.0
-45 1.0
46 1.0
-46 1.0
47 1.0
-47 1.0
48 1.0
-48 1.0
49 1.0
-49 1.0
50 1.0
-50 1.0
51 1.0
-51 1.0
52 1.0
-52 1.0
53 1.0
-53 1.0
54 1.0
-54 1.0
55 1.0
-55 1.0
56 1.0
-56 1.0
57 1.0
-57 1.0
58 1.0
-58 1.0
59 1.0
-59 1.0
60 1.0
-60 1.0
61 1.0
-61 1.0
62 1.0
-62 1.0
63 1.0
-63 1.0
64 1.0
-64 1.0
65 1.0
-65 1.0
66 1.0
-66 1.0
67 1.0
-67 1.0
68 1.0
-68 1.0
69 1.0
-69 1.0
70 1.0
-70 1.0
71 1.0
-71 1.0
72 1.0
-72 1.0
73 1.0
-73 1.0
74 1.0
-74 1.0
75 1.0
-75 1.0
76 1.0
-76 1.0
77 1.0
-77 1.0
78 1.0
-78 1.0
79 1.0
-79 1.0
80 1.0
-80 1.0
81 1.0
-81 1.0
82 1.0
-82 1.0
83 1.0
-83 1.0
84 1.0
-84 1.0
85 1.0
-85 1.0
86 1.0
-86 1.0
87 1.0
-87 1.0
88 1.0
-88 1.0
89 1.0
-89 1.0
90 1.0
-90 1.0
91 1.0
-91 1.0
92 1.0
-92 1.0
93 1.0
-93 1.0
94 1.0
-94 1.0
95 1.0
-95 1.0
96 1.0
-96 1.0
97 1.0
-97 1.0
98 1.0
-98 1.0
99 1.0
-99 1.0
100 1.0
-100 1.0
101 1.0
-101 1.0
102 1.0
-102 1.0
103 1.0
-103 1.0
104 1.0
-104 1.0
105 1.0
-105 1.0
106 1.0
-106 1.0
107 1.0
-107 1.0
108 1.0
-108 1.0
109 1.0
-109 1.0
110 1.0
-110 1.0
111 1.0
-111 1.0
112 1.0
-112 1.0
113 1.0
-113 1.0
114 1.0
-114 1.0
115 1.0
-115 1.0
116 1.0
-116 1.0
117 1.0
-117 1.0
118 1.0
-118 1.0
119 1.0
-119 1.0
120 1.0
-120 1.0
121 1.0
-121 1.0
122 1.0
-122 1.0
123 1.0
-123 1.0
124 1.0
-124 1.0
125 1.0
-125 1.0
126 1.0
-126 1.0
127 1.0
-127 1.0
128 1.0
-128 1.0
129 1.0
-129 1.0
130 1.0
-130 1.0
131 1.0
-131 1.0
132 1.0
-132 1.0
133 1.0
-133 1.0
134 1.0
-134 1.0
135 1.0
-135 1.0
136 1.0
-136 1.0
137 1.0
-137 1.0
138 1.0
-138 1.0
139 1.0
-139 1.0
140 1.0
-140 1.0
141 1.0
-141 1.0
142 1.0
-142 1.0
143 1.0
-143 1.0
144 1.0
-144 1.0
145 1.0
-145 1.0
146 1.0
-146 1.0
147 1.0
-147 1.0
148 1.0
-148 1.0
149 1.0
-149 1.0
150 1.0
-150 1.0
151 1.0
-151 1.0
152 1.0
-152 1.0
153 1.0
-153 1.0
154 1.0
-154 1.0
155 1.0
-155 1.0
156 1.0
-156 1.0
157 1.0
-157 1.0
158 1.0
-158 1.0
159 1.0
-159 1.0
160 1.0
-160 1.0
161 1.0
-161 1.0
162 1.0
-162 1.0
163 1.0
-163 1.0
164 1.0
-164 1.0
165 1.0
-165 1.0
166 1.0
-166 1.0
167 1.0
-167 1.0
168 1.0
-168 1.0
169 1.0
-169 1.0
170 1.0
-170 1.0
171 1.0
-171 1.0
172 1.0
-172 1.0
173 1.0
-173 1.0
174 1.0
-174 1.0
175 1.0
-175 1.0
176 1.0
-176 1.0
177 1.0
-177 1.0
178 1.0
-178 1.0
179 1.0
-179 1.0
180 1.0
-180 1.0
181 1.0
-181 1.0
182 1.0
-182 1.0
183 1.0
-183 1.0
184 1.0
-184 1.0
185 1.0
-185 1.0
186 1.0
-186 1.0
187 1.0
-187 1.0
188 1.0
-188 1.0
189 1.0
-189 1.0
190 1.0
-190 1.0
191 1.0
-191 1.0
192 1.0
-192 1.0
193 1.0
-193 1.0
194 1.0
-194 1.0
195 1.0
-195 1.0
196 1.0
-196 1.0
197 1.0
-197 1.0
198 1.0
-198 1.0
199 1.0
-199 1.0
200 1.0
-200 1.0
201 1.0
-201 1.0
202 1.0
-202 1.0
203 1.0
-203 1.0
204 1.0
-204 1.0
205 1.0
-205 1.0
206 1.0
-206 1.0
207 1.0
-207 1.0
208 1.0
-208 1.0
209 1.0
-209 1.0
210 1.0
-210 1.0
211 1.0
-211 1.0
212 1.0
-212 1.0
213 1.0
-213 1.0
214 1.0
-214 1.0
215 1.0
-215 1.0
216 1.0
-216 1.0
217 1.0
-217 1.0
218 1.0
-218 1.0
219 1.0
-219 1.0
220 1.0
-220 1.0
221 1.0
-221 1.0
222 1.0
-222 1.0
223 1.0
-223 1.0
224 1.0
-224 1.0
225 1.0
-225 1.0
226 1.0
-226 1.0
227 1.0
-227 1.0
228 1.0
-228 1.0
229 1.0
-229 1.0
230 1.0
-230 1.0
231 1.0
-231 1.0
232 1.0
-232 1.0
233 1.0
-233 1.0
234 1.0
-234 1.0
235 1.0
-235 1.0
236 1.0
-236 1.0
237 1.0
-237 1.0
238 1.0
-238 1.0
239 1.0
-239 1.0
240 1.0
-240 1.0
241 1.0
-241 1.0
242 1.0
-242 1.0
243 1.0
-243 1.0
244 1.0
-244 1.0
245 1.0
-245 1.0
246 1.0
-246 1.0
247 1.0
-247 1.0
248 1.0
-248 1.0
249 1.0
-249 1.0
250 1.0
-250 1.0
251 1.0
-251 1.0
252 1.0
-252 1.0
253 1.0
-253 1.0
254 1.0
-254 1.0
255 1.0
-255 1.0
256 1.0
-256 1.0
257 1.0
-257 1.0
258 1.0
-258 1.0
259 1.0
-259 1.0
260 1.0
-260 1.0
261 1.0
-261 1.0
262 1.0
-262 1.0
263 1.0
-263 1.0
264 1.0
-264 1.0
265 1.0
-265 1.0
266 1.0
-266 1.0
267 1.0
-267 1.0
268 1.0
-268 1.0
269 1.0
-269 1.0
270 1.0
-270 1.0
271 1.0
-271 1.0
272 1.0
-272 1.0
273 1.0
-273 1.0
274 1.0
-274 1.0
275 1.0
-275 1.0
276 1.0
-276 1.0
277 1.0
-277 1.0
278 1.0
-278 1.0
279 1.0
-279 1.0
280 1.0
-280 1.0
281 1.0
-281 1.0
282 1.0
-282 1.0
283 1.0
-283 1.0
284 1.0
-284 1.0
285 1.0
-285 1.0
286 1.0
-286 1.0
287 1.0
-287 1.0
288 1.0
-288 1.0
289 1.0
-289 1.0
290 1.0
-290 1.0
291 1.0
-291 1.0
292 1.0
-292 1.0
293 1.0
-293 1.0
294 1.0
-294 1.0
295 1.0
-295 1.0
296 1.0
-296 1.0
297 1.0
-297 1.0
298 1.0
-298 1.0
299 1.0
-299 1.0
300 1.0
-300 1.0
301 1.0
-301 1.0
302 1.0
-302 1.0
303 1.0
-303 1.0
304 1.0
-304 1.0
305 1.0
-305 1.0
306 1.0
-306 1.0
307 1.0
-307 1.0
308 1.0
-308 1.0
309 1.0
-309 1.0
310 1.0
-310 1.0
311 1.0
-311 1.0
312 1.0
-312 1.0
313 1.0
-313 1.0
314 1.0
-314 1.0
315 1.0
-315 1.0
316 1.0
-316 1.0
317 1.0
-317 1.0
318 1.0
-318 1.0
319 1.0
-319 1.0
320 1.0
-320 1.0
321 1.0
-321 1.0
322 1.0
-322 1.0
323 1.0
-323 1.0
324 1.0
-324 1.0
325 1.0
-325 1.0
326 1.0
-326 1.0
327 1.0
-327 1.0
328 1.0
-328 1.0
329 1.0
-329 1.0
330 1.0
-330 1.0
331 1.0
-331 1.0
332 1.0
-332 1.0
333 1.0
-333 1.0
334 1.0
-334 1.0
335 1.0
-335 1.0
336 1.0
-336 1.0
337 1.0
-337 1.0
338 1.0
-338 1.0
339 1.0
-339 1.0
340 1.0
-340 1.0
341 1.0
-341 1.0
342 1.0
-342 1.0
343 1.0
-343 1.0
344 1.0
-344 1.0
345 1.0
-345 1.0
346 1.0
-346 1.0
347 1.0
-347 1.0
348 1.0
-348 1.0
349 1.0
-349 1.0
350 1.0
-350 1.0
351 1.0
-351 1.0
352 1.0
-352 1.0
353 1.0
-353 1.0
354 1.0
-354 1.0
355 1.0
-355 1.0
356 1.0
-356 1.0
357 1.0
-357 1.0
358 1.0
-358 1.0
359 1.0
-359 1.0
360 1.0
-360 1.0
361 1.0
-361 1.0
362 1.0
-362 1.0
363 1.0
-363 1.0
364 1.0
-364 1.0
365 1.0
-365 1.0
366 1.0
-366 1.0
367 1.0
-367 1.0
368 1.0
-368 1.0
369 1.0
-369 1.0
370 1.0
-370 1.0
371 1.0
-371 1.0
372 1.0
-372 1.0
373 1.0
-373 1.0
374 1.0
-374 1.0
375 1.0
-375 1.0
376 1.0
-376 1.0
377 1.0
-377 1.0
378 1.0
-378 1.0
379 1.0
-379 1.0
380 1.0
-380 1.0
381 1.0
-381 1.0
382 1.0
-382 1.0
383 1.0
-383 1.0
384 1.0
-384 1.0
385 1.0
-385 1.0
386 1.0
-386 1.0
387 1.0
-387 1.0
388 1.0
-388 1.0
389 1.0
-389 1.0
390 1.0
-390 1.0
391 1.0
-391 1.0
392 1.0
-392 1.0
393 1.0
-393 1.0
394 1.0
-394 1.0
395 1.0
-395 1.0
396 1.0
-396 1.0
397 1.0
-397 1.0
398 1.0
-398 1.0
399 1.0
-399 1.0
400 1.0
-400 1.0
401 1.0
-401 1.0
402 1.0
-402 1.0
403 1.0
-403 1.0
404 1.0
-404 1.0
405 1.0
-405 1.0
406 1.0
-406 1.0
407 1.0
-407 1.0
408 1.0
-408 1.0
409 1.0
-409 1.0
410 1.0
-410 1.0
411 1.0
-411 1.0
412 1.0
-412 1.0
413 1.0
-413 1.0
414 1.0
-414 1.0
415 1.0
-415 1.0
416 1.0
-416 1.0
417 1.0
-417 1.0
418 1.0
-418 1.0
419 1.0
-419 1.0
420 1.0
-420 1.0
421 1.0
-421 1.0
422 1.0
-422 1.0
423 1.0
-423 1.0
424 1.0
-424 1.0
425 1.0
-425 1.0
426 1.0
-426 1.0
427 1.0
-427 1.0
428 1.0
-428 1.0
429 1.0
-429 1.0
430 1.0
-430 1.0
431 1.0
-431 1.0
432 1.0
-432 1.0
433 1.0
-433 1.0
434 1.0
-434 1.0
435 1.0
-435 1.0
436 1.0
-436 1.0
437 1.0
-437 1.0
438 1.0
-438 1.0
439 1.0
-439 1.0
440 1.0
-440 1.0
441 1.0
-441 1.0
442 1.0
-442 1.0
443 1.0
-443 1.0
444 1.0
-444 1.0
445 1.0
-445 1.0
446 1.0
-446 1.0
447 1.0
-447 1.0
448 1.0
-448 1.0
449 1.0
-449 1.0
450 1.0
-450 1.0
451 1.0
-451 1.0
452 1.0
-452 1.0
453 1.0
-453 1.0
454 1.0
-454 1.0
455 1.0
-455 1.0
456 1.0
-456 1.0
457 1.0
-457 1.0
458 1.0
-458 1.0
459 1.0
-459 1.0
460 1.0
-460 1.0
461 1.0
-461 1.0
462 1.0
-462 1.0
463 1.0
-463 1.0
464 1.0
-464 1.0
465 1.0
-465 1.0
466 1.0
-466 1.0
467 1.0
-467 1.0
468 1.0
-468 1.0
469 1.0
-469 1.0
470 1.0
-470 1.0
471 1.0
-471 1.0
472 1.0
-472 1.0
473 1.0
-473 1.0
474 1.0
-474 1.0
475 1.0
-475 1.0
476 1.0
-476 1.0
477 1.0
-477 1.0
478 1.0
-478 1.0
479 1.0
-479 1.0
480 1.0
-480 1.0
481 1.0
-481 1.0
482 1.0
-482 1.0
483 1.0
-483 1.0
484 1.0
-484 1.0
485 0.5
-485 0.5
486 0.5
-486 0.5
487 0.631606
-487 0.368394
488 0.989872
-488 0.010128
489 0.5
-489 0.5
490 0.5
-490 0.5
491 0.5
-491 0.5
492 0.5
-492 0.5
493 0.5
-493 0.5
494 0.5
-494 0.5
495 0.5
-495 0.5
496 0.5
-496 0.5
497 0.5
-497 0.5
498 0.5
-498 0.5
499 0.5
-499 0.5
500 0.5
-500 0.5
501 0.785555
-501 0.214445
502 0.111775
-502 0.888225
503 0.034043
-503 0.965958
504 0.553118
-504 0.446882
505 0.5
-505 0.5
506 0.5
-506 0.5
507 0.5
-507 0.5
508 0.5
-508 0.5
509 0.5
-509 0.5
510 0.5
-510 0.5
511 0.5
-511 0.5
512 0.5
-512 0.5
513 0.935856
-513 0.064144
514 0.70086
-514 0.29914
515 0.5
-515 0.5
516 0.5
-516 0.5
517 0.5
-517 0.5
518 0.5
-518 0.5
519 0.5
-519 0.5
520 0.5
-520 0.5
521 0.5
-521 0.5
522 0.5
-522 0.5
523 0.5
-523 0.5
524 0.5
-524 0.5
525 0.5
-525 0.5
526 0.5
-526 0.5
527 0.5
-527 0.5
528 0.5
-528 0.5
529 0.46053
-529 0.53947
530 0.191589
-530 0.808411
531 0.661869
-531 0.338131
532 0.494572
-532 0.505428
533 0.5
-533 0.5
534 0.5
-534 0.5
535 0.5
-535 0.5
536 0.5
-536 0.5
537 0.5
-537 0.5
538 0.5
-538 0.5
539 0.5
-539 0.5
540 0.5
-540 0.5
541 0.942367
-541 0.057633
542 0.671015
-542 0.328985
543 0.761089
-543 0.238911
544 0.975352
-544 0.024648
545 0.5
-545 0.5
546 0.5
-546 0.5
547 0.5
-547 0.5
548 0.5
-548 0.5
549 0.653912
-549 0.346088
550 0.317935
-550 0.682065
551 0.673718
-551 0.326282
552 0.328887
-552 0.671113
553 0.5
-553 0.5
554 0.5
-554 0.5
555 0.5
-555 0.5
556 0.5
-556 0.5
557 0.5
-557 0.5
558 0.5
-558 0.5
559 0.5
-559 0.5
560 0.5
-560 0.5
561 0.547952
-561 0.452048
562 0.724601
-562 0.275399
563 0.888219
-563 0.111781
564 0.78946
-564 0.21054
565 0.723581
-565 0.276419
566 0.731827
-566 0.268173
567 0.56006
-567 0.43994
568 0.48467
-568 0.51533
569 0.5
-569 0.5
570 0.5
-570 0.5
571 0.5
-571 0.5
572 0.5
-572 0.5
573 0.5
-573 0.5
574 0.5
-574 0.5
575 0.5
-575 0.5
576 0.5
-576 0.5
577 0.5
-577 0.5
578 0.5
-578 0.5
579 0.5
-579 0.5
580 0.5
-580 0.5
581 0.5
-581 0.5
582 0.5
-582 0.5
583 0.5
-583 0.5
584 0.5
-584 0.5
585 0.5
-585 0.5
586 0.5
-586 0.5
587 0.5
-587 0.5
588 0.5
-588 0.5
589 0.5
-589 0.5
590 0.5
-590 0.5
591 0.5
-591 0.5
592 0.5
-592 0.5
593 0.570642
-593 0.429358
594 0.195028
-594 0.804972
595 0.318005
-595 0.681995
596 0.897843
-596 0.102157
597 0.975137
-597 0.024863
598 0.993177
-598 0.006823
599 0.959496
-599 0.040504
600 0.950204
-600 0.049796
601 0.497574
-601 0.502426
602 0.323019
-602 0.676981
603 0.05233
-603 0.94767
604 0.825068
-604 0.174932
605 0.5
-605 0.5
606 0.5
-606 0.5
607 0.5
-607 0.5
608 0.5
-608 0.5
609 0.5
-609 0.5
610 0.5
-610 0.5
611 0.5
-611 0.5
612 0.5
-612 0.5
613 0.5
-613 0.5
614 0.5
-614 0.5
615 0.5
-615 0.5
616 0.5
-616 0.5
617 0.5
-617 0.5
618 0.5
-618 0.5
619 0.5
-619 0.5
620 0.5
-620 0.5
621 0.5
-621 0.5
622 0.5
-622 0.5
623 0.029715
-623 0.970285
624 0.923412
-624 0.076588
625 0.769951
-625 0.230049
626 0.791943
-626 0.208057
627 0.5
-627 0.5
628 0.5
-628 0.5
629 0.5
-629 0.5
630 0.5
-630 0.5
631 0.5
-631 0.5
632 0.5
-632 0.5
633 0.5
-633 0.5
634 0.5
-634 0.5
635 0.5
-635 0.5
636 0.5
-636 0.5
637 0.5
-637 0.5
638 0.5
-638 0.5
639 0.5
-639 0.5
640 0.5
-640 0.5
641 0.5
-641 0.5
642 0.5
-642 0.5
643 0.5
-643 0.5
644 0.5
-644 0.5
645 0.5
-645 0.5
646 0.5
-646 0.5
647 0.5
-647 0.5
648 0.5
-648 0.5
649 0.5
-649 0.5
650 0.5
-650 0.5
651 0.694856
-651 0.305144
652 0.745255
-652 0.254745
653 0.600145
-653 0.399855
654 0.94091
-654 0.05909
655 0.5
-655 0.5
656 0.5
-656 0.5
657 0.5
-657 0.5
658 0.5
-658 0.5
659 0.5
-659 0.5
660 0.5
-660 0.5
661 0.5
-661 0.5
662 0.5
-662 0.5
663 0.214164
-663 0.785836
664 0.550232
-664 0.449768
665 0.665014
-665 0.334986
666 0.973145
-666 0.026855
667 0.5
-667 0.5
668 0.5
-668 0.5
669 0.5
-669 0.5
670 0.5
-670 0.5
671 0.460163
-671 0.539837
672 0.82791
-672 0.17209
673 0.768965
-673 0.231035
674 0.734033
-674 0.265967
675 0.5
-675 0.5
676 0.5
-676 0.5
677 0.5
-677 0.5
678 0.5
-678 0.5
679 0.5
-679 0.5
680 0.5
-680 0.5
681 0.5
-681 0.5
682 0.5
-682 0.5
683 0.5
-683 0.5
684 0.5
-684 0.5
685 0.5
-685 0.5
686 0.5
-686 0.5
687 0.5
-687 0.5
688 0.5
-688 0.5
689 0.5
-689 0.5
690 0.5
-690 0.5
691 0.5
-691 0.5
692 0.5
-692 0.5
693 0.5
-693 0.5
694 0.5
-694 0.5
695 0.5
-695 0.5
696 0.5
-696 0.5
697 0.5
-697 0.5
698 0.5
-698 0.5
699 0.458516
-699 0.541484
700 0.710418
-700 0.289582
701 0.5
-701 0.5
702 0.5
-702 0.5
703 0.5
-703 0.5
704 0.5
-704 0.5
705 0.552032
-705 0.447968
706 0.464569
-706 0.535431
707 0.579625
-707 0.420375
708 0.082247
-708 0.917753
709 0.5
-709 0.5
710 0.5
-710 0.5
711 0.5
-711 0.5
712 0.5
-712 0.5
713 0.5
-713 0.5
714 0.5
-714 0.5
715 0.5
-715 0.5
716 0.5
-716 0.5
717 0.5
-717 0.5
718 0.5
-718 0.5
719 0.5
-719 0.5
720 0.5
-720 0.5
721 0.5
-721 0.5
722 0.5
-722 0.5
723 0.5
-723 0.5
724 0.5
-724 0.5
725 0.5
-725 0.5
726 0.5
-726 0.5
727 0.5
-727 0.5
728 0.5
-728 0.5
729 0.83382
-729 0.16618
730 0.274772
-730 0.725228
731 0.214921
-731 0.785079
732 0.413445
-732 0.586555
733 0.5
-733 0.5
734 0.5
-734 0.5
735 0.5
-735 0.5
736 0.5
-736 0.5
737 0.5
-737 0.5
738 0.5
-738 0.5
739 0.5
-739 0.5
740 0.5
-740 0.5
741 0.5
-741 0.5
742 0.5
-742 0.5
743 0.5
-743 0.5
744 0.5
-744 0.5
745 0.5
-745 0.5
746 0.5
-746 0.5
747 0.5
-747 0.5
748 0.5
-748 0.5
749 0.5
-749 0.5
750 0.5
-750 0.5
751 0.5
-751 0.5
752 0.5
-752 0.5
753 0.956962
-753 0.043038
754 0.631652
-754 0.368348
755 0.231658
-755 0.768342
756 0.171883
-756 0.828117
757 0.5
-757 0.5
758 0.5
-758 0.5
759 0.5
-759 0.5
760 0.5
-760 0.5
761 0.5
-761 0.5
762 0.5
-762 0.5
763 0.5
-763 0.5
764 0.5
-764 0.5
765 0.5
-765 0.5
766 0.5
-766 0.5
767 0.5
-767 0.5
768 0.5
-768 0.5
769 0.5
-769 0.5
770 0.5
-770 0.5
771 0.5
-771 0.5
772 0.5
-772 0.5
773 0.5
-773 0.5
774 0.5
-774 0.5
775 0.5
-775 0.5
776 0.5
-776 0.5
777 0.5
-777 0.5
778 0.5
-778 0.5
779 0.5
-779 0.5
780 0.5
-780 0.5
781 0.5
-781 0.5
782 0.5
-782 0.5
783 0.5
-783 0.5
784 0.5
-784 0.5
785 0.5
-785 0.5
786 0.5
-786 0.5
787 0.5
-787 0.5
788 0.5
-788 0.5
789 0.5
-789 0.5
790 0.5
-790 0.5
791 0.5
-791 0.5
792 0.5
-792 0.5
793 0.5
-793 0.5
794 0.5
-794 0.5
795 0.5
-795 0.5
796 0.5
-796 0.5
797 0.5
-797 0.5
798 0.5
-798 0.5
799 0.5
-799 0.5
800 0.5
-800 0.5
801 0.5
-801 0.5
802 0.5
-802 0.5
803 0.5
-803 0.5
804 0.5
-804 0.5
805 0.5
-805 0.5
806 0.5
-806 0.5
807 0.5
-807 0.5
808 0.5
-808 0.5
809 0.5
-809 0.5
810 0.5
-810 0.5
811 0.5
-811 0.5
812 0.5
-812 0.5
813 0.5
-813 0.5
814 0.5
-814 0.5
815 0.5
-815 0.5
816 0.5
-816 0.5
817 0.5
-817 0.5
818 0.5
-818 0.5
819 0.5
-819 0.5
820 0.5
-820 0.5
821 0.5
-821 0.5
822 0.5
-822 0.5
823 0.5
-823 0.5
824 0.5
-824 0.5
825 0.5
-825 0.5
826 0.5
-826 0.5
827 0.5
-827 0.5
828 0.5
-828 0.5
829 0.5
-829 0.5
830 0.5
-830 0.5
831 0.5
-831 0.5
832 0.5
-832 0.5
833 0.5
-833 0.5
834 0.5
-834 0.5
835 0.5
-835 0.5
836 0.5
-836 0.5
837 0.5
-837 0.5
838 0.5
-838 0.5
839 0.538672
-839 0.461328
840 0.62251
-840 0.37749
841 0.035313
-841 0.964687
842 0.28306
-842 0.71694
843 0.5
-843 0.5
844 0.5
-844 0.5
845 0.5
-845 0.5
846 0.5
-846 0.5
847 0.5
-847 0.5
848 0.5
-848 0.5
849 0.5
-849 0.5
850 0.5
-850 0.5
851 0.5
-851 0.5
852 0.5
-852 0.5
853 0.5
-853 0.5
854 0.5
-854 0.5
855 0.5
-855 0.5
856 0.5
-856 0.5
857 0.5
-857 0.5
858 0.5
-858 0.5
859 0.5
-859 0.5
860 0.5
-860 0.5
861 0.5
-861 0.5
862 0.5
-862 0.5
863 0.5
-863 0.5
864 0.5
-864 0.5
865 0.5
-865 0.5
866 0.5
-866 0.5
867 0.5
-867 0.5
868 0.5
-868 0.5
869 0.5
-869 0.5
870 0.5
-870 0.5
871 0.5
-871 0.5
872 0.5
-872 0.5
873 0.5
-873 0.5
874 0.5
-874 0.5
875 0.5
-875 0.5
876 0.5
-876 0.5
877 0.5
-877 0.5
878 0.5
-878 0.5
879 0.5
-879 0.5
880 0.5
-880 0.5
881 0.5
-881 0.5
882 0.5
-882 0.5
883 0.5
-883 0.5
884 0.5
-884 0.5
885 0.5
-885 0.5
886 0.5
-886 0.5
887 0.5
-887 0.5
888 0.5
-888 0.5
889 0.5
-889 0.5
890 0.5
-890 0.5
891 0.5
-891 0.5
892 0.5
-892 0.5
893 0.5
-893 0.5
894 0.5
-894 0.5
895 0.5
-895 0.5
896 0.5
-896 0.5
897 0.5
-897 0.5
898 0.5
-898 0.5
899 0.5
-899 0.5
900 0.5
-900 0.5
901 0.897853
-901 0.102147
902 0.65891
-902 0.34109
903 0.144388
-903 0.855612
904 0.453525
-904 0.546475
905 0.5
-905 0.5
906 0.5
-906 0.5
907 0.5
-907 0.5
908 0.5
-908 0.5
909 0.5
-909 0.5
910 0.5
-910 0.5
911 0.5
-911 0.5
912 0.5
-912 0.5
913 0.336375
-913 0.663625
914 0.724967
-914 0.275033
915 0.979462
-915 0.020538
916 0.593668
-916 0.406332
917 0.5
-917 0.5
918 0.5
-918 0.5
919 0.5
-919 0.5
920 0.5
-920 0.5
921 0.5
-921 0.5
922 0.5
-922 0.5
923 0.5
-923 0.5
924 0.5
-924 0.5
925 0.5
-925 0.5
926 0.5
-926 0.5
927 0.5
-927 0.5
928 0.5
-928 0.5
929 0.5
-929 0.5
930 0.5
-930 0.5
931 0.5
-931 0.5
932 0.5
-932 0.5
933 0.5
-933 0.5
934 0.5
-934 0.5
935 0.5
-935 0.5
936 0.5
-936 0.5
937 0.5
-937 0.5
938 0.5
-938 0.5
939 0.5
-939 0.5
940 0.5
-940 0.5
941 0.564355
-941 0.435645
942 0.771354
-942 0.228646
943 0.495913
-943 0.504087
944 0.293698
-944 0.706302
945 0.5
-945 0.5
946 0.5
-946 0.5
947 0.5
-947 0.5
948 0.5
-948 0.5
949 0.5
-949 0.5
950 0.5
-950 0.5
951 0.5
-951 0.5
952 0.5
-952 0.5
953 0.5
-953 0.5
954 0.5
-954 0.5
955 0.5
-955 0.5
956 0.5
-956 0.5
957 0.5
-957 0.5
958 0.5
-958 0.5
959 0.5
-959 0.5
960 0.5
-960 0.5
961 0.5
-961 0.5
962 0.5
-962 0.5
963 0.161248
-963 0.838752
964 0.31778
-964 0.68222
965 0.63564
-965 0.36436
966 0.725603
-966 0.274397
967 0.5
-967 0.5
968 0.5
-968 0.5
969 0.5
-969 0.5
970 0.5
-970 0.5
971 0.5
-971 0.5
972 0.5
-972 0.5
973 0.5
-973 0.5
974 0.5
-974 0.5
975 0.166303
-975 0.833697
976 0.026947
-976 0.973053
977 0.573906
-977 0.426094
978 0.4087
-978 0.5913
979 0.564623
-979 0.435377
980 0.934834
-980 0.065166
981 0.233293
-981 0.766707
982 0.216605
-982 0.783395
983 0.5
-983 0.5
984 0.5
-984 0.5
985 0.5
-985 0.5
986 0.5
-986 0.5
987 0.5
-987 0.5
988 0.5
-988 0.5
989 0.5
-989 0.5
990 0.5
-990 0.5
991 0.663238
-991 0.336762
992 0.7194
-992 0.2806
993 0.78606
-993 0.21394
994 0.87164
-994 0.12836
995 0.5
-995 0.5
996 0.5
-996 0.5
997 0.5
-997 0.5
998 0.5
-998 0.5
999 0.5
-999 0.5
1000 0.5
-1000 0.5
1001 0.5
-1001 0.5
1002 0.5
-1002 0.5
1003 0.5
-1003 0.5
1004 0.5
-1004 0.5
1005 0.5
-1005 0.5
1006 0.5
-1006 0.5
1007 0.5
-1007 0.5
1008 0.5
-1008 0.5
1009 0.5
-1009 0.5
1010 0.5
-1010 0.5
1011 0.581648
-1011 0.418352
1012 0.6071
-1012 0.3929
1013 0.42503
-1013 0.57497
1014 0.169495
-1014 0.830505
1015 0.5
-1015 0.5
1016 0.5
-1016 0.5
1017 0.5
-1017 0.5
1018 0.5
-1018 0.5
1019 0.5
-1019 0.5
1020 0.5
-1020 0.5
1021 0.5
-1021 0.5
1022 0.5
-1022 0.5
1023 0.5
-1023 0.5
1024 0.5
-1024 0.5
1025 0.5
-1025 0.5
1026 0.5
-1026 0.5
1027 0.5
-1027 0.5
1028 0.5
-1028 0.5
1029 0.5
-1029 0.5
1030 0.5
-1030 0.5
1031 0.5
-1031 0.5
1032 0.5
-1032 0.5
1033 0.5
-1033 0.5
1034 0.5
-1034 0.5
1035 0.5
-1035 0.5
1036 0.5
-1036 0.5
1037 0.5
-1037 0.5
1038 0.5
-1038 0.5
1039 0.5
-1039 0.5
1040 0.5
-1040 0.5
1041 0.5
-1041 0.5
1042 0.5
-1042 0.5
1043 0.00415
-1043 0.99585
1044 0.861981
-1044 0.138019
1045 0.5
-1045 0.5
1046 0.5
-1046 0.5
1047 0.5
-1047 0.5
1048 0.5
-1048 0.5
1049 0.595537
-1049 0.404463
1050 0.744073
-1050 0.255927
1051 0.21112
-1051 0.78888
1052 0.15513
-1052 0.84487
1053 0.5
-1053 0.5
1054 0.5
-1054 0.5
1055 0.5
-1055 0.5
1056 0.5
-1056 0.5
1057 0.5
-1057 0.5
1058 0.5
-1058 0.5
1059 0.5
-1059 0.5
1060 0.5
-1060 0.5
1061 0.5
-1061 0.5
1062 0.5
-1062 0.5
1063 0.5
-1063 0.5
1064 0.5
-1064 0.5
1065 0.305169
-1065 0.694831
1066 0.858266
-1066 0.141734
1067 0.724539
-1067 0.275461
1068 0.309319
-1068 0.690681
1069 0.5
-1069 0.5
1070 0.5
-1070 0.5
1071 0.5
-1071 0.5
1072 0.5
-1072 0.5
1073 0.569306
-1073 0.430694
1074 0.106213
-1074 0.893787
1075 0.615639
-1075 0.384361
1076 0.780427
-1076 0.219573
1077 0.5
-1077 0.5
1078 0.5
-1078 0.5
1079 0.5
-1079 0.5
1080 0.5
-1080 0.5
1081 0.5
-1081 0.5
1082 0.5
-1082 0.5
1083 0.5
-1083 0.5
1084 0.5
-1084 0.5
1085 0.5
-1085 0.5
1086 0.5
-1086 0.5
1087 0.5
-1087 0.5
1088 0.5
-1088 0.5
1089 0.270282
-1089 0.729718
1090 0.597414
-1090 0.402586
1091 0.655616
-1091 0.344384
1092 0.579601
-1092 0.420399
1093 0.5
-1093 0.5
1094 0.5
-1094 0.5
1095 0.5
-1095 0.5
1096 0.5
-1096 0.5
1097 0.608092
-1097 0.391908
1098 0.037622
-1098 0.962378
1099 0.602045
-1099 0.397955
1100 0.388518
-1100 0.611482
1101 0.5
-1101 0.5
1102 0.5
-1102 0.5
1103 0.5
-1103 0.5
1104 0.5
-1104 0.5
1105 0.5
-1105 0.5
1106 0.5
-1106 0.5
1107 0.5
-1107 0.5
1108 0.5
-1108 0.5
1109 0.5
-1109 0.5
1110 0.5
-1110 0.5
1111 0.5
-1111 0.5
1112 0.5
-1112 0.5
1113 0.825279
-1113 0.174721
1114 0.723244
-1114 0.276756
1115 0.590374
-1115 0.409626
1116 0.40488
-1116 0.59512
1117 0.5
-1117 0.5
1118 0.5
-1118 0.5
1119 0.5
-1119 0.5
1120 0.5
-1120 0.5
1121 0.5
-1121 0.5
1122 0.5
-1122 0.5
1123 0.5
-1123 0.5
1124 0.5
-1124 0.5
1125 0.5
-1125 0.5
1126 0.5
-1126 0.5
1127 0.5
-1127 0.5
1128 0.5
-1128 0.5
1129 0.5
-1129 0.5
1130 0.5
-1130 0.5
1131 0.5
-1131 0.5
1132 0.5
-1132 0.5
1133 0.5
-1133 0.5
1134 0.5
-1134 0.5
1135 0.914898
-1135 0.085102
1136 0.854546
-1136 0.145454
1137 0.919019
-1137 0.080981
1138 0.849656
-1138 0.150344
1139 0.5
-1139 0.5
1140 0.5
-1140 0.5
1141 0.5
-1141 0.5
1142 0.5
-1142 0.5
1143 0.5
-1143 0.5
1144 0.5
-1144 0.5
1145 0.5
-1145 0.5
1146 0.5
-1146 0.5
1147 0.5
-1147 0.5
1148 0.5
-1148 0.5
1149 0.5
-1149 0.5
1150 0.5
-1150 0.5
1151 0.095171
-1151 0.904829
1152 0.133245
-1152 0.866755
1153 0.812364
-1153 0.187636
1154 0.379615
-1154 0.620385
1155 0.5
-1155 0.5
1156 0.5
-1156 0.5
1157 0.5
-1157 0.5
1158 0.5
-1158 0.5
1159 0.5
-1159 0.5
1160 0.5
-1160 0.5
1161 0.5
-1161 0.5
1162 0.5
-1162 0.5
1163 0.5
-1163 0.5
1164 0.5
-1164 0.5
1165 0.5
-1165 0.5
1166 0.5
-1166 0.5
1167 0.400058
-1167 0.599942
1168 0.612331
-1168 0.387669
1169 0.645505
-1169 0.354495
1170 0.79371
-1170 0.20629
1171 0.5
-1171 0.5
1172 0.5
-1172 0.5
1173 0.5
-1173 0.5
1174 0.5
-1174 0.5
1175 0.718259
-1175 0.281741
1176 0.953636
-1176 0.046364
1177 0.68254
-1177 0.31746
1178 0.097874
-1178 0.902126
1179 0.5
-1179 0.5
1180 0.5
-1180 0.5
1181 0.5
-1181 0.5
1182 0.5
-1182 0.5
1183 0.5
-1183 0.5
1184 0.5
-1184 0.5
1185 0.5
-1185 0.5
1186 0.5
-1186 0.5
1187 0.5
-1187 0.5
1188 0.5
-1188 0.5
1189 0.5
-1189 0.5
1190 0.5
-1190 0.5
1191 0.5
-1191 0.5
1192 0.5
-1192 0.5
1193 0.5
-1193 0.5
1194 0.5
-1194 0.5
1195 0.5
-1195 0.5
1196 0.5
-1196 0.5
1197 0.5
-1197 0.5
1198 0.5
-1198 0.5
1199 0.5
-1199 0.5
1200 0.5
-1200 0.5
1201 0.5
-1201 0.5
1202 0.5
-1202 0.5
1203 0.5
-1203 0.5
1204 0.5
-1204 0.5
1205 0.5
-1205 0.5
1206 0.5
-1206 0.5
1207 0.5
-1207 0.5
1208 0.5
-1208 0.5
1209 0.5
-1209 0.5
1210 0.5
-1210 0.5
1211 0.5
-1211 0.5
1212 0.5
-1212 0.5
1213 0.5
-1213 0.5
1214 0.5
-1214 0.5
1215 0.5
-1215 0.5
1216 0.5
-1216 0.5
1217 0.5
-1217 0.5
1218 0.5
-1218 0.5
1219 0.5
-1219 0.5
1220 0.5
-1220 0.5
1221 0.5
-1221 0.5
1222 0.5
-1222 0.5
1223 0.5
-1223 0.5
1224 0.5
-1224 0.5
1225 0.5
-1225 0.5
1226 0.5
-1226 0.5
1227 0.5
-1227 0.5
1228 0.5
-1228 0.5
1229 0.5
-1229 0.5
1230 0.5
-1230 0.5
1231 0.5
-1231 0.5
1232 0.5
-1232 0.5
1233 0.5
-1233 0.5
1234 0.5
-1234 0.5
1235 0.5
-1235 0.5
1236 0.5
-1236 0.5
1237 0.233649
-1237 0.766351
1238 0.59648
-1238 0.40352
1239 0.427627
-1239 0.572373
1240 0.090822
-1240 0.909178
1241 0.5
-1241 0.5
1242 0.5
-1242 0.5
1243 0.5
-1243 0.5
1244 0.5
-1244 0.5
1245 0.5
-1245 0.5
1246 0.5
-1246 0.5
1247 0.5
-1247 0.5
1248 0.5
-1248 0.5
1249 0.5
-1249 0.5
1250 0.5
-1250 0.5
1251 0.5
-1251 0.5
1252 0.5
-1252 0.5
1253 0.831982
-1253 0.168018
1254 0.072734
-1254 0.927265
1255 0.061119
-1255 0.938881
1256 0.358706
-1256 0.641294
1257 0.5
-1257 0.5
1258 0.5
-1258 0.5
1259 0.5
-1259 0.5
1260 0.5
-1260 0.5
1261 0.954448
-1261 0.045552
1262 0.898908
-1262 0.101092
1263 0.585354
-1263 0.414646
1264 0.382075
-1264 0.617925
1265 0.315722
-1265 0.684278
1266 0.566082
-1266 0.433918
1267 0.508539
-1267 0.491461
1268 0.265662
-1268 0.734338
1269 0.19365
-1269 0.80635
1270 0.462464
-1270 0.537536
1271 0.851617
-1271 0.148383
1272 0.60377
-1272 0.39623
1273 0.43023
-1273 0.56977
1274 0.251239
-1274 0.748761
1275 0.869053
-1275 0.130947
1276 0.194176
-1276 0.805824
1277 0.5
-1277 0.5
1278 0.5
-1278 0.5
1279 0.5
-1279 0.5
1280 0.5
-1280 0.5
1281 0.5
-1281 0.5
1282 0.5
-1282 0.5
1283 0.5
-1283 0.5
1284 0.5
-1284 0.5
1285 0.537219
-1285 0.462781
1286 0.563867
-1286 0.436133
1287 0.891474
-1287 0.108526
1288 0.122572
-1288 0.877428
1289 0.881203
-1289 0.118797
1290 0.438294
-1290 0.561706
1291 0.512024
-1291 0.487976
1292 0.389742
-1292 0.610258
1293 0.5
-1293 0.5
1294 0.5
-1294 0.5
1295 0.5
-1295 0.5
1296 0.5
-1296 0.5
1297 0.5
-1297 0.5
1298 0.5
-1298 0.5
1299 0.5
-1299 0.5
1300 0.5
-1300 0.5
1301 0.478934
-1301 0.521066
1302 0.593576
-1302 0.406424
1303 0.592201
-1303 0.407799
1304 0.409206
-1304 0.590794
1305 0.161858
-1305 0.838142
1306 0.078596
-1306 0.921404
1307 0.5
-1307 0.5
1308 0.5
-1308 0.5
1309 0.5
-1309 0.5
1310 0.5
-1310 0.5
1311 0.5
-1311 0.5
1312 0.5
-1312 0.5
1313 0.5
-1313 0.5
1314 0.5
-1314 0.5
1315 0.709848
-1315 0.290152
1316 0.891499
-1316 0.108501
1317 0.512244
-1317 0.487756
1318 0.984663
-1318 0.015337
1319 0.5
-1319 0.5
1320 0.5
-1320 0.5
1321 0.5
-1321 0.5
1322 0.5
-1322 0.5
1323 0.5
-1323 0.5
1324 0.5
-1324 0.5
1325 0.5
-1325 0.5
1326 0.5
-1326 0.5
1327 0.5
-1327 0.5
1328 0.5
-1328 0.5
1329 0.5
-1329 0.5
1330 0.5
-1330 0.5
1331 0.5
-1331 0.5
1332 0.5
-1332 0.5
1333 0.5
-1333 0.5
1334 0.5
-1334 0.5
1335 0.5
-1335 0.5
1336 0.5
-1336 0.5
1337 0.5
-1337 0.5
1338 0.5
-1338 0.5
1339 0.5
-1339 0.5
1340 0.5
-1340 0.5
1341 0.5
-1341 0.5
1342 0.5
-1342 0.5
1343 0.5
-1343 0.5
1344 0.5
-1344 0.5
1345 0.5
-1345 0.5
1346 0.5
-1346 0.5
1347 0.20733
-1347 0.79267
1348 0.820681
-1348 0.179319
1349 0.279863
-1349 0.720137
1350 0.786719
-1350 0.213281
1351 0.475452
-1351 0.524548
1352 0.95831
-1352 0.04169
1353 0.392524
-1353 0.607476
1354 0.832899
-1354 0.167101
1355 0.5
-1355 0.5
1356 0.5
-1356 0.5
1357 0.5
-1357 0.5
1358 0.5
-1358 0.5
1359 0.5
-1359 0.5
1360 0.5
-1360 0.5
1361 0.5
-1361 0.5
1362 0.5
-1362 0.5
1363 0.5
-1363 0.5
1364 0.5
-1364 0.5
1365 0.5
-1365 0.5
1366 0.5
-1366 0.5
1367 0.645528
-1367 0.354472
1368 0.083892
-1368 0.916108
1369 0.098377
-1369 0.901623
1370 0.752402
-1370 0.247598
1371 0.5
-1371 0.5
1372 0.5
-1372 0.5
1373 0.5
-1373 0.5
1374 0.5
-1374 0.5
1375 0.5
-1375 0.5
1376 0.5
-1376 0.5
1377 0.5
-1377 0.5
1378 0.5
-1378 0.5
1379 0.5
-1379 0.5
1380 0.5
-1380 0.5
1381 0.5
-1381 0.5
1382 0.5
-1382 0.5
1383 0.5
-1383 0.5
1384 0.5
-1384 0.5
1385 0.5
-1385 0.5
1386 0.5
-1386 0.5
1387 0.5
-1387 0.5
1388 0.5
-1388 0.5
1389 0.94388
-1389 0.05612
1390 0.311115
-1390 0.688885
1391 0.358376
-1391 0.641624
1392 0.848744
-1392 0.151256
1393 0.442268
-1393 0.557732
1394 0.947121
-1394 0.052879
1395 0.709045
-1395 0.290955
1396 0.859098
-1396 0.140902
1397 0.668777
-1397 0.331223
1398 0.09661
-1398 0.90339
1399 0.146276
-1399 0.853724
1400 0.415229
-1400 0.584771
1401 0.5
-1401 0.5
1402 0.5
-1402 0.5
1403 0.5
-1403 0.5
1404 0.5
-1404 0.5
1405 0.5
-1405 0.5
1406 0.5
-1406 0.5
1407 0.5
-1407 0.5
1408 0.5
-1408 0.5
1409 0.5
-1409 0.5
1410 0.5
-1410 0.5
1411 0.5
-1411 0.5
1412 0.5
-1412 0.5
1413 0.5
-1413 0.5
1414 0.5
-1414 0.5
1415 0.5
-1415 0.5
1416 0.5
-1416 0.5
1417 0.5
-1417 0.5
1418 0.5
-1418 0.5
1419 0.5
-1419 0.5
1420 0.5
-1420 0.5
1421 0.5
-1421 0.5
1422 0.5
-1422 0.5
1423 0.5
-1423 0.5
1424 0.5
-1424 0.5
1425 0.5
-1425 0.5
1426 0.5
-1426 0.5
1427 0.5
-1427 0.5
1428 0.5
-1428 0.5
1429 0.5
-1429 0.5
1430 0.5
-1430 0.5
1431 0.5
-1431 0.5
1432 0.5
-1432 0.5
1433 0.5
-1433 0.5
1434 0.5
-1434 0.5
1435 0.5
-1435 0.5
1436 0.5
-1436 0.5
1437 0.5
-1437 0.5
1438 0.5
-1438 0.5
1439 0.5
-1439 0.5
1440 0.5
-1440 0.5
1441 0.5
-1441 0.5
1442 0.5
-1442 0.5
1443 0.5
-1443 0.5
1444 0.5
-1444 0.5
1445 0.5
-1445 0.5
1446 0.5
-1446 0.5
1447 0.5
-1447 0.5
1448 0.5
-1448 0.5
1449 0.5
-1449 0.5
1450 0.5
-1450 0.5
1451 0.5
-1451 0.5
1452 0.5
-1452 0.5
1453 0.958053
-1453 0.041947
1454 0.652479
-1454 0.347521
1455 0.50835
-1455 0.49165
1456 0.490072
-1456 0.509928
1457 0.5
-1457 0.5
1458 0.5
-1458 0.5
1459 0.5
-1459 0.5
1460 0.5
-1460 0.5
1461 0.5
-1461 0.5
1462 0.5
-1462 0.5
1463 0.5
-1463 0.5
1464 0.5
-1464 0.5
1465 0.5
-1465 0.5
1466 0.5
-1466 0.5
1467 0.5
-1467 0.5
1468 0.5
-1468 0.5
1469 0.5
-1469 0.5
1470 0.5
-1470 0.5
1471 0.5
-1471 0.5
1472 0.5
-1472 0.5
1473 0.5
-1473 0.5
1474 0.5
-1474 0.5
1475 0.954286
-1475 0.045714
1476 0.262851
-1476 0.737149
1477 0.728955
-1477 0.271045
1478 0.912339
-1478 0.087661
1479 0.237305
-1479 0.762695
1480 0.402411
-1480 0.597589
1481 0.51213
-1481 0.48787
1482 0.11806
-1482 0.88194
1483 0.543204
-1483 0.456796
1484 0.897877
-1484 0.102123
1485 0.629471
-1485 0.370529
1486 0.619938
-1486 0.380062
1487 0.5
-1487 0.5
1488 0.5
-1488 0.5
1489 0.5
-1489 0.5
1490 0.5
-1490 0.5
1491 0.203419
-1491 0.796581
1492 0.844301
-1492 0.155699
1493 0.018839
-1493 0.981161
1494 0.395769
-1494 0.604231
1495 0.671451
-1495 0.328549
1496 0.873751
-1496 0.126249
1497 0.841673
-1497 0.158327
1498 0.342194
-1498 0.657806
1499 0.5
-1499 0.5
1500 0.5
-1500 0.5
1501 0.5
-1501 0.5
1502 0.5
-1502 0.5
1503 0.5
-1503 0.5
1504 0.5
-1504 0.5
1505 0.5
-1505 0.5
1506 0.5
-1506 0.5
1507 0.557268
-1507 0.442732
1508 0.568749
-1508 0.431251
1509 0.769851
-1509 0.230149
1510 0.186739
-1510 0.813261
1511 0.5
-1511 0.5
1512 0.5
-1512 0.5
1513 0.5
-1513 0.5
1514 0.5
-1514 0.5
1515 0.5
-1515 0.5
1516 0.5
-1516 0.5
1517 0.5
-1517 0.5
1518 0.5
-1518 0.5
1519 0.5
-1519 0.5
1520 0.5
-1520 0.5
1521 0.5
-1521 0.5
1522 0.5
-1522 0.5
1523 0.5
-1523 0.5
1524 0.5
-1524 0.5
1525 0.5
-1525 0.5
1526 0.5
-1526 0.5
1527 0.5
-1527 0.5
1528 0.5
-1528 0.5
1529 0.5
-1529 0.5
1530 0.5
-1530 0.5
1531 0.127708
-1531 0.872292
1532 0.172748
-1532 0.827252
1533 0.511695
-1533 0.488305
1534 0.897559
-1534 0.102441
1535 0.5
-1535 0.5
1536 0.5
-1536 0.5
1537 0.5
-1537 0.5
1538 0.5
-1538 0.5
1539 0.682463
-1539 0.317537
1540 0.653133
-1540 0.346867
1541 0.080095
-1541 0.919905
1542 0.165301
-1542 0.834699
1543 0.5
-1543 0.5
1544 0.5
-1544 0.5
1545 0.5
-1545 0.5
1546 0.5
-1546 0.5
1547 0.5
-1547 0.5
1548 0.5
-1548 0.5
1549 0.5
-1549 0.5
1550 0.5
-1550 0.5
1551 0.5
-1551 0.5
1552 0.5
-1552 0.5
1553 0.5
-1553 0.5
1554 0.5
-1554 0.5
1555 0.5
-1555 0.5
1556 0.5
-1556 0.5
1557 0.5
-1557 0.5
1558 0.5
-1558 0.5
1559 0.5
-1559 0.5
1560 0.5
-1560 0.5
1561 0.5
-1561 0.5
1562 0.5
-1562 0.5
1563 0.5
-1563 0.5
1564 0.5
-1564 0.5
1565 0.5
-1565 0.5
1566 0.5
-1566 0.5
1567 0.5
-1567 0.5
1568 0.5
-1568 0.5
1569 0.5
-1569 0.5
1570 0.5
-1570 0.5
1571 0.5
-1571 0.5
1572 0.5
-1572 0.5
1573 0.5
-1573 0.5
1574 0.5
-1574 0.5
1575 0.5
-1575 0.5
1576 0.5
-1576 0.5
1577 0.5
-1577 0.5
1578 0.5
-1578 0.5
1579 0.5
-1579 0.5
1580 0.5
-1580 0.5
1581 0.272337
-1581 0.727663
1582 0.685293
-1582 0.314707
1583 0.320342
-1583 0.679658
1584 0.013881
-1584 0.986119
1585 0.5
-1585 0.5
1586 0.5
-1586 0.5
1587 0.5
-1587 0.5
1588 0.5
-1588 0.5
1589 0.5
-1589 0.5
1590 0.5
-1590 0.5
1591 0.5
-1591 0.5
1592 0.5
-1592 0.5
1593 0.5
-1593 0.5
1594 0.5
-1594 0.5
1595 0.5
-1595 0.5
1596 0.5
-1596 0.5
1597 0.5
-1597 0.5
1598 0.5
-1598 0.5
1599 0.5
-1599 0.5
1600 0.5
-1600 0.5
1601 0.5
-1601 0.5
1602 0.5
-1602 0.5
1603 0.5
-1603 0.5
1604 0.5
-1604 0.5
1605 0.5
-1605 0.5
1606 0.5
-1606 0.5
1607 0.5
-1607 0.5
1608 0.5
-1608 0.5
1609 0.5
-1609 0.5
1610 0.5
-1610 0.5
1611 0.5
-1611 0.5
1612 0.5
-1612 0.5
1613 0.5
-1613 0.5
1614 0.5
-1614 0.5
1615 0.5
-1615 0.5
1616 0.5
-1616 0.5
1617 0.5
-1617 0.5
1618 0.5
-1618 0.5
1619 0.5
-1619 0.5
1620 0.5
-1620 0.5
1621 0.5
-1621 0.5
1622 0.5
-1622 0.5
1623 0.5
-1623 0.5
1624 0.5
-1624 0.5
1625 0.298926
-1625 0.701074
1626 0.424907
-1626 0.575093
1627 0.490309
-1627 0.509691
1628 0.831364
-1628 0.168636
1629 0.5
-1629 0.5
1630 0.5
-1630 0.5
1631 0.5
-1631 0.5
1632 0.5
-1632 0.5
1633 0.791215
-1633 0.208785
1634 0.015288
-1634 0.984712
1635 0.258425
-1635 0.741575
1636 0.146036
-1636 0.853964
1637 0.5
-1637 0.5
1638 0.5
-1638 0.5
1639 0.5
-1639 0.5
1640 0.5
-1640 0.5
1641 0.5
-1641 0.5
1642 0.5
-1642 0.5
1643 0.5
-1643 0.5
1644 0.5
-1644 0.5
1645 0.5
-1645 0.5
1646 0.5
-1646 0.5
1647 0.5
-1647 0.5
1648 0.5
-1648 0.5
1649 0.5
-1649 0.5
1650 0.5
-1650 0.5
1651 0.5
-1651 0.5
1652 0.5
-1652 0.5
1653 0.5
-1653 0.5
1654 0.5
-1654 0.5
1655 0.5
-1655 0.5
1656 0.5
-1656 0.5
1657 0.5
-1657 0.5
1658 0.5
-1658 0.5
1659 0.854678
-1659 0.145322
1660 0.488087
-1660 0.511913
1661 0.220534
-1661 0.779466
1662 0.423071
-1662 0.576929
1663 0.5
-1663 0.5
1664 0.5
-1664 0.5
1665 0.5
-1665 0.5
1666 0.5
-1666 0.5
1667 0.5
-1667 0.5
1668 0.5
-1668 0.5
1669 0.5
-1669 0.5
1670 0.5
-1670 0.5
1671 0.5
-1671 0.5
1672 0.5
-1672 0.5
1673 0.5
-1673 0.5
1674 0.5
-1674 0.5
1675 0.496175
-1675 0.503825
1676 0.850414
-1676 0.149586
1677 0.373091
-1677 0.626909
1678 0.811266
-1678 0.188734
1679 0.5
-1679 0.5
1680 0.5
-1680 0.5
1681 0.5
-1681 0.5
1682 0.5
-1682 0.5
1683 0.5
-1683 0.5
1684 0.5
-1684 0.5
1685 0.5
-1685 0.5
1686 0.5
-1686 0.5
1687 0.448471
-1687 0.551529
1688 0.146416
-1688 0.853584
1689 0.523358
-1689 0.476642
1690 0.995471
-1690 0.004529
1691 0.066423
-1691 0.933577
1692 0.410805
-1692 0.589195
1693 0.402501
-1693 0.597499
1694 0.84553
-1694 0.15447
1695 0.5
-1695 0.5
1696 0.5
-1696 0.5
1697 0.5
-1697 0.5
1698 0.5
-1698 0.5
1699 0.5
-1699 0.5
1700 0.5
-1700 0.5
1701 0.5
-1701 0.5
1702 0.5
-1702 0.5
1703 0.5
-1703 0.5
1704 0.5
-1704 0.5
1705 0.5
-1705 0.5
1706 0.5
-1706 0.5
1707 0.5
-1707 0.5
1708 0.5
-1708 0.5
1709 0.5
-1709 0.5
1710 0.5
-1710 0.5
1711 0.5
-1711 0.5
1712 0.5
-1712 0.5
1713 0.5
-1713 0.5
1714 0.5
-1714 0.5
1715 0.401333
-1715 0.598667
1716 0.458755
-1716 0.541245
1717 0.377643
-1717 0.622357
1718 0.803834
-1718 0.196166
1719 0.5
-1719 0.5
1720 0.5
-1720 0.5
1721 0.5
-1721 0.5
1722 0.5
-1722 0.5
1723 0.163495
-1723 0.836505
1724 0.18434
-1724 0.81566
1725 0.295639
-1725 0.704361
1726 0.23235
-1726 0.76765
1727 0.560038
-1727 0.439962
1728 0.594378
-1728 0.405622
1729 0.480651
-1729 0.519349
1730 0.186539
-1730 0.813461
1731 0.5
-1731 0.5
1732 0.5
-1732 0.5
1733 0.5
-1733 0.5
1734 0.5
-1734 0.5
1735 0.5
-1735 0.5
1736 0.5
-1736 0.5
1737 0.5
-1737 0.5
1738 0.5
-1738 0.5
1739 0.5
-1739 0.5
1740 0.5
-1740 0.5
1741 0.5
-1741 0.5
1742 0.5
-1742 0.5
1743 0.5
-1743 0.5
1744 0.5
-1744 0.5
1745 0.124556
-1745 0.875444
1746 0.732238
-1746 0.267762
1747 0.885792
-1747 0.114208
1748 0.967062
-1748 0.032938
1749 0.070132
-1749 0.929868
1750 0.262701
-1750 0.737299
1751 0.128083
-1751 0.871917
1752 0.859823
-1752 0.140177
1753 0.722461
-1753 0.277539
1754 0.340474
-1754 0.659526
1755 0.009277
-1755 0.990723
1756 0.949815
-1756 0.050185
1757 0.5
-1757 0.5
1758 0.5
-1758 0.5
1759 0.5
-1759 0.5
1760 0.5
-1760 0.5
1761 0.5
-1761 0.5
1762 0.5
-1762 0.5
1763 0.5
-1763 0.5
1764 0.5
-1764 0.5
1765 0.5
-1765 0.5
1766 0.5
-1766 0.5
1767 0.5
-1767 0.5
1768 0.5
-1768 0.5
1769 0.845961
-1769 0.154039
1770 0.412619
-1770 0.587381
1771 0.615057
-1771 0.384943
1772 0.731753
-1772 0.268247
1773 0.5
-1773 0.5
1774 0.5
-1774 0.5
1775 0.5
-1775 0.5
1776 0.5
-1776 0.5
1777 0.5
-1777 0.5
1778 0.5
-1778 0.5
1779 0.5
-1779 0.5
1780 0.5
-1780 0.5
1781 0.5
-1781 0.5
1782 0.5
-1782 0.5
1783 0.5
-1783 0.5
1784 0.5
-1784 0.5
1785 0.5
-1785 0.5
1786 0.5
-1786 0.5
1787 0.5
-1787 0.5
1788 0.5
-1788 0.5
1789 0.5
-1789 0.5
1790 0.5
-1790 0.5
1791 0.5
-1791 0.5
1792 0.5
-1792 0.5
1793 0.332701
-1793 0.667299
1794 0.45997
-1794 0.54003
1795 0.328977
-1795 0.671023
1796 0.947758
-1796 0.052242
1797 0.5
-1797 0.5
1798 0.5
-1798 0.5
1799 0.5
-1799 0.5
1800 0.5
-1800 0.5
1801 0.5
-1801 0.5
1802 0.5
-1802 0.5
1803 0.5
-1803 0.5
1804 0.5
-1804 0.5
1805 0.5
-1805 0.5
1806 0.5
-1806 0.5
1807 0.5
-1807 0.5
1808 0.5
-1808 0.5
1809 0.120564
-1809 0.879436
1810 0.748049
-1810 0.251951
1811 0.004308
-1811 0.995692
1812 0.699801
-1812 0.300199
1813 0.5
-1813 0.5
1814 0.5
-1814 0.5
1815 0.5
-1815 0.5
1816 0.5
-1816 0.5
1817 0.5
-1817 0.5
1818 0.5
-1818 0.5
1819 0.57343
-1819 0.42657
1820 0.832633
-1820 0.167367
1821 0.971771
-1821 0.028229
1822 0.282089
-1822 0.717911
1823 0.5
-1823 0.5
1824 0.5
-1824 0.5
1825 0.5
-1825 0.5
1826 0.5
-1826 0.5
1827 0.5
-1827 0.5
1828 0.5
-1828 0.5
1829 0.5
-1829 0.5
1830 0.5
-1830 0.5
1831 0.5
-1831 0.5
1832 0.5
-1832 0.5
1833 0.5
-1833 0.5
1834 0.5
-1834 0.5
1835 0.894452
-1835 0.105548
1836 0.592837
-1836 0.407163
1837 0.988711
-1837 0.011289
1838 0.60052
-1838 0.39948
1839 0.540885
-1839 0.459115
1840 0.920597
-1840 0.079403
1841 0.165386
-1841 0.834614
1842 0.425761
-1842 0.574239
1843 0.5
-1843 0.5
1844 0.5
-1844 0.5
1845 0.5
-1845 0.5
1846 0.5
-1846 0.5
1847 0.5
-1847 0.5
1848 0.5
-1848 0.5
1849 0.5
-1849 0.5
1850 0.5
-1850 0.5
1851 0.5
-1851 0.5
1852 0.5
-1852 0.5
1853 0.5
-1853 0.5
1854 0.5
-1854 0.5
1855 0.5
-1855 0.5
1856 0.5
-1856 0.5
1857 0.5
-1857 0.5
1858 0.5
-1858 0.5
1859 0.5
-1859 0.5
1860 0.5
-1860 0.5
1861 0.5
-1861 0.5
1862 0.5
-1862 0.5
1863 0.5
-1863 0.5
1864 0.5
-1864 0.5
1865 0.5
-1865 0.5
1866 0.5
-1866 0.5
1867 0.5
-1867 0.5
1868 0.5
-1868 0.5
1869 0.5
-1869 0.5
1870 0.5
-1870 0.5
1871 0.5
-1871 0.5
1872 0.5
-1872 0.5
1873 0.5
-1873 0.5
1874 0.5
-1874 0.5
1875 0.5
-1875 0.5
1876 0.5
-1876 0.5
1877 0.5
-1877 0.5
1878 0.5
-1878 0.5
1879 0.5
-1879 0.5
1880 0.5
-1880 0.5
1881 0.5
-1881 0.5
1882 0.5
-1882 0.5
1883 0.5
-1883 0.5
1884 0.5
-1884 0.5
1885 0.5
-1885 0.5
1886 0.5
-1886 0.5
1887 0.5
-1887 0.5
1888 0.5
-1888 0.5
1889 0.5
-1889 0.5
1890 0.5
-1890 0.5
1891 0.5
-1891 0.5
1892 0.5
-1892 0.5
1893 0.5
-1893 0.5
1894 0.5
-1894 0.5
1895 0.5
-1895 0.5
1896 0.5
-1896 0.5
1897 0.5
-1897 0.5
1898 0.5
-1898 0.5
1899 0.5
-1899 0.5
1900 0.5
-1900 0.5
1901 0.5
-1901 0.5
1902 0.5
-1902 0.5
1903 0.5
-1903 0.5
1904 0.5
-1904 0.5
1905 0.022772
-1905 0.977228
1906 0.073259
-1906 0.926741
1907 0.815502
-1907 0.184498
1908 0.17768
-1908 0.82232
1909 0.5
-1909 0.5
1910 0.5
-1910 0.5
1911 0.5
-1911 0.5
1912 0.5
-1912 0.5
1913 0.5
-1913 0.5
1914 0.5
-1914 0.5
1915 0.5
-1915 0.5
1916 0.5
-1916 0.5
1917 0.5
-1917 0.5
1918 0.5
-1918 0.5
1919 0.5
-1919 0.5
1920 0.5
-1920 0.5
1921 0.5
-1921 0.5
1922 0.5
-1922 0.5
1923 0.5
-1923 0.5
1924 0.5
-1924 0.5
1925 0.5
-1925 0.5
1926 0.5
-1926 0.5
1927 0.5
-1927 0.5
1928 0.5
-1928 0.5
1929 0.5
-1929 0.5
1930 0.5
-1930 0.5
1931 0.5
-1931 0.5
1932 0.5
-1932 0.5
1933 0.5
-1933 0.5
1934 0.5
-1934 0.5
1935 0.5
-1935 0.5
1936 0.5
-1936 0.5
1937 0.5
-1937 0.5
1938 0.5
-1938 0.5
1939 0.5
-1939 0.5
1940 0.5
-1940 0.5
1941 0.325521
-1941 0.674479
1942 0.584289
-1942 0.415711
1943 0.285906
-1943 0.714094
1944 0.796059
-1944 0.203941
1945 0.5
-1945 0.5
1946 0.5
-1946 0.5
1947 0.5
-1947 0.5
1948 0.5
-1948 0.5
1949 0.5
-1949 0.5
1950 0.5
-1950 0.5
1951 0.5
-1951 0.5
1952 0.5
-1952 0.5
1953 0.464433
-1953 0.535567
1954 0.376441
-1954 0.623559
1955 0.556967
-1955 0.443033
1956 0.519678
-1956 0.480322
1957 0.5
-1957 0.5
1958 0.5
-1958 0.5
1959 0.5
-1959 0.5
1960 0.5
-1960 0.5
1961 0.262501
-1961 0.737499
1962 0.660896
-1962 0.339104
1963 0.453913
-1963 0.546087
1964 0.243376
-1964 0.756624
1965 0.038202
-1965 0.961798
1966 0.529283
-1966 0.470717
1967 0.782476
-1967 0.217524
1968 0.089457
-1968 0.910543
1969 0.5
-1969 0.5
1970 0.5
-1970 0.5
1971 0.5
-1971 0.5
1972 0.5
-1972 0.5
1973 0.5
-1973 0.5
1974 0.5
-1974 0.5
1975 0.5
-1975 0.5
1976 0.5
-1976 0.5
1977 0.311281
-1977 0.688719
1978 0.598536
-1978 0.401464
1979 0.462266
-1979 0.537734
1980 0.830959
-1980 0.169041
1981 0.5
-1981 0.5
1982 0.5
-1982 0.5
1983 0.5
-1983 0.5
1984 0.5
-1984 0.5
1985 0.5
-1985 0.5
1986 0.5
-1986 0.5
1987 0.5
-1987 0.5
1988 0.5
-1988 0.5
1989 0.5
-1989 0.5
1990 0.5
-1990 0.5
1991 0.5
-1991 0.5
1992 0.5
-1992 0.5
1993 0.5
-1993 0.5
1994 0.5
-1994 0.5
1995 0.5
-1995 0.5
1996 0.5
-1996 0.5
1997 0.5
-1997 0.5
1998 0.5
-1998 0.5
1999 0.788347
-1999 0.211653
2000 0.339481
-2000 0.660519
2001 0.807509
-2001 0.192491
2002 0.099627
-2002 0.900373
2003 0.269775
-2003 0.730225
2004 0.930586
-2004 0.069414
2005 0.649727
-2005 0.350273
2006 0.211832
-2006 0.788168
2007 0.5
-2007 0.5
2008 0.5
-2008 0.5
2009 0.5
-2009 0.5
2010 0.5
-2010 0.5
2011 0.320454
-2011 0.679546
2012 0.953891
-2012 0.046109
2013 0.133922
-2013 0.866078
2014 0.122014
-2014 0.877986
2015 0.5
-2015 0.5
2016 0.5
-2016 0.5
2017 0.5
-2017 0.5
2018 0.5
-2018 0.5
2019 0.853189
-2019 0.146811
2020 0.746405
-2020 0.253595
2021 0.740493
-2021 0.259507
2022 0.794688
-2022 0.205312
2023 0.642703
-2023 0.357297
2024 0.583035
-2024 0.416965
2025 0.203273
-2025 0.796727
2026 0.450212
-2026 0.549788
2027 0.5
-2027 0.5
2028 0.5
-2028 0.5
2029 0.5
-2029 0.5
2030 0.5
-2030 0.5
2031 0.964311
-2031 0.035689
2032 0.146904
-2032 0.853096
2033 0.861554
-2033 0.138446
2034 0.469622
-2034 0.530378
2035 0.5
-2035 0.5
2036 0.5
-2036 0.5
2037 0.5
-2037 0.5
2038 0.5
-2038 0.5
2039 0.046778
-2039 0.953222
2040 0.792604
-2040 0.207396
2041 0.61814
-2041 0.38186
2042 0.218447
-2042 0.781553
2043 0.5
-2043 0.5
2044 0.5
-2044 0.5
2045 0.5
-2045 0.5
2046 0.5
-2046 0.5
2047 0.135092
-2047 0.864908
2048 0.807442
-2048 0.192558
2049 0.449358
-2049 0.550642
2050 0.338364
-2050 0.661636
2051 0.5
-2051 0.5
2052 0.5
-2052 0.5
2053 0.5
-2053 0.5
2054 0.5
-2054 0.5
2055 0.5
-2055 0.5
2056 0.5
-2056 0.5
2057 0.5
-2057 0.5
2058 0.5
-2058 0.5
2059 0.5
-2059 0.5
2060 0.5
-2060 0.5
2061 0.5
-2061 0.5
2062 0.5
-2062 0.5
2063 0.5
-2063 0.5
2064 0.5
-2064 0.5
2065 0.5
-2065 0.5
2066 0.5
-2066 0.5
2067 0.765827
-2067 0.234173
2068 0.923755
-2068 0.076245
2069 0.858001
-2069 0.141999
2070 0.037127
-2070 0.962873
2071 0.5
-2071 0.5
2072 0.5
-2072 0.5
2073 0.5
-2073 0.5
2074 0.5
-2074 0.5
2075 0.5
-2075 0.5
2076 0.5
-2076 0.5
2077 0.5
-2077 0.5
2078 0.5
-2078 0.5
2079 0.5
-2079 0.5
2080 0.5
-2080 0.5
2081 0.5
-2081 0.5
2082 0.5
-2082 0.5
2083 0.5
-2083 0.5
2084 0.5
-2084 0.5
2085 0.5
-2085 0.5
2086 0.5
-2086 0.5
2087 0.5
-2087 0.5
2088 0.5
-2088 0.5
2089 0.5
-2089 0.5
2090 0.5
-2090 0.5
2091 0.5
-2091 0.5
2092 0.5
-2092 0.5
2093 0.846627
-2093 0.153373
2094 0.302159
-2094 0.697841
2095 0.628648
-2095 0.371352
2096 0.018846
-2096 0.981154
2097 0.5
-2097 0.5
2098 0.5
-2098 0.5
2099 0.5
-2099 0.5
2100 0.5
-2100 0.5
2101 0.5
-2101 0.5
2102 0.5
-2102 0.5
2103 0.5
-2103 0.5
2104 0.5
-2104 0.5
2105 0.459062
-2105 0.540938
2106 0.335315
-2106 0.664685
2107 0.859311
-2107 0.140689
2108 0.629961
-2108 0.370039
2109 0.5
-2109 0.5
2110 0.5
-2110 0.5
2111 0.5
-2111 0.5
2112 0.5
-2112 0.5
2113 0.5
-2113 0.5
2114 0.5
-2114 0.5
2115 0.5
-2115 0.5
2116 0.5
-2116 0.5
2117 0.5
-2117 0.5
2118 0.5
-2118 0.5
2119 0.5
-2119 0.5
2120 0.5
-2120 0.5
2121 0.5
-2121 0.5
2122 0.5
-2122 0.5
2123 0.5
-2123 0.5
2124 0.5
-2124 0.5
2125 0.5
-2125 0.5
2126 0.5
-2126 0.5
2127 0.5
-2127 0.5
2128 0.5
-2128 0.5
2129 0.150184
-2129 0.849816
2130 0.49985
-2130 0.50015
2131 0.256102
-2131 0.743898
2132 0.009495
-2132 0.990505
2133 0.5
-2133 0.5
2134 0.5
-2134 0.5
2135 0.5
-2135 0.5
2136 0.5
-2136 0.5
2137 0.5
-2137 0.5
2138 0.5
-2138 0.5
2139 0.5
-2139 0.5
2140 0.5
-2140 0.5
2141 0.5
-2141 0.5
2142 0.5
-2142 0.5
2143 0.5
-2143 0.5
2144 0.5
-2144 0.5
2145 0.5
-2145 0.5
2146 0.5
-2146 0.5
2147 0.5
-2147 0.5
2148 0.5
-2148 0.5
2149 0.5
-2149 0.5
2150 0.5
-2150 0.5
2151 0.5
-2151 0.5
2152 0.5
-2152 0.5
2153 0.406814
-2153 0.593186
2154 0.771933
-2154 0.228067
2155 0.26487
-2155 0.73513
2156 0.662916
-2156 0.337084
2157 0.39468
-2157 0.60532
2158 0.608747
-2158 0.391253
2159 0.559264
-2159 0.440736
2160 0.846492
-2160 0.153508
2161 0.5
-2161 0.5
2162 0.5
-2162 0.5
2163 0.021494
-2163 0.978506
2164 0.081076
-2164 0.918924
2165 0.542315
-2165 0.457685
2166 0.341583
-2166 0.658417
2167 0.5
-2167 0.5
2168 0.5
-2168 0.5
2169 0.5
-2169 0.5
2170 0.5
-2170 0.5
2171 0.5
-2171 0.5
2172 0.5
-2172 0.5
2173 0.5
-2173 0.5
2174 0.5
-2174 0.5
2175 0.5
-2175 0.5
2176 0.5
-2176 0.5
2177 0.5
-2177 0.5
2178 0.5
-2178 0.5
2179 0.759846
-2179 0.240154
2180 0.978622
-2180 0.021378
2181 0.190242
-2181 0.809758
2182 0.368593
-2182 0.631407
2183 0.5
-2183 0.5
2184 0.5
-2184 0.5
2185 0.5
-2185 0.5
2186 0.5
-2186 0.5
2187 0.5
-2187 0.5
2188 0.5
-2188 0.5
2189 0.5
-2189 0.5
2190 0.5
-2190 0.5
2191 0.5
-2191 0.5
2192 0.5
-2192 0.5
2193 0.5
-2193 0.5
2194 0.5
-2194 0.5
2195 0.701566
-2195 0.298434
2196 0.251519
-2196 0.748481
2197 0.103403
-2197 0.896597
2198 0.505079
-2198 0.494921
2199 0.5
-2199 0.5
2200 0.5
-2200 0.5
2201 0.5
-2201 0.5
2202 0.5
-2202 0.5
2203 0.5
-2203 0.5
2204 0.5
-2204 0.5
2205 0.5
-2205 0.5
2206 0.5
-2206 0.5
2207 0.5
-2207 0.5
2208 0.5
-2208 0.5
2209 0.5
-2209 0.5
2210 0.5
-2210 0.5
2211 0.5
-2211 0.5
2212 0.5
-2212 0.5
2213 0.5
-2213 0.5
2214 0.5
-2214 0.5
2215 0.5
-2215 0.5
2216 0.5
-2216 0.5
2217 0.5
-2217 0.5
2218 0.5
-2218 0.5
2219 0.5
-2219 0.5
2220 0.5
-2220 0.5
2221 0.5
-2221 0.5
2222 0.5
-2222 0.5
2223 0.5
-2223 0.5
2224 0.5
-2224 0.5
2225 0.5
-2225 0.5
2226 0.5
-2226 0.5
2227 0.696712
-2227 0.303288
2228 0.653161
-2228 0.346839
2229 0.557068
-2229 0.442932
2230 0.80287
-2230 0.19713
2231 0.5
-2231 0.5
2232 0.5
-2232 0.5
2233 0.5
-2233 0.5
2234 0.5
-2234 0.5
2235 0.5
-2235 0.5
2236 0.5
-2236 0.5
2237 0.5
-2237 0.5
2238 0.5
-2238 0.5
2239 0.5
-2239 0.5
2240 0.5
-2240 0.5
2241 0.5
-2241 0.5
2242 0.5
-2242 0.5
2243 0.308707
-2243 0.691293
2244 0.892772
-2244 0.107228
2245 0.900366
-2245 0.099634
2246 0.053351
-2246 0.946649
2247 0.5
-2247 0.5
2248 0.5
-2248 0.5
2249 0.131899
-2249 0.868101
2250 0.108376
-2250 0.891624
2251 0.124902
-2251 0.875098
2252 0.038671
-2252 0.961329
2253 0.778063
-2253 0.221937
2254 0.59574
-2254 0.40426
2255 0.607957
-2255 0.392043
2256 0.96491
-2256 0.03509
2257 0.5
-2257 0.5
2258 0.5
-2258 0.5
2259 0.5
-2259 0.5
2260 0.5
-2260 0.5
2261 0.064337
-2261 0.935663
2262 0.696835
-2262 0.303165
2263 0.158272
-2263 0.841728
2264 0.596875
-2264 0.403125
2265 0.5
-2265 0.5
2266 0.5
-2266 0.5
2267 0.5
-2267 0.5
2268 0.5
-2268 0.5
2269 0.5
-2269 0.5
2270 0.5
-2270 0.5
2271 0.5
-2271 0.5
2272 0.5
-2272 0.5
2273 0.5
-2273 0.5
2274 0.5
-2274 0.5
2275 0.5
-2275 0.5
2276 0.5
-2276 0.5
2277 0.5
-2277 0.5
2278 0.5
-2278 0.5
2279 0.5
-2279 0.5
2280 0.5
-2280 0.5
2281 0.5
-2281 0.5
2282 0.5
-2282 0.5
2283 0.5
-2283 0.5
2284 0.5
-2284 0.5
2285 0.5
-2285 0.5
2286 0.5
-2286 0.5
2287 0.5
-2287 0.5
2288 0.5
-2288 0.5
2289 0.797582
-2289 0.202418
2290 0.225698
-2290 0.774302
2291 0.825172
-2291 0.174828
2292 0.056888
-2292 0.943112
2293 0.741433
-2293 0.258567
2294 0.216561
-2294 0.783439
2295 0.721378
-2295 0.278622
2296 0.773271
-2296 0.226729
2297 0.311078
-2297 0.688922
2298 0.937006
-2298 0.062994
2299 0.722682
-2299 0.277318
2300 0.025681
-2300 0.974319
2301 0.5
-2301 0.5
2302 0.5
-2302 0.5
2303 0.5
-2303 0.5
2304 0.5
-2304 0.5
2305 0.907406
-2305 0.092594
2306 0.830476
-2306 0.169524
2307 0.155676
-2307 0.844324
2308 0.059435
-2308 0.940565
2309 0.5
-2309 0.5
2310 0.5
-2310 0.5
2311 0.5
-2311 0.5
2312 0.5
-2312 0.5
2313 0.5
-2313 0.5
2314 0.5
-2314 0.5
2315 0.5
-2315 0.5
2316 0.5
-2316 0.5
2317 0.5
-2317 0.5
2318 0.5
-2318 0.5
2319 0.5
-2319 0.5
2320 0.5
-2320 0.5
2321 0.5
-2321 0.5
2322 0.5
-2322 0.5
2323 0.5
-2323 0.5
2324 0.5
-2324 0.5
2325 0.5
-2325 0.5
2326 0.5
-2326 0.5
2327 0.5
-2327 0.5
2328 0.5
-2328 0.5
2329 0.299713
-2329 0.700287
2330 0.037127
-2330 0.962873
2331 0.969684
-2331 0.030316
2332 0.359148
-2332 0.640852
