1 0.908802
-1 0.091198
2 1.0
-2 1.0
3 1.0
-3 1.0
4 1.0
-4 1.0
5 1.0
-5 1.0
6 1.0
-6 1.0
7 1.0
-7 1.0
8 1.0
-8 1.0
9 1.0
-9 1.0
10 1.0
-10 1.0
11 1.0
-11 1.0
12 1.0
-12 1.0
13 1.0
-13 1.0
14 1.0
-14 1.0
15 1.0
-15 1.0
16 1.0
-16 1.0
17 1.0
-17 1.0
18 1.0
-18 1.0
19 1.0
-19 1.0
20 1.0
-20 1.0
21 1.0
-21 1.0
22 1.0
-22 1.0
23 1.0
-23 1.0
24 1.0
-24 1.0
25 1.0
-25 1.0
26 1.0
-26 1.0
27 1.0
-27 1.0
28 1.0
-28 1.0
29 1.0
-29 1.0
30 1.0
-30 1.0
31 1.0
-31 1.0
32 1.0
-32 1.0
33 1.0
-33 1.0
34 1.0
-34 1.0
35 1.0
-35 1.0
36 1.0
-36 1.0
37 1.0
-37 1.0
38 1.0
-38 1.0
39 1.0
-39 1.0
40 1.0
-40 1.0
41 1.0
-41 1.0
42 1.0
-42 1.0
43 1.0
-43 1.0
44 1.0
-44 1.0
45 1.0
-45 1.0
46 1.0
-46 1.0
47 1.0
-47 1.0
48 1.0
-48 1.0
49 1.0
-49 1.0
50 1.0
-50 1.0
51 1.0
-51 1.0
52 1.0
-52 1.0
53 1.0
-53 1.0
54 1.0
-54 1.0
55 1.0
-55 1.0
56 1.0
-56 1.0
57 1.0
-57 1.0
58 1.0
-58 1.0
59 1.0
-59 1.0
60 1.0
-60 1.0
61 1.0
-61 1.0
62 1.0
-62 1.0
63 1.0
-63 1.0
64 1.0
-64 1.0
65 1.0
-65 1.0
66 1.0
-66 1.0
67 1.0
-67 1.0
68 1.0
-68 1.0
69 1.0
-69 1.0
70 1.0
-70 1.0
71 1.0
-71 1.0
72 1.0
-72 1.0
73 1.0
-73 1.0
74 1.0
-74 1.0
75 1.0
-75 1.0
76 1.0
-76 1.0
77 1.0
-77 1.0
78 1.0
-78 1.0
79 1.0
-79 1.0
80 1.0
-80 1.0
81 1.0
-81 1.0
82 1.0
-82 1.0
83 1.0
-83 1.0
84 1.0
-84 1.0
85 1.0
-85 1.0
86 1.0
-86 1.0
87 1.0
-87 1.0
88 1.0
-88 1.0
89 1.0
-89 1.0
90 1.0
-90 1.0
91 1.0
-91 1.0
92 1.0
-92 1.0
93 1.0
-93 1.0
94 1.0
-94 1.0
95 1.0
-95 1.0
96 1.0
-96 1.0
97 1.0
-97 1.0
98 1.0
-98 1.0
99 1.0
-99 1.0
100 1.0
-100 1.0
101 1.0
-101 1.0
102 1.0
-102 1.0
103 1.0
-103 1.0
104 1.0
-104 1.0
105 1.0
-105 1.0
106 1.0
-106 1.0
107 1.0
-107 1.0
108 1.0
-108 1.0
109 1.0
-109 1.0
110 1.0
-110 1.0
111 1.0
-111 1.0
112 1.0
-112 1.0
113 1.0
-113 1.0
114 1.0
-114 1.0
115 1.0
-115 1.0
116 1.0
-116 1.0
117 1.0
-117 1.0
118 1.0
-118 1.0
119 1.0
-119 1.0
120 1.0
-120 1.0
121 1.0
-121 1.0
122 1.0
-122 1.0
123 1.0
-123 1.0
124 1.0
-124 1.0
125 1.0
-125 1.0
126 1.0
-126 1.0
127 1.0
-127 1.0
128 1.0
-128 1.0
129 1.0
-129 1.0
130 1.0
-130 1.0
131 1.0
-131 1.0
132 1.0
-132 1.0
133 1.0
-133 1.0
134 1.0
-134 1.0
135 1.0
-135 1.0
136 1.0
-136 1.0
137 1.0
-137 1.0
138 1.0
-138 1.0
139 1.0
-139 1.0
140 1.0
-140 1.0
141 1.0
-141 1.0
142 1.0
-142 1.0
143 1.0
-143 1.0
144 1.0
-144 1.0
145 1.0
-145 1.0
146 1.0
-146 1.0
147 1.0
-147 1.0
148 1.0
-148 1.0
149 1.0
-149 1.0
150 1.0
-150 1.0
151 1.0
-151 1.0
152 1.0
-152 1.0
153 1.0
-153 1.0
154 1.0
-154 1.0
155 1.0
-155 1.0
156 1.0
-156 1.0
157 1.0
-157 1.0
158 1.0
-158 1.0
159 1.0
-159 1.0
160 1.0
-160 1.0
161 1.0
-161 1.0
162 1.0
-162 1.0
163 1.0
-163 1.0
164 1.0
-164 1.0
165 1.0
-165 1.0
166 1.0
-166 1.0
167 1.0
-167 1.0
168 1.0
-168 1.0
169 1.0
-169 1.0
170 1.0
-170 1.0
171 1.0
-171 1.0
172 1.0
-172 1.0
173 1.0
-173 1.0
174 1.0
-174 1.0
175 1.0
-175 1.0
176 1.0
-176 1.0
177 1.0
-177 1.0
178 1.0
-178 1.0
179 1.0
-179 1.0
180 1.0
-180 1.0
181 1.0
-181 1.0
182 1.0
-182 1.0
183 1.0
-183 1.0
184 1.0
-184 1.0
185 1.0
-185 1.0
186 1.0
-186 1.0
187 1.0
-187 1.0
188 1.0
-188 1.0
189 1.0
-189 1.0
190 1.0
-190 1.0
191 1.0
-191 1.0
192 1.0
-192 1.0
193 1.0
-193 1.0
194 1.0
-194 1.0
195 1.0
-195 1.0
196 1.0
-196 1.0
197 1.0
-197 1.0
198 1.0
-198 1.0
199 1.0
-199 1.0
200 1.0
-200 1.0
201 1.0
-201 1.0
202 1.0
-202 1.0
203 1.0
-203 1.0
204 1.0
-204 1.0
205 1.0
-205 1.0
206 1.0
-206 1.0
207 1.0
-207 1.0
208 1.0
-208 1.0
209 1.0
-209 1.0
210 1.0
-210 1.0
211 1.0
-211 1.0
212 1.0
-212 1.0
213 1.0
-213 1.0
214 1.0
-214 1.0
215 1.0
-215 1.0
216 1.0
-216 1.0
217 1.0
-217 1.0
218 1.0
-218 1.0
219 1.0
-219 1.0
220 1.0
-220 1.0
221 1.0
-221 1.0
222 1.0
-222 1.0
223 1.0
-223 1.0
224 1.0
-224 1.0
225 1.0
-225 1.0
226 1.0
-226 1.0
227 1.0
-227 1.0
228 1.0
-228 1.0
229 1.0
-229 1.0
230 1.0
-230 1.0
231 1.0
-231 1.0
232 1.0
-232 1.0
233 1.0
-233 1.0
234 1.0
-234 1.0
235 1.0
-235 1.0
236 1.0
-236 1.0
237 1.0
-237 1.0
238 1.0
-238 1.0
239 1.0
-239 1.0
240 1.0
-240 1.0
241 1.0
-241 1.0
242 1.0
-242 1.0
243 1.0
-243 1.0
244 1.0
-244 1.0
245 1.0
-245 1.0
246 1.0
-246 1.0
247 1.0
-247 1.0
248 1.0
-248 1.0
249 1.0
-249 1.0
250 1.0
-250 1.0
251 1.0
-251 1.0
252 1.0
-252 1.0
253 1.0
-253 1.0
254 1.0
-254 1.0
255 1.0
-255 1.0
256 1.0
-256 1.0
257 1.0
-257 1.0
258 1.0
-258 1.0
259 1.0
-259 1.0
260 1.0
-260 1.0
261 1.0
-261 1.0
262 1.0
-262 1.0
263 1.0
-263 1.0
264 1.0
-264 1.0
265 1.0
-265 1.0
266 1.0
-266 1.0
267 1.0
-267 1.0
268 1.0
-268 1.0
269 1.0
-269 1.0
270 1.0
-270 1.0
271 1.0
-271 1.0
272 1.0
-272 1.0
273 1.0
-273 1.0
274 1.0
-274 1.0
275 1.0
-275 1.0
276 1.0
-276 1.0
277 1.0
-277 1.0
278 1.0
-278 1.0
279 1.0
-279 1.0
280 1.0
-280 1.0
281 1.0
-281 1.0
282 1.0
-282 1.0
283 1.0
-283 1.0
284 1.0
-284 1.0
285 1.0
-285 1.0
286 1.0
-286 1.0
287 1.0
-287 1.0
288 1.0
-288 1.0
289 1.0
-289 1.0
290 1.0
-290 1.0
291 1.0
-291 1.0
292 1.0
-292 1.0
293 1.0
-293 1.0
294 1.0
-294 1.0
295 1.0
-295 1.0
296 1.0
-296 1.0
297 1.0
-297 1.0
298 1.0
-298 1.0
299 1.0
-299 1.0
300 1.0
-300 1.0
301 1.0
-301 1.0
302 1.0
-302 1.0
303 1.0
-303 1.0
304 1.0
-304 1.0
305 1.0
-305 1.0
306 1.0
-306 1.0
307 1.0
-307 1.0
308 1.0
-308 1.0
309 1.0
-309 1.0
310 1.0
-310 1.0
311 1.0
-311 1.0
312 1.0
-312 1.0
313 1.0
-313 1.0
314 1.0
-314 1.0
315 1.0
-315 1.0
316 1.0
-316 1.0
317 1.0
-317 1.0
318 1.0
-318 1.0
319 1.0
-319 1.0
320 1.0
-320 1.0
321 1.0
-321 1.0
322 1.0
-322 1.0
323 1.0
-323 1.0
324 1.0
-324 1.0
325 1.0
-325 1.0
326 1.0
-326 1.0
327 1.0
-327 1.0
328 1.0
-328 1.0
329 1.0
-329 1.0
330 1.0
-330 1.0
331 1.0
-331 1.0
332 1.0
-332 1.0
333 1.0
-333 1.0
334 1.0
-334 1.0
335 1.0
-335 1.0
336 1.0
-336 1.0
337 1.0
-337 1.0
338 1.0
-338 1.0
339 1.0
-339 1.0
340 1.0
-340 1.0
341 1.0
-341 1.0
342 1.0
-342 1.0
343 1.0
-343 1.0
344 1.0
-344 1.0
345 1.0
-345 1.0
346 1.0
-346 1.0
347 1.0
-347 1.0
348 1.0
-348 1.0
349 1.0
-349 1.0
350 1.0
-350 1.0
351 1.0
-351 1.0
352 1.0
-352 1.0
353 1.0
-353 1.0
354 1.0
-354 1.0
355 1.0
-355 1.0
356 1.0
-356 1.0
357 1.0
-357 1.0
358 1.0
-358 1.0
359 1.0
-359 1.0
360 1.0
-360 1.0
361 1.0
-361 1.0
362 1.0
-362 1.0
363 1.0
-363 1.0
364 1.0
-364 1.0
365 1.0
-365 1.0
366 1.0
-366 1.0
367 1.0
-367 1.0
368 1.0
-368 1.0
369 1.0
-369 1.0
370 1.0
-370 1.0
371 1.0
-371 1.0
372 1.0
-372 1.0
373 1.0
-373 1.0
374 1.0
-374 1.0
375 1.0
-375 1.0
376 1.0
-376 1.0
377 1.0
-377 1.0
378 1.0
-378 1.0
379 1.0
-379 1.0
380 1.0
-380 1.0
381 1.0
-381 1.0
382 1.0
-382 1.0
383 1.0
-383 1.0
384 1.0
-384 1.0
385 1.0
-385 1.0
386 1.0
-386 1.0
387 1.0
-387 1.0
388 1.0
-388 1.0
389 1.0
-389 1.0
390 1.0
-390 1.0
391 1.0
-391 1.0
392 1.0
-392 1.0
393 1.0
-393 1.0
394 1.0
-394 1.0
395 1.0
-395 1.0
396 1.0
-396 1.0
397 1.0
-397 1.0
398 1.0
-398 1.0
399 1.0
-399 1.0
400 1.0
-400 1.0
401 1.0
-401 1.0
402 1.0
-402 1.0
403 1.0
-403 1.0
404 1.0
-404 1.0
405 1.0
-405 1.0
406 1.0
-406 1.0
407 1.0
-407 1.0
408 1.0
-408 1.0
409 1.0
-409 1.0
410 1.0
-410 1.0
411 1.0
-411 1.0
412 1.0
-412 1.0
413 1.0
-413 1.0
414 1.0
-414 1.0
415 1.0
-415 1.0
416 1.0
-416 1.0
417 1.0
-417 1.0
418 1.0
-418 1.0
419 1.0
-419 1.0
420 1.0
-420 1.0
421 1.0
-421 1.0
422 1.0
-422 1.0
423 1.0
-423 1.0
424 1.0
-424 1.0
425 1.0
-425 1.0
426 1.0
-426 1.0
427 1.0
-427 1.0
428 1.0
-428 1.0
429 1.0
-429 1.0
430 1.0
-430 1.0
431 1.0
-431 1.0
432 1.0
-432 1.0
433 1.0
-433 1.0
434 1.0
-434 1.0
435 1.0
-435 1.0
436 1.0
-436 1.0
437 1.0
-437 1.0
438 1.0
-438 1.0
439 1.0
-439 1.0
440 1.0
-440 1.0
441 1.0
-441 1.0
442 1.0
-442 1.0
443 1.0
-443 1.0
444 1.0
-444 1.0
445 1.0
-445 1.0
446 1.0
-446 1.0
447 1.0
-447 1.0
448 1.0
-448 1.0
449 1.0
-449 1.0
450 1.0
-450 1.0
451 1.0
-451 1.0
452 1.0
-452 1.0
453 1.0
-453 1.0
454 1.0
-454 1.0
455 1.0
-455 1.0
456 1.0
-456 1.0
457 1.0
-457 1.0
458 1.0
-458 1.0
459 1.0
-459 1.0
460 1.0
-460 1.0
461 1.0
-461 1.0
462 1.0
-462 1.0
463 1.0
-463 1.0
464 1.0
-464 1.0
465 1.0
-465 1.0
466 1.0
-466 1.0
467 1.0
-467 1.0
468 1.0
-468 1.0
469 1.0
-469 1.0
470 1.0
-470 1.0
471 1.0
-471 1.0
472 1.0
-472 1.0
473 1.0
-473 1.0
474 1.0
-474 1.0
475 1.0
-475 1.0
476 1.0
-476 1.0
477 1.0
-477 1.0
478 1.0
-478 1.0
479 1.0
-479 1.0
480 1.0
-480 1.0
481 1.0
-481 1.0
482 1.0
-482 1.0
483 1.0
-483 1.0
484 1.0
-484 1.0
485 1.0
-485 1.0
486 1.0
-486 1.0
487 1.0
-487 1.0
488 1.0
-488 1.0
489 1.0
-489 1.0
490 1.0
-490 1.0
491 1.0
-491 1.0
492 1.0
-492 1.0
493 1.0
-493 1.0
494 1.0
-494 1.0
495 1.0
-495 1.0
496 1.0
-496 1.0
497 1.0
-497 1.0
498 1.0
-498 1.0
499 1.0
-499 1.0
500 1.0
-500 1.0
501 1.0
-501 1.0
502 1.0
-502 1.0
503 1.0
-503 1.0
504 1.0
-504 1.0
505 1.0
-505 1.0
506 1.0
-506 1.0
507 1.0
-507 1.0
508 1.0
-508 1.0
509 1.0
-509 1.0
510 1.0
-510 1.0
511 1.0
-511 1.0
512 1.0
-512 1.0
513 1.0
-513 1.0
514 1.0
-514 1.0
515 1.0
-515 1.0
516 1.0
-516 1.0
517 1.0
-517 1.0
518 1.0
-518 1.0
519 1.0
-519 1.0
520 1.0
-520 1.0
521 1.0
-521 1.0
522 1.0
-522 1.0
523 1.0
-523 1.0
524 1.0
-524 1.0
525 1.0
-525 1.0
526 1.0
-526 1.0
527 1.0
-527 1.0
528 1.0
-528 1.0
529 1.0
-529 1.0
530 1.0
-530 1.0
531 1.0
-531 1.0
532 1.0
-532 1.0
533 1.0
-533 1.0
534 1.0
-534 1.0
535 1.0
-535 1.0
536 1.0
-536 1.0
537 1.0
-537 1.0
538 1.0
-538 1.0
539 1.0
-539 1.0
540 1.0
-540 1.0
541 1.0
-541 1.0
542 1.0
-542 1.0
543 1.0
-543 1.0
544 1.0
-544 1.0
545 1.0
-545 1.0
546 1.0
-546 1.0
547 1.0
-547 1.0
548 1.0
-548 1.0
549 1.0
-549 1.0
550 1.0
-550 1.0
551 1.0
-551 1.0
552 1.0
-552 1.0
553 1.0
-553 1.0
554 1.0
-554 1.0
555 1.0
-555 1.0
556 1.0
-556 1.0
557 1.0
-557 1.0
558 1.0
-558 1.0
559 1.0
-559 1.0
560 1.0
-560 1.0
561 1.0
-561 1.0
562 1.0
-562 1.0
563 1.0
-563 1.0
564 1.0
-564 1.0
565 1.0
-565 1.0
566 1.0
-566 1.0
567 1.0
-567 1.0
568 1.0
-568 1.0
569 1.0
-569 1.0
570 1.0
-570 1.0
571 1.0
-571 1.0
572 1.0
-572 1.0
573 1.0
-573 1.0
574 1.0
-574 1.0
575 1.0
-575 1.0
576 1.0
-576 1.0
577 1.0
-577 1.0
578 1.0
-578 1.0
579 1.0
-579 1.0
580 1.0
-580 1.0
581 1.0
-581 1.0
582 1.0
-582 1.0
583 1.0
-583 1.0
584 1.0
-584 1.0
585 1.0
-585 1.0
586 1.0
-586 1.0
587 1.0
-587 1.0
588 1.0
-588 1.0
589 1.0
-589 1.0
590 1.0
-590 1.0
591 1.0
-591 1.0
592 1.0
-592 1.0
593 1.0
-593 1.0
594 1.0
-594 1.0
595 1.0
-595 1.0
596 1.0
-596 1.0
597 1.0
-597 1.0
598 1.0
-598 1.0
599 1.0
-599 1.0
600 1.0
-600 1.0
601 1.0
-601 1.0
602 1.0
-602 1.0
603 1.0
-603 1.0
604 1.0
-604 1.0
605 1.0
-605 1.0
606 1.0
-606 1.0
607 1.0
-607 1.0
608 1.0
-608 1.0
609 1.0
-609 1.0
610 1.0
-610 1.0
611 1.0
-611 1.0
612 1.0
-612 1.0
613 1.0
-613 1.0
614 1.0
-614 1.0
615 1.0
-615 1.0
616 1.0
-616 1.0
617 1.0
-617 1.0
618 1.0
-618 1.0
619 1.0
-619 1.0
620 1.0
-620 1.0
621 1.0
-621 1.0
622 1.0
-622 1.0
623 1.0
-623 1.0
624 1.0
-624 1.0
625 1.0
-625 1.0
626 1.0
-626 1.0
627 1.0
-627 1.0
628 1.0
-628 1.0
629 1.0
-629 1.0
630 1.0
-630 1.0
631 1.0
-631 1.0
632 1.0
-632 1.0
633 1.0
-633 1.0
634 1.0
-634 1.0
635 1.0
-635 1.0
636 1.0
-636 1.0
637 1.0
-637 1.0
638 1.0
-638 1.0
639 1.0
-639 1.0
640 1.0
-640 1.0
641 1.0
-641 1.0
642 1.0
-642 1.0
643 1.0
-643 1.0
644 1.0
-644 1.0
645 1.0
-645 1.0
646 1.0
-646 1.0
647 1.0
-647 1.0
648 1.0
-648 1.0
649 1.0
-649 1.0
650 1.0
-650 1.0
651 1.0
-651 1.0
652 1.0
-652 1.0
653 1.0
-653 1.0
654 1.0
-654 1.0
655 1.0
-655 1.0
656 1.0
-656 1.0
657 1.0
-657 1.0
658 1.0
-658 1.0
659 1.0
-659 1.0
660 1.0
-660 1.0
661 1.0
-661 1.0
662 1.0
-662 1.0
663 1.0
-663 1.0
664 1.0
-664 1.0
665 1.0
-665 1.0
666 1.0
-666 1.0
667 1.0
-667 1.0
668 1.0
-668 1.0
669 1.0
-669 1.0
670 1.0
-670 1.0
671 1.0
-671 1.0
672 1.0
-672 1.0
673 1.0
-673 1.0
674 1.0
-674 1.0
675 1.0
-675 1.0
676 1.0
-676 1.0
677 0.5
-677 0.5
678 0.5
-678 0.5
679 0.5
-679 0.5
680 0.5
-680 0.5
681 0.5
-681 0.5
682 0.5
-682 0.5
683 0.5
-683 0.5
684 0.5
-684 0.5
685 0.5
-685 0.5
686 0.5
-686 0.5
687 0.5
-687 0.5
688 0.5
-688 0.5
689 0.285353
-689 0.714647
690 0.60661
-690 0.39339
691 0.5
-691 0.5
692 0.5
-692 0.5
693 0.606996
-693 0.393004
694 0.602544
-694 0.397456
695 0.5
-695 0.5
696 0.5
-696 0.5
697 0.5
-697 0.5
698 0.5
-698 0.5
699 0.5
-699 0.5
700 0.5
-700 0.5
701 0.891185
-701 0.108815
702 0.519955
-702 0.480045
703 0.5
-703 0.5
704 0.5
-704 0.5
705 0.5
-705 0.5
706 0.5
-706 0.5
707 0.5
-707 0.5
708 0.5
-708 0.5
709 0.5
-709 0.5
710 0.5
-710 0.5
711 0.5
-711 0.5
712 0.5
-712 0.5
713 0.5
-713 0.5
714 0.5
-714 0.5
715 0.5
-715 0.5
716 0.5
-716 0.5
717 0.5
-717 0.5
718 0.5
-718 0.5
719 0.5
-719 0.5
720 0.5
-720 0.5
721 0.5
-721 0.5
722 0.5
-722 0.5
723 0.5
-723 0.5
724 0.5
-724 0.5
725 0.5
-725 0.5
726 0.5
-726 0.5
727 0.5
-727 0.5
728 0.5
-728 0.5
729 0.5
-729 0.5
730 0.5
-730 0.5
731 0.5
-731 0.5
732 0.5
-732 0.5
733 0.767538
-733 0.232462
734 0.710381
-734 0.289619
735 0.19258
-735 0.80742
736 0.854462
-736 0.145538
737 0.5
-737 0.5
738 0.5
-738 0.5
739 0.5
-739 0.5
740 0.5
-740 0.5
741 0.063576
-741 0.936424
742 0.385715
-742 0.614285
743 0.281451
-743 0.718549
744 0.455864
-744 0.544136
745 0.5
-745 0.5
746 0.5
-746 0.5
747 0.5
-747 0.5
748 0.5
-748 0.5
749 0.5
-749 0.5
750 0.5
-750 0.5
751 0.5
-751 0.5
752 0.5
-752 0.5
753 0.5
-753 0.5
754 0.5
-754 0.5
755 0.5
-755 0.5
756 0.5
-756 0.5
757 0.5
-757 0.5
758 0.5
-758 0.5
759 0.5
-759 0.5
760 0.5
-760 0.5
761 0.5
-761 0.5
762 0.5
-762 0.5
763 0.5
-763 0.5
764 0.5
-764 0.5
765 0.5
-765 0.5
766 0.5
-766 0.5
767 0.5
-767 0.5
768 0.5
-768 0.5
769 0.5
-769 0.5
770 0.5
-770 0.5
771 0.5
-771 0.5
772 0.5
-772 0.5
773 0.5
-773 0.5
774 0.5
-774 0.5
775 0.5
-775 0.5
776 0.5
-776 0.5
777 0.190831
-777 0.809169
778 0.130857
-778 0.869143
779 0.956679
-779 0.043321
780 0.987941
-780 0.012059
781 0.5
-781 0.5
782 0.5
-782 0.5
783 0.5
-783 0.5
784 0.5
-784 0.5
785 0.53007
-785 0.46993
786 0.804246
-786 0.195754
787 0.231965
-787 0.768035
788 0.613824
-788 0.386176
789 0.5
-789 0.5
790 0.5
-790 0.5
791 0.5
-791 0.5
792 0.5
-792 0.5
793 0.5
-793 0.5
794 0.5
-794 0.5
795 0.5
-795 0.5
796 0.5
-796 0.5
797 0.5
-797 0.5
798 0.5
-798 0.5
799 0.5
-799 0.5
800 0.5
-800 0.5
801 0.367786
-801 0.632214
802 0.412304
-802 0.587696
803 0.111955
-803 0.888045
804 0.324465
-804 0.675535
805 0.5
-805 0.5
806 0.5
-806 0.5
807 0.5
-807 0.5
808 0.5
-808 0.5
809 0.5
-809 0.5
810 0.5
-810 0.5
811 0.5
-811 0.5
812 0.5
-812 0.5
813 0.5
-813 0.5
814 0.5
-814 0.5
815 0.5
-815 0.5
816 0.5
-816 0.5
817 0.5
-817 0.5
818 0.5
-818 0.5
819 0.5
-819 0.5
820 0.5
-820 0.5
821 0.5
-821 0.5
822 0.5
-822 0.5
823 0.5
-823 0.5
824 0.5
-824 0.5
825 0.5
-825 0.5
826 0.5
-826 0.5
827 0.5
-827 0.5
828 0.5
-828 0.5
829 0.5
-829 0.5
830 0.5
-830 0.5
831 0.5
-831 0.5
832 0.5
-832 0.5
833 0.5
-833 0.5
834 0.5
-834 0.5
835 0.5
-835 0.5
836 0.5
-836 0.5
837 0.5
-837 0.5
838 0.5
-838 0.5
839 0.5
-839 0.5
840 0.5
-840 0.5
841 0.5
-841 0.5
842 0.5
-842 0.5
843 0.5
-843 0.5
844 0.5
-844 0.5
845 0.5
-845 0.5
846 0.5
-846 0.5
847 0.5
-847 0.5
848 0.5
-848 0.5
849 0.5
-849 0.5
850 0.5
-850 0.5
851 0.5
-851 0.5
852 0.5
-852 0.5
853 0.5
-853 0.5
854 0.5
-854 0.5
855 0.5
-855 0.5
856 0.5
-856 0.5
857 0.5
-857 0.5
858 0.5
-858 0.5
859 0.5
-859 0.5
860 0.5
-860 0.5
861 0.5
-861 0.5
862 0.5
-862 0.5
863 0.5
-863 0.5
864 0.5
-864 0.5
865 0.5
-865 0.5
866 0.5
-866 0.5
867 0.272591
-867 0.727409
868 0.804361
-868 0.195639
869 0.390336
-869 0.609664
870 0.441017
-870 0.558983
871 0.05817
-871 0.94183
872 0.43234
-872 0.56766
873 0.402812
-873 0.597188
874 0.442696
-874 0.557304
875 0.5
-875 0.5
876 0.5
-876 0.5
877 0.5
-877 0.5
878 0.5
-878 0.5
879 0.309686
-879 0.690314
880 0.108986
-880 0.891014
881 0.286055
-881 0.713945
882 0.468727
-882 0.531273
883 0.616449
-883 0.383551
884 0.362056
-884 0.637944
885 0.390614
-885 0.609386
886 0.800598
-886 0.199402
887 0.5
-887 0.5
888 0.5
-888 0.5
889 0.5
-889 0.5
890 0.5
-890 0.5
891 0.5
-891 0.5
892 0.5
-892 0.5
893 0.5
-893 0.5
894 0.5
-894 0.5
895 0.5
-895 0.5
896 0.5
-896 0.5
897 0.5
-897 0.5
898 0.5
-898 0.5
899 0.5
-899 0.5
900 0.5
-900 0.5
901 0.5
-901 0.5
902 0.5
-902 0.5
903 0.913238
-903 0.086762
904 0.193067
-904 0.806933
905 0.120438
-905 0.879562
906 0.381964
-906 0.618036
907 0.5
-907 0.5
908 0.5
-908 0.5
909 0.5
-909 0.5
910 0.5
-910 0.5
911 0.513854
-911 0.486146
912 0.922453
-912 0.077547
913 0.231033
-913 0.768967
914 0.543025
-914 0.456975
915 0.5
-915 0.5
916 0.5
-916 0.5
917 0.5
-917 0.5
918 0.5
-918 0.5
919 0.5
-919 0.5
920 0.5
-920 0.5
921 0.5
-921 0.5
922 0.5
-922 0.5
923 0.405839
-923 0.594161
924 0.693806
-924 0.306194
925 0.973147
-925 0.026853
926 0.009391
-926 0.990609
927 0.80753
-927 0.19247
928 0.922629
-928 0.077371
929 0.970954
-929 0.029046
930 0.927968
-930 0.072032
931 0.5
-931 0.5
932 0.5
-932 0.5
933 0.5
-933 0.5
934 0.5
-934 0.5
935 0.5
-935 0.5
936 0.5
-936 0.5
937 0.5
-937 0.5
938 0.5
-938 0.5
939 0.5
-939 0.5
940 0.5
-940 0.5
941 0.5
-941 0.5
942 0.5
-942 0.5
943 0.5
-943 0.5
944 0.5
-944 0.5
945 0.5
-945 0.5
946 0.5
-946 0.5
947 0.5
-947 0.5
948 0.5
-948 0.5
949 0.5
-949 0.5
950 0.5
-950 0.5
951 0.5
-951 0.5
952 0.5
-952 0.5
953 0.5
-953 0.5
954 0.5
-954 0.5
955 0.5
-955 0.5
956 0.5
-956 0.5
957 0.626409
-957 0.373591
958 0.076232
-958 0.923768
959 0.047368
-959 0.952632
960 0.565215
-960 0.434785
961 0.5
-961 0.5
962 0.5
-962 0.5
963 0.5
-963 0.5
964 0.5
-964 0.5
965 0.5
-965 0.5
966 0.5
-966 0.5
967 0.5
-967 0.5
968 0.5
-968 0.5
969 0.5
-969 0.5
970 0.5
-970 0.5
971 0.5
-971 0.5
972 0.5
-972 0.5
973 0.5
-973 0.5
974 0.5
-974 0.5
975 0.5
-975 0.5
976 0.5
-976 0.5
977 0.5
-977 0.5
978 0.5
-978 0.5
979 0.5
-979 0.5
980 0.5
-980 0.5
981 0.913083
-981 0.086917
982 0.909602
-982 0.090398
983 0.44129
-983 0.55871
984 0.186593
-984 0.813407
985 0.5
-985 0.5
986 0.5
-986 0.5
987 0.5
-987 0.5
988 0.5
-988 0.5
989 0.04902
-989 0.95098
990 0.679603
-990 0.320397
991 0.570871
-991 0.429129
992 0.611802
-992 0.388198
993 0.5
-993 0.5
994 0.5
-994 0.5
995 0.5
-995 0.5
996 0.5
-996 0.5
997 0.073191
-997 0.926809
998 0.724533
-998 0.275467
999 0.069129
-999 0.930871
1000 0.910221
-1000 0.089779
1001 0.5
-1001 0.5
1002 0.5
-1002 0.5
1003 0.5
-1003 0.5
1004 0.5
-1004 0.5
1005 0.522142
-1005 0.477858
1006 0.263108
-1006 0.736892
1007 0.699259
-1007 0.300741
1008 0.963432
-1008 0.036568
1009 0.5
-1009 0.5
1010 0.5
-1010 0.5
1011 0.5
-1011 0.5
1012 0.5
-1012 0.5
1013 0.5
-1013 0.5
1014 0.5
-1014 0.5
1015 0.5
-1015 0.5
1016 0.5
-1016 0.5
1017 0.5
-1017 0.5
1018 0.5
-1018 0.5
1019 0.5
-1019 0.5
1020 0.5
-1020 0.5
1021 0.5
-1021 0.5
1022 0.5
-1022 0.5
1023 0.5
-1023 0.5
1024 0.5
-1024 0.5
1025 0.5
-1025 0.5
1026 0.5
-1026 0.5
1027 0.5
-1027 0.5
1028 0.5
-1028 0.5
1029 0.913078
-1029 0.086922
1030 0.3682
-1030 0.6318
1031 0.609824
-1031 0.390176
1032 0.876511
-1032 0.123489
1033 0.390845
-1033 0.609155
1034 0.016287
-1034 0.983713
1035 0.5
-1035 0.5
1036 0.5
-1036 0.5
1037 0.5
-1037 0.5
1038 0.5
-1038 0.5
1039 0.5
-1039 0.5
1040 0.5
-1040 0.5
1041 0.5
-1041 0.5
1042 0.5
-1042 0.5
1043 0.5
-1043 0.5
1044 0.5
-1044 0.5
1045 0.5
-1045 0.5
1046 0.5
-1046 0.5
1047 0.5
-1047 0.5
1048 0.5
-1048 0.5
1049 0.5
-1049 0.5
1050 0.5
-1050 0.5
1051 0.5
-1051 0.5
1052 0.5
-1052 0.5
1053 0.5
-1053 0.5
1054 0.5
-1054 0.5
1055 0.133461
-1055 0.866539
1056 0.133569
-1056 0.866431
1057 0.747553
-1057 0.252447
1058 0.524306
-1058 0.475694
1059 0.5
-1059 0.5
1060 0.5
-1060 0.5
1061 0.5
-1061 0.5
1062 0.5
-1062 0.5
1063 0.0707
-1063 0.9293
1064 0.254104
-1064 0.745896
1065 0.749021
-1065 0.250979
1066 0.306478
-1066 0.693522
1067 0.5
-1067 0.5
1068 0.5
-1068 0.5
1069 0.5
-1069 0.5
1070 0.5
-1070 0.5
1071 0.5
-1071 0.5
1072 0.5
-1072 0.5
1073 0.5
-1073 0.5
1074 0.5
-1074 0.5
1075 0.5
-1075 0.5
1076 0.5
-1076 0.5
1077 0.5
-1077 0.5
1078 0.5
-1078 0.5
1079 0.5
-1079 0.5
1080 0.5
-1080 0.5
1081 0.5
-1081 0.5
1082 0.5
-1082 0.5
1083 0.5
-1083 0.5
1084 0.5
-1084 0.5
1085 0.5
-1085 0.5
1086 0.5
-1086 0.5
1087 0.5
-1087 0.5
1088 0.5
-1088 0.5
1089 0.5
-1089 0.5
1090 0.5
-1090 0.5
1091 0.5
-1091 0.5
1092 0.5
-1092 0.5
1093 0.5
-1093 0.5
1094 0.5
-1094 0.5
1095 0.5
-1095 0.5
1096 0.5
-1096 0.5
1097 0.5
-1097 0.5
1098 0.5
-1098 0.5
1099 0.5
-1099 0.5
1100 0.5
-1100 0.5
1101 0.5
-1101 0.5
1102 0.5
-1102 0.5
1103 0.5
-1103 0.5
1104 0.5
-1104 0.5
1105 0.5
-1105 0.5
1106 0.5
-1106 0.5
1107 0.5
-1107 0.5
1108 0.5
-1108 0.5
1109 0.5
-1109 0.5
1110 0.5
-1110 0.5
1111 0.743799
-1111 0.256201
1112 0.639537
-1112 0.360463
1113 0.715922
-1113 0.284078
1114 0.865985
-1114 0.134015
1115 0.5
-1115 0.5
1116 0.5
-1116 0.5
1117 0.5
-1117 0.5
1118 0.5
-1118 0.5
1119 0.182425
-1119 0.817575
1120 0.984553
-1120 0.015447
1121 0.807247
-1121 0.192753
1122 0.988867
-1122 0.011133
1123 0.5
-1123 0.5
1124 0.5
-1124 0.5
1125 0.5
-1125 0.5
1126 0.5
-1126 0.5
1127 0.5
-1127 0.5
1128 0.5
-1128 0.5
1129 0.5
-1129 0.5
1130 0.5
-1130 0.5
1131 0.5
-1131 0.5
1132 0.5
-1132 0.5
1133 0.5
-1133 0.5
1134 0.5
-1134 0.5
1135 0.5
-1135 0.5
1136 0.5
-1136 0.5
1137 0.5
-1137 0.5
1138 0.5
-1138 0.5
1139 0.5
-1139 0.5
1140 0.5
-1140 0.5
1141 0.5
-1141 0.5
1142 0.5
-1142 0.5
1143 0.5
-1143 0.5
1144 0.5
-1144 0.5
1145 0.5
-1145 0.5
1146 0.5
-1146 0.5
1147 0.5
-1147 0.5
1148 0.5
-1148 0.5
1149 0.5
-1149 0.5
1150 0.5
-1150 0.5
1151 0.5
-1151 0.5
1152 0.5
-1152 0.5
1153 0.033911
-1153 0.966089
1154 0.31877
-1154 0.68123
1155 0.572879
-1155 0.427121
1156 0.477224
-1156 0.522776
1157 0.5
-1157 0.5
1158 0.5
-1158 0.5
1159 0.5
-1159 0.5
1160 0.5
-1160 0.5
1161 0.5
-1161 0.5
1162 0.5
-1162 0.5
1163 0.5
-1163 0.5
1164 0.5
-1164 0.5
1165 0.405119
-1165 0.594881
1166 0.033218
-1166 0.966782
1167 0.485929
-1167 0.514071
1168 0.649413
-1168 0.350587
1169 0.055879
-1169 0.944121
1170 0.194071
-1170 0.805929
1171 0.021791
-1171 0.978209
1172 0.140394
-1172 0.859606
1173 0.5
-1173 0.5
1174 0.5
-1174 0.5
1175 0.5
-1175 0.5
1176 0.5
-1176 0.5
1177 0.359955
-1177 0.640045
1178 0.88035
-1178 0.11965
1179 0.425211
-1179 0.574789
1180 0.084241
-1180 0.915759
1181 0.27384
-1181 0.72616
1182 0.447272
-1182 0.552728
1183 0.508715
-1183 0.491285
1184 0.237673
-1184 0.762327
1185 0.5
-1185 0.5
1186 0.5
-1186 0.5
1187 0.5
-1187 0.5
1188 0.5
-1188 0.5
1189 0.5
-1189 0.5
1190 0.5
-1190 0.5
1191 0.5
-1191 0.5
1192 0.5
-1192 0.5
1193 0.5
-1193 0.5
1194 0.5
-1194 0.5
1195 0.5
-1195 0.5
1196 0.5
-1196 0.5
1197 0.5
-1197 0.5
1198 0.5
-1198 0.5
1199 0.5
-1199 0.5
1200 0.5
-1200 0.5
1201 0.5
-1201 0.5
1202 0.5
-1202 0.5
1203 0.5
-1203 0.5
1204 0.5
-1204 0.5
1205 0.5
-1205 0.5
1206 0.5
-1206 0.5
1207 0.5
-1207 0.5
1208 0.5
-1208 0.5
1209 0.5
-1209 0.5
1210 0.5
-1210 0.5
1211 0.5
-1211 0.5
1212 0.5
-1212 0.5
1213 0.5
-1213 0.5
1214 0.5
-1214 0.5
1215 0.5
-1215 0.5
1216 0.5
-1216 0.5
1217 0.812648
-1217 0.187352
1218 0.814957
-1218 0.185043
1219 0.527887
-1219 0.472113
1220 0.924035
-1220 0.075965
1221 0.200233
-1221 0.799767
1222 0.344666
-1222 0.655334
1223 0.092676
-1223 0.907324
1224 0.913764
-1224 0.086236
1225 0.5
-1225 0.5
1226 0.5
-1226 0.5
1227 0.5
-1227 0.5
1228 0.5
-1228 0.5
1229 0.5
-1229 0.5
1230 0.5
-1230 0.5
1231 0.5
-1231 0.5
1232 0.5
-1232 0.5
1233 0.5
-1233 0.5
1234 0.5
-1234 0.5
1235 0.5
-1235 0.5
1236 0.5
-1236 0.5
1237 0.5
-1237 0.5
1238 0.5
-1238 0.5
1239 0.5
-1239 0.5
1240 0.5
-1240 0.5
1241 0.5
-1241 0.5
1242 0.5
-1242 0.5
1243 0.5
-1243 0.5
1244 0.5
-1244 0.5
1245 0.5
-1245 0.5
1246 0.5
-1246 0.5
1247 0.5
-1247 0.5
1248 0.5
-1248 0.5
1249 0.5
-1249 0.5
1250 0.5
-1250 0.5
1251 0.5
-1251 0.5
1252 0.5
-1252 0.5
1253 0.5
-1253 0.5
1254 0.5
-1254 0.5
1255 0.5
-1255 0.5
1256 0.5
-1256 0.5
1257 0.5
-1257 0.5
1258 0.5
-1258 0.5
1259 0.5
-1259 0.5
1260 0.5
-1260 0.5
1261 0.5
-1261 0.5
1262 0.5
-1262 0.5
1263 0.5
-1263 0.5
1264 0.5
-1264 0.5
1265 0.5
-1265 0.5
1266 0.5
-1266 0.5
1267 0.5
-1267 0.5
1268 0.5
-1268 0.5
1269 0.5
-1269 0.5
1270 0.5
-1270 0.5
1271 0.5
-1271 0.5
1272 0.5
-1272 0.5
1273 0.5
-1273 0.5
1274 0.5
-1274 0.5
1275 0.925754
-1275 0.074246
1276 0.502214
-1276 0.497786
1277 0.90782
-1277 0.09218
1278 0.408918
-1278 0.591082
1279 0.5
-1279 0.5
1280 0.5
-1280 0.5
1281 0.5
-1281 0.5
1282 0.5
-1282 0.5
1283 0.5
-1283 0.5
1284 0.5
-1284 0.5
1285 0.5
-1285 0.5
1286 0.5
-1286 0.5
1287 0.655904
-1287 0.344096
1288 0.909522
-1288 0.090478
1289 0.625524
-1289 0.374476
1290 0.877862
-1290 0.122138
1291 0.5
-1291 0.5
1292 0.5
-1292 0.5
1293 0.5
-1293 0.5
1294 0.5
-1294 0.5
1295 0.5
-1295 0.5
1296 0.5
-1296 0.5
1297 0.5
-1297 0.5
1298 0.5
-1298 0.5
1299 0.5
-1299 0.5
1300 0.5
-1300 0.5
1301 0.5
-1301 0.5
1302 0.5
-1302 0.5
1303 0.5
-1303 0.5
1304 0.5
-1304 0.5
1305 0.5
-1305 0.5
1306 0.5
-1306 0.5
1307 0.5
-1307 0.5
1308 0.5
-1308 0.5
1309 0.5
-1309 0.5
1310 0.5
-1310 0.5
1311 0.5
-1311 0.5
1312 0.5
-1312 0.5
1313 0.5
-1313 0.5
1314 0.5
-1314 0.5
1315 0.5
-1315 0.5
1316 0.5
-1316 0.5
1317 0.5
-1317 0.5
1318 0.5
-1318 0.5
1319 0.5
-1319 0.5
1320 0.5
-1320 0.5
1321 0.5
-1321 0.5
1322 0.5
-1322 0.5
1323 0.5
-1323 0.5
1324 0.5
-1324 0.5
1325 0.5
-1325 0.5
1326 0.5
-1326 0.5
1327 0.5
-1327 0.5
1328 0.5
-1328 0.5
1329 0.5
-1329 0.5
1330 0.5
-1330 0.5
1331 0.5
-1331 0.5
1332 0.5
-1332 0.5
1333 0.5
-1333 0.5
1334 0.5
-1334 0.5
1335 0.5
-1335 0.5
1336 0.5
-1336 0.5
1337 0.5
-1337 0.5
1338 0.5
-1338 0.5
1339 0.5
-1339 0.5
1340 0.5
-1340 0.5
1341 0.186622
-1341 0.813378
1342 0.403452
-1342 0.596548
1343 0.584796
-1343 0.415204
1344 0.690876
-1344 0.309124
1345 0.5
-1345 0.5
1346 0.5
-1346 0.5
1347 0.5
-1347 0.5
1348 0.5
-1348 0.5
1349 0.5
-1349 0.5
1350 0.5
-1350 0.5
1351 0.5
-1351 0.5
1352 0.5
-1352 0.5
1353 0.5
-1353 0.5
1354 0.5
-1354 0.5
1355 0.5
-1355 0.5
1356 0.5
-1356 0.5
1357 0.5
-1357 0.5
1358 0.5
-1358 0.5
1359 0.5
-1359 0.5
1360 0.5
-1360 0.5
1361 0.5
-1361 0.5
1362 0.5
-1362 0.5
1363 0.5
-1363 0.5
1364 0.5
-1364 0.5
1365 0.5
-1365 0.5
1366 0.5
-1366 0.5
1367 0.5
-1367 0.5
1368 0.5
-1368 0.5
1369 0.5
-1369 0.5
1370 0.5
-1370 0.5
1371 0.5
-1371 0.5
1372 0.5
-1372 0.5
1373 0.5
-1373 0.5
1374 0.5
-1374 0.5
1375 0.5
-1375 0.5
1376 0.5
-1376 0.5
1377 0.5
-1377 0.5
1378 0.5
-1378 0.5
1379 0.5
-1379 0.5
1380 0.5
-1380 0.5
1381 0.285592
-1381 0.714408
1382 0.814495
-1382 0.185505
1383 0.61572
-1383 0.38428
1384 0.59781
-1384 0.40219
1385 0.113483
-1385 0.886517
1386 0.583807
-1386 0.416193
1387 0.294127
-1387 0.705873
1388 0.100398
-1388 0.899602
1389 0.751739
-1389 0.248261
1390 0.995853
-1390 0.004147
1391 0.394614
-1391 0.605386
1392 0.612803
-1392 0.387197
1393 0.5
-1393 0.5
1394 0.5
-1394 0.5
1395 0.5
-1395 0.5
1396 0.5
-1396 0.5
1397 0.5
-1397 0.5
1398 0.5
-1398 0.5
1399 0.5
-1399 0.5
1400 0.5
-1400 0.5
1401 0.5
-1401 0.5
1402 0.5
-1402 0.5
1403 0.5
-1403 0.5
1404 0.5
-1404 0.5
1405 0.5
-1405 0.5
1406 0.5
-1406 0.5
1407 0.5
-1407 0.5
1408 0.5
-1408 0.5
1409 0.955259
-1409 0.044741
1410 0.298269
-1410 0.701731
1411 0.24614
-1411 0.75386
1412 0.055656
-1412 0.944344
1413 0.5
-1413 0.5
1414 0.5
-1414 0.5
1415 0.5
-1415 0.5
1416 0.5
-1416 0.5
1417 0.5
-1417 0.5
1418 0.5
-1418 0.5
1419 0.5
-1419 0.5
1420 0.5
-1420 0.5
1421 0.578202
-1421 0.421798
1422 0.825246
-1422 0.174754
1423 0.695201
-1423 0.304799
1424 0.673445
-1424 0.326555
1425 0.5
-1425 0.5
1426 0.5
-1426 0.5
1427 0.5
-1427 0.5
1428 0.5
-1428 0.5
1429 0.5
-1429 0.5
1430 0.5
-1430 0.5
1431 0.5
-1431 0.5
1432 0.5
-1432 0.5
1433 0.5
-1433 0.5
1434 0.5
-1434 0.5
1435 0.5
-1435 0.5
1436 0.5
-1436 0.5
1437 0.5
-1437 0.5
1438 0.5
-1438 0.5
1439 0.5
-1439 0.5
1440 0.5
-1440 0.5
1441 0.5
-1441 0.5
1442 0.5
-1442 0.5
1443 0.5
-1443 0.5
1444 0.5
-1444 0.5
1445 0.5
-1445 0.5
1446 0.5
-1446 0.5
1447 0.814203
-1447 0.185797
1448 0.417934
-1448 0.582066
1449 0.495471
-1449 0.504529
1450 0.883198
-1450 0.116802
1451 0.5
-1451 0.5
1452 0.5
-1452 0.5
1453 0.5
-1453 0.5
1454 0.5
-1454 0.5
1455 0.157403
-1455 0.842597
1456 0.431888
-1456 0.568112
1457 0.243697
-1457 0.756303
1458 0.473144
-1458 0.526856
1459 0.5
-1459 0.5
1460 0.5
-1460 0.5
1461 0.5
-1461 0.5
1462 0.5
-1462 0.5
1463 0.820833
-1463 0.179167
1464 0.542401
-1464 0.457599
1465 0.292298
-1465 0.707702
1466 0.308462
-1466 0.691538
1467 0.5
-1467 0.5
1468 0.5
-1468 0.5
1469 0.5
-1469 0.5
1470 0.5
-1470 0.5
1471 0.621657
-1471 0.378343
1472 0.665411
-1472 0.334589
1473 0.194448
-1473 0.805552
1474 0.117128
-1474 0.882872
1475 0.5
-1475 0.5
1476 0.5
-1476 0.5
1477 0.5
-1477 0.5
1478 0.5
-1478 0.5
1479 0.607671
-1479 0.392329
1480 0.979473
-1480 0.020527
1481 0.343651
-1481 0.656349
1482 0.851368
-1482 0.148632
1483 0.5
-1483 0.5
1484 0.5
-1484 0.5
1485 0.5
-1485 0.5
1486 0.5
-1486 0.5
1487 0.5
-1487 0.5
1488 0.5
-1488 0.5
1489 0.5
-1489 0.5
1490 0.5
-1490 0.5
1491 0.5
-1491 0.5
1492 0.5
-1492 0.5
1493 0.5
-1493 0.5
1494 0.5
-1494 0.5
1495 0.5
-1495 0.5
1496 0.5
-1496 0.5
1497 0.5
-1497 0.5
1498 0.5
-1498 0.5
1499 0.5
-1499 0.5
1500 0.5
-1500 0.5
1501 0.5
-1501 0.5
1502 0.5
-1502 0.5
1503 0.5
-1503 0.5
1504 0.5
-1504 0.5
1505 0.5
-1505 0.5
1506 0.5
-1506 0.5
1507 0.026499
-1507 0.973501
1508 0.9916
-1508 0.0084
1509 0.374955
-1509 0.625045
1510 0.566271
-1510 0.433729
1511 0.5
-1511 0.5
1512 0.5
-1512 0.5
1513 0.5
-1513 0.5
1514 0.5
-1514 0.5
1515 0.5
-1515 0.5
1516 0.5
-1516 0.5
1517 0.5
-1517 0.5
1518 0.5
-1518 0.5
1519 0.5
-1519 0.5
1520 0.5
-1520 0.5
1521 0.5
-1521 0.5
1522 0.5
-1522 0.5
1523 0.5
-1523 0.5
1524 0.5
-1524 0.5
1525 0.5
-1525 0.5
1526 0.5
-1526 0.5
1527 0.012564
-1527 0.987436
1528 0.293188
-1528 0.706812
1529 0.401662
-1529 0.598338
1530 0.913827
-1530 0.086173
1531 0.5
-1531 0.5
1532 0.5
-1532 0.5
1533 0.5
-1533 0.5
1534 0.5
-1534 0.5
1535 0.5
-1535 0.5
1536 0.5
-1536 0.5
1537 0.5
-1537 0.5
1538 0.5
-1538 0.5
1539 0.5
-1539 0.5
1540 0.5
-1540 0.5
1541 0.5
-1541 0.5
1542 0.5
-1542 0.5
1543 0.5
-1543 0.5
1544 0.5
-1544 0.5
1545 0.559414
-1545 0.440586
1546 0.986096
-1546 0.013904
1547 0.148812
-1547 0.851188
1548 0.07986
-1548 0.92014
1549 0.5
-1549 0.5
1550 0.5
-1550 0.5
1551 0.5
-1551 0.5
1552 0.5
-1552 0.5
1553 0.5
-1553 0.5
1554 0.5
-1554 0.5
1555 0.5
-1555 0.5
1556 0.5
-1556 0.5
1557 0.5
-1557 0.5
1558 0.5
-1558 0.5
1559 0.5
-1559 0.5
1560 0.5
-1560 0.5
1561 0.5
-1561 0.5
1562 0.5
-1562 0.5
1563 0.5
-1563 0.5
1564 0.5
-1564 0.5
1565 0.5
-1565 0.5
1566 0.5
-1566 0.5
1567 0.5
-1567 0.5
1568 0.5
-1568 0.5
1569 0.5
-1569 0.5
1570 0.5
-1570 0.5
1571 0.5
-1571 0.5
1572 0.5
-1572 0.5
1573 0.5
-1573 0.5
1574 0.5
-1574 0.5
1575 0.5
-1575 0.5
1576 0.5
-1576 0.5
1577 0.5
-1577 0.5
1578 0.5
-1578 0.5
1579 0.5
-1579 0.5
1580 0.5
-1580 0.5
1581 0.5
-1581 0.5
1582 0.5
-1582 0.5
1583 0.5
-1583 0.5
1584 0.5
-1584 0.5
1585 0.0466
-1585 0.9534
1586 0.236615
-1586 0.763385
1587 0.499987
-1587 0.500013
1588 0.879186
-1588 0.120814
1589 0.902189
-1589 0.097811
1590 0.646324
-1590 0.353676
1591 0.196062
-1591 0.803938
1592 0.117466
-1592 0.882534
1593 0.5
-1593 0.5
1594 0.5
-1594 0.5
1595 0.5
-1595 0.5
1596 0.5
-1596 0.5
1597 0.5
-1597 0.5
1598 0.5
-1598 0.5
1599 0.5
-1599 0.5
1600 0.5
-1600 0.5
1601 0.5
-1601 0.5
1602 0.5
-1602 0.5
1603 0.5
-1603 0.5
1604 0.5
-1604 0.5
1605 0.5
-1605 0.5
1606 0.5
-1606 0.5
1607 0.5
-1607 0.5
1608 0.5
-1608 0.5
1609 0.5
-1609 0.5
1610 0.5
-1610 0.5
1611 0.5
-1611 0.5
1612 0.5
-1612 0.5
1613 0.5
-1613 0.5
1614 0.5
-1614 0.5
1615 0.5
-1615 0.5
1616 0.5
-1616 0.5
1617 0.5
-1617 0.5
1618 0.5
-1618 0.5
1619 0.5
-1619 0.5
1620 0.5
-1620 0.5
1621 0.5
-1621 0.5
1622 0.5
-1622 0.5
1623 0.5
-1623 0.5
1624 0.5
-1624 0.5
1625 0.5
-1625 0.5
1626 0.5
-1626 0.5
1627 0.5
-1627 0.5
1628 0.5
-1628 0.5
1629 0.5
-1629 0.5
1630 0.5
-1630 0.5
1631 0.5
-1631 0.5
1632 0.5
-1632 0.5
1633 0.529463
-1633 0.470537
1634 0.797585
-1634 0.202415
1635 0.299457
-1635 0.700543
1636 0.06565
-1636 0.93435
1637 0.5
-1637 0.5
1638 0.5
-1638 0.5
1639 0.5
-1639 0.5
1640 0.5
-1640 0.5
1641 0.761918
-1641 0.238082
1642 0.845933
-1642 0.154067
1643 0.275526
-1643 0.724474
1644 0.64615
-1644 0.35385
1645 0.5
-1645 0.5
1646 0.5
-1646 0.5
1647 0.882862
-1647 0.117138
1648 0.963221
-1648 0.036779
1649 0.249215
-1649 0.750785
1650 0.658981
-1650 0.341019
1651 0.5
-1651 0.5
1652 0.5
-1652 0.5
1653 0.5
-1653 0.5
1654 0.5
-1654 0.5
1655 0.5
-1655 0.5
1656 0.5
-1656 0.5
1657 0.5
-1657 0.5
1658 0.5
-1658 0.5
1659 0.5
-1659 0.5
1660 0.5
-1660 0.5
1661 0.5
-1661 0.5
1662 0.5
-1662 0.5
1663 0.5
-1663 0.5
1664 0.5
-1664 0.5
1665 0.5
-1665 0.5
1666 0.5
-1666 0.5
1667 0.5
-1667 0.5
1668 0.5
-1668 0.5
1669 0.5
-1669 0.5
1670 0.5
-1670 0.5
1671 0.5
-1671 0.5
1672 0.5
-1672 0.5
1673 0.5
-1673 0.5
1674 0.5
-1674 0.5
1675 0.994253
-1675 0.005747
1676 0.75186
-1676 0.24814
1677 0.246342
-1677 0.753658
1678 0.533434
-1678 0.466566
1679 0.5
-1679 0.5
1680 0.5
-1680 0.5
1681 0.5
-1681 0.5
1682 0.5
-1682 0.5
1683 0.5
-1683 0.5
1684 0.5
-1684 0.5
1685 0.5
-1685 0.5
1686 0.5
-1686 0.5
1687 0.5
-1687 0.5
1688 0.5
-1688 0.5
1689 0.5
-1689 0.5
1690 0.5
-1690 0.5
1691 0.009272
-1691 0.990728
1692 0.981865
-1692 0.018135
1693 0.098973
-1693 0.901027
1694 0.581754
-1694 0.418246
1695 0.5
-1695 0.5
1696 0.5
-1696 0.5
1697 0.5
-1697 0.5
1698 0.5
-1698 0.5
1699 0.5
-1699 0.5
1700 0.5
-1700 0.5
1701 0.5
-1701 0.5
1702 0.5
-1702 0.5
1703 0.5
-1703 0.5
1704 0.5
-1704 0.5
1705 0.5
-1705 0.5
1706 0.5
-1706 0.5
1707 0.5
-1707 0.5
1708 0.5
-1708 0.5
1709 0.5
-1709 0.5
1710 0.5
-1710 0.5
1711 0.5
-1711 0.5
1712 0.5
-1712 0.5
1713 0.5
-1713 0.5
1714 0.5
-1714 0.5
1715 0.5
-1715 0.5
1716 0.5
-1716 0.5
1717 0.5
-1717 0.5
1718 0.5
-1718 0.5
1719 0.5
-1719 0.5
1720 0.5
-1720 0.5
1721 0.5
-1721 0.5
1722 0.5
-1722 0.5
1723 0.5
-1723 0.5
1724 0.5
-1724 0.5
1725 0.5
-1725 0.5
1726 0.5
-1726 0.5
1727 0.5
-1727 0.5
1728 0.5
-1728 0.5
1729 0.5
-1729 0.5
1730 0.5
-1730 0.5
1731 0.5
-1731 0.5
1732 0.5
-1732 0.5
1733 0.5
-1733 0.5
1734 0.5
-1734 0.5
1735 0.5
-1735 0.5
1736 0.5
-1736 0.5
1737 0.5
-1737 0.5
1738 0.5
-1738 0.5
1739 0.5
-1739 0.5
1740 0.5
-1740 0.5
1741 0.5
-1741 0.5
1742 0.5
-1742 0.5
1743 0.5
-1743 0.5
1744 0.5
-1744 0.5
1745 0.5
-1745 0.5
1746 0.5
-1746 0.5
1747 0.687992
-1747 0.312008
1748 0.628295
-1748 0.371705
1749 0.5
-1749 0.5
1750 0.5
-1750 0.5
1751 0.5
-1751 0.5
1752 0.5
-1752 0.5
1753 0.5
-1753 0.5
1754 0.5
-1754 0.5
1755 0.5
-1755 0.5
1756 0.5
-1756 0.5
1757 0.5
-1757 0.5
1758 0.5
-1758 0.5
1759 0.5
-1759 0.5
1760 0.5
-1760 0.5
1761 0.5
-1761 0.5
1762 0.5
-1762 0.5
1763 0.5
-1763 0.5
1764 0.5
-1764 0.5
1765 0.5
-1765 0.5
1766 0.5
-1766 0.5
1767 0.5
-1767 0.5
1768 0.5
-1768 0.5
1769 0.840106
-1769 0.159894
1770 0.016896
-1770 0.983104
1771 0.851878
-1771 0.148122
1772 0.528097
-1772 0.471903
1773 0.5
-1773 0.5
1774 0.5
-1774 0.5
1775 0.5
-1775 0.5
1776 0.5
-1776 0.5
1777 0.5
-1777 0.5
1778 0.5
-1778 0.5
1779 0.5
-1779 0.5
1780 0.5
-1780 0.5
1781 0.5
-1781 0.5
1782 0.5
-1782 0.5
1783 0.5
-1783 0.5
1784 0.5
-1784 0.5
1785 0.5
-1785 0.5
1786 0.5
-1786 0.5
1787 0.5
-1787 0.5
1788 0.5
-1788 0.5
1789 0.011267
-1789 0.988733
1790 0.73102
-1790 0.26898
1791 0.840949
-1791 0.159051
1792 0.851373
-1792 0.148627
1793 0.5
-1793 0.5
1794 0.5
-1794 0.5
1795 0.5
-1795 0.5
1796 0.5
-1796 0.5
1797 0.5
-1797 0.5
1798 0.5
-1798 0.5
1799 0.5
-1799 0.5
1800 0.5
-1800 0.5
1801 0.5
-1801 0.5
1802 0.5
-1802 0.5
1803 0.5
-1803 0.5
1804 0.5
-1804 0.5
1805 0.5
-1805 0.5
1806 0.5
-1806 0.5
1807 0.5
-1807 0.5
1808 0.5
-1808 0.5
1809 0.5
-1809 0.5
1810 0.5
-1810 0.5
1811 0.5
-1811 0.5
1812 0.5
-1812 0.5
1813 0.5
-1813 0.5
1814 0.5
-1814 0.5
1815 0.5
-1815 0.5
1816 0.5
-1816 0.5
1817 0.5
-1817 0.5
1818 0.5
-1818 0.5
1819 0.5
-1819 0.5
1820 0.5
-1820 0.5
1821 0.5
-1821 0.5
1822 0.5
-1822 0.5
1823 0.5
-1823 0.5
1824 0.5
-1824 0.5
1825 0.900893
-1825 0.099107
1826 0.68516
-1826 0.31484
1827 0.815045
-1827 0.184955
1828 0.241184
-1828 0.758816
1829 0.5
-1829 0.5
1830 0.5
-1830 0.5
1831 0.5
-1831 0.5
1832 0.5
-1832 0.5
1833 0.5
-1833 0.5
1834 0.5
-1834 0.5
1835 0.5
-1835 0.5
1836 0.5
-1836 0.5
1837 0.5
-1837 0.5
1838 0.5
-1838 0.5
1839 0.5
-1839 0.5
1840 0.5
-1840 0.5
1841 0.5
-1841 0.5
1842 0.5
-1842 0.5
1843 0.5
-1843 0.5
1844 0.5
-1844 0.5
1845 0.81383
-1845 0.18617
1846 0.43394
-1846 0.56606
1847 0.778818
-1847 0.221182
1848 0.604977
-1848 0.395023
1849 0.5
-1849 0.5
1850 0.5
-1850 0.5
1851 0.5
-1851 0.5
1852 0.5
-1852 0.5
1853 0.5
-1853 0.5
1854 0.5
-1854 0.5
1855 0.659597
-1855 0.340403
1856 0.096442
-1856 0.903558
1857 0.30881
-1857 0.69119
1858 0.977528
-1858 0.022472
1859 0.5
-1859 0.5
1860 0.5
-1860 0.5
1861 0.5
-1861 0.5
1862 0.5
-1862 0.5
1863 0.5
-1863 0.5
1864 0.5
-1864 0.5
1865 0.5
-1865 0.5
1866 0.5
-1866 0.5
1867 0.5
-1867 0.5
1868 0.5
-1868 0.5
1869 0.5
-1869 0.5
1870 0.5
-1870 0.5
1871 0.737189
-1871 0.262811
1872 0.642135
-1872 0.357865
1873 0.423285
-1873 0.576715
1874 0.512773
-1874 0.487227
1875 0.5
-1875 0.5
1876 0.5
-1876 0.5
1877 0.5
-1877 0.5
1878 0.5
-1878 0.5
1879 0.5
-1879 0.5
1880 0.5
-1880 0.5
1881 0.5
-1881 0.5
1882 0.5
-1882 0.5
1883 0.5
-1883 0.5
1884 0.5
-1884 0.5
1885 0.5
-1885 0.5
1886 0.5
-1886 0.5
1887 0.521255
-1887 0.478745
1888 0.895208
-1888 0.104792
1889 0.631361
-1889 0.368639
1890 0.937451
-1890 0.062549
1891 0.854689
-1891 0.145311
1892 0.289879
-1892 0.710121
1893 0.940802
-1893 0.059198
1894 0.891847
-1894 0.108153
1895 0.5
-1895 0.5
1896 0.5
-1896 0.5
1897 0.5
-1897 0.5
1898 0.5
-1898 0.5
1899 0.5
-1899 0.5
1900 0.5
-1900 0.5
1901 0.5
-1901 0.5
1902 0.5
-1902 0.5
1903 0.5
-1903 0.5
1904 0.5
-1904 0.5
1905 0.5
-1905 0.5
1906 0.5
-1906 0.5
1907 0.071637
-1907 0.928363
1908 0.129141
-1908 0.870859
1909 0.910748
-1909 0.089252
1910 0.803315
-1910 0.196685
1911 0.432003
-1911 0.567997
1912 0.698523
-1912 0.301477
1913 0.594524
-1913 0.405476
1914 0.369454
-1914 0.630546
1915 0.5
-1915 0.5
1916 0.5
-1916 0.5
1917 0.5
-1917 0.5
1918 0.5
-1918 0.5
1919 0.5
-1919 0.5
1920 0.5
-1920 0.5
1921 0.5
-1921 0.5
1922 0.5
-1922 0.5
1923 0.5
-1923 0.5
1924 0.5
-1924 0.5
1925 0.5
-1925 0.5
1926 0.5
-1926 0.5
1927 0.5
-1927 0.5
1928 0.5
-1928 0.5
1929 0.5
-1929 0.5
1930 0.5
-1930 0.5
1931 0.5
-1931 0.5
1932 0.5
-1932 0.5
1933 0.5
-1933 0.5
1934 0.5
-1934 0.5
1935 0.386011
-1935 0.613989
1936 0.783049
-1936 0.216951
1937 0.503127
-1937 0.496873
1938 0.980534
-1938 0.019466
1939 0.5
-1939 0.5
1940 0.5
-1940 0.5
1941 0.5
-1941 0.5
1942 0.5
-1942 0.5
1943 0.547416
-1943 0.452584
1944 0.105584
-1944 0.894416
1945 0.645846
-1945 0.354154
1946 0.782531
-1946 0.217469
1947 0.5
-1947 0.5
1948 0.5
-1948 0.5
1949 0.5
-1949 0.5
1950 0.5
-1950 0.5
1951 0.5
-1951 0.5
1952 0.5
-1952 0.5
1953 0.5
-1953 0.5
1954 0.5
-1954 0.5
1955 0.5
-1955 0.5
1956 0.5
-1956 0.5
1957 0.5
-1957 0.5
1958 0.5
-1958 0.5
1959 0.5
-1959 0.5
1960 0.5
-1960 0.5
1961 0.5
-1961 0.5
1962 0.5
-1962 0.5
1963 0.5
-1963 0.5
1964 0.5
-1964 0.5
1965 0.5
-1965 0.5
1966 0.5
-1966 0.5
1967 0.5
-1967 0.5
1968 0.5
-1968 0.5
1969 0.685146
-1969 0.314854
1970 0.732682
-1970 0.267318
1971 0.532985
-1971 0.467015
1972 0.88802
-1972 0.11198
1973 0.913756
-1973 0.086244
1974 0.224964
-1974 0.775036
1975 0.408159
-1975 0.591841
1976 0.304011
-1976 0.695989
1977 0.163807
-1977 0.836193
1978 0.168014
-1978 0.831986
1979 0.360044
-1979 0.639956
1980 0.213162
-1980 0.786838
1981 0.5
-1981 0.5
1982 0.5
-1982 0.5
1983 0.5
-1983 0.5
1984 0.5
-1984 0.5
1985 0.5
-1985 0.5
1986 0.5
-1986 0.5
1987 0.5
-1987 0.5
1988 0.5
-1988 0.5
1989 0.5
-1989 0.5
1990 0.5
-1990 0.5
1991 0.5
-1991 0.5
1992 0.5
-1992 0.5
1993 0.5
-1993 0.5
1994 0.5
-1994 0.5
1995 0.5
-1995 0.5
1996 0.5
-1996 0.5
1997 0.5
-1997 0.5
1998 0.5
-1998 0.5
1999 0.5
-1999 0.5
2000 0.5
-2000 0.5
2001 0.5
-2001 0.5
2002 0.5
-2002 0.5
2003 0.5
-2003 0.5
2004 0.5
-2004 0.5
2005 0.5
-2005 0.5
2006 0.5
-2006 0.5
2007 0.5
-2007 0.5
2008 0.5
-2008 0.5
2009 0.251822
-2009 0.748178
2010 0.951825
-2010 0.048175
2011 0.874983
-2011 0.125017
2012 0.634147
-2012 0.365853
2013 0.5
-2013 0.5
2014 0.5
-2014 0.5
2015 0.5
-2015 0.5
2016 0.5
-2016 0.5
2017 0.17833
-2017 0.82167
2018 0.770949
-2018 0.229051
2019 0.35035
-2019 0.64965
2020 0.42086
-2020 0.57914
2021 0.5
-2021 0.5
2022 0.5
-2022 0.5
2023 0.5
-2023 0.5
2024 0.5
-2024 0.5
2025 0.5
-2025 0.5
2026 0.5
-2026 0.5
2027 0.5
-2027 0.5
2028 0.5
-2028 0.5
2029 0.5
-2029 0.5
2030 0.5
-2030 0.5
2031 0.5
-2031 0.5
2032 0.5
-2032 0.5
2033 0.5
-2033 0.5
2034 0.5
-2034 0.5
2035 0.5
-2035 0.5
2036 0.5
-2036 0.5
2037 0.5
-2037 0.5
2038 0.5
-2038 0.5
2039 0.5
-2039 0.5
2040 0.5
-2040 0.5
2041 0.5
-2041 0.5
2042 0.5
-2042 0.5
2043 0.5
-2043 0.5
2044 0.5
-2044 0.5
2045 0.159705
-2045 0.840295
2046 0.955374
-2046 0.044626
2047 0.519026
-2047 0.480974
2048 0.644417
-2048 0.355583
2049 0.5
-2049 0.5
2050 0.5
-2050 0.5
2051 0.5
-2051 0.5
2052 0.5
-2052 0.5
2053 0.5
-2053 0.5
2054 0.5
-2054 0.5
2055 0.5
-2055 0.5
2056 0.5
-2056 0.5
2057 0.5
-2057 0.5
2058 0.5
-2058 0.5
2059 0.5
-2059 0.5
2060 0.5
-2060 0.5
2061 0.5
-2061 0.5
2062 0.5
-2062 0.5
2063 0.5
-2063 0.5
2064 0.5
-2064 0.5
2065 0.5
-2065 0.5
2066 0.5
-2066 0.5
2067 0.091138
-2067 0.908862
2068 0.55788
-2068 0.44212
2069 0.098239
-2069 0.901761
2070 0.951552
-2070 0.048448
2071 0.5
-2071 0.5
2072 0.5
-2072 0.5
2073 0.5
-2073 0.5
2074 0.5
-2074 0.5
2075 0.5
-2075 0.5
2076 0.5
-2076 0.5
2077 0.5
-2077 0.5
2078 0.5
-2078 0.5
2079 0.5
-2079 0.5
2080 0.5
-2080 0.5
2081 0.5
-2081 0.5
2082 0.5
-2082 0.5
2083 0.5
-2083 0.5
2084 0.5
-2084 0.5
2085 0.5
-2085 0.5
2086 0.5
-2086 0.5
2087 0.5
-2087 0.5
2088 0.5
-2088 0.5
2089 0.5
-2089 0.5
2090 0.5
-2090 0.5
2091 0.5
-2091 0.5
2092 0.5
-2092 0.5
2093 0.5
-2093 0.5
2094 0.5
-2094 0.5
2095 0.5
-2095 0.5
2096 0.5
-2096 0.5
2097 0.5
-2097 0.5
2098 0.5
-2098 0.5
2099 0.363681
-2099 0.636319
2100 0.718133
-2100 0.281867
2101 0.532808
-2101 0.467192
2102 0.518468
-2102 0.481532
2103 0.5
-2103 0.5
2104 0.5
-2104 0.5
2105 0.5
-2105 0.5
2106 0.5
-2106 0.5
2107 0.5
-2107 0.5
2108 0.5
-2108 0.5
2109 0.5
-2109 0.5
2110 0.5
-2110 0.5
2111 0.5
-2111 0.5
2112 0.5
-2112 0.5
2113 0.5
-2113 0.5
2114 0.5
-2114 0.5
2115 0.5
-2115 0.5
2116 0.5
-2116 0.5
2117 0.5
-2117 0.5
2118 0.5
-2118 0.5
2119 0.5
-2119 0.5
2120 0.5
-2120 0.5
2121 0.5
-2121 0.5
2122 0.5
-2122 0.5
2123 0.5
-2123 0.5
2124 0.5
-2124 0.5
2125 0.5
-2125 0.5
2126 0.5
-2126 0.5
2127 0.5
-2127 0.5
2128 0.5
-2128 0.5
2129 0.5
-2129 0.5
2130 0.5
-2130 0.5
2131 0.037678
-2131 0.962322
2132 0.711188
-2132 0.288812
2133 0.392313
-2133 0.607687
2134 0.599447
-2134 0.400553
2135 0.5
-2135 0.5
2136 0.5
-2136 0.5
2137 0.5
-2137 0.5
2138 0.5
-2138 0.5
2139 0.151825
-2139 0.848175
2140 0.781428
-2140 0.218572
2141 0.582627
-2141 0.417373
2142 0.697511
-2142 0.302489
2143 0.506764
-2143 0.493236
2144 0.923042
-2144 0.076958
2145 0.64668
-2145 0.35332
2146 0.917114
-2146 0.082886
2147 0.831858
-2147 0.168142
2148 0.045597
-2148 0.954403
2149 0.484397
-2149 0.515603
2150 0.535504
-2150 0.464496
2151 0.5
-2151 0.5
2152 0.5
-2152 0.5
2153 0.5
-2153 0.5
2154 0.5
-2154 0.5
2155 0.5
-2155 0.5
2156 0.5
-2156 0.5
2157 0.5
-2157 0.5
2158 0.5
-2158 0.5
2159 0.5
-2159 0.5
2160 0.5
-2160 0.5
2161 0.5
-2161 0.5
2162 0.5
-2162 0.5
2163 0.5
-2163 0.5
2164 0.5
-2164 0.5
2165 0.72602
-2165 0.27398
2166 0.503387
-2166 0.496613
2167 0.52484
-2167 0.47516
2168 0.551203
-2168 0.448797
2169 0.5
-2169 0.5
2170 0.5
-2170 0.5
2171 0.5
-2171 0.5
2172 0.5
-2172 0.5
2173 0.5
-2173 0.5
2174 0.5
-2174 0.5
2175 0.5
-2175 0.5
2176 0.5
-2176 0.5
2177 0.709952
-2177 0.290048
2178 0.776502
-2178 0.223498
2179 0.552501
-2179 0.447499
2180 0.453891
-2180 0.546109
2181 0.5
-2181 0.5
2182 0.5
-2182 0.5
2183 0.5
-2183 0.5
2184 0.5
-2184 0.5
2185 0.5
-2185 0.5
2186 0.5
-2186 0.5
2187 0.5
-2187 0.5
2188 0.5
-2188 0.5
2189 0.5
-2189 0.5
2190 0.5
-2190 0.5
2191 0.5
-2191 0.5
2192 0.5
-2192 0.5
2193 0.136094
-2193 0.863906
2194 0.142197
-2194 0.857803
2195 0.8451
-2195 0.1549
2196 0.521291
-2196 0.478709
2197 0.5
-2197 0.5
2198 0.5
-2198 0.5
2199 0.5
-2199 0.5
2200 0.5
-2200 0.5
2201 0.5
-2201 0.5
2202 0.5
-2202 0.5
2203 0.5
-2203 0.5
2204 0.5
-2204 0.5
2205 0.5
-2205 0.5
2206 0.5
-2206 0.5
2207 0.5
-2207 0.5
2208 0.5
-2208 0.5
2209 0.982956
-2209 0.017044
2210 0.80663
-2210 0.19337
2211 0.62173
-2211 0.37827
2212 0.387253
-2212 0.612747
2213 0.014841
-2213 0.985159
2214 0.294938
-2214 0.705062
2215 0.658216
-2215 0.341784
2216 0.959155
-2216 0.040845
2217 0.5
-2217 0.5
2218 0.5
-2218 0.5
2219 0.5
-2219 0.5
2220 0.5
-2220 0.5
2221 0.5
-2221 0.5
2222 0.5
-2222 0.5
2223 0.5
-2223 0.5
2224 0.5
-2224 0.5
2225 0.5
-2225 0.5
2226 0.5
-2226 0.5
2227 0.5
-2227 0.5
2228 0.5
-2228 0.5
2229 0.5
-2229 0.5
2230 0.5
-2230 0.5
2231 0.5
-2231 0.5
2232 0.5
-2232 0.5
2233 0.5
-2233 0.5
2234 0.5
-2234 0.5
2235 0.5
-2235 0.5
2236 0.5
-2236 0.5
2237 0.415892
-2237 0.584108
2238 0.505126
-2238 0.494874
2239 0.210338
-2239 0.789662
2240 0.074108
-2240 0.925893
2241 0.5
-2241 0.5
2242 0.5
-2242 0.5
2243 0.5
-2243 0.5
2244 0.5
-2244 0.5
2245 0.5
-2245 0.5
2246 0.5
-2246 0.5
2247 0.5
-2247 0.5
2248 0.5
-2248 0.5
2249 0.5
-2249 0.5
2250 0.5
-2250 0.5
2251 0.5
-2251 0.5
2252 0.5
-2252 0.5
2253 0.5
-2253 0.5
2254 0.5
-2254 0.5
2255 0.5
-2255 0.5
2256 0.5
-2256 0.5
2257 0.5
-2257 0.5
2258 0.5
-2258 0.5
2259 0.80914
-2259 0.19086
2260 0.941567
-2260 0.058433
2261 0.335338
-2261 0.664662
2262 0.314266
-2262 0.685734
2263 0.5
-2263 0.5
2264 0.5
-2264 0.5
2265 0.5
-2265 0.5
2266 0.5
-2266 0.5
2267 0.5
-2267 0.5
2268 0.5
-2268 0.5
2269 0.5
-2269 0.5
2270 0.5
-2270 0.5
2271 0.5
-2271 0.5
2272 0.5
-2272 0.5
2273 0.5
-2273 0.5
2274 0.5
-2274 0.5
2275 0.5
-2275 0.5
2276 0.5
-2276 0.5
2277 0.5
-2277 0.5
2278 0.5
-2278 0.5
2279 0.5
-2279 0.5
2280 0.5
-2280 0.5
2281 0.5
-2281 0.5
2282 0.5
-2282 0.5
2283 0.5
-2283 0.5
2284 0.5
-2284 0.5
2285 0.5
-2285 0.5
2286 0.5
-2286 0.5
2287 0.977204
-2287 0.022796
2288 0.697445
-2288 0.302555
2289 0.352292
-2289 0.647708
2290 0.255067
-2290 0.744933
2291 0.5
-2291 0.5
2292 0.5
-2292 0.5
2293 0.5
-2293 0.5
2294 0.5
-2294 0.5
2295 0.5
-2295 0.5
2296 0.5
-2296 0.5
2297 0.5
-2297 0.5
2298 0.5
-2298 0.5
2299 0.575855
-2299 0.424145
2300 0.601825
-2300 0.398175
2301 0.972756
-2301 0.027244
2302 0.735474
-2302 0.264526
2303 0.5
-2303 0.5
2304 0.5
-2304 0.5
2305 0.5
-2305 0.5
2306 0.5
-2306 0.5
2307 0.849515
-2307 0.150485
2308 0.702285
-2308 0.297715
2309 0.554392
-2309 0.445608
2310 0.768413
-2310 0.231587
2311 0.5
-2311 0.5
2312 0.5
-2312 0.5
2313 0.5
-2313 0.5
2314 0.5
-2314 0.5
2315 0.5
-2315 0.5
2316 0.5
-2316 0.5
2317 0.5
-2317 0.5
2318 0.5
-2318 0.5
2319 0.5
-2319 0.5
2320 0.5
-2320 0.5
2321 0.5
-2321 0.5
2322 0.5
-2322 0.5
2323 0.5
-2323 0.5
2324 0.5
-2324 0.5
2325 0.5
-2325 0.5
2326 0.5
-2326 0.5
2327 0.5
-2327 0.5
2328 0.5
-2328 0.5
2329 0.5
-2329 0.5
2330 0.5
-2330 0.5
2331 0.425646
-2331 0.574354
2332 0.924442
-2332 0.075558
2333 0.749098
-2333 0.250902
2334 0.905206
-2334 0.094794
2335 0.5
-2335 0.5
2336 0.5
-2336 0.5
2337 0.5
-2337 0.5
2338 0.5
-2338 0.5
2339 0.746309
-2339 0.253691
2340 0.454644
-2340 0.545356
2341 0.038461
-2341 0.961539
2342 0.319251
-2342 0.680749
2343 0.5
-2343 0.5
2344 0.5
-2344 0.5
2345 0.5
-2345 0.5
2346 0.5
-2346 0.5
2347 0.218165
-2347 0.781835
2348 0.457213
-2348 0.542787
2349 0.032455
-2349 0.967545
2350 0.847366
-2350 0.152634
2351 0.5
-2351 0.5
2352 0.5
-2352 0.5
2353 0.5
-2353 0.5
2354 0.5
-2354 0.5
2355 0.5
-2355 0.5
2356 0.5
-2356 0.5
2357 0.5
-2357 0.5
2358 0.5
-2358 0.5
2359 0.5
-2359 0.5
2360 0.5
-2360 0.5
2361 0.5
-2361 0.5
2362 0.5
-2362 0.5
2363 0.5
-2363 0.5
2364 0.5
-2364 0.5
2365 0.5
-2365 0.5
2366 0.5
-2366 0.5
2367 0.5
-2367 0.5
2368 0.5
-2368 0.5
2369 0.5
-2369 0.5
2370 0.5
-2370 0.5
2371 0.5
-2371 0.5
2372 0.5
-2372 0.5
2373 0.5
-2373 0.5
2374 0.5
-2374 0.5
2375 0.5
-2375 0.5
2376 0.5
-2376 0.5
2377 0.5
-2377 0.5
2378 0.5
-2378 0.5
2379 0.5
-2379 0.5
2380 0.5
-2380 0.5
2381 0.5
-2381 0.5
2382 0.5
-2382 0.5
2383 0.5
-2383 0.5
2384 0.5
-2384 0.5
2385 0.5
-2385 0.5
2386 0.5
-2386 0.5
2387 0.5
-2387 0.5
2388 0.5
-2388 0.5
2389 0.5
-2389 0.5
2390 0.5
-2390 0.5
2391 0.5
-2391 0.5
2392 0.5
-2392 0.5
2393 0.5
-2393 0.5
2394 0.5
-2394 0.5
2395 0.5
-2395 0.5
2396 0.5
-2396 0.5
2397 0.5
-2397 0.5
2398 0.5
-2398 0.5
2399 0.5
-2399 0.5
2400 0.5
-2400 0.5
2401 0.5
-2401 0.5
2402 0.5
-2402 0.5
2403 0.5
-2403 0.5
2404 0.5
-2404 0.5
2405 0.51997
-2405 0.48003
2406 0.02327
-2406 0.97673
2407 0.9625
-2407 0.0375
2408 0.994457
-2408 0.005543
2409 0.5
-2409 0.5
2410 0.5
-2410 0.5
2411 0.5
-2411 0.5
2412 0.5
-2412 0.5
2413 0.5
-2413 0.5
2414 0.5
-2414 0.5
2415 0.5
-2415 0.5
2416 0.5
-2416 0.5
2417 0.616658
-2417 0.383342
2418 0.729734
-2418 0.270266
2419 0.668522
-2419 0.331478
2420 0.172174
-2420 0.827826
2421 0.870081
-2421 0.129919
2422 0.863984
-2422 0.136016
2423 0.656573
-2423 0.343427
2424 0.112944
-2424 0.887056
2425 0.889241
-2425 0.110759
2426 0.799374
-2426 0.200626
2427 0.949662
-2427 0.050338
2428 0.914983
-2428 0.085017
2429 0.469632
-2429 0.530368
2430 0.938253
-2430 0.061747
2431 0.71978
-2431 0.28022
2432 0.464089
-2432 0.535911
2433 0.5
-2433 0.5
2434 0.5
-2434 0.5
2435 0.5
-2435 0.5
2436 0.5
-2436 0.5
2437 0.5
-2437 0.5
2438 0.5
-2438 0.5
2439 0.5
-2439 0.5
2440 0.5
-2440 0.5
2441 0.5
-2441 0.5
2442 0.5
-2442 0.5
2443 0.5
-2443 0.5
2444 0.5
-2444 0.5
2445 0.5
-2445 0.5
2446 0.5
-2446 0.5
2447 0.5
-2447 0.5
2448 0.5
-2448 0.5
2449 0.5
-2449 0.5
2450 0.5
-2450 0.5
2451 0.5
-2451 0.5
2452 0.5
-2452 0.5
2453 0.876736
-2453 0.123264
2454 0.391651
-2454 0.608349
2455 0.59631
-2455 0.40369
2456 0.340825
-2456 0.659175
2457 0.753356
-2457 0.246644
2458 0.497867
-2458 0.502133
2459 0.147545
-2459 0.852455
2460 0.269812
-2460 0.730188
2461 0.5
-2461 0.5
2462 0.5
-2462 0.5
2463 0.5
-2463 0.5
2464 0.5
-2464 0.5
2465 0.5
-2465 0.5
2466 0.5
-2466 0.5
2467 0.5
-2467 0.5
2468 0.5
-2468 0.5
2469 0.5
-2469 0.5
2470 0.5
-2470 0.5
2471 0.5
-2471 0.5
2472 0.5
-2472 0.5
2473 0.5
-2473 0.5
2474 0.5
-2474 0.5
2475 0.5
-2475 0.5
2476 0.5
-2476 0.5
2477 0.5
-2477 0.5
2478 0.5
-2478 0.5
2479 0.5
-2479 0.5
2480 0.5
-2480 0.5
2481 0.5
-2481 0.5
2482 0.5
-2482 0.5
2483 0.5
-2483 0.5
2484 0.5
-2484 0.5
2485 0.5
-2485 0.5
2486 0.5
-2486 0.5
2487 0.556551
-2487 0.443449
2488 0.716852
-2488 0.283148
2489 0.468984
-2489 0.531016
2490 0.611452
-2490 0.388548
2491 0.5
-2491 0.5
2492 0.5
-2492 0.5
2493 0.5
-2493 0.5
2494 0.5
-2494 0.5
2495 0.5
-2495 0.5
2496 0.5
-2496 0.5
2497 0.5
-2497 0.5
2498 0.5
-2498 0.5
2499 0.5
-2499 0.5
2500 0.5
-2500 0.5
2501 0.5
-2501 0.5
2502 0.5
-2502 0.5
2503 0.5
-2503 0.5
2504 0.5
-2504 0.5
2505 0.5
-2505 0.5
2506 0.5
-2506 0.5
2507 0.160134
-2507 0.839866
2508 0.57106
-2508 0.42894
2509 0.110101
-2509 0.889899
2510 0.163026
-2510 0.836974
2511 0.5
-2511 0.5
2512 0.5
-2512 0.5
2513 0.5
-2513 0.5
2514 0.5
-2514 0.5
2515 0.5
-2515 0.5
2516 0.5
-2516 0.5
2517 0.5
-2517 0.5
2518 0.5
-2518 0.5
2519 0.5
-2519 0.5
2520 0.5
-2520 0.5
2521 0.5
-2521 0.5
2522 0.5
-2522 0.5
2523 0.5
-2523 0.5
2524 0.5
-2524 0.5
2525 0.5
-2525 0.5
2526 0.5
-2526 0.5
2527 0.366234
-2527 0.633766
2528 0.156339
-2528 0.843661
2529 0.522098
-2529 0.477902
2530 0.247565
-2530 0.752435
2531 0.5
-2531 0.5
2532 0.5
-2532 0.5
2533 0.5
-2533 0.5
2534 0.5
-2534 0.5
2535 0.5
-2535 0.5
2536 0.5
-2536 0.5
2537 0.5
-2537 0.5
2538 0.5
-2538 0.5
2539 0.5
-2539 0.5
2540 0.5
-2540 0.5
2541 0.5
-2541 0.5
2542 0.5
-2542 0.5
2543 0.5
-2543 0.5
2544 0.5
-2544 0.5
2545 0.5
-2545 0.5
2546 0.5
-2546 0.5
2547 0.747374
-2547 0.252626
2548 0.717072
-2548 0.282928
2549 0.406288
-2549 0.593712
2550 0.313501
-2550 0.686499
2551 0.5
-2551 0.5
2552 0.5
-2552 0.5
2553 0.5
-2553 0.5
2554 0.5
-2554 0.5
2555 0.919169
-2555 0.080831
2556 0.817112
-2556 0.182888
2557 0.284967
-2557 0.715033
2558 0.398668
-2558 0.601332
2559 0.5
-2559 0.5
2560 0.5
-2560 0.5
2561 0.5
-2561 0.5
2562 0.5
-2562 0.5
2563 0.5
-2563 0.5
2564 0.5
-2564 0.5
2565 0.5
-2565 0.5
2566 0.5
-2566 0.5
2567 0.5
-2567 0.5
2568 0.5
-2568 0.5
2569 0.502958
-2569 0.497042
2570 0.719168
-2570 0.280832
2571 0.28988
-2571 0.71012
2572 0.493541
-2572 0.506459
2573 0.5
-2573 0.5
2574 0.5
-2574 0.5
2575 0.5
-2575 0.5
2576 0.5
-2576 0.5
2577 0.5
-2577 0.5
2578 0.5
-2578 0.5
2579 0.5
-2579 0.5
2580 0.5
-2580 0.5
2581 0.642753
-2581 0.357247
2582 0.672047
-2582 0.327953
2583 0.373842
-2583 0.626158
2584 0.985293
-2584 0.014707
2585 0.5
-2585 0.5
2586 0.5
-2586 0.5
2587 0.5
-2587 0.5
2588 0.5
-2588 0.5
2589 0.5
-2589 0.5
2590 0.5
-2590 0.5
2591 0.5
-2591 0.5
2592 0.5
-2592 0.5
2593 0.5
-2593 0.5
2594 0.5
-2594 0.5
2595 0.5
-2595 0.5
2596 0.5
-2596 0.5
2597 0.5
-2597 0.5
2598 0.5
-2598 0.5
2599 0.5
-2599 0.5
2600 0.5
-2600 0.5
2601 0.460209
-2601 0.539791
2602 0.382548
-2602 0.617452
2603 0.63598
-2603 0.36402
2604 0.847289
-2604 0.152711
2605 0.5
-2605 0.5
2606 0.5
-2606 0.5
2607 0.5
-2607 0.5
2608 0.5
-2608 0.5
2609 0.703149
-2609 0.296851
2610 0.266408
-2610 0.733592
2611 0.708485
-2611 0.291515
2612 0.802584
-2612 0.197416
2613 0.5
-2613 0.5
2614 0.5
-2614 0.5
2615 0.5
-2615 0.5
2616 0.5
-2616 0.5
2617 0.648415
-2617 0.351585
2618 0.094364
-2618 0.905636
2619 0.576851
-2619 0.423149
2620 0.514696
-2620 0.485304
2621 0.797238
-2621 0.202762
2622 0.38793
-2622 0.61207
2623 0.611841
-2623 0.388159
2624 0.797668
-2624 0.202332
2625 0.5
-2625 0.5
2626 0.5
-2626 0.5
2627 0.5
-2627 0.5
2628 0.5
-2628 0.5
2629 0.5
-2629 0.5
2630 0.5
-2630 0.5
2631 0.5
-2631 0.5
2632 0.5
-2632 0.5
2633 0.5
-2633 0.5
2634 0.5
-2634 0.5
2635 0.5
-2635 0.5
2636 0.5
-2636 0.5
2637 0.5
-2637 0.5
2638 0.5
-2638 0.5
2639 0.5
-2639 0.5
2640 0.5
-2640 0.5
2641 0.5
-2641 0.5
2642 0.5
-2642 0.5
2643 0.5
-2643 0.5
2644 0.5
-2644 0.5
2645 0.5
-2645 0.5
2646 0.5
-2646 0.5
2647 0.5
-2647 0.5
2648 0.5
-2648 0.5
2649 0.733009
-2649 0.266991
2650 0.652249
-2650 0.347751
2651 0.020677
-2651 0.979323
2652 0.838175
-2652 0.161825
2653 0.5
-2653 0.5
2654 0.5
-2654 0.5
2655 0.5
-2655 0.5
2656 0.5
-2656 0.5
2657 0.5
-2657 0.5
2658 0.5
-2658 0.5
2659 0.5
-2659 0.5
2660 0.5
-2660 0.5
2661 0.5
-2661 0.5
2662 0.5
-2662 0.5
2663 0.5
-2663 0.5
2664 0.5
-2664 0.5
2665 0.5
-2665 0.5
2666 0.5
-2666 0.5
2667 0.5
-2667 0.5
2668 0.5
-2668 0.5
2669 0.5
-2669 0.5
2670 0.5
-2670 0.5
2671 0.5
-2671 0.5
2672 0.5
-2672 0.5
2673 0.5
-2673 0.5
2674 0.5
-2674 0.5
2675 0.68453
-2675 0.31547
2676 0.262534
-2676 0.737466
2677 0.879413
-2677 0.120587
2678 0.0421
-2678 0.9579
2679 0.5
-2679 0.5
2680 0.5
-2680 0.5
2681 0.5
-2681 0.5
2682 0.5
-2682 0.5
2683 0.788901
-2683 0.211099
2684 0.230252
-2684 0.769748
2685 0.869921
-2685 0.130079
2686 0.065159
-2686 0.934841
2687 0.5
-2687 0.5
2688 0.5
-2688 0.5
2689 0.5
-2689 0.5
2690 0.5
-2690 0.5
2691 0.5
-2691 0.5
2692 0.5
-2692 0.5
2693 0.5
-2693 0.5
2694 0.5
-2694 0.5
2695 0.367201
-2695 0.632799
2696 0.690269
-2696 0.309731
2697 0.883817
-2697 0.116183
2698 0.031054
-2698 0.968946
2699 0.5
-2699 0.5
2700 0.5
-2700 0.5
2701 0.5
-2701 0.5
2702 0.5
-2702 0.5
2703 0.102371
-2703 0.897629
2704 0.708361
-2704 0.291639
2705 0.758272
-2705 0.241728
2706 0.766875
-2706 0.233125
2707 0.5
-2707 0.5
2708 0.5
-2708 0.5
2709 0.5
-2709 0.5
2710 0.5
-2710 0.5
2711 0.5
-2711 0.5
2712 0.5
-2712 0.5
2713 0.5
-2713 0.5
2714 0.5
-2714 0.5
2715 0.5
-2715 0.5
2716 0.5
-2716 0.5
2717 0.5
-2717 0.5
2718 0.5
-2718 0.5
2719 0.5
-2719 0.5
2720 0.5
-2720 0.5
2721 0.5
-2721 0.5
2722 0.5
-2722 0.5
2723 0.5
-2723 0.5
2724 0.5
-2724 0.5
2725 0.5
-2725 0.5
2726 0.5
-2726 0.5
2727 0.189473
-2727 0.810527
2728 0.878681
-2728 0.121319
2729 0.693816
-2729 0.306184
2730 0.956348
-2730 0.043652
2731 0.278492
-2731 0.721508
2732 0.512125
-2732 0.487875
2733 0.236578
-2733 0.763422
2734 0.73309
-2734 0.26691
2735 0.5
-2735 0.5
2736 0.5
-2736 0.5
2737 0.5
-2737 0.5
2738 0.5
-2738 0.5
2739 0.5
-2739 0.5
2740 0.5
-2740 0.5
2741 0.5
-2741 0.5
2742 0.5
-2742 0.5
2743 0.5
-2743 0.5
2744 0.5
-2744 0.5
2745 0.5
-2745 0.5
2746 0.5
-2746 0.5
2747 0.5
-2747 0.5
2748 0.5
-2748 0.5
2749 0.5
-2749 0.5
2750 0.5
-2750 0.5
2751 0.5
-2751 0.5
2752 0.5
-2752 0.5
2753 0.5
-2753 0.5
2754 0.5
-2754 0.5
2755 0.5
-2755 0.5
2756 0.5
-2756 0.5
2757 0.5
-2757 0.5
2758 0.5
-2758 0.5
2759 0.5
-2759 0.5
2760 0.5
-2760 0.5
2761 0.5
-2761 0.5
2762 0.5
-2762 0.5
2763 0.5
-2763 0.5
2764 0.5
-2764 0.5
2765 0.5
-2765 0.5
2766 0.5
-2766 0.5
2767 0.5
-2767 0.5
2768 0.5
-2768 0.5
2769 0.5
-2769 0.5
2770 0.5
-2770 0.5
2771 0.5
-2771 0.5
2772 0.5
-2772 0.5
2773 0.5
-2773 0.5
2774 0.5
-2774 0.5
2775 0.5
-2775 0.5
2776 0.5
-2776 0.5
2777 0.5
-2777 0.5
2778 0.5
-2778 0.5
2779 0.5
-2779 0.5
2780 0.5
-2780 0.5
2781 0.5
-2781 0.5
2782 0.5
-2782 0.5
2783 0.5
-2783 0.5
2784 0.5
-2784 0.5
2785 0.980136
-2785 0.019864
2786 0.603269
-2786 0.396731
2787 0.143797
-2787 0.856203
2788 0.094926
-2788 0.905074
2789 0.5
-2789 0.5
2790 0.5
-2790 0.5
2791 0.5
-2791 0.5
2792 0.5
-2792 0.5
2793 0.5
-2793 0.5
2794 0.5
-2794 0.5
2795 0.5
-2795 0.5
2796 0.5
-2796 0.5
2797 0.5
-2797 0.5
2798 0.5
-2798 0.5
2799 0.5
-2799 0.5
2800 0.5
-2800 0.5
2801 0.5
-2801 0.5
2802 0.5
-2802 0.5
2803 0.5
-2803 0.5
2804 0.5
-2804 0.5
2805 0.5
-2805 0.5
2806 0.5
-2806 0.5
2807 0.5
-2807 0.5
2808 0.5
-2808 0.5
2809 0.376366
-2809 0.623634
2810 0.657496
-2810 0.342504
2811 0.966694
-2811 0.033306
2812 0.664525
-2812 0.335475
2813 0.5
-2813 0.5
2814 0.5
-2814 0.5
2815 0.5
-2815 0.5
2816 0.5
-2816 0.5
2817 0.5
-2817 0.5
2818 0.5
-2818 0.5
2819 0.5
-2819 0.5
2820 0.5
-2820 0.5
2821 0.635118
-2821 0.364882
2822 0.441158
-2822 0.558842
2823 0.37178
-2823 0.62822
2824 0.948538
-2824 0.051462
2825 0.5
-2825 0.5
2826 0.5
-2826 0.5
2827 0.5
-2827 0.5
2828 0.5
-2828 0.5
2829 0.5
-2829 0.5
2830 0.5
-2830 0.5
2831 0.5
-2831 0.5
2832 0.5
-2832 0.5
2833 0.849536
-2833 0.150464
2834 0.67079
-2834 0.32921
2835 0.920635
-2835 0.079365
2836 0.514061
-2836 0.485939
2837 0.951115
-2837 0.048885
2838 0.640174
-2838 0.359826
2839 0.631954
-2839 0.368046
2840 0.962924
-2840 0.037076
2841 0.5
-2841 0.5
2842 0.5
-2842 0.5
2843 0.5
-2843 0.5
2844 0.5
-2844 0.5
2845 0.808018
-2845 0.191982
2846 0.640868
-2846 0.359132
2847 0.312081
-2847 0.687919
2848 0.179798
-2848 0.820202
2849 0.5
-2849 0.5
2850 0.5
-2850 0.5
2851 0.5
-2851 0.5
2852 0.5
-2852 0.5
2853 0.5
-2853 0.5
2854 0.5
-2854 0.5
2855 0.5
-2855 0.5
2856 0.5
-2856 0.5
2857 0.5
-2857 0.5
2858 0.5
-2858 0.5
2859 0.5
-2859 0.5
2860 0.5
-2860 0.5
2861 0.965561
-2861 0.034439
2862 0.036291
-2862 0.963709
2863 0.43653
-2863 0.56347
2864 0.928485
-2864 0.071515
2865 0.5
-2865 0.5
2866 0.5
-2866 0.5
2867 0.5
-2867 0.5
2868 0.5
-2868 0.5
2869 0.5
-2869 0.5
2870 0.5
-2870 0.5
2871 0.377139
-2871 0.622861
2872 0.937527
-2872 0.062473
2873 0.785705
-2873 0.214295
2874 0.244296
-2874 0.755704
2875 0.643486
-2875 0.356514
2876 0.301992
-2876 0.698008
2877 0.356152
-2877 0.643848
2878 0.000863
-2878 0.999137
2879 0.5
-2879 0.5
2880 0.5
-2880 0.5
2881 0.5
-2881 0.5
2882 0.5
-2882 0.5
2883 0.5
-2883 0.5
2884 0.5
-2884 0.5
2885 0.5
-2885 0.5
2886 0.5
-2886 0.5
2887 0.5
-2887 0.5
2888 0.5
-2888 0.5
2889 0.5
-2889 0.5
2890 0.5
-2890 0.5
2891 0.5
-2891 0.5
2892 0.5
-2892 0.5
2893 0.5
-2893 0.5
2894 0.5
-2894 0.5
2895 0.5
-2895 0.5
2896 0.5
-2896 0.5
2897 0.5
-2897 0.5
2898 0.5
-2898 0.5
2899 0.5
-2899 0.5
2900 0.5
-2900 0.5
2901 0.5
-2901 0.5
2902 0.5
-2902 0.5
2903 0.5
-2903 0.5
2904 0.5
-2904 0.5
2905 0.5
-2905 0.5
2906 0.5
-2906 0.5
2907 0.098233
-2907 0.901767
2908 0.827707
-2908 0.172293
2909 0.11785
-2909 0.88215
2910 0.61391
-2910 0.38609
2911 0.5
-2911 0.5
2912 0.5
-2912 0.5
2913 0.5
-2913 0.5
2914 0.5
-2914 0.5
2915 0.5
-2915 0.5
2916 0.5
-2916 0.5
2917 0.5
-2917 0.5
2918 0.5
-2918 0.5
2919 0.5
-2919 0.5
2920 0.5
-2920 0.5
2921 0.5
-2921 0.5
2922 0.5
-2922 0.5
2923 0.5
-2923 0.5
2924 0.5
-2924 0.5
2925 0.5
-2925 0.5
2926 0.5
-2926 0.5
2927 0.5
-2927 0.5
2928 0.5
-2928 0.5
2929 0.5
-2929 0.5
2930 0.5
-2930 0.5
2931 0.210575
-2931 0.789425
2932 0.475378
-2932 0.524622
2933 0.898032
-2933 0.101968
2934 0.824484
-2934 0.175516
2935 0.5
-2935 0.5
2936 0.5
-2936 0.5
2937 0.5
-2937 0.5
2938 0.5
-2938 0.5
2939 0.5
-2939 0.5
2940 0.5
-2940 0.5
2941 0.5
-2941 0.5
2942 0.5
-2942 0.5
2943 0.5
-2943 0.5
2944 0.5
-2944 0.5
2945 0.5
-2945 0.5
2946 0.5
-2946 0.5
2947 0.5
-2947 0.5
2948 0.5
-2948 0.5
2949 0.5
-2949 0.5
2950 0.5
-2950 0.5
2951 0.5
-2951 0.5
2952 0.5
-2952 0.5
2953 0.5
-2953 0.5
2954 0.5
-2954 0.5
2955 0.5
-2955 0.5
2956 0.5
-2956 0.5
2957 0.5
-2957 0.5
2958 0.5
-2958 0.5
2959 0.5
-2959 0.5
2960 0.5
-2960 0.5
2961 0.5
-2961 0.5
2962 0.5
-2962 0.5
2963 0.5
-2963 0.5
2964 0.5
-2964 0.5
2965 0.5
-2965 0.5
2966 0.5
-2966 0.5
2967 0.5
-2967 0.5
2968 0.5
-2968 0.5
2969 0.5
-2969 0.5
2970 0.5
-2970 0.5
2971 0.5
-2971 0.5
2972 0.5
-2972 0.5
2973 0.5
-2973 0.5
2974 0.5
-2974 0.5
2975 0.5
-2975 0.5
2976 0.5
-2976 0.5
2977 0.5
-2977 0.5
2978 0.5
-2978 0.5
2979 0.5
-2979 0.5
2980 0.5
-2980 0.5
2981 0.573498
-2981 0.426502
2982 0.091316
-2982 0.908684
2983 0.173541
-2983 0.826459
2984 0.420733
-2984 0.579267
2985 0.340326
-2985 0.659674
2986 0.865527
-2986 0.134473
2987 0.627112
-2987 0.372888
2988 0.621099
-2988 0.378901
2989 0.281743
-2989 0.718257
2990 0.02078
-2990 0.97922
2991 0.359555
-2991 0.640445
2992 0.525732
-2992 0.474268
2993 0.5
-2993 0.5
2994 0.5
-2994 0.5
2995 0.5
-2995 0.5
2996 0.5
-2996 0.5
2997 0.5
-2997 0.5
2998 0.5
-2998 0.5
2999 0.5
-2999 0.5
3000 0.5
-3000 0.5
3001 0.5
-3001 0.5
3002 0.5
-3002 0.5
3003 0.5
-3003 0.5
3004 0.5
-3004 0.5
3005 0.5
-3005 0.5
3006 0.5
-3006 0.5
3007 0.5
-3007 0.5
3008 0.5
-3008 0.5
3009 0.5
-3009 0.5
3010 0.5
-3010 0.5
3011 0.5
-3011 0.5
3012 0.5
-3012 0.5
3013 0.283728
-3013 0.716272
3014 0.353773
-3014 0.646227
3015 0.979271
-3015 0.020729
3016 0.643283
-3016 0.356717
3017 0.209246
-3017 0.790754
3018 0.452987
-3018 0.547013
3019 0.18849
-3019 0.81151
3020 0.61993
-3020 0.38007
3021 0.5
-3021 0.5
3022 0.5
-3022 0.5
3023 0.5
-3023 0.5
3024 0.5
-3024 0.5
3025 0.5
-3025 0.5
3026 0.5
-3026 0.5
3027 0.5
-3027 0.5
3028 0.5
-3028 0.5
3029 0.5
-3029 0.5
3030 0.5
-3030 0.5
3031 0.5
-3031 0.5
3032 0.5
-3032 0.5
3033 0.5
-3033 0.5
3034 0.5
-3034 0.5
3035 0.5
-3035 0.5
3036 0.5
-3036 0.5
3037 0.5
-3037 0.5
3038 0.5
-3038 0.5
3039 0.5
-3039 0.5
3040 0.5
-3040 0.5
3041 0.5
-3041 0.5
3042 0.5
-3042 0.5
3043 0.5
-3043 0.5
3044 0.5
-3044 0.5
3045 0.5
-3045 0.5
3046 0.5
-3046 0.5
3047 0.5
-3047 0.5
3048 0.5
-3048 0.5
3049 0.251056
-3049 0.748944
3050 0.09462
-3050 0.90538
3051 0.92627
-3051 0.07373
3052 0.121691
-3052 0.878309
3053 0.5
-3053 0.5
3054 0.5
-3054 0.5
3055 0.5
-3055 0.5
3056 0.5
-3056 0.5
3057 0.5
-3057 0.5
3058 0.5
-3058 0.5
3059 0.5
-3059 0.5
3060 0.5
-3060 0.5
3061 0.5
-3061 0.5
3062 0.5
-3062 0.5
3063 0.5
-3063 0.5
3064 0.5
-3064 0.5
3065 0.5
-3065 0.5
3066 0.5
-3066 0.5
3067 0.5
-3067 0.5
3068 0.5
-3068 0.5
3069 0.194364
-3069 0.805636
3070 0.055933
-3070 0.944067
3071 0.891826
-3071 0.108174
3072 0.44542
-3072 0.55458
3073 0.5
-3073 0.5
3074 0.5
-3074 0.5
3075 0.5
-3075 0.5
3076 0.5
-3076 0.5
3077 0.5
-3077 0.5
3078 0.5
-3078 0.5
3079 0.5
-3079 0.5
3080 0.5
-3080 0.5
3081 0.5
-3081 0.5
3082 0.5
-3082 0.5
3083 0.5
-3083 0.5
3084 0.5
-3084 0.5
3085 0.5
-3085 0.5
3086 0.5
-3086 0.5
3087 0.5
-3087 0.5
3088 0.5
-3088 0.5
3089 0.5
-3089 0.5
3090 0.5
-3090 0.5
3091 0.5
-3091 0.5
3092 0.5
-3092 0.5
3093 0.5
-3093 0.5
3094 0.5
-3094 0.5
3095 0.5
-3095 0.5
3096 0.5
-3096 0.5
3097 0.5
-3097 0.5
3098 0.5
-3098 0.5
3099 0.5
-3099 0.5
3100 0.5
-3100 0.5
3101 0.5
-3101 0.5
3102 0.5
-3102 0.5
3103 0.027123
-3103 0.972877
3104 0.788491
-3104 0.211509
3105 0.216279
-3105 0.783721
3106 0.793521
-3106 0.206479
3107 0.5
-3107 0.5
3108 0.5
-3108 0.5
3109 0.5
-3109 0.5
3110 0.5
-3110 0.5
3111 0.5
-3111 0.5
3112 0.5
-3112 0.5
3113 0.5
-3113 0.5
3114 0.5
-3114 0.5
3115 0.5
-3115 0.5
3116 0.5
-3116 0.5
3117 0.5
-3117 0.5
3118 0.5
-3118 0.5
3119 0.5
-3119 0.5
3120 0.5
-3120 0.5
3121 0.5
-3121 0.5
3122 0.5
-3122 0.5
3123 0.4545
-3123 0.5455
3124 0.538461
-3124 0.461539
3125 0.640311
-3125 0.359689
3126 0.598996
-3126 0.401004
3127 0.5
-3127 0.5
3128 0.5
-3128 0.5
3129 0.5
-3129 0.5
3130 0.5
-3130 0.5
3131 0.5
-3131 0.5
3132 0.5
-3132 0.5
3133 0.5
-3133 0.5
3134 0.5
-3134 0.5
3135 0.5
-3135 0.5
3136 0.5
-3136 0.5
3137 0.5
-3137 0.5
3138 0.5
-3138 0.5
3139 0.5
-3139 0.5
3140 0.5
-3140 0.5
3141 0.5
-3141 0.5
3142 0.5
-3142 0.5
3143 0.5
-3143 0.5
3144 0.5
-3144 0.5
3145 0.5
-3145 0.5
3146 0.5
-3146 0.5
3147 0.745603
-3147 0.254397
3148 0.396176
-3148 0.603824
3149 0.437956
-3149 0.562044
3150 0.344598
-3150 0.655402
3151 0.5
-3151 0.5
3152 0.5
-3152 0.5
3153 0.5
-3153 0.5
3154 0.5
-3154 0.5
3155 0.5
-3155 0.5
3156 0.5
-3156 0.5
3157 0.5
-3157 0.5
3158 0.5
-3158 0.5
3159 0.389144
-3159 0.610856
3160 0.42598
-3160 0.57402
3161 0.293796
-3161 0.706204
3162 0.885732
-3162 0.114268
3163 0.045439
-3163 0.954561
3164 0.998571
-3164 0.001429
3165 0.178411
-3165 0.821589
3166 0.759782
-3166 0.240218
3167 0.5
-3167 0.5
3168 0.5
-3168 0.5
3169 0.5
-3169 0.5
3170 0.5
-3170 0.5
3171 0.5
-3171 0.5
3172 0.5
-3172 0.5
3173 0.5
-3173 0.5
3174 0.5
-3174 0.5
3175 0.5
-3175 0.5
3176 0.5
-3176 0.5
3177 0.5
-3177 0.5
3178 0.5
-3178 0.5
3179 0.5
-3179 0.5
3180 0.5
-3180 0.5
3181 0.5
-3181 0.5
3182 0.5
-3182 0.5
3183 0.5
-3183 0.5
3184 0.5
-3184 0.5
3185 0.881338
-3185 0.118662
3186 0.982505
-3186 0.017495
3187 0.655516
-3187 0.344484
3188 0.678965
-3188 0.321035
3189 0.5
-3189 0.5
3190 0.5
-3190 0.5
3191 0.5
-3191 0.5
3192 0.5
-3192 0.5
3193 0.5
-3193 0.5
3194 0.5
-3194 0.5
3195 0.5
-3195 0.5
3196 0.5
-3196 0.5
3197 0.5
-3197 0.5
3198 0.5
-3198 0.5
3199 0.5
-3199 0.5
3200 0.5
-3200 0.5
3201 0.5
-3201 0.5
3202 0.5
-3202 0.5
3203 0.5
-3203 0.5
3204 0.5
-3204 0.5
3205 0.5
-3205 0.5
3206 0.5
-3206 0.5
3207 0.5
-3207 0.5
3208 0.5
-3208 0.5
3209 0.5
-3209 0.5
3210 0.5
-3210 0.5
3211 0.5
-3211 0.5
3212 0.5
-3212 0.5
3213 0.5
-3213 0.5
3214 0.5
-3214 0.5
3215 0.5
-3215 0.5
3216 0.5
-3216 0.5
3217 0.257717
-3217 0.742283
3218 0.080181
-3218 0.919819
3219 0.268935
-3219 0.731065
3220 0.110597
-3220 0.889403
3221 0.5
-3221 0.5
3222 0.5
-3222 0.5
3223 0.5
-3223 0.5
3224 0.5
-3224 0.5
3225 0.5
-3225 0.5
3226 0.5
-3226 0.5
3227 0.5
-3227 0.5
3228 0.5
-3228 0.5
3229 0.5
-3229 0.5
3230 0.5
-3230 0.5
3231 0.5
-3231 0.5
3232 0.5
-3232 0.5
3233 0.683774
-3233 0.316226
3234 0.295647
-3234 0.704353
3235 0.875228
-3235 0.124772
3236 0.5324
-3236 0.4676
3237 0.923738
-3237 0.076262
3238 0.035113
-3238 0.964887
3239 0.140094
-3239 0.859906
3240 0.759974
-3240 0.240026
3241 0.5
-3241 0.5
3242 0.5
-3242 0.5
3243 0.5
-3243 0.5
3244 0.5
-3244 0.5
3245 0.5
-3245 0.5
3246 0.5
-3246 0.5
3247 0.5
-3247 0.5
3248 0.5
-3248 0.5
3249 0.5
-3249 0.5
3250 0.5
-3250 0.5
3251 0.5
-3251 0.5
3252 0.5
-3252 0.5
3253 0.470895
-3253 0.529105
3254 0.884617
-3254 0.115383
3255 0.683263
-3255 0.316737
3256 0.961559
-3256 0.038441
3257 0.5
-3257 0.5
3258 0.5
-3258 0.5
3259 0.5
-3259 0.5
3260 0.5
-3260 0.5
3261 0.5
-3261 0.5
3262 0.5
-3262 0.5
3263 0.5
-3263 0.5
3264 0.5
-3264 0.5
3265 0.5
-3265 0.5
3266 0.5
-3266 0.5
3267 0.5
-3267 0.5
3268 0.5
-3268 0.5
3269 0.5
-3269 0.5
3270 0.5
-3270 0.5
3271 0.5
-3271 0.5
3272 0.5
-3272 0.5
3273 0.5
-3273 0.5
3274 0.5
-3274 0.5
3275 0.5
-3275 0.5
3276 0.5
-3276 0.5
