1 0.533832
-1 0.466168
2 1.0
-2 1.0
3 1.0
-3 1.0
4 1.0
-4 1.0
5 1.0
-5 1.0
6 1.0
-6 1.0
7 1.0
-7 1.0
8 1.0
-8 1.0
9 1.0
-9 1.0
10 1.0
-10 1.0
11 1.0
-11 1.0
12 1.0
-12 1.0
13 1.0
-13 1.0
14 1.0
-14 1.0
15 1.0
-15 1.0
16 1.0
-16 1.0
17 1.0
-17 1.0
18 1.0
-18 1.0
19 1.0
-19 1.0
20 1.0
-20 1.0
21 1.0
-21 1.0
22 1.0
-22 1.0
23 1.0
-23 1.0
24 1.0
-24 1.0
25 1.0
-25 1.0
26 1.0
-26 1.0
27 1.0
-27 1.0
28 1.0
-28 1.0
29 1.0
-29 1.0
30 1.0
-30 1.0
31 1.0
-31 1.0
32 1.0
-32 1.0
33 1.0
-33 1.0
34 1.0
-34 1.0
35 1.0
-35 1.0
36 1.0
-36 1.0
37 1.0
-37 1.0
38 1.0
-38 1.0
39 1.0
-39 1.0
40 1.0
-40 1.0
41 1.0
-41 1.0
42 1.0
-42 1.0
43 1.0
-43 1.0
44 1.0
-44 1.0
45 1.0
-45 1.0
46 1.0
-46 1.0
47 1.0
-47 1.0
48 1.0
-48 1.0
49 1.0
-49 1.0
50 1.0
-50 1.0
51 1.0
-51 1.0
52 1.0
-52 1.0
53 1.0
-53 1.0
54 1.0
-54 1.0
55 1.0
-55 1.0
56 1.0
-56 1.0
57 1.0
-57 1.0
58 1.0
-58 1.0
59 1.0
-59 1.0
60 1.0
-60 1.0
61 1.0
-61 1.0
62 1.0
-62 1.0
63 1.0
-63 1.0
64 1.0
-64 1.0
65 1.0
-65 1.0
66 1.0
-66 1.0
67 1.0
-67 1.0
68 1.0
-68 1.0
69 1.0
-69 1.0
70 1.0
-70 1.0
71 1.0
-71 1.0
72 1.0
-72 1.0
73 1.0
-73 1.0
74 1.0
-74 1.0
75 1.0
-75 1.0
76 1.0
-76 1.0
77 1.0
-77 1.0
78 1.0
-78 1.0
79 1.0
-79 1.0
80 1.0
-80 1.0
81 1.0
-81 1.0
82 1.0
-82 1.0
83 1.0
-83 1.0
84 1.0
-84 1.0
85 1.0
-85 1.0
86 1.0
-86 1.0
87 1.0
-87 1.0
88 1.0
-88 1.0
89 1.0
-89 1.0
90 1.0
-90 1.0
91 1.0
-91 1.0
92 1.0
-92 1.0
93 1.0
-93 1.0
94 1.0
-94 1.0
95 1.0
-95 1.0
96 1.0
-96 1.0
97 1.0
-97 1.0
98 1.0
-98 1.0
99 1.0
-99 1.0
100 1.0
-100 1.0
101 1.0
-101 1.0
102 1.0
-102 1.0
103 1.0
-103 1.0
104 1.0
-104 1.0
105 1.0
-105 1.0
106 1.0
-106 1.0
107 1.0
-107 1.0
108 1.0
-108 1.0
109 1.0
-109 1.0
110 1.0
-110 1.0
111 1.0
-111 1.0
112 1.0
-112 1.0
113 1.0
-113 1.0
114 1.0
-114 1.0
115 1.0
-115 1.0
116 1.0
-116 1.0
117 1.0
-117 1.0
118 1.0
-118 1.0
119 1.0
-119 1.0
120 1.0
-120 1.0
121 1.0
-121 1.0
122 1.0
-122 1.0
123 1.0
-123 1.0
124 1.0
-124 1.0
125 1.0
-125 1.0
126 1.0
-126 1.0
127 1.0
-127 1.0
128 1.0
-128 1.0
129 1.0
-129 1.0
130 1.0
-130 1.0
131 1.0
-131 1.0
132 1.0
-132 1.0
133 1.0
-133 1.0
134 1.0
-134 1.0
135 1.0
-135 1.0
136 1.0
-136 1.0
137 1.0
-137 1.0
138 1.0
-138 1.0
139 1.0
-139 1.0
140 1.0
-140 1.0
141 1.0
-141 1.0
142 1.0
-142 1.0
143 1.0
-143 1.0
144 1.0
-144 1.0
145 1.0
-145 1.0
146 1.0
-146 1.0
147 1.0
-147 1.0
148 1.0
-148 1.0
149 1.0
-149 1.0
150 1.0
-150 1.0
151 1.0
-151 1.0
152 1.0
-152 1.0
153 1.0
-153 1.0
154 1.0
-154 1.0
155 1.0
-155 1.0
156 1.0
-156 1.0
157 1.0
-157 1.0
158 1.0
-158 1.0
159 1.0
-159 1.0
160 1.0
-160 1.0
161 1.0
-161 1.0
162 1.0
-162 1.0
163 1.0
-163 1.0
164 1.0
-164 1.0
165 1.0
-165 1.0
166 1.0
-166 1.0
167 1.0
-167 1.0
168 1.0
-168 1.0
169 1.0
-169 1.0
170 1.0
-170 1.0
171 1.0
-171 1.0
172 1.0
-172 1.0
173 1.0
-173 1.0
174 1.0
-174 1.0
175 1.0
-175 1.0
176 1.0
-176 1.0
177 1.0
-177 1.0
178 1.0
-178 1.0
179 1.0
-179 1.0
180 1.0
-180 1.0
181 1.0
-181 1.0
182 1.0
-182 1.0
183 1.0
-183 1.0
184 1.0
-184 1.0
185 1.0
-185 1.0
186 1.0
-186 1.0
187 1.0
-187 1.0
188 1.0
-188 1.0
189 1.0
-189 1.0
190 1.0
-190 1.0
191 1.0
-191 1.0
192 1.0
-192 1.0
193 1.0
-193 1.0
194 1.0
-194 1.0
195 1.0
-195 1.0
196 1.0
-196 1.0
197 1.0
-197 1.0
198 1.0
-198 1.0
199 1.0
-199 1.0
200 1.0
-200 1.0
201 1.0
-201 1.0
202 1.0
-202 1.0
203 1.0
-203 1.0
204 1.0
-204 1.0
205 1.0
-205 1.0
206 1.0
-206 1.0
207 1.0
-207 1.0
208 1.0
-208 1.0
209 1.0
-209 1.0
210 1.0
-210 1.0
211 1.0
-211 1.0
212 1.0
-212 1.0
213 1.0
-213 1.0
214 1.0
-214 1.0
215 1.0
-215 1.0
216 1.0
-216 1.0
217 1.0
-217 1.0
218 1.0
-218 1.0
219 1.0
-219 1.0
220 1.0
-220 1.0
221 1.0
-221 1.0
222 1.0
-222 1.0
223 1.0
-223 1.0
224 1.0
-224 1.0
225 1.0
-225 1.0
226 1.0
-226 1.0
227 1.0
-227 1.0
228 1.0
-228 1.0
229 1.0
-229 1.0
230 1.0
-230 1.0
231 1.0
-231 1.0
232 1.0
-232 1.0
233 1.0
-233 1.0
234 1.0
-234 1.0
235 1.0
-235 1.0
236 1.0
-236 1.0
237 1.0
-237 1.0
238 1.0
-238 1.0
239 1.0
-239 1.0
240 1.0
-240 1.0
241 1.0
-241 1.0
242 1.0
-242 1.0
243 1.0
-243 1.0
244 1.0
-244 1.0
245 1.0
-245 1.0
246 1.0
-246 1.0
247 1.0
-247 1.0
248 1.0
-248 1.0
249 1.0
-249 1.0
250 1.0
-250 1.0
251 1.0
-251 1.0
252 1.0
-252 1.0
253 1.0
-253 1.0
254 1.0
-254 1.0
255 1.0
-255 1.0
256 1.0
-256 1.0
257 1.0
-257 1.0
258 1.0
-258 1.0
259 1.0
-259 1.0
260 1.0
-260 1.0
261 1.0
-261 1.0
262 1.0
-262 1.0
263 1.0
-263 1.0
264 1.0
-264 1.0
265 1.0
-265 1.0
266 1.0
-266 1.0
267 1.0
-267 1.0
268 1.0
-268 1.0
269 1.0
-269 1.0
270 1.0
-270 1.0
271 1.0
-271 1.0
272 1.0
-272 1.0
273 1.0
-273 1.0
274 1.0
-274 1.0
275 1.0
-275 1.0
276 1.0
-276 1.0
277 1.0
-277 1.0
278 1.0
-278 1.0
279 1.0
-279 1.0
280 1.0
-280 1.0
281 1.0
-281 1.0
282 1.0
-282 1.0
283 1.0
-283 1.0
284 1.0
-284 1.0
285 1.0
-285 1.0
286 1.0
-286 1.0
287 1.0
-287 1.0
288 1.0
-288 1.0
289 1.0
-289 1.0
290 1.0
-290 1.0
291 1.0
-291 1.0
292 1.0
-292 1.0
293 1.0
-293 1.0
294 1.0
-294 1.0
295 1.0
-295 1.0
296 1.0
-296 1.0
297 1.0
-297 1.0
298 1.0
-298 1.0
299 1.0
-299 1.0
300 1.0
-300 1.0
301 1.0
-301 1.0
302 1.0
-302 1.0
303 1.0
-303 1.0
304 1.0
-304 1.0
305 1.0
-305 1.0
306 1.0
-306 1.0
307 1.0
-307 1.0
308 1.0
-308 1.0
309 1.0
-309 1.0
310 1.0
-310 1.0
311 1.0
-311 1.0
312 1.0
-312 1.0
313 1.0
-313 1.0
314 1.0
-314 1.0
315 1.0
-315 1.0
316 1.0
-316 1.0
317 1.0
-317 1.0
318 1.0
-318 1.0
319 1.0
-319 1.0
320 1.0
-320 1.0
321 1.0
-321 1.0
322 1.0
-322 1.0
323 1.0
-323 1.0
324 1.0
-324 1.0
325 1.0
-325 1.0
326 1.0
-326 1.0
327 1.0
-327 1.0
328 1.0
-328 1.0
329 1.0
-329 1.0
330 1.0
-330 1.0
331 1.0
-331 1.0
332 1.0
-332 1.0
333 1.0
-333 1.0
334 1.0
-334 1.0
335 1.0
-335 1.0
336 1.0
-336 1.0
337 1.0
-337 1.0
338 1.0
-338 1.0
339 1.0
-339 1.0
340 1.0
-340 1.0
341 1.0
-341 1.0
342 1.0
-342 1.0
343 1.0
-343 1.0
344 1.0
-344 1.0
345 1.0
-345 1.0
346 1.0
-346 1.0
347 1.0
-347 1.0
348 1.0
-348 1.0
349 1.0
-349 1.0
350 1.0
-350 1.0
351 1.0
-351 1.0
352 1.0
-352 1.0
353 1.0
-353 1.0
354 1.0
-354 1.0
355 1.0
-355 1.0
356 1.0
-356 1.0
357 1.0
-357 1.0
358 1.0
-358 1.0
359 1.0
-359 1.0
360 1.0
-360 1.0
361 1.0
-361 1.0
362 1.0
-362 1.0
363 1.0
-363 1.0
364 1.0
-364 1.0
365 1.0
-365 1.0
366 1.0
-366 1.0
367 1.0
-367 1.0
368 1.0
-368 1.0
369 1.0
-369 1.0
370 1.0
-370 1.0
371 1.0
-371 1.0
372 1.0
-372 1.0
373 1.0
-373 1.0
374 1.0
-374 1.0
375 1.0
-375 1.0
376 1.0
-376 1.0
377 1.0
-377 1.0
378 1.0
-378 1.0
379 1.0
-379 1.0
380 1.0
-380 1.0
381 1.0
-381 1.0
382 1.0
-382 1.0
383 1.0
-383 1.0
384 1.0
-384 1.0
385 1.0
-385 1.0
386 1.0
-386 1.0
387 1.0
-387 1.0
388 1.0
-388 1.0
389 1.0
-389 1.0
390 1.0
-390 1.0
391 1.0
-391 1.0
392 1.0
-392 1.0
393 1.0
-393 1.0
394 1.0
-394 1.0
395 1.0
-395 1.0
396 1.0
-396 1.0
397 1.0
-397 1.0
398 1.0
-398 1.0
399 1.0
-399 1.0
400 1.0
-400 1.0
401 1.0
-401 1.0
402 1.0
-402 1.0
403 1.0
-403 1.0
404 1.0
-404 1.0
405 1.0
-405 1.0
406 1.0
-406 1.0
407 1.0
-407 1.0
408 1.0
-408 1.0
409 1.0
-409 1.0
410 1.0
-410 1.0
411 1.0
-411 1.0
412 1.0
-412 1.0
413 1.0
-413 1.0
414 1.0
-414 1.0
415 1.0
-415 1.0
416 1.0
-416 1.0
417 1.0
-417 1.0
418 1.0
-418 1.0
419 1.0
-419 1.0
420 1.0
-420 1.0
421 1.0
-421 1.0
422 1.0
-422 1.0
423 1.0
-423 1.0
424 1.0
-424 1.0
425 1.0
-425 1.0
426 1.0
-426 1.0
427 1.0
-427 1.0
428 1.0
-428 1.0
429 1.0
-429 1.0
430 1.0
-430 1.0
431 1.0
-431 1.0
432 1.0
-432 1.0
433 1.0
-433 1.0
434 1.0
-434 1.0
435 1.0
-435 1.0
436 1.0
-436 1.0
437 1.0
-437 1.0
438 1.0
-438 1.0
439 1.0
-439 1.0
440 1.0
-440 1.0
441 1.0
-441 1.0
442 0.5
-442 0.5
443 0.5
-443 0.5
444 0.5
-444 0.5
445 0.5
-445 0.5
446 0.988403
-446 0.011597
447 0.072311
-447 0.927689
448 0.978667
-448 0.021333
449 0.361215
-449 0.638785
450 0.5
-450 0.5
451 0.5
-451 0.5
452 0.660726
-452 0.339274
453 0.382546
-453 0.617454
454 0.5
-454 0.5
455 0.5
-455 0.5
456 0.326346
-456 0.673654
457 0.639023
-457 0.360977
458 0.5
-458 0.5
459 0.5
-459 0.5
460 0.5
-460 0.5
461 0.5
-461 0.5
462 0.5
-462 0.5
463 0.5
-463 0.5
464 0.5
-464 0.5
465 0.5
-465 0.5
466 0.5
-466 0.5
467 0.5
-467 0.5
468 0.5
-468 0.5
469 0.5
-469 0.5
470 0.5
-470 0.5
471 0.5
-471 0.5
472 0.5
-472 0.5
473 0.5
-473 0.5
474 0.5
-474 0.5
475 0.5
-475 0.5
476 0.030809
-476 0.969191
477 0.582293
-477 0.417707
478 0.849403
-478 0.150597
479 0.532002
-479 0.467998
480 0.5
-480 0.5
481 0.5
-481 0.5
482 0.969967
-482 0.030033
483 0.053018
-483 0.946982
484 0.5
-484 0.5
485 0.5
-485 0.5
486 0.5
-486 0.5
487 0.5
-487 0.5
488 0.5
-488 0.5
489 0.5
-489 0.5
490 0.5
-490 0.5
491 0.5
-491 0.5
492 0.5
-492 0.5
493 0.5
-493 0.5
494 0.5
-494 0.5
495 0.5
-495 0.5
496 0.636981
-496 0.363019
497 0.107061
-497 0.892939
498 0.891109
-498 0.108891
499 0.858059
-499 0.141941
500 0.5
-500 0.5
501 0.5
-501 0.5
502 0.5
-502 0.5
503 0.5
-503 0.5
504 0.613355
-504 0.386645
505 0.00327
-505 0.99673
506 0.839835
-506 0.160165
507 0.583322
-507 0.416678
508 0.5
-508 0.5
509 0.5
-509 0.5
510 0.5
-510 0.5
511 0.5
-511 0.5
512 0.5
-512 0.5
513 0.5
-513 0.5
514 0.5
-514 0.5
515 0.5
-515 0.5
516 0.5
-516 0.5
517 0.5
-517 0.5
518 0.5
-518 0.5
519 0.5
-519 0.5
520 0.5
-520 0.5
521 0.5
-521 0.5
522 0.5
-522 0.5
523 0.5
-523 0.5
524 0.5
-524 0.5
525 0.5
-525 0.5
526 0.5
-526 0.5
527 0.5
-527 0.5
528 0.5
-528 0.5
529 0.5
-529 0.5
530 0.5
-530 0.5
531 0.5
-531 0.5
532 0.5
-532 0.5
533 0.5
-533 0.5
534 0.5
-534 0.5
535 0.5
-535 0.5
536 0.5
-536 0.5
537 0.5
-537 0.5
538 0.5
-538 0.5
539 0.5
-539 0.5
540 0.5
-540 0.5
541 0.5
-541 0.5
542 0.5
-542 0.5
543 0.5
-543 0.5
544 0.377058
-544 0.622942
545 0.243346
-545 0.756654
546 0.245903
-546 0.754097
547 0.460552
-547 0.539448
548 0.5
-548 0.5
549 0.5
-549 0.5
550 0.5
-550 0.5
551 0.5
-551 0.5
552 0.5
-552 0.5
553 0.5
-553 0.5
554 0.5
-554 0.5
555 0.5
-555 0.5
556 0.519677
-556 0.480323
557 0.683563
-557 0.316437
558 0.780528
-558 0.219472
559 0.473924
-559 0.526076
560 0.5
-560 0.5
561 0.5
-561 0.5
562 0.5
-562 0.5
563 0.5
-563 0.5
564 0.5
-564 0.5
565 0.5
-565 0.5
566 0.5
-566 0.5
567 0.5
-567 0.5
568 0.5
-568 0.5
569 0.5
-569 0.5
570 0.5
-570 0.5
571 0.5
-571 0.5
572 0.5
-572 0.5
573 0.5
-573 0.5
574 0.5
-574 0.5
575 0.5
-575 0.5
576 0.5
-576 0.5
577 0.5
-577 0.5
578 0.5
-578 0.5
579 0.5
-579 0.5
580 0.5
-580 0.5
581 0.5
-581 0.5
582 0.5
-582 0.5
583 0.5
-583 0.5
584 0.5
-584 0.5
585 0.5
-585 0.5
586 0.5
-586 0.5
587 0.5
-587 0.5
588 0.5
-588 0.5
589 0.5
-589 0.5
590 0.5
-590 0.5
591 0.5
-591 0.5
592 0.5
-592 0.5
593 0.5
-593 0.5
594 0.453093
-594 0.546907
595 0.999036
-595 0.000964
596 0.845681
-596 0.154319
597 0.399883
-597 0.600117
598 0.5
-598 0.5
599 0.5
-599 0.5
600 0.5
-600 0.5
601 0.5
-601 0.5
602 0.5
-602 0.5
603 0.5
-603 0.5
604 0.5
-604 0.5
605 0.5
-605 0.5
606 0.5
-606 0.5
607 0.5
-607 0.5
608 0.5
-608 0.5
609 0.5
-609 0.5
610 0.5
-610 0.5
611 0.5
-611 0.5
612 0.5
-612 0.5
613 0.5
-613 0.5
614 0.5
-614 0.5
615 0.5
-615 0.5
616 0.5
-616 0.5
617 0.5
-617 0.5
618 0.5
-618 0.5
619 0.5
-619 0.5
620 0.5
-620 0.5
621 0.5
-621 0.5
622 0.5
-622 0.5
623 0.5
-623 0.5
624 0.5
-624 0.5
625 0.5
-625 0.5
626 0.5
-626 0.5
627 0.5
-627 0.5
628 0.5
-628 0.5
629 0.5
-629 0.5
630 0.5
-630 0.5
631 0.5
-631 0.5
632 0.5
-632 0.5
633 0.5
-633 0.5
634 0.5
-634 0.5
635 0.5
-635 0.5
636 0.5
-636 0.5
637 0.5
-637 0.5
638 0.5
-638 0.5
639 0.5
-639 0.5
640 0.5
-640 0.5
641 0.5
-641 0.5
642 0.5
-642 0.5
643 0.5
-643 0.5
644 0.5
-644 0.5
645 0.5
-645 0.5
646 0.5
-646 0.5
647 0.5
-647 0.5
648 0.5
-648 0.5
649 0.5
-649 0.5
650 0.5
-650 0.5
651 0.5
-651 0.5
652 0.985127
-652 0.014873
653 0.45422
-653 0.54578
654 0.383053
-654 0.616947
655 0.196608
-655 0.803392
656 0.5
-656 0.5
657 0.5
-657 0.5
658 0.5
-658 0.5
659 0.5
-659 0.5
660 0.5
-660 0.5
661 0.5
-661 0.5
662 0.5
-662 0.5
663 0.5
-663 0.5
664 0.5
-664 0.5
665 0.5
-665 0.5
666 0.5
-666 0.5
667 0.5
-667 0.5
668 0.5
-668 0.5
669 0.5
-669 0.5
670 0.5
-670 0.5
671 0.5
-671 0.5
672 0.5
-672 0.5
673 0.5
-673 0.5
674 0.5
-674 0.5
675 0.5
-675 0.5
676 0.179503
-676 0.820497
677 0.215373
-677 0.784627
678 0.342485
-678 0.657515
679 0.562556
-679 0.437444
680 0.5
-680 0.5
681 0.5
-681 0.5
682 0.5
-682 0.5
683 0.5
-683 0.5
684 0.5
-684 0.5
685 0.5
-685 0.5
686 0.5
-686 0.5
687 0.5
-687 0.5
688 0.870696
-688 0.129304
689 0.150492
-689 0.849508
690 0.198037
-690 0.801963
691 0.830761
-691 0.169239
692 0.5
-692 0.5
693 0.5
-693 0.5
694 0.5
-694 0.5
695 0.5
-695 0.5
696 0.5
-696 0.5
697 0.5
-697 0.5
698 0.5
-698 0.5
699 0.5
-699 0.5
700 0.5
-700 0.5
701 0.5
-701 0.5
702 0.5
-702 0.5
703 0.5
-703 0.5
704 0.239309
-704 0.760691
705 0.538083
-705 0.461917
706 0.312683
-706 0.687317
707 0.211294
-707 0.788706
708 0.5
-708 0.5
709 0.5
-709 0.5
710 0.5
-710 0.5
711 0.5
-711 0.5
712 0.5
-712 0.5
713 0.5
-713 0.5
714 0.5
-714 0.5
715 0.5
-715 0.5
716 0.5
-716 0.5
717 0.5
-717 0.5
718 0.5
-718 0.5
719 0.5
-719 0.5
720 0.424117
-720 0.575883
721 0.298821
-721 0.701179
722 0.339999
-722 0.660001
723 0.74233
-723 0.25767
724 0.5
-724 0.5
725 0.5
-725 0.5
726 0.5
-726 0.5
727 0.5
-727 0.5
728 0.5
-728 0.5
729 0.5
-729 0.5
730 0.5
-730 0.5
731 0.5
-731 0.5
732 0.5
-732 0.5
733 0.5
-733 0.5
734 0.928431
-734 0.071569
735 0.066512
-735 0.933488
736 0.35428
-736 0.64572
737 0.12672
-737 0.87328
738 0.5
-738 0.5
739 0.5
-739 0.5
740 0.5
-740 0.5
741 0.5
-741 0.5
742 0.5
-742 0.5
743 0.5
-743 0.5
744 0.5
-744 0.5
745 0.5
-745 0.5
746 0.5
-746 0.5
747 0.5
-747 0.5
748 0.5
-748 0.5
749 0.5
-749 0.5
750 0.181051
-750 0.818949
751 0.698803
-751 0.301197
752 0.296004
-752 0.703996
753 0.519217
-753 0.480783
754 0.5
-754 0.5
755 0.5
-755 0.5
756 0.5
-756 0.5
757 0.5
-757 0.5
758 0.707933
-758 0.292067
759 0.97361
-759 0.02639
760 0.83561
-760 0.16439
761 0.062212
-761 0.937788
762 0.5
-762 0.5
763 0.5
-763 0.5
764 0.5
-764 0.5
765 0.5
-765 0.5
766 0.5
-766 0.5
767 0.5
-767 0.5
768 0.5
-768 0.5
769 0.5
-769 0.5
770 0.5
-770 0.5
771 0.5
-771 0.5
772 0.5
-772 0.5
773 0.5
-773 0.5
774 0.251656
-774 0.748344
775 0.611523
-775 0.388477
776 0.506106
-776 0.493894
777 0.547659
-777 0.452341
778 0.5
-778 0.5
779 0.5
-779 0.5
780 0.5
-780 0.5
781 0.5
-781 0.5
782 0.069904
-782 0.930096
783 0.878717
-783 0.121283
784 0.898304
-784 0.101696
785 0.905514
-785 0.094486
786 0.998634
-786 0.001366
787 0.145811
-787 0.854189
788 0.101541
-788 0.898459
789 0.622011
-789 0.377989
790 0.634378
-790 0.365622
791 0.914663
-791 0.085337
792 0.456629
-792 0.543371
793 0.154519
-793 0.845481
794 0.060625
-794 0.939375
795 0.960784
-795 0.039216
796 0.722663
-796 0.277337
797 0.514047
-797 0.485953
798 0.5
-798 0.5
799 0.5
-799 0.5
800 0.5
-800 0.5
801 0.5
-801 0.5
802 0.5
-802 0.5
803 0.5
-803 0.5
804 0.5
-804 0.5
805 0.5
-805 0.5
806 0.5
-806 0.5
807 0.5
-807 0.5
808 0.5
-808 0.5
809 0.5
-809 0.5
810 0.5
-810 0.5
811 0.5
-811 0.5
812 0.5
-812 0.5
813 0.5
-813 0.5
814 0.5
-814 0.5
815 0.5
-815 0.5
816 0.551184
-816 0.448816
817 0.971911
-817 0.028089
818 0.140441
-818 0.859559
819 0.386064
-819 0.613936
820 0.5
-820 0.5
821 0.5
-821 0.5
822 0.5
-822 0.5
823 0.5
-823 0.5
824 0.5
-824 0.5
825 0.5
-825 0.5
826 0.5
-826 0.5
827 0.5
-827 0.5
828 0.5
-828 0.5
829 0.5
-829 0.5
830 0.5
-830 0.5
831 0.5
-831 0.5
832 0.5
-832 0.5
833 0.5
-833 0.5
834 0.5
-834 0.5
835 0.5
-835 0.5
836 0.532616
-836 0.467384
837 0.275313
-837 0.724687
838 0.603004
-838 0.396996
839 0.047898
-839 0.952102
840 0.5
-840 0.5
841 0.5
-841 0.5
842 0.5
-842 0.5
843 0.5
-843 0.5
844 0.5
-844 0.5
845 0.5
-845 0.5
846 0.5
-846 0.5
847 0.5
-847 0.5
848 0.490637
-848 0.509363
849 0.962437
-849 0.037563
850 0.536863
-850 0.463137
851 0.119413
-851 0.880587
852 0.355388
-852 0.644612
853 0.182511
-853 0.817489
854 0.261468
-854 0.738532
855 0.291485
-855 0.708515
856 0.5
-856 0.5
857 0.5
-857 0.5
858 0.5
-858 0.5
859 0.5
-859 0.5
860 0.5
-860 0.5
861 0.5
-861 0.5
862 0.5
-862 0.5
863 0.5
-863 0.5
864 0.5
-864 0.5
865 0.5
-865 0.5
866 0.5
-866 0.5
867 0.5
-867 0.5
868 0.5
-868 0.5
869 0.5
-869 0.5
870 0.5
-870 0.5
871 0.5
-871 0.5
872 0.5
-872 0.5
873 0.5
-873 0.5
874 0.5
-874 0.5
875 0.5
-875 0.5
876 0.303247
-876 0.696753
877 0.78196
-877 0.21804
878 0.088066
-878 0.911934
879 0.564715
-879 0.435285
880 0.5
-880 0.5
881 0.5
-881 0.5
882 0.5
-882 0.5
883 0.5
-883 0.5
884 0.5
-884 0.5
885 0.5
-885 0.5
886 0.5
-886 0.5
887 0.5
-887 0.5
888 0.5
-888 0.5
889 0.5
-889 0.5
890 0.5
-890 0.5
891 0.5
-891 0.5
892 0.838518
-892 0.161482
893 0.986176
-893 0.013824
894 0.817012
-894 0.182988
895 0.281682
-895 0.718318
896 0.414709
-896 0.585291
897 0.706722
-897 0.293278
898 0.5
-898 0.5
899 0.5
-899 0.5
900 0.5
-900 0.5
901 0.5
-901 0.5
902 0.5
-902 0.5
903 0.5
-903 0.5
904 0.5
-904 0.5
905 0.5
-905 0.5
906 0.5
-906 0.5
907 0.5
-907 0.5
908 0.5
-908 0.5
909 0.5
-909 0.5
910 0.5
-910 0.5
911 0.5
-911 0.5
912 0.5
-912 0.5
913 0.5
-913 0.5
914 0.616196
-914 0.383804
915 0.29347
-915 0.70653
916 0.717666
-916 0.282334
917 0.602373
-917 0.397627
918 0.5
-918 0.5
919 0.5
-919 0.5
920 0.5
-920 0.5
921 0.5
-921 0.5
922 0.500033
-922 0.499967
923 0.374694
-923 0.625306
924 0.925262
-924 0.074738
925 0.624463
-925 0.375537
926 0.5
-926 0.5
927 0.5
-927 0.5
928 0.5
-928 0.5
929 0.5
-929 0.5
930 0.5
-930 0.5
931 0.5
-931 0.5
932 0.5
-932 0.5
933 0.5
-933 0.5
934 0.5
-934 0.5
935 0.5
-935 0.5
936 0.5
-936 0.5
937 0.5
-937 0.5
938 0.5
-938 0.5
939 0.5
-939 0.5
940 0.5
-940 0.5
941 0.5
-941 0.5
942 0.5
-942 0.5
943 0.5
-943 0.5
944 0.5
-944 0.5
945 0.5
-945 0.5
946 0.5
-946 0.5
947 0.5
-947 0.5
948 0.5
-948 0.5
949 0.5
-949 0.5
950 0.5
-950 0.5
951 0.5
-951 0.5
952 0.5
-952 0.5
953 0.5
-953 0.5
954 0.24537
-954 0.75463
955 0.959305
-955 0.040695
956 0.224964
-956 0.775036
957 0.296123
-957 0.703877
958 0.5
-958 0.5
959 0.5
-959 0.5
960 0.5
-960 0.5
961 0.5
-961 0.5
962 0.5
-962 0.5
963 0.5
-963 0.5
964 0.5
-964 0.5
965 0.5
-965 0.5
966 0.5
-966 0.5
967 0.5
-967 0.5
968 0.5
-968 0.5
969 0.5
-969 0.5
970 0.5
-970 0.5
971 0.5
-971 0.5
972 0.5
-972 0.5
973 0.5
-973 0.5
974 0.5
-974 0.5
975 0.5
-975 0.5
976 0.5
-976 0.5
977 0.5
-977 0.5
978 0.5
-978 0.5
979 0.5
-979 0.5
980 0.5
-980 0.5
981 0.5
-981 0.5
982 0.5
-982 0.5
983 0.5
-983 0.5
984 0.5
-984 0.5
985 0.5
-985 0.5
986 0.5
-986 0.5
987 0.5
-987 0.5
988 0.5
-988 0.5
989 0.5
-989 0.5
990 0.5
-990 0.5
991 0.5
-991 0.5
992 0.5
-992 0.5
993 0.5
-993 0.5
994 0.5
-994 0.5
995 0.5
-995 0.5
996 0.5
-996 0.5
997 0.5
-997 0.5
998 0.5
-998 0.5
999 0.5
-999 0.5
1000 0.478619
-1000 0.521381
1001 0.991711
-1001 0.008289
1002 0.217169
-1002 0.782831
1003 0.0252
-1003 0.9748
1004 0.5
-1004 0.5
1005 0.5
-1005 0.5
1006 0.5
-1006 0.5
1007 0.5
-1007 0.5
1008 0.5
-1008 0.5
1009 0.5
-1009 0.5
1010 0.5
-1010 0.5
1011 0.5
-1011 0.5
1012 0.430286
-1012 0.569714
1013 0.729097
-1013 0.270903
1014 0.584564
-1014 0.415436
1015 0.410074
-1015 0.589926
1016 0.03565
-1016 0.96435
1017 0.804334
-1017 0.195666
1018 0.382972
-1018 0.617028
1019 0.625083
-1019 0.374917
1020 0.5
-1020 0.5
1021 0.5
-1021 0.5
1022 0.5
-1022 0.5
1023 0.5
-1023 0.5
1024 0.5
-1024 0.5
1025 0.5
-1025 0.5
1026 0.5
-1026 0.5
1027 0.5
-1027 0.5
1028 0.5
-1028 0.5
1029 0.5
-1029 0.5
1030 0.5
-1030 0.5
1031 0.5
-1031 0.5
1032 0.5
-1032 0.5
1033 0.5
-1033 0.5
1034 0.5
-1034 0.5
1035 0.5
-1035 0.5
1036 0.5
-1036 0.5
1037 0.5
-1037 0.5
1038 0.5
-1038 0.5
1039 0.5
-1039 0.5
1040 0.5
-1040 0.5
1041 0.5
-1041 0.5
1042 0.5
-1042 0.5
1043 0.5
-1043 0.5
1044 0.5
-1044 0.5
1045 0.5
-1045 0.5
1046 0.5
-1046 0.5
1047 0.5
-1047 0.5
1048 0.5
-1048 0.5
1049 0.5
-1049 0.5
1050 0.5
-1050 0.5
1051 0.5
-1051 0.5
1052 0.5
-1052 0.5
1053 0.5
-1053 0.5
1054 0.5
-1054 0.5
1055 0.5
-1055 0.5
1056 0.5
-1056 0.5
1057 0.5
-1057 0.5
1058 0.751222
-1058 0.248778
1059 0.493885
-1059 0.506115
1060 0.443229
-1060 0.556771
1061 0.571409
-1061 0.428591
1062 0.66855
-1062 0.33145
1063 0.801669
-1063 0.198331
1064 0.111491
-1064 0.888509
1065 0.929521
-1065 0.070479
1066 0.750061
-1066 0.249939
1067 0.815576
-1067 0.184424
1068 0.560651
-1068 0.439349
1069 0.390468
-1069 0.609532
1070 0.353478
-1070 0.646522
1071 0.210121
-1071 0.789879
1072 0.641092
-1072 0.358908
1073 0.075275
-1073 0.924725
1074 0.5
-1074 0.5
1075 0.5
-1075 0.5
1076 0.5
-1076 0.5
1077 0.5
-1077 0.5
1078 0.559769
-1078 0.440231
1079 0.561084
-1079 0.438916
1080 0.75783
-1080 0.24217
1081 0.921091
-1081 0.078909
1082 0.5
-1082 0.5
1083 0.5
-1083 0.5
1084 0.5
-1084 0.5
1085 0.5
-1085 0.5
1086 0.5
-1086 0.5
1087 0.5
-1087 0.5
1088 0.5
-1088 0.5
1089 0.5
-1089 0.5
1090 0.5
-1090 0.5
1091 0.5
-1091 0.5
1092 0.5
-1092 0.5
1093 0.5
-1093 0.5
1094 0.5
-1094 0.5
1095 0.5
-1095 0.5
1096 0.5
-1096 0.5
1097 0.5
-1097 0.5
1098 0.921615
-1098 0.078385
1099 0.066933
-1099 0.933067
1100 0.81427
-1100 0.18573
1101 0.769835
-1101 0.230165
1102 0.570327
-1102 0.429673
1103 0.329604
-1103 0.670396
1104 0.376108
-1104 0.623892
1105 0.328157
-1105 0.671843
1106 0.5
-1106 0.5
1107 0.5
-1107 0.5
1108 0.5
-1108 0.5
1109 0.5
-1109 0.5
1110 0.5
-1110 0.5
1111 0.5
-1111 0.5
1112 0.5
-1112 0.5
1113 0.5
-1113 0.5
1114 0.5
-1114 0.5
1115 0.5
-1115 0.5
1116 0.5
-1116 0.5
1117 0.5
-1117 0.5
1118 0.5
-1118 0.5
1119 0.5
-1119 0.5
1120 0.5
-1120 0.5
1121 0.5
-1121 0.5
1122 0.5
-1122 0.5
1123 0.5
-1123 0.5
1124 0.5
-1124 0.5
1125 0.5
-1125 0.5
1126 0.5
-1126 0.5
1127 0.5
-1127 0.5
1128 0.5
-1128 0.5
1129 0.5
-1129 0.5
1130 0.5
-1130 0.5
1131 0.5
-1131 0.5
1132 0.5
-1132 0.5
1133 0.5
-1133 0.5
1134 0.5
-1134 0.5
1135 0.5
-1135 0.5
1136 0.5
-1136 0.5
1137 0.5
-1137 0.5
1138 0.5
-1138 0.5
1139 0.5
-1139 0.5
1140 0.408419
-1140 0.591581
1141 0.008741
-1141 0.991259
1142 0.463959
-1142 0.536041
1143 0.434934
-1143 0.565066
1144 0.795827
-1144 0.204173
1145 0.695426
-1145 0.304574
1146 0.649932
-1146 0.350068
1147 0.998755
-1147 0.001245
1148 0.497071
-1148 0.502929
1149 0.015954
-1149 0.984046
1150 0.829475
-1150 0.170525
1151 0.159233
-1151 0.840767
1152 0.5
-1152 0.5
1153 0.5
-1153 0.5
1154 0.5
-1154 0.5
1155 0.5
-1155 0.5
1156 0.5
-1156 0.5
1157 0.5
-1157 0.5
1158 0.5
-1158 0.5
1159 0.5
-1159 0.5
1160 0.5
-1160 0.5
1161 0.5
-1161 0.5
1162 0.5
-1162 0.5
1163 0.5
-1163 0.5
1164 0.5
-1164 0.5
1165 0.5
-1165 0.5
1166 0.5
-1166 0.5
1167 0.5
-1167 0.5
1168 0.5
-1168 0.5
1169 0.5
-1169 0.5
1170 0.5
-1170 0.5
1171 0.5
-1171 0.5
1172 0.5
-1172 0.5
1173 0.5
-1173 0.5
1174 0.5
-1174 0.5
1175 0.5
-1175 0.5
1176 0.5
-1176 0.5
1177 0.5
-1177 0.5
1178 0.5
-1178 0.5
1179 0.5
-1179 0.5
1180 0.5
-1180 0.5
1181 0.5
-1181 0.5
1182 0.5
-1182 0.5
1183 0.5
-1183 0.5
1184 0.327139
-1184 0.672861
1185 0.501984
-1185 0.498016
1186 0.400387
-1186 0.599613
1187 0.353874
-1187 0.646126
1188 0.5
-1188 0.5
1189 0.5
-1189 0.5
1190 0.5
-1190 0.5
1191 0.5
-1191 0.5
1192 0.5
-1192 0.5
1193 0.5
-1193 0.5
1194 0.5
-1194 0.5
1195 0.5
-1195 0.5
1196 0.5
-1196 0.5
1197 0.5
-1197 0.5
1198 0.5
-1198 0.5
1199 0.5
-1199 0.5
1200 0.5
-1200 0.5
1201 0.5
-1201 0.5
1202 0.5
-1202 0.5
1203 0.5
-1203 0.5
1204 0.5
-1204 0.5
1205 0.5
-1205 0.5
1206 0.5
-1206 0.5
1207 0.5
-1207 0.5
1208 0.5
-1208 0.5
1209 0.5
-1209 0.5
1210 0.5
-1210 0.5
1211 0.5
-1211 0.5
1212 0.444251
-1212 0.555749
1213 0.604911
-1213 0.395089
1214 0.746573
-1214 0.253427
1215 0.366037
-1215 0.633963
1216 0.5
-1216 0.5
1217 0.5
-1217 0.5
1218 0.5
-1218 0.5
1219 0.5
-1219 0.5
1220 0.5
-1220 0.5
1221 0.5
-1221 0.5
1222 0.5
-1222 0.5
1223 0.5
-1223 0.5
1224 0.5
-1224 0.5
1225 0.5
-1225 0.5
1226 0.561967
-1226 0.438033
1227 0.891887
-1227 0.108113
1228 0.12713
-1228 0.87287
1229 0.912525
-1229 0.087475
1230 0.5
-1230 0.5
1231 0.5
-1231 0.5
1232 0.5
-1232 0.5
1233 0.5
-1233 0.5
1234 0.5
-1234 0.5
1235 0.5
-1235 0.5
1236 0.5
-1236 0.5
1237 0.5
-1237 0.5
1238 0.5
-1238 0.5
1239 0.5
-1239 0.5
1240 0.5
-1240 0.5
1241 0.5
-1241 0.5
1242 0.5
-1242 0.5
1243 0.5
-1243 0.5
1244 0.5
-1244 0.5
1245 0.5
-1245 0.5
1246 0.380595
-1246 0.619405
1247 0.986926
-1247 0.013074
1248 0.182847
-1248 0.817153
1249 0.61881
-1249 0.38119
1250 0.5
-1250 0.5
1251 0.5
-1251 0.5
1252 0.5
-1252 0.5
1253 0.5
-1253 0.5
1254 0.5
-1254 0.5
1255 0.5
-1255 0.5
1256 0.5
-1256 0.5
1257 0.5
-1257 0.5
1258 0.5
-1258 0.5
1259 0.5
-1259 0.5
1260 0.5
-1260 0.5
1261 0.5
-1261 0.5
1262 0.5
-1262 0.5
1263 0.5
-1263 0.5
1264 0.5
-1264 0.5
1265 0.5
-1265 0.5
1266 0.5
-1266 0.5
1267 0.5
-1267 0.5
1268 0.5
-1268 0.5
1269 0.5
-1269 0.5
1270 0.5
-1270 0.5
1271 0.5
-1271 0.5
1272 0.5
-1272 0.5
1273 0.5
-1273 0.5
1274 0.5
-1274 0.5
1275 0.5
-1275 0.5
1276 0.5
-1276 0.5
1277 0.5
-1277 0.5
1278 0.5
-1278 0.5
1279 0.5
-1279 0.5
1280 0.5
-1280 0.5
1281 0.5
-1281 0.5
1282 0.5
-1282 0.5
1283 0.5
-1283 0.5
1284 0.5
-1284 0.5
1285 0.5
-1285 0.5
1286 0.5
-1286 0.5
1287 0.5
-1287 0.5
1288 0.5
-1288 0.5
1289 0.5
-1289 0.5
1290 0.5
-1290 0.5
1291 0.5
-1291 0.5
1292 0.5
-1292 0.5
1293 0.5
-1293 0.5
1294 0.5
-1294 0.5
1295 0.5
-1295 0.5
1296 0.5
-1296 0.5
1297 0.5
-1297 0.5
1298 0.5
-1298 0.5
1299 0.5
-1299 0.5
1300 0.5
-1300 0.5
1301 0.5
-1301 0.5
1302 0.736191
-1302 0.263809
1303 0.496374
-1303 0.503626
1304 0.5
-1304 0.5
1305 0.5
-1305 0.5
1306 0.5
-1306 0.5
1307 0.5
-1307 0.5
1308 0.5
-1308 0.5
1309 0.5
-1309 0.5
1310 0.5
-1310 0.5
1311 0.5
-1311 0.5
1312 0.093348
-1312 0.906652
1313 0.552237
-1313 0.447763
1314 0.149552
-1314 0.850448
1315 0.028635
-1315 0.971365
1316 0.5
-1316 0.5
1317 0.5
-1317 0.5
1318 0.5
-1318 0.5
1319 0.5
-1319 0.5
1320 0.5
-1320 0.5
1321 0.5
-1321 0.5
1322 0.5
-1322 0.5
1323 0.5
-1323 0.5
1324 0.5
-1324 0.5
1325 0.5
-1325 0.5
1326 0.5
-1326 0.5
1327 0.5
-1327 0.5
1328 0.86199
-1328 0.13801
1329 0.518465
-1329 0.481535
1330 0.037338
-1330 0.962662
1331 0.006834
-1331 0.993166
1332 0.5
-1332 0.5
1333 0.5
-1333 0.5
1334 0.5
-1334 0.5
1335 0.5
-1335 0.5
1336 0.888141
-1336 0.111859
1337 0.307295
-1337 0.692705
1338 0.463021
-1338 0.536979
1339 0.037693
-1339 0.962307
1340 0.5
-1340 0.5
1341 0.5
-1341 0.5
1342 0.5
-1342 0.5
1343 0.5
-1343 0.5
1344 0.893618
-1344 0.106382
1345 0.239623
-1345 0.760377
1346 0.380673
-1346 0.619327
1347 0.680462
-1347 0.319538
1348 0.5
-1348 0.5
1349 0.5
-1349 0.5
1350 0.5
-1350 0.5
1351 0.5
-1351 0.5
1352 0.5
-1352 0.5
1353 0.5
-1353 0.5
1354 0.5
-1354 0.5
1355 0.5
-1355 0.5
1356 0.5
-1356 0.5
1357 0.5
-1357 0.5
1358 0.5
-1358 0.5
1359 0.5
-1359 0.5
1360 0.502859
-1360 0.497141
1361 0.154841
-1361 0.845159
1362 0.07672
-1362 0.92328
1363 0.965881
-1363 0.034119
1364 0.5
-1364 0.5
1365 0.5
-1365 0.5
1366 0.5
-1366 0.5
1367 0.5
-1367 0.5
1368 0.354409
-1368 0.645591
1369 0.033029
-1369 0.966971
1370 0.072533
-1370 0.927467
1371 0.735083
-1371 0.264917
1372 0.5
-1372 0.5
1373 0.5
-1373 0.5
1374 0.5
-1374 0.5
1375 0.5
-1375 0.5
1376 0.529009
-1376 0.470991
1377 0.770672
-1377 0.229328
1378 0.947472
-1378 0.052528
1379 0.609727
-1379 0.390273
1380 0.070099
-1380 0.929901
1381 0.757168
-1381 0.242832
1382 0.347971
-1382 0.652029
1383 0.662174
-1383 0.337826
1384 0.5
-1384 0.5
1385 0.5
-1385 0.5
1386 0.5
-1386 0.5
1387 0.5
-1387 0.5
1388 0.5
-1388 0.5
1389 0.5
-1389 0.5
1390 0.5
-1390 0.5
1391 0.5
-1391 0.5
1392 0.5
-1392 0.5
1393 0.5
-1393 0.5
1394 0.5
-1394 0.5
1395 0.5
-1395 0.5
1396 0.5
-1396 0.5
1397 0.5
-1397 0.5
1398 0.5
-1398 0.5
1399 0.5
-1399 0.5
1400 0.5
-1400 0.5
1401 0.5
-1401 0.5
1402 0.013295
-1402 0.986705
1403 0.325123
-1403 0.674877
1404 0.598189
-1404 0.401811
1405 0.805788
-1405 0.194212
1406 0.5
-1406 0.5
1407 0.5
-1407 0.5
1408 0.5
-1408 0.5
1409 0.5
-1409 0.5
1410 0.5
-1410 0.5
1411 0.5
-1411 0.5
1412 0.5
-1412 0.5
1413 0.5
-1413 0.5
1414 0.5
-1414 0.5
1415 0.5
-1415 0.5
1416 0.5
-1416 0.5
1417 0.5
-1417 0.5
1418 0.5
-1418 0.5
1419 0.5
-1419 0.5
1420 0.5
-1420 0.5
1421 0.5
-1421 0.5
1422 0.5
-1422 0.5
1423 0.5
-1423 0.5
1424 0.5
-1424 0.5
1425 0.5
-1425 0.5
1426 0.5
-1426 0.5
1427 0.5
-1427 0.5
1428 0.5
-1428 0.5
1429 0.5
-1429 0.5
1430 0.5
-1430 0.5
1431 0.5
-1431 0.5
1432 0.5
-1432 0.5
1433 0.5
-1433 0.5
1434 0.5
-1434 0.5
1435 0.5
-1435 0.5
1436 0.5
-1436 0.5
1437 0.5
-1437 0.5
1438 0.5
-1438 0.5
1439 0.5
-1439 0.5
1440 0.5
-1440 0.5
1441 0.5
-1441 0.5
1442 0.5
-1442 0.5
1443 0.5
-1443 0.5
1444 0.5
-1444 0.5
1445 0.5
-1445 0.5
1446 0.5
-1446 0.5
1447 0.5
-1447 0.5
1448 0.5
-1448 0.5
1449 0.5
-1449 0.5
1450 0.5
-1450 0.5
1451 0.5
-1451 0.5
1452 0.5
-1452 0.5
1453 0.5
-1453 0.5
1454 0.5
-1454 0.5
1455 0.5
-1455 0.5
1456 0.5
-1456 0.5
1457 0.5
-1457 0.5
1458 0.5
-1458 0.5
1459 0.5
-1459 0.5
1460 0.5
-1460 0.5
1461 0.5
-1461 0.5
1462 0.502311
-1462 0.497689
1463 0.013598
-1463 0.986402
1464 0.112528
-1464 0.887472
1465 0.388761
-1465 0.611239
1466 0.5
-1466 0.5
1467 0.5
-1467 0.5
1468 0.24508
-1468 0.75492
1469 0.534373
-1469 0.465627
1470 0.446621
-1470 0.553379
1471 0.19907
-1471 0.80093
1472 0.5
-1472 0.5
1473 0.5
-1473 0.5
1474 0.5
-1474 0.5
1475 0.5
-1475 0.5
1476 0.967691
-1476 0.032309
1477 0.029589
-1477 0.970411
1478 0.62832
-1478 0.37168
1479 0.580907
-1479 0.419093
1480 0.5
-1480 0.5
1481 0.5
-1481 0.5
1482 0.5
-1482 0.5
1483 0.5
-1483 0.5
1484 0.5
-1484 0.5
1485 0.5
-1485 0.5
1486 0.5
-1486 0.5
1487 0.5
-1487 0.5
1488 0.716283
-1488 0.283717
1489 0.127474
-1489 0.872526
1490 0.298289
-1490 0.701711
1491 0.051684
-1491 0.948316
1492 0.5
-1492 0.5
1493 0.5
-1493 0.5
1494 0.5
-1494 0.5
1495 0.5
-1495 0.5
1496 0.5
-1496 0.5
1497 0.5
-1497 0.5
1498 0.5
-1498 0.5
1499 0.5
-1499 0.5
1500 0.260472
-1500 0.739528
1501 0.449085
-1501 0.550915
1502 0.545299
-1502 0.454701
1503 0.841379
-1503 0.158621
1504 0.080565
-1504 0.919435
1505 0.745751
-1505 0.254249
1506 0.247243
-1506 0.752757
1507 0.053707
-1507 0.946293
1508 0.315349
-1508 0.684651
1509 0.460924
-1509 0.539076
1510 0.608953
-1510 0.391047
1511 0.330295
-1511 0.669705
1512 0.5
-1512 0.5
1513 0.5
-1513 0.5
1514 0.5
-1514 0.5
1515 0.5
-1515 0.5
1516 0.839663
-1516 0.160337
1517 0.673683
-1517 0.326317
1518 0.885106
-1518 0.114894
1519 0.457205
-1519 0.542795
1520 0.5
-1520 0.5
1521 0.5
-1521 0.5
1522 0.5
-1522 0.5
1523 0.5
-1523 0.5
1524 0.5
-1524 0.5
1525 0.5
-1525 0.5
1526 0.5
-1526 0.5
1527 0.5
-1527 0.5
1528 0.5
-1528 0.5
1529 0.5
-1529 0.5
1530 0.5
-1530 0.5
1531 0.5
-1531 0.5
1532 0.5
-1532 0.5
1533 0.5
-1533 0.5
1534 0.5
-1534 0.5
1535 0.5
-1535 0.5
1536 0.5
-1536 0.5
1537 0.5
-1537 0.5
1538 0.5
-1538 0.5
1539 0.5
-1539 0.5
1540 0.5
-1540 0.5
1541 0.5
-1541 0.5
1542 0.5
-1542 0.5
1543 0.5
-1543 0.5
1544 0.5
-1544 0.5
1545 0.5
-1545 0.5
1546 0.5
-1546 0.5
1547 0.5
-1547 0.5
1548 0.5
-1548 0.5
1549 0.5
-1549 0.5
1550 0.5
-1550 0.5
1551 0.5
-1551 0.5
1552 0.5
-1552 0.5
1553 0.5
-1553 0.5
1554 0.5
-1554 0.5
1555 0.5
-1555 0.5
1556 0.5
-1556 0.5
1557 0.5
-1557 0.5
1558 0.5
-1558 0.5
1559 0.5
-1559 0.5
1560 0.5
-1560 0.5
1561 0.5
-1561 0.5
1562 0.5
-1562 0.5
1563 0.5
-1563 0.5
1564 0.5
-1564 0.5
1565 0.5
-1565 0.5
1566 0.952012
-1566 0.047988
1567 0.733208
-1567 0.266792
1568 0.999363
-1568 0.000637
1569 0.428872
-1569 0.571128
1570 0.207597
-1570 0.792403
1571 0.928056
-1571 0.071944
1572 0.567982
-1572 0.432018
1573 0.929339
-1573 0.070661
1574 0.912463
-1574 0.087537
1575 0.932658
-1575 0.067342
1576 0.709854
-1576 0.290146
1577 0.567883
-1577 0.432117
1578 0.5
-1578 0.5
1579 0.5
-1579 0.5
1580 0.5
-1580 0.5
1581 0.5
-1581 0.5
1582 0.5
-1582 0.5
1583 0.5
-1583 0.5
1584 0.5
-1584 0.5
1585 0.5
-1585 0.5
1586 0.5
-1586 0.5
1587 0.5
-1587 0.5
1588 0.5
-1588 0.5
1589 0.5
-1589 0.5
1590 0.5
-1590 0.5
1591 0.5
-1591 0.5
1592 0.5
-1592 0.5
1593 0.5
-1593 0.5
1594 0.5
-1594 0.5
1595 0.5
-1595 0.5
1596 0.5
-1596 0.5
1597 0.5
-1597 0.5
1598 0.5
-1598 0.5
1599 0.5
-1599 0.5
1600 0.5
-1600 0.5
1601 0.5
-1601 0.5
1602 0.5
-1602 0.5
1603 0.5
-1603 0.5
1604 0.5
-1604 0.5
1605 0.5
-1605 0.5
1606 0.585434
-1606 0.414566
1607 0.11336
-1607 0.88664
1608 0.614753
-1608 0.385247
1609 0.574913
-1609 0.425087
1610 0.5
-1610 0.5
1611 0.5
-1611 0.5
1612 0.5
-1612 0.5
1613 0.5
-1613 0.5
1614 0.417956
-1614 0.582044
1615 0.586919
-1615 0.413081
1616 0.791854
-1616 0.208146
1617 0.586563
-1617 0.413437
1618 0.121214
-1618 0.878786
1619 0.543861
-1619 0.456139
1620 0.486538
-1620 0.513462
1621 0.37863
-1621 0.62137
1622 0.5
-1622 0.5
1623 0.5
-1623 0.5
1624 0.5
-1624 0.5
1625 0.5
-1625 0.5
1626 0.5
-1626 0.5
1627 0.5
-1627 0.5
1628 0.5
-1628 0.5
1629 0.5
-1629 0.5
1630 0.5
-1630 0.5
1631 0.5
-1631 0.5
1632 0.5
-1632 0.5
1633 0.5
-1633 0.5
1634 0.5
-1634 0.5
1635 0.5
-1635 0.5
1636 0.5
-1636 0.5
1637 0.5
-1637 0.5
1638 0.5
-1638 0.5
1639 0.5
-1639 0.5
1640 0.5
-1640 0.5
1641 0.5
-1641 0.5
1642 0.5
-1642 0.5
1643 0.5
-1643 0.5
1644 0.5
-1644 0.5
1645 0.5
-1645 0.5
1646 0.5
-1646 0.5
1647 0.5
-1647 0.5
1648 0.442396
-1648 0.557604
1649 0.468894
-1649 0.531106
1650 0.408037
-1650 0.591963
1651 0.707884
-1651 0.292116
1652 0.5
-1652 0.5
1653 0.5
-1653 0.5
1654 0.5
-1654 0.5
1655 0.5
-1655 0.5
1656 0.720028
-1656 0.279972
1657 0.029762
-1657 0.970238
1658 0.583778
-1658 0.416222
1659 0.561193
-1659 0.438807
1660 0.5
-1660 0.5
1661 0.5
-1661 0.5
1662 0.5
-1662 0.5
1663 0.5
-1663 0.5
1664 0.5
-1664 0.5
1665 0.5
-1665 0.5
1666 0.5
-1666 0.5
1667 0.5
-1667 0.5
1668 0.5
-1668 0.5
1669 0.5
-1669 0.5
1670 0.5
-1670 0.5
1671 0.5
-1671 0.5
1672 0.923283
-1672 0.076717
1673 0.499793
-1673 0.500207
1674 0.246031
-1674 0.753969
1675 0.33132
-1675 0.66868
1676 0.5
-1676 0.5
1677 0.5
-1677 0.5
1678 0.5
-1678 0.5
1679 0.5
-1679 0.5
1680 0.5
-1680 0.5
1681 0.5
-1681 0.5
1682 0.5
-1682 0.5
1683 0.5
-1683 0.5
1684 0.5
-1684 0.5
1685 0.5
-1685 0.5
1686 0.5
-1686 0.5
1687 0.5
-1687 0.5
1688 0.5
-1688 0.5
1689 0.5
-1689 0.5
1690 0.5
-1690 0.5
1691 0.5
-1691 0.5
1692 0.5
-1692 0.5
1693 0.5
-1693 0.5
1694 0.5
-1694 0.5
1695 0.5
-1695 0.5
1696 0.5
-1696 0.5
1697 0.5
-1697 0.5
1698 0.5
-1698 0.5
1699 0.5
-1699 0.5
1700 0.5
-1700 0.5
1701 0.5
-1701 0.5
1702 0.5
-1702 0.5
1703 0.5
-1703 0.5
1704 0.5
-1704 0.5
1705 0.5
-1705 0.5
1706 0.5
-1706 0.5
1707 0.5
-1707 0.5
1708 0.5
-1708 0.5
1709 0.5
-1709 0.5
1710 0.5
-1710 0.5
1711 0.5
-1711 0.5
1712 0.5
-1712 0.5
1713 0.5
-1713 0.5
1714 0.658584
-1714 0.341416
1715 0.274789
-1715 0.725211
1716 0.171054
-1716 0.828946
1717 0.781283
-1717 0.218717
1718 0.5
-1718 0.5
1719 0.5
-1719 0.5
1720 0.5
-1720 0.5
1721 0.5
-1721 0.5
1722 0.953369
-1722 0.046631
1723 0.0667
-1723 0.933299
1724 0.369688
-1724 0.630312
1725 0.072874
-1725 0.927126
1726 0.937268
-1726 0.062732
1727 0.801152
-1727 0.198848
1728 0.443415
-1728 0.556585
1729 0.249752
-1729 0.750248
1730 0.5
-1730 0.5
1731 0.5
-1731 0.5
1732 0.5
-1732 0.5
1733 0.5
-1733 0.5
1734 0.5
-1734 0.5
1735 0.5
-1735 0.5
1736 0.5
-1736 0.5
1737 0.5
-1737 0.5
1738 0.5
-1738 0.5
1739 0.5
-1739 0.5
1740 0.5
-1740 0.5
1741 0.5
-1741 0.5
1742 0.5
-1742 0.5
1743 0.5
-1743 0.5
1744 0.5
-1744 0.5
1745 0.5
-1745 0.5
1746 0.522164
-1746 0.477836
1747 0.690382
-1747 0.309618
1748 0.029685
-1748 0.970315
1749 0.891852
-1749 0.108148
1750 0.935863
-1750 0.064137
1751 0.82912
-1751 0.17088
1752 0.564408
-1752 0.435592
1753 0.379278
-1753 0.620722
1754 0.5
-1754 0.5
1755 0.5
-1755 0.5
1756 0.5
-1756 0.5
1757 0.5
-1757 0.5
1758 0.5
-1758 0.5
1759 0.5
-1759 0.5
1760 0.5
-1760 0.5
1761 0.5
-1761 0.5
1762 0.5
-1762 0.5
1763 0.5
-1763 0.5
1764 0.5
-1764 0.5
1765 0.5
-1765 0.5
1766 0.5
-1766 0.5
1767 0.5
-1767 0.5
1768 0.5
-1768 0.5
1769 0.5
-1769 0.5
1770 0.136052
-1770 0.863948
1771 0.172727
-1771 0.827273
1772 0.596554
-1772 0.403446
1773 0.165736
-1773 0.834264
1774 0.5
-1774 0.5
1775 0.5
-1775 0.5
1776 0.5
-1776 0.5
1777 0.5
-1777 0.5
1778 0.5
-1778 0.5
1779 0.5
-1779 0.5
1780 0.5
-1780 0.5
1781 0.5
-1781 0.5
1782 0.5
-1782 0.5
1783 0.5
-1783 0.5
1784 0.5
-1784 0.5
1785 0.5
-1785 0.5
1786 0.5
-1786 0.5
1787 0.5
-1787 0.5
1788 0.5
-1788 0.5
1789 0.5
-1789 0.5
1790 0.5
-1790 0.5
1791 0.5
-1791 0.5
1792 0.5
-1792 0.5
1793 0.5
-1793 0.5
1794 0.5
-1794 0.5
1795 0.5
-1795 0.5
1796 0.5
-1796 0.5
1797 0.5
-1797 0.5
1798 0.5
-1798 0.5
1799 0.5
-1799 0.5
1800 0.175089
-1800 0.824911
1801 0.313588
-1801 0.686412
1802 0.252469
-1802 0.747531
1803 0.147661
-1803 0.852339
1804 0.374814
-1804 0.625186
1805 0.067441
-1805 0.932559
1806 0.624089
-1806 0.375911
1807 0.856025
-1807 0.143975
1808 0.5
-1808 0.5
1809 0.5
-1809 0.5
1810 0.5
-1810 0.5
1811 0.5
-1811 0.5
1812 0.5
-1812 0.5
1813 0.5
-1813 0.5
1814 0.5
-1814 0.5
1815 0.5
-1815 0.5
1816 0.5
-1816 0.5
1817 0.5
-1817 0.5
1818 0.5
-1818 0.5
1819 0.5
-1819 0.5
1820 0.5
-1820 0.5
1821 0.5
-1821 0.5
1822 0.5
-1822 0.5
1823 0.5
-1823 0.5
1824 0.5
-1824 0.5
1825 0.5
-1825 0.5
1826 0.5
-1826 0.5
1827 0.5
-1827 0.5
1828 0.5
-1828 0.5
1829 0.5
-1829 0.5
1830 0.5
-1830 0.5
1831 0.5
-1831 0.5
1832 0.5
-1832 0.5
1833 0.5
-1833 0.5
1834 0.5
-1834 0.5
1835 0.5
-1835 0.5
1836 0.5
-1836 0.5
1837 0.5
-1837 0.5
1838 0.5
-1838 0.5
1839 0.5
-1839 0.5
1840 0.5
-1840 0.5
1841 0.5
-1841 0.5
1842 0.5
-1842 0.5
1843 0.5
-1843 0.5
1844 0.283328
-1844 0.716672
1845 0.33577
-1845 0.66423
1846 0.79267
-1846 0.20733
1847 0.566428
-1847 0.433572
1848 0.5
-1848 0.5
1849 0.5
-1849 0.5
1850 0.5
-1850 0.5
1851 0.5
-1851 0.5
1852 0.5
-1852 0.5
1853 0.5
-1853 0.5
1854 0.5
-1854 0.5
1855 0.5
-1855 0.5
1856 0.5
-1856 0.5
1857 0.5
-1857 0.5
1858 0.5
-1858 0.5
1859 0.5
-1859 0.5
1860 0.243727
-1860 0.756273
1861 0.221771
-1861 0.778229
1862 0.217745
-1862 0.782255
1863 0.147401
-1863 0.852599
1864 0.5
-1864 0.5
1865 0.5
-1865 0.5
1866 0.5
-1866 0.5
1867 0.5
-1867 0.5
1868 0.5
-1868 0.5
1869 0.5
-1869 0.5
1870 0.5
-1870 0.5
1871 0.5
-1871 0.5
1872 0.5
-1872 0.5
1873 0.5
-1873 0.5
1874 0.5
-1874 0.5
1875 0.5
-1875 0.5
1876 0.5
-1876 0.5
1877 0.5
-1877 0.5
1878 0.5
-1878 0.5
1879 0.5
-1879 0.5
1880 0.5
-1880 0.5
1881 0.5
-1881 0.5
1882 0.5
-1882 0.5
1883 0.5
-1883 0.5
1884 0.5
-1884 0.5
1885 0.5
-1885 0.5
1886 0.5
-1886 0.5
1887 0.5
-1887 0.5
1888 0.5
-1888 0.5
1889 0.5
-1889 0.5
1890 0.5
-1890 0.5
1891 0.5
-1891 0.5
1892 0.5
-1892 0.5
1893 0.5
-1893 0.5
1894 0.5
-1894 0.5
1895 0.5
-1895 0.5
1896 0.5
-1896 0.5
1897 0.5
-1897 0.5
1898 0.5
-1898 0.5
1899 0.5
-1899 0.5
1900 0.5
-1900 0.5
1901 0.5
-1901 0.5
1902 0.5
-1902 0.5
1903 0.5
-1903 0.5
1904 0.5
-1904 0.5
1905 0.5
-1905 0.5
1906 0.5
-1906 0.5
1907 0.5
-1907 0.5
1908 0.5
-1908 0.5
1909 0.5
-1909 0.5
1910 0.5
-1910 0.5
1911 0.5
-1911 0.5
1912 0.5
-1912 0.5
1913 0.5
-1913 0.5
1914 0.5
-1914 0.5
1915 0.5
-1915 0.5
1916 0.5
-1916 0.5
1917 0.5
-1917 0.5
1918 0.5
-1918 0.5
1919 0.5
-1919 0.5
1920 0.5
-1920 0.5
1921 0.5
-1921 0.5
1922 0.5
-1922 0.5
1923 0.5
-1923 0.5
1924 0.5
-1924 0.5
1925 0.5
-1925 0.5
1926 0.5
-1926 0.5
1927 0.5
-1927 0.5
1928 0.5
-1928 0.5
1929 0.5
-1929 0.5
1930 0.5
-1930 0.5
1931 0.5
-1931 0.5
1932 0.5
-1932 0.5
1933 0.5
-1933 0.5
1934 0.750979
-1934 0.249021
1935 0.409683
-1935 0.590317
1936 0.361909
-1936 0.638091
1937 0.879929
-1937 0.120071
1938 0.01097
-1938 0.98903
1939 0.908877
-1939 0.091123
1940 0.84876
-1940 0.15124
1941 0.373052
-1941 0.626948
1942 0.5
-1942 0.5
1943 0.5
-1943 0.5
1944 0.5
-1944 0.5
1945 0.5
-1945 0.5
1946 0.5
-1946 0.5
1947 0.5
-1947 0.5
1948 0.5
-1948 0.5
1949 0.5
-1949 0.5
1950 0.5
-1950 0.5
1951 0.5
-1951 0.5
1952 0.5
-1952 0.5
1953 0.5
-1953 0.5
1954 0.098491
-1954 0.901509
1955 0.445216
-1955 0.554784
1956 0.496547
-1956 0.503453
1957 0.118599
-1957 0.881401
1958 0.5
-1958 0.5
1959 0.5
-1959 0.5
1960 0.5
-1960 0.5
1961 0.5
-1961 0.5
1962 0.5
-1962 0.5
1963 0.5
-1963 0.5
1964 0.5
-1964 0.5
1965 0.5
-1965 0.5
1966 0.5
-1966 0.5
1967 0.5
-1967 0.5
1968 0.5
-1968 0.5
1969 0.5
-1969 0.5
1970 0.5
-1970 0.5
1971 0.5
-1971 0.5
1972 0.5
-1972 0.5
1973 0.5
-1973 0.5
1974 0.5
-1974 0.5
1975 0.5
-1975 0.5
1976 0.5
-1976 0.5
1977 0.5
-1977 0.5
1978 0.5
-1978 0.5
1979 0.5
-1979 0.5
1980 0.5
-1980 0.5
1981 0.5
-1981 0.5
1982 0.5
-1982 0.5
1983 0.5
-1983 0.5
1984 0.5
-1984 0.5
1985 0.5
-1985 0.5
1986 0.5
-1986 0.5
1987 0.5
-1987 0.5
1988 0.5
-1988 0.5
1989 0.5
-1989 0.5
1990 0.5
-1990 0.5
1991 0.5
-1991 0.5
1992 0.5
-1992 0.5
1993 0.5
-1993 0.5
1994 0.5
-1994 0.5
1995 0.5
-1995 0.5
1996 0.161821
-1996 0.838179
1997 0.541283
-1997 0.458717
1998 0.916084
-1998 0.083916
1999 0.33181
-1999 0.66819
2000 0.5
-2000 0.5
2001 0.5
-2001 0.5
2002 0.5
-2002 0.5
2003 0.5
-2003 0.5
2004 0.5
-2004 0.5
2005 0.5
-2005 0.5
2006 0.5
-2006 0.5
2007 0.5
-2007 0.5
2008 0.5
-2008 0.5
2009 0.5
-2009 0.5
2010 0.5
-2010 0.5
2011 0.5
-2011 0.5
2012 0.5
-2012 0.5
2013 0.5
-2013 0.5
2014 0.5
-2014 0.5
2015 0.5
-2015 0.5
2016 0.5
-2016 0.5
2017 0.5
-2017 0.5
2018 0.5
-2018 0.5
2019 0.5
-2019 0.5
2020 0.5
-2020 0.5
2021 0.5
-2021 0.5
2022 0.5
-2022 0.5
2023 0.5
-2023 0.5
2024 0.5
-2024 0.5
2025 0.5
-2025 0.5
2026 0.5
-2026 0.5
2027 0.5
-2027 0.5
2028 0.5
-2028 0.5
2029 0.5
-2029 0.5
2030 0.5
-2030 0.5
2031 0.5
-2031 0.5
2032 0.5
-2032 0.5
2033 0.5
-2033 0.5
2034 0.5
-2034 0.5
2035 0.5
-2035 0.5
2036 0.648486
-2036 0.351514
2037 0.019995
-2037 0.980005
2038 0.428888
-2038 0.571112
2039 0.667961
-2039 0.332039
2040 0.5
-2040 0.5
2041 0.5
-2041 0.5
2042 0.5
-2042 0.5
2043 0.5
-2043 0.5
2044 0.5
-2044 0.5
2045 0.5
-2045 0.5
2046 0.872916
-2046 0.127084
2047 0.058341
-2047 0.941659
2048 0.388063
-2048 0.611937
2049 0.015379
-2049 0.984621
2050 0.5
-2050 0.5
2051 0.5
-2051 0.5
2052 0.5
-2052 0.5
2053 0.5
-2053 0.5
2054 0.5
-2054 0.5
2055 0.5
-2055 0.5
2056 0.5
-2056 0.5
2057 0.5
-2057 0.5
2058 0.19399
-2058 0.80601
2059 0.389139
-2059 0.610861
2060 0.758966
-2060 0.241034
2061 0.842477
-2061 0.157523
2062 0.5
-2062 0.5
2063 0.5
-2063 0.5
2064 0.5
-2064 0.5
2065 0.5
-2065 0.5
2066 0.98201
-2066 0.01799
2067 0.247295
-2067 0.752705
2068 0.153741
-2068 0.846259
2069 0.188885
-2069 0.811115
2070 0.5
-2070 0.5
2071 0.5
-2071 0.5
2072 0.5
-2072 0.5
2073 0.5
-2073 0.5
2074 0.5
-2074 0.5
2075 0.5
-2075 0.5
2076 0.5
-2076 0.5
2077 0.5
-2077 0.5
2078 0.5
-2078 0.5
2079 0.5
-2079 0.5
2080 0.5
-2080 0.5
2081 0.5
-2081 0.5
2082 0.5
-2082 0.5
2083 0.5
-2083 0.5
2084 0.5
-2084 0.5
2085 0.5
-2085 0.5
2086 0.043492
-2086 0.956508
2087 0.448052
-2087 0.551948
2088 0.27165
-2088 0.72835
2089 0.152859
-2089 0.847141
2090 0.24893
-2090 0.75107
2091 0.134869
-2091 0.865131
2092 0.99882
-2092 0.00118
2093 0.402671
-2093 0.597329
2094 0.5
-2094 0.5
2095 0.5
-2095 0.5
2096 0.5
-2096 0.5
2097 0.5
-2097 0.5
2098 0.5
-2098 0.5
2099 0.5
-2099 0.5
2100 0.5
-2100 0.5
2101 0.5
-2101 0.5
2102 0.5
-2102 0.5
2103 0.5
-2103 0.5
2104 0.5
-2104 0.5
2105 0.5
-2105 0.5
2106 0.5
-2106 0.5
2107 0.5
-2107 0.5
2108 0.5
-2108 0.5
2109 0.5
-2109 0.5
2110 0.5
-2110 0.5
2111 0.5
-2111 0.5
2112 0.5
-2112 0.5
2113 0.5
-2113 0.5
2114 0.5
-2114 0.5
2115 0.5
-2115 0.5
2116 0.5
-2116 0.5
2117 0.5
-2117 0.5
2118 0.892816
-2118 0.107184
2119 0.396182
-2119 0.603818
2120 0.216874
-2120 0.783126
2121 0.071173
-2121 0.928827
