1 0.580023
-1 0.419977
2 1.0
-2 1.0
3 1.0
-3 1.0
4 1.0
-4 1.0
5 1.0
-5 1.0
6 1.0
-6 1.0
7 1.0
-7 1.0
8 1.0
-8 1.0
9 1.0
-9 1.0
10 1.0
-10 1.0
11 1.0
-11 1.0
12 1.0
-12 1.0
13 1.0
-13 1.0
14 1.0
-14 1.0
15 1.0
-15 1.0
16 1.0
-16 1.0
17 1.0
-17 1.0
18 1.0
-18 1.0
19 1.0
-19 1.0
20 1.0
-20 1.0
21 1.0
-21 1.0
22 1.0
-22 1.0
23 1.0
-23 1.0
24 1.0
-24 1.0
25 1.0
-25 1.0
26 1.0
-26 1.0
27 1.0
-27 1.0
28 1.0
-28 1.0
29 1.0
-29 1.0
30 1.0
-30 1.0
31 1.0
-31 1.0
32 1.0
-32 1.0
33 1.0
-33 1.0
34 1.0
-34 1.0
35 1.0
-35 1.0
36 1.0
-36 1.0
37 1.0
-37 1.0
38 1.0
-38 1.0
39 1.0
-39 1.0
40 1.0
-40 1.0
41 1.0
-41 1.0
42 1.0
-42 1.0
43 1.0
-43 1.0
44 1.0
-44 1.0
45 1.0
-45 1.0
46 1.0
-46 1.0
47 1.0
-47 1.0
48 1.0
-48 1.0
49 1.0
-49 1.0
50 1.0
-50 1.0
51 1.0
-51 1.0
52 1.0
-52 1.0
53 1.0
-53 1.0
54 1.0
-54 1.0
55 1.0
-55 1.0
56 1.0
-56 1.0
57 1.0
-57 1.0
58 1.0
-58 1.0
59 1.0
-59 1.0
60 1.0
-60 1.0
61 1.0
-61 1.0
62 1.0
-62 1.0
63 1.0
-63 1.0
64 1.0
-64 1.0
65 1.0
-65 1.0
66 1.0
-66 1.0
67 1.0
-67 1.0
68 1.0
-68 1.0
69 1.0
-69 1.0
70 1.0
-70 1.0
71 1.0
-71 1.0
72 1.0
-72 1.0
73 1.0
-73 1.0
74 1.0
-74 1.0
75 1.0
-75 1.0
76 1.0
-76 1.0
77 1.0
-77 1.0
78 1.0
-78 1.0
79 1.0
-79 1.0
80 1.0
-80 1.0
81 1.0
-81 1.0
82 1.0
-82 1.0
83 1.0
-83 1.0
84 1.0
-84 1.0
85 1.0
-85 1.0
86 1.0
-86 1.0
87 1.0
-87 1.0
88 1.0
-88 1.0
89 1.0
-89 1.0
90 1.0
-90 1.0
91 1.0
-91 1.0
92 1.0
-92 1.0
93 1.0
-93 1.0
94 1.0
-94 1.0
95 1.0
-95 1.0
96 1.0
-96 1.0
97 1.0
-97 1.0
98 1.0
-98 1.0
99 1.0
-99 1.0
100 1.0
-100 1.0
101 1.0
-101 1.0
102 1.0
-102 1.0
103 1.0
-103 1.0
104 1.0
-104 1.0
105 1.0
-105 1.0
106 1.0
-106 1.0
107 1.0
-107 1.0
108 1.0
-108 1.0
109 1.0
-109 1.0
110 1.0
-110 1.0
111 1.0
-111 1.0
112 1.0
-112 1.0
113 1.0
-113 1.0
114 1.0
-114 1.0
115 1.0
-115 1.0
116 1.0
-116 1.0
117 1.0
-117 1.0
118 1.0
-118 1.0
119 1.0
-119 1.0
120 1.0
-120 1.0
121 1.0
-121 1.0
122 1.0
-122 1.0
123 1.0
-123 1.0
124 1.0
-124 1.0
125 1.0
-125 1.0
126 1.0
-126 1.0
127 1.0
-127 1.0
128 1.0
-128 1.0
129 1.0
-129 1.0
130 1.0
-130 1.0
131 1.0
-131 1.0
132 1.0
-132 1.0
133 1.0
-133 1.0
134 1.0
-134 1.0
135 1.0
-135 1.0
136 1.0
-136 1.0
137 1.0
-137 1.0
138 1.0
-138 1.0
139 1.0
-139 1.0
140 1.0
-140 1.0
141 1.0
-141 1.0
142 1.0
-142 1.0
143 1.0
-143 1.0
144 1.0
-144 1.0
145 1.0
-145 1.0
146 1.0
-146 1.0
147 1.0
-147 1.0
148 1.0
-148 1.0
149 1.0
-149 1.0
150 1.0
-150 1.0
151 1.0
-151 1.0
152 1.0
-152 1.0
153 1.0
-153 1.0
154 1.0
-154 1.0
155 1.0
-155 1.0
156 1.0
-156 1.0
157 1.0
-157 1.0
158 1.0
-158 1.0
159 1.0
-159 1.0
160 1.0
-160 1.0
161 1.0
-161 1.0
162 1.0
-162 1.0
163 1.0
-163 1.0
164 1.0
-164 1.0
165 1.0
-165 1.0
166 1.0
-166 1.0
167 1.0
-167 1.0
168 1.0
-168 1.0
169 1.0
-169 1.0
170 1.0
-170 1.0
171 1.0
-171 1.0
172 1.0
-172 1.0
173 1.0
-173 1.0
174 1.0
-174 1.0
175 1.0
-175 1.0
176 1.0
-176 1.0
177 1.0
-177 1.0
178 1.0
-178 1.0
179 1.0
-179 1.0
180 1.0
-180 1.0
181 1.0
-181 1.0
182 1.0
-182 1.0
183 1.0
-183 1.0
184 1.0
-184 1.0
185 1.0
-185 1.0
186 1.0
-186 1.0
187 1.0
-187 1.0
188 1.0
-188 1.0
189 1.0
-189 1.0
190 1.0
-190 1.0
191 1.0
-191 1.0
192 1.0
-192 1.0
193 1.0
-193 1.0
194 1.0
-194 1.0
195 1.0
-195 1.0
196 1.0
-196 1.0
197 1.0
-197 1.0
198 1.0
-198 1.0
199 1.0
-199 1.0
200 1.0
-200 1.0
201 1.0
-201 1.0
202 1.0
-202 1.0
203 1.0
-203 1.0
204 1.0
-204 1.0
205 1.0
-205 1.0
206 1.0
-206 1.0
207 1.0
-207 1.0
208 1.0
-208 1.0
209 1.0
-209 1.0
210 1.0
-210 1.0
211 1.0
-211 1.0
212 1.0
-212 1.0
213 1.0
-213 1.0
214 1.0
-214 1.0
215 1.0
-215 1.0
216 1.0
-216 1.0
217 1.0
-217 1.0
218 1.0
-218 1.0
219 1.0
-219 1.0
220 1.0
-220 1.0
221 1.0
-221 1.0
222 1.0
-222 1.0
223 1.0
-223 1.0
224 1.0
-224 1.0
225 1.0
-225 1.0
226 1.0
-226 1.0
227 1.0
-227 1.0
228 1.0
-228 1.0
229 1.0
-229 1.0
230 1.0
-230 1.0
231 1.0
-231 1.0
232 1.0
-232 1.0
233 1.0
-233 1.0
234 1.0
-234 1.0
235 1.0
-235 1.0
236 1.0
-236 1.0
237 1.0
-237 1.0
238 1.0
-238 1.0
239 1.0
-239 1.0
240 1.0
-240 1.0
241 1.0
-241 1.0
242 1.0
-242 1.0
243 1.0
-243 1.0
244 1.0
-244 1.0
245 1.0
-245 1.0
246 1.0
-246 1.0
247 1.0
-247 1.0
248 1.0
-248 1.0
249 1.0
-249 1.0
250 1.0
-250 1.0
251 1.0
-251 1.0
252 1.0
-252 1.0
253 1.0
-253 1.0
254 1.0
-254 1.0
255 1.0
-255 1.0
256 1.0
-256 1.0
257 1.0
-257 1.0
258 1.0
-258 1.0
259 1.0
-259 1.0
260 1.0
-260 1.0
261 1.0
-261 1.0
262 1.0
-262 1.0
263 1.0
-263 1.0
264 1.0
-264 1.0
265 1.0
-265 1.0
266 1.0
-266 1.0
267 1.0
-267 1.0
268 1.0
-268 1.0
269 1.0
-269 1.0
270 1.0
-270 1.0
271 1.0
-271 1.0
272 1.0
-272 1.0
273 1.0
-273 1.0
274 1.0
-274 1.0
275 1.0
-275 1.0
276 1.0
-276 1.0
277 1.0
-277 1.0
278 1.0
-278 1.0
279 1.0
-279 1.0
280 1.0
-280 1.0
281 1.0
-281 1.0
282 1.0
-282 1.0
283 1.0
-283 1.0
284 1.0
-284 1.0
285 1.0
-285 1.0
286 1.0
-286 1.0
287 1.0
-287 1.0
288 1.0
-288 1.0
289 1.0
-289 1.0
290 1.0
-290 1.0
291 1.0
-291 1.0
292 1.0
-292 1.0
293 1.0
-293 1.0
294 1.0
-294 1.0
295 1.0
-295 1.0
296 1.0
-296 1.0
297 1.0
-297 1.0
298 1.0
-298 1.0
299 1.0
-299 1.0
300 1.0
-300 1.0
301 1.0
-301 1.0
302 1.0
-302 1.0
303 1.0
-303 1.0
304 1.0
-304 1.0
305 1.0
-305 1.0
306 1.0
-306 1.0
307 1.0
-307 1.0
308 1.0
-308 1.0
309 1.0
-309 1.0
310 1.0
-310 1.0
311 1.0
-311 1.0
312 1.0
-312 1.0
313 1.0
-313 1.0
314 1.0
-314 1.0
315 1.0
-315 1.0
316 1.0
-316 1.0
317 1.0
-317 1.0
318 1.0
-318 1.0
319 1.0
-319 1.0
320 1.0
-320 1.0
321 1.0
-321 1.0
322 1.0
-322 1.0
323 1.0
-323 1.0
324 1.0
-324 1.0
325 1.0
-325 1.0
326 1.0
-326 1.0
327 1.0
-327 1.0
328 1.0
-328 1.0
329 1.0
-329 1.0
330 1.0
-330 1.0
331 1.0
-331 1.0
332 1.0
-332 1.0
333 1.0
-333 1.0
334 1.0
-334 1.0
335 1.0
-335 1.0
336 1.0
-336 1.0
337 1.0
-337 1.0
338 1.0
-338 1.0
339 1.0
-339 1.0
340 1.0
-340 1.0
341 1.0
-341 1.0
342 1.0
-342 1.0
343 1.0
-343 1.0
344 1.0
-344 1.0
345 1.0
-345 1.0
346 1.0
-346 1.0
347 1.0
-347 1.0
348 1.0
-348 1.0
349 1.0
-349 1.0
350 1.0
-350 1.0
351 1.0
-351 1.0
352 1.0
-352 1.0
353 1.0
-353 1.0
354 1.0
-354 1.0
355 1.0
-355 1.0
356 1.0
-356 1.0
357 1.0
-357 1.0
358 1.0
-358 1.0
359 1.0
-359 1.0
360 1.0
-360 1.0
361 1.0
-361 1.0
362 1.0
-362 1.0
363 1.0
-363 1.0
364 1.0
-364 1.0
365 1.0
-365 1.0
366 1.0
-366 1.0
367 1.0
-367 1.0
368 1.0
-368 1.0
369 1.0
-369 1.0
370 1.0
-370 1.0
371 1.0
-371 1.0
372 1.0
-372 1.0
373 1.0
-373 1.0
374 1.0
-374 1.0
375 1.0
-375 1.0
376 1.0
-376 1.0
377 1.0
-377 1.0
378 1.0
-378 1.0
379 1.0
-379 1.0
380 1.0
-380 1.0
381 1.0
-381 1.0
382 1.0
-382 1.0
383 1.0
-383 1.0
384 1.0
-384 1.0
385 1.0
-385 1.0
386 1.0
-386 1.0
387 1.0
-387 1.0
388 1.0
-388 1.0
389 1.0
-389 1.0
390 1.0
-390 1.0
391 1.0
-391 1.0
392 1.0
-392 1.0
393 1.0
-393 1.0
394 1.0
-394 1.0
395 1.0
-395 1.0
396 1.0
-396 1.0
397 1.0
-397 1.0
398 1.0
-398 1.0
399 1.0
-399 1.0
400 1.0
-400 1.0
401 1.0
-401 1.0
402 1.0
-402 1.0
403 1.0
-403 1.0
404 1.0
-404 1.0
405 1.0
-405 1.0
406 1.0
-406 1.0
407 1.0
-407 1.0
408 1.0
-408 1.0
409 1.0
-409 1.0
410 1.0
-410 1.0
411 1.0
-411 1.0
412 1.0
-412 1.0
413 1.0
-413 1.0
414 1.0
-414 1.0
415 1.0
-415 1.0
416 1.0
-416 1.0
417 1.0
-417 1.0
418 1.0
-418 1.0
419 1.0
-419 1.0
420 1.0
-420 1.0
421 1.0
-421 1.0
422 1.0
-422 1.0
423 1.0
-423 1.0
424 1.0
-424 1.0
425 1.0
-425 1.0
426 1.0
-426 1.0
427 1.0
-427 1.0
428 1.0
-428 1.0
429 1.0
-429 1.0
430 1.0
-430 1.0
431 1.0
-431 1.0
432 1.0
-432 1.0
433 1.0
-433 1.0
434 1.0
-434 1.0
435 1.0
-435 1.0
436 1.0
-436 1.0
437 1.0
-437 1.0
438 1.0
-438 1.0
439 1.0
-439 1.0
440 1.0
-440 1.0
441 1.0
-441 1.0
442 1.0
-442 1.0
443 1.0
-443 1.0
444 1.0
-444 1.0
445 1.0
-445 1.0
446 1.0
-446 1.0
447 1.0
-447 1.0
448 1.0
-448 1.0
449 1.0
-449 1.0
450 1.0
-450 1.0
451 1.0
-451 1.0
452 1.0
-452 1.0
453 1.0
-453 1.0
454 1.0
-454 1.0
455 1.0
-455 1.0
456 1.0
-456 1.0
457 1.0
-457 1.0
458 1.0
-458 1.0
459 1.0
-459 1.0
460 1.0
-460 1.0
461 1.0
-461 1.0
462 1.0
-462 1.0
463 1.0
-463 1.0
464 1.0
-464 1.0
465 1.0
-465 1.0
466 1.0
-466 1.0
467 1.0
-467 1.0
468 1.0
-468 1.0
469 1.0
-469 1.0
470 1.0
-470 1.0
471 1.0
-471 1.0
472 1.0
-472 1.0
473 1.0
-473 1.0
474 1.0
-474 1.0
475 1.0
-475 1.0
476 1.0
-476 1.0
477 1.0
-477 1.0
478 1.0
-478 1.0
479 1.0
-479 1.0
480 1.0
-480 1.0
481 1.0
-481 1.0
482 1.0
-482 1.0
483 1.0
-483 1.0
484 1.0
-484 1.0
485 1.0
-485 1.0
486 1.0
-486 1.0
487 1.0
-487 1.0
488 1.0
-488 1.0
489 1.0
-489 1.0
490 1.0
-490 1.0
491 1.0
-491 1.0
492 1.0
-492 1.0
493 1.0
-493 1.0
494 1.0
-494 1.0
495 1.0
-495 1.0
496 1.0
-496 1.0
497 1.0
-497 1.0
498 1.0
-498 1.0
499 1.0
-499 1.0
500 1.0
-500 1.0
501 1.0
-501 1.0
502 1.0
-502 1.0
503 1.0
-503 1.0
504 1.0
-504 1.0
505 1.0
-505 1.0
506 1.0
-506 1.0
507 1.0
-507 1.0
508 1.0
-508 1.0
509 1.0
-509 1.0
510 1.0
-510 1.0
511 1.0
-511 1.0
512 1.0
-512 1.0
513 1.0
-513 1.0
514 1.0
-514 1.0
515 1.0
-515 1.0
516 1.0
-516 1.0
517 1.0
-517 1.0
518 1.0
-518 1.0
519 1.0
-519 1.0
520 1.0
-520 1.0
521 1.0
-521 1.0
522 1.0
-522 1.0
523 1.0
-523 1.0
524 1.0
-524 1.0
525 1.0
-525 1.0
526 1.0
-526 1.0
527 1.0
-527 1.0
528 1.0
-528 1.0
529 1.0
-529 1.0
530 1.0
-530 1.0
531 1.0
-531 1.0
532 1.0
-532 1.0
533 1.0
-533 1.0
534 1.0
-534 1.0
535 1.0
-535 1.0
536 1.0
-536 1.0
537 1.0
-537 1.0
538 1.0
-538 1.0
539 1.0
-539 1.0
540 1.0
-540 1.0
541 1.0
-541 1.0
542 1.0
-542 1.0
543 1.0
-543 1.0
544 1.0
-544 1.0
545 1.0
-545 1.0
546 1.0
-546 1.0
547 1.0
-547 1.0
548 1.0
-548 1.0
549 1.0
-549 1.0
550 1.0
-550 1.0
551 1.0
-551 1.0
552 1.0
-552 1.0
553 1.0
-553 1.0
554 1.0
-554 1.0
555 1.0
-555 1.0
556 1.0
-556 1.0
557 1.0
-557 1.0
558 1.0
-558 1.0
559 1.0
-559 1.0
560 1.0
-560 1.0
561 1.0
-561 1.0
562 1.0
-562 1.0
563 1.0
-563 1.0
564 1.0
-564 1.0
565 1.0
-565 1.0
566 1.0
-566 1.0
567 1.0
-567 1.0
568 1.0
-568 1.0
569 1.0
-569 1.0
570 1.0
-570 1.0
571 1.0
-571 1.0
572 1.0
-572 1.0
573 1.0
-573 1.0
574 1.0
-574 1.0
575 1.0
-575 1.0
576 1.0
-576 1.0
577 1.0
-577 1.0
578 1.0
-578 1.0
579 1.0
-579 1.0
580 1.0
-580 1.0
581 1.0
-581 1.0
582 1.0
-582 1.0
583 1.0
-583 1.0
584 1.0
-584 1.0
585 1.0
-585 1.0
586 1.0
-586 1.0
587 1.0
-587 1.0
588 1.0
-588 1.0
589 1.0
-589 1.0
590 1.0
-590 1.0
591 1.0
-591 1.0
592 1.0
-592 1.0
593 1.0
-593 1.0
594 1.0
-594 1.0
595 1.0
-595 1.0
596 1.0
-596 1.0
597 1.0
-597 1.0
598 1.0
-598 1.0
599 1.0
-599 1.0
600 1.0
-600 1.0
601 1.0
-601 1.0
602 1.0
-602 1.0
603 1.0
-603 1.0
604 1.0
-604 1.0
605 1.0
-605 1.0
606 1.0
-606 1.0
607 1.0
-607 1.0
608 1.0
-608 1.0
609 1.0
-609 1.0
610 1.0
-610 1.0
611 1.0
-611 1.0
612 1.0
-612 1.0
613 1.0
-613 1.0
614 1.0
-614 1.0
615 1.0
-615 1.0
616 1.0
-616 1.0
617 1.0
-617 1.0
618 1.0
-618 1.0
619 1.0
-619 1.0
620 1.0
-620 1.0
621 1.0
-621 1.0
622 1.0
-622 1.0
623 1.0
-623 1.0
624 1.0
-624 1.0
625 1.0
-625 1.0
626 0.5
-626 0.5
627 0.5
-627 0.5
628 0.341478
-628 0.658522
629 0.368455
-629 0.631545
630 0.5
-630 0.5
631 0.5
-631 0.5
632 0.5
-632 0.5
633 0.5
-633 0.5
634 0.5
-634 0.5
635 0.5
-635 0.5
636 0.973697
-636 0.026303
637 0.36136
-637 0.63864
638 0.5
-638 0.5
639 0.5
-639 0.5
640 0.050236
-640 0.949764
641 0.955162
-641 0.044838
642 0.724338
-642 0.275662
643 0.346309
-643 0.653691
644 0.5
-644 0.5
645 0.5
-645 0.5
646 0.5
-646 0.5
647 0.5
-647 0.5
648 0.5
-648 0.5
649 0.5
-649 0.5
650 0.5
-650 0.5
651 0.5
-651 0.5
652 0.774132
-652 0.225868
653 0.832127
-653 0.167873
654 0.5
-654 0.5
655 0.5
-655 0.5
656 0.5
-656 0.5
657 0.5
-657 0.5
658 0.5
-658 0.5
659 0.5
-659 0.5
660 0.5
-660 0.5
661 0.5
-661 0.5
662 0.5
-662 0.5
663 0.5
-663 0.5
664 0.5
-664 0.5
665 0.5
-665 0.5
666 0.5
-666 0.5
667 0.5
-667 0.5
668 0.5
-668 0.5
669 0.5
-669 0.5
670 0.5
-670 0.5
671 0.5
-671 0.5
672 0.5
-672 0.5
673 0.5
-673 0.5
674 0.5
-674 0.5
675 0.5
-675 0.5
676 0.5
-676 0.5
677 0.5
-677 0.5
678 0.5
-678 0.5
679 0.5
-679 0.5
680 0.5
-680 0.5
681 0.5
-681 0.5
682 0.5
-682 0.5
683 0.5
-683 0.5
684 0.5
-684 0.5
685 0.5
-685 0.5
686 0.5
-686 0.5
687 0.5
-687 0.5
688 0.5
-688 0.5
689 0.5
-689 0.5
690 0.5
-690 0.5
691 0.5
-691 0.5
692 0.700043
-692 0.299957
693 0.543298
-693 0.456702
694 0.493271
-694 0.506729
695 0.724218
-695 0.275782
696 0.848806
-696 0.151194
697 0.094701
-697 0.905299
698 0.015677
-698 0.984323
699 0.149988
-699 0.850012
700 0.5
-700 0.5
701 0.5
-701 0.5
702 0.5
-702 0.5
703 0.5
-703 0.5
704 0.5
-704 0.5
705 0.5
-705 0.5
706 0.5
-706 0.5
707 0.5
-707 0.5
708 0.5
-708 0.5
709 0.5
-709 0.5
710 0.5
-710 0.5
711 0.5
-711 0.5
712 0.753717
-712 0.246283
713 0.130167
-713 0.869833
714 0.274597
-714 0.725403
715 0.384747
-715 0.615253
716 0.5
-716 0.5
717 0.5
-717 0.5
718 0.5
-718 0.5
719 0.5
-719 0.5
720 0.5
-720 0.5
721 0.5
-721 0.5
722 0.5
-722 0.5
723 0.5
-723 0.5
724 0.5
-724 0.5
725 0.5
-725 0.5
726 0.5
-726 0.5
727 0.5
-727 0.5
728 0.5
-728 0.5
729 0.5
-729 0.5
730 0.5
-730 0.5
731 0.5
-731 0.5
732 0.507981
-732 0.492019
733 0.422806
-733 0.577194
734 0.737081
-734 0.262919
735 0.081313
-735 0.918687
736 0.5
-736 0.5
737 0.5
-737 0.5
738 0.5
-738 0.5
739 0.5
-739 0.5
740 0.5
-740 0.5
741 0.5
-741 0.5
742 0.5
-742 0.5
743 0.5
-743 0.5
744 0.994895
-744 0.005105
745 0.936251
-745 0.063749
746 0.673053
-746 0.326947
747 0.757944
-747 0.242056
748 0.5
-748 0.5
749 0.5
-749 0.5
750 0.5
-750 0.5
751 0.5
-751 0.5
752 0.5
-752 0.5
753 0.5
-753 0.5
754 0.5
-754 0.5
755 0.5
-755 0.5
756 0.5
-756 0.5
757 0.5
-757 0.5
758 0.5
-758 0.5
759 0.5
-759 0.5
760 0.5
-760 0.5
761 0.5
-761 0.5
762 0.5
-762 0.5
763 0.5
-763 0.5
764 0.5
-764 0.5
765 0.5
-765 0.5
766 0.5
-766 0.5
767 0.5
-767 0.5
768 0.5
-768 0.5
769 0.5
-769 0.5
770 0.5
-770 0.5
771 0.5
-771 0.5
772 0.5
-772 0.5
773 0.5
-773 0.5
774 0.5
-774 0.5
775 0.5
-775 0.5
776 0.5
-776 0.5
777 0.5
-777 0.5
778 0.5
-778 0.5
779 0.5
-779 0.5
780 0.5
-780 0.5
781 0.5
-781 0.5
782 0.588028
-782 0.411972
783 0.641104
-783 0.358896
784 0.562491
-784 0.437509
785 0.053739
-785 0.946261
786 0.783929
-786 0.216071
787 0.73093
-787 0.26907
788 0.995764
-788 0.004236
789 0.880913
-789 0.119087
790 0.846098
-790 0.153902
791 0.938232
-791 0.061768
792 0.248538
-792 0.751462
793 0.153934
-793 0.846066
794 0.625997
-794 0.374003
795 0.398022
-795 0.601978
796 0.26461
-796 0.73539
797 0.761401
-797 0.238599
798 0.5
-798 0.5
799 0.5
-799 0.5
800 0.5
-800 0.5
801 0.5
-801 0.5
802 0.5
-802 0.5
803 0.5
-803 0.5
804 0.5
-804 0.5
805 0.5
-805 0.5
806 0.5
-806 0.5
807 0.5
-807 0.5
808 0.5
-808 0.5
809 0.5
-809 0.5
810 0.5
-810 0.5
811 0.5
-811 0.5
812 0.5
-812 0.5
813 0.5
-813 0.5
814 0.5
-814 0.5
815 0.5
-815 0.5
816 0.5
-816 0.5
817 0.5
-817 0.5
818 0.5
-818 0.5
819 0.5
-819 0.5
820 0.5
-820 0.5
821 0.5
-821 0.5
822 0.5
-822 0.5
823 0.5
-823 0.5
824 0.5
-824 0.5
825 0.5
-825 0.5
826 0.5
-826 0.5
827 0.5
-827 0.5
828 0.5
-828 0.5
829 0.5
-829 0.5
830 0.5
-830 0.5
831 0.5
-831 0.5
832 0.5
-832 0.5
833 0.5
-833 0.5
834 0.5
-834 0.5
835 0.5
-835 0.5
836 0.5
-836 0.5
837 0.5
-837 0.5
838 0.5
-838 0.5
839 0.5
-839 0.5
840 0.5
-840 0.5
841 0.5
-841 0.5
842 0.5
-842 0.5
843 0.5
-843 0.5
844 0.5
-844 0.5
845 0.5
-845 0.5
846 0.5
-846 0.5
847 0.5
-847 0.5
848 0.5
-848 0.5
849 0.5
-849 0.5
850 0.5
-850 0.5
851 0.5
-851 0.5
852 0.5
-852 0.5
853 0.5
-853 0.5
854 0.436017
-854 0.563983
855 0.990181
-855 0.009819
856 0.300765
-856 0.699235
857 0.844107
-857 0.155893
858 0.906569
-858 0.093431
859 0.350694
-859 0.649306
860 0.627912
-860 0.372088
861 0.367285
-861 0.632715
862 0.944769
-862 0.055231
863 0.548885
-863 0.451115
864 0.492743
-864 0.507257
865 0.825488
-865 0.174512
866 0.5
-866 0.5
867 0.5
-867 0.5
868 0.5
-868 0.5
869 0.5
-869 0.5
870 0.549608
-870 0.450392
871 0.083263
-871 0.916737
872 0.5
-872 0.5
873 0.5
-873 0.5
874 0.5
-874 0.5
875 0.5
-875 0.5
876 0.662453
-876 0.337547
877 0.367194
-877 0.632806
878 0.787568
-878 0.212432
879 0.09847
-879 0.90153
880 0.5
-880 0.5
881 0.5
-881 0.5
882 0.5
-882 0.5
883 0.5
-883 0.5
884 0.5
-884 0.5
885 0.5
-885 0.5
886 0.5
-886 0.5
887 0.5
-887 0.5
888 0.737554
-888 0.262446
889 0.692232
-889 0.307768
890 0.610979
-890 0.389021
891 0.865792
-891 0.134208
892 0.5
-892 0.5
893 0.5
-893 0.5
894 0.5
-894 0.5
895 0.5
-895 0.5
896 0.5
-896 0.5
897 0.5
-897 0.5
898 0.5
-898 0.5
899 0.5
-899 0.5
900 0.734986
-900 0.265014
901 0.890246
-901 0.109754
902 0.282542
-902 0.717458
903 0.522554
-903 0.477446
904 0.639917
-904 0.360083
905 0.610887
-905 0.389113
906 0.931294
-906 0.068706
907 0.933979
-907 0.066021
908 0.5
-908 0.5
909 0.5
-909 0.5
910 0.5
-910 0.5
911 0.5
-911 0.5
912 0.5
-912 0.5
913 0.5
-913 0.5
914 0.5
-914 0.5
915 0.5
-915 0.5
916 0.5
-916 0.5
917 0.5
-917 0.5
918 0.5
-918 0.5
919 0.5
-919 0.5
920 0.5
-920 0.5
921 0.5
-921 0.5
922 0.5
-922 0.5
923 0.5
-923 0.5
924 0.5
-924 0.5
925 0.5
-925 0.5
926 0.5
-926 0.5
927 0.5
-927 0.5
928 0.5
-928 0.5
929 0.5
-929 0.5
930 0.5
-930 0.5
931 0.5
-931 0.5
932 0.5
-932 0.5
933 0.5
-933 0.5
934 0.5
-934 0.5
935 0.5
-935 0.5
936 0.5
-936 0.5
937 0.5
-937 0.5
938 0.5
-938 0.5
939 0.5
-939 0.5
940 0.5
-940 0.5
941 0.5
-941 0.5
942 0.5
-942 0.5
943 0.5
-943 0.5
944 0.5
-944 0.5
945 0.5
-945 0.5
946 0.5
-946 0.5
947 0.5
-947 0.5
948 0.5
-948 0.5
949 0.5
-949 0.5
950 0.5
-950 0.5
951 0.5
-951 0.5
952 0.5
-952 0.5
953 0.5
-953 0.5
954 0.5
-954 0.5
955 0.5
-955 0.5
956 0.5
-956 0.5
957 0.5
-957 0.5
958 0.5
-958 0.5
959 0.5
-959 0.5
960 0.5
-960 0.5
961 0.5
-961 0.5
962 0.5
-962 0.5
963 0.5
-963 0.5
964 0.5
-964 0.5
965 0.5
-965 0.5
966 0.5
-966 0.5
967 0.5
-967 0.5
968 0.5
-968 0.5
969 0.5
-969 0.5
970 0.5
-970 0.5
971 0.5
-971 0.5
972 0.5
-972 0.5
973 0.5
-973 0.5
974 0.5
-974 0.5
975 0.5
-975 0.5
976 0.5
-976 0.5
977 0.5
-977 0.5
978 0.5
-978 0.5
979 0.5
-979 0.5
980 0.5
-980 0.5
981 0.5
-981 0.5
982 0.44509
-982 0.55491
983 0.632314
-983 0.367686
984 0.667893
-984 0.332107
985 0.773403
-985 0.226597
986 0.820816
-986 0.179184
987 0.573995
-987 0.426005
988 0.194594
-988 0.805406
989 0.411286
-989 0.588714
990 0.989019
-990 0.010981
991 0.633861
-991 0.366139
992 0.725519
-992 0.274481
993 0.462375
-993 0.537625
994 0.209484
-994 0.790516
995 0.321572
-995 0.678428
996 0.34032
-996 0.65968
997 0.094581
-997 0.905419
998 0.5
-998 0.5
999 0.5
-999 0.5
1000 0.5
-1000 0.5
1001 0.5
-1001 0.5
1002 0.5
-1002 0.5
1003 0.5
-1003 0.5
1004 0.5
-1004 0.5
1005 0.5
-1005 0.5
1006 0.5
-1006 0.5
1007 0.5
-1007 0.5
1008 0.5
-1008 0.5
1009 0.5
-1009 0.5
1010 0.5
-1010 0.5
1011 0.5
-1011 0.5
1012 0.5
-1012 0.5
1013 0.5
-1013 0.5
1014 0.5
-1014 0.5
1015 0.5
-1015 0.5
1016 0.5
-1016 0.5
1017 0.5
-1017 0.5
1018 0.5
-1018 0.5
1019 0.5
-1019 0.5
1020 0.5
-1020 0.5
1021 0.5
-1021 0.5
1022 0.5
-1022 0.5
1023 0.5
-1023 0.5
1024 0.5
-1024 0.5
1025 0.5
-1025 0.5
1026 0.349472
-1026 0.650528
1027 0.311105
-1027 0.688895
1028 0.574663
-1028 0.425337
1029 0.831718
-1029 0.168282
1030 0.5
-1030 0.5
1031 0.5
-1031 0.5
1032 0.5
-1032 0.5
1033 0.5
-1033 0.5
1034 0.5
-1034 0.5
1035 0.5
-1035 0.5
1036 0.5
-1036 0.5
1037 0.5
-1037 0.5
1038 0.5
-1038 0.5
1039 0.5
-1039 0.5
1040 0.5
-1040 0.5
1041 0.5
-1041 0.5
1042 0.016469
-1042 0.983531
1043 0.439149
-1043 0.560851
1044 0.935631
-1044 0.064369
1045 0.140884
-1045 0.859116
1046 0.5
-1046 0.5
1047 0.5
-1047 0.5
1048 0.5
-1048 0.5
1049 0.5
-1049 0.5
1050 0.5
-1050 0.5
1051 0.5
-1051 0.5
1052 0.5
-1052 0.5
1053 0.5
-1053 0.5
1054 0.5
-1054 0.5
1055 0.5
-1055 0.5
1056 0.5
-1056 0.5
1057 0.5
-1057 0.5
1058 0.421113
-1058 0.578887
1059 0.10531
-1059 0.89469
1060 0.988986
-1060 0.011014
1061 0.75759
-1061 0.24241
1062 0.5
-1062 0.5
1063 0.5
-1063 0.5
1064 0.5
-1064 0.5
1065 0.5
-1065 0.5
1066 0.5
-1066 0.5
1067 0.5
-1067 0.5
1068 0.5
-1068 0.5
1069 0.5
-1069 0.5
1070 0.5
-1070 0.5
1071 0.5
-1071 0.5
1072 0.5
-1072 0.5
1073 0.5
-1073 0.5
1074 0.5
-1074 0.5
1075 0.5
-1075 0.5
1076 0.5
-1076 0.5
1077 0.5
-1077 0.5
1078 0.5
-1078 0.5
1079 0.5
-1079 0.5
1080 0.617205
-1080 0.382795
1081 0.215404
-1081 0.784596
1082 0.699309
-1082 0.300691
1083 0.403928
-1083 0.596072
1084 0.5
-1084 0.5
1085 0.5
-1085 0.5
1086 0.5
-1086 0.5
1087 0.5
-1087 0.5
1088 0.5
-1088 0.5
1089 0.5
-1089 0.5
1090 0.5
-1090 0.5
1091 0.5
-1091 0.5
1092 0.5
-1092 0.5
1093 0.5
-1093 0.5
1094 0.5
-1094 0.5
1095 0.5
-1095 0.5
1096 0.294053
-1096 0.705947
1097 0.241751
-1097 0.758249
1098 0.282172
-1098 0.717828
1099 0.110587
-1099 0.889413
1100 0.5
-1100 0.5
1101 0.5
-1101 0.5
1102 0.5
-1102 0.5
1103 0.5
-1103 0.5
1104 0.5
-1104 0.5
1105 0.5
-1105 0.5
1106 0.5
-1106 0.5
1107 0.5
-1107 0.5
1108 0.5
-1108 0.5
1109 0.5
-1109 0.5
1110 0.5
-1110 0.5
1111 0.5
-1111 0.5
1112 0.5
-1112 0.5
1113 0.5
-1113 0.5
1114 0.5
-1114 0.5
1115 0.5
-1115 0.5
1116 0.5
-1116 0.5
1117 0.5
-1117 0.5
1118 0.5
-1118 0.5
1119 0.5
-1119 0.5
1120 0.5
-1120 0.5
1121 0.5
-1121 0.5
1122 0.5
-1122 0.5
1123 0.5
-1123 0.5
1124 0.89797
-1124 0.10203
1125 0.563816
-1125 0.436184
1126 0.134748
-1126 0.865252
1127 0.623045
-1127 0.376955
1128 0.045363
-1128 0.954637
1129 0.563525
-1129 0.436475
1130 0.915516
-1130 0.084484
1131 0.359906
-1131 0.640094
1132 0.5
-1132 0.5
1133 0.5
-1133 0.5
1134 0.5
-1134 0.5
1135 0.5
-1135 0.5
1136 0.5
-1136 0.5
1137 0.5
-1137 0.5
1138 0.5
-1138 0.5
1139 0.5
-1139 0.5
1140 0.5
-1140 0.5
1141 0.5
-1141 0.5
1142 0.5
-1142 0.5
1143 0.5
-1143 0.5
1144 0.5
-1144 0.5
1145 0.5
-1145 0.5
1146 0.5
-1146 0.5
1147 0.5
-1147 0.5
1148 0.966904
-1148 0.033096
1149 0.162121
-1149 0.837879
1150 0.004589
-1150 0.995411
1151 0.589949
-1151 0.410051
1152 0.5
-1152 0.5
1153 0.5
-1153 0.5
1154 0.5
-1154 0.5
1155 0.5
-1155 0.5
1156 0.5
-1156 0.5
1157 0.5
-1157 0.5
1158 0.5
-1158 0.5
1159 0.5
-1159 0.5
1160 0.87242
-1160 0.12758
1161 0.049949
-1161 0.950051
1162 0.063305
-1162 0.936695
1163 0.0849
-1163 0.9151
1164 0.5
-1164 0.5
1165 0.5
-1165 0.5
1166 0.5
-1166 0.5
1167 0.5
-1167 0.5
1168 0.5
-1168 0.5
1169 0.5
-1169 0.5
1170 0.5
-1170 0.5
1171 0.5
-1171 0.5
1172 0.5
-1172 0.5
1173 0.5
-1173 0.5
1174 0.5
-1174 0.5
1175 0.5
-1175 0.5
1176 0.5
-1176 0.5
1177 0.5
-1177 0.5
1178 0.5
-1178 0.5
1179 0.5
-1179 0.5
1180 0.5
-1180 0.5
1181 0.5
-1181 0.5
1182 0.5
-1182 0.5
1183 0.5
-1183 0.5
1184 0.5
-1184 0.5
1185 0.5
-1185 0.5
1186 0.316023
-1186 0.683977
1187 0.103868
-1187 0.896132
1188 0.068985
-1188 0.931015
1189 0.825245
-1189 0.174755
1190 0.5
-1190 0.5
1191 0.5
-1191 0.5
1192 0.5
-1192 0.5
1193 0.5
-1193 0.5
1194 0.5
-1194 0.5
1195 0.5
-1195 0.5
1196 0.5
-1196 0.5
1197 0.5
-1197 0.5
1198 0.5
-1198 0.5
1199 0.5
-1199 0.5
1200 0.5
-1200 0.5
1201 0.5
-1201 0.5
1202 0.5
-1202 0.5
1203 0.5
-1203 0.5
1204 0.5
-1204 0.5
1205 0.5
-1205 0.5
1206 0.952393
-1206 0.047607
1207 0.049533
-1207 0.950467
1208 0.922204
-1208 0.077796
1209 0.218467
-1209 0.781533
1210 0.5
-1210 0.5
1211 0.5
-1211 0.5
1212 0.5
-1212 0.5
1213 0.5
-1213 0.5
1214 0.5
-1214 0.5
1215 0.5
-1215 0.5
1216 0.5
-1216 0.5
1217 0.5
-1217 0.5
1218 0.5
-1218 0.5
1219 0.5
-1219 0.5
1220 0.5
-1220 0.5
1221 0.5
-1221 0.5
1222 0.5
-1222 0.5
1223 0.5
-1223 0.5
1224 0.5
-1224 0.5
1225 0.5
-1225 0.5
1226 0.5
-1226 0.5
1227 0.5
-1227 0.5
1228 0.5
-1228 0.5
1229 0.5
-1229 0.5
1230 0.5
-1230 0.5
1231 0.5
-1231 0.5
1232 0.5
-1232 0.5
1233 0.5
-1233 0.5
1234 0.5
-1234 0.5
1235 0.5
-1235 0.5
1236 0.5
-1236 0.5
1237 0.5
-1237 0.5
1238 0.5
-1238 0.5
1239 0.5
-1239 0.5
1240 0.5
-1240 0.5
1241 0.5
-1241 0.5
1242 0.5
-1242 0.5
1243 0.5
-1243 0.5
1244 0.5
-1244 0.5
1245 0.5
-1245 0.5
1246 0.324724
-1246 0.675276
1247 0.133089
-1247 0.866911
1248 0.898555
-1248 0.101445
1249 0.070263
-1249 0.929737
1250 0.5
-1250 0.5
1251 0.5
-1251 0.5
1252 0.5
-1252 0.5
1253 0.5
-1253 0.5
1254 0.5
-1254 0.5
1255 0.5
-1255 0.5
1256 0.5
-1256 0.5
1257 0.5
-1257 0.5
1258 0.5
-1258 0.5
1259 0.5
-1259 0.5
1260 0.5
-1260 0.5
1261 0.5
-1261 0.5
1262 0.5
-1262 0.5
1263 0.5
-1263 0.5
1264 0.5
-1264 0.5
1265 0.5
-1265 0.5
1266 0.5
-1266 0.5
1267 0.5
-1267 0.5
1268 0.5
-1268 0.5
1269 0.5
-1269 0.5
1270 0.5
-1270 0.5
1271 0.5
-1271 0.5
1272 0.5
-1272 0.5
1273 0.5
-1273 0.5
1274 0.5
-1274 0.5
1275 0.5
-1275 0.5
1276 0.5
-1276 0.5
1277 0.5
-1277 0.5
1278 0.5
-1278 0.5
1279 0.5
-1279 0.5
1280 0.5
-1280 0.5
1281 0.5
-1281 0.5
1282 0.5
-1282 0.5
1283 0.5
-1283 0.5
1284 0.5
-1284 0.5
1285 0.5
-1285 0.5
1286 0.5
-1286 0.5
1287 0.5
-1287 0.5
1288 0.5
-1288 0.5
1289 0.5
-1289 0.5
1290 0.5
-1290 0.5
1291 0.5
-1291 0.5
1292 0.775723
-1292 0.224277
1293 0.02385
-1293 0.97615
1294 0.373884
-1294 0.626116
1295 0.543215
-1295 0.456785
1296 0.5
-1296 0.5
1297 0.5
-1297 0.5
1298 0.5
-1298 0.5
1299 0.5
-1299 0.5
1300 0.5
-1300 0.5
1301 0.5
-1301 0.5
1302 0.5
-1302 0.5
1303 0.5
-1303 0.5
1304 0.5
-1304 0.5
1305 0.5
-1305 0.5
1306 0.5
-1306 0.5
1307 0.5
-1307 0.5
1308 0.5
-1308 0.5
1309 0.5
-1309 0.5
1310 0.5
-1310 0.5
1311 0.5
-1311 0.5
1312 0.5
-1312 0.5
1313 0.5
-1313 0.5
1314 0.5
-1314 0.5
1315 0.5
-1315 0.5
1316 0.785252
-1316 0.214748
1317 0.30031
-1317 0.69969
1318 0.352886
-1318 0.647114
1319 0.328467
-1319 0.671533
1320 0.5
-1320 0.5
1321 0.5
-1321 0.5
1322 0.5
-1322 0.5
1323 0.5
-1323 0.5
1324 0.856301
-1324 0.143699
1325 0.289453
-1325 0.710547
1326 0.920659
-1326 0.079341
1327 0.081302
-1327 0.918697
1328 0.5
-1328 0.5
1329 0.5
-1329 0.5
1330 0.5
-1330 0.5
1331 0.5
-1331 0.5
1332 0.5
-1332 0.5
1333 0.5
-1333 0.5
1334 0.5
-1334 0.5
1335 0.5
-1335 0.5
1336 0.5
-1336 0.5
1337 0.5
-1337 0.5
1338 0.5
-1338 0.5
1339 0.5
-1339 0.5
1340 0.5
-1340 0.5
1341 0.5
-1341 0.5
1342 0.5
-1342 0.5
1343 0.5
-1343 0.5
1344 0.44297
-1344 0.55703
1345 0.389113
-1345 0.610887
1346 0.406381
-1346 0.593619
1347 0.242648
-1347 0.757352
1348 0.5
-1348 0.5
1349 0.5
-1349 0.5
1350 0.5
-1350 0.5
1351 0.5
-1351 0.5
1352 0.422335
-1352 0.577665
1353 0.777582
-1353 0.222418
1354 0.85324
-1354 0.14676
1355 0.430959
-1355 0.569041
1356 0.5
-1356 0.5
1357 0.5
-1357 0.5
1358 0.5
-1358 0.5
1359 0.5
-1359 0.5
1360 0.5
-1360 0.5
1361 0.5
-1361 0.5
1362 0.5
-1362 0.5
1363 0.5
-1363 0.5
1364 0.5
-1364 0.5
1365 0.5
-1365 0.5
1366 0.5
-1366 0.5
1367 0.5
-1367 0.5
1368 0.5
-1368 0.5
1369 0.5
-1369 0.5
1370 0.5
-1370 0.5
1371 0.5
-1371 0.5
1372 0.5
-1372 0.5
1373 0.5
-1373 0.5
1374 0.5
-1374 0.5
1375 0.5
-1375 0.5
1376 0.5
-1376 0.5
1377 0.5
-1377 0.5
1378 0.5
-1378 0.5
1379 0.5
-1379 0.5
1380 0.5
-1380 0.5
1381 0.5
-1381 0.5
1382 0.5
-1382 0.5
1383 0.5
-1383 0.5
1384 0.5
-1384 0.5
1385 0.5
-1385 0.5
1386 0.45357
-1386 0.54643
1387 0.336417
-1387 0.663583
1388 0.108699
-1388 0.891301
1389 0.380996
-1389 0.619004
1390 0.423984
-1390 0.576016
1391 0.159805
-1391 0.840195
1392 0.143806
-1392 0.856194
1393 0.182239
-1393 0.817761
1394 0.5
-1394 0.5
1395 0.5
-1395 0.5
1396 0.5
-1396 0.5
1397 0.5
-1397 0.5
1398 0.5
-1398 0.5
1399 0.5
-1399 0.5
1400 0.5
-1400 0.5
1401 0.5
-1401 0.5
1402 0.5
-1402 0.5
1403 0.5
-1403 0.5
1404 0.5
-1404 0.5
1405 0.5
-1405 0.5
1406 0.5
-1406 0.5
1407 0.5
-1407 0.5
1408 0.5
-1408 0.5
1409 0.5
-1409 0.5
1410 0.5
-1410 0.5
1411 0.5
-1411 0.5
1412 0.5
-1412 0.5
1413 0.5
-1413 0.5
1414 0.5
-1414 0.5
1415 0.5
-1415 0.5
1416 0.5
-1416 0.5
1417 0.5
-1417 0.5
1418 0.126724
-1418 0.873276
1419 0.056468
-1419 0.943532
1420 0.532252
-1420 0.467748
1421 0.231788
-1421 0.768212
1422 0.5
-1422 0.5
1423 0.5
-1423 0.5
1424 0.5
-1424 0.5
1425 0.5
-1425 0.5
1426 0.5
-1426 0.5
1427 0.5
-1427 0.5
1428 0.5
-1428 0.5
1429 0.5
-1429 0.5
1430 0.5
-1430 0.5
1431 0.5
-1431 0.5
1432 0.5
-1432 0.5
1433 0.5
-1433 0.5
1434 0.609726
-1434 0.390274
1435 0.205141
-1435 0.794859
1436 0.96217
-1436 0.03783
1437 0.824724
-1437 0.175276
1438 0.5
-1438 0.5
1439 0.5
-1439 0.5
1440 0.5
-1440 0.5
1441 0.5
-1441 0.5
1442 0.5
-1442 0.5
1443 0.5
-1443 0.5
1444 0.5
-1444 0.5
1445 0.5
-1445 0.5
1446 0.675391
-1446 0.324609
1447 0.375931
-1447 0.624069
1448 0.102871
-1448 0.897129
1449 0.152951
-1449 0.847049
1450 0.5
-1450 0.5
1451 0.5
-1451 0.5
1452 0.5
-1452 0.5
1453 0.5
-1453 0.5
1454 0.5
-1454 0.5
1455 0.5
-1455 0.5
1456 0.5
-1456 0.5
1457 0.5
-1457 0.5
1458 0.762773
-1458 0.237227
1459 0.391978
-1459 0.608022
1460 0.587497
-1460 0.412503
1461 0.047845
-1461 0.952155
1462 0.052155
-1462 0.947845
1463 0.771026
-1463 0.228974
1464 0.5
-1464 0.5
1465 0.5
-1465 0.5
1466 0.5
-1466 0.5
1467 0.5
-1467 0.5
1468 0.5
-1468 0.5
1469 0.5
-1469 0.5
1470 0.5
-1470 0.5
1471 0.5
-1471 0.5
1472 0.5
-1472 0.5
1473 0.5
-1473 0.5
1474 0.5
-1474 0.5
1475 0.5
-1475 0.5
1476 0.586608
-1476 0.413392
1477 0.396819
-1477 0.603181
1478 0.78239
-1478 0.21761
1479 0.595045
-1479 0.404955
1480 0.5
-1480 0.5
1481 0.5
-1481 0.5
1482 0.5
-1482 0.5
1483 0.5
-1483 0.5
1484 0.5
-1484 0.5
1485 0.5
-1485 0.5
1486 0.5
-1486 0.5
1487 0.5
-1487 0.5
1488 0.5
-1488 0.5
1489 0.5
-1489 0.5
1490 0.5
-1490 0.5
1491 0.5
-1491 0.5
1492 0.5
-1492 0.5
1493 0.5
-1493 0.5
1494 0.5
-1494 0.5
1495 0.5
-1495 0.5
1496 0.5
-1496 0.5
1497 0.5
-1497 0.5
1498 0.5
-1498 0.5
1499 0.5
-1499 0.5
1500 0.5
-1500 0.5
1501 0.5
-1501 0.5
1502 0.5
-1502 0.5
1503 0.5
-1503 0.5
1504 0.221233
-1504 0.778767
1505 0.229322
-1505 0.770678
1506 0.5682
-1506 0.4318
1507 0.621973
-1507 0.378027
1508 0.74206
-1508 0.25794
1509 0.982963
-1509 0.017037
1510 0.21324
-1510 0.78676
1511 0.963766
-1511 0.036234
1512 0.5
-1512 0.5
1513 0.5
-1513 0.5
1514 0.5
-1514 0.5
1515 0.5
-1515 0.5
1516 0.5
-1516 0.5
1517 0.5
-1517 0.5
1518 0.5
-1518 0.5
1519 0.5
-1519 0.5
1520 0.5
-1520 0.5
1521 0.5
-1521 0.5
1522 0.5
-1522 0.5
1523 0.5
-1523 0.5
1524 0.5
-1524 0.5
1525 0.5
-1525 0.5
1526 0.5
-1526 0.5
1527 0.5
-1527 0.5
1528 0.5
-1528 0.5
1529 0.5
-1529 0.5
1530 0.5
-1530 0.5
1531 0.5
-1531 0.5
1532 0.5
-1532 0.5
1533 0.5
-1533 0.5
1534 0.5
-1534 0.5
1535 0.5
-1535 0.5
1536 0.5
-1536 0.5
1537 0.5
-1537 0.5
1538 0.5
-1538 0.5
1539 0.5
-1539 0.5
1540 0.732384
-1540 0.267616
1541 0.093338
-1541 0.906662
1542 0.448509
-1542 0.551491
1543 0.913216
-1543 0.086784
1544 0.5
-1544 0.5
1545 0.5
-1545 0.5
1546 0.5
-1546 0.5
1547 0.5
-1547 0.5
1548 0.5
-1548 0.5
1549 0.5
-1549 0.5
1550 0.5
-1550 0.5
1551 0.5
-1551 0.5
1552 0.5
-1552 0.5
1553 0.5
-1553 0.5
1554 0.5
-1554 0.5
1555 0.5
-1555 0.5
1556 0.5
-1556 0.5
1557 0.5
-1557 0.5
1558 0.5
-1558 0.5
1559 0.5
-1559 0.5
1560 0.5
-1560 0.5
1561 0.5
-1561 0.5
1562 0.5
-1562 0.5
1563 0.5
-1563 0.5
1564 0.5
-1564 0.5
1565 0.5
-1565 0.5
1566 0.5
-1566 0.5
1567 0.5
-1567 0.5
1568 0.5
-1568 0.5
1569 0.5
-1569 0.5
1570 0.5
-1570 0.5
1571 0.5
-1571 0.5
1572 0.5
-1572 0.5
1573 0.5
-1573 0.5
1574 0.5
-1574 0.5
1575 0.5
-1575 0.5
1576 0.5
-1576 0.5
1577 0.5
-1577 0.5
1578 0.5
-1578 0.5
1579 0.5
-1579 0.5
1580 0.5
-1580 0.5
1581 0.5
-1581 0.5
1582 0.5
-1582 0.5
1583 0.5
-1583 0.5
1584 0.5
-1584 0.5
1585 0.5
-1585 0.5
1586 0.5
-1586 0.5
1587 0.5
-1587 0.5
1588 0.5
-1588 0.5
1589 0.5
-1589 0.5
1590 0.5
-1590 0.5
1591 0.5
-1591 0.5
1592 0.5
-1592 0.5
1593 0.5
-1593 0.5
1594 0.5
-1594 0.5
1595 0.5
-1595 0.5
1596 0.5
-1596 0.5
1597 0.5
-1597 0.5
1598 0.5
-1598 0.5
1599 0.5
-1599 0.5
1600 0.5
-1600 0.5
1601 0.5
-1601 0.5
1602 0.5
-1602 0.5
1603 0.5
-1603 0.5
1604 0.5
-1604 0.5
1605 0.5
-1605 0.5
1606 0.5
-1606 0.5
1607 0.5
-1607 0.5
1608 0.5
-1608 0.5
1609 0.5
-1609 0.5
1610 0.873858
-1610 0.126142
1611 0.132463
-1611 0.867537
1612 0.976134
-1612 0.023866
1613 0.315324
-1613 0.684676
1614 0.5
-1614 0.5
1615 0.5
-1615 0.5
1616 0.5
-1616 0.5
1617 0.5
-1617 0.5
1618 0.5
-1618 0.5
1619 0.5
-1619 0.5
1620 0.5
-1620 0.5
1621 0.5
-1621 0.5
1622 0.065331
-1622 0.934669
1623 0.908451
-1623 0.091549
1624 0.336696
-1624 0.663304
1625 0.072245
-1625 0.927755
1626 0.5
-1626 0.5
1627 0.5
-1627 0.5
1628 0.5
-1628 0.5
1629 0.5
-1629 0.5
1630 0.834667
-1630 0.165333
1631 0.823831
-1631 0.176169
1632 0.145123
-1632 0.854877
1633 0.030172
-1633 0.969828
1634 0.5
-1634 0.5
1635 0.5
-1635 0.5
1636 0.5
-1636 0.5
1637 0.5
-1637 0.5
1638 0.284957
-1638 0.715043
1639 0.832598
-1639 0.167402
1640 0.81273
-1640 0.18727
1641 0.010855
-1641 0.989145
1642 0.5
-1642 0.5
1643 0.5
-1643 0.5
1644 0.5
-1644 0.5
1645 0.5
-1645 0.5
1646 0.5
-1646 0.5
1647 0.5
-1647 0.5
1648 0.5
-1648 0.5
1649 0.5
-1649 0.5
1650 0.5
-1650 0.5
1651 0.5
-1651 0.5
1652 0.5
-1652 0.5
1653 0.5
-1653 0.5
1654 0.5
-1654 0.5
1655 0.5
-1655 0.5
1656 0.63018
-1656 0.36982
1657 0.69795
-1657 0.30205
1658 0.937357
-1658 0.062643
1659 0.650311
-1659 0.349689
1660 0.5
-1660 0.5
1661 0.5
-1661 0.5
1662 0.5
-1662 0.5
1663 0.5
-1663 0.5
1664 0.653932
-1664 0.346068
1665 0.845958
-1665 0.154042
1666 0.942388
-1666 0.057612
1667 0.875957
-1667 0.124043
1668 0.5
-1668 0.5
1669 0.5
-1669 0.5
1670 0.5
-1670 0.5
1671 0.5
-1671 0.5
1672 0.5
-1672 0.5
1673 0.5
-1673 0.5
1674 0.5
-1674 0.5
1675 0.5
-1675 0.5
1676 0.5
-1676 0.5
1677 0.5
-1677 0.5
1678 0.5
-1678 0.5
1679 0.5
-1679 0.5
1680 0.853532
-1680 0.146468
1681 0.717954
-1681 0.282046
1682 0.484507
-1682 0.515493
1683 0.790889
-1683 0.209111
1684 0.5
-1684 0.5
1685 0.5
-1685 0.5
1686 0.5
-1686 0.5
1687 0.5
-1687 0.5
1688 0.5
-1688 0.5
1689 0.5
-1689 0.5
1690 0.5
-1690 0.5
1691 0.5
-1691 0.5
1692 0.5
-1692 0.5
1693 0.5
-1693 0.5
1694 0.5
-1694 0.5
1695 0.5
-1695 0.5
1696 0.5
-1696 0.5
1697 0.5
-1697 0.5
1698 0.5
-1698 0.5
1699 0.5
-1699 0.5
1700 0.79851
-1700 0.20149
1701 0.547896
-1701 0.452104
1702 0.059477
-1702 0.940523
1703 0.886283
-1703 0.113717
1704 0.5
-1704 0.5
1705 0.5
-1705 0.5
1706 0.5
-1706 0.5
1707 0.5
-1707 0.5
1708 0.905447
-1708 0.094553
1709 0.709741
-1709 0.290259
1710 0.987342
-1710 0.012658
1711 0.813266
-1711 0.186734
1712 0.5
-1712 0.5
1713 0.5
-1713 0.5
1714 0.5
-1714 0.5
1715 0.5
-1715 0.5
1716 0.254366
-1716 0.745634
1717 0.812417
-1717 0.187583
1718 0.770055
-1718 0.229945
1719 0.658216
-1719 0.341784
1720 0.5
-1720 0.5
1721 0.5
-1721 0.5
1722 0.5
-1722 0.5
1723 0.5
-1723 0.5
1724 0.5
-1724 0.5
1725 0.5
-1725 0.5
1726 0.5
-1726 0.5
1727 0.5
-1727 0.5
1728 0.113129
-1728 0.886871
1729 0.904859
-1729 0.095141
1730 0.440822
-1730 0.559178
1731 0.932089
-1731 0.067911
1732 0.5
-1732 0.5
1733 0.5
-1733 0.5
1734 0.5
-1734 0.5
1735 0.5
-1735 0.5
1736 0.5
-1736 0.5
1737 0.5
-1737 0.5
1738 0.5
-1738 0.5
1739 0.5
-1739 0.5
1740 0.955514
-1740 0.044486
1741 0.969274
-1741 0.030726
1742 0.608601
-1742 0.391399
1743 0.613729
-1743 0.386271
1744 0.564599
-1744 0.435401
1745 0.415392
-1745 0.584608
1746 0.932433
-1746 0.067567
1747 0.71639
-1747 0.28361
1748 0.5
-1748 0.5
1749 0.5
-1749 0.5
1750 0.5
-1750 0.5
1751 0.5
-1751 0.5
1752 0.5
-1752 0.5
1753 0.5
-1753 0.5
1754 0.944098
-1754 0.055902
1755 0.470064
-1755 0.529936
1756 0.370271
-1756 0.629729
1757 0.357421
-1757 0.642579
1758 0.5
-1758 0.5
1759 0.5
-1759 0.5
1760 0.5
-1760 0.5
1761 0.5
-1761 0.5
1762 0.5
-1762 0.5
1763 0.5
-1763 0.5
1764 0.5
-1764 0.5
1765 0.5
-1765 0.5
1766 0.5
-1766 0.5
1767 0.5
-1767 0.5
1768 0.5
-1768 0.5
1769 0.5
-1769 0.5
1770 0.44186
-1770 0.55814
1771 0.149258
-1771 0.850742
1772 0.712357
-1772 0.287643
1773 0.088031
-1773 0.911968
1774 0.5
-1774 0.5
1775 0.5
-1775 0.5
1776 0.5
-1776 0.5
1777 0.5
-1777 0.5
1778 0.5
-1778 0.5
1779 0.5
-1779 0.5
1780 0.5
-1780 0.5
1781 0.5
-1781 0.5
1782 0.5
-1782 0.5
1783 0.5
-1783 0.5
1784 0.5
-1784 0.5
1785 0.5
-1785 0.5
1786 0.5
-1786 0.5
1787 0.5
-1787 0.5
1788 0.5
-1788 0.5
1789 0.5
-1789 0.5
1790 0.5
-1790 0.5
1791 0.5
-1791 0.5
1792 0.5
-1792 0.5
1793 0.5
-1793 0.5
1794 0.5
-1794 0.5
1795 0.5
-1795 0.5
1796 0.5
-1796 0.5
1797 0.5
-1797 0.5
1798 0.882465
-1798 0.117535
1799 0.112645
-1799 0.887355
1800 0.386549
-1800 0.613451
1801 0.753182
-1801 0.246818
1802 0.437401
-1802 0.562599
1803 0.385413
-1803 0.614587
1804 0.821391
-1804 0.178609
1805 0.958317
-1805 0.041683
1806 0.5
-1806 0.5
1807 0.5
-1807 0.5
1808 0.5
-1808 0.5
1809 0.5
-1809 0.5
1810 0.5
-1810 0.5
1811 0.5
-1811 0.5
1812 0.5
-1812 0.5
1813 0.5
-1813 0.5
1814 0.5
-1814 0.5
1815 0.5
-1815 0.5
1816 0.5
-1816 0.5
1817 0.5
-1817 0.5
1818 0.5
-1818 0.5
1819 0.5
-1819 0.5
1820 0.5
-1820 0.5
1821 0.5
-1821 0.5
1822 0.237604
-1822 0.762396
1823 0.831545
-1823 0.168455
1824 0.138053
-1824 0.861947
1825 0.990786
-1825 0.009214
1826 0.575454
-1826 0.424546
1827 0.376199
-1827 0.623801
1828 0.647905
-1828 0.352095
1829 0.533771
-1829 0.466229
1830 0.653139
-1830 0.346861
1831 0.320603
-1831 0.679397
1832 0.843297
-1832 0.156703
1833 0.600302
-1833 0.399698
1834 0.369829
-1834 0.630171
1835 0.58186
-1835 0.41814
1836 0.239238
-1836 0.760762
1837 0.800932
-1837 0.199068
1838 0.178029
-1838 0.821971
1839 0.549346
-1839 0.450654
1840 0.614733
-1840 0.385267
1841 0.142092
-1841 0.857908
1842 0.5
-1842 0.5
1843 0.5
-1843 0.5
1844 0.5
-1844 0.5
1845 0.5
-1845 0.5
1846 0.270876
-1846 0.729124
1847 0.694215
-1847 0.305785
1848 0.677841
-1848 0.322159
1849 0.408929
-1849 0.591071
1850 0.5
-1850 0.5
1851 0.5
-1851 0.5
1852 0.0612
-1852 0.9388
1853 0.15226
-1853 0.84774
1854 0.518153
-1854 0.481847
1855 0.825314
-1855 0.174686
1856 0.838757
-1856 0.161243
1857 0.668611
-1857 0.331389
1858 0.405701
-1858 0.594299
1859 0.733109
-1859 0.266891
1860 0.5
-1860 0.5
1861 0.5
-1861 0.5
1862 0.5
-1862 0.5
1863 0.5
-1863 0.5
1864 0.5
-1864 0.5
1865 0.5
-1865 0.5
1866 0.5
-1866 0.5
1867 0.5
-1867 0.5
1868 0.5
-1868 0.5
1869 0.5
-1869 0.5
1870 0.5
-1870 0.5
1871 0.5
-1871 0.5
1872 0.70173
-1872 0.29827
1873 0.943999
-1873 0.056001
1874 0.229433
-1874 0.770567
1875 0.386732
-1875 0.613268
1876 0.5
-1876 0.5
1877 0.5
-1877 0.5
1878 0.5
-1878 0.5
1879 0.5
-1879 0.5
1880 0.5
-1880 0.5
1881 0.5
-1881 0.5
1882 0.5
-1882 0.5
1883 0.5
-1883 0.5
1884 0.799275
-1884 0.200725
1885 0.276181
-1885 0.723819
1886 0.819669
-1886 0.180331
1887 0.633974
-1887 0.366026
1888 0.5
-1888 0.5
1889 0.5
-1889 0.5
1890 0.5
-1890 0.5
1891 0.5
-1891 0.5
1892 0.5
-1892 0.5
1893 0.5
-1893 0.5
1894 0.5
-1894 0.5
1895 0.5
-1895 0.5
1896 0.5
-1896 0.5
1897 0.5
-1897 0.5
1898 0.5
-1898 0.5
1899 0.5
-1899 0.5
1900 0.5
-1900 0.5
1901 0.5
-1901 0.5
1902 0.5
-1902 0.5
1903 0.5
-1903 0.5
1904 0.354718
-1904 0.645282
1905 0.393322
-1905 0.606678
1906 0.615742
-1906 0.384258
1907 0.658552
-1907 0.341448
1908 0.5
-1908 0.5
1909 0.5
-1909 0.5
1910 0.5
-1910 0.5
1911 0.5
-1911 0.5
1912 0.5
-1912 0.5
1913 0.5
-1913 0.5
1914 0.5
-1914 0.5
1915 0.5
-1915 0.5
1916 0.219204
-1916 0.780796
1917 0.428589
-1917 0.571411
1918 0.408533
-1918 0.591467
1919 0.624251
-1919 0.375749
1920 0.5
-1920 0.5
1921 0.5
-1921 0.5
1922 0.5
-1922 0.5
1923 0.5
-1923 0.5
1924 0.927599
-1924 0.072401
1925 0.660594
-1925 0.339406
1926 0.16871
-1926 0.83129
1927 0.711592
-1927 0.288408
1928 0.5
-1928 0.5
1929 0.5
-1929 0.5
1930 0.5
-1930 0.5
1931 0.5
-1931 0.5
1932 0.5
-1932 0.5
1933 0.5
-1933 0.5
1934 0.5
-1934 0.5
1935 0.5
-1935 0.5
1936 0.5
-1936 0.5
1937 0.5
-1937 0.5
1938 0.5
-1938 0.5
1939 0.5
-1939 0.5
1940 0.5
-1940 0.5
1941 0.5
-1941 0.5
1942 0.5
-1942 0.5
1943 0.5
-1943 0.5
1944 0.5
-1944 0.5
1945 0.5
-1945 0.5
1946 0.5
-1946 0.5
1947 0.5
-1947 0.5
1948 0.5
-1948 0.5
1949 0.5
-1949 0.5
1950 0.5
-1950 0.5
1951 0.5
-1951 0.5
1952 0.5
-1952 0.5
1953 0.5
-1953 0.5
1954 0.5
-1954 0.5
1955 0.5
-1955 0.5
1956 0.5
-1956 0.5
1957 0.5
-1957 0.5
1958 0.5
-1958 0.5
1959 0.5
-1959 0.5
1960 0.5
-1960 0.5
1961 0.5
-1961 0.5
1962 0.5
-1962 0.5
1963 0.5
-1963 0.5
1964 0.5
-1964 0.5
1965 0.5
-1965 0.5
1966 0.971176
-1966 0.028824
1967 0.932922
-1967 0.067078
1968 0.535265
-1968 0.464735
1969 0.083392
-1969 0.916608
1970 0.991075
-1970 0.008925
1971 0.677982
-1971 0.322018
1972 0.539524
-1972 0.460476
1973 0.374485
-1973 0.625515
1974 0.396884
-1974 0.603116
1975 0.469487
-1975 0.530513
1976 0.300409
-1976 0.699591
1977 0.226982
-1977 0.773018
1978 0.5
-1978 0.5
1979 0.5
-1979 0.5
1980 0.5
-1980 0.5
1981 0.5
-1981 0.5
1982 0.5
-1982 0.5
1983 0.5
-1983 0.5
1984 0.5
-1984 0.5
1985 0.5
-1985 0.5
1986 0.5
-1986 0.5
1987 0.5
-1987 0.5
1988 0.5
-1988 0.5
1989 0.5
-1989 0.5
1990 0.5
-1990 0.5
1991 0.5
-1991 0.5
1992 0.5
-1992 0.5
1993 0.5
-1993 0.5
1994 0.069322
-1994 0.930678
1995 0.939977
-1995 0.060023
1996 0.545254
-1996 0.454746
1997 0.608846
-1997 0.391154
1998 0.5
-1998 0.5
1999 0.5
-1999 0.5
2000 0.5
-2000 0.5
2001 0.5
-2001 0.5
2002 0.5
-2002 0.5
2003 0.5
-2003 0.5
2004 0.5
-2004 0.5
2005 0.5
-2005 0.5
2006 0.945908
-2006 0.054092
2007 0.994467
-2007 0.005533
2008 0.625094
-2008 0.374906
2009 0.48811
-2009 0.51189
2010 0.5
-2010 0.5
2011 0.5
-2011 0.5
2012 0.5
-2012 0.5
2013 0.5
-2013 0.5
2014 0.5
-2014 0.5
2015 0.5
-2015 0.5
2016 0.5
-2016 0.5
2017 0.5
-2017 0.5
2018 0.5
-2018 0.5
2019 0.5
-2019 0.5
2020 0.5
-2020 0.5
2021 0.5
-2021 0.5
2022 0.5
-2022 0.5
2023 0.5
-2023 0.5
2024 0.5
-2024 0.5
2025 0.5
-2025 0.5
2026 0.341712
-2026 0.658288
2027 0.945826
-2027 0.054174
2028 0.907989
-2028 0.092011
2029 0.219984
-2029 0.780016
2030 0.784511
-2030 0.215489
2031 0.165891
-2031 0.834109
2032 0.872015
-2032 0.127985
2033 0.409604
-2033 0.590396
2034 0.5
-2034 0.5
2035 0.5
-2035 0.5
2036 0.5
-2036 0.5
2037 0.5
-2037 0.5
2038 0.5
-2038 0.5
2039 0.5
-2039 0.5
2040 0.5
-2040 0.5
2041 0.5
-2041 0.5
2042 0.5
-2042 0.5
2043 0.5
-2043 0.5
2044 0.5
-2044 0.5
2045 0.5
-2045 0.5
2046 0.646468
-2046 0.353532
2047 0.427576
-2047 0.572424
2048 0.5
-2048 0.5
2049 0.5
-2049 0.5
2050 0.5
-2050 0.5
2051 0.5
-2051 0.5
2052 0.026488
-2052 0.973512
2053 0.317164
-2053 0.682836
2054 0.782027
-2054 0.217973
2055 0.810998
-2055 0.189002
2056 0.5
-2056 0.5
2057 0.5
-2057 0.5
2058 0.5
-2058 0.5
2059 0.5
-2059 0.5
2060 0.5
-2060 0.5
2061 0.5
-2061 0.5
2062 0.5
-2062 0.5
2063 0.5
-2063 0.5
2064 0.5
-2064 0.5
2065 0.5
-2065 0.5
2066 0.5
-2066 0.5
2067 0.5
-2067 0.5
2068 0.5
-2068 0.5
2069 0.5
-2069 0.5
2070 0.5
-2070 0.5
2071 0.5
-2071 0.5
2072 0.5
-2072 0.5
2073 0.5
-2073 0.5
2074 0.5
-2074 0.5
2075 0.5
-2075 0.5
2076 0.5
-2076 0.5
2077 0.5
-2077 0.5
2078 0.5
-2078 0.5
2079 0.5
-2079 0.5
2080 0.081912
-2080 0.918088
2081 0.923144
-2081 0.076856
2082 0.069876
-2082 0.930124
2083 0.218968
-2083 0.781032
2084 0.5
-2084 0.5
2085 0.5
-2085 0.5
2086 0.5
-2086 0.5
2087 0.5
-2087 0.5
2088 0.152815
-2088 0.847185
2089 0.486481
-2089 0.513519
2090 0.07
-2090 0.93
2091 0.668733
-2091 0.331267
2092 0.5
-2092 0.5
2093 0.5
-2093 0.5
2094 0.5
-2094 0.5
2095 0.5
-2095 0.5
2096 0.5
-2096 0.5
2097 0.5
-2097 0.5
2098 0.5
-2098 0.5
2099 0.5
-2099 0.5
2100 0.5
-2100 0.5
2101 0.5
-2101 0.5
2102 0.5
-2102 0.5
2103 0.5
-2103 0.5
2104 0.428599
-2104 0.571401
2105 0.750954
-2105 0.249046
2106 0.825734
-2106 0.174266
2107 0.647568
-2107 0.352432
2108 0.19736
-2108 0.80264
2109 0.347357
-2109 0.652643
2110 0.464034
-2110 0.535966
2111 0.082036
-2111 0.917964
2112 0.5
-2112 0.5
2113 0.5
-2113 0.5
2114 0.5
-2114 0.5
2115 0.5
-2115 0.5
2116 0.093001
-2116 0.906999
2117 0.217229
-2117 0.782771
2118 0.768681
-2118 0.231319
2119 0.056236
-2119 0.943764
2120 0.5
-2120 0.5
2121 0.5
-2121 0.5
2122 0.5
-2122 0.5
2123 0.5
-2123 0.5
2124 0.712817
-2124 0.287183
2125 0.888059
-2125 0.111941
2126 0.687656
-2126 0.312344
2127 0.059504
-2127 0.940496
2128 0.5
-2128 0.5
2129 0.5
-2129 0.5
2130 0.5
-2130 0.5
2131 0.5
-2131 0.5
2132 0.5
-2132 0.5
2133 0.5
-2133 0.5
2134 0.5
-2134 0.5
2135 0.5
-2135 0.5
2136 0.5
-2136 0.5
2137 0.5
-2137 0.5
2138 0.5
-2138 0.5
2139 0.5
-2139 0.5
2140 0.5
-2140 0.5
2141 0.5
-2141 0.5
2142 0.5
-2142 0.5
2143 0.5
-2143 0.5
2144 0.130264
-2144 0.869736
2145 0.713479
-2145 0.286521
2146 0.095252
-2146 0.904748
2147 0.042831
-2147 0.957169
2148 0.560976
-2148 0.439024
2149 0.808069
-2149 0.191931
2150 0.248632
-2150 0.751368
2151 0.867573
-2151 0.132427
2152 0.646758
-2152 0.353242
2153 0.692147
-2153 0.307853
2154 0.5
-2154 0.5
2155 0.5
-2155 0.5
2156 0.5
-2156 0.5
2157 0.5
-2157 0.5
2158 0.5
-2158 0.5
2159 0.5
-2159 0.5
2160 0.5
-2160 0.5
2161 0.5
-2161 0.5
2162 0.5
-2162 0.5
2163 0.5
-2163 0.5
2164 0.5
-2164 0.5
2165 0.5
-2165 0.5
2166 0.5
-2166 0.5
2167 0.5
-2167 0.5
2168 0.5
-2168 0.5
2169 0.5
-2169 0.5
2170 0.5
-2170 0.5
2171 0.5
-2171 0.5
2172 0.5
-2172 0.5
2173 0.5
-2173 0.5
2174 0.5
-2174 0.5
2175 0.5
-2175 0.5
2176 0.5
-2176 0.5
2177 0.5
-2177 0.5
2178 0.5
-2178 0.5
2179 0.5
-2179 0.5
2180 0.5
-2180 0.5
2181 0.5
-2181 0.5
2182 0.898631
-2182 0.101369
2183 0.97699
-2183 0.02301
2184 0.914254
-2184 0.085746
2185 0.875279
-2185 0.124721
2186 0.123091
-2186 0.876909
2187 0.635424
-2187 0.364576
2188 0.358109
-2188 0.641891
2189 0.746111
-2189 0.253889
2190 0.5
-2190 0.5
2191 0.5
-2191 0.5
2192 0.5
-2192 0.5
2193 0.5
-2193 0.5
2194 0.5
-2194 0.5
2195 0.5
-2195 0.5
2196 0.5
-2196 0.5
2197 0.5
-2197 0.5
2198 0.5
-2198 0.5
2199 0.5
-2199 0.5
2200 0.5
-2200 0.5
2201 0.5
-2201 0.5
2202 0.5
-2202 0.5
2203 0.5
-2203 0.5
2204 0.5
-2204 0.5
2205 0.5
-2205 0.5
2206 0.193993
-2206 0.806007
2207 0.217612
-2207 0.782388
2208 0.799664
-2208 0.200336
2209 0.108247
-2209 0.891753
2210 0.5
-2210 0.5
2211 0.5
-2211 0.5
2212 0.5
-2212 0.5
2213 0.5
-2213 0.5
2214 0.810963
-2214 0.189037
2215 0.684901
-2215 0.315099
2216 0.977992
-2216 0.022008
2217 0.796595
-2217 0.203405
2218 0.5
-2218 0.5
2219 0.5
-2219 0.5
2220 0.5
-2220 0.5
2221 0.5
-2221 0.5
2222 0.5
-2222 0.5
2223 0.5
-2223 0.5
2224 0.5
-2224 0.5
2225 0.5
-2225 0.5
2226 0.5
-2226 0.5
2227 0.5
-2227 0.5
2228 0.5
-2228 0.5
2229 0.5
-2229 0.5
2230 0.5
-2230 0.5
2231 0.5
-2231 0.5
2232 0.5
-2232 0.5
2233 0.5
-2233 0.5
2234 0.5
-2234 0.5
2235 0.5
-2235 0.5
2236 0.5
-2236 0.5
2237 0.5
-2237 0.5
2238 0.5
-2238 0.5
2239 0.5
-2239 0.5
2240 0.5
-2240 0.5
2241 0.5
-2241 0.5
2242 0.658148
-2242 0.341852
2243 0.607936
-2243 0.392064
2244 0.5
-2244 0.5
2245 0.5
-2245 0.5
2246 0.5
-2246 0.5
2247 0.5
-2247 0.5
2248 0.5
-2248 0.5
2249 0.5
-2249 0.5
2250 0.5
-2250 0.5
2251 0.5
-2251 0.5
2252 0.5
-2252 0.5
2253 0.5
-2253 0.5
2254 0.5
-2254 0.5
2255 0.5
-2255 0.5
2256 0.5
-2256 0.5
2257 0.5
-2257 0.5
2258 0.5
-2258 0.5
2259 0.5
-2259 0.5
2260 0.5
-2260 0.5
2261 0.5
-2261 0.5
2262 0.5
-2262 0.5
2263 0.5
-2263 0.5
2264 0.5
-2264 0.5
2265 0.5
-2265 0.5
2266 0.5
-2266 0.5
2267 0.5
-2267 0.5
2268 0.5
-2268 0.5
2269 0.5
-2269 0.5
2270 0.5
-2270 0.5
2271 0.5
-2271 0.5
2272 0.5
-2272 0.5
2273 0.5
-2273 0.5
2274 0.5
-2274 0.5
2275 0.5
-2275 0.5
2276 0.037258
-2276 0.962742
2277 0.138094
-2277 0.861906
2278 0.604156
-2278 0.395844
2279 0.935428
-2279 0.064572
2280 0.5
-2280 0.5
2281 0.5
-2281 0.5
2282 0.5
-2282 0.5
2283 0.5
-2283 0.5
2284 0.5
-2284 0.5
2285 0.5
-2285 0.5
2286 0.5
-2286 0.5
2287 0.5
-2287 0.5
2288 0.5
-2288 0.5
2289 0.5
-2289 0.5
2290 0.5
-2290 0.5
2291 0.5
-2291 0.5
2292 0.5
-2292 0.5
2293 0.5
-2293 0.5
2294 0.5
-2294 0.5
2295 0.5
-2295 0.5
2296 0.5
-2296 0.5
2297 0.5
-2297 0.5
2298 0.5
-2298 0.5
2299 0.5
-2299 0.5
2300 0.5
-2300 0.5
2301 0.5
-2301 0.5
2302 0.5
-2302 0.5
2303 0.5
-2303 0.5
2304 0.5
-2304 0.5
2305 0.5
-2305 0.5
2306 0.5
-2306 0.5
2307 0.5
-2307 0.5
2308 0.5
-2308 0.5
2309 0.5
-2309 0.5
2310 0.5
-2310 0.5
2311 0.5
-2311 0.5
2312 0.5
-2312 0.5
2313 0.5
-2313 0.5
2314 0.5
-2314 0.5
2315 0.5
-2315 0.5
2316 0.5
-2316 0.5
2317 0.5
-2317 0.5
2318 0.5
-2318 0.5
2319 0.5
-2319 0.5
2320 0.5
-2320 0.5
2321 0.5
-2321 0.5
2322 0.5
-2322 0.5
2323 0.5
-2323 0.5
2324 0.5
-2324 0.5
2325 0.5
-2325 0.5
2326 0.5
-2326 0.5
2327 0.5
-2327 0.5
2328 0.5
-2328 0.5
2329 0.5
-2329 0.5
2330 0.5
-2330 0.5
2331 0.5
-2331 0.5
2332 0.589932
-2332 0.410068
2333 0.989874
-2333 0.010126
2334 0.622963
-2334 0.377037
2335 0.073347
-2335 0.926653
2336 0.5
-2336 0.5
2337 0.5
-2337 0.5
2338 0.5
-2338 0.5
2339 0.5
-2339 0.5
2340 0.655104
-2340 0.344896
2341 0.879481
-2341 0.120519
2342 0.5
-2342 0.5
2343 0.5
-2343 0.5
2344 0.5
-2344 0.5
2345 0.5
-2345 0.5
2346 0.5
-2346 0.5
2347 0.5
-2347 0.5
2348 0.5
-2348 0.5
2349 0.5
-2349 0.5
2350 0.764926
-2350 0.235074
2351 0.076664
-2351 0.923336
2352 0.011644
-2352 0.988356
2353 0.337808
-2353 0.662192
2354 0.285501
-2354 0.714499
2355 0.702782
-2355 0.297218
2356 0.728943
-2356 0.271057
2357 0.875433
-2357 0.124567
2358 0.5
-2358 0.5
2359 0.5
-2359 0.5
2360 0.5
-2360 0.5
2361 0.5
-2361 0.5
2362 0.947864
-2362 0.052136
2363 0.719501
-2363 0.280499
2364 0.853045
-2364 0.146955
2365 0.602967
-2365 0.397033
2366 0.5
-2366 0.5
2367 0.5
-2367 0.5
2368 0.5
-2368 0.5
2369 0.5
-2369 0.5
2370 0.5
-2370 0.5
2371 0.5
-2371 0.5
2372 0.5
-2372 0.5
2373 0.5
-2373 0.5
2374 0.5
-2374 0.5
2375 0.5
-2375 0.5
2376 0.5
-2376 0.5
2377 0.5
-2377 0.5
2378 0.5
-2378 0.5
2379 0.5
-2379 0.5
2380 0.5
-2380 0.5
2381 0.5
-2381 0.5
2382 0.386453
-2382 0.613547
2383 0.501857
-2383 0.498143
2384 0.595848
-2384 0.404152
2385 0.255298
-2385 0.744702
2386 0.5
-2386 0.5
2387 0.5
-2387 0.5
2388 0.5
-2388 0.5
2389 0.5
-2389 0.5
2390 0.5
-2390 0.5
2391 0.5
-2391 0.5
2392 0.5
-2392 0.5
2393 0.5
-2393 0.5
2394 0.5
-2394 0.5
2395 0.5
-2395 0.5
2396 0.5
-2396 0.5
2397 0.5
-2397 0.5
2398 0.5
-2398 0.5
2399 0.5
-2399 0.5
2400 0.5
-2400 0.5
2401 0.5
-2401 0.5
2402 0.5
-2402 0.5
2403 0.5
-2403 0.5
2404 0.5
-2404 0.5
2405 0.5
-2405 0.5
2406 0.989374
-2406 0.010626
2407 0.958579
-2407 0.041421
2408 0.142832
-2408 0.857168
2409 0.439095
-2409 0.560905
2410 0.5
-2410 0.5
2411 0.5
-2411 0.5
2412 0.5
-2412 0.5
2413 0.5
-2413 0.5
2414 0.5
-2414 0.5
2415 0.5
-2415 0.5
2416 0.5
-2416 0.5
2417 0.5
-2417 0.5
2418 0.5
-2418 0.5
2419 0.5
-2419 0.5
2420 0.5
-2420 0.5
2421 0.5
-2421 0.5
2422 0.5
-2422 0.5
2423 0.5
-2423 0.5
2424 0.5
-2424 0.5
2425 0.5
-2425 0.5
2426 0.220823
-2426 0.779177
2427 0.475117
-2427 0.524883
2428 0.29617
-2428 0.70383
2429 0.708341
-2429 0.291659
2430 0.183704
-2430 0.816296
2431 0.697715
-2431 0.302285
2432 0.796426
-2432 0.203574
2433 0.326536
-2433 0.673464
2434 0.5
-2434 0.5
2435 0.5
-2435 0.5
2436 0.5
-2436 0.5
2437 0.5
-2437 0.5
2438 0.5
-2438 0.5
2439 0.5
-2439 0.5
2440 0.5
-2440 0.5
2441 0.5
-2441 0.5
2442 0.5
-2442 0.5
2443 0.5
-2443 0.5
2444 0.5
-2444 0.5
2445 0.5
-2445 0.5
2446 0.5
-2446 0.5
2447 0.5
-2447 0.5
2448 0.5
-2448 0.5
2449 0.5
-2449 0.5
2450 0.5
-2450 0.5
2451 0.5
-2451 0.5
2452 0.5
-2452 0.5
2453 0.5
-2453 0.5
2454 0.5
-2454 0.5
2455 0.5
-2455 0.5
2456 0.5
-2456 0.5
2457 0.5
-2457 0.5
2458 0.5
-2458 0.5
2459 0.5
-2459 0.5
2460 0.5
-2460 0.5
2461 0.5
-2461 0.5
2462 0.5
-2462 0.5
2463 0.5
-2463 0.5
2464 0.124185
-2464 0.875815
2465 0.434321
-2465 0.565679
2466 0.141435
-2466 0.858565
2467 0.722665
-2467 0.277335
2468 0.5
-2468 0.5
2469 0.5
-2469 0.5
2470 0.5
-2470 0.5
2471 0.5
-2471 0.5
2472 0.5
-2472 0.5
2473 0.5
-2473 0.5
2474 0.5
-2474 0.5
2475 0.5
-2475 0.5
2476 0.706898
-2476 0.293102
2477 0.296937
-2477 0.703063
2478 0.199359
-2478 0.800641
2479 0.022328
-2479 0.977672
2480 0.64741
-2480 0.35259
2481 0.035474
-2481 0.964526
2482 0.278975
-2482 0.721025
2483 0.421997
-2483 0.578003
2484 0.5
-2484 0.5
2485 0.5
-2485 0.5
2486 0.5
-2486 0.5
2487 0.5
-2487 0.5
2488 0.580941
-2488 0.419059
2489 0.789283
-2489 0.210717
2490 0.042034
-2490 0.957966
2491 0.303607
-2491 0.696393
2492 0.5
-2492 0.5
2493 0.5
-2493 0.5
2494 0.5
-2494 0.5
2495 0.5
-2495 0.5
2496 0.5
-2496 0.5
2497 0.5
-2497 0.5
2498 0.5
-2498 0.5
2499 0.5
-2499 0.5
2500 0.5
-2500 0.5
2501 0.5
-2501 0.5
2502 0.5
-2502 0.5
2503 0.5
-2503 0.5
2504 0.5
-2504 0.5
2505 0.5
-2505 0.5
2506 0.5
-2506 0.5
2507 0.5
-2507 0.5
2508 0.5
-2508 0.5
2509 0.5
-2509 0.5
2510 0.5
-2510 0.5
2511 0.5
-2511 0.5
2512 0.5
-2512 0.5
2513 0.5
-2513 0.5
2514 0.5
-2514 0.5
2515 0.5
-2515 0.5
2516 0.5
-2516 0.5
2517 0.5
-2517 0.5
2518 0.5
-2518 0.5
2519 0.5
-2519 0.5
2520 0.615966
-2520 0.384034
2521 0.985218
-2521 0.014782
2522 0.124088
-2522 0.875912
2523 0.145886
-2523 0.854114
2524 0.214046
-2524 0.785954
2525 0.382703
-2525 0.617297
2526 0.129685
-2526 0.870315
2527 0.503362
-2527 0.496638
2528 0.5
-2528 0.5
2529 0.5
-2529 0.5
2530 0.5
-2530 0.5
2531 0.5
-2531 0.5
2532 0.41652
-2532 0.58348
2533 0.757528
-2533 0.242472
2534 0.931831
-2534 0.068169
2535 0.860551
-2535 0.139449
2536 0.5
-2536 0.5
2537 0.5
-2537 0.5
2538 0.5
-2538 0.5
2539 0.5
-2539 0.5
2540 0.5
-2540 0.5
2541 0.5
-2541 0.5
2542 0.5
-2542 0.5
2543 0.5
-2543 0.5
2544 0.5
-2544 0.5
2545 0.5
-2545 0.5
2546 0.769503
-2546 0.230497
2547 0.466107
-2547 0.533893
2548 0.924931
-2548 0.075069
2549 0.678486
-2549 0.321514
2550 0.5
-2550 0.5
2551 0.5
-2551 0.5
2552 0.5
-2552 0.5
2553 0.5
-2553 0.5
2554 0.5
-2554 0.5
2555 0.5
-2555 0.5
2556 0.5
-2556 0.5
2557 0.5
-2557 0.5
2558 0.5
-2558 0.5
2559 0.5
-2559 0.5
2560 0.5
-2560 0.5
2561 0.5
-2561 0.5
2562 0.368205
-2562 0.631795
2563 0.285582
-2563 0.714418
2564 0.471131
-2564 0.528869
2565 0.96005
-2565 0.03995
2566 0.5
-2566 0.5
2567 0.5
-2567 0.5
2568 0.5
-2568 0.5
2569 0.5
-2569 0.5
2570 0.5
-2570 0.5
2571 0.5
-2571 0.5
2572 0.5
-2572 0.5
2573 0.5
-2573 0.5
2574 0.821203
-2574 0.178797
2575 0.437498
-2575 0.562502
2576 0.69243
-2576 0.30757
2577 0.004718
-2577 0.995282
2578 0.5
-2578 0.5
2579 0.5
-2579 0.5
2580 0.5
-2580 0.5
2581 0.5
-2581 0.5
2582 0.5
-2582 0.5
2583 0.5
-2583 0.5
2584 0.5
-2584 0.5
2585 0.5
-2585 0.5
2586 0.5
-2586 0.5
2587 0.5
-2587 0.5
2588 0.5
-2588 0.5
2589 0.5
-2589 0.5
2590 0.5
-2590 0.5
2591 0.5
-2591 0.5
2592 0.5
-2592 0.5
2593 0.5
-2593 0.5
2594 0.5
-2594 0.5
2595 0.5
-2595 0.5
2596 0.5
-2596 0.5
2597 0.5
-2597 0.5
2598 0.828459
-2598 0.171541
2599 0.036805
-2599 0.963195
2600 0.378167
-2600 0.621833
2601 0.520888
-2601 0.479112
2602 0.5
-2602 0.5
2603 0.5
-2603 0.5
2604 0.5
-2604 0.5
2605 0.5
-2605 0.5
2606 0.5
-2606 0.5
2607 0.5
-2607 0.5
2608 0.5
-2608 0.5
2609 0.5
-2609 0.5
2610 0.5
-2610 0.5
2611 0.5
-2611 0.5
2612 0.5
-2612 0.5
2613 0.5
-2613 0.5
2614 0.525223
-2614 0.474777
2615 0.262919
-2615 0.737081
2616 0.256946
-2616 0.743054
2617 0.924829
-2617 0.075171
2618 0.995374
-2618 0.004626
2619 0.99938
-2619 0.00062
2620 0.679598
-2620 0.320402
2621 0.939573
-2621 0.060427
2622 0.5
-2622 0.5
2623 0.5
-2623 0.5
2624 0.5
-2624 0.5
2625 0.5
-2625 0.5
2626 0.5
-2626 0.5
2627 0.5
-2627 0.5
2628 0.5
-2628 0.5
2629 0.5
-2629 0.5
2630 0.230737
-2630 0.769263
2631 0.683737
-2631 0.316263
2632 0.415142
-2632 0.584858
2633 0.764893
-2633 0.235107
2634 0.767052
-2634 0.232948
2635 0.930645
-2635 0.069355
2636 0.5
-2636 0.5
2637 0.5
-2637 0.5
2638 0.5
-2638 0.5
2639 0.5
-2639 0.5
2640 0.5
-2640 0.5
2641 0.5
-2641 0.5
2642 0.5
-2642 0.5
2643 0.5
-2643 0.5
2644 0.5
-2644 0.5
2645 0.5
-2645 0.5
2646 0.5
-2646 0.5
2647 0.5
-2647 0.5
2648 0.5
-2648 0.5
2649 0.5
-2649 0.5
2650 0.5
-2650 0.5
2651 0.5
-2651 0.5
2652 0.5
-2652 0.5
2653 0.5
-2653 0.5
2654 0.5
-2654 0.5
2655 0.5
-2655 0.5
2656 0.5
-2656 0.5
2657 0.5
-2657 0.5
2658 0.5
-2658 0.5
2659 0.5
-2659 0.5
2660 0.005219
-2660 0.994781
2661 0.416615
-2661 0.583385
2662 0.807943
-2662 0.192057
2663 0.073924
-2663 0.926076
2664 0.5
-2664 0.5
2665 0.5
-2665 0.5
2666 0.5
-2666 0.5
2667 0.5
-2667 0.5
2668 0.5
-2668 0.5
2669 0.5
-2669 0.5
2670 0.5
-2670 0.5
2671 0.5
-2671 0.5
2672 0.5
-2672 0.5
2673 0.5
-2673 0.5
2674 0.5
-2674 0.5
2675 0.5
-2675 0.5
2676 0.5
-2676 0.5
2677 0.5
-2677 0.5
2678 0.5
-2678 0.5
2679 0.5
-2679 0.5
2680 0.5
-2680 0.5
2681 0.5
-2681 0.5
2682 0.5
-2682 0.5
2683 0.5
-2683 0.5
2684 0.361777
-2684 0.638223
2685 0.190956
-2685 0.809044
2686 0.760325
-2686 0.239675
2687 0.435702
-2687 0.564298
2688 0.5
-2688 0.5
2689 0.5
-2689 0.5
2690 0.5
-2690 0.5
2691 0.5
-2691 0.5
2692 0.5
-2692 0.5
2693 0.5
-2693 0.5
2694 0.5
-2694 0.5
2695 0.5
-2695 0.5
2696 0.5
-2696 0.5
2697 0.5
-2697 0.5
2698 0.5
-2698 0.5
2699 0.5
-2699 0.5
2700 0.5
-2700 0.5
2701 0.5
-2701 0.5
2702 0.5
-2702 0.5
2703 0.5
-2703 0.5
2704 0.5
-2704 0.5
2705 0.5
-2705 0.5
2706 0.5
-2706 0.5
2707 0.5
-2707 0.5
2708 0.5
-2708 0.5
2709 0.5
-2709 0.5
2710 0.5
-2710 0.5
2711 0.5
-2711 0.5
2712 0.079546
-2712 0.920454
2713 0.500423
-2713 0.499577
2714 0.990577
-2714 0.009423
2715 0.154039
-2715 0.845961
2716 0.5
-2716 0.5
2717 0.5
-2717 0.5
2718 0.5
-2718 0.5
2719 0.5
-2719 0.5
2720 0.140286
-2720 0.859714
2721 0.5154
-2721 0.4846
2722 0.484258
-2722 0.515742
2723 0.014573
-2723 0.985427
2724 0.5
-2724 0.5
2725 0.5
-2725 0.5
2726 0.5
-2726 0.5
2727 0.5
-2727 0.5
2728 0.5
-2728 0.5
2729 0.5
-2729 0.5
2730 0.5
-2730 0.5
2731 0.5
-2731 0.5
2732 0.444914
-2732 0.555086
2733 0.832054
-2733 0.167946
2734 0.5
-2734 0.5
2735 0.5
-2735 0.5
2736 0.5
-2736 0.5
2737 0.5
-2737 0.5
2738 0.004732
-2738 0.995268
2739 0.913279
-2739 0.086721
2740 0.053923
-2740 0.946077
2741 0.714876
-2741 0.285124
2742 0.5
-2742 0.5
2743 0.5
-2743 0.5
2744 0.5
-2744 0.5
2745 0.5
-2745 0.5
2746 0.5
-2746 0.5
2747 0.5
-2747 0.5
2748 0.5
-2748 0.5
2749 0.5
-2749 0.5
2750 0.469919
-2750 0.530081
2751 0.888848
-2751 0.111152
2752 0.334876
-2752 0.665124
2753 0.204862
-2753 0.795138
2754 0.5
-2754 0.5
2755 0.5
-2755 0.5
2756 0.5
-2756 0.5
2757 0.5
-2757 0.5
2758 0.5
-2758 0.5
2759 0.5
-2759 0.5
2760 0.5
-2760 0.5
2761 0.5
-2761 0.5
2762 0.5
-2762 0.5
2763 0.5
-2763 0.5
2764 0.5
-2764 0.5
2765 0.5
-2765 0.5
2766 0.5
-2766 0.5
2767 0.5
-2767 0.5
2768 0.5
-2768 0.5
2769 0.5
-2769 0.5
2770 5.1e-05
-2770 0.999949
2771 0.425317
-2771 0.574683
2772 0.063398
-2772 0.936601
2773 0.799776
-2773 0.200224
2774 0.5
-2774 0.5
2775 0.5
-2775 0.5
2776 0.5
-2776 0.5
2777 0.5
-2777 0.5
2778 0.5
-2778 0.5
2779 0.5
-2779 0.5
2780 0.5
-2780 0.5
2781 0.5
-2781 0.5
2782 0.5
-2782 0.5
2783 0.5
-2783 0.5
2784 0.5
-2784 0.5
2785 0.5
-2785 0.5
2786 0.5
-2786 0.5
2787 0.5
-2787 0.5
2788 0.5
-2788 0.5
2789 0.5
-2789 0.5
2790 0.722748
-2790 0.277252
2791 0.480091
-2791 0.519909
2792 0.736802
-2792 0.263198
2793 0.130089
-2793 0.869911
2794 0.5
-2794 0.5
2795 0.5
-2795 0.5
2796 0.5
-2796 0.5
2797 0.5
-2797 0.5
2798 0.840374
-2798 0.159626
2799 0.150834
-2799 0.849166
2800 0.618541
-2800 0.381459
2801 0.487058
-2801 0.512942
2802 0.750564
-2802 0.249436
2803 0.439077
-2803 0.560923
2804 0.434666
-2804 0.565334
2805 0.120304
-2805 0.879696
2806 0.5
-2806 0.5
2807 0.5
-2807 0.5
2808 0.5
-2808 0.5
2809 0.5
-2809 0.5
2810 0.5
-2810 0.5
2811 0.5
-2811 0.5
2812 0.5
-2812 0.5
2813 0.5
-2813 0.5
2814 0.5
-2814 0.5
2815 0.5
-2815 0.5
2816 0.5
-2816 0.5
2817 0.5
-2817 0.5
2818 0.625857
-2818 0.374143
2819 0.331782
-2819 0.668218
2820 0.001786
-2820 0.998214
2821 0.154423
-2821 0.845577
2822 0.931702
-2822 0.068298
2823 0.994797
-2823 0.005203
2824 0.100132
-2824 0.899868
2825 0.550242
-2825 0.449758
2826 0.5
-2826 0.5
2827 0.5
-2827 0.5
2828 0.5
-2828 0.5
2829 0.5
-2829 0.5
2830 0.5
-2830 0.5
2831 0.5
-2831 0.5
2832 0.5
-2832 0.5
2833 0.5
-2833 0.5
2834 0.5
-2834 0.5
2835 0.5
-2835 0.5
2836 0.5
-2836 0.5
2837 0.5
-2837 0.5
2838 0.5
-2838 0.5
2839 0.5
-2839 0.5
2840 0.5
-2840 0.5
2841 0.5
-2841 0.5
2842 0.5
-2842 0.5
2843 0.5
-2843 0.5
2844 0.564587
-2844 0.435413
2845 0.728809
-2845 0.271191
2846 0.789017
-2846 0.210983
2847 0.496289
-2847 0.503711
2848 0.5
-2848 0.5
2849 0.5
-2849 0.5
2850 0.5
-2850 0.5
2851 0.5
-2851 0.5
2852 0.5
-2852 0.5
2853 0.5
-2853 0.5
2854 0.5
-2854 0.5
2855 0.5
-2855 0.5
2856 0.5
-2856 0.5
2857 0.5
-2857 0.5
2858 0.5
-2858 0.5
2859 0.5
-2859 0.5
2860 0.5
-2860 0.5
2861 0.5
-2861 0.5
2862 0.5
-2862 0.5
2863 0.5
-2863 0.5
2864 0.5
-2864 0.5
2865 0.5
-2865 0.5
2866 0.5
-2866 0.5
2867 0.5
-2867 0.5
2868 0.5
-2868 0.5
2869 0.5
-2869 0.5
2870 0.5
-2870 0.5
2871 0.5
-2871 0.5
2872 0.5
-2872 0.5
2873 0.5
-2873 0.5
2874 0.5
-2874 0.5
2875 0.5
-2875 0.5
2876 0.5
-2876 0.5
2877 0.5
-2877 0.5
2878 0.5
-2878 0.5
2879 0.5
-2879 0.5
2880 0.5
-2880 0.5
2881 0.5
-2881 0.5
2882 0.5
-2882 0.5
2883 0.5
-2883 0.5
2884 0.5
-2884 0.5
2885 0.5
-2885 0.5
2886 0.5
-2886 0.5
2887 0.5
-2887 0.5
2888 0.5
-2888 0.5
2889 0.5
-2889 0.5
2890 0.5
-2890 0.5
2891 0.5
-2891 0.5
2892 0.080985
-2892 0.919015
2893 0.055758
-2893 0.944242
2894 0.719048
-2894 0.280952
2895 0.196798
-2895 0.803202
2896 0.5
-2896 0.5
2897 0.5
-2897 0.5
2898 0.5
-2898 0.5
2899 0.5
-2899 0.5
2900 0.786443
-2900 0.213557
2901 0.48092
-2901 0.51908
2902 0.602071
-2902 0.397929
2903 0.536601
-2903 0.463399
2904 0.5
-2904 0.5
2905 0.5
-2905 0.5
2906 0.5
-2906 0.5
2907 0.5
-2907 0.5
2908 0.5
-2908 0.5
2909 0.5
-2909 0.5
2910 0.5
-2910 0.5
2911 0.5
-2911 0.5
2912 0.5
-2912 0.5
2913 0.5
-2913 0.5
2914 0.5
-2914 0.5
2915 0.5
-2915 0.5
2916 0.292339
-2916 0.707661
2917 0.14532
-2917 0.85468
2918 0.999709
-2918 0.000291
2919 0.011387
-2919 0.988613
2920 0.5
-2920 0.5
2921 0.5
-2921 0.5
2922 0.5
-2922 0.5
2923 0.5
-2923 0.5
2924 0.5
-2924 0.5
2925 0.5
-2925 0.5
2926 0.5
-2926 0.5
2927 0.5
-2927 0.5
2928 0.081807
-2928 0.918193
2929 0.190904
-2929 0.809096
2930 0.5
-2930 0.5
2931 0.5
-2931 0.5
2932 0.5
-2932 0.5
2933 0.5
-2933 0.5
2934 0.366456
-2934 0.633544
2935 0.01697
-2935 0.98303
2936 0.487105
-2936 0.512895
2937 0.742012
-2937 0.257988
2938 0.5
-2938 0.5
2939 0.5
-2939 0.5
2940 0.5
-2940 0.5
2941 0.5
-2941 0.5
2942 0.183672
-2942 0.816328
2943 0.08384
-2943 0.91616
2944 0.293784
-2944 0.706216
2945 0.463135
-2945 0.536865
2946 0.5
-2946 0.5
2947 0.5
-2947 0.5
2948 0.5
-2948 0.5
2949 0.5
-2949 0.5
2950 0.5
-2950 0.5
2951 0.5
-2951 0.5
2952 0.5
-2952 0.5
2953 0.5
-2953 0.5
2954 0.5
-2954 0.5
2955 0.5
-2955 0.5
2956 0.5
-2956 0.5
2957 0.5
-2957 0.5
2958 0.5
-2958 0.5
2959 0.5
-2959 0.5
2960 0.5
-2960 0.5
2961 0.5
-2961 0.5
2962 0.405951
-2962 0.594049
2963 0.090722
-2963 0.909277
2964 0.134356
-2964 0.865644
2965 0.478404
-2965 0.521596
2966 0.5
-2966 0.5
2967 0.5
-2967 0.5
2968 0.5
-2968 0.5
2969 0.5
-2969 0.5
2970 0.5
-2970 0.5
2971 0.5
-2971 0.5
2972 0.5
-2972 0.5
2973 0.5
-2973 0.5
2974 0.5
-2974 0.5
2975 0.5
-2975 0.5
2976 0.5
-2976 0.5
2977 0.5
-2977 0.5
2978 0.5
-2978 0.5
2979 0.5
-2979 0.5
2980 0.5
-2980 0.5
2981 0.5
-2981 0.5
2982 0.784195
-2982 0.215805
2983 0.913452
-2983 0.086548
2984 0.534036
-2984 0.465964
2985 0.410032
-2985 0.589968
2986 0.5
-2986 0.5
2987 0.5
-2987 0.5
2988 0.5
-2988 0.5
2989 0.5
-2989 0.5
2990 0.5
-2990 0.5
2991 0.5
-2991 0.5
2992 0.5
-2992 0.5
2993 0.5
-2993 0.5
2994 0.5
-2994 0.5
2995 0.5
-2995 0.5
2996 0.5
-2996 0.5
2997 0.5
-2997 0.5
2998 0.5
-2998 0.5
2999 0.5
-2999 0.5
3000 0.5
-3000 0.5
3001 0.5
-3001 0.5
3002 0.5
-3002 0.5
3003 0.5
-3003 0.5
3004 0.5
-3004 0.5
3005 0.5
-3005 0.5
3006 0.5
-3006 0.5
3007 0.5
-3007 0.5
3008 0.5
-3008 0.5
3009 0.5
-3009 0.5
3010 0.815293
-3010 0.184707
3011 0.267912
-3011 0.732088
3012 0.637625
-3012 0.362375
3013 0.103843
-3013 0.896157
3014 0.932012
-3014 0.067988
3015 0.434782
-3015 0.565218
3016 0.82351
-3016 0.17649
3017 0.788642
-3017 0.211358
3018 0.5
-3018 0.5
3019 0.5
-3019 0.5
3020 0.5
-3020 0.5
3021 0.5
-3021 0.5
3022 0.267456
-3022 0.732544
3023 0.496011
-3023 0.503989
3024 0.391675
-3024 0.608325
3025 0.405199
-3025 0.594801
