1 0.820226
-1 0.179774
2 1.0
-2 1.0
3 1.0
-3 1.0
4 1.0
-4 1.0
5 1.0
-5 1.0
6 1.0
-6 1.0
7 1.0
-7 1.0
8 1.0
-8 1.0
9 1.0
-9 1.0
10 1.0
-10 1.0
11 1.0
-11 1.0
12 1.0
-12 1.0
13 1.0
-13 1.0
14 1.0
-14 1.0
15 1.0
-15 1.0
16 1.0
-16 1.0
17 1.0
-17 1.0
18 1.0
-18 1.0
19 1.0
-19 1.0
20 1.0
-20 1.0
21 1.0
-21 1.0
22 1.0
-22 1.0
23 1.0
-23 1.0
24 1.0
-24 1.0
25 1.0
-25 1.0
26 1.0
-26 1.0
27 1.0
-27 1.0
28 1.0
-28 1.0
29 1.0
-29 1.0
30 1.0
-30 1.0
31 1.0
-31 1.0
32 1.0
-32 1.0
33 1.0
-33 1.0
34 1.0
-34 1.0
35 1.0
-35 1.0
36 1.0
-36 1.0
37 1.0
-37 1.0
38 1.0
-38 1.0
39 1.0
-39 1.0
40 1.0
-40 1.0
41 1.0
-41 1.0
42 1.0
-42 1.0
43 1.0
-43 1.0
44 1.0
-44 1.0
45 1.0
-45 1.0
46 1.0
-46 1.0
47 1.0
-47 1.0
48 1.0
-48 1.0
49 1.0
-49 1.0
50 1.0
-50 1.0
51 1.0
-51 1.0
52 1.0
-52 1.0
53 1.0
-53 1.0
54 1.0
-54 1.0
55 1.0
-55 1.0
56 1.0
-56 1.0
57 1.0
-57 1.0
58 1.0
-58 1.0
59 1.0
-59 1.0
60 1.0
-60 1.0
61 1.0
-61 1.0
62 1.0
-62 1.0
63 1.0
-63 1.0
64 1.0
-64 1.0
65 1.0
-65 1.0
66 1.0
-66 1.0
67 1.0
-67 1.0
68 1.0
-68 1.0
69 1.0
-69 1.0
70 1.0
-70 1.0
71 1.0
-71 1.0
72 1.0
-72 1.0
73 1.0
-73 1.0
74 1.0
-74 1.0
75 1.0
-75 1.0
76 1.0
-76 1.0
77 1.0
-77 1.0
78 1.0
-78 1.0
79 1.0
-79 1.0
80 1.0
-80 1.0
81 1.0
-81 1.0
82 1.0
-82 1.0
83 1.0
-83 1.0
84 1.0
-84 1.0
85 1.0
-85 1.0
86 1.0
-86 1.0
87 1.0
-87 1.0
88 1.0
-88 1.0
89 1.0
-89 1.0
90 1.0
-90 1.0
91 1.0
-91 1.0
92 1.0
-92 1.0
93 1.0
-93 1.0
94 1.0
-94 1.0
95 1.0
-95 1.0
96 1.0
-96 1.0
97 1.0
-97 1.0
98 1.0
-98 1.0
99 1.0
-99 1.0
100 1.0
-100 1.0
101 1.0
-101 1.0
102 1.0
-102 1.0
103 1.0
-103 1.0
104 1.0
-104 1.0
105 1.0
-105 1.0
106 1.0
-106 1.0
107 1.0
-107 1.0
108 1.0
-108 1.0
109 1.0
-109 1.0
110 1.0
-110 1.0
111 1.0
-111 1.0
112 1.0
-112 1.0
113 1.0
-113 1.0
114 1.0
-114 1.0
115 1.0
-115 1.0
116 1.0
-116 1.0
117 1.0
-117 1.0
118 1.0
-118 1.0
119 1.0
-119 1.0
120 1.0
-120 1.0
121 1.0
-121 1.0
122 1.0
-122 1.0
123 1.0
-123 1.0
124 1.0
-124 1.0
125 1.0
-125 1.0
126 1.0
-126 1.0
127 1.0
-127 1.0
128 1.0
-128 1.0
129 1.0
-129 1.0
130 1.0
-130 1.0
131 1.0
-131 1.0
132 1.0
-132 1.0
133 1.0
-133 1.0
134 1.0
-134 1.0
135 1.0
-135 1.0
136 1.0
-136 1.0
137 1.0
-137 1.0
138 1.0
-138 1.0
139 1.0
-139 1.0
140 1.0
-140 1.0
141 1.0
-141 1.0
142 1.0
-142 1.0
143 1.0
-143 1.0
144 1.0
-144 1.0
145 1.0
-145 1.0
146 1.0
-146 1.0
147 1.0
-147 1.0
148 1.0
-148 1.0
149 1.0
-149 1.0
150 1.0
-150 1.0
151 1.0
-151 1.0
152 1.0
-152 1.0
153 1.0
-153 1.0
154 1.0
-154 1.0
155 1.0
-155 1.0
156 1.0
-156 1.0
157 1.0
-157 1.0
158 1.0
-158 1.0
159 1.0
-159 1.0
160 1.0
-160 1.0
161 1.0
-161 1.0
162 1.0
-162 1.0
163 1.0
-163 1.0
164 1.0
-164 1.0
165 1.0
-165 1.0
166 1.0
-166 1.0
167 1.0
-167 1.0
168 1.0
-168 1.0
169 1.0
-169 1.0
170 1.0
-170 1.0
171 1.0
-171 1.0
172 1.0
-172 1.0
173 1.0
-173 1.0
174 1.0
-174 1.0
175 1.0
-175 1.0
176 1.0
-176 1.0
177 1.0
-177 1.0
178 1.0
-178 1.0
179 1.0
-179 1.0
180 1.0
-180 1.0
181 1.0
-181 1.0
182 1.0
-182 1.0
183 1.0
-183 1.0
184 1.0
-184 1.0
185 1.0
-185 1.0
186 1.0
-186 1.0
187 1.0
-187 1.0
188 1.0
-188 1.0
189 1.0
-189 1.0
190 1.0
-190 1.0
191 1.0
-191 1.0
192 1.0
-192 1.0
193 1.0
-193 1.0
194 1.0
-194 1.0
195 1.0
-195 1.0
196 1.0
-196 1.0
197 1.0
-197 1.0
198 1.0
-198 1.0
199 1.0
-199 1.0
200 1.0
-200 1.0
201 1.0
-201 1.0
202 1.0
-202 1.0
203 1.0
-203 1.0
204 1.0
-204 1.0
205 1.0
-205 1.0
206 1.0
-206 1.0
207 1.0
-207 1.0
208 1.0
-208 1.0
209 1.0
-209 1.0
210 1.0
-210 1.0
211 1.0
-211 1.0
212 1.0
-212 1.0
213 1.0
-213 1.0
214 1.0
-214 1.0
215 1.0
-215 1.0
216 1.0
-216 1.0
217 1.0
-217 1.0
218 1.0
-218 1.0
219 1.0
-219 1.0
220 1.0
-220 1.0
221 1.0
-221 1.0
222 1.0
-222 1.0
223 1.0
-223 1.0
224 1.0
-224 1.0
225 1.0
-225 1.0
226 1.0
-226 1.0
227 1.0
-227 1.0
228 1.0
-228 1.0
229 1.0
-229 1.0
230 1.0
-230 1.0
231 1.0
-231 1.0
232 1.0
-232 1.0
233 1.0
-233 1.0
234 1.0
-234 1.0
235 1.0
-235 1.0
236 1.0
-236 1.0
237 1.0
-237 1.0
238 1.0
-238 1.0
239 1.0
-239 1.0
240 1.0
-240 1.0
241 1.0
-241 1.0
242 1.0
-242 1.0
243 1.0
-243 1.0
244 1.0
-244 1.0
245 1.0
-245 1.0
246 1.0
-246 1.0
247 1.0
-247 1.0
248 1.0
-248 1.0
249 1.0
-249 1.0
250 1.0
-250 1.0
251 1.0
-251 1.0
252 1.0
-252 1.0
253 1.0
-253 1.0
254 1.0
-254 1.0
255 1.0
-255 1.0
256 1.0
-256 1.0
257 1.0
-257 1.0
258 1.0
-258 1.0
259 1.0
-259 1.0
260 1.0
-260 1.0
261 1.0
-261 1.0
262 1.0
-262 1.0
263 1.0
-263 1.0
264 1.0
-264 1.0
265 1.0
-265 1.0
266 1.0
-266 1.0
267 1.0
-267 1.0
268 1.0
-268 1.0
269 1.0
-269 1.0
270 1.0
-270 1.0
271 1.0
-271 1.0
272 1.0
-272 1.0
273 1.0
-273 1.0
274 1.0
-274 1.0
275 1.0
-275 1.0
276 1.0
-276 1.0
277 1.0
-277 1.0
278 1.0
-278 1.0
279 1.0
-279 1.0
280 1.0
-280 1.0
281 1.0
-281 1.0
282 1.0
-282 1.0
283 1.0
-283 1.0
284 1.0
-284 1.0
285 1.0
-285 1.0
286 1.0
-286 1.0
287 1.0
-287 1.0
288 1.0
-288 1.0
289 1.0
-289 1.0
290 1.0
-290 1.0
291 1.0
-291 1.0
292 1.0
-292 1.0
293 1.0
-293 1.0
294 1.0
-294 1.0
295 1.0
-295 1.0
296 1.0
-296 1.0
297 1.0
-297 1.0
298 1.0
-298 1.0
299 1.0
-299 1.0
300 1.0
-300 1.0
301 1.0
-301 1.0
302 1.0
-302 1.0
303 1.0
-303 1.0
304 1.0
-304 1.0
305 1.0
-305 1.0
306 1.0
-306 1.0
307 1.0
-307 1.0
308 1.0
-308 1.0
309 1.0
-309 1.0
310 1.0
-310 1.0
311 1.0
-311 1.0
312 1.0
-312 1.0
313 1.0
-313 1.0
314 1.0
-314 1.0
315 1.0
-315 1.0
316 1.0
-316 1.0
317 1.0
-317 1.0
318 1.0
-318 1.0
319 1.0
-319 1.0
320 1.0
-320 1.0
321 1.0
-321 1.0
322 1.0
-322 1.0
323 1.0
-323 1.0
324 1.0
-324 1.0
325 1.0
-325 1.0
326 1.0
-326 1.0
327 1.0
-327 1.0
328 1.0
-328 1.0
329 1.0
-329 1.0
330 1.0
-330 1.0
331 1.0
-331 1.0
332 1.0
-332 1.0
333 1.0
-333 1.0
334 1.0
-334 1.0
335 1.0
-335 1.0
336 1.0
-336 1.0
337 1.0
-337 1.0
338 1.0
-338 1.0
339 1.0
-339 1.0
340 1.0
-340 1.0
341 1.0
-341 1.0
342 1.0
-342 1.0
343 1.0
-343 1.0
344 1.0
-344 1.0
345 1.0
-345 1.0
346 1.0
-346 1.0
347 1.0
-347 1.0
348 1.0
-348 1.0
349 1.0
-349 1.0
350 1.0
-350 1.0
351 1.0
-351 1.0
352 1.0
-352 1.0
353 1.0
-353 1.0
354 1.0
-354 1.0
355 1.0
-355 1.0
356 1.0
-356 1.0
357 1.0
-357 1.0
358 1.0
-358 1.0
359 1.0
-359 1.0
360 1.0
-360 1.0
361 1.0
-361 1.0
362 1.0
-362 1.0
363 1.0
-363 1.0
364 1.0
-364 1.0
365 1.0
-365 1.0
366 1.0
-366 1.0
367 1.0
-367 1.0
368 1.0
-368 1.0
369 1.0
-369 1.0
370 1.0
-370 1.0
371 1.0
-371 1.0
372 1.0
-372 1.0
373 1.0
-373 1.0
374 1.0
-374 1.0
375 1.0
-375 1.0
376 1.0
-376 1.0
377 1.0
-377 1.0
378 1.0
-378 1.0
379 1.0
-379 1.0
380 1.0
-380 1.0
381 1.0
-381 1.0
382 1.0
-382 1.0
383 1.0
-383 1.0
384 1.0
-384 1.0
385 1.0
-385 1.0
386 1.0
-386 1.0
387 1.0
-387 1.0
388 1.0
-388 1.0
389 1.0
-389 1.0
390 1.0
-390 1.0
391 1.0
-391 1.0
392 1.0
-392 1.0
393 1.0
-393 1.0
394 1.0
-394 1.0
395 1.0
-395 1.0
396 1.0
-396 1.0
397 1.0
-397 1.0
398 1.0
-398 1.0
399 1.0
-399 1.0
400 1.0
-400 1.0
401 0.5
-401 0.5
402 0.5
-402 0.5
403 0.5
-403 0.5
404 0.5
-404 0.5
405 0.5
-405 0.5
406 0.5
-406 0.5
407 0.504939
-407 0.495061
408 0.400172
-408 0.599828
409 0.925709
-409 0.074291
410 0.860467
-410 0.139533
411 0.5
-411 0.5
412 0.5
-412 0.5
413 0.5
-413 0.5
414 0.5
-414 0.5
415 0.5
-415 0.5
416 0.5
-416 0.5
417 0.5
-417 0.5
418 0.5
-418 0.5
419 0.5
-419 0.5
420 0.5
-420 0.5
421 0.5
-421 0.5
422 0.5
-422 0.5
423 0.5
-423 0.5
424 0.5
-424 0.5
425 0.5
-425 0.5
426 0.5
-426 0.5
427 0.5
-427 0.5
428 0.5
-428 0.5
429 0.5
-429 0.5
430 0.5
-430 0.5
431 0.643259
-431 0.356741
432 0.413225
-432 0.586775
433 0.5
-433 0.5
434 0.5
-434 0.5
435 0.5
-435 0.5
436 0.5
-436 0.5
437 0.150831
-437 0.849169
438 0.932259
-438 0.067741
439 0.5
-439 0.5
440 0.5
-440 0.5
441 0.999953
-441 4.7e-05
442 0.64895
-442 0.35105
443 0.579654
-443 0.420346
444 0.374906
-444 0.625094
445 0.5
-445 0.5
446 0.5
-446 0.5
447 0.5
-447 0.5
448 0.5
-448 0.5
449 0.5
-449 0.5
450 0.5
-450 0.5
451 0.5
-451 0.5
452 0.5
-452 0.5
453 0.392193
-453 0.607807
454 0.277485
-454 0.722515
455 0.878183
-455 0.121817
456 0.035452
-456 0.964548
457 0.5
-457 0.5
458 0.5
-458 0.5
459 0.5
-459 0.5
460 0.5
-460 0.5
461 0.5
-461 0.5
462 0.5
-462 0.5
463 0.5
-463 0.5
464 0.5
-464 0.5
465 0.5
-465 0.5
466 0.5
-466 0.5
467 0.5
-467 0.5
468 0.5
-468 0.5
469 0.237171
-469 0.762829
470 0.44393
-470 0.55607
471 0.325852
-471 0.674148
472 0.774336
-472 0.225664
473 0.842965
-473 0.157035
474 0.501583
-474 0.498417
475 0.93971
-475 0.06029
476 0.977473
-476 0.022527
477 0.5
-477 0.5
478 0.5
-478 0.5
479 0.5
-479 0.5
480 0.5
-480 0.5
481 0.680613
-481 0.319387
482 0.884962
-482 0.115038
483 0.877255
-483 0.122745
484 0.066956
-484 0.933044
485 0.5
-485 0.5
486 0.5
-486 0.5
487 0.5
-487 0.5
488 0.5
-488 0.5
489 0.5
-489 0.5
490 0.5
-490 0.5
491 0.5
-491 0.5
492 0.5
-492 0.5
493 0.5
-493 0.5
494 0.5
-494 0.5
495 0.5
-495 0.5
496 0.5
-496 0.5
497 0.544082
-497 0.455918
498 0.600988
-498 0.399012
499 0.689829
-499 0.310171
500 0.521555
-500 0.478445
501 0.5
-501 0.5
502 0.5
-502 0.5
503 0.5
-503 0.5
504 0.5
-504 0.5
505 0.5
-505 0.5
506 0.5
-506 0.5
507 0.5
-507 0.5
508 0.5
-508 0.5
509 0.5
-509 0.5
510 0.5
-510 0.5
511 0.5
-511 0.5
512 0.5
-512 0.5
513 0.5
-513 0.5
514 0.5
-514 0.5
515 0.5
-515 0.5
516 0.5
-516 0.5
517 0.5
-517 0.5
518 0.5
-518 0.5
519 0.146315
-519 0.853685
520 0.726998
-520 0.273002
521 0.069257
-521 0.930743
522 0.896435
-522 0.103565
523 0.5
-523 0.5
524 0.5
-524 0.5
525 0.5
-525 0.5
526 0.5
-526 0.5
527 0.5
-527 0.5
528 0.5
-528 0.5
529 0.5
-529 0.5
530 0.5
-530 0.5
531 0.5
-531 0.5
532 0.5
-532 0.5
533 0.5
-533 0.5
534 0.5
-534 0.5
535 0.5
-535 0.5
536 0.5
-536 0.5
537 0.5
-537 0.5
538 0.5
-538 0.5
539 0.5
-539 0.5
540 0.5
-540 0.5
541 0.5
-541 0.5
542 0.5
-542 0.5
543 0.5
-543 0.5
544 0.5
-544 0.5
545 0.5
-545 0.5
546 0.5
-546 0.5
547 0.5
-547 0.5
548 0.5
-548 0.5
549 0.5
-549 0.5
550 0.5
-550 0.5
551 0.5
-551 0.5
552 0.5
-552 0.5
553 0.5
-553 0.5
554 0.5
-554 0.5
555 0.5
-555 0.5
556 0.5
-556 0.5
557 0.5
-557 0.5
558 0.5
-558 0.5
559 0.5
-559 0.5
560 0.5
-560 0.5
561 0.5
-561 0.5
562 0.5
-562 0.5
563 0.738021
-563 0.261979
564 0.115889
-564 0.884111
565 0.01569
-565 0.98431
566 0.209892
-566 0.790108
567 0.5
-567 0.5
568 0.5
-568 0.5
569 0.5
-569 0.5
570 0.5
-570 0.5
571 0.5
-571 0.5
572 0.5
-572 0.5
573 0.5
-573 0.5
574 0.5
-574 0.5
575 0.5
-575 0.5
576 0.5
-576 0.5
577 0.5
-577 0.5
578 0.5
-578 0.5
579 0.113596
-579 0.886404
580 0.835527
-580 0.164473
581 0.65811
-581 0.34189
582 0.672213
-582 0.327787
583 0.5
-583 0.5
584 0.5
-584 0.5
585 0.5
-585 0.5
586 0.5
-586 0.5
587 0.5
-587 0.5
588 0.5
-588 0.5
589 0.5
-589 0.5
590 0.5
-590 0.5
591 0.5
-591 0.5
592 0.5
-592 0.5
593 0.5
-593 0.5
594 0.5
-594 0.5
595 0.5
-595 0.5
596 0.5
-596 0.5
597 0.5
-597 0.5
598 0.5
-598 0.5
599 0.5
-599 0.5
600 0.5
-600 0.5
601 0.5
-601 0.5
602 0.5
-602 0.5
603 0.5
-603 0.5
604 0.5
-604 0.5
605 0.5
-605 0.5
606 0.5
-606 0.5
607 0.5
-607 0.5
608 0.5
-608 0.5
609 0.564186
-609 0.435814
610 0.900711
-610 0.099289
611 0.418233
-611 0.581767
612 0.136398
-612 0.863602
613 0.5
-613 0.5
614 0.5
-614 0.5
615 0.5
-615 0.5
616 0.5
-616 0.5
617 0.727673
-617 0.272327
618 0.62848
-618 0.37152
619 0.688754
-619 0.311246
620 0.072423
-620 0.927577
621 0.5
-621 0.5
622 0.5
-622 0.5
623 0.5
-623 0.5
624 0.5
-624 0.5
625 0.5
-625 0.5
626 0.5
-626 0.5
627 0.5
-627 0.5
628 0.5
-628 0.5
629 0.5
-629 0.5
630 0.5
-630 0.5
631 0.5
-631 0.5
632 0.5
-632 0.5
633 0.5
-633 0.5
634 0.5
-634 0.5
635 0.5
-635 0.5
636 0.5
-636 0.5
637 0.5
-637 0.5
638 0.5
-638 0.5
639 0.5
-639 0.5
640 0.5
-640 0.5
641 0.79131
-641 0.20869
642 0.258027
-642 0.741973
643 0.629207
-643 0.370793
644 0.863733
-644 0.136267
645 0.5
-645 0.5
646 0.5
-646 0.5
647 0.5
-647 0.5
648 0.5
-648 0.5
649 0.5
-649 0.5
650 0.5
-650 0.5
651 0.5
-651 0.5
652 0.5
-652 0.5
653 0.818317
-653 0.181683
654 0.683839
-654 0.316161
655 0.138499
-655 0.861501
656 0.251849
-656 0.748151
657 0.5
-657 0.5
658 0.5
-658 0.5
659 0.5
-659 0.5
660 0.5
-660 0.5
661 0.5
-661 0.5
662 0.5
-662 0.5
663 0.5
-663 0.5
664 0.5
-664 0.5
665 0.282751
-665 0.717249
666 0.167108
-666 0.832892
667 0.209281
-667 0.790719
668 0.911958
-668 0.088042
669 0.5
-669 0.5
670 0.5
-670 0.5
671 0.5
-671 0.5
672 0.5
-672 0.5
673 0.5
-673 0.5
674 0.5
-674 0.5
675 0.5
-675 0.5
676 0.5
-676 0.5
677 0.5
-677 0.5
678 0.5
-678 0.5
679 0.5
-679 0.5
680 0.5
-680 0.5
681 0.5
-681 0.5
682 0.5
-682 0.5
683 0.5
-683 0.5
684 0.5
-684 0.5
685 0.5
-685 0.5
686 0.5
-686 0.5
687 0.5
-687 0.5
688 0.5
-688 0.5
689 0.5
-689 0.5
690 0.5
-690 0.5
691 0.5
-691 0.5
692 0.5
-692 0.5
693 0.5
-693 0.5
694 0.5
-694 0.5
695 0.060733
-695 0.939267
696 0.302351
-696 0.697649
697 0.677763
-697 0.322237
698 0.781678
-698 0.218322
699 0.627574
-699 0.372426
700 0.667805
-700 0.332195
701 0.457641
-701 0.542359
702 0.348773
-702 0.651227
703 0.5
-703 0.5
704 0.5
-704 0.5
705 0.5
-705 0.5
706 0.5
-706 0.5
707 0.5
-707 0.5
708 0.5
-708 0.5
709 0.5
-709 0.5
710 0.5
-710 0.5
711 0.5
-711 0.5
712 0.5
-712 0.5
713 0.5
-713 0.5
714 0.5
-714 0.5
715 0.5
-715 0.5
716 0.5
-716 0.5
717 0.5
-717 0.5
718 0.5
-718 0.5
719 0.5
-719 0.5
720 0.5
-720 0.5
721 0.5
-721 0.5
722 0.5
-722 0.5
723 0.666649
-723 0.333351
724 0.604337
-724 0.395663
725 0.336874
-725 0.663126
726 0.015422
-726 0.984578
727 0.937958
-727 0.062042
728 0.223892
-728 0.776108
729 0.305127
-729 0.694873
730 0.920418
-730 0.079582
731 0.5
-731 0.5
732 0.5
-732 0.5
733 0.5
-733 0.5
734 0.5
-734 0.5
735 0.5
-735 0.5
736 0.5
-736 0.5
737 0.5
-737 0.5
738 0.5
-738 0.5
739 0.889775
-739 0.110225
740 0.686546
-740 0.313454
741 0.852983
-741 0.147017
742 0.468621
-742 0.531379
743 0.5
-743 0.5
744 0.5
-744 0.5
745 0.5
-745 0.5
746 0.5
-746 0.5
747 0.548706
-747 0.451294
748 0.565924
-748 0.434076
749 0.769002
-749 0.230998
750 0.525292
-750 0.474708
751 0.5
-751 0.5
752 0.5
-752 0.5
753 0.424301
-753 0.575699
754 0.626024
-754 0.373976
755 0.669945
-755 0.330055
756 0.401293
-756 0.598707
757 0.633414
-757 0.366586
758 0.821134
-758 0.178866
759 0.092269
-759 0.907732
760 0.652664
-760 0.347336
761 0.5
-761 0.5
762 0.5
-762 0.5
763 0.5
-763 0.5
764 0.5
-764 0.5
765 0.5
-765 0.5
766 0.5
-766 0.5
767 0.5
-767 0.5
768 0.5
-768 0.5
769 0.5
-769 0.5
770 0.5
-770 0.5
771 0.5
-771 0.5
772 0.5
-772 0.5
773 0.5
-773 0.5
774 0.5
-774 0.5
775 0.5
-775 0.5
776 0.5
-776 0.5
777 0.5
-777 0.5
778 0.5
-778 0.5
779 0.5
-779 0.5
780 0.5
-780 0.5
781 0.5
-781 0.5
782 0.5
-782 0.5
783 0.5
-783 0.5
784 0.5
-784 0.5
785 0.673756
-785 0.326244
786 0.812675
-786 0.187325
787 0.149787
-787 0.850213
788 0.408863
-788 0.591137
789 0.5
-789 0.5
790 0.5
-790 0.5
791 0.5
-791 0.5
792 0.5
-792 0.5
793 0.283057
-793 0.716943
794 0.948737
-794 0.051263
795 0.399019
-795 0.600981
796 0.841713
-796 0.158287
797 0.5
-797 0.5
798 0.5
-798 0.5
799 0.5
-799 0.5
800 0.5
-800 0.5
801 0.426369
-801 0.573631
802 0.869442
-802 0.130558
803 0.424337
-803 0.575663
804 0.104367
-804 0.895633
805 0.5
-805 0.5
806 0.5
-806 0.5
807 0.5
-807 0.5
808 0.5
-808 0.5
809 0.5
-809 0.5
810 0.5
-810 0.5
811 0.5
-811 0.5
812 0.5
-812 0.5
813 0.129231
-813 0.870769
814 0.884829
-814 0.115171
815 0.178954
-815 0.821046
816 0.29537
-816 0.70463
817 0.462012
-817 0.537988
818 0.244107
-818 0.755893
819 0.165666
-819 0.834334
820 0.303724
-820 0.696276
821 0.5
-821 0.5
822 0.5
-822 0.5
823 0.5
-823 0.5
824 0.5
-824 0.5
825 0.5
-825 0.5
826 0.5
-826 0.5
827 0.5
-827 0.5
828 0.5
-828 0.5
829 0.724267
-829 0.275733
830 0.648259
-830 0.351741
831 0.5
-831 0.5
832 0.5
-832 0.5
833 0.5
-833 0.5
834 0.5
-834 0.5
835 0.5
-835 0.5
836 0.5
-836 0.5
837 0.5
-837 0.5
838 0.5
-838 0.5
839 0.5
-839 0.5
840 0.5
-840 0.5
841 0.5
-841 0.5
842 0.5
-842 0.5
843 0.5
-843 0.5
844 0.5
-844 0.5
845 0.5
-845 0.5
846 0.5
-846 0.5
847 0.5
-847 0.5
848 0.5
-848 0.5
849 0.5
-849 0.5
850 0.5
-850 0.5
851 0.5
-851 0.5
852 0.5
-852 0.5
853 0.5
-853 0.5
854 0.5
-854 0.5
855 0.754464
-855 0.245536
856 0.47264
-856 0.52736
857 0.860116
-857 0.139884
858 0.103144
-858 0.896856
859 0.5
-859 0.5
860 0.5
-860 0.5
861 0.5
-861 0.5
862 0.5
-862 0.5
863 0.5
-863 0.5
864 0.5
-864 0.5
865 0.5
-865 0.5
866 0.5
-866 0.5
867 0.5
-867 0.5
868 0.5
-868 0.5
869 0.5
-869 0.5
870 0.5
-870 0.5
871 0.5
-871 0.5
872 0.5
-872 0.5
873 0.5
-873 0.5
874 0.5
-874 0.5
875 0.5
-875 0.5
876 0.5
-876 0.5
877 0.5
-877 0.5
878 0.5
-878 0.5
879 0.5
-879 0.5
880 0.5
-880 0.5
881 0.5
-881 0.5
882 0.5
-882 0.5
883 0.5
-883 0.5
884 0.5
-884 0.5
885 0.5
-885 0.5
886 0.5
-886 0.5
887 0.5
-887 0.5
888 0.5
-888 0.5
889 0.5
-889 0.5
890 0.5
-890 0.5
891 0.5
-891 0.5
892 0.5
-892 0.5
893 0.5
-893 0.5
894 0.5
-894 0.5
895 0.5
-895 0.5
896 0.5
-896 0.5
897 0.5
-897 0.5
898 0.5
-898 0.5
899 0.5
-899 0.5
900 0.5
-900 0.5
901 0.5
-901 0.5
902 0.5
-902 0.5
903 0.294471
-903 0.705529
904 0.62033
-904 0.37967
905 0.305806
-905 0.694194
906 0.493199
-906 0.506801
907 0.966564
-907 0.033436
908 0.529999
-908 0.470001
909 0.464823
-909 0.535177
910 0.561781
-910 0.438219
911 0.047443
-911 0.952557
912 0.192078
-912 0.807922
913 0.5
-913 0.5
914 0.5
-914 0.5
915 0.5
-915 0.5
916 0.5
-916 0.5
917 0.5
-917 0.5
918 0.5
-918 0.5
919 0.5
-919 0.5
920 0.5
-920 0.5
921 0.5
-921 0.5
922 0.5
-922 0.5
923 0.5
-923 0.5
924 0.5
-924 0.5
925 0.5
-925 0.5
926 0.5
-926 0.5
927 0.5
-927 0.5
928 0.5
-928 0.5
929 0.5
-929 0.5
930 0.5
-930 0.5
931 0.5
-931 0.5
932 0.5
-932 0.5
933 0.735222
-933 0.264778
934 0.924531
-934 0.075469
935 0.430107
-935 0.569893
936 0.782665
-936 0.217335
937 0.5
-937 0.5
938 0.5
-938 0.5
939 0.5
-939 0.5
940 0.5
-940 0.5
941 0.5
-941 0.5
942 0.5
-942 0.5
943 0.5
-943 0.5
944 0.5
-944 0.5
945 0.761997
-945 0.238003
946 0.776522
-946 0.223478
947 0.345064
-947 0.654936
948 0.724589
-948 0.275411
949 0.5
-949 0.5
950 0.5
-950 0.5
951 0.5
-951 0.5
952 0.5
-952 0.5
953 0.5
-953 0.5
954 0.5
-954 0.5
955 0.5
-955 0.5
956 0.5
-956 0.5
957 0.771887
-957 0.228113
958 0.170874
-958 0.829126
959 0.377607
-959 0.622393
960 0.554552
-960 0.445448
961 0.5
-961 0.5
962 0.5
-962 0.5
963 0.5
-963 0.5
964 0.5
-964 0.5
965 0.5
-965 0.5
966 0.5
-966 0.5
967 0.5
-967 0.5
968 0.5
-968 0.5
969 0.5
-969 0.5
970 0.5
-970 0.5
971 0.5
-971 0.5
972 0.5
-972 0.5
973 0.5
-973 0.5
974 0.5
-974 0.5
975 0.5
-975 0.5
976 0.5
-976 0.5
977 0.821778
-977 0.178222
978 0.622182
-978 0.377818
979 0.007174
-979 0.992826
980 0.858443
-980 0.141557
981 0.954673
-981 0.045327
982 0.63033
-982 0.36967
983 0.039399
-983 0.960601
984 0.33228
-984 0.66772
985 0.5
-985 0.5
986 0.5
-986 0.5
987 0.5
-987 0.5
988 0.5
-988 0.5
989 0.5
-989 0.5
990 0.5
-990 0.5
991 0.720161
-991 0.279839
992 0.011692
-992 0.988308
993 0.899397
-993 0.100603
994 0.379541
-994 0.620459
995 0.779549
-995 0.220451
996 0.815442
-996 0.184558
997 0.249495
-997 0.750505
998 0.384289
-998 0.615711
999 0.5
-999 0.5
1000 0.5
-1000 0.5
1001 0.5
-1001 0.5
1002 0.5
-1002 0.5
1003 0.815226
-1003 0.184774
1004 0.371821
-1004 0.628179
1005 0.776349
-1005 0.223651
1006 0.683751
-1006 0.316249
1007 0.5
-1007 0.5
1008 0.5
-1008 0.5
1009 0.5
-1009 0.5
1010 0.5
-1010 0.5
1011 0.5
-1011 0.5
1012 0.5
-1012 0.5
1013 0.5
-1013 0.5
1014 0.5
-1014 0.5
1015 0.5
-1015 0.5
1016 0.5
-1016 0.5
1017 0.5
-1017 0.5
1018 0.5
-1018 0.5
1019 0.5
-1019 0.5
1020 0.5
-1020 0.5
1021 0.5
-1021 0.5
1022 0.5
-1022 0.5
1023 0.5
-1023 0.5
1024 0.5
-1024 0.5
1025 0.5
-1025 0.5
1026 0.5
-1026 0.5
1027 0.5
-1027 0.5
1028 0.5
-1028 0.5
1029 0.5
-1029 0.5
1030 0.5
-1030 0.5
1031 0.5
-1031 0.5
1032 0.5
-1032 0.5
1033 0.5
-1033 0.5
1034 0.5
-1034 0.5
1035 0.5
-1035 0.5
1036 0.5
-1036 0.5
1037 0.5
-1037 0.5
1038 0.5
-1038 0.5
1039 0.5
-1039 0.5
1040 0.5
-1040 0.5
1041 0.5
-1041 0.5
1042 0.5
-1042 0.5
1043 0.5
-1043 0.5
1044 0.5
-1044 0.5
1045 0.5
-1045 0.5
1046 0.5
-1046 0.5
1047 0.684789
-1047 0.315211
1048 0.760122
-1048 0.239878
1049 0.821482
-1049 0.178518
1050 0.292697
-1050 0.707303
1051 0.5
-1051 0.5
1052 0.5
-1052 0.5
1053 0.5
-1053 0.5
1054 0.5
-1054 0.5
1055 0.5
-1055 0.5
1056 0.5
-1056 0.5
1057 0.5
-1057 0.5
1058 0.5
-1058 0.5
1059 0.5
-1059 0.5
1060 0.5
-1060 0.5
1061 0.5
-1061 0.5
1062 0.5
-1062 0.5
1063 0.5
-1063 0.5
1064 0.5
-1064 0.5
1065 0.5
-1065 0.5
1066 0.5
-1066 0.5
1067 0.5
-1067 0.5
1068 0.5
-1068 0.5
1069 0.5
-1069 0.5
1070 0.5
-1070 0.5
1071 0.5
-1071 0.5
1072 0.5
-1072 0.5
1073 0.5
-1073 0.5
1074 0.5
-1074 0.5
1075 0.5
-1075 0.5
1076 0.5
-1076 0.5
1077 0.5
-1077 0.5
1078 0.5
-1078 0.5
1079 0.5
-1079 0.5
1080 0.5
-1080 0.5
1081 0.5
-1081 0.5
1082 0.5
-1082 0.5
1083 0.5
-1083 0.5
1084 0.5
-1084 0.5
1085 0.5
-1085 0.5
1086 0.5
-1086 0.5
1087 0.5
-1087 0.5
1088 0.5
-1088 0.5
1089 0.5
-1089 0.5
1090 0.5
-1090 0.5
1091 0.5
-1091 0.5
1092 0.5
-1092 0.5
1093 0.5
-1093 0.5
1094 0.5
-1094 0.5
1095 0.5
-1095 0.5
1096 0.5
-1096 0.5
1097 0.5
-1097 0.5
1098 0.5
-1098 0.5
1099 0.5
-1099 0.5
1100 0.5
-1100 0.5
1101 0.5
-1101 0.5
1102 0.5
-1102 0.5
1103 0.5
-1103 0.5
1104 0.5
-1104 0.5
1105 0.489293
-1105 0.510707
1106 0.507371
-1106 0.492629
1107 0.735383
-1107 0.264617
1108 0.774846
-1108 0.225154
1109 0.229241
-1109 0.770759
1110 0.942663
-1110 0.057337
1111 0.676296
-1111 0.323704
1112 0.309141
-1112 0.690859
1113 0.5
-1113 0.5
1114 0.5
-1114 0.5
1115 0.5
-1115 0.5
1116 0.5
-1116 0.5
1117 0.074444
-1117 0.925556
1118 0.736448
-1118 0.263552
1119 0.983092
-1119 0.016908
1120 0.541705
-1120 0.458295
1121 0.512267
-1121 0.487733
1122 0.384918
-1122 0.615082
1123 0.733846
-1123 0.266154
1124 0.957482
-1124 0.042518
1125 0.721624
-1125 0.278376
1126 0.178096
-1126 0.821904
1127 0.595128
-1127 0.404872
1128 0.532138
-1128 0.467862
1129 0.5
-1129 0.5
1130 0.5
-1130 0.5
1131 0.5
-1131 0.5
1132 0.5
-1132 0.5
1133 0.5
-1133 0.5
1134 0.5
-1134 0.5
1135 0.5
-1135 0.5
1136 0.5
-1136 0.5
1137 0.5
-1137 0.5
1138 0.5
-1138 0.5
1139 0.5
-1139 0.5
1140 0.5
-1140 0.5
1141 0.505531
-1141 0.494469
1142 0.155304
-1142 0.844696
1143 0.5
-1143 0.5
1144 0.5
-1144 0.5
1145 0.5
-1145 0.5
1146 0.5
-1146 0.5
1147 0.5
-1147 0.5
1148 0.5
-1148 0.5
1149 0.5
-1149 0.5
1150 0.5
-1150 0.5
1151 0.5
-1151 0.5
1152 0.5
-1152 0.5
1153 0.5
-1153 0.5
1154 0.5
-1154 0.5
1155 0.5
-1155 0.5
1156 0.5
-1156 0.5
1157 0.5
-1157 0.5
1158 0.5
-1158 0.5
1159 0.5
-1159 0.5
1160 0.5
-1160 0.5
1161 0.5
-1161 0.5
1162 0.5
-1162 0.5
1163 0.5
-1163 0.5
1164 0.5
-1164 0.5
1165 0.5
-1165 0.5
1166 0.5
-1166 0.5
1167 0.5
-1167 0.5
1168 0.5
-1168 0.5
1169 0.5
-1169 0.5
1170 0.5
-1170 0.5
1171 0.5
-1171 0.5
1172 0.5
-1172 0.5
1173 0.5
-1173 0.5
1174 0.5
-1174 0.5
1175 0.5
-1175 0.5
1176 0.5
-1176 0.5
1177 0.5
-1177 0.5
1178 0.5
-1178 0.5
1179 0.5
-1179 0.5
1180 0.5
-1180 0.5
1181 0.5
-1181 0.5
1182 0.5
-1182 0.5
1183 0.430937
-1183 0.569063
1184 0.018956
-1184 0.981044
1185 0.387053
-1185 0.612947
1186 0.432562
-1186 0.567438
1187 0.5
-1187 0.5
1188 0.5
-1188 0.5
1189 0.5
-1189 0.5
1190 0.5
-1190 0.5
1191 0.5
-1191 0.5
1192 0.5
-1192 0.5
1193 0.5
-1193 0.5
1194 0.5
-1194 0.5
1195 0.5
-1195 0.5
1196 0.5
-1196 0.5
1197 0.5
-1197 0.5
1198 0.5
-1198 0.5
1199 0.032282
-1199 0.967718
1200 0.885959
-1200 0.114041
1201 0.382491
-1201 0.617509
1202 0.677249
-1202 0.322751
1203 0.5
-1203 0.5
1204 0.5
-1204 0.5
1205 0.5
-1205 0.5
1206 0.5
-1206 0.5
1207 0.5
-1207 0.5
1208 0.5
-1208 0.5
1209 0.5
-1209 0.5
1210 0.5
-1210 0.5
1211 0.510455
-1211 0.489545
1212 0.35946
-1212 0.64054
1213 0.010176
-1213 0.989823
1214 0.458291
-1214 0.541709
1215 0.5
-1215 0.5
1216 0.5
-1216 0.5
1217 0.5
-1217 0.5
1218 0.5
-1218 0.5
1219 0.672085
-1219 0.327915
1220 0.19824
-1220 0.80176
1221 0.5
-1221 0.5
1222 0.5
-1222 0.5
1223 0.5
-1223 0.5
1224 0.5
-1224 0.5
1225 0.5
-1225 0.5
1226 0.5
-1226 0.5
1227 0.5
-1227 0.5
1228 0.5
-1228 0.5
1229 0.5
-1229 0.5
1230 0.5
-1230 0.5
1231 0.5
-1231 0.5
1232 0.5
-1232 0.5
1233 0.804541
-1233 0.195459
1234 0.73334
-1234 0.26666
1235 0.277532
-1235 0.722468
1236 0.164002
-1236 0.835998
1237 0.5
-1237 0.5
1238 0.5
-1238 0.5
1239 0.5
-1239 0.5
1240 0.5
-1240 0.5
1241 0.5
-1241 0.5
1242 0.5
-1242 0.5
1243 0.5
-1243 0.5
1244 0.5
-1244 0.5
1245 0.656979
-1245 0.343021
1246 0.635115
-1246 0.364885
1247 0.142771
-1247 0.857229
1248 0.386647
-1248 0.613353
1249 0.5
-1249 0.5
1250 0.5
-1250 0.5
1251 0.5
-1251 0.5
1252 0.5
-1252 0.5
1253 0.5
-1253 0.5
1254 0.5
-1254 0.5
1255 0.5
-1255 0.5
1256 0.5
-1256 0.5
1257 0.5
-1257 0.5
1258 0.5
-1258 0.5
1259 0.5
-1259 0.5
1260 0.5
-1260 0.5
1261 0.5
-1261 0.5
1262 0.5
-1262 0.5
1263 0.5
-1263 0.5
1264 0.5
-1264 0.5
1265 0.5
-1265 0.5
1266 0.5
-1266 0.5
1267 0.5
-1267 0.5
1268 0.5
-1268 0.5
1269 0.5
-1269 0.5
1270 0.5
-1270 0.5
1271 0.5
-1271 0.5
1272 0.5
-1272 0.5
1273 0.077413
-1273 0.922587
1274 0.368445
-1274 0.631555
1275 0.858261
-1275 0.141739
1276 0.282705
-1276 0.717295
1277 0.5
-1277 0.5
1278 0.5
-1278 0.5
1279 0.5
-1279 0.5
1280 0.5
-1280 0.5
1281 0.5
-1281 0.5
1282 0.5
-1282 0.5
1283 0.5
-1283 0.5
1284 0.5
-1284 0.5
1285 0.5
-1285 0.5
1286 0.5
-1286 0.5
1287 0.5
-1287 0.5
1288 0.5
-1288 0.5
1289 0.5
-1289 0.5
1290 0.5
-1290 0.5
1291 0.5
-1291 0.5
1292 0.5
-1292 0.5
1293 0.5
-1293 0.5
1294 0.5
-1294 0.5
1295 0.5
-1295 0.5
1296 0.5
-1296 0.5
1297 0.5
-1297 0.5
1298 0.5
-1298 0.5
1299 0.046377
-1299 0.953623
1300 0.300434
-1300 0.699566
1301 0.512795
-1301 0.487205
1302 0.41184
-1302 0.58816
1303 0.5
-1303 0.5
1304 0.5
-1304 0.5
1305 0.5
-1305 0.5
1306 0.5
-1306 0.5
1307 0.5
-1307 0.5
1308 0.5
-1308 0.5
1309 0.5
-1309 0.5
1310 0.5
-1310 0.5
1311 0.5
-1311 0.5
1312 0.5
-1312 0.5
1313 0.5
-1313 0.5
1314 0.5
-1314 0.5
1315 0.5
-1315 0.5
1316 0.5
-1316 0.5
1317 0.5
-1317 0.5
1318 0.5
-1318 0.5
1319 0.5
-1319 0.5
1320 0.5
-1320 0.5
1321 0.5
-1321 0.5
1322 0.5
-1322 0.5
1323 0.931233
-1323 0.068767
1324 0.101666
-1324 0.898334
1325 0.26309
-1325 0.73691
1326 0.444028
-1326 0.555972
1327 0.5
-1327 0.5
1328 0.5
-1328 0.5
1329 0.5
-1329 0.5
1330 0.5
-1330 0.5
1331 0.808227
-1331 0.191773
1332 0.224483
-1332 0.775517
1333 0.608019
-1333 0.391981
1334 0.530553
-1334 0.469447
1335 0.5
-1335 0.5
1336 0.5
-1336 0.5
1337 0.5
-1337 0.5
1338 0.5
-1338 0.5
1339 0.403886
-1339 0.596114
1340 0.025192
-1340 0.974808
1341 0.439008
-1341 0.560992
1342 0.408497
-1342 0.591503
1343 0.5
-1343 0.5
1344 0.5
-1344 0.5
1345 0.5
-1345 0.5
1346 0.5
-1346 0.5
1347 0.5
-1347 0.5
1348 0.5
-1348 0.5
1349 0.5
-1349 0.5
1350 0.5
-1350 0.5
1351 0.5
-1351 0.5
1352 0.5
-1352 0.5
1353 0.5
-1353 0.5
1354 0.5
-1354 0.5
1355 0.5
-1355 0.5
1356 0.5
-1356 0.5
1357 0.5
-1357 0.5
1358 0.5
-1358 0.5
1359 0.5
-1359 0.5
1360 0.5
-1360 0.5
1361 0.5
-1361 0.5
1362 0.5
-1362 0.5
1363 0.651275
-1363 0.348725
1364 0.547723
-1364 0.452277
1365 0.371316
-1365 0.628684
1366 0.059772
-1366 0.940228
1367 0.5
-1367 0.5
1368 0.5
-1368 0.5
1369 0.5
-1369 0.5
1370 0.5
-1370 0.5
1371 0.5
-1371 0.5
1372 0.5
-1372 0.5
1373 0.5
-1373 0.5
1374 0.5
-1374 0.5
1375 0.5
-1375 0.5
1376 0.5
-1376 0.5
1377 0.020467
-1377 0.979533
1378 0.264874
-1378 0.735126
1379 0.5532
-1379 0.4468
1380 0.370424
-1380 0.629576
1381 0.5
-1381 0.5
1382 0.5
-1382 0.5
1383 0.5
-1383 0.5
1384 0.5
-1384 0.5
1385 0.5
-1385 0.5
1386 0.5
-1386 0.5
1387 0.5
-1387 0.5
1388 0.5
-1388 0.5
1389 0.569178
-1389 0.430822
1390 0.03784
-1390 0.96216
1391 0.967738
-1391 0.032262
1392 0.652567
-1392 0.347433
1393 0.5
-1393 0.5
1394 0.5
-1394 0.5
1395 0.5
-1395 0.5
1396 0.5
-1396 0.5
1397 0.5
-1397 0.5
1398 0.5
-1398 0.5
1399 0.5
-1399 0.5
1400 0.5
-1400 0.5
1401 0.427542
-1401 0.572458
1402 0.755604
-1402 0.244396
1403 0.015548
-1403 0.984452
1404 0.980742
-1404 0.019258
1405 0.5
-1405 0.5
1406 0.5
-1406 0.5
1407 0.5
-1407 0.5
1408 0.5
-1408 0.5
1409 0.875885
-1409 0.124115
1410 0.89553
-1410 0.10447
1411 0.107849
-1411 0.892151
1412 0.89734
-1412 0.10266
1413 0.5
-1413 0.5
1414 0.5
-1414 0.5
1415 0.5
-1415 0.5
1416 0.5
-1416 0.5
1417 0.5
-1417 0.5
1418 0.5
-1418 0.5
1419 0.5
-1419 0.5
1420 0.5
-1420 0.5
1421 0.5
-1421 0.5
1422 0.5
-1422 0.5
1423 0.5
-1423 0.5
1424 0.5
-1424 0.5
1425 0.5
-1425 0.5
1426 0.5
-1426 0.5
1427 0.5
-1427 0.5
1428 0.5
-1428 0.5
1429 0.942698
-1429 0.057302
1430 0.097343
-1430 0.902657
1431 0.719183
-1431 0.280817
1432 0.31966
-1432 0.68034
1433 0.5
-1433 0.5
1434 0.5
-1434 0.5
1435 0.5
-1435 0.5
1436 0.5
-1436 0.5
1437 0.5
-1437 0.5
1438 0.5
-1438 0.5
1439 0.5
-1439 0.5
1440 0.5
-1440 0.5
1441 0.5
-1441 0.5
1442 0.5
-1442 0.5
1443 0.5
-1443 0.5
1444 0.5
-1444 0.5
1445 0.5
-1445 0.5
1446 0.5
-1446 0.5
1447 0.5
-1447 0.5
1448 0.5
-1448 0.5
1449 0.5
-1449 0.5
1450 0.5
-1450 0.5
1451 0.5
-1451 0.5
1452 0.5
-1452 0.5
1453 0.5
-1453 0.5
1454 0.5
-1454 0.5
1455 0.811048
-1455 0.188952
1456 0.962764
-1456 0.037236
1457 0.166921
-1457 0.833079
1458 0.069704
-1458 0.930296
1459 0.5
-1459 0.5
1460 0.5
-1460 0.5
1461 0.5
-1461 0.5
1462 0.5
-1462 0.5
1463 0.9053
-1463 0.0947
1464 0.014754
-1464 0.985246
1465 0.256264
-1465 0.743736
1466 0.582855
-1466 0.417145
1467 0.5
-1467 0.5
1468 0.5
-1468 0.5
1469 0.5
-1469 0.5
1470 0.5
-1470 0.5
1471 0.615349
-1471 0.384651
1472 0.551736
-1472 0.448264
1473 0.269362
-1473 0.730638
1474 0.703241
-1474 0.296759
1475 0.5
-1475 0.5
1476 0.5
-1476 0.5
1477 0.5
-1477 0.5
1478 0.5
-1478 0.5
1479 0.5
-1479 0.5
1480 0.5
-1480 0.5
1481 0.5
-1481 0.5
1482 0.5
-1482 0.5
1483 0.5
-1483 0.5
1484 0.5
-1484 0.5
1485 0.5
-1485 0.5
1486 0.5
-1486 0.5
1487 0.5
-1487 0.5
1488 0.5
-1488 0.5
1489 0.5
-1489 0.5
1490 0.5
-1490 0.5
1491 0.5
-1491 0.5
1492 0.5
-1492 0.5
1493 0.5
-1493 0.5
1494 0.5
-1494 0.5
1495 0.746555
-1495 0.253445
1496 0.712106
-1496 0.287894
1497 0.392787
-1497 0.607213
1498 0.015917
-1498 0.984083
1499 0.5
-1499 0.5
1500 0.5
-1500 0.5
1501 0.5
-1501 0.5
1502 0.5
-1502 0.5
1503 0.5
-1503 0.5
1504 0.5
-1504 0.5
1505 0.5
-1505 0.5
1506 0.5
-1506 0.5
1507 0.5
-1507 0.5
1508 0.5
-1508 0.5
1509 0.5
-1509 0.5
1510 0.5
-1510 0.5
1511 0.5
-1511 0.5
1512 0.5
-1512 0.5
1513 0.5
-1513 0.5
1514 0.5
-1514 0.5
1515 0.5
-1515 0.5
1516 0.5
-1516 0.5
1517 0.5
-1517 0.5
1518 0.5
-1518 0.5
1519 0.5
-1519 0.5
1520 0.5
-1520 0.5
1521 0.5
-1521 0.5
1522 0.5
-1522 0.5
1523 0.832194
-1523 0.167806
1524 0.487667
-1524 0.512333
1525 0.813903
-1525 0.186097
1526 0.150412
-1526 0.849588
1527 0.5
-1527 0.5
1528 0.5
-1528 0.5
1529 0.5
-1529 0.5
1530 0.5
-1530 0.5
1531 0.5
-1531 0.5
1532 0.5
-1532 0.5
1533 0.5
-1533 0.5
1534 0.5
-1534 0.5
1535 0.5
-1535 0.5
1536 0.5
-1536 0.5
1537 0.5
-1537 0.5
1538 0.5
-1538 0.5
1539 0.5
-1539 0.5
1540 0.5
-1540 0.5
1541 0.5
-1541 0.5
1542 0.5
-1542 0.5
1543 0.5
-1543 0.5
1544 0.5
-1544 0.5
1545 0.5
-1545 0.5
1546 0.5
-1546 0.5
1547 0.5
-1547 0.5
1548 0.5
-1548 0.5
1549 0.324889
-1549 0.675111
1550 0.0277
-1550 0.9723
1551 0.055639
-1551 0.944361
1552 0.343285
-1552 0.656715
1553 0.5
-1553 0.5
1554 0.5
-1554 0.5
1555 0.5
-1555 0.5
1556 0.5
-1556 0.5
1557 0.189088
-1557 0.810912
1558 0.225059
-1558 0.774941
1559 0.346169
-1559 0.653831
1560 0.190495
-1560 0.809505
1561 0.644903
-1561 0.355097
1562 0.170905
-1562 0.829095
1563 0.802325
-1563 0.197675
1564 0.843929
-1564 0.156071
1565 0.5
-1565 0.5
1566 0.5
-1566 0.5
1567 0.5
-1567 0.5
1568 0.5
-1568 0.5
1569 0.5
-1569 0.5
1570 0.5
-1570 0.5
1571 0.5
-1571 0.5
1572 0.5
-1572 0.5
1573 0.622187
-1573 0.377813
1574 0.898837
-1574 0.101163
1575 0.916049
-1575 0.083951
1576 0.965472
-1576 0.034528
1577 0.5
-1577 0.5
1578 0.5
-1578 0.5
1579 0.5
-1579 0.5
1580 0.5
-1580 0.5
1581 0.5
-1581 0.5
1582 0.5
-1582 0.5
1583 0.5
-1583 0.5
1584 0.5
-1584 0.5
1585 0.5
-1585 0.5
1586 0.5
-1586 0.5
1587 0.5
-1587 0.5
1588 0.5
-1588 0.5
1589 0.5
-1589 0.5
1590 0.5
-1590 0.5
1591 0.5
-1591 0.5
1592 0.5
-1592 0.5
1593 0.975745
-1593 0.024255
1594 0.435575
-1594 0.564425
1595 0.74846
-1595 0.25154
1596 0.597932
-1596 0.402068
1597 0.5
-1597 0.5
1598 0.5
-1598 0.5
1599 0.5
-1599 0.5
1600 0.5
-1600 0.5
1601 0.5
-1601 0.5
1602 0.5
-1602 0.5
1603 0.5
-1603 0.5
1604 0.5
-1604 0.5
1605 0.5
-1605 0.5
1606 0.5
-1606 0.5
1607 0.5
-1607 0.5
1608 0.5
-1608 0.5
1609 0.5
-1609 0.5
1610 0.5
-1610 0.5
1611 0.5
-1611 0.5
1612 0.5
-1612 0.5
1613 0.5
-1613 0.5
1614 0.5
-1614 0.5
1615 0.5
-1615 0.5
1616 0.5
-1616 0.5
1617 0.5
-1617 0.5
1618 0.5
-1618 0.5
1619 0.5
-1619 0.5
1620 0.5
-1620 0.5
1621 0.5
-1621 0.5
1622 0.5
-1622 0.5
1623 0.5
-1623 0.5
1624 0.5
-1624 0.5
1625 0.5
-1625 0.5
1626 0.5
-1626 0.5
1627 0.5
-1627 0.5
1628 0.5
-1628 0.5
1629 0.5
-1629 0.5
1630 0.5
-1630 0.5
1631 0.5
-1631 0.5
1632 0.5
-1632 0.5
1633 0.5
-1633 0.5
1634 0.5
-1634 0.5
1635 0.5
-1635 0.5
1636 0.5
-1636 0.5
1637 0.5
-1637 0.5
1638 0.5
-1638 0.5
1639 0.5
-1639 0.5
1640 0.5
-1640 0.5
1641 0.5
-1641 0.5
1642 0.5
-1642 0.5
1643 0.5
-1643 0.5
1644 0.5
-1644 0.5
1645 0.5
-1645 0.5
1646 0.5
-1646 0.5
1647 0.870214
-1647 0.129786
1648 0.788046
-1648 0.211954
1649 0.315721
-1649 0.684279
1650 0.400363
-1650 0.599637
1651 0.5
-1651 0.5
1652 0.5
-1652 0.5
1653 0.5
-1653 0.5
1654 0.5
-1654 0.5
1655 0.5
-1655 0.5
1656 0.5
-1656 0.5
1657 0.5
-1657 0.5
1658 0.5
-1658 0.5
1659 0.5
-1659 0.5
1660 0.5
-1660 0.5
1661 0.5
-1661 0.5
1662 0.5
-1662 0.5
1663 0.5
-1663 0.5
1664 0.5
-1664 0.5
1665 0.5
-1665 0.5
1666 0.5
-1666 0.5
1667 0.5
-1667 0.5
1668 0.5
-1668 0.5
1669 0.5
-1669 0.5
1670 0.5
-1670 0.5
1671 0.206306
-1671 0.793694
1672 0.544084
-1672 0.455916
1673 0.588826
-1673 0.411174
1674 0.522027
-1674 0.477973
1675 0.334303
-1675 0.665697
1676 0.125932
-1676 0.874068
1677 0.478674
-1677 0.521326
1678 0.446163
-1678 0.553837
1679 0.060842
-1679 0.939158
1680 0.017173
-1680 0.982827
1681 0.784532
-1681 0.215468
1682 0.0863
-1682 0.9137
1683 0.5
-1683 0.5
1684 0.5
-1684 0.5
1685 0.5
-1685 0.5
1686 0.5
-1686 0.5
1687 0.5
-1687 0.5
1688 0.5
-1688 0.5
1689 0.5
-1689 0.5
1690 0.5
-1690 0.5
1691 0.5
-1691 0.5
1692 0.5
-1692 0.5
1693 0.5
-1693 0.5
1694 0.5
-1694 0.5
1695 0.5
-1695 0.5
1696 0.5
-1696 0.5
1697 0.5
-1697 0.5
1698 0.5
-1698 0.5
1699 0.5
-1699 0.5
1700 0.5
-1700 0.5
1701 0.5
-1701 0.5
1702 0.5
-1702 0.5
1703 0.5
-1703 0.5
1704 0.5
-1704 0.5
1705 0.590813
-1705 0.409187
1706 0.343746
-1706 0.656254
1707 0.030011
-1707 0.969989
1708 0.21706
-1708 0.78294
1709 0.5
-1709 0.5
1710 0.5
-1710 0.5
1711 0.5
-1711 0.5
1712 0.5
-1712 0.5
1713 0.5
-1713 0.5
1714 0.5
-1714 0.5
1715 0.5
-1715 0.5
1716 0.5
-1716 0.5
1717 0.5
-1717 0.5
1718 0.5
-1718 0.5
1719 0.5
-1719 0.5
1720 0.5
-1720 0.5
1721 0.5
-1721 0.5
1722 0.5
-1722 0.5
1723 0.5
-1723 0.5
1724 0.5
-1724 0.5
1725 0.5
-1725 0.5
1726 0.5
-1726 0.5
1727 0.5
-1727 0.5
1728 0.5
-1728 0.5
1729 0.5
-1729 0.5
1730 0.5
-1730 0.5
1731 0.5
-1731 0.5
1732 0.5
-1732 0.5
1733 0.5
-1733 0.5
1734 0.5
-1734 0.5
1735 0.5
-1735 0.5
1736 0.5
-1736 0.5
1737 0.5
-1737 0.5
1738 0.5
-1738 0.5
1739 0.5
-1739 0.5
1740 0.5
-1740 0.5
1741 0.5
-1741 0.5
1742 0.5
-1742 0.5
1743 0.5
-1743 0.5
1744 0.5
-1744 0.5
1745 0.771159
-1745 0.228841
1746 0.582827
-1746 0.417173
1747 0.979615
-1747 0.020385
1748 0.941839
-1748 0.058161
1749 0.5
-1749 0.5
1750 0.5
-1750 0.5
1751 0.5
-1751 0.5
1752 0.5
-1752 0.5
1753 0.5
-1753 0.5
1754 0.5
-1754 0.5
1755 0.5
-1755 0.5
1756 0.5
-1756 0.5
1757 0.746539
-1757 0.253461
1758 0.922317
-1758 0.077683
1759 0.776899
-1759 0.223101
1760 0.536671
-1760 0.463329
1761 0.5
-1761 0.5
1762 0.5
-1762 0.5
1763 0.5
-1763 0.5
1764 0.5
-1764 0.5
1765 0.5
-1765 0.5
1766 0.5
-1766 0.5
1767 0.5
-1767 0.5
1768 0.5
-1768 0.5
1769 0.5
-1769 0.5
1770 0.5
-1770 0.5
1771 0.5
-1771 0.5
1772 0.5
-1772 0.5
1773 0.5
-1773 0.5
1774 0.5
-1774 0.5
1775 0.5
-1775 0.5
1776 0.5
-1776 0.5
1777 0.5
-1777 0.5
1778 0.5
-1778 0.5
1779 0.5
-1779 0.5
1780 0.5
-1780 0.5
1781 0.5
-1781 0.5
1782 0.5
-1782 0.5
1783 0.5
-1783 0.5
1784 0.5
-1784 0.5
1785 0.5
-1785 0.5
1786 0.5
-1786 0.5
1787 0.3624
-1787 0.6376
1788 0.643166
-1788 0.356834
1789 0.280239
-1789 0.719761
1790 0.546752
-1790 0.453248
1791 0.000568
-1791 0.999432
1792 0.682778
-1792 0.317222
1793 0.763926
-1793 0.236074
1794 0.303725
-1794 0.696275
1795 0.651725
-1795 0.348275
1796 0.258994
-1796 0.741006
1797 0.804487
-1797 0.195513
1798 0.225682
-1798 0.774318
1799 0.5
-1799 0.5
1800 0.5
-1800 0.5
1801 0.5
-1801 0.5
1802 0.5
-1802 0.5
1803 0.927816
-1803 0.072184
1804 0.570336
-1804 0.429664
1805 0.026249
-1805 0.973751
1806 0.618548
-1806 0.381452
1807 0.5
-1807 0.5
1808 0.5
-1808 0.5
1809 0.5
-1809 0.5
1810 0.5
-1810 0.5
1811 0.5
-1811 0.5
1812 0.5
-1812 0.5
1813 0.5
-1813 0.5
1814 0.5
-1814 0.5
1815 0.5
-1815 0.5
1816 0.5
-1816 0.5
1817 0.5
-1817 0.5
1818 0.5
-1818 0.5
1819 0.5
-1819 0.5
1820 0.5
-1820 0.5
1821 0.5
-1821 0.5
1822 0.5
-1822 0.5
1823 0.5
-1823 0.5
1824 0.5
-1824 0.5
1825 0.5
-1825 0.5
1826 0.5
-1826 0.5
1827 0.5
-1827 0.5
1828 0.5
-1828 0.5
1829 0.5
-1829 0.5
1830 0.5
-1830 0.5
1831 0.72937
-1831 0.27063
1832 0.821318
-1832 0.178682
1833 0.813738
-1833 0.186262
1834 0.969652
-1834 0.030348
1835 0.5
-1835 0.5
1836 0.5
-1836 0.5
1837 0.5
-1837 0.5
1838 0.5
-1838 0.5
1839 0.5
-1839 0.5
1840 0.5
-1840 0.5
1841 0.5
-1841 0.5
1842 0.5
-1842 0.5
1843 0.5
-1843 0.5
1844 0.5
-1844 0.5
1845 0.231249
-1845 0.768751
1846 0.455744
-1846 0.544256
1847 0.344185
-1847 0.655815
1848 0.375989
-1848 0.624011
1849 0.440229
-1849 0.559771
1850 0.341662
-1850 0.658338
1851 0.314967
-1851 0.685033
1852 0.472288
-1852 0.527712
1853 0.5
-1853 0.5
1854 0.5
-1854 0.5
1855 0.5
-1855 0.5
1856 0.5
-1856 0.5
1857 0.099916
-1857 0.900084
1858 0.44573
-1858 0.55427
1859 0.773705
-1859 0.226295
1860 0.266934
-1860 0.733066
1861 0.5
-1861 0.5
1862 0.5
-1862 0.5
1863 0.5
-1863 0.5
1864 0.5
-1864 0.5
1865 0.5
-1865 0.5
1866 0.5
-1866 0.5
1867 0.5
-1867 0.5
1868 0.5
-1868 0.5
1869 0.5
-1869 0.5
1870 0.5
-1870 0.5
1871 0.5
-1871 0.5
1872 0.5
-1872 0.5
1873 0.982444
-1873 0.017556
1874 0.927682
-1874 0.072318
1875 0.149146
-1875 0.850854
1876 0.297411
-1876 0.702589
1877 0.5
-1877 0.5
1878 0.5
-1878 0.5
1879 0.5
-1879 0.5
1880 0.5
-1880 0.5
1881 0.5
-1881 0.5
1882 0.5
-1882 0.5
1883 0.5
-1883 0.5
1884 0.5
-1884 0.5
1885 0.5
-1885 0.5
1886 0.5
-1886 0.5
1887 0.5
-1887 0.5
1888 0.5
-1888 0.5
1889 0.5
-1889 0.5
1890 0.5
-1890 0.5
1891 0.5
-1891 0.5
1892 0.5
-1892 0.5
1893 0.5
-1893 0.5
1894 0.5
-1894 0.5
1895 0.5
-1895 0.5
1896 0.5
-1896 0.5
1897 0.5
-1897 0.5
1898 0.5
-1898 0.5
1899 0.5
-1899 0.5
1900 0.5
-1900 0.5
1901 0.5
-1901 0.5
1902 0.5
-1902 0.5
1903 0.5
-1903 0.5
1904 0.5
-1904 0.5
1905 0.864077
-1905 0.135923
1906 0.557029
-1906 0.442971
1907 0.65626
-1907 0.34374
1908 0.903415
-1908 0.096585
1909 0.5
-1909 0.5
1910 0.5
-1910 0.5
1911 0.5
-1911 0.5
1912 0.5
-1912 0.5
1913 0.5
-1913 0.5
1914 0.5
-1914 0.5
1915 0.5
-1915 0.5
1916 0.5
-1916 0.5
1917 0.5
-1917 0.5
1918 0.5
-1918 0.5
1919 0.5
-1919 0.5
1920 0.5
-1920 0.5
