1 0.953399
-1 0.046601
2 1.0
-2 1.0
3 1.0
-3 1.0
4 1.0
-4 1.0
5 1.0
-5 1.0
6 1.0
-6 1.0
7 1.0
-7 1.0
8 1.0
-8 1.0
9 1.0
-9 1.0
10 1.0
-10 1.0
11 1.0
-11 1.0
12 1.0
-12 1.0
13 1.0
-13 1.0
14 1.0
-14 1.0
15 1.0
-15 1.0
16 1.0
-16 1.0
17 1.0
-17 1.0
18 1.0
-18 1.0
19 1.0
-19 1.0
20 1.0
-20 1.0
21 1.0
-21 1.0
22 1.0
-22 1.0
23 1.0
-23 1.0
24 1.0
-24 1.0
25 1.0
-25 1.0
26 1.0
-26 1.0
27 1.0
-27 1.0
28 1.0
-28 1.0
29 1.0
-29 1.0
30 1.0
-30 1.0
31 1.0
-31 1.0
32 1.0
-32 1.0
33 1.0
-33 1.0
34 1.0
-34 1.0
35 1.0
-35 1.0
36 1.0
-36 1.0
37 1.0
-37 1.0
38 1.0
-38 1.0
39 1.0
-39 1.0
40 1.0
-40 1.0
41 1.0
-41 1.0
42 1.0
-42 1.0
43 1.0
-43 1.0
44 1.0
-44 1.0
45 1.0
-45 1.0
46 1.0
-46 1.0
47 1.0
-47 1.0
48 1.0
-48 1.0
49 1.0
-49 1.0
50 1.0
-50 1.0
51 1.0
-51 1.0
52 1.0
-52 1.0
53 1.0
-53 1.0
54 1.0
-54 1.0
55 1.0
-55 1.0
56 1.0
-56 1.0
57 1.0
-57 1.0
58 1.0
-58 1.0
59 1.0
-59 1.0
60 1.0
-60 1.0
61 1.0
-61 1.0
62 1.0
-62 1.0
63 1.0
-63 1.0
64 1.0
-64 1.0
65 1.0
-65 1.0
66 1.0
-66 1.0
67 1.0
-67 1.0
68 1.0
-68 1.0
69 1.0
-69 1.0
70 1.0
-70 1.0
71 1.0
-71 1.0
72 1.0
-72 1.0
73 1.0
-73 1.0
74 1.0
-74 1.0
75 1.0
-75 1.0
76 1.0
-76 1.0
77 1.0
-77 1.0
78 1.0
-78 1.0
79 1.0
-79 1.0
80 1.0
-80 1.0
81 1.0
-81 1.0
82 1.0
-82 1.0
83 1.0
-83 1.0
84 1.0
-84 1.0
85 1.0
-85 1.0
86 1.0
-86 1.0
87 1.0
-87 1.0
88 1.0
-88 1.0
89 1.0
-89 1.0
90 1.0
-90 1.0
91 1.0
-91 1.0
92 1.0
-92 1.0
93 1.0
-93 1.0
94 1.0
-94 1.0
95 1.0
-95 1.0
96 1.0
-96 1.0
97 1.0
-97 1.0
98 1.0
-98 1.0
99 1.0
-99 1.0
100 1.0
-100 1.0
101 1.0
-101 1.0
102 1.0
-102 1.0
103 1.0
-103 1.0
104 1.0
-104 1.0
105 1.0
-105 1.0
106 1.0
-106 1.0
107 1.0
-107 1.0
108 1.0
-108 1.0
109 1.0
-109 1.0
110 1.0
-110 1.0
111 1.0
-111 1.0
112 1.0
-112 1.0
113 1.0
-113 1.0
114 1.0
-114 1.0
115 1.0
-115 1.0
116 1.0
-116 1.0
117 1.0
-117 1.0
118 1.0
-118 1.0
119 1.0
-119 1.0
120 1.0
-120 1.0
121 1.0
-121 1.0
122 1.0
-122 1.0
123 1.0
-123 1.0
124 1.0
-124 1.0
125 1.0
-125 1.0
126 1.0
-126 1.0
127 1.0
-127 1.0
128 1.0
-128 1.0
129 1.0
-129 1.0
130 1.0
-130 1.0
131 1.0
-131 1.0
132 1.0
-132 1.0
133 1.0
-133 1.0
134 1.0
-134 1.0
135 1.0
-135 1.0
136 1.0
-136 1.0
137 1.0
-137 1.0
138 1.0
-138 1.0
139 1.0
-139 1.0
140 1.0
-140 1.0
141 1.0
-141 1.0
142 1.0
-142 1.0
143 1.0
-143 1.0
144 1.0
-144 1.0
145 1.0
-145 1.0
146 1.0
-146 1.0
147 1.0
-147 1.0
148 1.0
-148 1.0
149 1.0
-149 1.0
150 1.0
-150 1.0
151 1.0
-151 1.0
152 1.0
-152 1.0
153 1.0
-153 1.0
154 1.0
-154 1.0
155 1.0
-155 1.0
156 1.0
-156 1.0
157 1.0
-157 1.0
158 1.0
-158 1.0
159 1.0
-159 1.0
160 1.0
-160 1.0
161 1.0
-161 1.0
162 1.0
-162 1.0
163 1.0
-163 1.0
164 1.0
-164 1.0
165 1.0
-165 1.0
166 1.0
-166 1.0
167 1.0
-167 1.0
168 1.0
-168 1.0
169 1.0
-169 1.0
170 1.0
-170 1.0
171 1.0
-171 1.0
172 1.0
-172 1.0
173 1.0
-173 1.0
174 1.0
-174 1.0
175 1.0
-175 1.0
176 1.0
-176 1.0
177 1.0
-177 1.0
178 1.0
-178 1.0
179 1.0
-179 1.0
180 1.0
-180 1.0
181 1.0
-181 1.0
182 1.0
-182 1.0
183 1.0
-183 1.0
184 1.0
-184 1.0
185 1.0
-185 1.0
186 1.0
-186 1.0
187 1.0
-187 1.0
188 1.0
-188 1.0
189 1.0
-189 1.0
190 1.0
-190 1.0
191 1.0
-191 1.0
192 1.0
-192 1.0
193 1.0
-193 1.0
194 1.0
-194 1.0
195 1.0
-195 1.0
196 1.0
-196 1.0
197 1.0
-197 1.0
198 1.0
-198 1.0
199 1.0
-199 1.0
200 1.0
-200 1.0
201 1.0
-201 1.0
202 1.0
-202 1.0
203 1.0
-203 1.0
204 1.0
-204 1.0
205 1.0
-205 1.0
206 1.0
-206 1.0
207 1.0
-207 1.0
208 1.0
-208 1.0
209 1.0
-209 1.0
210 1.0
-210 1.0
211 1.0
-211 1.0
212 1.0
-212 1.0
213 1.0
-213 1.0
214 1.0
-214 1.0
215 1.0
-215 1.0
216 1.0
-216 1.0
217 1.0
-217 1.0
218 1.0
-218 1.0
219 1.0
-219 1.0
220 1.0
-220 1.0
221 1.0
-221 1.0
222 1.0
-222 1.0
223 1.0
-223 1.0
224 1.0
-224 1.0
225 1.0
-225 1.0
226 0.5
-226 0.5
227 0.5
-227 0.5
228 0.5
-228 0.5
229 0.5
-229 0.5
230 0.5
-230 0.5
231 0.5
-231 0.5
232 0.5
-232 0.5
233 0.5
-233 0.5
234 0.5
-234 0.5
235 0.5
-235 0.5
236 0.5
-236 0.5
237 0.5
-237 0.5
238 0.5
-238 0.5
239 0.5
-239 0.5
240 0.210482
-240 0.789518
241 0.001507
-241 0.998493
242 0.5
-242 0.5
243 0.5
-243 0.5
244 0.5
-244 0.5
245 0.5
-245 0.5
246 0.5
-246 0.5
247 0.5
-247 0.5
248 0.5
-248 0.5
249 0.5
-249 0.5
250 0.5
-250 0.5
251 0.5
-251 0.5
252 0.35293
-252 0.64707
253 0.505588
-253 0.494412
254 0.761439
-254 0.238561
255 0.693205
-255 0.306795
256 0.567079
-256 0.432921
257 0.29748
-257 0.70252
258 0.447563
-258 0.552437
259 0.021902
-259 0.978098
260 0.5
-260 0.5
261 0.5
-261 0.5
262 0.5
-262 0.5
263 0.5
-263 0.5
264 0.5
-264 0.5
265 0.5
-265 0.5
266 0.5
-266 0.5
267 0.5
-267 0.5
268 0.369677
-268 0.630323
269 0.957016
-269 0.042984
270 0.055716
-270 0.944284
271 0.884772
-271 0.115228
272 0.360845
-272 0.639155
273 0.859982
-273 0.140018
274 0.387832
-274 0.612168
275 0.013597
-275 0.986403
276 0.5
-276 0.5
277 0.5
-277 0.5
278 0.5
-278 0.5
279 0.5
-279 0.5
280 0.5
-280 0.5
281 0.5
-281 0.5
282 0.5
-282 0.5
283 0.5
-283 0.5
284 0.5
-284 0.5
285 0.5
-285 0.5
286 0.5
-286 0.5
287 0.5
-287 0.5
288 0.5
-288 0.5
289 0.5
-289 0.5
290 0.5
-290 0.5
291 0.5
-291 0.5
292 0.5
-292 0.5
293 0.5
-293 0.5
294 0.5
-294 0.5
295 0.5
-295 0.5
296 0.5
-296 0.5
297 0.5
-297 0.5
298 0.5
-298 0.5
299 0.5
-299 0.5
300 0.5
-300 0.5
301 0.5
-301 0.5
302 0.5
-302 0.5
303 0.5
-303 0.5
304 0.5
-304 0.5
305 0.5
-305 0.5
306 0.5
-306 0.5
307 0.5
-307 0.5
308 0.5
-308 0.5
309 0.5
-309 0.5
310 0.5
-310 0.5
311 0.5
-311 0.5
312 0.5
-312 0.5
313 0.5
-313 0.5
314 0.5
-314 0.5
315 0.5
-315 0.5
316 0.5
-316 0.5
317 0.5
-317 0.5
318 0.5
-318 0.5
319 0.5
-319 0.5
320 0.5
-320 0.5
321 0.5
-321 0.5
322 0.603102
-322 0.396898
323 0.397704
-323 0.602296
324 0.608837
-324 0.391163
325 0.26884
-325 0.73116
326 0.5
-326 0.5
327 0.5
-327 0.5
328 0.5
-328 0.5
329 0.5
-329 0.5
330 0.5
-330 0.5
331 0.5
-331 0.5
332 0.5
-332 0.5
333 0.5
-333 0.5
334 0.5
-334 0.5
335 0.5
-335 0.5
336 0.5
-336 0.5
337 0.5
-337 0.5
338 0.5
-338 0.5
339 0.5
-339 0.5
340 0.5
-340 0.5
341 0.5
-341 0.5
342 0.98758
-342 0.01242
343 0.60146
-343 0.39854
344 0.034413
-344 0.965587
345 0.665705
-345 0.334295
346 0.5
-346 0.5
347 0.5
-347 0.5
348 0.5
-348 0.5
349 0.5
-349 0.5
350 0.5
-350 0.5
351 0.5
-351 0.5
352 0.5
-352 0.5
353 0.5
-353 0.5
354 0.5
-354 0.5
355 0.5
-355 0.5
356 0.5
-356 0.5
357 0.5
-357 0.5
358 0.5
-358 0.5
359 0.5
-359 0.5
360 0.5
-360 0.5
361 0.5
-361 0.5
362 0.228282
-362 0.771718
363 0.509121
-363 0.490879
364 0.710746
-364 0.289254
365 0.07488
-365 0.92512
366 0.5
-366 0.5
367 0.5
-367 0.5
368 0.5
-368 0.5
369 0.5
-369 0.5
370 0.5
-370 0.5
371 0.5
-371 0.5
372 0.5
-372 0.5
373 0.5
-373 0.5
374 0.5
-374 0.5
375 0.5
-375 0.5
376 0.5
-376 0.5
377 0.5
-377 0.5
378 0.5
-378 0.5
379 0.5
-379 0.5
380 0.5
-380 0.5
381 0.5
-381 0.5
382 0.5
-382 0.5
383 0.5
-383 0.5
384 0.777715
-384 0.222285
385 0.494513
-385 0.505487
386 0.838608
-386 0.161392
387 0.005997
-387 0.994003
388 0.5
-388 0.5
389 0.5
-389 0.5
390 0.5
-390 0.5
391 0.5
-391 0.5
392 0.5
-392 0.5
393 0.5
-393 0.5
394 0.5
-394 0.5
395 0.5
-395 0.5
396 0.5
-396 0.5
397 0.5
-397 0.5
398 0.5
-398 0.5
399 0.5
-399 0.5
400 0.606675
-400 0.393325
401 0.912137
-401 0.087863
402 0.560369
-402 0.439631
403 0.165188
-403 0.834812
404 0.5
-404 0.5
405 0.5
-405 0.5
406 0.5
-406 0.5
407 0.5
-407 0.5
408 0.5
-408 0.5
409 0.5
-409 0.5
410 0.5
-410 0.5
411 0.5
-411 0.5
412 0.5
-412 0.5
413 0.5
-413 0.5
414 0.5
-414 0.5
415 0.5
-415 0.5
416 0.5
-416 0.5
417 0.5
-417 0.5
418 0.5
-418 0.5
419 0.5
-419 0.5
420 0.5
-420 0.5
421 0.5
-421 0.5
422 0.5
-422 0.5
423 0.5
-423 0.5
424 0.398689
-424 0.601311
425 0.145398
-425 0.854602
426 0.892513
-426 0.107487
427 0.959058
-427 0.040942
428 0.5
-428 0.5
429 0.5
-429 0.5
430 0.086316
-430 0.913684
431 0.840006
-431 0.159994
432 0.750442
-432 0.249558
433 0.235255
-433 0.764745
434 0.5
-434 0.5
435 0.5
-435 0.5
436 0.5
-436 0.5
437 0.5
-437 0.5
438 0.5
-438 0.5
439 0.5
-439 0.5
440 0.5
-440 0.5
441 0.5
-441 0.5
442 0.5
-442 0.5
443 0.5
-443 0.5
444 0.5
-444 0.5
445 0.5
-445 0.5
446 0.787997
-446 0.212003
447 0.428016
-447 0.571984
448 0.466813
-448 0.533187
449 0.768373
-449 0.231627
450 0.5
-450 0.5
451 0.5
-451 0.5
452 0.5
-452 0.5
453 0.5
-453 0.5
454 0.5
-454 0.5
455 0.5
-455 0.5
456 0.5
-456 0.5
457 0.5
-457 0.5
458 0.5
-458 0.5
459 0.5
-459 0.5
460 0.5
-460 0.5
461 0.5
-461 0.5
462 0.5
-462 0.5
463 0.5
-463 0.5
464 0.5
-464 0.5
465 0.5
-465 0.5
466 0.720913
-466 0.279087
467 0.967313
-467 0.032687
468 0.162652
-468 0.837348
469 0.7445
-469 0.2555
470 0.5
-470 0.5
471 0.5
-471 0.5
472 0.5
-472 0.5
473 0.5
-473 0.5
474 0.974428
-474 0.025572
475 0.379909
-475 0.620091
476 0.784986
-476 0.215014
477 0.897225
-477 0.102775
478 0.5
-478 0.5
479 0.5
-479 0.5
480 0.5
-480 0.5
481 0.5
-481 0.5
482 0.5
-482 0.5
483 0.5
-483 0.5
484 0.5
-484 0.5
485 0.5
-485 0.5
486 0.5
-486 0.5
487 0.5
-487 0.5
488 0.999356
-488 0.000644
489 0.04067
-489 0.959329
490 0.738011
-490 0.261989
491 0.951295
-491 0.048705
492 0.5
-492 0.5
493 0.5
-493 0.5
494 0.5
-494 0.5
495 0.5
-495 0.5
496 0.5
-496 0.5
497 0.5
-497 0.5
498 0.5
-498 0.5
499 0.5
-499 0.5
500 0.163527
-500 0.836473
501 0.462808
-501 0.537192
502 0.834596
-502 0.165404
503 0.166439
-503 0.833561
504 0.740935
-504 0.259065
505 0.632361
-505 0.367639
506 0.903701
-506 0.096299
507 0.891642
-507 0.108358
508 0.5
-508 0.5
509 0.5
-509 0.5
510 0.5
-510 0.5
511 0.5
-511 0.5
512 0.5
-512 0.5
513 0.5
-513 0.5
514 0.5
-514 0.5
515 0.5
-515 0.5
516 0.5
-516 0.5
517 0.5
-517 0.5
518 0.5
-518 0.5
519 0.5
-519 0.5
520 0.5
-520 0.5
521 0.5
-521 0.5
522 0.5
-522 0.5
523 0.5
-523 0.5
524 0.5
-524 0.5
525 0.5
-525 0.5
526 0.5
-526 0.5
527 0.5
-527 0.5
528 0.5
-528 0.5
529 0.5
-529 0.5
530 0.5
-530 0.5
531 0.5
-531 0.5
532 0.5
-532 0.5
533 0.5
-533 0.5
534 0.5
-534 0.5
535 0.5
-535 0.5
536 0.5
-536 0.5
537 0.5
-537 0.5
538 0.5
-538 0.5
539 0.5
-539 0.5
540 0.5
-540 0.5
541 0.5
-541 0.5
542 0.5
-542 0.5
543 0.5
-543 0.5
544 0.5
-544 0.5
545 0.5
-545 0.5
546 0.5
-546 0.5
547 0.5
-547 0.5
548 0.5
-548 0.5
549 0.5
-549 0.5
550 0.5
-550 0.5
551 0.5
-551 0.5
552 0.5
-552 0.5
553 0.5
-553 0.5
554 0.503361
-554 0.496639
555 0.622406
-555 0.377594
556 0.250274
-556 0.749726
557 0.244913
-557 0.755087
558 0.5
-558 0.5
559 0.5
-559 0.5
560 0.5
-560 0.5
561 0.5
-561 0.5
562 0.5
-562 0.5
563 0.5
-563 0.5
564 0.5
-564 0.5
565 0.5
-565 0.5
566 0.5
-566 0.5
567 0.5
-567 0.5
568 0.5
-568 0.5
569 0.5
-569 0.5
570 0.5
-570 0.5
571 0.5
-571 0.5
572 0.5
-572 0.5
573 0.5
-573 0.5
574 0.5
-574 0.5
575 0.5
-575 0.5
576 0.5
-576 0.5
577 0.5
-577 0.5
578 0.5
-578 0.5
579 0.5
-579 0.5
580 0.5
-580 0.5
581 0.5
-581 0.5
582 0.5
-582 0.5
583 0.5
-583 0.5
584 0.5
-584 0.5
585 0.5
-585 0.5
586 0.99753
-586 0.00247
587 0.17135
-587 0.82865
588 0.809552
-588 0.190448
589 0.054
-589 0.946
590 0.5
-590 0.5
591 0.5
-591 0.5
592 0.5
-592 0.5
593 0.5
-593 0.5
594 0.5
-594 0.5
595 0.5
-595 0.5
596 0.5
-596 0.5
597 0.5
-597 0.5
598 0.5
-598 0.5
599 0.5
-599 0.5
600 0.5
-600 0.5
601 0.5
-601 0.5
602 0.5
-602 0.5
603 0.5
-603 0.5
604 0.5
-604 0.5
605 0.5
-605 0.5
606 0.5
-606 0.5
607 0.5
-607 0.5
608 0.5
-608 0.5
609 0.5
-609 0.5
610 0.5
-610 0.5
611 0.5
-611 0.5
612 0.5
-612 0.5
613 0.5
-613 0.5
614 0.5
-614 0.5
615 0.5
-615 0.5
616 0.5
-616 0.5
617 0.5
-617 0.5
618 0.5
-618 0.5
619 0.5
-619 0.5
620 0.5
-620 0.5
621 0.5
-621 0.5
622 0.5
-622 0.5
623 0.5
-623 0.5
624 0.392919
-624 0.607081
625 0.69513
-625 0.30487
626 0.22837
-626 0.77163
627 0.560038
-627 0.439962
628 0.5
-628 0.5
629 0.5
-629 0.5
630 0.5
-630 0.5
631 0.5
-631 0.5
632 0.5
-632 0.5
633 0.5
-633 0.5
634 0.5
-634 0.5
635 0.5
-635 0.5
636 0.5
-636 0.5
637 0.5
-637 0.5
638 0.5
-638 0.5
639 0.5
-639 0.5
640 0.5
-640 0.5
641 0.5
-641 0.5
642 0.5
-642 0.5
643 0.5
-643 0.5
644 0.5
-644 0.5
645 0.5
-645 0.5
646 0.5
-646 0.5
647 0.5
-647 0.5
648 0.5
-648 0.5
649 0.5
-649 0.5
650 0.5
-650 0.5
651 0.5
-651 0.5
652 0.5
-652 0.5
653 0.5
-653 0.5
654 0.5
-654 0.5
655 0.5
-655 0.5
656 0.5
-656 0.5
657 0.5
-657 0.5
658 0.5
-658 0.5
659 0.5
-659 0.5
660 0.5
-660 0.5
661 0.5
-661 0.5
662 0.5
-662 0.5
663 0.5
-663 0.5
664 0.5
-664 0.5
665 0.5
-665 0.5
666 0.5
-666 0.5
667 0.5
-667 0.5
668 0.5
-668 0.5
669 0.5
-669 0.5
670 0.5
-670 0.5
671 0.5
-671 0.5
672 0.5
-672 0.5
673 0.5
-673 0.5
674 0.5
-674 0.5
675 0.5
-675 0.5
676 0.5
-676 0.5
677 0.5
-677 0.5
678 0.5
-678 0.5
679 0.5
-679 0.5
680 0.5
-680 0.5
681 0.5
-681 0.5
682 0.658486
-682 0.341514
683 0.919422
-683 0.080578
684 0.612382
-684 0.387618
685 0.314846
-685 0.685154
686 0.5
-686 0.5
687 0.5
-687 0.5
688 0.5
-688 0.5
689 0.5
-689 0.5
690 0.5
-690 0.5
691 0.5
-691 0.5
692 0.5
-692 0.5
693 0.5
-693 0.5
694 0.5
-694 0.5
695 0.5
-695 0.5
696 0.5
-696 0.5
697 0.5
-697 0.5
698 0.5
-698 0.5
699 0.5
-699 0.5
700 0.5
-700 0.5
701 0.5
-701 0.5
702 0.5
-702 0.5
703 0.5
-703 0.5
704 0.5
-704 0.5
705 0.5
-705 0.5
706 0.5
-706 0.5
707 0.5
-707 0.5
708 0.5
-708 0.5
709 0.5
-709 0.5
710 0.5
-710 0.5
711 0.5
-711 0.5
712 0.5
-712 0.5
713 0.5
-713 0.5
714 0.5
-714 0.5
715 0.5
-715 0.5
716 0.5
-716 0.5
717 0.5
-717 0.5
718 0.5
-718 0.5
719 0.5
-719 0.5
720 0.5
-720 0.5
721 0.5
-721 0.5
722 0.5
-722 0.5
723 0.5
-723 0.5
724 0.5
-724 0.5
725 0.5
-725 0.5
726 0.5
-726 0.5
727 0.5
-727 0.5
728 0.5
-728 0.5
729 0.5
-729 0.5
730 0.5
-730 0.5
731 0.5
-731 0.5
732 0.5
-732 0.5
733 0.5
-733 0.5
734 0.5
-734 0.5
735 0.5
-735 0.5
736 0.5
-736 0.5
737 0.5
-737 0.5
738 0.5
-738 0.5
739 0.5
-739 0.5
740 0.5
-740 0.5
741 0.5
-741 0.5
742 0.5
-742 0.5
743 0.5
-743 0.5
744 0.5
-744 0.5
745 0.5
-745 0.5
746 0.5
-746 0.5
747 0.5
-747 0.5
748 0.5
-748 0.5
749 0.5
-749 0.5
750 0.5
-750 0.5
751 0.5
-751 0.5
752 0.5
-752 0.5
753 0.5
-753 0.5
754 0.5
-754 0.5
755 0.5
-755 0.5
756 0.5
-756 0.5
757 0.5
-757 0.5
758 0.5
-758 0.5
759 0.5
-759 0.5
760 0.5
-760 0.5
761 0.5
-761 0.5
762 0.5
-762 0.5
763 0.5
-763 0.5
764 0.207488
-764 0.792512
765 0.230268
-765 0.769732
766 0.397167
-766 0.602833
767 0.320878
-767 0.679122
768 0.5
-768 0.5
769 0.5
-769 0.5
770 0.5
-770 0.5
771 0.5
-771 0.5
772 0.5
-772 0.5
773 0.5
-773 0.5
774 0.5
-774 0.5
775 0.5
-775 0.5
776 0.5
-776 0.5
777 0.5
-777 0.5
778 0.593666
-778 0.406334
779 0.026382
-779 0.973618
780 0.016983
-780 0.983017
781 0.330799
-781 0.669201
782 0.5
-782 0.5
783 0.5
-783 0.5
784 0.5
-784 0.5
785 0.5
-785 0.5
786 0.5
-786 0.5
787 0.5
-787 0.5
788 0.5
-788 0.5
789 0.5
-789 0.5
790 0.5
-790 0.5
791 0.5
-791 0.5
792 0.5
-792 0.5
793 0.5
-793 0.5
794 0.5
-794 0.5
795 0.5
-795 0.5
796 0.5
-796 0.5
797 0.5
-797 0.5
798 0.5
-798 0.5
799 0.5
-799 0.5
800 0.5
-800 0.5
801 0.5
-801 0.5
802 0.5
-802 0.5
803 0.5
-803 0.5
804 0.5
-804 0.5
805 0.5
-805 0.5
806 0.5
-806 0.5
807 0.5
-807 0.5
808 0.5
-808 0.5
809 0.5
-809 0.5
810 0.941963
-810 0.058037
811 0.179712
-811 0.820288
812 0.216628
-812 0.783372
813 0.710931
-813 0.289069
814 0.5
-814 0.5
815 0.5
-815 0.5
816 0.5
-816 0.5
817 0.5
-817 0.5
818 0.5
-818 0.5
819 0.5
-819 0.5
820 0.5
-820 0.5
821 0.5
-821 0.5
822 0.5
-822 0.5
823 0.5
-823 0.5
824 0.5
-824 0.5
825 0.5
-825 0.5
826 0.5
-826 0.5
827 0.5
-827 0.5
828 0.5
-828 0.5
829 0.5
-829 0.5
830 0.97753
-830 0.02247
831 0.596002
-831 0.403998
832 0.462891
-832 0.537109
833 0.358013
-833 0.641987
834 0.5
-834 0.5
835 0.5
-835 0.5
836 0.5
-836 0.5
837 0.5
-837 0.5
838 0.5
-838 0.5
839 0.5
-839 0.5
840 0.5
-840 0.5
841 0.5
-841 0.5
842 0.5
-842 0.5
843 0.5
-843 0.5
844 0.5
-844 0.5
845 0.5
-845 0.5
846 0.5
-846 0.5
847 0.5
-847 0.5
848 0.5
-848 0.5
849 0.5
-849 0.5
850 0.5
-850 0.5
851 0.5
-851 0.5
852 0.5
-852 0.5
853 0.5
-853 0.5
854 0.5
-854 0.5
855 0.5
-855 0.5
856 0.5
-856 0.5
857 0.5
-857 0.5
858 0.5
-858 0.5
859 0.5
-859 0.5
860 0.5
-860 0.5
861 0.5
-861 0.5
862 0.5
-862 0.5
863 0.5
-863 0.5
864 0.5
-864 0.5
865 0.5
-865 0.5
866 0.5
-866 0.5
867 0.5
-867 0.5
868 0.5
-868 0.5
869 0.5
-869 0.5
870 0.5
-870 0.5
871 0.5
-871 0.5
872 0.5
-872 0.5
873 0.5
-873 0.5
874 0.5
-874 0.5
875 0.5
-875 0.5
876 0.5
-876 0.5
877 0.5
-877 0.5
878 0.5
-878 0.5
879 0.5
-879 0.5
880 0.5
-880 0.5
881 0.5
-881 0.5
882 0.5
-882 0.5
883 0.5
-883 0.5
884 0.620165
-884 0.379835
885 0.980966
-885 0.019034
886 0.498641
-886 0.501359
887 0.812811
-887 0.187189
888 0.5
-888 0.5
889 0.5
-889 0.5
890 0.5
-890 0.5
891 0.5
-891 0.5
892 0.5
-892 0.5
893 0.5
-893 0.5
894 0.5
-894 0.5
895 0.5
-895 0.5
896 0.5
-896 0.5
897 0.5
-897 0.5
898 0.224904
-898 0.775096
899 0.563838
-899 0.436162
900 0.424741
-900 0.575259
901 0.917678
-901 0.082322
902 0.5
-902 0.5
903 0.5
-903 0.5
904 0.5
-904 0.5
905 0.5
-905 0.5
906 0.5
-906 0.5
907 0.5
-907 0.5
908 0.5
-908 0.5
909 0.5
-909 0.5
910 0.5
-910 0.5
911 0.5
-911 0.5
912 0.5
-912 0.5
913 0.5
-913 0.5
914 0.5
-914 0.5
915 0.5
-915 0.5
916 0.5
-916 0.5
917 0.5
-917 0.5
918 0.5
-918 0.5
919 0.5
-919 0.5
920 0.5
-920 0.5
921 0.5
-921 0.5
922 0.5
-922 0.5
923 0.5
-923 0.5
924 0.5
-924 0.5
925 0.5
-925 0.5
926 0.5
-926 0.5
927 0.5
-927 0.5
928 0.5
-928 0.5
929 0.5
-929 0.5
930 0.5
-930 0.5
931 0.5
-931 0.5
932 0.5
-932 0.5
933 0.5
-933 0.5
934 0.5
-934 0.5
935 0.5
-935 0.5
936 0.5
-936 0.5
937 0.5
-937 0.5
938 0.5
-938 0.5
939 0.5
-939 0.5
940 0.5
-940 0.5
941 0.5
-941 0.5
942 0.5
-942 0.5
943 0.5
-943 0.5
944 0.5
-944 0.5
945 0.5
-945 0.5
946 0.5
-946 0.5
947 0.5
-947 0.5
948 0.5
-948 0.5
949 0.5
-949 0.5
950 0.5
-950 0.5
951 0.5
-951 0.5
952 0.5
-952 0.5
953 0.5
-953 0.5
954 0.5
-954 0.5
955 0.5
-955 0.5
956 0.5
-956 0.5
957 0.5
-957 0.5
958 0.5
-958 0.5
959 0.5
-959 0.5
960 0.5
-960 0.5
961 0.5
-961 0.5
962 0.5
-962 0.5
963 0.5
-963 0.5
964 0.5
-964 0.5
965 0.5
-965 0.5
966 0.5
-966 0.5
967 0.5
-967 0.5
968 0.5
-968 0.5
969 0.5
-969 0.5
970 0.5
-970 0.5
971 0.5
-971 0.5
972 0.5
-972 0.5
973 0.5
-973 0.5
974 0.5
-974 0.5
975 0.5
-975 0.5
976 0.5
-976 0.5
977 0.5
-977 0.5
978 0.5
-978 0.5
979 0.5
-979 0.5
980 0.5
-980 0.5
981 0.5
-981 0.5
982 0.5
-982 0.5
983 0.5
-983 0.5
984 0.5
-984 0.5
985 0.5
-985 0.5
986 0.5
-986 0.5
987 0.5
-987 0.5
988 0.5
-988 0.5
989 0.5
-989 0.5
990 0.5
-990 0.5
991 0.5
-991 0.5
992 0.5
-992 0.5
993 0.5
-993 0.5
994 0.5
-994 0.5
995 0.5
-995 0.5
996 0.5
-996 0.5
997 0.5
-997 0.5
998 0.5
-998 0.5
999 0.5
-999 0.5
1000 0.166649
-1000 0.833351
1001 0.807203
-1001 0.192797
1002 0.317078
-1002 0.682922
1003 0.677596
-1003 0.322404
1004 0.218334
-1004 0.781666
1005 0.452732
-1005 0.547268
1006 0.233645
-1006 0.766355
1007 0.548764
-1007 0.451236
1008 0.5
-1008 0.5
1009 0.5
-1009 0.5
1010 0.690642
-1010 0.309358
1011 0.920361
-1011 0.079639
1012 0.724157
-1012 0.275843
1013 0.390028
-1013 0.609972
1014 0.5
-1014 0.5
1015 0.5
-1015 0.5
1016 0.5
-1016 0.5
1017 0.5
-1017 0.5
1018 0.094573
-1018 0.905427
1019 0.441464
-1019 0.558536
1020 0.825015
-1020 0.174985
1021 0.92472
-1021 0.07528
1022 0.5
-1022 0.5
1023 0.5
-1023 0.5
1024 0.5
-1024 0.5
1025 0.5
-1025 0.5
1026 0.5
-1026 0.5
1027 0.5
-1027 0.5
1028 0.5
-1028 0.5
1029 0.5
-1029 0.5
1030 0.5
-1030 0.5
1031 0.5
-1031 0.5
1032 0.5
-1032 0.5
1033 0.5
-1033 0.5
1034 0.5
-1034 0.5
1035 0.5
-1035 0.5
1036 0.5
-1036 0.5
1037 0.5
-1037 0.5
1038 0.265941
-1038 0.734059
1039 0.902861
-1039 0.097139
1040 0.166319
-1040 0.833681
1041 0.721383
-1041 0.278617
1042 0.5
-1042 0.5
1043 0.5
-1043 0.5
1044 0.5
-1044 0.5
1045 0.5
-1045 0.5
1046 0.5
-1046 0.5
1047 0.5
-1047 0.5
1048 0.5
-1048 0.5
1049 0.5
-1049 0.5
1050 0.5
-1050 0.5
1051 0.5
-1051 0.5
1052 0.5
-1052 0.5
1053 0.5
-1053 0.5
1054 0.5
-1054 0.5
1055 0.5
-1055 0.5
1056 0.5
-1056 0.5
1057 0.5
-1057 0.5
1058 0.5
-1058 0.5
1059 0.5
-1059 0.5
1060 0.5
-1060 0.5
1061 0.5
-1061 0.5
1062 0.5
-1062 0.5
1063 0.5
-1063 0.5
1064 0.5
-1064 0.5
1065 0.5
-1065 0.5
