c weights for uf200-085.cnf (vars=200)
1 0.17
-1 0.83
2 0.56
-2 0.44
3 0.33
-3 0.67
4 0.72
-4 0.28
5 0.78
-5 0.22
6 0.01
-6 0.99
7 0.10
-7 0.90
8 0.52
-8 0.48
9 0.94
-9 0.06
10 0.81
-10 0.19
11 0.19
-11 0.81
12 0.69
-12 0.31
13 0.71
-13 0.29
14 0.25
-14 0.75
15 0.14
-15 0.86
16 0.42
-16 0.58
17 0.39
-17 0.61
18 0.93
-18 0.07
19 0.92
-19 0.08
20 0.79
-20 0.21
21 0.38
-21 0.62
22 0.48
-22 0.52
23 0.07
-23 0.93
24 0.35
-24 0.65
25 0.56
-25 0.44
26 0.69
-26 0.31
27 0.94
-27 0.06
28 0.10
-28 0.90
29 0.57
-29 0.43
30 0.97
-30 0.03
31 0.61
-31 0.39
32 0.84
-32 0.16
33 0.88
-33 0.12
34 0.12
-34 0.88
35 0.81
-35 0.19
36 0.09
-36 0.91
37 0.19
-37 0.81
38 0.09
-38 0.91
39 0.87
-39 0.13
40 0.74
-40 0.26
41 0.23
-41 0.77
42 0.81
-42 0.19
43 0.79
-43 0.21
44 0.06
-44 0.94
45 0.57
-45 0.43
46 0.21
-46 0.79
47 0.04
-47 0.96
48 0.08
-48 0.92
49 0.43
-49 0.57
50 0.32
-50 0.68
51 0.02
-51 0.98
52 0.95
-52 0.05
53 0.26
-53 0.74
54 0.70
-54 0.30
55 0.98
-55 0.02
56 0.09
-56 0.91
57 0.50
-57 0.50
58 0.78
-58 0.22
59 0.56
-59 0.44
60 0.33
-60 0.67
61 0.30
-61 0.70
62 0.80
-62 0.20
63 0.15
-63 0.85
64 0.57
-64 0.43
65 0.47
-65 0.53
66 0.59
-66 0.41
67 0.57
-67 0.43
68 0.86
-68 0.14
69 0.41
-69 0.59
70 0.14
-70 0.86
71 0.26
-71 0.74
72 0.95
-72 0.05
73 0.76
-73 0.24
74 0.42
-74 0.58
75 0.73
-75 0.27
76 0.95
-76 0.05
77 0.79
-77 0.21
78 0.51
-78 0.49
79 0.15
-79 0.85
80 0.47
-80 0.53
81 0.80
-81 0.20
82 0.80
-82 0.20
83 0.09
-83 0.91
84 0.89
-84 0.11
85 0.72
-85 0.28
86 0.08
-86 0.92
87 0.26
-87 0.74
88 0.05
-88 0.95
89 0.35
-89 0.65
90 0.56
-90 0.44
91 0.61
-91 0.39
92 0.23
-92 0.77
93 0.19
-93 0.81
94 0.47
-94 0.53
95 0.30
-95 0.70
96 0.96
-96 0.04
97 0.78
-97 0.22
98 0.72
-98 0.28
99 0.44
-99 0.56
100 0.52
-100 0.48
101 0.87
-101 0.13
102 0.25
-102 0.75
103 0.86
-103 0.14
104 0.16
-104 0.84
105 0.53
-105 0.47
106 0.41
-106 0.59
107 0.28
-107 0.72
108 0.54
-108 0.46
109 0.05
-109 0.95
110 0.43
-110 0.57
111 0.20
-111 0.80
112 0.55
-112 0.45
113 0.98
-113 0.02
114 0.99
-114 0.01
115 0.88
-115 0.12
116 0.92
-116 0.08
117 0.50
-117 0.50
118 0.55
-118 0.45
119 0.96
-119 0.04
120 0.32
-120 0.68
121 0.23
-121 0.77
122 0.91
-122 0.09
123 0.79
-123 0.21
124 0.63
-124 0.37
125 0.84
-125 0.16
126 0.41
-126 0.59
127 0.15
-127 0.85
128 0.06
-128 0.94
129 0.34
-129 0.66
130 0.45
-130 0.55
131 0.45
-131 0.55
132 0.28
-132 0.72
133 0.06
-133 0.94
134 0.36
-134 0.64
135 0.62
-135 0.38
136 0.36
-136 0.64
137 0.37
-137 0.63
138 0.40
-138 0.60
139 0.21
-139 0.79
140 0.19
-140 0.81
141 0.82
-141 0.18
142 0.59
-142 0.41
143 0.54
-143 0.46
144 0.34
-144 0.66
145 0.76
-145 0.24
146 0.11
-146 0.89
147 0.49
-147 0.51
148 0.70
-148 0.30
149 0.73
-149 0.27
150 0.66
-150 0.34
151 0.60
-151 0.40
152 0.88
-152 0.12
153 0.11
-153 0.89
154 0.09
-154 0.91
155 0.11
-155 0.89
156 0.77
-156 0.23
157 0.93
-157 0.07
158 0.10
-158 0.90
159 0.98
-159 0.02
160 0.03
-160 0.97
161 0.33
-161 0.67
162 0.30
-162 0.70
163 0.93
-163 0.07
164 0.68
-164 0.32
165 0.06
-165 0.94
166 0.70
-166 0.30
167 0.17
-167 0.83
168 0.03
-168 0.97
169 0.71
-169 0.29
170 0.37
-170 0.63
171 0.24
-171 0.76
172 0.81
-172 0.19
173 0.92
-173 0.08
174 0.69
-174 0.31
175 0.09
-175 0.91
176 0.18
-176 0.82
177 0.01
-177 0.99
178 0.09
-178 0.91
179 0.14
-179 0.86
180 0.44
-180 0.56
181 0.32
-181 0.68
182 0.79
-182 0.21
183 0.56
-183 0.44
184 0.86
-184 0.14
185 0.07
-185 0.93
186 0.16
-186 0.84
187 0.42
-187 0.58
188 0.81
-188 0.19
189 0.91
-189 0.09
190 0.09
-190 0.91
191 0.12
-191 0.88
192 0.22
-192 0.78
193 0.72
-193 0.28
194 0.19
-194 0.81
195 0.87
-195 0.13
196 0.96
-196 0.04
197 0.65
-197 0.35
198 0.68
-198 0.32
199 0.26
-199 0.74
200 0.63
-200 0.37
