c weights for uf200-058.cnf (vars=200)
1 0.86
-1 0.14
2 0.14
-2 0.86
3 0.42
-3 0.58
4 0.84
-4 0.16
5 0.06
-5 0.94
6 0.63
-6 0.37
7 0.07
-7 0.93
8 0.11
-8 0.89
9 0.54
-9 0.46
10 0.97
-10 0.03
11 0.20
-11 0.80
12 0.61
-12 0.39
13 0.03
-13 0.97
14 0.83
-14 0.17
15 0.84
-15 0.16
16 0.32
-16 0.68
17 0.71
-17 0.29
18 0.90
-18 0.10
19 0.59
-19 0.41
20 0.94
-20 0.06
21 0.52
-21 0.48
22 0.93
-22 0.07
23 0.41
-23 0.59
24 0.83
-24 0.17
25 0.67
-25 0.33
26 0.07
-26 0.93
27 0.82
-27 0.18
28 0.50
-28 0.50
29 0.72
-29 0.28
30 0.09
-30 0.91
31 0.44
-31 0.56
32 0.28
-32 0.72
33 0.20
-33 0.80
34 0.51
-34 0.49
35 0.18
-35 0.82
36 0.74
-36 0.26
37 0.83
-37 0.17
38 0.01
-38 0.99
39 0.28
-39 0.72
40 0.35
-40 0.65
41 0.34
-41 0.66
42 0.57
-42 0.43
43 0.69
-43 0.31
44 0.56
-44 0.44
45 0.46
-45 0.54
46 0.12
-46 0.88
47 0.10
-47 0.90
48 0.72
-48 0.28
49 0.19
-49 0.81
50 0.59
-50 0.41
51 0.96
-51 0.04
52 0.76
-52 0.24
53 0.78
-53 0.22
54 0.22
-54 0.78
55 0.38
-55 0.62
56 0.09
-56 0.91
57 0.72
-57 0.28
58 0.25
-58 0.75
59 0.83
-59 0.17
60 0.64
-60 0.36
61 0.89
-61 0.11
62 0.20
-62 0.80
63 0.75
-63 0.25
64 0.14
-64 0.86
65 0.06
-65 0.94
66 0.70
-66 0.30
67 0.18
-67 0.82
68 0.15
-68 0.85
69 0.32
-69 0.68
70 0.23
-70 0.77
71 0.19
-71 0.81
72 0.88
-72 0.12
73 0.18
-73 0.82
74 0.30
-74 0.70
75 0.69
-75 0.31
76 0.27
-76 0.73
77 0.49
-77 0.51
78 0.58
-78 0.42
79 0.35
-79 0.65
80 0.64
-80 0.36
81 0.45
-81 0.55
82 0.63
-82 0.37
83 0.83
-83 0.17
84 0.05
-84 0.95
85 0.83
-85 0.17
86 0.39
-86 0.61
87 0.54
-87 0.46
88 0.22
-88 0.78
89 0.70
-89 0.30
90 0.35
-90 0.65
91 0.80
-91 0.20
92 0.79
-92 0.21
93 0.21
-93 0.79
94 0.70
-94 0.30
95 0.50
-95 0.50
96 0.82
-96 0.18
97 0.79
-97 0.21
98 0.10
-98 0.90
99 0.77
-99 0.23
100 0.26
-100 0.74
101 0.47
-101 0.53
102 0.04
-102 0.96
103 0.12
-103 0.88
104 0.66
-104 0.34
105 0.19
-105 0.81
106 0.15
-106 0.85
107 0.59
-107 0.41
108 0.37
-108 0.63
109 0.38
-109 0.62
110 0.59
-110 0.41
111 0.04
-111 0.96
112 0.70
-112 0.30
113 0.63
-113 0.37
114 0.86
-114 0.14
115 0.02
-115 0.98
116 0.42
-116 0.58
117 0.34
-117 0.66
118 0.64
-118 0.36
119 0.11
-119 0.89
120 0.90
-120 0.10
121 0.31
-121 0.69
122 0.47
-122 0.53
123 0.19
-123 0.81
124 0.03
-124 0.97
125 0.80
-125 0.20
126 0.46
-126 0.54
127 0.57
-127 0.43
128 0.44
-128 0.56
129 0.40
-129 0.60
130 0.83
-130 0.17
131 0.26
-131 0.74
132 0.38
-132 0.62
133 0.34
-133 0.66
134 0.67
-134 0.33
135 0.30
-135 0.70
136 0.96
-136 0.04
137 0.87
-137 0.13
138 0.76
-138 0.24
139 0.89
-139 0.11
140 0.51
-140 0.49
141 0.42
-141 0.58
142 0.77
-142 0.23
143 0.94
-143 0.06
144 0.40
-144 0.60
145 0.04
-145 0.96
146 0.51
-146 0.49
147 0.91
-147 0.09
148 0.88
-148 0.12
149 0.96
-149 0.04
150 0.93
-150 0.07
151 0.20
-151 0.80
152 0.96
-152 0.04
153 0.75
-153 0.25
154 0.14
-154 0.86
155 0.34
-155 0.66
156 0.95
-156 0.05
157 0.96
-157 0.04
158 0.31
-158 0.69
159 0.76
-159 0.24
160 0.80
-160 0.20
161 0.46
-161 0.54
162 0.17
-162 0.83
163 0.01
-163 0.99
164 0.15
-164 0.85
165 0.88
-165 0.12
166 0.31
-166 0.69
167 0.09
-167 0.91
168 0.24
-168 0.76
169 0.21
-169 0.79
170 0.10
-170 0.90
171 0.25
-171 0.75
172 0.68
-172 0.32
173 0.84
-173 0.16
174 0.38
-174 0.62
175 0.48
-175 0.52
176 0.35
-176 0.65
177 0.47
-177 0.53
178 0.68
-178 0.32
179 0.69
-179 0.31
180 0.90
-180 0.10
181 0.67
-181 0.33
182 0.82
-182 0.18
183 0.70
-183 0.30
184 0.76
-184 0.24
185 0.10
-185 0.90
186 0.14
-186 0.86
187 0.76
-187 0.24
188 0.14
-188 0.86
189 0.77
-189 0.23
190 0.89
-190 0.11
191 0.81
-191 0.19
192 0.73
-192 0.27
193 0.43
-193 0.57
194 0.40
-194 0.60
195 0.08
-195 0.92
196 0.49
-196 0.51
197 0.74
-197 0.26
198 0.58
-198 0.42
199 0.23
-199 0.77
200 0.61
-200 0.39
