c weights for uf200-080.cnf (vars=200)
1 0.11
-1 0.89
2 0.29
-2 0.71
3 0.78
-3 0.22
4 0.68
-4 0.32
5 0.62
-5 0.38
6 0.15
-6 0.85
7 0.34
-7 0.66
8 0.02
-8 0.98
9 0.66
-9 0.34
10 0.97
-10 0.03
11 0.16
-11 0.84
12 0.29
-12 0.71
13 0.14
-13 0.86
14 0.83
-14 0.17
15 0.59
-15 0.41
16 0.70
-16 0.30
17 0.37
-17 0.63
18 0.96
-18 0.04
19 0.72
-19 0.28
20 0.83
-20 0.17
21 0.07
-21 0.93
22 0.74
-22 0.26
23 0.65
-23 0.35
24 0.80
-24 0.20
25 0.22
-25 0.78
26 0.66
-26 0.34
27 0.59
-27 0.41
28 0.14
-28 0.86
29 0.69
-29 0.31
30 0.50
-30 0.50
31 0.03
-31 0.97
32 0.11
-32 0.89
33 0.96
-33 0.04
34 0.13
-34 0.87
35 0.28
-35 0.72
36 0.43
-36 0.57
37 0.36
-37 0.64
38 0.33
-38 0.67
39 0.37
-39 0.63
40 0.31
-40 0.69
41 0.92
-41 0.08
42 0.22
-42 0.78
43 0.04
-43 0.96
44 0.93
-44 0.07
45 0.88
-45 0.12
46 0.77
-46 0.23
47 0.04
-47 0.96
48 0.98
-48 0.02
49 0.92
-49 0.08
50 0.42
-50 0.58
51 0.36
-51 0.64
52 0.17
-52 0.83
53 0.24
-53 0.76
54 0.49
-54 0.51
55 0.07
-55 0.93
56 0.60
-56 0.40
57 0.07
-57 0.93
58 0.71
-58 0.29
59 0.95
-59 0.05
60 0.43
-60 0.57
61 0.85
-61 0.15
62 0.03
-62 0.97
63 0.23
-63 0.77
64 0.13
-64 0.87
65 0.29
-65 0.71
66 0.65
-66 0.35
67 0.89
-67 0.11
68 0.35
-68 0.65
69 0.27
-69 0.73
70 0.86
-70 0.14
71 0.82
-71 0.18
72 0.68
-72 0.32
73 0.64
-73 0.36
74 0.23
-74 0.77
75 0.71
-75 0.29
76 0.29
-76 0.71
77 0.25
-77 0.75
78 0.13
-78 0.87
79 0.61
-79 0.39
80 0.90
-80 0.10
81 0.41
-81 0.59
82 0.50
-82 0.50
83 0.91
-83 0.09
84 0.64
-84 0.36
85 0.37
-85 0.63
86 0.89
-86 0.11
87 0.31
-87 0.69
88 0.07
-88 0.93
89 0.44
-89 0.56
90 0.67
-90 0.33
91 0.99
-91 0.01
92 0.37
-92 0.63
93 0.43
-93 0.57
94 0.18
-94 0.82
95 0.25
-95 0.75
96 0.48
-96 0.52
97 0.11
-97 0.89
98 0.83
-98 0.17
99 0.26
-99 0.74
100 0.44
-100 0.56
101 0.12
-101 0.88
102 0.55
-102 0.45
103 0.76
-103 0.24
104 0.79
-104 0.21
105 0.51
-105 0.49
106 0.05
-106 0.95
107 0.04
-107 0.96
108 0.90
-108 0.10
109 0.79
-109 0.21
110 0.55
-110 0.45
111 0.11
-111 0.89
112 0.40
-112 0.60
113 0.76
-113 0.24
114 0.10
-114 0.90
115 0.17
-115 0.83
116 0.52
-116 0.48
117 0.54
-117 0.46
118 0.52
-118 0.48
119 0.81
-119 0.19
120 0.67
-120 0.33
121 0.45
-121 0.55
122 0.16
-122 0.84
123 0.04
-123 0.96
124 0.72
-124 0.28
125 0.96
-125 0.04
126 0.70
-126 0.30
127 0.46
-127 0.54
128 0.20
-128 0.80
129 0.05
-129 0.95
130 0.45
-130 0.55
131 0.25
-131 0.75
132 0.46
-132 0.54
133 0.23
-133 0.77
134 0.09
-134 0.91
135 0.06
-135 0.94
136 0.86
-136 0.14
137 0.36
-137 0.64
138 0.53
-138 0.47
139 0.28
-139 0.72
140 0.30
-140 0.70
141 0.80
-141 0.20
142 0.18
-142 0.82
143 0.70
-143 0.30
144 0.03
-144 0.97
145 0.56
-145 0.44
146 0.19
-146 0.81
147 0.53
-147 0.47
148 0.53
-148 0.47
149 0.36
-149 0.64
150 0.43
-150 0.57
151 0.43
-151 0.57
152 0.26
-152 0.74
153 0.04
-153 0.96
154 0.13
-154 0.87
155 0.02
-155 0.98
156 0.20
-156 0.80
157 0.67
-157 0.33
158 0.86
-158 0.14
159 0.21
-159 0.79
160 0.40
-160 0.60
161 0.82
-161 0.18
162 0.91
-162 0.09
163 0.44
-163 0.56
164 0.26
-164 0.74
165 0.44
-165 0.56
166 0.40
-166 0.60
167 0.82
-167 0.18
168 0.09
-168 0.91
169 0.58
-169 0.42
170 0.52
-170 0.48
171 0.82
-171 0.18
172 0.70
-172 0.30
173 0.48
-173 0.52
174 0.04
-174 0.96
175 0.97
-175 0.03
176 0.40
-176 0.60
177 0.43
-177 0.57
178 0.31
-178 0.69
179 0.33
-179 0.67
180 0.59
-180 0.41
181 0.75
-181 0.25
182 0.79
-182 0.21
183 0.06
-183 0.94
184 0.59
-184 0.41
185 0.66
-185 0.34
186 0.13
-186 0.87
187 0.26
-187 0.74
188 0.03
-188 0.97
189 0.65
-189 0.35
190 0.58
-190 0.42
191 0.54
-191 0.46
192 0.93
-192 0.07
193 0.08
-193 0.92
194 0.71
-194 0.29
195 0.75
-195 0.25
196 0.85
-196 0.15
197 0.63
-197 0.37
198 0.27
-198 0.73
199 0.01
-199 0.99
200 0.25
-200 0.75
