c weights for uf200-012.cnf (vars=200)
1 0.29
-1 0.71
2 0.30
-2 0.70
3 0.59
-3 0.41
4 0.99
-4 0.01
5 0.49
-5 0.51
6 0.16
-6 0.84
7 0.54
-7 0.46
8 0.35
-8 0.65
9 0.55
-9 0.45
10 0.54
-10 0.46
11 0.46
-11 0.54
12 0.33
-12 0.67
13 0.19
-13 0.81
14 0.69
-14 0.31
15 0.57
-15 0.43
16 0.24
-16 0.76
17 0.77
-17 0.23
18 0.05
-18 0.95
19 0.74
-19 0.26
20 0.70
-20 0.30
21 0.81
-21 0.19
22 0.39
-22 0.61
23 0.66
-23 0.34
24 0.81
-24 0.19
25 0.97
-25 0.03
26 0.50
-26 0.50
27 0.05
-27 0.95
28 0.50
-28 0.50
29 0.59
-29 0.41
30 0.86
-30 0.14
31 0.87
-31 0.13
32 0.44
-32 0.56
33 0.53
-33 0.47
34 0.46
-34 0.54
35 0.72
-35 0.28
36 0.41
-36 0.59
37 0.65
-37 0.35
38 0.16
-38 0.84
39 0.47
-39 0.53
40 0.96
-40 0.04
41 0.34
-41 0.66
42 0.69
-42 0.31
43 0.65
-43 0.35
44 0.84
-44 0.16
45 0.85
-45 0.15
46 0.85
-46 0.15
47 0.38
-47 0.62
48 0.32
-48 0.68
49 0.71
-49 0.29
50 0.75
-50 0.25
51 0.86
-51 0.14
52 0.05
-52 0.95
53 0.08
-53 0.92
54 0.63
-54 0.37
55 0.91
-55 0.09
56 0.99
-56 0.01
57 0.74
-57 0.26
58 0.44
-58 0.56
59 0.11
-59 0.89
60 0.63
-60 0.37
61 0.87
-61 0.13
62 0.44
-62 0.56
63 0.69
-63 0.31
64 0.90
-64 0.10
65 0.06
-65 0.94
66 0.79
-66 0.21
67 0.30
-67 0.70
68 0.38
-68 0.62
69 0.15
-69 0.85
70 0.53
-70 0.47
71 0.56
-71 0.44
72 0.79
-72 0.21
73 0.18
-73 0.82
74 0.09
-74 0.91
75 0.86
-75 0.14
76 0.62
-76 0.38
77 0.25
-77 0.75
78 0.90
-78 0.10
79 0.15
-79 0.85
80 0.46
-80 0.54
81 0.26
-81 0.74
82 0.26
-82 0.74
83 0.02
-83 0.98
84 0.80
-84 0.20
85 0.89
-85 0.11
86 0.67
-86 0.33
87 0.16
-87 0.84
88 0.44
-88 0.56
89 0.35
-89 0.65
90 0.59
-90 0.41
91 0.64
-91 0.36
92 0.43
-92 0.57
93 0.26
-93 0.74
94 0.84
-94 0.16
95 0.21
-95 0.79
96 0.39
-96 0.61
97 0.48
-97 0.52
98 0.24
-98 0.76
99 0.57
-99 0.43
100 0.57
-100 0.43
101 0.98
-101 0.02
102 0.30
-102 0.70
103 0.97
-103 0.03
104 0.66
-104 0.34
105 0.28
-105 0.72
106 0.56
-106 0.44
107 0.68
-107 0.32
108 0.74
-108 0.26
109 0.06
-109 0.94
110 0.60
-110 0.40
111 0.50
-111 0.50
112 0.90
-112 0.10
113 0.29
-113 0.71
114 0.79
-114 0.21
115 0.60
-115 0.40
116 0.36
-116 0.64
117 0.63
-117 0.37
118 0.62
-118 0.38
119 0.67
-119 0.33
120 0.72
-120 0.28
121 0.66
-121 0.34
122 0.83
-122 0.17
123 0.63
-123 0.37
124 0.90
-124 0.10
125 0.64
-125 0.36
126 0.31
-126 0.69
127 0.44
-127 0.56
128 0.58
-128 0.42
129 0.73
-129 0.27
130 0.10
-130 0.90
131 0.30
-131 0.70
132 0.74
-132 0.26
133 0.18
-133 0.82
134 0.14
-134 0.86
135 0.54
-135 0.46
136 0.96
-136 0.04
137 0.53
-137 0.47
138 0.91
-138 0.09
139 0.82
-139 0.18
140 0.26
-140 0.74
141 0.82
-141 0.18
142 0.48
-142 0.52
143 0.80
-143 0.20
144 0.74
-144 0.26
145 0.34
-145 0.66
146 0.12
-146 0.88
147 0.95
-147 0.05
148 0.15
-148 0.85
149 0.96
-149 0.04
150 0.85
-150 0.15
151 0.72
-151 0.28
152 0.97
-152 0.03
153 0.96
-153 0.04
154 0.80
-154 0.20
155 0.37
-155 0.63
156 0.78
-156 0.22
157 0.02
-157 0.98
158 0.54
-158 0.46
159 0.46
-159 0.54
160 0.67
-160 0.33
161 0.67
-161 0.33
162 0.58
-162 0.42
163 0.82
-163 0.18
164 0.93
-164 0.07
165 0.12
-165 0.88
166 0.24
-166 0.76
167 0.03
-167 0.97
168 0.88
-168 0.12
169 0.56
-169 0.44
170 0.91
-170 0.09
171 0.23
-171 0.77
172 0.07
-172 0.93
173 0.82
-173 0.18
174 0.90
-174 0.10
175 0.31
-175 0.69
176 0.41
-176 0.59
177 0.15
-177 0.85
178 0.94
-178 0.06
179 0.31
-179 0.69
180 0.49
-180 0.51
181 0.11
-181 0.89
182 0.88
-182 0.12
183 0.14
-183 0.86
184 0.45
-184 0.55
185 0.67
-185 0.33
186 0.74
-186 0.26
187 0.94
-187 0.06
188 0.42
-188 0.58
189 0.74
-189 0.26
190 0.16
-190 0.84
191 0.42
-191 0.58
192 0.11
-192 0.89
193 0.49
-193 0.51
194 0.41
-194 0.59
195 0.94
-195 0.06
196 0.04
-196 0.96
197 0.37
-197 0.63
198 0.44
-198 0.56
199 0.94
-199 0.06
200 0.85
-200 0.15
