c weights for uf200-079.cnf (vars=200)
1 0.04
-1 0.96
2 0.64
-2 0.36
3 0.52
-3 0.48
4 0.95
-4 0.05
5 0.94
-5 0.06
6 0.56
-6 0.44
7 0.03
-7 0.97
8 0.32
-8 0.68
9 0.49
-9 0.51
10 0.68
-10 0.32
11 0.82
-11 0.18
12 0.23
-12 0.77
13 0.20
-13 0.80
14 0.63
-14 0.37
15 0.13
-15 0.87
16 0.67
-16 0.33
17 0.51
-17 0.49
18 0.58
-18 0.42
19 0.92
-19 0.08
20 0.12
-20 0.88
21 0.48
-21 0.52
22 0.48
-22 0.52
23 0.06
-23 0.94
24 0.52
-24 0.48
25 0.70
-25 0.30
26 0.58
-26 0.42
27 0.27
-27 0.73
28 0.05
-28 0.95
29 0.83
-29 0.17
30 0.22
-30 0.78
31 0.31
-31 0.69
32 0.33
-32 0.67
33 0.45
-33 0.55
34 0.33
-34 0.67
35 0.33
-35 0.67
36 0.12
-36 0.88
37 0.72
-37 0.28
38 0.37
-38 0.63
39 0.88
-39 0.12
40 0.81
-40 0.19
41 0.48
-41 0.52
42 0.84
-42 0.16
43 0.52
-43 0.48
44 0.24
-44 0.76
45 0.43
-45 0.57
46 0.84
-46 0.16
47 0.05
-47 0.95
48 0.95
-48 0.05
49 0.27
-49 0.73
50 0.84
-50 0.16
51 0.69
-51 0.31
52 0.64
-52 0.36
53 0.12
-53 0.88
54 0.94
-54 0.06
55 0.79
-55 0.21
56 0.04
-56 0.96
57 0.36
-57 0.64
58 0.46
-58 0.54
59 0.61
-59 0.39
60 0.94
-60 0.06
61 0.13
-61 0.87
62 0.59
-62 0.41
63 0.47
-63 0.53
64 0.07
-64 0.93
65 0.73
-65 0.27
66 0.14
-66 0.86
67 0.48
-67 0.52
68 0.28
-68 0.72
69 0.14
-69 0.86
70 0.84
-70 0.16
71 0.53
-71 0.47
72 0.85
-72 0.15
73 0.35
-73 0.65
74 0.17
-74 0.83
75 0.14
-75 0.86
76 0.33
-76 0.67
77 0.80
-77 0.20
78 0.80
-78 0.20
79 0.43
-79 0.57
80 0.07
-80 0.93
81 0.33
-81 0.67
82 0.77
-82 0.23
83 0.51
-83 0.49
84 0.79
-84 0.21
85 0.45
-85 0.55
86 0.44
-86 0.56
87 0.30
-87 0.70
88 0.17
-88 0.83
89 0.49
-89 0.51
90 0.34
-90 0.66
91 0.34
-91 0.66
92 0.74
-92 0.26
93 0.67
-93 0.33
94 0.54
-94 0.46
95 0.34
-95 0.66
96 0.59
-96 0.41
97 0.96
-97 0.04
98 0.79
-98 0.21
99 0.32
-99 0.68
100 0.71
-100 0.29
101 0.61
-101 0.39
102 0.18
-102 0.82
103 0.14
-103 0.86
104 0.95
-104 0.05
105 0.90
-105 0.10
106 0.96
-106 0.04
107 0.81
-107 0.19
108 0.43
-108 0.57
109 0.34
-109 0.66
110 0.14
-110 0.86
111 0.84
-111 0.16
112 0.87
-112 0.13
113 0.05
-113 0.95
114 0.80
-114 0.20
115 0.38
-115 0.62
116 0.23
-116 0.77
117 0.64
-117 0.36
118 0.24
-118 0.76
119 0.95
-119 0.05
120 0.14
-120 0.86
121 0.87
-121 0.13
122 0.88
-122 0.12
123 0.82
-123 0.18
124 0.79
-124 0.21
125 0.86
-125 0.14
126 0.08
-126 0.92
127 0.02
-127 0.98
128 0.34
-128 0.66
129 0.04
-129 0.96
130 0.21
-130 0.79
131 0.63
-131 0.37
132 0.55
-132 0.45
133 0.19
-133 0.81
134 0.11
-134 0.89
135 0.31
-135 0.69
136 0.84
-136 0.16
137 0.52
-137 0.48
138 0.39
-138 0.61
139 0.58
-139 0.42
140 0.99
-140 0.01
141 0.49
-141 0.51
142 0.50
-142 0.50
143 0.84
-143 0.16
144 0.98
-144 0.02
145 0.23
-145 0.77
146 0.45
-146 0.55
147 0.63
-147 0.37
148 0.44
-148 0.56
149 0.94
-149 0.06
150 0.64
-150 0.36
151 0.16
-151 0.84
152 0.02
-152 0.98
153 0.37
-153 0.63
154 0.52
-154 0.48
155 0.73
-155 0.27
156 0.17
-156 0.83
157 0.37
-157 0.63
158 0.21
-158 0.79
159 0.95
-159 0.05
160 0.53
-160 0.47
161 0.80
-161 0.20
162 0.18
-162 0.82
163 0.54
-163 0.46
164 0.81
-164 0.19
165 0.73
-165 0.27
166 0.20
-166 0.80
167 0.07
-167 0.93
168 0.21
-168 0.79
169 0.15
-169 0.85
170 0.83
-170 0.17
171 0.02
-171 0.98
172 0.31
-172 0.69
173 0.10
-173 0.90
174 0.38
-174 0.62
175 0.02
-175 0.98
176 0.10
-176 0.90
177 0.25
-177 0.75
178 0.27
-178 0.73
179 0.17
-179 0.83
180 0.71
-180 0.29
181 0.46
-181 0.54
182 0.03
-182 0.97
183 0.17
-183 0.83
184 0.47
-184 0.53
185 0.52
-185 0.48
186 0.10
-186 0.90
187 0.46
-187 0.54
188 0.78
-188 0.22
189 0.89
-189 0.11
190 0.48
-190 0.52
191 0.32
-191 0.68
192 0.74
-192 0.26
193 0.37
-193 0.63
194 0.63
-194 0.37
195 0.48
-195 0.52
196 0.38
-196 0.62
197 0.86
-197 0.14
198 0.93
-198 0.07
199 0.33
-199 0.67
200 0.62
-200 0.38
