c weights for uf200-026.cnf (vars=200)
1 0.13
-1 0.87
2 0.01
-2 0.99
3 0.59
-3 0.41
4 0.54
-4 0.46
5 0.94
-5 0.06
6 0.31
-6 0.69
7 0.74
-7 0.26
8 0.90
-8 0.10
9 0.35
-9 0.65
10 0.41
-10 0.59
11 0.64
-11 0.36
12 0.51
-12 0.49
13 0.17
-13 0.83
14 0.23
-14 0.77
15 0.83
-15 0.17
16 0.20
-16 0.80
17 0.19
-17 0.81
18 0.79
-18 0.21
19 0.85
-19 0.15
20 0.84
-20 0.16
21 0.92
-21 0.08
22 0.98
-22 0.02
23 0.46
-23 0.54
24 0.55
-24 0.45
25 0.29
-25 0.71
26 0.08
-26 0.92
27 0.11
-27 0.89
28 0.72
-28 0.28
29 0.49
-29 0.51
30 0.33
-30 0.67
31 0.14
-31 0.86
32 0.65
-32 0.35
33 0.11
-33 0.89
34 0.62
-34 0.38
35 0.89
-35 0.11
36 0.32
-36 0.68
37 0.45
-37 0.55
38 0.61
-38 0.39
39 0.31
-39 0.69
40 0.58
-40 0.42
41 0.56
-41 0.44
42 0.37
-42 0.63
43 0.32
-43 0.68
44 0.43
-44 0.57
45 0.01
-45 0.99
46 0.25
-46 0.75
47 0.23
-47 0.77
48 0.74
-48 0.26
49 0.44
-49 0.56
50 0.83
-50 0.17
51 0.14
-51 0.86
52 0.73
-52 0.27
53 0.87
-53 0.13
54 0.46
-54 0.54
55 0.36
-55 0.64
56 0.31
-56 0.69
57 0.55
-57 0.45
58 0.18
-58 0.82
59 0.60
-59 0.40
60 0.83
-60 0.17
61 0.85
-61 0.15
62 0.15
-62 0.85
63 0.54
-63 0.46
64 0.27
-64 0.73
65 0.88
-65 0.12
66 0.08
-66 0.92
67 0.08
-67 0.92
68 0.03
-68 0.97
69 0.51
-69 0.49
70 0.04
-70 0.96
71 0.58
-71 0.42
72 0.41
-72 0.59
73 0.59
-73 0.41
74 0.90
-74 0.10
75 0.55
-75 0.45
76 0.54
-76 0.46
77 0.99
-77 0.01
78 0.47
-78 0.53
79 0.77
-79 0.23
80 0.37
-80 0.63
81 0.23
-81 0.77
82 0.77
-82 0.23
83 0.73
-83 0.27
84 0.30
-84 0.70
85 0.47
-85 0.53
86 0.51
-86 0.49
87 0.40
-87 0.60
88 0.50
-88 0.50
89 0.66
-89 0.34
90 0.84
-90 0.16
91 0.80
-91 0.20
92 0.61
-92 0.39
93 0.17
-93 0.83
94 0.51
-94 0.49
95 0.45
-95 0.55
96 0.19
-96 0.81
97 0.94
-97 0.06
98 0.66
-98 0.34
99 0.96
-99 0.04
100 0.73
-100 0.27
101 0.48
-101 0.52
102 0.36
-102 0.64
103 0.22
-103 0.78
104 0.49
-104 0.51
105 0.07
-105 0.93
106 0.37
-106 0.63
107 0.05
-107 0.95
108 0.21
-108 0.79
109 0.90
-109 0.10
110 0.36
-110 0.64
111 0.47
-111 0.53
112 0.46
-112 0.54
113 0.06
-113 0.94
114 0.97
-114 0.03
115 0.33
-115 0.67
116 0.70
-116 0.30
117 0.52
-117 0.48
118 0.82
-118 0.18
119 0.83
-119 0.17
120 0.27
-120 0.73
121 0.54
-121 0.46
122 0.18
-122 0.82
123 0.65
-123 0.35
124 0.37
-124 0.63
125 0.65
-125 0.35
126 0.83
-126 0.17
127 0.52
-127 0.48
128 0.38
-128 0.62
129 0.90
-129 0.10
130 0.52
-130 0.48
131 0.36
-131 0.64
132 0.86
-132 0.14
133 0.49
-133 0.51
134 0.48
-134 0.52
135 0.60
-135 0.40
136 0.50
-136 0.50
137 0.15
-137 0.85
138 0.17
-138 0.83
139 0.09
-139 0.91
140 0.64
-140 0.36
141 0.22
-141 0.78
142 0.19
-142 0.81
143 0.36
-143 0.64
144 0.71
-144 0.29
145 0.13
-145 0.87
146 0.24
-146 0.76
147 0.80
-147 0.20
148 0.72
-148 0.28
149 0.48
-149 0.52
150 0.48
-150 0.52
151 0.22
-151 0.78
152 0.17
-152 0.83
153 0.83
-153 0.17
154 0.03
-154 0.97
155 0.05
-155 0.95
156 0.57
-156 0.43
157 0.17
-157 0.83
158 0.63
-158 0.37
159 0.05
-159 0.95
160 0.57
-160 0.43
161 0.06
-161 0.94
162 0.26
-162 0.74
163 0.19
-163 0.81
164 0.95
-164 0.05
165 0.60
-165 0.40
166 0.56
-166 0.44
167 0.03
-167 0.97
168 0.72
-168 0.28
169 0.66
-169 0.34
170 0.29
-170 0.71
171 0.09
-171 0.91
172 0.45
-172 0.55
173 0.98
-173 0.02
174 0.86
-174 0.14
175 0.18
-175 0.82
176 0.82
-176 0.18
177 0.60
-177 0.40
178 0.79
-178 0.21
179 0.81
-179 0.19
180 0.19
-180 0.81
181 0.66
-181 0.34
182 0.27
-182 0.73
183 0.72
-183 0.28
184 0.35
-184 0.65
185 0.45
-185 0.55
186 0.59
-186 0.41
187 0.24
-187 0.76
188 0.39
-188 0.61
189 0.12
-189 0.88
190 0.21
-190 0.79
191 0.85
-191 0.15
192 0.50
-192 0.50
193 0.42
-193 0.58
194 0.16
-194 0.84
195 0.10
-195 0.90
196 0.48
-196 0.52
197 0.61
-197 0.39
198 0.05
-198 0.95
199 0.78
-199 0.22
200 0.50
-200 0.50
