c weights for uf200-050.cnf (vars=200)
1 0.59
-1 0.41
2 0.54
-2 0.46
3 0.38
-3 0.62
4 0.84
-4 0.16
5 0.68
-5 0.32
6 0.44
-6 0.56
7 0.29
-7 0.71
8 0.62
-8 0.38
9 0.92
-9 0.08
10 0.85
-10 0.15
11 0.99
-11 0.01
12 0.80
-12 0.20
13 0.11
-13 0.89
14 0.65
-14 0.35
15 0.61
-15 0.39
16 0.41
-16 0.59
17 0.50
-17 0.50
18 0.75
-18 0.25
19 0.92
-19 0.08
20 0.11
-20 0.89
21 0.45
-21 0.55
22 0.58
-22 0.42
23 0.04
-23 0.96
24 0.29
-24 0.71
25 0.42
-25 0.58
26 0.23
-26 0.77
27 0.46
-27 0.54
28 0.38
-28 0.62
29 0.20
-29 0.80
30 0.47
-30 0.53
31 0.13
-31 0.87
32 0.96
-32 0.04
33 0.91
-33 0.09
34 0.41
-34 0.59
35 0.81
-35 0.19
36 0.70
-36 0.30
37 0.74
-37 0.26
38 0.02
-38 0.98
39 0.38
-39 0.62
40 0.23
-40 0.77
41 0.29
-41 0.71
42 0.87
-42 0.13
43 0.27
-43 0.73
44 0.83
-44 0.17
45 0.79
-45 0.21
46 0.42
-46 0.58
47 0.25
-47 0.75
48 0.89
-48 0.11
49 0.42
-49 0.58
50 0.03
-50 0.97
51 0.16
-51 0.84
52 0.38
-52 0.62
53 0.81
-53 0.19
54 0.81
-54 0.19
55 0.60
-55 0.40
56 0.34
-56 0.66
57 0.95
-57 0.05
58 0.98
-58 0.02
59 0.25
-59 0.75
60 0.96
-60 0.04
61 0.20
-61 0.80
62 0.64
-62 0.36
63 0.82
-63 0.18
64 0.80
-64 0.20
65 0.58
-65 0.42
66 0.14
-66 0.86
67 0.63
-67 0.37
68 0.97
-68 0.03
69 0.18
-69 0.82
70 0.90
-70 0.10
71 0.52
-71 0.48
72 0.44
-72 0.56
73 0.11
-73 0.89
74 0.80
-74 0.20
75 0.50
-75 0.50
76 0.63
-76 0.37
77 0.78
-77 0.22
78 0.84
-78 0.16
79 0.62
-79 0.38
80 0.27
-80 0.73
81 0.55
-81 0.45
82 0.94
-82 0.06
83 0.21
-83 0.79
84 0.10
-84 0.90
85 0.44
-85 0.56
86 0.63
-86 0.37
87 0.59
-87 0.41
88 0.04
-88 0.96
89 0.70
-89 0.30
90 0.91
-90 0.09
91 0.09
-91 0.91
92 0.38
-92 0.62
93 0.74
-93 0.26
94 0.14
-94 0.86
95 0.45
-95 0.55
96 0.63
-96 0.37
97 0.36
-97 0.64
98 0.24
-98 0.76
99 0.89
-99 0.11
100 0.30
-100 0.70
101 0.53
-101 0.47
102 0.25
-102 0.75
103 0.77
-103 0.23
104 0.78
-104 0.22
105 0.76
-105 0.24
106 0.66
-106 0.34
107 0.28
-107 0.72
108 0.93
-108 0.07
109 0.62
-109 0.38
110 0.64
-110 0.36
111 0.58
-111 0.42
112 0.11
-112 0.89
113 0.46
-113 0.54
114 0.59
-114 0.41
115 0.11
-115 0.89
116 0.29
-116 0.71
117 0.89
-117 0.11
118 0.10
-118 0.90
119 0.49
-119 0.51
120 0.36
-120 0.64
121 0.83
-121 0.17
122 0.39
-122 0.61
123 0.49
-123 0.51
124 0.03
-124 0.97
125 0.08
-125 0.92
126 0.95
-126 0.05
127 0.08
-127 0.92
128 0.68
-128 0.32
129 0.38
-129 0.62
130 0.32
-130 0.68
131 0.90
-131 0.10
132 0.80
-132 0.20
133 0.19
-133 0.81
134 0.02
-134 0.98
135 0.19
-135 0.81
136 0.57
-136 0.43
137 0.60
-137 0.40
138 0.04
-138 0.96
139 0.97
-139 0.03
140 0.98
-140 0.02
141 0.48
-141 0.52
142 0.61
-142 0.39
143 0.55
-143 0.45
144 0.17
-144 0.83
145 0.74
-145 0.26
146 0.92
-146 0.08
147 0.20
-147 0.80
148 0.04
-148 0.96
149 0.03
-149 0.97
150 0.51
-150 0.49
151 0.16
-151 0.84
152 0.86
-152 0.14
153 0.12
-153 0.88
154 0.22
-154 0.78
155 0.33
-155 0.67
156 0.23
-156 0.77
157 0.72
-157 0.28
158 0.93
-158 0.07
159 0.27
-159 0.73
160 0.48
-160 0.52
161 0.94
-161 0.06
162 0.35
-162 0.65
163 0.55
-163 0.45
164 0.30
-164 0.70
165 0.74
-165 0.26
166 0.50
-166 0.50
167 0.51
-167 0.49
168 0.40
-168 0.60
169 0.20
-169 0.80
170 0.18
-170 0.82
171 0.68
-171 0.32
172 0.88
-172 0.12
173 0.29
-173 0.71
174 0.39
-174 0.61
175 0.58
-175 0.42
176 0.76
-176 0.24
177 0.32
-177 0.68
178 0.79
-178 0.21
179 0.94
-179 0.06
180 0.49
-180 0.51
181 0.88
-181 0.12
182 0.43
-182 0.57
183 0.74
-183 0.26
184 0.81
-184 0.19
185 0.62
-185 0.38
186 0.61
-186 0.39
187 0.43
-187 0.57
188 0.57
-188 0.43
189 0.38
-189 0.62
190 0.63
-190 0.37
191 0.07
-191 0.93
192 0.17
-192 0.83
193 0.04
-193 0.96
194 0.51
-194 0.49
195 0.59
-195 0.41
196 0.30
-196 0.70
197 0.82
-197 0.18
198 0.64
-198 0.36
199 0.96
-199 0.04
200 0.36
-200 0.64
