c weights for uf200-076.cnf (vars=200)
1 0.39
-1 0.61
2 0.46
-2 0.54
3 0.50
-3 0.50
4 0.41
-4 0.59
5 0.55
-5 0.45
6 0.86
-6 0.14
7 0.88
-7 0.12
8 0.02
-8 0.98
9 0.19
-9 0.81
10 0.81
-10 0.19
11 0.99
-11 0.01
12 0.04
-12 0.96
13 0.11
-13 0.89
14 0.77
-14 0.23
15 0.12
-15 0.88
16 0.14
-16 0.86
17 0.60
-17 0.40
18 0.92
-18 0.08
19 0.25
-19 0.75
20 0.38
-20 0.62
21 0.47
-21 0.53
22 0.70
-22 0.30
23 0.27
-23 0.73
24 0.29
-24 0.71
25 0.97
-25 0.03
26 0.13
-26 0.87
27 0.72
-27 0.28
28 0.42
-28 0.58
29 0.01
-29 0.99
30 0.62
-30 0.38
31 0.22
-31 0.78
32 0.37
-32 0.63
33 0.79
-33 0.21
34 0.14
-34 0.86
35 0.07
-35 0.93
36 0.32
-36 0.68
37 0.08
-37 0.92
38 0.13
-38 0.87
39 0.53
-39 0.47
40 0.77
-40 0.23
41 0.29
-41 0.71
42 0.54
-42 0.46
43 0.23
-43 0.77
44 0.40
-44 0.60
45 0.48
-45 0.52
46 0.83
-46 0.17
47 0.58
-47 0.42
48 0.75
-48 0.25
49 0.41
-49 0.59
50 0.18
-50 0.82
51 0.72
-51 0.28
52 0.93
-52 0.07
53 0.60
-53 0.40
54 0.51
-54 0.49
55 0.08
-55 0.92
56 0.45
-56 0.55
57 0.34
-57 0.66
58 0.42
-58 0.58
59 0.10
-59 0.90
60 0.93
-60 0.07
61 0.69
-61 0.31
62 0.85
-62 0.15
63 0.30
-63 0.70
64 0.52
-64 0.48
65 0.41
-65 0.59
66 0.74
-66 0.26
67 0.82
-67 0.18
68 0.63
-68 0.37
69 0.77
-69 0.23
70 0.34
-70 0.66
71 0.49
-71 0.51
72 0.40
-72 0.60
73 0.44
-73 0.56
74 0.78
-74 0.22
75 0.06
-75 0.94
76 0.69
-76 0.31
77 0.12
-77 0.88
78 0.14
-78 0.86
79 0.77
-79 0.23
80 0.03
-80 0.97
81 0.05
-81 0.95
82 0.20
-82 0.80
83 0.98
-83 0.02
84 0.52
-84 0.48
85 0.21
-85 0.79
86 0.39
-86 0.61
87 0.88
-87 0.12
88 0.10
-88 0.90
89 0.86
-89 0.14
90 0.04
-90 0.96
91 0.16
-91 0.84
92 0.46
-92 0.54
93 0.32
-93 0.68
94 0.74
-94 0.26
95 0.11
-95 0.89
96 0.18
-96 0.82
97 0.22
-97 0.78
98 0.89
-98 0.11
99 0.36
-99 0.64
100 0.81
-100 0.19
101 0.51
-101 0.49
102 0.19
-102 0.81
103 0.57
-103 0.43
104 0.49
-104 0.51
105 0.84
-105 0.16
106 0.43
-106 0.57
107 0.56
-107 0.44
108 0.89
-108 0.11
109 0.62
-109 0.38
110 0.97
-110 0.03
111 0.82
-111 0.18
112 0.29
-112 0.71
113 0.95
-113 0.05
114 0.12
-114 0.88
115 0.31
-115 0.69
116 0.55
-116 0.45
117 0.79
-117 0.21
118 0.98
-118 0.02
119 0.77
-119 0.23
120 0.35
-120 0.65
121 0.24
-121 0.76
122 0.86
-122 0.14
123 0.90
-123 0.10
124 0.73
-124 0.27
125 0.53
-125 0.47
126 0.41
-126 0.59
127 0.22
-127 0.78
128 0.64
-128 0.36
129 0.61
-129 0.39
130 0.13
-130 0.87
131 0.11
-131 0.89
132 0.37
-132 0.63
133 0.69
-133 0.31
134 0.03
-134 0.97
135 0.82
-135 0.18
136 0.51
-136 0.49
137 0.98
-137 0.02
138 0.58
-138 0.42
139 0.07
-139 0.93
140 0.29
-140 0.71
141 0.57
-141 0.43
142 0.93
-142 0.07
143 0.71
-143 0.29
144 0.45
-144 0.55
145 0.26
-145 0.74
146 0.80
-146 0.20
147 0.40
-147 0.60
148 0.60
-148 0.40
149 0.57
-149 0.43
150 0.93
-150 0.07
151 0.42
-151 0.58
152 0.62
-152 0.38
153 0.80
-153 0.20
154 0.86
-154 0.14
155 0.65
-155 0.35
156 0.82
-156 0.18
157 0.64
-157 0.36
158 0.75
-158 0.25
159 0.74
-159 0.26
160 0.67
-160 0.33
161 0.76
-161 0.24
162 0.85
-162 0.15
163 0.10
-163 0.90
164 0.52
-164 0.48
165 0.15
-165 0.85
166 0.78
-166 0.22
167 0.58
-167 0.42
168 0.63
-168 0.37
169 0.57
-169 0.43
170 0.15
-170 0.85
171 0.56
-171 0.44
172 0.30
-172 0.70
173 0.77
-173 0.23
174 0.88
-174 0.12
175 0.57
-175 0.43
176 0.79
-176 0.21
177 0.85
-177 0.15
178 0.94
-178 0.06
179 0.88
-179 0.12
180 0.12
-180 0.88
181 0.83
-181 0.17
182 0.80
-182 0.20
183 0.23
-183 0.77
184 0.77
-184 0.23
185 0.77
-185 0.23
186 0.43
-186 0.57
187 0.56
-187 0.44
188 0.95
-188 0.05
189 0.06
-189 0.94
190 0.62
-190 0.38
191 0.03
-191 0.97
192 0.56
-192 0.44
193 0.16
-193 0.84
194 0.64
-194 0.36
195 0.46
-195 0.54
196 0.42
-196 0.58
197 0.88
-197 0.12
198 0.64
-198 0.36
199 0.18
-199 0.82
200 0.22
-200 0.78
