c weights for uf200-091.cnf (vars=200)
1 0.50
-1 0.50
2 0.52
-2 0.48
3 0.51
-3 0.49
4 0.58
-4 0.42
5 0.33
-5 0.67
6 0.28
-6 0.72
7 0.03
-7 0.97
8 0.17
-8 0.83
9 0.85
-9 0.15
10 0.61
-10 0.39
11 0.38
-11 0.62
12 0.51
-12 0.49
13 0.35
-13 0.65
14 0.61
-14 0.39
15 0.87
-15 0.13
16 0.20
-16 0.80
17 0.68
-17 0.32
18 0.50
-18 0.50
19 0.62
-19 0.38
20 0.90
-20 0.10
21 0.40
-21 0.60
22 0.63
-22 0.37
23 0.22
-23 0.78
24 0.94
-24 0.06
25 0.60
-25 0.40
26 0.32
-26 0.68
27 0.24
-27 0.76
28 0.19
-28 0.81
29 0.91
-29 0.09
30 0.47
-30 0.53
31 0.79
-31 0.21
32 0.17
-32 0.83
33 0.36
-33 0.64
34 0.16
-34 0.84
35 0.42
-35 0.58
36 0.88
-36 0.12
37 0.35
-37 0.65
38 0.09
-38 0.91
39 0.80
-39 0.20
40 0.14
-40 0.86
41 0.65
-41 0.35
42 0.57
-42 0.43
43 0.92
-43 0.08
44 0.16
-44 0.84
45 0.29
-45 0.71
46 0.08
-46 0.92
47 0.92
-47 0.08
48 0.95
-48 0.05
49 0.76
-49 0.24
50 0.22
-50 0.78
51 0.16
-51 0.84
52 0.32
-52 0.68
53 0.75
-53 0.25
54 0.70
-54 0.30
55 0.40
-55 0.60
56 0.44
-56 0.56
57 0.46
-57 0.54
58 0.72
-58 0.28
59 0.16
-59 0.84
60 0.41
-60 0.59
61 0.82
-61 0.18
62 0.72
-62 0.28
63 0.66
-63 0.34
64 0.94
-64 0.06
65 0.05
-65 0.95
66 0.38
-66 0.62
67 0.34
-67 0.66
68 0.26
-68 0.74
69 0.51
-69 0.49
70 0.64
-70 0.36
71 0.55
-71 0.45
72 0.11
-72 0.89
73 0.21
-73 0.79
74 0.11
-74 0.89
75 0.65
-75 0.35
76 0.76
-76 0.24
77 0.05
-77 0.95
78 0.28
-78 0.72
79 0.53
-79 0.47
80 0.84
-80 0.16
81 0.70
-81 0.30
82 0.16
-82 0.84
83 0.81
-83 0.19
84 0.09
-84 0.91
85 0.84
-85 0.16
86 0.10
-86 0.90
87 0.82
-87 0.18
88 0.78
-88 0.22
89 0.37
-89 0.63
90 0.30
-90 0.70
91 0.66
-91 0.34
92 0.88
-92 0.12
93 0.71
-93 0.29
94 0.54
-94 0.46
95 0.86
-95 0.14
96 0.54
-96 0.46
97 0.54
-97 0.46
98 0.98
-98 0.02
99 0.30
-99 0.70
100 0.02
-100 0.98
101 0.76
-101 0.24
102 0.12
-102 0.88
103 0.33
-103 0.67
104 0.56
-104 0.44
105 0.07
-105 0.93
106 0.31
-106 0.69
107 0.31
-107 0.69
108 0.14
-108 0.86
109 0.83
-109 0.17
110 0.01
-110 0.99
111 0.79
-111 0.21
112 0.18
-112 0.82
113 0.92
-113 0.08
114 0.91
-114 0.09
115 0.50
-115 0.50
116 0.64
-116 0.36
117 0.48
-117 0.52
118 0.83
-118 0.17
119 0.52
-119 0.48
120 0.77
-120 0.23
121 0.95
-121 0.05
122 0.64
-122 0.36
123 0.29
-123 0.71
124 0.86
-124 0.14
125 0.74
-125 0.26
126 0.77
-126 0.23
127 0.13
-127 0.87
128 0.44
-128 0.56
129 0.14
-129 0.86
130 0.30
-130 0.70
131 0.19
-131 0.81
132 0.61
-132 0.39
133 0.71
-133 0.29
134 0.44
-134 0.56
135 0.15
-135 0.85
136 0.08
-136 0.92
137 0.19
-137 0.81
138 0.31
-138 0.69
139 0.07
-139 0.93
140 0.29
-140 0.71
141 0.61
-141 0.39
142 0.53
-142 0.47
143 0.79
-143 0.21
144 0.12
-144 0.88
145 0.73
-145 0.27
146 0.93
-146 0.07
147 0.91
-147 0.09
148 0.57
-148 0.43
149 0.85
-149 0.15
150 0.86
-150 0.14
151 0.10
-151 0.90
152 0.86
-152 0.14
153 0.45
-153 0.55
154 0.82
-154 0.18
155 0.41
-155 0.59
156 0.61
-156 0.39
157 0.97
-157 0.03
158 0.28
-158 0.72
159 0.69
-159 0.31
160 0.10
-160 0.90
161 0.17
-161 0.83
162 0.69
-162 0.31
163 0.12
-163 0.88
164 0.55
-164 0.45
165 0.07
-165 0.93
166 0.87
-166 0.13
167 0.42
-167 0.58
168 0.03
-168 0.97
169 0.68
-169 0.32
170 0.17
-170 0.83
171 0.01
-171 0.99
172 0.02
-172 0.98
173 0.93
-173 0.07
174 0.74
-174 0.26
175 0.54
-175 0.46
176 0.20
-176 0.80
177 0.40
-177 0.60
178 0.87
-178 0.13
179 0.01
-179 0.99
180 0.63
-180 0.37
181 0.33
-181 0.67
182 0.19
-182 0.81
183 0.25
-183 0.75
184 0.53
-184 0.47
185 0.24
-185 0.76
186 0.71
-186 0.29
187 0.93
-187 0.07
188 0.55
-188 0.45
189 0.17
-189 0.83
190 0.42
-190 0.58
191 0.80
-191 0.20
192 0.18
-192 0.82
193 0.77
-193 0.23
194 0.76
-194 0.24
195 0.07
-195 0.93
196 0.45
-196 0.55
197 0.53
-197 0.47
198 0.43
-198 0.57
199 0.82
-199 0.18
200 0.75
-200 0.25
