c weights for uf200-09.cnf (vars=200)
1 0.77
-1 0.23
2 0.49
-2 0.51
3 0.38
-3 0.62
4 0.98
-4 0.02
5 0.56
-5 0.44
6 0.46
-6 0.54
7 0.91
-7 0.09
8 0.48
-8 0.52
9 0.71
-9 0.29
10 0.01
-10 0.99
11 0.42
-11 0.58
12 0.56
-12 0.44
13 0.40
-13 0.60
14 0.31
-14 0.69
15 0.66
-15 0.34
16 0.44
-16 0.56
17 0.40
-17 0.60
18 0.57
-18 0.43
19 0.59
-19 0.41
20 0.91
-20 0.09
21 0.88
-21 0.12
22 0.10
-22 0.90
23 0.81
-23 0.19
24 0.39
-24 0.61
25 0.35
-25 0.65
26 0.69
-26 0.31
27 0.04
-27 0.96
28 0.85
-28 0.15
29 0.04
-29 0.96
30 0.41
-30 0.59
31 0.36
-31 0.64
32 0.70
-32 0.30
33 0.47
-33 0.53
34 0.05
-34 0.95
35 0.73
-35 0.27
36 0.97
-36 0.03
37 0.56
-37 0.44
38 0.61
-38 0.39
39 0.95
-39 0.05
40 0.44
-40 0.56
41 0.12
-41 0.88
42 0.63
-42 0.37
43 0.65
-43 0.35
44 0.14
-44 0.86
45 0.69
-45 0.31
46 0.23
-46 0.77
47 0.21
-47 0.79
48 0.69
-48 0.31
49 0.59
-49 0.41
50 0.71
-50 0.29
51 0.19
-51 0.81
52 0.35
-52 0.65
53 0.17
-53 0.83
54 0.17
-54 0.83
55 0.42
-55 0.58
56 0.21
-56 0.79
57 0.30
-57 0.70
58 0.98
-58 0.02
59 0.85
-59 0.15
60 0.61
-60 0.39
61 0.91
-61 0.09
62 0.62
-62 0.38
63 0.56
-63 0.44
64 0.57
-64 0.43
65 0.34
-65 0.66
66 0.40
-66 0.60
67 0.91
-67 0.09
68 0.42
-68 0.58
69 0.44
-69 0.56
70 0.30
-70 0.70
71 0.33
-71 0.67
72 0.27
-72 0.73
73 0.89
-73 0.11
74 0.91
-74 0.09
75 0.74
-75 0.26
76 0.31
-76 0.69
77 0.26
-77 0.74
78 0.08
-78 0.92
79 0.89
-79 0.11
80 0.61
-80 0.39
81 0.40
-81 0.60
82 0.92
-82 0.08
83 0.59
-83 0.41
84 0.75
-84 0.25
85 0.25
-85 0.75
86 0.70
-86 0.30
87 0.85
-87 0.15
88 0.28
-88 0.72
89 0.45
-89 0.55
90 0.23
-90 0.77
91 0.87
-91 0.13
92 0.87
-92 0.13
93 0.27
-93 0.73
94 0.53
-94 0.47
95 0.67
-95 0.33
96 0.65
-96 0.35
97 0.56
-97 0.44
98 0.15
-98 0.85
99 0.06
-99 0.94
100 0.33
-100 0.67
101 0.42
-101 0.58
102 0.60
-102 0.40
103 0.48
-103 0.52
104 0.93
-104 0.07
105 0.98
-105 0.02
106 0.67
-106 0.33
107 0.53
-107 0.47
108 0.77
-108 0.23
109 0.52
-109 0.48
110 0.85
-110 0.15
111 0.27
-111 0.73
112 0.25
-112 0.75
113 0.11
-113 0.89
114 0.02
-114 0.98
115 0.89
-115 0.11
116 0.57
-116 0.43
117 0.14
-117 0.86
118 0.69
-118 0.31
119 0.12
-119 0.88
120 0.48
-120 0.52
121 0.05
-121 0.95
122 0.33
-122 0.67
123 0.89
-123 0.11
124 0.52
-124 0.48
125 0.20
-125 0.80
126 0.63
-126 0.37
127 0.78
-127 0.22
128 0.37
-128 0.63
129 0.47
-129 0.53
130 0.58
-130 0.42
131 0.85
-131 0.15
132 0.13
-132 0.87
133 0.25
-133 0.75
134 0.05
-134 0.95
135 0.28
-135 0.72
136 0.43
-136 0.57
137 0.31
-137 0.69
138 0.92
-138 0.08
139 0.16
-139 0.84
140 0.61
-140 0.39
141 0.57
-141 0.43
142 0.82
-142 0.18
143 0.15
-143 0.85
144 0.73
-144 0.27
145 0.36
-145 0.64
146 0.14
-146 0.86
147 0.12
-147 0.88
148 0.73
-148 0.27
149 0.46
-149 0.54
150 0.85
-150 0.15
151 0.86
-151 0.14
152 0.53
-152 0.47
153 0.59
-153 0.41
154 0.20
-154 0.80
155 0.58
-155 0.42
156 0.63
-156 0.37
157 0.83
-157 0.17
158 0.95
-158 0.05
159 0.55
-159 0.45
160 0.43
-160 0.57
161 0.80
-161 0.20
162 0.91
-162 0.09
163 0.61
-163 0.39
164 0.94
-164 0.06
165 0.27
-165 0.73
166 0.36
-166 0.64
167 0.30
-167 0.70
168 0.26
-168 0.74
169 0.33
-169 0.67
170 0.39
-170 0.61
171 0.09
-171 0.91
172 0.23
-172 0.77
173 0.54
-173 0.46
174 0.37
-174 0.63
175 0.88
-175 0.12
176 0.30
-176 0.70
177 0.19
-177 0.81
178 0.82
-178 0.18
179 0.16
-179 0.84
180 0.67
-180 0.33
181 0.14
-181 0.86
182 0.85
-182 0.15
183 0.20
-183 0.80
184 0.46
-184 0.54
185 0.19
-185 0.81
186 0.41
-186 0.59
187 0.65
-187 0.35
188 0.03
-188 0.97
189 0.24
-189 0.76
190 0.45
-190 0.55
191 0.58
-191 0.42
192 0.50
-192 0.50
193 0.69
-193 0.31
194 0.79
-194 0.21
195 0.40
-195 0.60
196 0.82
-196 0.18
197 0.82
-197 0.18
198 0.04
-198 0.96
199 0.79
-199 0.21
200 0.98
-200 0.02
