c weights for uf200-075.cnf (vars=200)
1 0.80
-1 0.20
2 0.58
-2 0.42
3 0.09
-3 0.91
4 0.20
-4 0.80
5 0.94
-5 0.06
6 0.11
-6 0.89
7 0.78
-7 0.22
8 0.54
-8 0.46
9 0.37
-9 0.63
10 0.78
-10 0.22
11 0.74
-11 0.26
12 0.60
-12 0.40
13 0.71
-13 0.29
14 0.98
-14 0.02
15 0.32
-15 0.68
16 0.67
-16 0.33
17 0.79
-17 0.21
18 0.50
-18 0.50
19 0.29
-19 0.71
20 0.30
-20 0.70
21 0.17
-21 0.83
22 0.54
-22 0.46
23 0.15
-23 0.85
24 0.66
-24 0.34
25 0.54
-25 0.46
26 0.29
-26 0.71
27 0.52
-27 0.48
28 0.76
-28 0.24
29 0.16
-29 0.84
30 0.82
-30 0.18
31 0.29
-31 0.71
32 0.62
-32 0.38
33 0.05
-33 0.95
34 0.38
-34 0.62
35 0.05
-35 0.95
36 0.44
-36 0.56
37 0.04
-37 0.96
38 0.60
-38 0.40
39 0.01
-39 0.99
40 0.27
-40 0.73
41 0.25
-41 0.75
42 0.35
-42 0.65
43 0.34
-43 0.66
44 0.36
-44 0.64
45 0.52
-45 0.48
46 0.53
-46 0.47
47 0.41
-47 0.59
48 0.56
-48 0.44
49 0.24
-49 0.76
50 0.16
-50 0.84
51 0.27
-51 0.73
52 0.23
-52 0.77
53 0.33
-53 0.67
54 0.66
-54 0.34
55 0.37
-55 0.63
56 0.82
-56 0.18
57 0.78
-57 0.22
58 0.38
-58 0.62
59 0.05
-59 0.95
60 0.71
-60 0.29
61 0.62
-61 0.38
62 0.06
-62 0.94
63 0.21
-63 0.79
64 0.41
-64 0.59
65 0.85
-65 0.15
66 0.56
-66 0.44
67 0.62
-67 0.38
68 0.78
-68 0.22
69 0.03
-69 0.97
70 0.62
-70 0.38
71 0.63
-71 0.37
72 0.93
-72 0.07
73 0.92
-73 0.08
74 0.19
-74 0.81
75 0.07
-75 0.93
76 0.27
-76 0.73
77 0.06
-77 0.94
78 0.13
-78 0.87
79 0.39
-79 0.61
80 0.83
-80 0.17
81 0.13
-81 0.87
82 0.55
-82 0.45
83 0.53
-83 0.47
84 0.01
-84 0.99
85 0.62
-85 0.38
86 0.26
-86 0.74
87 0.85
-87 0.15
88 0.18
-88 0.82
89 0.94
-89 0.06
90 0.50
-90 0.50
91 0.92
-91 0.08
92 0.52
-92 0.48
93 0.38
-93 0.62
94 0.76
-94 0.24
95 0.53
-95 0.47
96 0.07
-96 0.93
97 0.27
-97 0.73
98 0.16
-98 0.84
99 0.07
-99 0.93
100 0.69
-100 0.31
101 0.62
-101 0.38
102 0.30
-102 0.70
103 0.18
-103 0.82
104 0.57
-104 0.43
105 0.67
-105 0.33
106 0.73
-106 0.27
107 0.41
-107 0.59
108 0.17
-108 0.83
109 0.25
-109 0.75
110 0.42
-110 0.58
111 0.71
-111 0.29
112 0.37
-112 0.63
113 0.72
-113 0.28
114 0.53
-114 0.47
115 0.22
-115 0.78
116 0.31
-116 0.69
117 0.77
-117 0.23
118 0.09
-118 0.91
119 0.87
-119 0.13
120 0.82
-120 0.18
121 0.30
-121 0.70
122 0.97
-122 0.03
123 0.39
-123 0.61
124 0.36
-124 0.64
125 0.75
-125 0.25
126 0.75
-126 0.25
127 0.86
-127 0.14
128 0.05
-128 0.95
129 0.41
-129 0.59
130 0.23
-130 0.77
131 0.67
-131 0.33
132 0.34
-132 0.66
133 0.68
-133 0.32
134 0.30
-134 0.70
135 0.95
-135 0.05
136 0.90
-136 0.10
137 0.03
-137 0.97
138 0.09
-138 0.91
139 0.38
-139 0.62
140 0.41
-140 0.59
141 0.28
-141 0.72
142 0.29
-142 0.71
143 0.57
-143 0.43
144 0.81
-144 0.19
145 0.51
-145 0.49
146 0.91
-146 0.09
147 0.77
-147 0.23
148 0.73
-148 0.27
149 0.37
-149 0.63
150 0.55
-150 0.45
151 0.50
-151 0.50
152 0.18
-152 0.82
153 0.97
-153 0.03
154 0.33
-154 0.67
155 0.96
-155 0.04
156 0.47
-156 0.53
157 0.83
-157 0.17
158 0.07
-158 0.93
159 0.68
-159 0.32
160 0.05
-160 0.95
161 0.68
-161 0.32
162 0.07
-162 0.93
163 0.85
-163 0.15
164 0.24
-164 0.76
165 0.91
-165 0.09
166 0.21
-166 0.79
167 0.76
-167 0.24
168 0.36
-168 0.64
169 0.82
-169 0.18
170 0.26
-170 0.74
171 0.32
-171 0.68
172 0.70
-172 0.30
173 0.40
-173 0.60
174 0.23
-174 0.77
175 0.15
-175 0.85
176 0.11
-176 0.89
177 0.10
-177 0.90
178 0.60
-178 0.40
179 0.53
-179 0.47
180 0.72
-180 0.28
181 0.78
-181 0.22
182 0.54
-182 0.46
183 0.60
-183 0.40
184 0.20
-184 0.80
185 0.59
-185 0.41
186 0.63
-186 0.37
187 0.20
-187 0.80
188 0.22
-188 0.78
189 0.41
-189 0.59
190 0.33
-190 0.67
191 0.23
-191 0.77
192 0.87
-192 0.13
193 0.85
-193 0.15
194 0.72
-194 0.28
195 0.95
-195 0.05
196 0.91
-196 0.09
197 0.61
-197 0.39
198 0.50
-198 0.50
199 0.75
-199 0.25
200 0.33
-200 0.67
