c weights for uf200-097.cnf (vars=200)
1 0.62
-1 0.38
2 0.39
-2 0.61
3 0.54
-3 0.46
4 0.73
-4 0.27
5 0.30
-5 0.70
6 0.98
-6 0.02
7 0.94
-7 0.06
8 0.93
-8 0.07
9 0.86
-9 0.14
10 0.55
-10 0.45
11 0.48
-11 0.52
12 0.26
-12 0.74
13 0.25
-13 0.75
14 0.06
-14 0.94
15 0.91
-15 0.09
16 0.81
-16 0.19
17 0.96
-17 0.04
18 0.51
-18 0.49
19 0.68
-19 0.32
20 0.25
-20 0.75
21 0.13
-21 0.87
22 0.10
-22 0.90
23 0.83
-23 0.17
24 0.94
-24 0.06
25 0.09
-25 0.91
26 0.10
-26 0.90
27 0.87
-27 0.13
28 0.32
-28 0.68
29 0.66
-29 0.34
30 0.55
-30 0.45
31 0.37
-31 0.63
32 0.26
-32 0.74
33 0.50
-33 0.50
34 0.75
-34 0.25
35 0.95
-35 0.05
36 0.31
-36 0.69
37 0.96
-37 0.04
38 0.20
-38 0.80
39 0.26
-39 0.74
40 0.84
-40 0.16
41 0.02
-41 0.98
42 0.37
-42 0.63
43 0.33
-43 0.67
44 0.24
-44 0.76
45 0.41
-45 0.59
46 0.04
-46 0.96
47 0.33
-47 0.67
48 0.93
-48 0.07
49 0.61
-49 0.39
50 0.26
-50 0.74
51 0.58
-51 0.42
52 0.70
-52 0.30
53 0.86
-53 0.14
54 0.43
-54 0.57
55 0.16
-55 0.84
56 0.06
-56 0.94
57 0.07
-57 0.93
58 0.15
-58 0.85
59 0.87
-59 0.13
60 0.72
-60 0.28
61 0.80
-61 0.20
62 0.70
-62 0.30
63 0.54
-63 0.46
64 0.10
-64 0.90
65 0.51
-65 0.49
66 0.91
-66 0.09
67 0.65
-67 0.35
68 0.51
-68 0.49
69 0.59
-69 0.41
70 0.76
-70 0.24
71 0.96
-71 0.04
72 0.16
-72 0.84
73 0.88
-73 0.12
74 0.15
-74 0.85
75 0.53
-75 0.47
76 0.50
-76 0.50
77 0.08
-77 0.92
78 0.27
-78 0.73
79 0.33
-79 0.67
80 0.14
-80 0.86
81 0.23
-81 0.77
82 0.90
-82 0.10
83 0.63
-83 0.37
84 0.20
-84 0.80
85 0.32
-85 0.68
86 0.94
-86 0.06
87 0.23
-87 0.77
88 0.99
-88 0.01
89 0.03
-89 0.97
90 0.30
-90 0.70
91 0.17
-91 0.83
92 0.10
-92 0.90
93 0.77
-93 0.23
94 0.94
-94 0.06
95 0.55
-95 0.45
96 0.34
-96 0.66
97 0.55
-97 0.45
98 0.68
-98 0.32
99 0.93
-99 0.07
100 0.63
-100 0.37
101 0.78
-101 0.22
102 0.97
-102 0.03
103 0.35
-103 0.65
104 0.03
-104 0.97
105 0.66
-105 0.34
106 0.88
-106 0.12
107 0.12
-107 0.88
108 0.04
-108 0.96
109 0.47
-109 0.53
110 0.18
-110 0.82
111 0.06
-111 0.94
112 0.43
-112 0.57
113 0.03
-113 0.97
114 0.09
-114 0.91
115 0.56
-115 0.44
116 0.52
-116 0.48
117 0.46
-117 0.54
118 0.04
-118 0.96
119 0.72
-119 0.28
120 0.74
-120 0.26
121 0.18
-121 0.82
122 0.97
-122 0.03
123 0.13
-123 0.87
124 0.73
-124 0.27
125 0.92
-125 0.08
126 0.43
-126 0.57
127 0.35
-127 0.65
128 0.13
-128 0.87
129 0.65
-129 0.35
130 0.27
-130 0.73
131 0.53
-131 0.47
132 0.38
-132 0.62
133 0.50
-133 0.50
134 0.43
-134 0.57
135 0.75
-135 0.25
136 0.23
-136 0.77
137 0.81
-137 0.19
138 0.88
-138 0.12
139 0.91
-139 0.09
140 0.75
-140 0.25
141 0.32
-141 0.68
142 0.72
-142 0.28
143 0.96
-143 0.04
144 0.31
-144 0.69
145 0.18
-145 0.82
146 0.15
-146 0.85
147 0.44
-147 0.56
148 0.98
-148 0.02
149 0.85
-149 0.15
150 0.30
-150 0.70
151 0.82
-151 0.18
152 0.03
-152 0.97
153 0.62
-153 0.38
154 0.34
-154 0.66
155 0.02
-155 0.98
156 0.50
-156 0.50
157 0.74
-157 0.26
158 0.62
-158 0.38
159 0.21
-159 0.79
160 0.73
-160 0.27
161 0.49
-161 0.51
162 0.16
-162 0.84
163 0.24
-163 0.76
164 0.56
-164 0.44
165 0.42
-165 0.58
166 0.49
-166 0.51
167 0.41
-167 0.59
168 0.18
-168 0.82
169 0.93
-169 0.07
170 0.75
-170 0.25
171 0.74
-171 0.26
172 0.13
-172 0.87
173 0.46
-173 0.54
174 0.94
-174 0.06
175 0.40
-175 0.60
176 0.98
-176 0.02
177 0.51
-177 0.49
178 0.84
-178 0.16
179 0.70
-179 0.30
180 0.39
-180 0.61
181 0.35
-181 0.65
182 0.69
-182 0.31
183 0.40
-183 0.60
184 0.16
-184 0.84
185 0.14
-185 0.86
186 0.97
-186 0.03
187 0.95
-187 0.05
188 0.62
-188 0.38
189 0.44
-189 0.56
190 0.99
-190 0.01
191 0.85
-191 0.15
192 0.44
-192 0.56
193 0.85
-193 0.15
194 0.27
-194 0.73
195 0.62
-195 0.38
196 0.47
-196 0.53
197 0.82
-197 0.18
198 0.66
-198 0.34
199 0.58
-199 0.42
200 0.64
-200 0.36
