c weights for uf200-018.cnf (vars=200)
1 0.15
-1 0.85
2 0.66
-2 0.34
3 0.23
-3 0.77
4 0.30
-4 0.70
5 0.07
-5 0.93
6 0.94
-6 0.06
7 0.87
-7 0.13
8 0.90
-8 0.10
9 0.62
-9 0.38
10 0.43
-10 0.57
11 0.50
-11 0.50
12 0.96
-12 0.04
13 0.93
-13 0.07
14 0.67
-14 0.33
15 0.78
-15 0.22
16 0.32
-16 0.68
17 0.42
-17 0.58
18 0.16
-18 0.84
19 0.38
-19 0.62
20 0.75
-20 0.25
21 0.47
-21 0.53
22 0.84
-22 0.16
23 0.30
-23 0.70
24 0.70
-24 0.30
25 0.80
-25 0.20
26 0.91
-26 0.09
27 0.56
-27 0.44
28 0.96
-28 0.04
29 0.56
-29 0.44
30 0.14
-30 0.86
31 0.25
-31 0.75
32 0.21
-32 0.79
33 0.64
-33 0.36
34 0.91
-34 0.09
35 0.84
-35 0.16
36 0.10
-36 0.90
37 0.72
-37 0.28
38 0.20
-38 0.80
39 0.27
-39 0.73
40 0.67
-40 0.33
41 0.60
-41 0.40
42 0.87
-42 0.13
43 0.19
-43 0.81
44 0.76
-44 0.24
45 0.72
-45 0.28
46 0.56
-46 0.44
47 0.48
-47 0.52
48 0.86
-48 0.14
49 0.34
-49 0.66
50 0.95
-50 0.05
51 0.03
-51 0.97
52 0.93
-52 0.07
53 0.95
-53 0.05
54 0.12
-54 0.88
55 0.99
-55 0.01
56 0.48
-56 0.52
57 0.25
-57 0.75
58 0.60
-58 0.40
59 0.21
-59 0.79
60 0.91
-60 0.09
61 0.55
-61 0.45
62 0.77
-62 0.23
63 0.38
-63 0.62
64 0.53
-64 0.47
65 0.36
-65 0.64
66 0.27
-66 0.73
67 0.51
-67 0.49
68 0.50
-68 0.50
69 0.11
-69 0.89
70 0.97
-70 0.03
71 0.47
-71 0.53
72 0.83
-72 0.17
73 0.91
-73 0.09
74 0.37
-74 0.63
75 0.42
-75 0.58
76 0.56
-76 0.44
77 0.23
-77 0.77
78 0.15
-78 0.85
79 0.27
-79 0.73
80 0.93
-80 0.07
81 0.58
-81 0.42
82 0.42
-82 0.58
83 0.16
-83 0.84
84 0.33
-84 0.67
85 0.38
-85 0.62
86 0.83
-86 0.17
87 0.50
-87 0.50
88 0.65
-88 0.35
89 0.68
-89 0.32
90 0.26
-90 0.74
91 0.82
-91 0.18
92 0.96
-92 0.04
93 0.64
-93 0.36
94 0.49
-94 0.51
95 0.17
-95 0.83
96 0.79
-96 0.21
97 0.18
-97 0.82
98 0.72
-98 0.28
99 0.49
-99 0.51
100 0.91
-100 0.09
101 0.54
-101 0.46
102 0.64
-102 0.36
103 0.07
-103 0.93
104 0.04
-104 0.96
105 0.84
-105 0.16
106 0.94
-106 0.06
107 0.66
-107 0.34
108 0.76
-108 0.24
109 0.41
-109 0.59
110 0.84
-110 0.16
111 0.24
-111 0.76
112 0.70
-112 0.30
113 0.02
-113 0.98
114 0.51
-114 0.49
115 0.38
-115 0.62
116 0.62
-116 0.38
117 0.66
-117 0.34
118 0.61
-118 0.39
119 0.48
-119 0.52
120 0.49
-120 0.51
121 0.02
-121 0.98
122 0.55
-122 0.45
123 0.02
-123 0.98
124 0.53
-124 0.47
125 0.28
-125 0.72
126 0.97
-126 0.03
127 0.03
-127 0.97
128 0.81
-128 0.19
129 0.67
-129 0.33
130 0.80
-130 0.20
131 0.90
-131 0.10
132 0.11
-132 0.89
133 0.10
-133 0.90
134 0.16
-134 0.84
135 0.20
-135 0.80
136 0.53
-136 0.47
137 0.81
-137 0.19
138 0.27
-138 0.73
139 0.40
-139 0.60
140 0.38
-140 0.62
141 0.41
-141 0.59
142 0.56
-142 0.44
143 0.98
-143 0.02
144 0.23
-144 0.77
145 0.68
-145 0.32
146 0.84
-146 0.16
147 0.65
-147 0.35
148 0.85
-148 0.15
149 0.75
-149 0.25
150 0.10
-150 0.90
151 0.38
-151 0.62
152 0.55
-152 0.45
153 0.06
-153 0.94
154 0.02
-154 0.98
155 0.18
-155 0.82
156 0.50
-156 0.50
157 0.44
-157 0.56
158 0.78
-158 0.22
159 0.56
-159 0.44
160 0.85
-160 0.15
161 0.10
-161 0.90
162 0.53
-162 0.47
163 0.05
-163 0.95
164 0.22
-164 0.78
165 0.86
-165 0.14
166 0.88
-166 0.12
167 0.48
-167 0.52
168 0.06
-168 0.94
169 0.08
-169 0.92
170 0.92
-170 0.08
171 0.89
-171 0.11
172 0.56
-172 0.44
173 0.04
-173 0.96
174 0.92
-174 0.08
175 0.32
-175 0.68
176 0.95
-176 0.05
177 0.59
-177 0.41
178 0.75
-178 0.25
179 0.71
-179 0.29
180 0.40
-180 0.60
181 0.09
-181 0.91
182 0.17
-182 0.83
183 0.25
-183 0.75
184 0.83
-184 0.17
185 0.39
-185 0.61
186 0.89
-186 0.11
187 0.34
-187 0.66
188 0.75
-188 0.25
189 0.15
-189 0.85
190 0.98
-190 0.02
191 0.72
-191 0.28
192 0.50
-192 0.50
193 0.96
-193 0.04
194 0.06
-194 0.94
195 0.44
-195 0.56
196 0.83
-196 0.17
197 0.34
-197 0.66
198 0.76
-198 0.24
199 0.95
-199 0.05
200 0.40
-200 0.60
