c weights for uf200-090.cnf (vars=200)
1 0.65
-1 0.35
2 0.71
-2 0.29
3 0.89
-3 0.11
4 0.57
-4 0.43
5 0.28
-5 0.72
6 0.75
-6 0.25
7 0.95
-7 0.05
8 0.16
-8 0.84
9 0.80
-9 0.20
10 0.10
-10 0.90
11 0.66
-11 0.34
12 0.49
-12 0.51
13 0.88
-13 0.12
14 0.07
-14 0.93
15 0.27
-15 0.73
16 0.98
-16 0.02
17 0.31
-17 0.69
18 0.83
-18 0.17
19 0.07
-19 0.93
20 0.23
-20 0.77
21 0.79
-21 0.21
22 0.83
-22 0.17
23 0.94
-23 0.06
24 0.17
-24 0.83
25 0.81
-25 0.19
26 0.61
-26 0.39
27 0.28
-27 0.72
28 0.39
-28 0.61
29 0.19
-29 0.81
30 0.75
-30 0.25
31 0.73
-31 0.27
32 0.75
-32 0.25
33 0.75
-33 0.25
34 0.20
-34 0.80
35 0.14
-35 0.86
36 0.98
-36 0.02
37 0.62
-37 0.38
38 0.24
-38 0.76
39 0.14
-39 0.86
40 0.14
-40 0.86
41 0.40
-41 0.60
42 0.98
-42 0.02
43 0.22
-43 0.78
44 0.87
-44 0.13
45 0.24
-45 0.76
46 0.23
-46 0.77
47 0.26
-47 0.74
48 0.47
-48 0.53
49 0.08
-49 0.92
50 0.69
-50 0.31
51 0.67
-51 0.33
52 0.43
-52 0.57
53 0.46
-53 0.54
54 0.92
-54 0.08
55 0.02
-55 0.98
56 0.85
-56 0.15
57 0.15
-57 0.85
58 0.48
-58 0.52
59 0.61
-59 0.39
60 0.75
-60 0.25
61 0.32
-61 0.68
62 0.89
-62 0.11
63 0.07
-63 0.93
64 0.28
-64 0.72
65 0.37
-65 0.63
66 0.06
-66 0.94
67 0.93
-67 0.07
68 0.18
-68 0.82
69 0.24
-69 0.76
70 0.58
-70 0.42
71 0.76
-71 0.24
72 0.81
-72 0.19
73 0.18
-73 0.82
74 0.04
-74 0.96
75 0.28
-75 0.72
76 0.91
-76 0.09
77 0.79
-77 0.21
78 0.06
-78 0.94
79 0.54
-79 0.46
80 0.46
-80 0.54
81 0.94
-81 0.06
82 0.79
-82 0.21
83 0.80
-83 0.20
84 0.79
-84 0.21
85 0.91
-85 0.09
86 0.03
-86 0.97
87 0.46
-87 0.54
88 0.17
-88 0.83
89 0.17
-89 0.83
90 0.79
-90 0.21
91 0.30
-91 0.70
92 0.87
-92 0.13
93 0.07
-93 0.93
94 0.81
-94 0.19
95 0.72
-95 0.28
96 0.91
-96 0.09
97 0.26
-97 0.74
98 0.88
-98 0.12
99 0.46
-99 0.54
100 0.77
-100 0.23
101 0.11
-101 0.89
102 0.91
-102 0.09
103 0.64
-103 0.36
104 0.69
-104 0.31
105 0.32
-105 0.68
106 0.27
-106 0.73
107 0.11
-107 0.89
108 0.78
-108 0.22
109 0.60
-109 0.40
110 0.86
-110 0.14
111 0.92
-111 0.08
112 0.06
-112 0.94
113 0.36
-113 0.64
114 0.54
-114 0.46
115 0.54
-115 0.46
116 0.91
-116 0.09
117 0.16
-117 0.84
118 0.67
-118 0.33
119 0.63
-119 0.37
120 0.34
-120 0.66
121 0.86
-121 0.14
122 0.07
-122 0.93
123 0.16
-123 0.84
124 0.60
-124 0.40
125 0.80
-125 0.20
126 0.58
-126 0.42
127 0.68
-127 0.32
128 0.39
-128 0.61
129 0.75
-129 0.25
130 0.29
-130 0.71
131 0.26
-131 0.74
132 0.51
-132 0.49
133 0.73
-133 0.27
134 0.94
-134 0.06
135 0.49
-135 0.51
136 0.62
-136 0.38
137 0.45
-137 0.55
138 0.76
-138 0.24
139 0.08
-139 0.92
140 0.19
-140 0.81
141 0.14
-141 0.86
142 0.09
-142 0.91
143 0.06
-143 0.94
144 0.53
-144 0.47
145 0.96
-145 0.04
146 0.05
-146 0.95
147 0.69
-147 0.31
148 0.97
-148 0.03
149 0.55
-149 0.45
150 0.80
-150 0.20
151 0.74
-151 0.26
152 0.06
-152 0.94
153 0.91
-153 0.09
154 0.97
-154 0.03
155 0.08
-155 0.92
156 0.85
-156 0.15
157 0.86
-157 0.14
158 0.49
-158 0.51
159 0.69
-159 0.31
160 0.79
-160 0.21
161 0.92
-161 0.08
162 0.60
-162 0.40
163 0.36
-163 0.64
164 0.59
-164 0.41
165 0.62
-165 0.38
166 0.26
-166 0.74
167 0.36
-167 0.64
168 0.60
-168 0.40
169 0.73
-169 0.27
170 0.89
-170 0.11
171 0.12
-171 0.88
172 0.11
-172 0.89
173 0.18
-173 0.82
174 0.90
-174 0.10
175 0.94
-175 0.06
176 0.74
-176 0.26
177 0.25
-177 0.75
178 0.56
-178 0.44
179 0.19
-179 0.81
180 0.03
-180 0.97
181 0.85
-181 0.15
182 0.16
-182 0.84
183 0.12
-183 0.88
184 0.18
-184 0.82
185 0.68
-185 0.32
186 0.68
-186 0.32
187 0.27
-187 0.73
188 0.87
-188 0.13
189 0.38
-189 0.62
190 0.95
-190 0.05
191 0.90
-191 0.10
192 0.74
-192 0.26
193 0.01
-193 0.99
194 0.54
-194 0.46
195 0.20
-195 0.80
196 0.97
-196 0.03
197 0.30
-197 0.70
198 0.44
-198 0.56
199 0.90
-199 0.10
200 0.03
-200 0.97
