c weights for uf200-077.cnf (vars=200)
1 0.56
-1 0.44
2 0.98
-2 0.02
3 0.23
-3 0.77
4 0.60
-4 0.40
5 0.33
-5 0.67
6 0.66
-6 0.34
7 0.90
-7 0.10
8 0.65
-8 0.35
9 0.89
-9 0.11
10 0.52
-10 0.48
11 0.65
-11 0.35
12 0.56
-12 0.44
13 0.03
-13 0.97
14 0.81
-14 0.19
15 0.29
-15 0.71
16 0.01
-16 0.99
17 0.35
-17 0.65
18 0.41
-18 0.59
19 0.66
-19 0.34
20 0.97
-20 0.03
21 0.89
-21 0.11
22 0.56
-22 0.44
23 0.44
-23 0.56
24 0.04
-24 0.96
25 0.80
-25 0.20
26 0.78
-26 0.22
27 0.41
-27 0.59
28 0.76
-28 0.24
29 0.54
-29 0.46
30 0.15
-30 0.85
31 0.66
-31 0.34
32 0.10
-32 0.90
33 0.55
-33 0.45
34 0.57
-34 0.43
35 0.35
-35 0.65
36 0.63
-36 0.37
37 0.91
-37 0.09
38 0.22
-38 0.78
39 0.56
-39 0.44
40 0.80
-40 0.20
41 0.11
-41 0.89
42 0.82
-42 0.18
43 0.87
-43 0.13
44 0.76
-44 0.24
45 0.80
-45 0.20
46 0.32
-46 0.68
47 0.34
-47 0.66
48 0.92
-48 0.08
49 0.13
-49 0.87
50 0.84
-50 0.16
51 0.77
-51 0.23
52 0.40
-52 0.60
53 0.16
-53 0.84
54 0.59
-54 0.41
55 0.77
-55 0.23
56 0.84
-56 0.16
57 0.28
-57 0.72
58 0.89
-58 0.11
59 0.85
-59 0.15
60 0.83
-60 0.17
61 0.17
-61 0.83
62 0.75
-62 0.25
63 0.01
-63 0.99
64 0.66
-64 0.34
65 0.51
-65 0.49
66 0.60
-66 0.40
67 0.90
-67 0.10
68 0.39
-68 0.61
69 0.99
-69 0.01
70 0.12
-70 0.88
71 0.97
-71 0.03
72 0.39
-72 0.61
73 0.21
-73 0.79
74 0.09
-74 0.91
75 0.20
-75 0.80
76 0.61
-76 0.39
77 0.82
-77 0.18
78 0.82
-78 0.18
79 0.03
-79 0.97
80 0.94
-80 0.06
81 0.38
-81 0.62
82 0.06
-82 0.94
83 0.65
-83 0.35
84 0.09
-84 0.91
85 0.63
-85 0.37
86 0.08
-86 0.92
87 0.73
-87 0.27
88 0.06
-88 0.94
89 0.41
-89 0.59
90 0.18
-90 0.82
91 0.63
-91 0.37
92 0.20
-92 0.80
93 0.58
-93 0.42
94 0.44
-94 0.56
95 0.41
-95 0.59
96 0.15
-96 0.85
97 0.73
-97 0.27
98 0.23
-98 0.77
99 0.28
-99 0.72
100 0.03
-100 0.97
101 0.50
-101 0.50
102 0.44
-102 0.56
103 0.29
-103 0.71
104 0.17
-104 0.83
105 0.71
-105 0.29
106 0.45
-106 0.55
107 0.15
-107 0.85
108 0.41
-108 0.59
109 0.86
-109 0.14
110 0.67
-110 0.33
111 0.59
-111 0.41
112 0.35
-112 0.65
113 0.55
-113 0.45
114 0.10
-114 0.90
115 0.86
-115 0.14
116 0.72
-116 0.28
117 0.82
-117 0.18
118 0.91
-118 0.09
119 0.91
-119 0.09
120 0.97
-120 0.03
121 0.56
-121 0.44
122 0.92
-122 0.08
123 0.08
-123 0.92
124 0.77
-124 0.23
125 0.03
-125 0.97
126 0.93
-126 0.07
127 0.67
-127 0.33
128 0.27
-128 0.73
129 0.96
-129 0.04
130 0.20
-130 0.80
131 0.45
-131 0.55
132 0.10
-132 0.90
133 0.14
-133 0.86
134 0.92
-134 0.08
135 0.36
-135 0.64
136 0.92
-136 0.08
137 0.21
-137 0.79
138 0.91
-138 0.09
139 0.40
-139 0.60
140 0.47
-140 0.53
141 0.92
-141 0.08
142 0.46
-142 0.54
143 0.21
-143 0.79
144 0.99
-144 0.01
145 0.90
-145 0.10
146 0.67
-146 0.33
147 0.09
-147 0.91
148 0.17
-148 0.83
149 0.38
-149 0.62
150 0.22
-150 0.78
151 0.42
-151 0.58
152 0.82
-152 0.18
153 0.97
-153 0.03
154 0.32
-154 0.68
155 0.47
-155 0.53
156 0.55
-156 0.45
157 0.97
-157 0.03
158 0.38
-158 0.62
159 0.20
-159 0.80
160 0.45
-160 0.55
161 0.88
-161 0.12
162 0.54
-162 0.46
163 0.31
-163 0.69
164 0.59
-164 0.41
165 0.72
-165 0.28
166 0.18
-166 0.82
167 0.58
-167 0.42
168 0.06
-168 0.94
169 0.86
-169 0.14
170 0.30
-170 0.70
171 0.05
-171 0.95
172 0.81
-172 0.19
173 0.43
-173 0.57
174 0.29
-174 0.71
175 0.06
-175 0.94
176 0.45
-176 0.55
177 0.68
-177 0.32
178 0.83
-178 0.17
179 0.40
-179 0.60
180 0.53
-180 0.47
181 0.92
-181 0.08
182 0.90
-182 0.10
183 0.74
-183 0.26
184 0.50
-184 0.50
185 0.51
-185 0.49
186 0.91
-186 0.09
187 0.08
-187 0.92
188 0.83
-188 0.17
189 0.64
-189 0.36
190 0.87
-190 0.13
191 0.89
-191 0.11
192 0.59
-192 0.41
193 0.82
-193 0.18
194 0.11
-194 0.89
195 0.20
-195 0.80
196 0.52
-196 0.48
197 0.96
-197 0.04
198 0.18
-198 0.82
199 0.55
-199 0.45
200 0.73
-200 0.27
