c weights for uf200-032.cnf (vars=200)
1 0.78
-1 0.22
2 0.44
-2 0.56
3 0.78
-3 0.22
4 0.54
-4 0.46
5 0.24
-5 0.76
6 0.66
-6 0.34
7 0.09
-7 0.91
8 0.92
-8 0.08
9 0.57
-9 0.43
10 0.49
-10 0.51
11 0.59
-11 0.41
12 0.46
-12 0.54
13 0.55
-13 0.45
14 0.82
-14 0.18
15 0.18
-15 0.82
16 0.95
-16 0.05
17 0.08
-17 0.92
18 0.12
-18 0.88
19 0.81
-19 0.19
20 0.77
-20 0.23
21 0.38
-21 0.62
22 0.49
-22 0.51
23 0.66
-23 0.34
24 0.10
-24 0.90
25 0.81
-25 0.19
26 0.88
-26 0.12
27 0.90
-27 0.10
28 0.63
-28 0.37
29 0.01
-29 0.99
30 0.15
-30 0.85
31 0.16
-31 0.84
32 0.53
-32 0.47
33 0.39
-33 0.61
34 0.58
-34 0.42
35 0.20
-35 0.80
36 0.68
-36 0.32
37 0.32
-37 0.68
38 0.57
-38 0.43
39 0.90
-39 0.10
40 0.31
-40 0.69
41 0.93
-41 0.07
42 0.44
-42 0.56
43 0.97
-43 0.03
44 0.35
-44 0.65
45 0.10
-45 0.90
46 0.02
-46 0.98
47 0.98
-47 0.02
48 0.41
-48 0.59
49 0.14
-49 0.86
50 0.30
-50 0.70
51 0.37
-51 0.63
52 0.55
-52 0.45
53 0.06
-53 0.94
54 0.70
-54 0.30
55 0.81
-55 0.19
56 0.36
-56 0.64
57 0.85
-57 0.15
58 0.86
-58 0.14
59 0.24
-59 0.76
60 0.70
-60 0.30
61 0.40
-61 0.60
62 0.32
-62 0.68
63 0.39
-63 0.61
64 0.38
-64 0.62
65 0.54
-65 0.46
66 0.66
-66 0.34
67 0.48
-67 0.52
68 0.19
-68 0.81
69 0.39
-69 0.61
70 0.92
-70 0.08
71 0.83
-71 0.17
72 0.16
-72 0.84
73 0.99
-73 0.01
74 0.67
-74 0.33
75 0.14
-75 0.86
76 0.08
-76 0.92
77 0.03
-77 0.97
78 0.72
-78 0.28
79 0.49
-79 0.51
80 0.44
-80 0.56
81 0.98
-81 0.02
82 0.09
-82 0.91
83 0.64
-83 0.36
84 0.42
-84 0.58
85 0.46
-85 0.54
86 0.78
-86 0.22
87 0.60
-87 0.40
88 0.43
-88 0.57
89 0.19
-89 0.81
90 0.51
-90 0.49
91 0.55
-91 0.45
92 0.45
-92 0.55
93 0.36
-93 0.64
94 0.19
-94 0.81
95 0.60
-95 0.40
96 0.58
-96 0.42
97 0.84
-97 0.16
98 0.24
-98 0.76
99 0.50
-99 0.50
100 0.41
-100 0.59
101 0.55
-101 0.45
102 0.37
-102 0.63
103 0.97
-103 0.03
104 0.57
-104 0.43
105 0.70
-105 0.30
106 0.12
-106 0.88
107 0.48
-107 0.52
108 0.69
-108 0.31
109 0.15
-109 0.85
110 0.73
-110 0.27
111 0.97
-111 0.03
112 0.97
-112 0.03
113 0.77
-113 0.23
114 0.47
-114 0.53
115 0.09
-115 0.91
116 0.88
-116 0.12
117 0.10
-117 0.90
118 0.47
-118 0.53
119 0.74
-119 0.26
120 0.95
-120 0.05
121 0.09
-121 0.91
122 0.63
-122 0.37
123 0.79
-123 0.21
124 0.32
-124 0.68
125 0.06
-125 0.94
126 0.35
-126 0.65
127 0.77
-127 0.23
128 0.47
-128 0.53
129 0.51
-129 0.49
130 0.47
-130 0.53
131 0.73
-131 0.27
132 0.42
-132 0.58
133 0.95
-133 0.05
134 0.79
-134 0.21
135 0.29
-135 0.71
136 0.04
-136 0.96
137 0.91
-137 0.09
138 0.74
-138 0.26
139 0.72
-139 0.28
140 0.56
-140 0.44
141 0.07
-141 0.93
142 0.47
-142 0.53
143 0.18
-143 0.82
144 0.06
-144 0.94
145 0.98
-145 0.02
146 0.80
-146 0.20
147 0.62
-147 0.38
148 0.29
-148 0.71
149 0.09
-149 0.91
150 0.51
-150 0.49
151 0.84
-151 0.16
152 0.28
-152 0.72
153 0.14
-153 0.86
154 0.29
-154 0.71
155 0.85
-155 0.15
156 0.02
-156 0.98
157 0.12
-157 0.88
158 0.18
-158 0.82
159 0.59
-159 0.41
160 0.16
-160 0.84
161 0.45
-161 0.55
162 0.80
-162 0.20
163 0.27
-163 0.73
164 0.70
-164 0.30
165 0.49
-165 0.51
166 0.79
-166 0.21
167 0.85
-167 0.15
168 0.35
-168 0.65
169 0.09
-169 0.91
170 0.15
-170 0.85
171 0.93
-171 0.07
172 0.16
-172 0.84
173 0.50
-173 0.50
174 0.98
-174 0.02
175 0.76
-175 0.24
176 0.24
-176 0.76
177 0.44
-177 0.56
178 0.63
-178 0.37
179 0.22
-179 0.78
180 0.73
-180 0.27
181 0.35
-181 0.65
182 0.64
-182 0.36
183 0.75
-183 0.25
184 0.12
-184 0.88
185 0.17
-185 0.83
186 0.40
-186 0.60
187 0.31
-187 0.69
188 0.74
-188 0.26
189 0.75
-189 0.25
190 0.53
-190 0.47
191 0.38
-191 0.62
192 0.70
-192 0.30
193 0.48
-193 0.52
194 0.15
-194 0.85
195 0.86
-195 0.14
196 0.02
-196 0.98
197 0.92
-197 0.08
198 0.45
-198 0.55
199 0.67
-199 0.33
200 0.95
-200 0.05
