c weights for uf200-069.cnf (vars=200)
1 0.38
-1 0.62
2 0.93
-2 0.07
3 0.52
-3 0.48
4 0.81
-4 0.19
5 0.22
-5 0.78
6 0.35
-6 0.65
7 0.41
-7 0.59
8 0.75
-8 0.25
9 0.11
-9 0.89
10 0.64
-10 0.36
11 0.45
-11 0.55
12 0.83
-12 0.17
13 0.89
-13 0.11
14 0.19
-14 0.81
15 0.01
-15 0.99
16 0.79
-16 0.21
17 0.50
-17 0.50
18 0.12
-18 0.88
19 0.15
-19 0.85
20 0.08
-20 0.92
21 0.94
-21 0.06
22 0.25
-22 0.75
23 0.41
-23 0.59
24 0.82
-24 0.18
25 0.54
-25 0.46
26 0.10
-26 0.90
27 0.81
-27 0.19
28 0.03
-28 0.97
29 0.04
-29 0.96
30 0.13
-30 0.87
31 0.19
-31 0.81
32 0.77
-32 0.23
33 0.08
-33 0.92
34 0.26
-34 0.74
35 0.94
-35 0.06
36 0.42
-36 0.58
37 0.36
-37 0.64
38 0.40
-38 0.60
39 0.69
-39 0.31
40 0.30
-40 0.70
41 0.39
-41 0.61
42 0.21
-42 0.79
43 0.43
-43 0.57
44 0.59
-44 0.41
45 0.48
-45 0.52
46 0.61
-46 0.39
47 0.05
-47 0.95
48 0.49
-48 0.51
49 0.04
-49 0.96
50 0.32
-50 0.68
51 0.04
-51 0.96
52 0.70
-52 0.30
53 0.85
-53 0.15
54 0.39
-54 0.61
55 0.54
-55 0.46
56 0.11
-56 0.89
57 0.68
-57 0.32
58 0.62
-58 0.38
59 0.35
-59 0.65
60 0.96
-60 0.04
61 0.49
-61 0.51
62 0.04
-62 0.96
63 0.05
-63 0.95
64 0.49
-64 0.51
65 0.90
-65 0.10
66 0.48
-66 0.52
67 0.54
-67 0.46
68 0.09
-68 0.91
69 0.72
-69 0.28
70 0.71
-70 0.29
71 0.91
-71 0.09
72 0.46
-72 0.54
73 0.74
-73 0.26
74 0.25
-74 0.75
75 0.97
-75 0.03
76 0.04
-76 0.96
77 0.31
-77 0.69
78 0.77
-78 0.23
79 0.85
-79 0.15
80 0.22
-80 0.78
81 0.41
-81 0.59
82 0.02
-82 0.98
83 0.14
-83 0.86
84 0.86
-84 0.14
85 0.78
-85 0.22
86 0.93
-86 0.07
87 0.45
-87 0.55
88 0.50
-88 0.50
89 0.46
-89 0.54
90 0.69
-90 0.31
91 0.39
-91 0.61
92 0.92
-92 0.08
93 0.65
-93 0.35
94 0.06
-94 0.94
95 0.58
-95 0.42
96 0.69
-96 0.31
97 0.49
-97 0.51
98 0.89
-98 0.11
99 0.30
-99 0.70
100 0.17
-100 0.83
101 0.29
-101 0.71
102 0.33
-102 0.67
103 0.12
-103 0.88
104 0.16
-104 0.84
105 0.83
-105 0.17
106 0.21
-106 0.79
107 0.49
-107 0.51
108 0.02
-108 0.98
109 0.77
-109 0.23
110 0.80
-110 0.20
111 0.90
-111 0.10
112 0.77
-112 0.23
113 0.05
-113 0.95
114 0.19
-114 0.81
115 0.34
-115 0.66
116 0.68
-116 0.32
117 0.84
-117 0.16
118 0.23
-118 0.77
119 0.45
-119 0.55
120 0.70
-120 0.30
121 0.90
-121 0.10
122 0.11
-122 0.89
123 0.15
-123 0.85
124 0.74
-124 0.26
125 0.94
-125 0.06
126 0.56
-126 0.44
127 0.44
-127 0.56
128 0.37
-128 0.63
129 0.69
-129 0.31
130 0.03
-130 0.97
131 0.52
-131 0.48
132 0.69
-132 0.31
133 0.63
-133 0.37
134 0.11
-134 0.89
135 0.47
-135 0.53
136 0.28
-136 0.72
137 0.56
-137 0.44
138 0.42
-138 0.58
139 0.07
-139 0.93
140 0.27
-140 0.73
141 0.94
-141 0.06
142 0.36
-142 0.64
143 0.40
-143 0.60
144 0.91
-144 0.09
145 0.90
-145 0.10
146 0.87
-146 0.13
147 0.13
-147 0.87
148 0.17
-148 0.83
149 0.57
-149 0.43
150 0.66
-150 0.34
151 0.45
-151 0.55
152 0.99
-152 0.01
153 0.38
-153 0.62
154 0.27
-154 0.73
155 0.08
-155 0.92
156 0.78
-156 0.22
157 0.19
-157 0.81
158 0.41
-158 0.59
159 0.56
-159 0.44
160 0.24
-160 0.76
161 0.15
-161 0.85
162 0.14
-162 0.86
163 0.70
-163 0.30
164 0.02
-164 0.98
165 0.07
-165 0.93
166 0.78
-166 0.22
167 0.12
-167 0.88
168 0.66
-168 0.34
169 0.58
-169 0.42
170 0.02
-170 0.98
171 0.87
-171 0.13
172 0.14
-172 0.86
173 0.91
-173 0.09
174 0.85
-174 0.15
175 0.80
-175 0.20
176 0.19
-176 0.81
177 0.48
-177 0.52
178 0.48
-178 0.52
179 0.11
-179 0.89
180 0.39
-180 0.61
181 0.63
-181 0.37
182 0.54
-182 0.46
183 0.80
-183 0.20
184 0.15
-184 0.85
185 0.13
-185 0.87
186 0.51
-186 0.49
187 0.85
-187 0.15
188 0.08
-188 0.92
189 0.51
-189 0.49
190 0.98
-190 0.02
191 0.56
-191 0.44
192 0.25
-192 0.75
193 0.75
-193 0.25
194 0.83
-194 0.17
195 0.36
-195 0.64
196 0.23
-196 0.77
197 0.27
-197 0.73
198 0.07
-198 0.93
199 0.43
-199 0.57
200 0.86
-200 0.14
