c weights for uf200-062.cnf (vars=200)
1 0.75
-1 0.25
2 0.14
-2 0.86
3 0.42
-3 0.58
4 0.66
-4 0.34
5 0.58
-5 0.42
6 0.93
-6 0.07
7 0.04
-7 0.96
8 0.90
-8 0.10
9 0.39
-9 0.61
10 0.06
-10 0.94
11 0.20
-11 0.80
12 0.19
-12 0.81
13 0.15
-13 0.85
14 0.04
-14 0.96
15 0.79
-15 0.21
16 0.17
-16 0.83
17 0.33
-17 0.67
18 0.57
-18 0.43
19 0.48
-19 0.52
20 0.35
-20 0.65
21 0.63
-21 0.37
22 0.81
-22 0.19
23 0.58
-23 0.42
24 0.45
-24 0.55
25 0.22
-25 0.78
26 0.62
-26 0.38
27 0.54
-27 0.46
28 0.13
-28 0.87
29 0.28
-29 0.72
30 0.76
-30 0.24
31 0.92
-31 0.08
32 0.34
-32 0.66
33 0.88
-33 0.12
34 0.26
-34 0.74
35 0.80
-35 0.20
36 0.49
-36 0.51
37 0.55
-37 0.45
38 0.66
-38 0.34
39 0.66
-39 0.34
40 0.35
-40 0.65
41 0.52
-41 0.48
42 0.07
-42 0.93
43 0.37
-43 0.63
44 0.64
-44 0.36
45 0.96
-45 0.04
46 0.13
-46 0.87
47 0.23
-47 0.77
48 0.46
-48 0.54
49 0.12
-49 0.88
50 0.55
-50 0.45
51 0.30
-51 0.70
52 0.87
-52 0.13
53 0.31
-53 0.69
54 0.44
-54 0.56
55 0.97
-55 0.03
56 0.09
-56 0.91
57 0.86
-57 0.14
58 0.50
-58 0.50
59 0.40
-59 0.60
60 0.93
-60 0.07
61 0.99
-61 0.01
62 0.20
-62 0.80
63 0.83
-63 0.17
64 0.23
-64 0.77
65 0.03
-65 0.97
66 0.73
-66 0.27
67 0.36
-67 0.64
68 0.60
-68 0.40
69 0.16
-69 0.84
70 0.85
-70 0.15
71 0.52
-71 0.48
72 0.79
-72 0.21
73 0.37
-73 0.63
74 0.24
-74 0.76
75 0.94
-75 0.06
76 0.53
-76 0.47
77 0.38
-77 0.62
78 0.11
-78 0.89
79 0.17
-79 0.83
80 0.63
-80 0.37
81 0.62
-81 0.38
82 0.84
-82 0.16
83 0.75
-83 0.25
84 0.16
-84 0.84
85 0.93
-85 0.07
86 0.61
-86 0.39
87 0.85
-87 0.15
88 0.28
-88 0.72
89 0.95
-89 0.05
90 0.94
-90 0.06
91 0.30
-91 0.70
92 0.89
-92 0.11
93 0.96
-93 0.04
94 0.89
-94 0.11
95 0.47
-95 0.53
96 0.14
-96 0.86
97 0.93
-97 0.07
98 0.01
-98 0.99
99 0.26
-99 0.74
100 0.55
-100 0.45
101 0.32
-101 0.68
102 0.91
-102 0.09
103 0.61
-103 0.39
104 0.95
-104 0.05
105 0.07
-105 0.93
106 0.41
-106 0.59
107 0.15
-107 0.85
108 0.82
-108 0.18
109 0.76
-109 0.24
110 0.80
-110 0.20
111 0.94
-111 0.06
112 0.25
-112 0.75
113 0.78
-113 0.22
114 0.64
-114 0.36
115 0.39
-115 0.61
116 0.20
-116 0.80
117 0.83
-117 0.17
118 0.08
-118 0.92
119 0.95
-119 0.05
120 0.28
-120 0.72
121 0.88
-121 0.12
122 0.13
-122 0.87
123 0.73
-123 0.27
124 0.94
-124 0.06
125 0.16
-125 0.84
126 0.44
-126 0.56
127 0.67
-127 0.33
128 0.76
-128 0.24
129 0.02
-129 0.98
130 0.12
-130 0.88
131 0.31
-131 0.69
132 0.11
-132 0.89
133 0.63
-133 0.37
134 0.47
-134 0.53
135 0.66
-135 0.34
136 0.30
-136 0.70
137 0.13
-137 0.87
138 0.74
-138 0.26
139 0.46
-139 0.54
140 0.08
-140 0.92
141 0.97
-141 0.03
142 0.90
-142 0.10
143 0.34
-143 0.66
144 0.28
-144 0.72
145 0.98
-145 0.02
146 0.38
-146 0.62
147 0.88
-147 0.12
148 0.12
-148 0.88
149 0.47
-149 0.53
150 0.58
-150 0.42
151 0.87
-151 0.13
152 0.69
-152 0.31
153 0.79
-153 0.21
154 0.75
-154 0.25
155 0.23
-155 0.77
156 0.11
-156 0.89
157 0.99
-157 0.01
158 0.60
-158 0.40
159 0.60
-159 0.40
160 0.37
-160 0.63
161 0.86
-161 0.14
162 0.66
-162 0.34
163 0.83
-163 0.17
164 0.95
-164 0.05
165 0.42
-165 0.58
166 0.64
-166 0.36
167 0.86
-167 0.14
168 0.28
-168 0.72
169 0.72
-169 0.28
170 0.28
-170 0.72
171 0.26
-171 0.74
172 0.51
-172 0.49
173 0.42
-173 0.58
174 0.83
-174 0.17
175 0.97
-175 0.03
176 0.09
-176 0.91
177 0.11
-177 0.89
178 0.80
-178 0.20
179 0.25
-179 0.75
180 0.50
-180 0.50
181 0.59
-181 0.41
182 0.66
-182 0.34
183 0.11
-183 0.89
184 0.78
-184 0.22
185 0.70
-185 0.30
186 0.56
-186 0.44
187 0.83
-187 0.17
188 0.38
-188 0.62
189 0.52
-189 0.48
190 0.92
-190 0.08
191 0.38
-191 0.62
192 0.60
-192 0.40
193 0.59
-193 0.41
194 0.79
-194 0.21
195 0.94
-195 0.06
196 0.57
-196 0.43
197 0.13
-197 0.87
198 0.76
-198 0.24
199 0.36
-199 0.64
200 0.67
-200 0.33
