c weights for uf200-049.cnf (vars=200)
1 0.90
-1 0.10
2 0.03
-2 0.97
3 0.43
-3 0.57
4 0.15
-4 0.85
5 0.65
-5 0.35
6 0.23
-6 0.77
7 0.87
-7 0.13
8 0.39
-8 0.61
9 0.88
-9 0.12
10 0.82
-10 0.18
11 0.12
-11 0.88
12 0.18
-12 0.82
13 0.12
-13 0.88
14 0.11
-14 0.89
15 0.95
-15 0.05
16 0.36
-16 0.64
17 0.61
-17 0.39
18 0.13
-18 0.87
19 0.91
-19 0.09
20 0.91
-20 0.09
21 0.89
-21 0.11
22 0.60
-22 0.40
23 0.18
-23 0.82
24 0.53
-24 0.47
25 0.60
-25 0.40
26 0.68
-26 0.32
27 0.16
-27 0.84
28 0.66
-28 0.34
29 0.31
-29 0.69
30 0.81
-30 0.19
31 0.35
-31 0.65
32 0.11
-32 0.89
33 0.91
-33 0.09
34 0.66
-34 0.34
35 0.92
-35 0.08
36 0.80
-36 0.20
37 0.71
-37 0.29
38 0.08
-38 0.92
39 0.01
-39 0.99
40 0.92
-40 0.08
41 0.16
-41 0.84
42 0.65
-42 0.35
43 0.32
-43 0.68
44 0.39
-44 0.61
45 0.72
-45 0.28
46 0.78
-46 0.22
47 0.48
-47 0.52
48 0.08
-48 0.92
49 0.58
-49 0.42
50 0.95
-50 0.05
51 0.28
-51 0.72
52 0.10
-52 0.90
53 0.98
-53 0.02
54 0.19
-54 0.81
55 0.39
-55 0.61
56 0.32
-56 0.68
57 0.43
-57 0.57
58 0.69
-58 0.31
59 0.42
-59 0.58
60 0.79
-60 0.21
61 0.34
-61 0.66
62 0.80
-62 0.20
63 0.65
-63 0.35
64 0.25
-64 0.75
65 0.42
-65 0.58
66 0.50
-66 0.50
67 0.53
-67 0.47
68 0.53
-68 0.47
69 0.81
-69 0.19
70 0.39
-70 0.61
71 0.58
-71 0.42
72 0.42
-72 0.58
73 0.58
-73 0.42
74 0.69
-74 0.31
75 0.74
-75 0.26
76 0.70
-76 0.30
77 0.24
-77 0.76
78 0.01
-78 0.99
79 0.98
-79 0.02
80 0.03
-80 0.97
81 0.56
-81 0.44
82 0.95
-82 0.05
83 0.91
-83 0.09
84 0.07
-84 0.93
85 0.35
-85 0.65
86 0.84
-86 0.16
87 0.86
-87 0.14
88 0.81
-88 0.19
89 0.30
-89 0.70
90 0.15
-90 0.85
91 0.85
-91 0.15
92 0.96
-92 0.04
93 0.90
-93 0.10
94 0.25
-94 0.75
95 0.82
-95 0.18
96 0.06
-96 0.94
97 0.15
-97 0.85
98 0.95
-98 0.05
99 0.70
-99 0.30
100 0.38
-100 0.62
101 0.04
-101 0.96
102 0.96
-102 0.04
103 0.37
-103 0.63
104 0.70
-104 0.30
105 0.66
-105 0.34
106 0.08
-106 0.92
107 0.83
-107 0.17
108 0.86
-108 0.14
109 0.04
-109 0.96
110 0.37
-110 0.63
111 0.09
-111 0.91
112 0.09
-112 0.91
113 0.57
-113 0.43
114 0.81
-114 0.19
115 0.16
-115 0.84
116 0.19
-116 0.81
117 0.74
-117 0.26
118 0.74
-118 0.26
119 0.69
-119 0.31
120 0.30
-120 0.70
121 0.41
-121 0.59
122 0.34
-122 0.66
123 0.78
-123 0.22
124 0.69
-124 0.31
125 0.29
-125 0.71
126 0.16
-126 0.84
127 0.87
-127 0.13
128 0.04
-128 0.96
129 0.75
-129 0.25
130 0.50
-130 0.50
131 0.02
-131 0.98
132 0.83
-132 0.17
133 0.68
-133 0.32
134 0.87
-134 0.13
135 0.55
-135 0.45
136 0.82
-136 0.18
137 0.91
-137 0.09
138 0.50
-138 0.50
139 0.71
-139 0.29
140 0.43
-140 0.57
141 0.16
-141 0.84
142 0.96
-142 0.04
143 0.52
-143 0.48
144 0.97
-144 0.03
145 0.13
-145 0.87
146 0.22
-146 0.78
147 0.62
-147 0.38
148 0.22
-148 0.78
149 0.19
-149 0.81
150 0.74
-150 0.26
151 0.56
-151 0.44
152 0.83
-152 0.17
153 0.81
-153 0.19
154 0.47
-154 0.53
155 0.32
-155 0.68
156 0.64
-156 0.36
157 0.82
-157 0.18
158 0.17
-158 0.83
159 0.80
-159 0.20
160 0.64
-160 0.36
161 0.20
-161 0.80
162 0.12
-162 0.88
163 0.09
-163 0.91
164 0.60
-164 0.40
165 0.84
-165 0.16
166 0.04
-166 0.96
167 0.29
-167 0.71
168 0.54
-168 0.46
169 0.07
-169 0.93
170 0.60
-170 0.40
171 0.75
-171 0.25
172 0.31
-172 0.69
173 0.55
-173 0.45
174 0.64
-174 0.36
175 0.04
-175 0.96
176 0.27
-176 0.73
177 0.97
-177 0.03
178 0.56
-178 0.44
179 0.56
-179 0.44
180 0.78
-180 0.22
181 0.05
-181 0.95
182 0.32
-182 0.68
183 0.93
-183 0.07
184 0.02
-184 0.98
185 0.36
-185 0.64
186 0.29
-186 0.71
187 0.40
-187 0.60
188 0.20
-188 0.80
189 0.75
-189 0.25
190 0.72
-190 0.28
191 0.96
-191 0.04
192 0.70
-192 0.30
193 0.11
-193 0.89
194 0.41
-194 0.59
195 0.74
-195 0.26
196 0.11
-196 0.89
197 0.80
-197 0.20
198 0.16
-198 0.84
199 0.59
-199 0.41
200 0.38
-200 0.62
