c weights for uf200-010.cnf (vars=200)
1 0.96
-1 0.04
2 0.92
-2 0.08
3 0.84
-3 0.16
4 0.17
-4 0.83
5 0.49
-5 0.51
6 0.22
-6 0.78
7 0.40
-7 0.60
8 0.07
-8 0.93
9 0.38
-9 0.62
10 0.98
-10 0.02
11 0.27
-11 0.73
12 0.78
-12 0.22
13 0.46
-13 0.54
14 0.42
-14 0.58
15 0.95
-15 0.05
16 0.99
-16 0.01
17 0.55
-17 0.45
18 0.71
-18 0.29
19 0.16
-19 0.84
20 0.30
-20 0.70
21 0.96
-21 0.04
22 0.58
-22 0.42
23 0.54
-23 0.46
24 0.74
-24 0.26
25 0.07
-25 0.93
26 0.58
-26 0.42
27 0.50
-27 0.50
28 0.85
-28 0.15
29 0.16
-29 0.84
30 0.95
-30 0.05
31 0.09
-31 0.91
32 0.19
-32 0.81
33 0.59
-33 0.41
34 0.67
-34 0.33
35 0.24
-35 0.76
36 0.13
-36 0.87
37 0.88
-37 0.12
38 0.25
-38 0.75
39 0.59
-39 0.41
40 0.62
-40 0.38
41 0.42
-41 0.58
42 0.58
-42 0.42
43 0.52
-43 0.48
44 0.93
-44 0.07
45 0.21
-45 0.79
46 0.71
-46 0.29
47 0.24
-47 0.76
48 0.40
-48 0.60
49 0.67
-49 0.33
50 0.30
-50 0.70
51 0.32
-51 0.68
52 0.75
-52 0.25
53 0.08
-53 0.92
54 0.46
-54 0.54
55 0.99
-55 0.01
56 0.99
-56 0.01
57 0.08
-57 0.92
58 0.22
-58 0.78
59 0.27
-59 0.73
60 0.92
-60 0.08
61 0.87
-61 0.13
62 0.87
-62 0.13
63 0.37
-63 0.63
64 0.16
-64 0.84
65 0.83
-65 0.17
66 0.70
-66 0.30
67 0.61
-67 0.39
68 0.98
-68 0.02
69 0.65
-69 0.35
70 0.02
-70 0.98
71 0.81
-71 0.19
72 0.30
-72 0.70
73 0.66
-73 0.34
74 0.93
-74 0.07
75 0.14
-75 0.86
76 0.12
-76 0.88
77 0.11
-77 0.89
78 0.55
-78 0.45
79 0.28
-79 0.72
80 0.60
-80 0.40
81 0.71
-81 0.29
82 0.21
-82 0.79
83 0.63
-83 0.37
84 0.27
-84 0.73
85 0.49
-85 0.51
86 0.90
-86 0.10
87 0.84
-87 0.16
88 0.10
-88 0.90
89 0.43
-89 0.57
90 0.28
-90 0.72
91 0.01
-91 0.99
92 0.77
-92 0.23
93 0.63
-93 0.37
94 0.27
-94 0.73
95 0.74
-95 0.26
96 0.55
-96 0.45
97 0.43
-97 0.57
98 0.02
-98 0.98
99 0.08
-99 0.92
100 0.88
-100 0.12
101 0.90
-101 0.10
102 0.54
-102 0.46
103 0.83
-103 0.17
104 0.58
-104 0.42
105 0.16
-105 0.84
106 0.13
-106 0.87
107 0.31
-107 0.69
108 0.89
-108 0.11
109 0.79
-109 0.21
110 0.85
-110 0.15
111 0.89
-111 0.11
112 0.22
-112 0.78
113 0.25
-113 0.75
114 0.11
-114 0.89
115 0.77
-115 0.23
116 0.88
-116 0.12
117 0.41
-117 0.59
118 0.62
-118 0.38
119 0.16
-119 0.84
120 0.92
-120 0.08
121 0.86
-121 0.14
122 0.97
-122 0.03
123 0.80
-123 0.20
124 0.87
-124 0.13
125 0.03
-125 0.97
126 0.73
-126 0.27
127 0.34
-127 0.66
128 0.92
-128 0.08
129 0.80
-129 0.20
130 0.86
-130 0.14
131 0.80
-131 0.20
132 0.27
-132 0.73
133 0.78
-133 0.22
134 0.12
-134 0.88
135 0.86
-135 0.14
136 0.85
-136 0.15
137 0.23
-137 0.77
138 0.81
-138 0.19
139 0.46
-139 0.54
140 0.31
-140 0.69
141 0.79
-141 0.21
142 0.23
-142 0.77
143 0.03
-143 0.97
144 0.20
-144 0.80
145 0.33
-145 0.67
146 0.86
-146 0.14
147 0.96
-147 0.04
148 0.28
-148 0.72
149 0.64
-149 0.36
150 0.40
-150 0.60
151 0.97
-151 0.03
152 0.54
-152 0.46
153 0.93
-153 0.07
154 0.12
-154 0.88
155 0.96
-155 0.04
156 0.18
-156 0.82
157 0.95
-157 0.05
158 0.27
-158 0.73
159 0.12
-159 0.88
160 0.44
-160 0.56
161 0.72
-161 0.28
162 0.32
-162 0.68
163 0.60
-163 0.40
164 0.51
-164 0.49
165 0.39
-165 0.61
166 0.58
-166 0.42
167 0.26
-167 0.74
168 0.70
-168 0.30
169 0.01
-169 0.99
170 0.92
-170 0.08
171 0.54
-171 0.46
172 0.72
-172 0.28
173 0.74
-173 0.26
174 0.67
-174 0.33
175 0.37
-175 0.63
176 0.08
-176 0.92
177 0.66
-177 0.34
178 0.33
-178 0.67
179 0.32
-179 0.68
180 0.84
-180 0.16
181 0.72
-181 0.28
182 0.30
-182 0.70
183 0.31
-183 0.69
184 0.41
-184 0.59
185 0.40
-185 0.60
186 0.30
-186 0.70
187 0.13
-187 0.87
188 0.42
-188 0.58
189 0.93
-189 0.07
190 0.67
-190 0.33
191 0.89
-191 0.11
192 0.61
-192 0.39
193 0.30
-193 0.70
194 0.55
-194 0.45
195 0.01
-195 0.99
196 0.29
-196 0.71
197 0.43
-197 0.57
198 0.58
-198 0.42
199 0.65
-199 0.35
200 0.47
-200 0.53
